<?xml version="1.0"?>
<opencv_storage>
<opencv_ml_ann_mlp>
  <format>3</format>
  <layer_sizes>
    140 140 70 35 2</layer_sizes>
  <activation_function>SIGMOID_SYM</activation_function>
  <f_param1>1.</f_param1>
  <f_param2>1.</f_param2>
  <min_val>-9.4999999999999996e-01</min_val>
  <max_val>9.4999999999999996e-01</max_val>
  <min_val1>-9.7999999999999998e-01</min_val1>
  <max_val1>9.7999999999999998e-01</max_val1>
  <training_params>
    <train_method>BACKPROP</train_method>
    <dw_scale>1.0000000000000000e-03</dw_scale>
    <moment_scale>1.0000000000000001e-01</moment_scale>
    <term_criteria>
      <epsilon>1.0000000000000000e-04</epsilon>
      <iterations>10000</iterations></term_criteria></training_params>
  <input_scale>
    1.1039605312621116e+01 -1.3114827184313682e+00
    2.7211325707450815e+01 -2.5787283859237633e+01
    8.4324671998770988e+00 -6.7329054567560735e+00
    5.1305195519742863e-01 -1.1104256642385482e+00
    9.2525553784478091e-04 -4.7251195392527618e+00
    1.6024641653073755e-03 -1.0171450075578503e+00
    3.9619819688997155e-03 -9.9899599603014677e-01
    8.7106030407080714e-03 -1.0882270965269236e+00
    1.4629994103366295e-02 -1.1029210222884687e+00
    1.9591044729546689e-02 -1.0207185178939022e+00
    2.6502367967578266e-02 -9.7469477163181906e-01
    3.3121792560897693e-02 -9.1098425034198938e-01
    4.5240738795361092e-02 -8.8748741494834660e-01
    4.6811623754078921e-02 -8.3541582322471464e-01
    6.4691626433183283e-02 -8.4701597496392600e-01
    8.0879076662991961e-02 -8.1161541424329542e-01
    1.0376938825860313e-01 -7.8533736096528395e-01
    1.2041334631226749e-01 -7.7196309446060196e-01
    1.4097304907739003e-01 -7.2373823798753201e-01
    1.7592362763781308e-01 -7.1168172996670609e-01
    2.5893688422112848e-01 -5.9353518629965307e-01
    4.5202513284055706e-01 -6.6514524785851470e-01
    4.7722192764087629e-01 -4.8388859019232044e-01
    9.7348376480201215e-01 -4.6804283453228290e-01
    1.0171487082974424e+00 -3.8601918382417488e-01
    1.7707463770530816e+00 -2.4942993204123734e-01
    6.3158350095002396e+00 -1.4705087332945843e-01
    9.8211523091610058e+00 -1.0289915108550531e-01
    6.4753240513995145e+00 -1.5830245061628617e-01
    2.9325776468853565e+01 -3.4139437099945942e-02 1. 0. 1. 0. 1. 0. 1.
    0. 1. 0. 1. 0. 1.1828943090275257e+00 -6.0056228118747992e+00
    1.8838974132949613e+01 -9.4276369275906866e+00 1. 0. 1. 0. 1. 0.
    1.0410782905480877e+01 -9.6957233112743901e-02
    4.6253709308754773e+00 -1.4538418525452607e-01
    2.9424949287906832e-01 -5.7548212809875994e-02
    5.9733474782119822e-02 -6.9468849019019452e-02
    6.3754825795530688e-03 -8.2599238216351692e-02
    5.7020274948400996e-03 -1.2458830506478909e-01
    4.9892978959596140e-03 -1.7622850693982614e-01
    5.4823459705717042e-03 -2.4622690051764418e-01
    3.3058043254935673e-03 -3.3064970435128788e-01
    1.7622936408214392e-03 -4.3491109303578218e-01
    1.3772520317788493e-03 -6.0456554234561410e-01
    9.6140458053079424e-04 -7.2734229725840127e-01
    9.6064810114083381e-04 -9.6186708417953404e-01
    7.7389573781012845e-04 -1.0406104801849823e+00
    9.6377008026992566e-04 -9.4232479352454812e-01
    1.0225058851149162e-03 -6.5021018296567690e-01
    1.8996283926018597e-03 -4.6721128114667626e-01
    2.1042958392058068e-03 -3.0689648246782802e-01
    5.3500032872627282e-03 -3.1949297861467224e-01
    1.5226221414127331e-02 -5.5656359276156464e-01
    2.8829039353401403e-02 -8.5752128581927733e-01
    2.9664131941750171e-02 -8.7417675899122682e-01
    2.2487183587484885e-02 -7.9356982918628272e-01
    2.1211790598433498e-02 -7.6001919794946016e-01
    3.3127312394291841e-02 -8.0265279727869165e-01
    3.7282255982692337e-02 -8.1365594052099321e-01
    3.0125145308593195e-02 -7.6438610843550314e-01
    1.8649360163533555e-02 -6.8012631646451183e-01
    8.5609112581308180e-03 -4.7425853788203870e-01
    1.1438574096685240e+01 -1.1753945739864089e+00
    1.4023805272421916e+01 -1.2478051915422554e+01
    6.3792642816981049e+00 -4.5951302964149230e+00
    2.2820245782032983e-01 -1.1137941987075894e+00
    2.7376174944469664e-03 -3.0475100582508539e+00
    5.9180456265357029e-03 -1.2160998158481677e+00
    1.0138919356266762e-02 -9.4604733904946858e-01
    1.7015727187721506e-02 -9.1621470269346084e-01
    2.8639613002366050e-02 -9.6911249259577870e-01
    5.0429162783441749e-02 -1.0625935347849773e+00
    6.7733507028771470e-02 -1.0089059632516075e+00
    8.4881678197560081e-02 -9.3834274291505293e-01
    8.5543467275444651e-02 -8.7415664230949142e-01
    1.0115346905189551e-01 -8.6257178207815433e-01
    1.2638223261449560e-01 -8.3421101155318989e-01
    1.4375413232544768e-01 -7.8487413341833479e-01
    1.7736261242284326e-01 -8.4262726577138913e-01
    1.8317292240683899e-01 -7.6467764813844552e-01
    2.0299838756594205e-01 -7.2337376523789132e-01
    2.3324976068625350e-01 -6.9676238174729510e-01
    3.0510394950237507e-01 -6.4004344237867272e-01
    3.5481645002342077e-01 -6.1215131424296809e-01
    4.3017213133278598e-01 -5.9292643014903212e-01
    7.2263809688898517e-01 -5.2073688239148053e-01
    7.9104514616651500e-01 -3.9414123697237302e-01
    1.1297019668393979e+00 -3.6955326272627564e-01
    2.0240865234813934e+00 -3.6758730810605050e-01
    5.3616338025718813e+00 -1.9349318728722739e-01
    6.6312772451666193e+00 -1.5439527928210989e-01
    6.1947831316906496e+00 -1.6586730154701390e-01
    2.9325776468853565e+01 -3.4139437099945942e-02 1. 0. 1. 0. 1. 0. 1.
    0. 1. 0. 1.2121149878449928e+00 -6.0948538963204912e+00
    1.8945399925246658e+01 -9.5034305403974901e+00 1. 0. 1. 0. 1. 0. 1.
    0. 1. 0. 1.2703681719348241e+00 -3.6972298368301050e-02
    2.5185184369581043e-01 -6.5088602212421312e-02
    2.5945578971594711e-02 -7.9951044863575321e-02
    2.3381205531790444e-02 -1.1979125209011611e-01
    2.0153818523977685e-02 -1.6855067785361547e-01
    2.1612583624210185e-02 -2.3476952013679309e-01
    1.3405140944503740e-02 -3.2373649463763693e-01
    7.0305339599058946e-03 -4.2551508798080034e-01
    5.5075284891923692e-03 -5.9943581029110848e-01
    3.8515954568119921e-03 -7.2544957362512530e-01
    3.8099413840422276e-03 -9.5103056047625445e-01
    3.0952838936562426e-03 -1.0408765906556732e+00
    3.8538672145924848e-03 -9.4776420149320428e-01
    4.0217576628877967e-03 -6.4964729689094536e-01
    7.5223021558133828e-03 -4.6573471228728630e-01
    8.3510553648687858e-03 -3.0799742143702913e-01
    2.0763761115728360e-02 -3.2731325875212774e-01
    6.1978579391143707e-02 -5.8241105104227242e-01
    1.0660123648979948e-01 -8.3121662631976356e-01
    1.1162878100262495e-01 -8.6236157244868361e-01
    8.5695769826057727e-02 -7.9021675528778024e-01
    8.8481022828948971e-02 -7.6295568811877179e-01
    1.1978962036593599e-01 -7.1371743542824262e-01
    1.3355310629160208e-01 -8.2324062609317006e-01
    1.2006885561238254e-01 -7.2921911493573877e-01
    7.8904048038267435e-02 -6.9644993274289135e-01
    3.5130314175119484e-02 -4.4679706910731121e-01</input_scale>
  <output_scale>
    1. 7.0064923216240854e-46 1. 7.0064923216240854e-46</output_scale>
  <inv_output_scale>
    1. -7.0064923216240854e-46 1. -7.0064923216240854e-46</inv_output_scale>
  <weights>
    <_>
      -1.2544429765990822e-02 3.9470837500687238e-03
      -1.0312609169808196e-02 2.9049047837974543e-03
      9.3798098522288476e-03 -1.6952748500913817e-03
      -2.4992372797988192e-03 4.6433021307336134e-03
      -5.4578853110865307e-03 1.0503028739406487e-02
      1.0012560347056658e-02 3.4793040782494047e-04
      -1.0137690450455275e-02 5.5110410841942205e-03
      -7.2333295419511699e-03 6.8302797662702043e-03
      3.4299714092197384e-03 -1.9174622550075569e-03
      -1.1287328172391193e-02 1.2447019903470805e-02
      1.1247136026565777e-02 -1.4104994896952610e-02
      -1.2129073852365162e-02 1.0473914758608642e-02
      9.9638432472839425e-04 -1.8083881210583324e-03
      -1.4217920655738515e-03 1.2533447364816020e-03
      -9.2997267974224296e-03 -4.1587040667985242e-03
      -1.3339004982011562e-02 -4.6187172195267853e-03
      -1.3905936587951863e-02 -4.6174005853806448e-03
      -1.1402736475240940e-02 -1.0889114061387395e-02
      -7.7330056215597215e-03 -7.2330475024061855e-03
      4.2584400313032868e-03 2.7146562278168407e-03
      -1.0627991111689439e-02 -7.1144727504407202e-05
      3.8175992304407217e-03 -1.1781184925905035e-02
      9.4044838249047226e-03 -1.2207100194703419e-02
      -1.2891539515505840e-04 -1.3129708896395724e-02
      1.9715142822225888e-03 1.2148816907109094e-02
      7.5484379098294000e-03 -7.4302664411177340e-04
      -9.5601071227935097e-03 6.8336549379459759e-03
      -8.6623974785658819e-03 3.0249812893836598e-03
      1.4896581285905759e-03 1.6426991193007740e-03
      -2.0681948796947629e-05 -2.7063292787015262e-03
      8.6607101494834658e-03 -1.1292323998703719e-02
      -5.2344523338202940e-03 1.2688337532274016e-02
      -2.9841677114125264e-03 1.2869579494811696e-02
      -1.3959493768760515e-02 -2.5640628947730328e-03
      -6.5223556048534283e-03 1.3255125524208983e-02
      4.1473301696187872e-03 3.3991770035968400e-03
      -8.0978110909880208e-03 6.7317955536881566e-03
      -1.3122090313444261e-02 -1.2527439887970523e-02
      1.3662608504963807e-02 4.6787528759039574e-03
      1.0314885047659989e-03 -8.2628312800032370e-04
      1.2139013921200257e-02 7.3406991646715932e-03
      -5.1572306324188608e-03 7.3036861939265443e-03
      -1.5376978495965372e-03 -1.2131587460897847e-02
      -1.1955197966213455e-02 1.3127687796511774e-02
      3.8725142272130796e-03 -1.0047093072794501e-02
      -8.0709880922076316e-03 1.0521368470571790e-02
      -1.4978822829721722e-03 8.7836617740155200e-03
      6.8441088805151946e-04 -2.2025639338954166e-03
      -8.6989918517581810e-03 -1.0343800685632905e-02
      8.4438989719295091e-03 -1.2215569843470801e-02
      -1.1627349276117185e-02 5.8646546631092875e-03
      3.3104167565552079e-03 -4.3669899353411317e-03
      -9.0843212763675233e-04 -4.2600252954647063e-03
      -9.0728757541009859e-03 1.8982047939503370e-03
      1.0694687396543539e-03 5.8383093071259504e-03
      3.7229861450445273e-03 9.5216908906717666e-03
      -5.2610700878726177e-04 -8.2776323996448225e-03
      1.1102907465723087e-02 5.1586437939271541e-03
      -9.3113592475837781e-03 3.5719431696965547e-03
      -8.6830096405279052e-03 2.3409040718970582e-03
      7.0865278111818687e-03 7.5496028413278120e-03
      5.3228032579278033e-03 -1.2173122426826570e-02
      -6.1225631462518406e-03 -1.1297031206943959e-02
      -4.5697897553095201e-03 -9.8259031638325695e-03
      6.1069367234996789e-03 -9.5407415059704410e-03
      1.3009873637852346e-02 1.1495036433080200e-03
      1.1170104171348285e-02 -3.6490251756153263e-03
      8.6676898427194007e-04 -1.2012188578152999e-02
      -9.7222449955327740e-03 -2.5009896966249412e-03
      -1.1586523322698005e-02 8.0160337168872463e-03
      2.6798369936522574e-03 -4.4917361372527479e-03
      -7.9384911423511575e-03 -2.6975265904187556e-03
      8.9822664143598529e-03 2.0493979127799481e-03
      5.3452503120177694e-03 4.1776452735984865e-03
      -5.5665158292980532e-03 7.9995812472852951e-03
      5.7535204755168228e-03 -2.3671070401463427e-04
      -9.9746899647024448e-03 9.1748388095089072e-03
      5.1827965723130363e-03 -1.4442674315348443e-02
      -1.4099526304313968e-02 -8.3629007014718801e-03
      7.0665896017812957e-03 1.1151524996117683e-02
      -5.7466235738750067e-03 -1.3167391946806769e-02
      -2.6435088308356123e-03 -1.2908042080423570e-02
      1.0020932937916690e-02 -4.5644481292293369e-03
      8.5860910866616853e-03 -2.2999125738757779e-03
      -1.3751703416483671e-02 -4.7735526582056561e-03
      -1.1186870294955220e-02 -1.3902552056559650e-02
      1.2864295316000231e-02 5.2931766559540664e-03
      5.9460917217511672e-03 1.0874868934872089e-02
      5.5841773180457133e-04 -7.5898488119273480e-03
      8.8723048126950063e-04 6.7626306674626315e-03
      4.1287732198727022e-03 9.3212853951684209e-03
      2.0748968815960684e-03 -8.4212551322147989e-03
      -1.3576613517566250e-02 -8.0387764274142577e-03
      9.1008957940386711e-03 2.7203139522180694e-03
      -1.4529717573600557e-02 -1.2552008192649098e-02
      -1.4597360529523702e-03 9.5337161987696824e-03
      7.7648852870163560e-03 -8.9140156793172335e-03
      -5.8269340727444508e-03 1.4253332457502804e-02
      2.3895726557089610e-03 2.0452276431878170e-03
      4.6374735607998723e-03 6.2267896720363215e-03
      1.7823121114623982e-03 3.1168130473535425e-03
      -3.0339482432990583e-03 -1.0978049071222651e-02
      -9.8092885864578400e-03 1.2343937277565640e-02
      -1.1984340208269542e-02 -6.1030756818249363e-03
      1.0545443120849683e-02 4.2308593303708062e-03
      -2.7608062999848128e-03 -1.9551160951450154e-03
      -3.0927488285367797e-03 4.4838295747036336e-03
      -6.4480844858274856e-03 -8.9126996988712192e-03
      -1.1089304401706164e-02 -1.9203275517169541e-03
      8.1388195512419811e-03 1.5152285363242052e-02
      6.5187937938445953e-03 -1.2025890122479118e-02
      1.3460133077235472e-02 -1.2422012428019122e-02
      9.1522144627564500e-03 -8.2875636953114885e-03
      7.4439946978769461e-03 8.7955539458206382e-03
      6.5071180025811403e-03 2.0011668991161860e-03
      1.8188024658991133e-03 3.2962254313036368e-03
      1.2037460393345294e-02 7.9818020974242176e-03
      -6.2906720199924293e-03 -1.2946070967123873e-02
      -1.2573114471010562e-03 7.9708243437596488e-03
      1.2306405695033901e-02 -1.0097861176245629e-02
      -1.0520628738434550e-02 7.4969128111272501e-03
      9.0594161252921385e-03 -2.8439703646999313e-04
      -4.0319658412151446e-03 -2.6674240127044250e-03
      8.1438067346536747e-03 8.1129210981477472e-03
      -4.6995689437577693e-03 -2.6909135798182135e-03
      -1.5100762429317812e-03 9.1553524102836667e-03
      8.5756078612055121e-03 1.2060040871856692e-02
      1.0372461783891123e-02 -1.3986344191007378e-02
      9.4898533523182730e-03 8.6815737621212287e-03
      -2.3346042912669745e-04 -1.2436675964267171e-02
      -3.6328600636313717e-04 -2.9102912836037028e-03
      3.9688679708208682e-03 -2.6135659427305421e-03
      1.1650883742743432e-02 -9.6269032941661576e-03
      -2.3774817237984594e-03 -7.7293613346450128e-03
      6.8117588384957592e-03 7.5038028757151301e-03
      -8.3706506244218427e-03 -8.8285128302577967e-03
      4.5584026098973400e-04 -8.0113712117886957e-03
      9.6717731746864301e-03 -1.4154940480014396e-03
      8.1361951056122660e-03 -1.0597549225634830e-02
      -1.2040542602163572e-02 -2.8932865318771913e-03
      -6.6366524466590889e-03 4.9173224708657474e-03
      -9.8374588599737245e-03 -4.5283004029782244e-03
      1.0731921424466188e-02 7.1511877212807676e-03
      1.3350893415243948e-02 -9.5051291961043699e-03
      1.2125954133586154e-02 -1.7424596019102250e-03
      -1.5133443955684237e-03 1.3192278148218583e-02
      1.5584330817768602e-03 -1.2536576901804642e-02
      -1.1541187685385354e-02 -2.5998750049780637e-03
      4.6718923879863318e-03 9.3979032136103039e-03
      1.1626012565410376e-02 1.3850233203859226e-02
      -4.1470961922911850e-03 2.4169417803202834e-03
      5.5399089281154049e-04 5.1743492342057711e-03
      -4.2584123972219477e-03 6.7570117232654244e-03
      -5.3048441103564570e-03 -1.8785528138646889e-03
      2.5645467336373401e-03 3.6689051414816125e-03
      6.9502683999372733e-03 -1.3764013714452961e-02
      1.4023922375788655e-02 -4.0030835249679399e-03
      6.6628294086056028e-03 4.6633089355441583e-03
      2.8303511942895281e-03 5.2732774635794299e-03
      -3.4090983745219848e-03 -2.1314863569425200e-03
      -6.9713423375148079e-03 -4.5136599356184965e-03
      1.1044640258437570e-02 5.9472334439795614e-04
      -4.4124715098884512e-03 1.3433951162770116e-02
      -2.2212560881331818e-03 5.5607319523365466e-03
      -2.5520327566399266e-03 9.5836844535747805e-03
      -8.9121157906530760e-03 3.9182948250605339e-03
      -1.1854747456460021e-02 7.2868199934437274e-03
      4.3228293003205048e-03 -9.6891269837900001e-03
      -1.1570317254413060e-02 -4.5263866803730655e-03
      1.4824603278471812e-02 3.5867168503605855e-03
      1.3983926206493349e-02 -4.1318671571853030e-03
      9.4142147244940209e-03 -2.0282343763849383e-03
      4.8155666954334715e-03 -8.6146355396868046e-03
      -1.5126188226869574e-02 1.1257938184607561e-03
      -1.5932973498393155e-03 -1.0573544698761270e-02
      1.2210624463352193e-02 -6.4270833079279237e-03
      -1.0275173150442090e-02 -5.8529588411053400e-03
      -1.0742999091335327e-03 -1.2072356818261973e-02
      9.6580233049587232e-03 -6.9190023925961141e-03
      -4.9033481686935184e-03 1.4745924339011118e-02
      8.9691639903727305e-03 -1.1086382153396702e-02
      -3.7186246738098502e-03 -3.4132336997824424e-03
      -1.7970635350123103e-03 -3.5430430546660027e-03
      -2.9147172047179004e-03 1.1769195460385824e-03
      -1.0543602503852556e-02 1.0814802351985038e-03
      2.7268993983931458e-03 -1.0418257471124185e-02
      1.3300984869588053e-02 -1.4806743041285240e-03
      1.0017239313998645e-02 -3.0504078153625737e-03
      2.3351545191878527e-03 7.1820199863077694e-04
      1.2952984514972862e-02 -8.7526464893163450e-04
      -7.5410898521352703e-03 -2.8885537351794376e-03
      -8.8943174537642160e-03 1.2648867360821726e-02
      2.0622266772244570e-03 7.5389049771981435e-03
      3.8512425094463457e-04 2.6585095716084566e-03
      -1.0567790058530620e-02 -5.9637285813679401e-04
      9.5232817509094177e-03 -1.9960726044063477e-03
      9.7580579959539553e-03 -1.0545915394747600e-02
      1.3843277731633607e-02 -1.2258966504943311e-02
      1.2060368937874750e-02 3.7865442003482785e-03
      -1.3211774015657893e-03 -1.1906073656178092e-02
      -1.6978135587274794e-04 9.6616337048599094e-03
      -5.7344664670976632e-03 7.3695681615453864e-03
      5.5656510677919114e-03 -1.4646503854874818e-02
      -6.5635472920842182e-03 7.6880646957016045e-03
      4.8568878784970970e-03 1.2358421971861124e-02
      -1.1929036885609064e-02 8.1107590741507328e-03
      4.7247891867929059e-03 6.7086349150867136e-03
      -3.5289051715317351e-03 4.0442207129220568e-04
      8.8998439835326522e-03 -1.3573238000673940e-02
      -5.7220656203031258e-03 -1.3181807333621075e-03
      -1.2765247081268334e-02 1.0011890826522559e-02
      1.4556930294384984e-03 6.2353603698850407e-03
      -4.3493774382429538e-03 2.2984630757792866e-03
      -4.9849754607003650e-03 -2.8231178320555143e-03
      1.1453046169869859e-02 1.1690130932997820e-02
      8.7700877689942565e-03 -9.3227262840796729e-03
      1.1189804296993034e-02 -9.4053889488375179e-03
      5.2328948164464279e-03 -9.9114471049829723e-03
      -9.4705217369850121e-03 5.1954298040683532e-03
      -1.9511181902694857e-03 5.8141314149299447e-03
      -9.6757901967561601e-03 -7.2884680303118600e-03
      -8.1105504039917238e-04 1.4346287543520193e-02
      -5.9977925135509544e-03 -4.4979005146433583e-03
      -8.5559175877868989e-04 1.1958571463724423e-02
      -4.8898651483966606e-03 1.2519871672656111e-02
      7.3769795667319752e-03 -1.2549785424181747e-03
      -1.2383490128029697e-02 -3.1275427115214289e-04
      -1.8851550880731732e-03 -1.2635904736996552e-02
      1.7157147539953372e-03 -5.0376955061550493e-03
      -4.5889679762953261e-03 9.4029848660744843e-03
      1.3356342212388310e-02 -1.1512423423654765e-02
      4.9902211151889708e-03 8.5411083182802099e-03
      -5.6099011649494010e-03 -2.6671666231036372e-03
      -6.8845780671998027e-03 -9.6236067350511552e-03
      6.5817711817295109e-03 9.4665306974123543e-03
      -8.8480172019557470e-03 -9.7360010712672501e-03
      -1.3752177649917516e-02 4.2212570797565702e-03
      7.7417323811471263e-03 -1.3869448130835130e-02
      -7.3193183585211104e-03 -1.0103525812221794e-02
      1.4367801699106784e-02 -5.3545441489664990e-03
      2.1018242551110208e-03 5.7246299669596254e-03
      1.1653762246010101e-02 1.5729032929751443e-02
      7.9210574233092544e-03 6.2065131568940944e-03
      -1.9624208879616334e-03 5.9583617359037369e-03
      -7.5504519949856881e-03 1.1400867125549953e-02
      3.9376282680659985e-03 1.2812398726290527e-02
      1.2293310938819619e-02 -6.2435893962117066e-03
      2.4381281760826171e-03 4.7466269750449297e-03
      6.4365841596285183e-03 1.2846746562318838e-02
      6.2216369485646062e-03 9.2803889332752579e-03
      -7.3739483776517770e-03 -1.0326593502311339e-02
      -1.0620375297417477e-02 -1.9266515432135446e-03
      -9.5329809191232445e-03 1.3093727699626096e-03
      7.9153363344465471e-03 -3.9034342664110784e-03
      -2.0762104539722268e-03 4.9963170372160906e-03
      1.0130481961704499e-02 1.2562481460938454e-02
      1.3176949830101276e-02 5.9098232541269868e-06
      -7.7879271513310823e-03 -1.0438931634607428e-02
      -1.1112276920174928e-02 -7.5846625988361871e-04
      -9.3708914118235589e-03 4.1315264767693878e-03
      -1.3042703989641363e-02 -6.7888974160557249e-03
      -6.8929038801203938e-03 4.4879631438802014e-03
      -1.1594682621358543e-02 1.2390742841026876e-02
      -2.5506522808104930e-03 -1.3490217404087578e-02
      -4.4280677960324257e-03 -8.8072340237979781e-03
      -8.9775087042664979e-03 9.7927363723507143e-03
      -1.3228933680543762e-02 2.6230201942320595e-03
      5.2521252172250373e-03 -2.1274111322858126e-03
      3.8199669181531058e-03 -3.4596168038115217e-03
      5.3869114547329434e-03 1.3178975023522816e-02
      1.3109506545298849e-02 9.1996272697504235e-03
      4.5396034672655116e-03 2.7260793617639545e-03
      3.9891464026153541e-03 -8.1813035632353093e-04
      1.2915754919867033e-02 3.3308031239131152e-03
      9.4553011945292895e-03 -2.4036819038757008e-04
      5.0585390444830161e-03 8.0636195138082400e-03
      -7.4959315340309106e-03 9.3951783990887817e-03
      3.2884482824460621e-04 -2.0316330388263342e-03
      2.4853352015479411e-03 1.2319378762822267e-03
      1.0443347875688307e-02 1.1257283615449830e-02
      -1.1486775580588882e-02 -9.1195560982014600e-03
      6.7694858035616083e-04 -6.0275073307705903e-03
      -1.0142897941356413e-02 -6.2867753091188213e-03
      6.8279401571215582e-03 -1.0870676818799220e-02
      8.6598628672364640e-03 -5.4038045087217677e-03
      9.7612941570227891e-03 -2.7634266243452259e-03
      1.1137746677117614e-02 2.1846389575908521e-03
      -4.0443102791255705e-03 -2.3772921133951670e-03
      1.2183167873538250e-02 -1.1826211113713818e-02
      -1.0504301088970457e-02 1.0289344488051929e-02
      2.5359666766787917e-03 7.0005525063337754e-03
      -6.0674767283544666e-03 5.3884869451606655e-03
      7.8346249981718370e-03 -4.8168287186342129e-04
      4.8079861480127331e-06 -8.6597052258211710e-03
      -1.4811226531364628e-02 5.4673657149169304e-03
      -8.0849340589013319e-03 2.1229472898629285e-04
      -9.1704241488769142e-03 8.0624233192665134e-03
      -6.7233702477648366e-03 -3.3576866422224952e-03
      9.0207579932140569e-03 -9.3530067903534377e-03
      1.3837678005783917e-03 5.2342551392646555e-03
      -1.7653059135479519e-03 6.0674293174859872e-03
      4.6008614680472871e-03 -2.0045500899345692e-03
      7.0688102900139911e-03 -4.8655676624246476e-03
      -3.7093830711276473e-03 8.5028734490397995e-03
      -8.2374327606655421e-03 3.0715522522883876e-04
      1.0502085349632837e-03 -3.9241950814513120e-03
      9.8533773628212591e-03 1.3416959305125643e-03
      1.2419633630206388e-02 5.3362429134177691e-03
      -1.3001250934821823e-02 1.4453323885930406e-02
      -1.2424145513988474e-02 1.1851934740169193e-02
      1.0723500075694274e-02 5.5347611850473525e-03
      9.8088538545235051e-03 -1.1916591684240868e-02
      -1.0847965390078698e-02 -3.2911021023291462e-03
      1.4507278622232195e-02 -6.5337552010818964e-03
      -3.9980718814155896e-03 1.3257713675392257e-02
      -1.3116377143743172e-02 -1.1205563157359589e-02
      1.2537071362093557e-02 7.6383242472121175e-04
      6.0158030326368959e-03 1.2276793454480985e-02
      1.4057188206491997e-02 -7.7510120130747713e-04
      -8.8337434020984481e-03 1.6689967265582127e-03
      2.0657071750547940e-03 1.0731711037923662e-02
      -6.3080867510974048e-03 1.0960346548251180e-02
      1.1339284185750394e-02 1.0339470605265624e-02
      9.0006201073239891e-03 1.0141119680055839e-02
      -1.2720770036012826e-02 -8.5854538367129800e-03
      1.0091014983107060e-02 -9.5202624400234168e-04
      -1.1538827810894998e-02 -1.7866370598917318e-03
      -8.3305827614005446e-03 1.2114761383189424e-03
      -4.9519137594356130e-03 3.7564280717905059e-03
      -1.1664336260386761e-04 -3.1247398692264979e-04
      -3.8108343913058453e-03 1.3330695178988704e-02
      1.1136340306049810e-02 2.9170411850610095e-03
      1.2896059470916656e-03 -8.9995038783103366e-03
      -1.3130181109110487e-02 -6.9984886743933803e-03
      1.3158639402220678e-02 -3.6160487328652248e-03
      9.3641425185819870e-03 -1.2452036778499570e-02
      -2.9550765198360656e-04 7.4532341225658791e-04
      2.7953571928266635e-03 -4.2072227553513605e-03
      7.7173974916485482e-03 1.3694414707956959e-02
      9.0813317789524561e-03 -7.2492437741518050e-03
      3.2592267550420211e-03 1.3590458717822395e-02
      -8.4741698809028890e-03 -4.2539145502968369e-03
      -1.2363411765548652e-02 4.8539885946781314e-03
      6.2874822693310840e-03 1.3073679347192940e-03
      1.1842200921096085e-03 1.6842402650087619e-03
      -1.3106917123790734e-02 -1.2413021531274769e-02
      3.8770362923061965e-03 8.1921876625416226e-04
      -1.1301242121731942e-02 2.6886472126465156e-03
      1.8225252398796458e-04 3.0673772492882103e-03
      1.2865353243816532e-02 3.5317358744697347e-03
      -8.5200878834958103e-03 -2.7390767363581403e-03
      -8.5020874016080265e-03 -9.7105619212574275e-03
      6.2151745475262686e-03 1.0473529481101553e-02
      6.3214671112716133e-03 -7.3886713496279007e-03
      4.5574201965494143e-03 1.2715406059521209e-02
      -2.2773047840111511e-03 -3.5004331964973703e-03
      1.1808679052567703e-02 1.3580675700492399e-03
      -6.7472560141285777e-03 -1.0196771470901761e-02
      -1.2800503510168294e-02 4.1328893965259196e-03
      5.3235692574394198e-03 1.2701350259726813e-02
      -1.2393196139431581e-02 5.0073399058286872e-04
      3.2355618062772369e-03 -8.2789911034607047e-03
      8.1957001372907608e-04 3.0148705472081579e-03
      1.0503059370203522e-03 3.2457350558623816e-03
      -9.2281977120225178e-03 1.3147029741308063e-02
      1.1637001289364518e-02 4.6193754083527381e-03
      -7.6282225470141359e-03 -2.6476211771351388e-03
      1.1645524820380615e-02 -2.6494633377403434e-03
      -1.3916815647113234e-02 -9.3863484781764803e-03
      -8.7389981323972028e-04 2.1863118900104467e-03
      5.6280704248692767e-03 -7.1130942761218783e-03
      -1.1544968393325850e-02 -9.7138569557941763e-03
      5.1516842487663841e-04 -1.0061801383911349e-02
      -7.9066078209595429e-03 8.2020779785813465e-03
      5.5025947231170545e-03 -4.4891574143925729e-03
      6.6418603872530507e-04 -2.7075737691812179e-03
      -1.3002005895096281e-02 -7.1757973911754948e-04
      -4.4705247936308876e-03 1.1253809220114552e-02
      1.2850064427697264e-02 -2.7011485918946717e-03
      -4.0825585150745160e-03 -9.0799390507580718e-03
      -8.9064632141184624e-03 1.0916701611140387e-02
      -1.1367468548329708e-02 1.2135727185959161e-03
      1.0508642483000230e-03 4.9011222051656231e-03
      1.5112826673264705e-02 8.7689825017816939e-04
      -5.3892647752897503e-03 -2.7121315838450929e-03
      -1.2379832189902773e-02 -3.6040279351390483e-03
      -6.8097794513693479e-04 3.9241268650499674e-03
      -8.9593669913902822e-03 7.3316757101343057e-03
      -5.0783258546030219e-03 -1.2473169065767006e-02
      -1.1029354091175043e-02 -3.2719657360873997e-03
      6.1050219849513891e-04 8.7382370075329710e-04
      4.7352909608934626e-04 4.8164069795694791e-04
      -1.8967541451887539e-03 1.8604499915355907e-03
      1.4970272048563866e-02 -4.8815333189191598e-04
      -3.3923616731331352e-03 -1.3945837494672441e-02
      -4.5213080757229738e-03 9.1441444840669669e-03
      1.4058901365311233e-02 -3.4427770328359837e-03
      -1.0739309969854734e-02 -6.7071675840012961e-04
      -4.7495096465224604e-03 -1.0315718842931039e-02
      6.7794188534629355e-03 9.9926406994863982e-03
      2.2134132773118059e-03 1.1746008596756582e-02
      1.2569356571669603e-02 -7.7399467117544238e-03
      1.0339106846081397e-02 -9.2956342672110021e-03
      -5.4994494648893679e-05 -5.0642121219955510e-03
      -6.9755502414636256e-03 -1.1868539406596400e-02
      -1.1674191637270777e-02 1.1991430137074396e-02
      -1.3789017157597306e-02 -5.4252775813244019e-04
      6.7768914777982846e-03 4.4626420353671356e-03
      7.8377635547310712e-03 1.4279613921842347e-02
      6.5441960022076459e-03 -1.0232859708174384e-02
      -1.0137401467360561e-02 -1.3457935582237152e-02
      3.5888327668791899e-04 -1.3914387461169899e-02
      1.9887485051167447e-03 -6.9989903873110704e-03
      4.3174004675907551e-03 1.3338786254520683e-03
      5.6782260413292028e-03 -1.4194629683058704e-02
      -1.0781099399296307e-02 -7.1604451538092957e-03
      5.7866602664780513e-03 1.1767467946856456e-02
      -1.5622079765360095e-03 -5.8519371350401869e-04
      6.0227776591695184e-03 -4.3768349449559889e-03
      9.0332614646317869e-03 9.5752602450847220e-03
      1.0095618013207864e-02 1.0634491854517003e-02
      6.6476934396291704e-03 4.4982221704179303e-03
      -6.4544955183034941e-03 8.7574852203263238e-03
      8.5046443212344856e-04 -5.5740938914155694e-03
      1.2691807276571877e-03 -2.9645648428110647e-03
      9.4307883803449524e-03 1.2153618460623466e-02
      3.0332136230742735e-03 1.1583502451612179e-02
      -1.1916380686658606e-02 -1.5232818129413529e-02
      -6.7694156585610852e-04 -1.7538891614641742e-04
      -8.4052975025765697e-03 3.0205990159297520e-03
      9.2215468473987733e-03 -5.0130928435402162e-03
      -6.1095418144878136e-03 -2.0385522836239142e-03
      -9.2351242698448014e-04 4.6188730493768341e-03
      1.1751474663050897e-02 -7.3609662716839410e-03
      1.4940880166951771e-04 2.2612231477181994e-03
      -7.8531946542688830e-03 -2.0982419920966664e-03
      1.3560583619137583e-02 1.0958736142994478e-02
      -1.0122854887890156e-02 -1.0703793883030126e-02
      2.5621292872593177e-03 5.2017387169237444e-03
      -3.8481459253844122e-03 -1.3771708154186451e-02
      4.4049497372507318e-03 -9.7774608465334579e-03
      -1.2501628479204713e-02 -2.6770869471578920e-03
      -4.9197972688173773e-03 1.7447805147235863e-03
      -1.2662652061729145e-04 1.3120813877473075e-02
      -2.7629531616899980e-03 8.8071510115877005e-03
      1.9667165320899648e-03 -8.4422456030964447e-04
      -7.0379005508243659e-03 -3.0613358192877801e-03
      7.4292805112867594e-03 -1.0948908459674589e-02
      -8.4721688407008496e-03 1.0091295398118212e-02
      -1.1397240454766392e-02 8.3205489809613856e-03
      7.4107890375930390e-03 1.9744730731587326e-03
      8.6837675523093617e-03 1.4472256362808346e-03
      -1.1398817668779882e-02 7.6746786512716381e-03
      -4.0056602897333999e-03 -1.7219618311445572e-03
      3.3344404870049187e-03 -5.9933262523273001e-04
      -8.4839446192855467e-03 -8.5782338239171335e-03
      -4.3392044244639806e-03 -5.3632806911617674e-03
      3.5545902411406802e-03 -3.9281690128616445e-03
      1.3839338419130768e-02 9.8060438496712157e-03
      1.1254488395955492e-02 -3.2050747060524427e-03
      6.5502055309308389e-04 -4.1313708834174734e-03
      2.2607952717095710e-03 6.9956517728787483e-03
      -6.2401358315385567e-03 1.3115664105879664e-02
      -1.5770382352532331e-03 8.3613521783927683e-03
      1.0026540511252657e-02 -1.0405635155645694e-02
      -1.0100129404636067e-04 -1.1359862653707814e-02
      -8.8690319635259598e-03 9.4495532286787594e-03
      -5.0591519467231586e-03 9.7643425455959110e-03
      -7.0520181605011265e-03 2.5496178552958568e-03
      -4.7254443074473693e-03 5.1164677352122830e-03
      -3.5071595332672092e-03 -1.4212072821989706e-02
      1.1102886352207297e-02 -1.3497779357234898e-02
      1.1270251160307892e-02 7.5645515763373104e-03
      8.0963099778364397e-03 6.9685809566457264e-03
      -5.6399103394935693e-03 1.0310956536079189e-02
      6.1617191163318447e-03 -4.6574799848400766e-03
      1.1702085552360060e-02 6.2330956892114626e-04
      9.6196161934960587e-03 -5.9653020027875692e-03
      -8.3240566912931406e-03 9.3704340662977015e-04
      -1.9763958497330705e-03 -1.2357791963993871e-02
      1.1923561454323614e-03 -3.8654604957636669e-03
      -1.2365392508850334e-02 -4.6170321158736875e-03
      -8.3521656032155159e-04 1.5024435822107862e-02
      -1.0321635342642336e-02 -1.8123028209701267e-03
      -1.2836058687298139e-02 -3.3073655640729642e-03
      -1.0901087335330650e-03 1.0154177566768416e-02
      -9.3711050658106185e-03 -1.1746106551227127e-02
      -2.7599405288209612e-03 -7.1383198737026456e-03
      -9.9095436872765653e-03 1.2265202878698521e-02
      -1.0558409119866543e-02 -3.3198397470072956e-03
      -6.9824882938527505e-03 2.4348978376429325e-03
      2.0936089470141865e-03 -6.7259369537578221e-04
      9.9547184802367666e-03 -6.1867966103935773e-03
      -8.1954745561176150e-03 4.1713409641895580e-03
      -4.2196498248062283e-03 -2.5680965534688881e-03
      -1.3268759403029965e-02 9.9051119529891297e-03
      1.2611880972643373e-02 2.5444881499607640e-03
      -8.6490107159959678e-03 3.0165387227897218e-03
      -4.6449557878322561e-03 5.3663713435064915e-03
      1.3397108422373962e-02 1.5582099331823997e-03
      -2.8907969278886550e-03 1.0017597899528569e-02
      6.5035267379603325e-03 9.0057184815666626e-03
      2.4647100689194675e-03 1.3922347529251377e-02
      6.8112962492143528e-03 -5.4488398904740535e-03
      1.4969950673045969e-02 1.4453434766875632e-02
      -1.3965649472026508e-02 5.3183568804903662e-03
      8.0135326699857167e-04 -7.3139958266198362e-03
      6.0179362582098985e-04 1.3195385684776526e-02
      -1.7403730947853809e-03 -5.5227351392765408e-03
      -4.0620539933019697e-03 1.2463968327463009e-02
      -1.3070700863062650e-02 -1.1508240443397362e-02
      5.8847369978924664e-03 1.2534823551606502e-02
      1.3888244239146206e-02 -1.2266116029923006e-02
      -8.3501209027840757e-03 -6.6416181620946192e-03
      4.0746795247309665e-03 -1.2798471249013765e-02
      8.5191670528062587e-03 1.1382822334745222e-02
      6.3817462368368277e-03 -1.3495647899227418e-02
      -1.0306913380064878e-02 -3.9378226935336685e-03
      3.9606966900701986e-03 -1.1354645384533808e-02
      -3.4812274377735300e-03 1.1867108531497541e-03
      3.5391832176042966e-03 -7.2502688709163805e-03
      -2.0214834548889617e-03 -4.5161874011317273e-03
      -1.5058881612077290e-03 -1.3248764259789384e-02
      1.2963082505583437e-02 2.8285758493693425e-03
      -4.2303399416590082e-03 4.2585924475811027e-03
      1.1908688935423182e-02 5.3326535182705668e-03
      -3.1969137007857680e-03 -7.8395362796519763e-03
      1.4011017771252547e-02 4.1367670359465048e-03
      -8.2477260287507140e-03 -2.0379948699098321e-03
      1.0887805274460514e-02 9.0121184805241339e-03
      5.5758164069622863e-04 7.0054823756725308e-03
      -9.0977191518176910e-03 -9.9240616814883376e-03
      -1.1671499209872876e-02 -9.9197345441753466e-03
      1.1689703301191639e-03 -2.6860319587151383e-03
      6.6110015827881364e-03 -3.4715461942021880e-03
      1.0586295545240690e-02 -2.6025516118990447e-03
      3.9105747420169120e-04 3.5053543084656294e-03
      -6.6128861889812457e-03 1.1897903546143803e-02
      3.8425960543028294e-03 6.5011892800194634e-03
      4.6373708930580340e-04 -1.1624318871788854e-02
      7.8359646148142056e-03 -3.9793697873244018e-03
      -3.5388282224885848e-03 -1.3844170601748867e-02
      -5.7078690978037208e-03 3.8904844604867560e-03
      -1.9911108628887036e-03 2.4509345107051692e-03
      5.1633110104034536e-03 1.9738825041303110e-03
      -1.3672072985306876e-02 1.0697271756488146e-02
      1.0713830225233973e-02 -9.0259897912441846e-03
      8.5695695384325962e-03 -1.3145450348430820e-02
      5.6875228846492857e-03 -1.0573573560673401e-02
      -5.1234797842967233e-03 3.9409694343171169e-03
      -7.9186605710474325e-03 -9.2178672520450769e-03
      -1.0713609173038964e-02 1.1289600044309846e-02
      1.2310568378174210e-02 -5.8872295158010884e-04
      -1.4528930663521048e-02 2.6112041200744346e-03
      2.1775281515914006e-03 -3.7380923868813023e-03
      -1.1037571227386080e-02 -1.0204401796252720e-02
      2.9800947988934522e-03 -8.6739305454136186e-03
      -6.0366735670410515e-03 -1.2910473342813658e-02
      8.5122113225083781e-03 -1.2589397296440740e-02
      9.5464404163547369e-03 -1.2215691555182958e-03
      -7.8651446104714712e-03 3.2197501944268678e-03
      -1.5672199768971794e-03 6.3639864087073521e-03
      -4.5633500322041345e-04 -1.5124488961512899e-02
      -1.1138990864204444e-02 -1.3165124698063614e-02
      2.0098730040978346e-03 -3.8222458949505405e-03
      -2.4025196063996788e-03 -9.7953017966259780e-03
      8.7311740676427919e-03 -1.0571973886894600e-02
      -1.1164508811203134e-02 -1.3309270072576557e-02
      3.5334258116338333e-03 -7.6819893100067999e-03
      8.4981375918746112e-03 -8.9623033288001048e-03
      2.0026685663211653e-03 -1.2927175243135844e-02
      1.3516455047017561e-03 2.4664626314767476e-03
      -4.2361645574105220e-03 6.3074844365241627e-03
      1.2060994507714310e-02 -2.4686952418077222e-03
      1.8644618909097607e-03 2.5621851861613839e-03
      -5.7341909318756627e-03 7.1716552298533376e-03
      5.3718099411400556e-03 5.3776109881123069e-03
      1.0743149799266962e-02 -8.9536494670362863e-04
      4.5144874568361073e-03 1.3156867162694274e-02
      1.0764279052087938e-02 1.0691431817495139e-02
      7.9554840132834686e-03 3.5463536640052549e-04
      -4.9387361348919639e-03 -1.2221805661316849e-02
      -3.9102189944447635e-03 -6.0615382929036562e-03
      -4.0516209347699434e-03 1.0917154358939429e-02
      8.3298499581407285e-03 -2.0236735461108828e-03
      9.2307868253609544e-03 4.4023956503763291e-03
      -7.1098807839859637e-03 -3.3053018493110565e-03
      3.2673952395992482e-03 1.2054997128079111e-02
      1.6207296897150759e-03 -3.4022355833481488e-03
      4.2701097379726095e-03 1.0121297845719253e-02
      1.3375016058680085e-02 -7.7999225872787403e-03
      -4.6521303968589407e-03 9.2200344854190350e-03
      -1.2652745177963779e-02 -1.3019742697544905e-02
      -2.4788351038358266e-03 -4.9025418168968538e-03
      -5.1921657053182555e-03 1.1253345079808422e-02
      9.7399641571112687e-03 -7.3678603949145780e-03
      -9.7054151969201367e-03 5.8331532417185044e-03
      -1.1278176630394464e-03 4.1822570962603963e-03
      -1.1863466229765265e-02 -1.2982332480066590e-02
      1.3193036701602838e-02 2.9358647503469550e-03
      -1.0150116234826311e-03 -1.4426191341692346e-02
      1.3533173960347568e-02 -6.4077883853099241e-04
      1.2726691859475746e-02 7.3946757669504622e-03
      -2.4359223007006507e-03 6.1769941553232550e-03
      6.9852387975384055e-03 -1.0646448494422580e-02
      -8.9605348287343008e-03 6.7884279444008757e-03
      -2.8717259114197487e-04 -7.2089191272528097e-04
      2.8678540864806308e-03 -1.1258747506670254e-02
      -3.9025047962855512e-03 6.3456238052596206e-04
      -2.6099517650041448e-03 -1.2765883728585458e-02
      -6.6359166156135831e-03 -1.0729614972354702e-02
      1.8961748307571229e-03 4.3681013262241416e-03
      -8.4245830990116091e-03 -1.0717067597288434e-02
      7.0751747353064859e-03 1.1245839718364943e-02
      -2.4606651931957336e-03 1.2998856413353192e-02
      1.0120253114000593e-02 5.0657300194448382e-03
      2.0033473330542031e-03 -1.3584549476577100e-02
      9.8759253243625852e-04 -1.4491471056739299e-04
      -1.1337090428480245e-02 7.5951909272165439e-03
      -5.9370843583941742e-03 5.4735905945573005e-03
      -7.8971793383749295e-03 7.2435211636603918e-03
      2.9183026596536514e-03 7.3079165772716144e-03
      -7.5802216336816807e-03 3.3361255519051263e-03
      -7.6882494293632943e-03 5.4692561882525728e-03
      2.4637233609394317e-03 -1.3001070195900626e-02
      5.1186293677522596e-03 -1.0729585632616771e-02
      -3.5883133288835260e-03 -1.9195415221094827e-03
      1.2652569994912946e-02 1.5649830671943469e-03
      -1.0041165892505859e-02 -4.1999305768736219e-03
      6.4882773066070355e-03 1.6827684670468301e-03
      9.5984042793687135e-03 1.1046833070310168e-02
      7.3496938111700261e-03 -6.6902417973430705e-03
      1.1927158254585396e-02 -8.7390213723300067e-03
      8.6025885085776795e-03 -7.6750505995329702e-03
      3.4382347777287378e-03 1.4524430246376925e-02
      7.4077990184318460e-03 1.3117332329964733e-02
      2.9725415311378412e-03 1.4960497340318530e-03
      1.2564876014622254e-02 8.1882244061486330e-03
      -2.1865088242239892e-03 8.3172086812245121e-03
      1.0121133666254119e-02 -1.2882099175135999e-02
      -1.4500310231761933e-02 7.5546115581783613e-03
      -1.6045775114929270e-03 -1.1900070039510255e-02
      1.6346852893395426e-03 9.0865577079349974e-03
      -6.5225993315846144e-03 -1.2897204427441609e-02
      -1.0119629354612407e-02 7.8234564450054729e-03
      -3.4027237117846493e-03 -1.1159239925461521e-02
      -7.7469186407748839e-03 1.3269482376716551e-02
      -1.0454747143131675e-02 6.6261888691031270e-03
      -9.6624074165227204e-03 5.6636899934738730e-03
      -5.3708218898106804e-03 7.5879753359887007e-03
      2.7747899972021370e-03 -7.7070394583584802e-03
      -3.4228899171735777e-03 1.1539680603062603e-02
      3.6062434193176837e-03 5.1173227268427835e-03
      1.2967520797844330e-02 1.2596802431526413e-02
      -1.0090008981997455e-02 -1.2291260585000158e-02
      -1.9571395954889061e-03 1.1596954981248639e-02
      7.8086864424371325e-03 -1.2742115810092422e-02
      -4.8022983416969884e-03 -1.2632141866717142e-02
      -1.0979920673455322e-02 -4.8235568288975302e-03
      1.4841661962714879e-02 -9.0311750740666961e-03
      2.5361574555989603e-03 -2.6834911765387169e-03
      -6.6130806135505675e-03 -1.1000238986672614e-02
      3.4462240603567039e-03 2.1710667463029285e-03
      -6.8099482138987803e-03 9.7069995429715922e-03
      1.2997139305463049e-02 -1.3331640596387183e-02
      2.2536980089971925e-03 6.2032130386492114e-03
      -1.8184602529958214e-04 -1.2043571585695268e-02
      9.8547336040243376e-04 -1.2408972477000154e-02
      1.3772645435594744e-02 6.9180515675856128e-03
      5.4082731929016399e-03 -1.0731508543765818e-03
      -8.3420851145697399e-03 -2.6758563302782395e-03
      2.5801337620988875e-03 -5.7762529100231219e-03
      4.1474513123119852e-03 1.0835015398448221e-02
      1.1305441247462220e-02 5.2706353375411834e-03
      -1.3368868411660569e-02 -6.3612828630972540e-04
      -5.0446239726663743e-03 1.1113751745632826e-02
      -9.4041820929229095e-03 8.9716053014768354e-03
      6.8639995889449015e-03 2.6986121515713496e-03
      -7.2153164987899098e-03 3.6933599244031632e-03
      -8.3300513770525331e-03 6.4600364467132529e-03
      1.2744305381972796e-02 -6.4752386518705778e-03
      2.9345486300562480e-03 -4.6571378480708865e-03
      -9.7706647171740598e-03 -7.4646648305741695e-03
      1.2312410325332115e-02 -9.8559125705264313e-03
      -6.1226633124254600e-03 1.4361264910265889e-02
      4.8235914660121251e-03 1.1979332560963563e-02
      8.8625007249696856e-03 4.8978632785767412e-03
      -1.3741730618692409e-02 4.9922206162928459e-04
      -7.9345546617405338e-03 9.6275848037229023e-03
      1.2393088745414326e-02 1.3747677174802910e-02
      5.6057949265851175e-03 -3.3640983318028147e-04
      7.9750358211752980e-03 -7.4870298254987528e-03
      -7.0528757830605531e-03 1.5640542026684551e-02
      1.0109645126133925e-02 -1.1512441280209207e-02
      -1.0314229901807057e-02 -6.7872386843594902e-03
      3.8984164734030729e-03 -9.0133498366502460e-03
      -5.7785406340456575e-03 -7.4541958104933081e-03
      -3.2040205344597760e-03 -5.8897297943160953e-03
      -1.0499608867484295e-04 -4.2392233741253785e-03
      -9.8173479194317449e-03 1.2152043489055133e-03
      1.0407636427511368e-02 1.0730901421464347e-02
      3.3428460456688103e-03 -1.0399499591290131e-02
      4.0610529139174173e-03 -1.3767068658063838e-02
      5.6901171590058022e-03 -8.0496348832165589e-03
      -9.1314623359300406e-03 -2.0671392842746116e-03
      9.7570196083022111e-03 -5.8925658486116651e-03
      5.5114936914699882e-03 1.2074499722034740e-02
      1.0791979457862536e-02 -4.9211523639520255e-03
      4.6439872918314215e-03 -1.0573743049954345e-02
      8.9305614294754084e-03 -2.1426895174932181e-03
      4.6992938930229379e-03 -4.0295136504517881e-03
      -1.0280830166072763e-02 -9.7734242525628102e-03
      -1.3778831943641429e-02 -6.3802778504077305e-03
      -6.1664760734470928e-03 7.9797965855761804e-03
      -1.4322027135473838e-02 -1.1840019779826256e-02
      -5.3647531036803467e-04 -5.0949992168583032e-03
      -2.0784605668315215e-04 -1.3868063742125665e-02
      8.6428418975758280e-03 -8.4443530203384340e-03
      -1.2074141127560105e-02 4.7768932460176107e-03
      -5.7744655657547628e-03 6.8997287545674068e-03
      8.8074614262015904e-03 6.4895387247697204e-03
      1.2655443306015422e-02 3.5567551338078680e-03
      -1.2177994998681659e-02 1.3493992498976896e-02
      -7.0974436561647254e-05 3.7852697177701874e-03
      9.0655719930190989e-03 -9.9432129262649344e-03
      -6.4176332071477094e-03 6.0607204712088214e-03
      1.7921612303888736e-03 -1.0084139849767916e-02
      -1.0119910482990605e-02 2.7877657247089103e-03
      -9.1784253881074494e-03 3.4337805323138342e-04
      1.1378134747564665e-03 -9.0348542392717380e-03
      7.0151977620903872e-03 1.1495513023081188e-03
      1.2706983325438013e-02 1.4388061120351707e-02
      -1.2018748655219279e-02 -1.1816466110735974e-02
      2.0490181601802628e-03 1.3648366719843550e-02
      -2.7845550318799500e-04 -5.7347214507742919e-03
      -1.7262299405354886e-03 -4.6505919328685965e-03
      -1.4199731509804515e-02 7.4976152447652402e-03
      -1.1260147394805749e-02 -6.9333420017913868e-03
      5.8367356141872612e-04 -8.5235811526167046e-03
      1.0225535023944082e-03 1.5173005488204423e-02
      2.8037588467077802e-03 6.3323548892490972e-03
      6.9686887294836590e-03 5.0304175127262891e-03
      -9.6713738145344822e-04 -9.8963840631337268e-03
      4.4408575536926285e-03 -4.2707807016038298e-03
      5.9860766366583856e-03 1.4621013180018096e-02
      3.7870125137668405e-03 1.0653680432850044e-02
      9.4991741649129140e-03 9.4478788696058195e-03
      -2.0348929920126803e-03 1.5680848702522285e-03
      -1.4238237894577723e-02 -1.4743931827747222e-02
      -3.3495476671952630e-03 -7.6847778363091021e-03
      -1.2096443949661050e-02 9.4497899930755507e-03
      -1.1531228490929614e-02 2.0434120029353031e-03
      6.7346031338357624e-03 1.0985569172919832e-02
      -1.1914961435761852e-02 1.8146139828865706e-03
      7.2923508383012786e-03 -5.4616067126218807e-03
      6.0171625895707338e-03 2.6100833439939367e-03
      1.0395634192951727e-02 1.8849712373819715e-03
      -9.1712625651878023e-03 -1.1388877225083886e-02
      4.3379729659031376e-04 -1.2537239601207241e-02
      -1.4027318200665353e-02 -5.4655054432772351e-03
      4.2346396479891815e-03 -1.1166803700238613e-02
      4.2635910632574216e-03 -1.0196251393609778e-02
      -9.4431599750136597e-03 9.1792303006780988e-03
      1.3006466897169260e-02 1.1807703817827109e-02
      -9.5278619878092410e-03 1.3046064160045608e-02
      -7.4803860012101720e-03 1.2881061788064857e-02
      1.9378853900135357e-03 7.1374475999294350e-03
      7.5631053660253785e-04 -8.2553949437060622e-03
      -1.8947058551134085e-03 7.7294825640164579e-03
      -6.6612082015219416e-03 -7.6788372481894377e-03
      1.4762308115537682e-03 -2.5038218784324676e-03
      -2.6200255140231134e-03 1.1154621326848056e-02
      1.1746721049567112e-02 6.2287346484416533e-03
      -9.7485284958170621e-03 -1.0411350008948902e-02
      -1.2775660196518549e-04 9.6365924951682461e-03
      9.6357804800325415e-03 -1.3072272489902724e-02
      3.3963223587319537e-03 3.5411030437033503e-03
      1.2533448377939195e-02 1.0192777862986866e-02
      -6.0098244606308178e-03 8.7209367095823550e-03
      1.3193024846732968e-02 -7.3788451933019866e-03
      -8.6134781071009730e-03 -1.3002529837678327e-02
      -6.3913591164134788e-03 1.4294642261145105e-02
      2.9292572030508563e-03 -9.3421187195501521e-03
      -2.5680199495125154e-03 7.4346929307218526e-03
      7.5791598204096372e-03 -5.4994268455645749e-03
      3.1626754667330253e-03 -5.7566612063799736e-03
      -1.4050645034770163e-03 4.9311142826199772e-03
      3.3345636208719624e-03 -1.2282158368942418e-02
      7.3879061985731773e-04 -1.0990420817269801e-02
      -6.1260761417651658e-03 -5.7366763383242345e-03
      -2.4764898502874322e-03 1.4136538805186675e-03
      1.0752031686644485e-02 1.2940135316382511e-02
      -1.5548673332692158e-03 -3.7752621355517657e-03
      -4.2005474173890381e-03 1.0945812464414634e-02
      -1.0466919492520963e-02 2.2146330086628041e-03
      3.7107424665224400e-03 -6.7270007757437569e-03
      -1.3962864400009682e-02 1.0179780663508463e-02
      3.0013938972211691e-03 -1.3712417183288420e-03
      -3.5684316146756484e-03 -1.5470890591027745e-03
      -7.7115604005990697e-03 1.2612582178709546e-02
      1.3459513346821822e-02 -4.9011578881394471e-03
      1.9029142357673038e-03 -8.5608103612263529e-03
      -7.3762720620523543e-03 8.0501605284624914e-03
      -1.4718269520443413e-02 -1.1527871164615662e-02
      -7.5178133952560188e-03 -9.6272636472188953e-03
      -2.5992175622733546e-03 9.3976844149228599e-03
      -5.4825158715311514e-03 -9.9607592017291278e-03
      -7.6748442179624303e-03 -8.3798072341829885e-03
      9.2599309812462071e-03 9.3002318590824674e-03
      -2.1412585214786168e-03 8.5306573557047960e-03
      5.6562347792452512e-03 -9.0160952258964960e-03
      9.9221911241894334e-03 4.8932539664501779e-03
      7.3366654424517124e-03 -1.2016334029110575e-03
      4.0060534379063673e-03 -5.8643864877176355e-03
      5.8275124331860530e-03 6.9350972986672093e-03
      7.2518518964893083e-03 3.6282685206908563e-03
      -1.4013290394667708e-02 7.5971156220088947e-03
      -7.6842481809858841e-04 8.1959491088441920e-04
      3.4635238474795592e-03 -4.5877603090799758e-03
      -8.7734905179693966e-03 7.1890332683763542e-03
      8.3958191123451650e-03 7.2971791567421436e-04
      3.5854689982242577e-03 -8.6175462815331061e-03
      1.0523884315525551e-02 1.0917308069580484e-02
      1.1255812385979740e-02 -1.2928766584937337e-04
      5.9694094756810876e-03 -9.4357794165013786e-03
      7.3649532844460540e-03 -1.4900597613598336e-03
      4.2404660126048809e-04 -4.8729582723365051e-03
      -2.1019424723903411e-03 1.4703678456741470e-03
      -3.7400824353845726e-03 1.0618642911533313e-03
      -1.2849185602071265e-02 8.0556640216426518e-03
      -6.2734305491701624e-03 6.9643234331894942e-04
      -1.0855695815314209e-02 -1.0457403001665906e-02
      -2.7111670712066114e-03 6.5863153571500503e-04
      2.3157440597391375e-03 1.3310970476769010e-02
      -5.6406148289227399e-03 -6.5198641204952390e-03
      1.1386103768618778e-02 6.6622533420254123e-03
      1.0852079778195292e-02 -1.2467305935320819e-02
      -1.7614266897203888e-03 -1.0133672888120704e-02
      -5.2320041271955537e-03 1.2533989727369490e-02
      -3.3419491248154846e-03 -1.3853892034214218e-02
      -9.1526317297753700e-03 1.1516207576444464e-02
      -5.0127980618023225e-03 6.0709782452349039e-03
      -1.4578442216887880e-03 -1.0820668258322717e-03
      -4.2495224015981770e-03 8.3129831075411005e-03
      -1.0426507672798303e-02 -6.7769490403840260e-03
      -8.5561350436168127e-03 -8.5159906730294921e-04
      1.2810942052973178e-02 6.9313504532036848e-03
      2.9399961737137000e-03 -1.5042268449325001e-03
      2.2440818989877950e-03 3.2273830460484567e-04
      -3.5623209375804932e-03 9.7012129506884731e-03
      1.4456300437139944e-02 9.8263096132807162e-03
      1.6918987159165785e-03 -6.6771768935496205e-03
      -6.1445920346498272e-03 -1.1783630971514131e-02
      -7.0015094831890421e-03 -5.7755272538760399e-04
      3.3717932142402016e-03 1.5027499676352447e-04
      -6.6709494629279605e-03 -1.3241581365175017e-02
      -1.3184059258286229e-02 1.3529359197054499e-02
      1.2344173161935481e-02 -1.2412480938969881e-02
      1.3571185089335315e-02 1.6460943069573058e-03
      -8.7003871261349779e-03 -1.2812436539116073e-02
      1.5148085814662301e-03 -1.3420325221581420e-02
      -7.2159072824155689e-03 1.2451901776468689e-02
      -3.3775068958382111e-03 -4.4727504363530884e-03
      -7.1794035803673245e-03 1.2051784629143962e-02
      -8.1784139657209553e-03 -9.2052649162552239e-03
      -5.9577265167811543e-03 3.4187856940803970e-03
      -4.6670695407764595e-03 9.7550140094777263e-05
      -4.9622813847048875e-03 -5.2546577688996239e-03
      1.1855307843471689e-02 4.1281830528537141e-03
      -1.3559087138098596e-02 5.0266549579153271e-03
      2.6294949537491626e-03 -5.7086728005060119e-03
      7.7209683690873570e-03 -6.1936602950247496e-03
      -1.2559107917151870e-02 6.8248379999570670e-05
      8.1526798565554684e-03 9.9484306940277201e-03
      -1.1224212426985453e-02 -7.1598338061278789e-03
      7.7220111998555011e-03 -2.8919804260409648e-03
      1.4249332278536780e-02 -1.1718750179899640e-02
      -2.5949371412460624e-03 -4.1243593497296309e-03
      5.8198918330086263e-03 2.7741294166917538e-03
      6.1426794760235728e-03 1.2330642840489710e-02
      1.0714971266724514e-02 -2.3871843586895699e-03
      1.1542780282761175e-03 -1.2619494376068045e-02
      2.7043477030730197e-03 9.1782218088022095e-03
      1.1171818323515734e-03 1.2997476948303112e-02
      -7.0965224802175776e-03 7.4379896725253339e-03
      -4.3083479381954854e-03 3.9125197218975805e-03
      3.8694136772144268e-03 7.1663639307417990e-03
      -4.3918737420012574e-03 7.9499920005771229e-03
      8.3987920298854261e-03 4.4250793234722908e-03
      8.2142213171911681e-03 8.9268478614597090e-03
      7.6965283581841640e-03 -1.4575713662957306e-02
      9.9802846929831612e-03 7.8315558530449841e-03
      -6.6419153585916505e-04 1.2115958227236113e-02
      1.3976722048148470e-02 -4.5885744064808982e-03
      -9.4347399181052075e-03 1.3758386330711586e-02
      4.1989907937253204e-03 -1.2330448168486640e-02
      -6.1332688905381774e-04 -6.6188265024929938e-03
      -1.2622966146159839e-04 1.5007610081481718e-02
      4.3891688018473443e-03 8.4052898222497507e-03
      2.3459238145164948e-04 -9.5176985882328806e-03
      1.9676701431397482e-03 1.0292577871017323e-02
      -4.4724735496383368e-03 3.3984519511000319e-03
      -1.2560852666692024e-02 -9.3012414878776099e-03
      -7.8664768222759390e-03 -1.6015841148319884e-03
      -1.2288678184372539e-02 6.6335340198020063e-03
      -9.5370075182128651e-03 -6.0280617085169850e-03
      7.2771184258851249e-03 3.5757893878936701e-03
      8.3403964251893871e-03 1.4456398098094847e-02
      -8.0990049588294064e-03 -8.9429237385191904e-03
      2.3504567151699410e-03 -3.8081828664916855e-03
      -8.0264685623880980e-03 1.1564443859176416e-02
      9.8499699767180642e-03 1.2331424301538827e-02
      -5.0068548872536540e-03 -4.9426767350343919e-03
      -1.1432067538271126e-02 9.8298365169041287e-03
      1.3507219883483667e-02 -5.1531688076650048e-03
      3.0918284115838486e-03 5.2177938961979918e-03
      1.2941795984723054e-02 4.1468621981948488e-03
      -2.8982806062155140e-03 -1.5520891208349724e-03
      1.2937226411282381e-03 -1.1110850835566748e-02
      9.2021718824323098e-03 -2.3690232670113645e-03
      -1.5011755062463120e-03 -1.3222302964520705e-02
      -4.8750306063692385e-03 6.7530429456881048e-04
      4.2309097869136251e-03 -5.2237588318260111e-03
      1.3383579236608479e-02 -1.2868232526233743e-02
      6.8402540874343692e-03 5.8974021783513375e-03
      8.1855572997332308e-03 1.5829670905784441e-02
      -1.0671226954864960e-02 6.3934173642484406e-03
      1.2804957572575859e-02 -1.1198475262100532e-02
      -1.2502651716236336e-02 9.7237994130384298e-03
      1.4152026949593157e-03 1.0403987122807601e-02
      9.6662414345379619e-03 -1.0700070317808064e-02
      7.9074264671953887e-03 2.9930031284072216e-03
      -7.0449525293031483e-03 1.2808131561752197e-02
      -7.4618170688338916e-03 1.1850122830412459e-02
      -1.3635033096655255e-02 -7.1902269243977260e-03
      -3.7505375380866195e-03 -7.1823116217168553e-04
      -7.2051932555617553e-03 -1.1942888643111337e-02
      -5.3317551331566590e-03 1.0365226142270584e-02
      9.9452081308425040e-03 -1.3876341722298065e-02
      -1.1080491948557487e-02 -1.0472982781691464e-02
      -6.4714451798630395e-03 -1.2621497421427024e-02
      -6.5818013498847685e-04 6.8893555125201711e-03
      3.0432931314756675e-03 2.0379439516137101e-03
      6.6497875083574316e-03 5.7349216392942716e-03
      3.1589650040965648e-03 -2.6925064366439947e-03
      9.2992186516009517e-03 5.4942467304529641e-03
      -7.8605608201875402e-03 1.1821179696182717e-02
      -4.7882295980103528e-03 -5.0340935153727080e-03
      7.6085313042982116e-03 9.6974902279511194e-03
      -1.2344494716147831e-02 -7.3487601611794805e-03
      1.0099818072562000e-02 1.4167163025193996e-02
      -2.2318020181196318e-03 1.1877538684276486e-02
      5.6739554056534332e-03 4.9215658893529907e-03
      -4.7473974724135714e-03 -1.0709193897931010e-02
      1.2425976199956884e-02 -1.0351995097846208e-02
      1.3413762682664962e-02 1.2689960042796225e-02
      4.6383281510698343e-03 -7.7373428404607500e-03
      5.6583855273098565e-03 7.7894866737041328e-04
      3.7456372724780124e-03 -1.3051225796037690e-02
      8.6453288328786921e-03 -1.0699555318554562e-02
      3.3174079182994149e-03 -1.2900255999641086e-02
      -1.0736750900227554e-02 -1.1562637464002573e-02
      7.4822485130941058e-03 1.2006803581695496e-02
      8.0476652702739671e-03 -9.1183061808189341e-03
      -1.0624248188353825e-02 -3.2950289179104570e-03
      -9.1662734397419017e-03 7.6977831656438404e-03
      7.9365288569492320e-03 3.3540203649935594e-04
      -2.1702776315868024e-03 1.0274463216823196e-02
      -8.2377169524296286e-04 7.7062376152235842e-03
      -8.4533368225688504e-03 -1.7655348563727488e-03
      -8.9802147171657402e-03 9.1521907110038905e-03
      -6.8585478073857780e-04 3.4384838185948946e-03
      1.2880257167108519e-02 5.5667754403330967e-03
      1.3401772347484906e-02 5.1419204523529939e-03
      -7.1433680116927637e-03 -1.1747029356674557e-02
      8.1548446906200278e-03 4.1901671661037677e-03
      7.5115897717506278e-03 -6.1805992817205871e-03
      -6.0390093270613551e-03 8.1098390770222625e-03
      -7.2026578311722954e-03 8.5965210248893590e-03
      1.3064780865786412e-03 -6.1677550369553134e-03
      -6.0870129886789158e-03 -5.9985386929709646e-04
      -3.6936334290286078e-03 -8.8488380801764483e-03
      8.5879608151243070e-04 -1.0691391421262851e-03
      3.0079442930861812e-04 -1.5053057258474977e-03
      1.3255262106054742e-02 -3.5842080796862925e-03
      -7.5032486679922896e-03 -4.4878418537602979e-03
      -2.7355766065798484e-03 5.7356417949974963e-03
      -8.6804359250271056e-05 8.4685002515269905e-03
      -2.2719545694622279e-03 -8.7681900743536087e-03
      -8.1037253822401883e-03 -8.7885850672570712e-03
      -1.2346920566866254e-02 -8.3084917734883162e-03
      1.1996216821773207e-02 -5.7482198098994727e-03
      1.1999610416340595e-02 5.6769622243449164e-04
      1.3462906526286453e-03 1.2473540959992459e-02
      -1.3650510757142652e-02 -1.2906688534252652e-02
      1.5006236912565791e-02 -1.1106095098563820e-02
      -7.1286570290806494e-03 8.0998949306684068e-03
      1.6987341981706079e-03 5.8734036880302891e-03
      5.3654337741700156e-03 7.8582371759503347e-03
      -7.0631192006889616e-03 9.7707183460364177e-03
      8.1012330608207644e-03 4.9421722135898523e-03
      -3.1565586430697427e-03 8.9508654517081159e-03
      1.2973288745954773e-02 -3.0487873194101913e-03
      1.0333486100703164e-02 -1.5346843393603553e-03
      -3.7081870826890895e-03 1.1959109642128530e-02
      -1.2191036928708439e-02 -8.6318913205057825e-03
      5.8426914651758220e-03 -9.4827193611707137e-03
      1.5443781133097547e-03 3.5337597739964087e-03
      3.8969174391217444e-03 -2.8260618037321068e-03
      1.2927836965236928e-02 -8.3220116086369176e-03
      2.9164364259149241e-03 1.7459628639892163e-03
      1.3513557324597391e-02 -8.4086430609895124e-03
      -6.8660666768806103e-03 5.5649368001791082e-03
      -8.8598317286265812e-03 -5.9664569356895417e-03
      3.5817954858737944e-03 4.6778345261956457e-03
      -4.8664903839927588e-03 1.2554065165327229e-02
      3.2432392617601697e-03 1.0043117015696499e-02
      -1.3290180590091700e-02 -1.0332577586653220e-02
      -1.3933383436513772e-02 -3.0368821852100871e-03
      -1.1143147403070002e-02 -1.5230457718676810e-02
      2.6156740591416774e-03 1.2812495349207429e-02
      2.1907567497813502e-03 -6.3051376144106002e-03
      -6.5438089416924947e-03 -9.3086578780671586e-03
      -3.3643454221211730e-03 -3.5858667450749480e-03
      1.4822316860628777e-02 1.3880019871873565e-02
      -4.5552983803884848e-03 1.0308795311137724e-02
      -2.0878187530816322e-03 8.4319190921726458e-03
      -1.3661271421017160e-02 5.9195262555747493e-03
      -1.0455206992467785e-02 5.1808367505569563e-03
      5.0505006113554518e-03 -6.5834522978535318e-03
      9.1731670668428900e-03 4.7324790170091167e-03
      4.5888580020982013e-03 -1.0404372694279178e-02
      -9.1826773814981128e-03 -1.3174548951034039e-02
      -5.2889665313644810e-03 -2.5888519910055212e-03
      -1.1786457310888282e-02 -1.0426953910570169e-02
      -5.4403639425962104e-03 7.6975163934875392e-03
      -1.2539098964535225e-02 -4.8313916950029180e-03
      1.1745045050707572e-03 -1.2234543496293632e-02
      -3.4669136811372606e-03 -7.2348561098803249e-03
      1.2012056267471463e-03 4.3767470506895752e-03
      1.2330022887275522e-02 -2.3102119054820656e-03
      -1.1056149733855620e-02 2.9092144791356828e-03
      1.3569323540079847e-02 -1.1598612207327161e-04
      -1.1023268195176284e-02 -2.6893398229665246e-03
      2.6975014490931413e-03 -1.2882239667052707e-02
      1.8040475808985921e-03 3.0783864566416744e-03
      7.5569268054425211e-03 -4.2146387367027402e-03
      1.9186430558554666e-03 -1.3493302416003463e-05
      6.5831965678498552e-03 -5.4618417094504188e-03
      -1.2028120450129189e-02 8.9460120143949225e-03
      -9.2829637512265341e-03 -7.0777781784975144e-03
      3.7769587475838810e-03 3.1182695279235715e-03
      1.1222756863044315e-02 3.5466629794306081e-03
      8.4773079545211495e-03 -5.7304273833683559e-03
      -9.3587044728302444e-03 6.4906335916323646e-03
      -9.3363770370367052e-03 8.5542212647705552e-03
      -6.0266255708154477e-03 1.4251370506328473e-02
      -7.3439842347223323e-03 1.4725819812558015e-02
      8.9198383857598410e-04 4.9577558197289725e-03
      6.2760294044705836e-03 1.1855317711913562e-02
      1.0167010421175458e-02 5.7989511195094589e-03
      -7.7985922297616897e-03 -2.9047206934596395e-03
      -1.0817232252338870e-03 7.3536559133940572e-03
      -1.3346479880813281e-02 4.5934715332686246e-03
      1.5069159067685856e-02 -9.3277317032573765e-03
      5.7841155145716390e-03 -8.0310678487905253e-04
      1.1461475960428895e-02 -5.4106491719335932e-03
      6.9740023580289866e-03 -8.0012418304016616e-03
      1.2558423194784007e-02 1.0918569202217321e-02
      -2.9065429636855491e-03 8.0463950583371871e-03
      -4.1753417897850602e-03 -8.3098137435593192e-03
      2.9300775434846051e-03 8.8025560038449693e-04
      -1.0595538821741069e-02 5.4003999306130044e-03
      -2.2632623393758107e-03 -1.2379001506788225e-02
      3.9412423546037346e-03 -9.4972260116421899e-03
      4.9658744845412035e-03 -6.5619383045989596e-03
      -1.0328803411047747e-02 2.2963515518926070e-03
      -1.3009078510174800e-02 -5.2006948118034227e-03
      6.2994564700883720e-03 1.1148840083440163e-02
      2.0756459556303731e-03 6.2414951574189597e-04
      1.4782121008255432e-04 2.1714527114891431e-03
      -1.0983530217444176e-02 -5.2880481824849682e-03
      -1.0252256387765678e-02 -8.4597020839655597e-03
      3.4224453328367851e-03 -4.3869790737193371e-03
      8.7168055189849828e-03 8.9596297244826720e-03
      6.3330226164054124e-04 -4.8462945245959926e-03
      -1.1361316029241541e-02 -1.3886292063813902e-02
      -4.8018253178395203e-03 -2.5846092313127830e-03
      1.2281449248152635e-02 7.1436394747942129e-04
      -1.0983365840054774e-02 4.0356478210829593e-03
      -7.1273904286033715e-03 -9.8638488395194472e-05
      1.0822232383447072e-02 -2.4369333568964816e-03
      2.6646647467858113e-03 9.1314980087160574e-03
      1.3880484596351866e-02 1.3419318959470907e-02
      -7.3868899246945143e-03 9.8009899765312495e-03
      -1.4277489349372513e-02 -7.4240778416509558e-03
      3.0927739875808271e-03 7.6767976575443176e-03
      9.0544099367749833e-03 -1.0508650801203509e-02
      3.0037907627661030e-03 -6.7231037678667357e-03
      -3.6453284336231020e-03 1.0419115836144219e-02
      -1.3126330739357482e-02 4.0890233896664595e-03
      9.1958802712531398e-03 3.3269635547801086e-03
      -8.9762695429462386e-03 -3.4728728585774892e-03
      -9.6045539359229572e-03 -9.9802522086322246e-03
      -8.0272556135033862e-04 -5.8980891107833187e-03
      -3.8535362224030997e-03 -1.2630780431417602e-02
      -3.2864815486696049e-03 -1.2755192663814280e-02
      -2.3410657258980698e-03 8.3509996852406121e-03
      6.9652050198353603e-03 4.6799574110314877e-03
      -1.0003751424957956e-02 -6.0698035001257320e-03
      -1.0382860399894707e-02 -2.0891738027035128e-03
      -8.7341651982705808e-03 1.3686044777098149e-02
      6.3071461834551014e-03 -3.9167170517596349e-03
      -6.3913144227532200e-03 7.6292272040937004e-04
      1.8729441542746073e-03 -5.5207239160679359e-03
      4.9492094444458295e-03 8.9768618744966947e-03
      6.4698049360411569e-03 -1.3103400538197430e-03
      -1.1885734318260992e-02 -8.3745381756897847e-03
      -1.2700114952019802e-02 1.0543750629144406e-02
      -1.4033447610089124e-02 -1.3655408631460756e-03
      -7.3838026839132169e-03 -6.5487063515667189e-03
      -1.4312386482368031e-02 -2.4452328942481845e-03
      7.2629053853375094e-03 3.2908037729689780e-03
      1.2497563515322207e-02 9.3935275580699987e-03
      8.2394773737598688e-04 -8.9808916159541318e-04
      2.1506895310511548e-03 2.4649470595278183e-03
      -5.8602735555240443e-03 -1.0381705426242666e-02
      2.4008666744223584e-03 -1.3942545265892737e-02
      -1.1017223419217587e-02 1.1930712397121753e-02
      6.0809486665978716e-03 2.8623714568270990e-03
      -1.0116749794876357e-02 3.1746503495053962e-03
      6.1899512916897990e-03 4.7569983370097111e-03
      1.0688807235184280e-02 -2.7918543457625799e-03
      6.8093952573917453e-03 -5.9993458620522799e-03
      1.4364346312768756e-04 9.8610462714824512e-03
      -7.6364988353487340e-03 3.5532021909832484e-03
      -9.6396359802453993e-03 6.6236211003234818e-03
      -6.2328394405888141e-03 -6.7763442353593597e-03
      -4.1856764808875921e-03 3.9133882189357344e-03
      7.7830508319206605e-03 1.2039243031886002e-02
      -6.8076932456606263e-04 9.6870218673326385e-03
      -3.0640978426275016e-03 2.3029355134655369e-03
      -7.2853890307255174e-03 1.0069036930772214e-02
      -1.0499524720362223e-02 -1.2956925528335626e-02
      -6.7950303555095772e-04 1.0908161361029189e-02
      6.6939070989735609e-03 -1.0568533306145491e-02
      1.3399289750398448e-02 -4.8623594081500833e-03
      -7.0118764769048667e-04 -8.6180294299350851e-03
      -1.0239592035879277e-02 -6.5583530081554714e-03
      -1.0487155329307945e-02 6.4401547888221994e-03
      1.3785615539759467e-02 1.1631297665410257e-02
      1.0058631517431975e-03 9.9313063244683610e-03
      7.4990300782109545e-03 4.1895121919195951e-03
      9.8113988133015327e-03 -1.3922180782262405e-02
      -9.5842508914067200e-03 -6.5314415327203659e-03
      -5.6342033465277136e-03 1.1157761744189790e-02
      3.0600737941314494e-03 5.0446711855016359e-04
      3.0163097115375498e-03 1.2415929578353349e-02
      -8.2103330819657937e-03 2.8359201312054402e-03
      3.3054651944237081e-03 3.4957795431524163e-03
      1.0447916475257035e-02 -1.0913597063684466e-02
      1.1665097046813910e-02 5.0695260406441959e-03
      -1.3099797875642746e-02 -1.0270549707936779e-02
      9.3461873367081737e-04 -1.0739680408137659e-02
      1.6704136199918488e-03 1.4040027529071339e-03
      9.4559438586558197e-03 -1.0315903759802153e-02
      -5.1880868868994980e-03 7.1760140138859875e-03
      -4.9546277588405248e-03 -3.9268667776364528e-03
      9.9091089624729501e-03 1.1797644487139707e-02
      -4.0864567841664519e-03 -8.7063042424824263e-03
      4.4931137575920316e-03 9.7255436403192019e-03
      -5.6422248620988241e-03 -1.1946808435699455e-02
      -6.8179991301278997e-03 -8.6436565334748108e-03
      -9.6575672975300602e-03 7.3448526915872092e-03
      -4.2893115660628032e-04 -2.7399878803256953e-03
      -6.8595990566403962e-04 4.4070848307444597e-03
      1.3021966703023302e-02 -3.7573264583915010e-03
      9.0402303525381998e-03 3.5533863892692175e-03
      -7.5014637648358855e-03 -7.3453492065818898e-03
      -9.5652155068781889e-03 -7.0094571485700176e-03
      -4.8957312183725244e-03 1.3262356228659081e-02
      6.6562929383790883e-03 1.3968278386787967e-02
      -2.0670737869000269e-03 2.0902596845285017e-03
      5.5472341252800319e-03 -2.6615760443212361e-03
      3.8328711682793074e-03 -2.8277881689527770e-03
      -6.8390472902547551e-03 -8.0214351303065003e-03
      1.0782838811130383e-02 -1.3510834093565269e-02
      1.3526326492339858e-02 5.1028609324080898e-03
      -5.6911042789888197e-04 1.2061556762088801e-02
      3.9757631938122104e-03 -8.3175832367603317e-03
      -3.9060709684583420e-04 9.2748437653181592e-03
      -5.4236772128566551e-03 -1.0620556812975140e-02
      -8.7839524441594864e-03 1.7156083944414799e-03
      4.7250170447875458e-03 -1.1057973560459584e-02
      -7.8886113384287956e-03 1.2574184013264854e-03
      -4.8212579724842284e-03 7.9056860780222138e-04
      -4.6293074992155491e-03 -2.7297732889582063e-03
      -9.8563773585094317e-03 7.9225820256866100e-03
      1.2112654432119636e-02 -4.9153536437724259e-03
      9.8971458859454138e-03 -3.4193122764441639e-03
      -9.4153901193241192e-03 7.7812888905098403e-03
      -9.8703562721664737e-03 -1.2789183961355576e-02
      1.3386799318407203e-02 6.5266949425513109e-03
      -4.4975044143493251e-04 9.6272898687955154e-03
      1.1827573416569718e-03 7.2918227093956428e-03
      1.4207849967965286e-02 -3.1836225177439066e-04
      6.4467293892079411e-03 1.4539692232008847e-03
      1.1392039486049737e-03 4.6709549706637132e-03
      1.4353852170892977e-02 8.6146430431322460e-03
      -1.3077060042744576e-03 2.5114279796091868e-03
      -1.0988250427100185e-02 -1.2688848659783718e-02
      -9.2033804518162170e-03 -1.2935624650395413e-02
      7.6381537962235055e-03 4.2611633926519250e-03
      -7.7069248832668481e-03 9.4457968944248842e-03
      3.3314736609760258e-03 9.2565460918376651e-03
      -1.3025638734983780e-02 -2.5153910941054991e-04
      3.4890143240588552e-03 -5.2882931979527171e-03
      -1.0967532539819847e-02 -6.2693011059809147e-03
      4.3296040574401064e-03 1.2979485332394753e-02
      8.8026729152605107e-03 -3.1971789529423723e-03
      7.6941923743053722e-03 6.7750190809826912e-03
      5.5709045959093043e-03 -8.2182930602388293e-03
      -6.9809835979216736e-03 -1.0991804653107994e-02
      3.4166644335293372e-03 -7.0526747454396034e-03
      -1.3605378466554854e-04 3.4684222422634967e-03
      -9.6068748839637820e-03 2.0588159336732996e-03
      1.2623629985860049e-02 -1.3446977940834628e-02
      -1.0276726701731555e-02 5.3435708815715282e-03
      1.0919639654453113e-02 8.2951338598662092e-03
      9.0998264417051205e-03 1.7555011673126184e-03
      -5.0647399843088796e-03 4.0536664876564257e-03
      6.6730366853931496e-03 3.0266621167045803e-03
      9.9782250640641119e-03 3.8634057283322689e-03
      1.3461767997083636e-02 2.1425312148509765e-03
      5.7401503246610839e-03 -7.0038342736177747e-03
      1.4187425131945109e-03 9.3572453511042486e-05
      2.6587015683814685e-03 7.6243422925376730e-03
      1.0789665208389700e-02 -1.5724516538743209e-03
      1.1978691968163984e-02 -3.4916950476920447e-03
      -6.4223710027283259e-03 -3.1276254135300767e-03
      3.7405815797744301e-03 1.4469591031309311e-02
      -9.0536003881968030e-03 1.1235883799754844e-02
      5.5512881191474182e-03 1.1679309355835043e-02
      -7.5070344787041502e-03 4.0014699526740591e-03
      5.4545019455675744e-03 -2.2394286739889323e-03
      3.0542453732170642e-03 -7.6293836398005719e-03
      -6.7932380493386868e-03 -9.2358536823095114e-03
      -1.0890094426420053e-02 -1.1657904764776466e-02
      5.5054401036867201e-03 -2.0552853100819532e-03
      -1.0791721690687582e-02 7.9585068011103089e-03
      -1.3355953974878982e-04 2.0304033444183195e-03
      -1.0368784761886738e-02 -7.1554269377408749e-03
      1.1409488089202328e-02 1.2938737854620283e-02
      1.2611520007369223e-02 -1.2223240863248786e-02
      -1.0243052136888059e-02 -2.4631861076527518e-03
      8.6931811727504974e-03 -1.9346596920957197e-03
      -1.4995011134963931e-02 2.2073242193133063e-03
      -2.4226465042586970e-03 -1.6531469732552265e-03
      8.8781023809557068e-03 -3.6768136809261615e-03
      -8.5401441451899069e-04 4.1660506388879436e-03
      -5.9160163333123019e-03 -5.7832816476591021e-03
      -3.2202929924408574e-03 -1.4031410042622572e-02
      -9.1546945237273442e-03 -4.1985156777049415e-03
      -2.5429966599570318e-03 1.1594756824224967e-02
      -1.1680099553706590e-02 1.0657343357401008e-02
      -1.8919744707703097e-03 -2.6928449067615242e-03
      -4.2442864796406139e-04 2.9493681173946998e-03
      2.3445453342163134e-03 4.1987494106577661e-04
      8.2288117038636643e-03 5.4623560842865018e-04
      -9.2877461097966426e-04 1.0820025691956774e-02
      7.0204495753471352e-03 5.0477833404947872e-04
      -5.3336577788045793e-03 1.1917296018358838e-02
      -8.2268791109128131e-03 9.5187971717512806e-03
      3.8374089270200441e-03 1.2779712499344819e-02
      -3.0800368888344435e-03 4.3480962531777991e-03
      -5.3989277946866023e-04 2.6443574174540370e-03
      -2.3749328462494661e-03 7.2280589080975476e-03
      1.3022321221644557e-02 4.8866183103325493e-03
      -1.0446044940134479e-02 -1.3260647523033754e-02
      6.8468241158001261e-03 9.0488432106486417e-03
      1.2054565573037893e-02 2.8743472569203498e-03
      1.3052791674569571e-02 -1.2095753070372360e-03
      8.6743183097472629e-03 -3.2859326510083250e-03
      4.6174067645226198e-03 -1.6744464310336194e-03
      9.6797537090675748e-03 2.8354354696123838e-05
      6.6237393247748095e-03 -1.0119032156555402e-02
      -4.0512153029486422e-03 1.7956297307360021e-03
      -5.7226218135818362e-03 9.2795236854671878e-03
      4.5551587294958146e-03 5.3634635675328104e-03
      -1.8129504149678637e-03 2.5318392490758942e-03
      1.1035755811755471e-02 1.2332599139195871e-02
      -1.1440075814248428e-02 3.4655257906852483e-03
      9.8911293399981202e-03 4.6780700797079862e-03
      3.1396747451757048e-04 4.5334498915084991e-03
      8.1611228692071210e-03 1.1653862228004226e-02
      -1.1433072977162220e-02 1.5995472199403953e-03
      -1.2294060308160808e-02 -1.2871011101484668e-02
      7.5836818557167207e-03 -4.4858599037551445e-03
      9.7331466768830494e-03 -9.2338914038984886e-03
      8.3683208293681578e-03 1.7006486094623169e-03
      -5.9539892905506250e-03 7.2895950122270651e-03
      -1.1121281746712676e-02 4.0489412924442966e-03
      -1.1003227186188822e-02 -5.3103042680881915e-03
      -1.2757379611348138e-02 7.1343581831956092e-03
      1.3726643965692053e-02 1.3436193204600646e-02
      9.9690333136166903e-03 -8.9303099679342024e-03
      5.5037162387055498e-03 -1.2556397997400066e-02
      -5.6657509107287153e-03 1.3484024778059418e-02
      8.7266649415897648e-03 -1.1570284989611134e-02
      -8.7010070521049247e-03 2.9218369826127842e-03
      -5.6218708011512150e-03 8.3429540166177034e-03
      8.0966617122994449e-03 5.6900663209956863e-03
      -7.4780318692047138e-03 8.6389973542826057e-03
      1.0044893433584080e-03 -6.1329291890481578e-03
      -7.1899058950565834e-03 -9.7064669049355852e-03
      -6.5508938122822939e-03 -3.2641917800734816e-03
      -1.0426073554406887e-03 -3.7694346032432465e-03
      2.6855328863472049e-03 -1.2962951372212969e-02
      8.3287023914578977e-03 -1.2042000498951960e-02
      -3.0028863879393024e-03 1.8372288358106405e-03
      5.4055597135560206e-03 -7.8069776576609991e-03
      6.8256263553947011e-03 4.6244894886853932e-03
      2.2247487388456413e-03 1.0527264651757649e-02
      -1.1233253038729622e-02 9.7576899405554165e-03
      -1.3608901864076497e-03 9.7096735775153188e-03
      1.3007617484330259e-02 1.0134352386145696e-02
      -6.0535759577987607e-03 2.7119126124328331e-03
      -1.0369701564276364e-02 1.1670554209774980e-03
      5.2417980157241934e-03 -9.3653768927650111e-03
      5.9546261369975671e-03 1.2140489763089736e-02
      -4.2603960702706544e-03 -7.8918612058371026e-03
      2.1606910499488575e-04 4.2726629409690917e-03
      -6.3641193503128745e-05 3.3178178827195869e-03
      -9.4807004030112475e-03 7.6606686558992887e-04
      -9.3860982236199774e-03 -3.5052769856385893e-03
      -9.8286982623201208e-03 3.7560397697395300e-03
      -1.0481002682941139e-02 1.0862009094565863e-02
      -8.2401382503371062e-03 -8.1640764161080345e-03
      8.6158526988246217e-03 6.9820182224708096e-03
      -8.7963938257726460e-03 9.3753107040808904e-03
      -6.2373604385070223e-03 5.6425968786989008e-05
      -5.6216490057922723e-03 -8.3772728760347324e-03
      -1.4415355535648754e-03 -6.6304027743211971e-03
      7.0658714363785015e-03 -1.1469718475134304e-02
      -6.8670849085105913e-03 4.5591852414346537e-05
      6.3413473772246445e-03 -2.7685646617829646e-03
      9.0899804296294545e-03 -5.6017162887787961e-04
      -9.6441095556477063e-03 2.7035091073192314e-03
      -1.2630178942199069e-02 7.0706692556410915e-03
      -3.9355043301842023e-03 6.7595287908885169e-04
      6.4939674079298919e-03 -1.1965518752071431e-02
      1.0950749404644751e-02 9.7918000425958763e-03
      -2.1661941938828236e-03 -2.8199819613073523e-03
      -1.3418166427546835e-02 6.4459960893932322e-03
      -1.1472307305276291e-02 9.5066838652612534e-03
      -1.2621195428499002e-02 1.2195584883197082e-02
      -1.2138187394562580e-02 9.9139579022832561e-03
      -4.1283765940755930e-03 1.3675975298155856e-02
      1.0028184549602498e-02 5.5494173193605745e-03
      -1.3710307934576078e-02 5.0628221163845303e-03
      2.1955554110673512e-03 -1.2203242480645927e-02
      -7.2066241608584949e-03 -7.1993831796117987e-03
      -7.2422335465606447e-03 9.5006487527089858e-03
      -2.2480538635816808e-03 -9.0048849155983466e-03
      9.6752371325586339e-03 1.3110660114436670e-02
      -4.8492705816549917e-03 -3.4263484052835555e-04
      8.6844846693351525e-03 -4.1238330186984052e-03
      4.4911710504602484e-03 -1.2671249838000352e-02
      -4.9294624914265235e-03 1.3605658827509816e-02
      1.0997026178378628e-02 6.0746482645450510e-03
      -2.5972153513588252e-03 -3.4823328103017527e-03
      -9.5296138869419272e-03 -3.1325414640218196e-03
      -5.0517991547540135e-03 -1.0209993587011735e-02
      -2.9927341838729450e-03 -1.3105050247040430e-02
      1.4777032258343559e-02 -1.3526410510516718e-02
      1.0769592537751413e-02 -8.5615983003501078e-03
      1.3146552934746496e-02 -4.3099500454885260e-03
      9.6720432211452149e-03 -1.0137171933092668e-02
      -7.1877691503326432e-05 -1.1003361210169463e-02
      -1.2904092262985872e-02 -6.3565486581282611e-03
      9.3127335399223569e-03 1.5231011177160978e-02
      -1.1465074894697148e-02 -1.0749415486514947e-03
      6.8650839975947526e-03 8.0373057981350752e-03
      4.3242717304364607e-04 -2.7020577443181933e-03
      -3.6922848525914758e-03 -1.1542668130373811e-02
      -8.2829173732383212e-03 -6.7756829648729991e-03
      8.1136945909374165e-03 -1.2061466769288227e-02
      1.1483679491377201e-02 1.2594074856494374e-02
      9.2655901398744061e-03 -8.7929700164478628e-03
      -1.1265942044689392e-02 1.0994982440749127e-02
      -6.4537745910000499e-03 -1.3436360564124188e-02
      -3.9830973608086639e-03 3.0195871594918184e-03
      -7.6158634465634560e-03 4.9075600291890184e-03
      1.4245875107077571e-02 7.2406060616381903e-03
      -7.8382574107738849e-03 1.3345898482094999e-02
      1.1067303927124281e-02 1.2124567970075382e-02
      1.0564752836142388e-02 7.9635574433860670e-03
      3.1913975794228876e-03 -1.1917208052538342e-02
      -2.6087823512630638e-03 -7.7888937280731580e-03
      9.3880962716420078e-03 4.3023998673304202e-04
      7.8209546603108821e-03 6.9797195257501514e-03
      6.0881907440155500e-03 -3.7913348889784806e-03
      3.4203163206801088e-03 5.4619271651387214e-03
      -4.6234067539780797e-03 -7.1166634477271935e-03
      -4.2120773790409356e-04 -6.1718050465157121e-03
      -4.0138809650124303e-03 7.7110905374988600e-03
      1.3453565419673099e-02 6.0122955404709232e-03
      7.7245709611845157e-03 3.3357824114653612e-03
      -6.3768372865627525e-03 -4.4744988391731142e-03
      -1.1886367449313489e-02 8.0281692278799362e-04
      3.0451275690217936e-03 -7.7531471544880305e-05
      -1.1955393812575699e-02 8.1653679171843612e-04
      1.1816299827923109e-02 7.0980218232130866e-03
      2.5573354067691804e-03 6.5640950565694425e-03
      1.3902965019197380e-02 2.3599264555331291e-03
      1.4890440752068251e-02 -1.2355188795186633e-02
      -6.5524701320060792e-03 -5.7039722661817154e-03
      -1.0800220572416737e-02 1.1286941212984149e-02
      6.2019159729318277e-03 1.1772172272848082e-02
      -9.6764714578481889e-03 -9.6645673582019809e-03
      1.3421795216969169e-02 1.3021570234288455e-02
      -3.7256139149277044e-03 1.5900422195971803e-03
      2.5080737178227691e-03 5.4114236926137010e-03
      1.3681328121135422e-02 7.5011332204136761e-03
      1.4657432601997084e-02 5.7691777171807969e-03
      -1.2239458909286714e-02 -7.0621168099036598e-04
      -4.1799820610094350e-03 -4.2811324908535019e-03
      -2.7061389587430640e-03 -1.2781477179862562e-02
      1.8331837244113208e-03 -2.0435297543629095e-03
      -5.4847633762544713e-03 -8.7830823409425600e-03
      -9.1157667383151477e-03 1.0070868371044150e-02
      -1.1552312701630133e-02 -1.6762674767897602e-03
      -3.1748782668547704e-03 -4.5567869021798978e-03
      1.0497882849182945e-03 -1.1722209838138875e-02
      7.3752330923536370e-03 1.1323796006217962e-02
      -4.5219025141724880e-03 7.7714501807618196e-03
      6.5299837188337847e-03 -4.4010071570858688e-03
      -1.5713639565597744e-03 2.9020143385446867e-03
      4.3940322418001372e-03 -4.8690602594179764e-03
      7.3991680679409561e-03 1.1303013251045699e-02
      -1.1061990387190376e-02 2.5459792780786021e-03
      1.2646682898515187e-02 1.9340357423400778e-03
      1.0020589835169137e-02 -9.7904494949993884e-03
      -1.2221508601425537e-02 -1.1498819323447864e-02
      2.0501144248402507e-03 -3.8155943453705099e-04
      -9.4397007869675958e-03 8.4189643074640032e-03
      5.0011528198695750e-03 7.0867970973908763e-03
      8.8574209644617478e-03 -1.6045483953550292e-03
      1.3683937879819049e-02 7.1337269150258337e-03
      -6.5926923194802008e-03 -5.9503693035134432e-03
      -2.3276225371541008e-03 2.7281413814532079e-03
      -7.9543234969210487e-03 2.6638517098019391e-03
      -1.3796771928285550e-02 -5.3992537500451724e-03
      7.4995303325175403e-03 1.0558143402629630e-02
      1.3572800563989580e-02 5.4810643239275383e-03
      -8.9653010778749792e-03 -1.0458433323127311e-02
      -7.7227496713925007e-03 -1.3761224521740669e-02
      4.8432352064163766e-03 5.8449892752275023e-03
      1.2348895268335183e-02 -1.2978097294633371e-02
      -2.8390748349505215e-03 -1.2496977323188932e-02
      -6.2096959673600498e-04 -7.0336323941936583e-03
      -1.1527741183309945e-02 -1.5109198217310182e-03
      6.2931537123343271e-03 -7.8161504673164540e-04
      1.2971693892220874e-03 -1.1209863476254632e-02
      -4.1766059317906645e-03 1.0884812928394435e-02
      -6.7679217083782663e-03 -2.0369266381024993e-03
      8.3934406808546420e-03 3.6087504034986663e-03
      5.4106396143770701e-03 1.4032290661672170e-02
      6.4271905963694141e-03 7.3870665458714907e-03
      1.2527148878609229e-02 1.1519423545820815e-02
      -7.9981797649191187e-03 -1.4206479080169769e-02
      1.3313806486195951e-02 8.1148082705090547e-04
      9.7207905208139891e-03 -6.9217079682009283e-03
      3.0982034783631571e-03 1.3633663640465416e-02
      2.6579241674397681e-03 -1.0499272263711473e-02
      4.7135794403186889e-04 1.3058869777413027e-02
      3.9001036304113338e-04 8.5700385493075386e-04
      -2.6295027729689754e-03 6.7232887870358185e-03
      6.4895181856482100e-03 1.3038133915319399e-02
      4.9358754665657367e-03 -6.2537313717647616e-03
      -9.3467686299907819e-03 1.3609827396689235e-02
      -8.7112953318457410e-03 -4.4304095978588143e-03
      -1.4149816223024882e-02 1.3772482224939590e-02
      -1.3998145746124943e-02 1.1187559881087336e-02
      -1.1243706571205398e-02 -6.4822771495437878e-03
      1.1213834007621279e-02 -1.2136800280723812e-03
      6.3049809343515041e-03 -1.3400629121168807e-02
      3.9159025912906169e-03 8.5444266654451546e-03
      9.4354480730952971e-04 4.1080397422392657e-03
      1.3952317559643461e-02 1.1443598879970988e-02
      1.0660398553997336e-02 1.8366265852316841e-03
      6.6886671144260022e-03 -7.4000940443960861e-03
      5.4502223754820806e-03 -3.0865770166708761e-03
      -1.1136302634329050e-02 1.0484492766706221e-02
      -1.4893115263837292e-02 -1.3175034885511996e-02
      5.2138245827925399e-04 -1.4153272200020633e-03
      -6.4786950665692662e-03 5.5197673212457957e-03
      8.6042559132093535e-03 -4.1189527184424011e-04
      -3.5506131511697015e-03 -1.0746316676845962e-02
      7.2216829855130298e-03 -6.4663844723657042e-03
      -6.5400494107404851e-03 -7.3328526468250950e-04
      -9.2575811364031015e-03 2.0408203510886270e-03
      -1.1317875679109270e-02 2.0686151568718187e-03
      -9.5626371844103261e-03 -8.2026011835824413e-03
      6.6026939835885567e-03 -1.2103783915459177e-02
      3.4171848080836883e-03 -2.2718400206097962e-03
      -2.8387675806746952e-03 -1.2085300396212481e-02
      -4.8087213671989754e-03 -4.5626492432681090e-03
      9.5863933683247374e-03 -8.7375174243787806e-03
      -5.2953416016947369e-03 1.4598802817597384e-03
      -1.0021223262912162e-02 -5.0614827379239337e-04
      -9.6967835453579693e-03 -1.1765673262950294e-02
      6.2569378032742160e-03 -1.1584510830853819e-02
      6.6692661340496916e-04 -3.3220711684017246e-03
      -8.9282915563239763e-04 -6.6692378227322631e-03
      -9.9483370841901425e-03 -7.3963224474075473e-04
      1.5087357873275495e-03 -4.1279204774487491e-03
      -8.5143915107744189e-03 1.5990896260011770e-04
      8.4749603172110943e-03 5.7449469069596288e-03
      1.0282655331563433e-02 -8.0015717523459415e-03
      -6.0686156779633689e-03 3.5466561699931979e-03
      -9.2212133040141843e-03 -5.0355285058204751e-05
      -1.0213984143477187e-02 2.5020754442653722e-03
      8.7040063679432820e-03 -6.8619540395884636e-03
      1.2499012836037835e-02 -3.5789423420614793e-03
      6.4644680967392435e-03 -3.5824864292412308e-03
      -3.4061122407000777e-03 -8.2802648344801712e-04
      5.0579355213607041e-03 1.1709838079198207e-02
      9.2616326444479695e-03 -5.0081977095759646e-03
      -1.1091071260069014e-02 -4.7661161181481457e-03
      -1.1319602811200608e-02 9.9645543533036611e-03
      1.1366283082740141e-02 3.2692003721787777e-03
      5.4823829813976958e-03 -2.4434408810499642e-03
      7.5361747350730680e-03 -1.1067459536372504e-02
      -5.4209508050805993e-03 7.0643324129193710e-03
      9.8843975070735356e-03 6.9656262729736844e-03
      7.9690501810100560e-03 7.8001660745740196e-03
      8.5496401546143706e-03 -1.2939578639056808e-02
      1.3032404865962551e-02 -5.2008880731568069e-03
      9.8666195763956431e-03 -8.2433268229361104e-03
      -3.7907359726847907e-03 6.7473860169066126e-03
      -9.4244141222529255e-03 1.0877484445598948e-02
      6.9839081628735302e-03 -8.4034784113627727e-03
      -3.8848160185446417e-03 -5.0697529886796246e-03
      -8.2297152577299670e-06 6.5156174546545063e-03
      -1.1507848366230111e-03 -1.8818347284384124e-03
      9.1426807792114005e-03 -7.6956714558050416e-03
      -1.0472717033555335e-02 -1.5058286476365701e-02
      1.4411657735053313e-02 -8.7261310349258641e-03
      -1.0285060150679523e-02 -3.3257565982569015e-03
      -2.4794417454008255e-03 -1.3573207727071431e-02
      -6.3449581650304844e-03 5.4923589640855129e-03
      -6.6609420050130095e-03 1.1298730380206033e-02
      -7.5229922431666284e-03 5.1001066608959309e-03
      -5.9239741974794022e-04 2.4905824586420066e-03
      1.0069808374169252e-02 8.0170984137899227e-03
      -9.5665859098237674e-03 -1.2390536712416900e-03
      -5.6131783895702189e-03 -5.4909384892609129e-03
      8.8313655729490015e-03 -6.9876228014673029e-03
      -1.2651962013202987e-02 -1.1164756856064936e-02
      6.7554340316733439e-03 -1.2397047927489203e-02
      3.5389398039948272e-04 4.5315236320369774e-03
      9.7895033124012227e-03 6.7638384771339499e-03
      8.1381115843972649e-03 -9.0554293523494814e-03
      -1.3531755151393019e-02 1.0004596858955083e-02
      -7.7481587142272214e-03 9.9243066092471067e-03
      1.0050368905993635e-02 7.6432215762090366e-03
      2.2321135245105105e-03 -5.9064643040801735e-03
      -3.4724402962508124e-05 -1.4355696096588870e-02
      7.9662832205798940e-03 9.3280194255235833e-03
      5.6467008546303901e-03 -3.7357405889350544e-03
      -1.2717593651101387e-02 -1.4189064910265094e-02
      -2.2230915464720013e-03 -1.1531923082297469e-02
      -5.3856607852802519e-03 -1.3293813371740524e-02
      2.6741792675934141e-03 -8.9281130544176298e-03
      1.1137743171557357e-02 -1.1267148311767844e-02
      -1.3195027389464493e-02 -6.7365131826105503e-03
      8.9390647790782984e-03 1.2821550836603831e-02
      5.4885074743693191e-03 1.1613407229464761e-02
      5.1965724143945959e-03 -1.3284350390236501e-02
      8.2298997825693606e-03 6.2305657645918867e-03
      -6.1426797687715966e-03 -1.1808722402247094e-02
      -8.8435511159959002e-03 -6.4455004744553897e-03
      6.7953860903474808e-03 7.9452839214011323e-05
      6.9747266073388343e-03 -6.7215143860751697e-03
      1.0763837066517823e-02 3.9844222353131427e-03
      -1.0128185728284368e-02 5.1677974954212847e-03
      1.0903308597801127e-02 -1.1425438330259196e-02
      1.1351289496476406e-02 9.1624982210967935e-03
      -1.3410240144247736e-02 1.0144563434823161e-02
      -1.1540087928777653e-02 -6.2981159195308429e-03
      -1.2377650383744434e-02 -1.0314664224706109e-02
      -4.8971453181756086e-03 7.1430773652089979e-03
      -8.4821785345046505e-03 1.3849252668565471e-02
      3.8361171073101412e-03 -1.2446900091968955e-02
      4.6020713665689056e-03 1.3148687536342234e-02
      1.1813623749880015e-02 -3.3059516105818378e-03
      -3.2147495398554475e-03 -3.1527768930404176e-03
      -1.3889515506729514e-02 4.8093623831597753e-04
      1.0051529140401437e-02 -9.5468369590726802e-03
      -1.3644310058781947e-04 1.1106664520658437e-02
      8.8126774348146839e-03 1.2397781956864515e-02
      -1.0817257584715932e-02 9.7921608127931672e-03
      -4.6956149447565801e-03 1.3095571100204749e-02
      -6.3596266817680892e-03 9.6550730372622091e-03
      -4.5780906988629301e-03 -8.6241819188801385e-03
      1.1284057803774715e-02 6.8068364830357131e-03
      7.3510378863634162e-03 -3.8767438199201554e-03
      -1.3626585877995234e-02 3.3854144595682834e-03
      -2.7723742102861073e-03 -4.2155147734290700e-03
      -1.0102862072630552e-02 5.9263120080369413e-03
      -7.3182271327871546e-03 1.2206419277257565e-02
      2.5383150215952900e-03 7.6470506765543168e-04
      -6.7566466911337828e-03 9.6141867287825380e-03
      1.2168499346256259e-02 -1.2941683312085407e-03
      1.3072718184210135e-03 -1.0490845213052703e-02
      -9.0904329168784957e-03 -5.6991946475627277e-03
      9.0948862258718507e-03 4.6593166815325562e-03
      1.0062012681683927e-02 9.2708542197054884e-03
      -1.0793329074488661e-02 2.8563547627202751e-03
      -1.3898715354555218e-02 -6.1160375132818688e-03
      1.1576214768078534e-02 6.0232051239337480e-03
      -9.8645854535122889e-03 -3.0961170986773994e-03
      1.3129797918078327e-02 8.2210956580155651e-03
      -7.8707228646362551e-03 -1.9964110039182906e-03
      9.5708507362062840e-03 -2.7511283729538083e-03
      -1.1475392247178591e-03 9.7550398212253777e-03
      6.8265334982748928e-03 -9.6200052088092972e-03
      -1.6883308023069839e-03 -9.9099661018440003e-04
      -9.9048866162803912e-03 -1.9059850743784225e-03
      9.0747950590194543e-03 8.6819427408087527e-03
      6.7869856949685685e-03 -1.0868144726490303e-02
      1.0978525279575754e-02 6.5775690142376242e-03
      1.0326002334597901e-02 -2.4040409471870556e-04
      -4.3181857739884484e-03 -1.1892133331111301e-02
      6.2306513383654236e-03 -8.8990254406573818e-03
      2.0840964123080160e-03 1.3853643562539448e-02
      -5.0208665366747859e-03 -7.9808724536520551e-03
      3.8434837134950686e-03 -1.5409163525924013e-02
      1.1017575073055173e-02 5.3245357069149233e-03
      -4.3355480735531087e-03 1.0618705977630604e-02
      9.8540037774335638e-03 1.8515108542405403e-03
      5.1827436716092752e-03 -4.0591452983074570e-03
      4.1140129065079696e-03 -1.1113442618644841e-02
      1.2564143910865152e-02 1.3186667197793418e-02
      -5.6903311326338612e-04 -1.1050258288845639e-02
      -5.6291354091329978e-03 5.2214793142010994e-03
      -1.2769263515299818e-03 -1.3407233473613290e-02
      6.0857121823238991e-03 -8.6307458131125309e-03
      -2.6327873884592914e-03 5.8291500773350966e-03
      4.3686851671854796e-03 8.6068482515188512e-03
      1.2372999417867895e-03 -7.8071830254334024e-03
      8.4072602429335341e-03 6.3601717195016600e-03
      -1.1503464424209909e-03 6.9639652615244903e-03
      -1.3455269982480306e-02 6.7580686311575480e-03
      8.1040175479164082e-03 7.1791811228295553e-03
      5.1772982212636570e-03 -1.2758592110231533e-02
      5.9962318770535082e-03 3.3190432364696900e-03
      -5.9600760162196471e-03 2.6883132643520709e-03
      -3.6056551861818175e-03 -1.0156036807727252e-02
      -8.7619660982686635e-03 -2.0834884239626515e-03
      4.9845500244192001e-03 6.2175120622276828e-03
      -4.8142133025790550e-03 1.2133220472878613e-02
      9.3128348000503808e-03 -1.2610625046604035e-02
      3.7733004530236699e-04 -1.2664546869353484e-02
      1.0181893741837970e-02 -1.9924105202240123e-03
      9.6531822521967302e-03 7.6971564632763593e-03
      -3.4164139117392756e-05 2.1172236982526056e-03
      6.2443296549710902e-03 -1.3488779040408136e-02
      6.0831754387565542e-03 -1.0426599204229265e-02
      -2.5457485524335898e-03 -6.5180006406439341e-03
      1.1355996228607614e-02 1.1110683657136924e-02
      -6.0579593124273712e-03 -8.1163510693315066e-03
      -1.0181025828152349e-02 1.2154644348668111e-02
      -1.1753725144620827e-02 -8.8844524861036774e-03
      9.5478853834206571e-03 5.8522071056129948e-03
      1.1294119506734953e-02 9.8877762618849955e-03
      -1.2939750693798909e-02 1.4334371999065910e-02
      9.4172862222999636e-03 -6.7171108509718044e-03
      1.1566447839403877e-02 -3.0143723099911074e-03
      9.0092989991195343e-03 -3.6978827134232775e-03
      9.0814605724085836e-03 -5.0173071177290248e-04
      1.3401049772426505e-02 -8.6319645949749866e-03
      1.3181363594381110e-02 9.5195244638980932e-03
      4.7191231470680578e-03 -3.0538692183009037e-03
      1.0231644772060813e-02 -1.1177819968153332e-02
      1.6325705669194569e-04 1.1176917567073856e-03
      -1.2161511971024153e-02 -1.0391295310936471e-02
      9.8367722635184160e-03 1.2760055632133623e-04
      -9.1141354368806746e-03 -1.7875858001337580e-03
      2.1011470693308534e-03 7.5798171840411324e-04
      8.3727045945891938e-03 -6.1675928198308963e-03
      -5.6541819515452197e-03 -1.3593638816229939e-02
      -1.2906238505799601e-02 3.4608053872337619e-03
      5.4452912148988848e-03 -1.2343559597157020e-02
      -2.2950777110037962e-03 5.5969918808469960e-03
      9.2531912271111086e-03 -1.0851214164532863e-02
      3.3331151834873622e-03 8.2808370367594281e-03
      -1.4077173333635467e-02 -6.9855219167921844e-03
      1.0293450373011624e-02 1.3113647603607479e-02
      5.1647757351479403e-04 8.6666072726215449e-03
      1.3029366569509336e-02 -1.0799445510876972e-02
      1.1647998038953318e-03 9.2924497279150454e-03
      8.6515098912225401e-03 -4.0894547721626699e-03
      9.7338543422188367e-03 -8.1429685402796409e-03
      -3.2260996654324546e-04 3.8436178991739767e-03
      -8.5762468931566017e-03 9.9282005596522914e-04
      8.9415133983942602e-03 -7.2572548142018026e-03
      1.0714622023555019e-02 -6.3146149348369748e-03
      -1.0042262717997383e-02 -2.5933081632123169e-04
      2.9097235993320865e-03 1.1943654509894857e-02
      -1.1561767835490630e-03 1.3592762344590767e-02
      -2.5219679235782186e-03 1.3649480251731658e-02
      3.3588414823322323e-03 -6.2375507806019890e-03
      -5.3946178567820541e-04 -7.6342582444355999e-03
      4.6345975531095441e-03 -1.1767702769806645e-02
      7.9559081017962045e-03 9.6518648169586392e-03
      1.1986600367873513e-02 -2.6105222534814924e-03
      8.1681370920914428e-03 4.2459013066086879e-03
      1.0274855263265568e-02 -1.7192472728363530e-03
      -7.6580963623425723e-03 2.2406949214042499e-03
      1.2487998487087712e-02 -8.5853386404374386e-04
      -9.3112274088516991e-03 4.4178414717117422e-03
      -6.2286081595578687e-03 -7.4153346171883464e-03
      -1.2007422528779196e-02 9.0910939261640480e-03
      1.0623134024230005e-02 1.2223088649986658e-02
      5.9526764275612629e-03 -1.3298760387296096e-02
      -6.5078227935174955e-03 1.0836861835068372e-02
      -7.8615859383952182e-03 7.1480116307392370e-03
      8.8633665088793030e-04 -3.6913293887864099e-03
      2.2132104791419598e-03 1.4086359313438025e-02
      8.9739611568560029e-03 1.1732219418705281e-02
      2.3307103534574878e-03 9.9569400972726700e-03
      -1.6180484637384035e-03 7.7853527851797265e-03
      8.0856233254313862e-04 2.2305659984551157e-04
      -1.2317674509454072e-02 -1.1584229313069641e-02
      -8.0861859477283603e-03 7.1601487794821267e-04
      6.3496057961806157e-03 1.2500555294373572e-02
      2.3895250561441973e-03 8.4978840431419007e-04
      7.4762899215370562e-04 -2.2075651457624567e-04
      7.3025963304711840e-03 -7.5114597994967143e-03
      -2.7686805206996309e-03 7.7624900986015934e-03
      1.0953685224665536e-02 1.5783729677599383e-02
      -1.3647283360092367e-02 -3.2039990826548768e-03
      -1.2389668552564768e-02 -1.3247285569776099e-02
      -3.9384840348588249e-03 1.3154541823040893e-03
      4.3809225093785903e-03 -6.6160548061376121e-03
      1.3892235726379631e-02 9.2178038433835385e-03
      1.3801510464091083e-02 -1.5689164173748452e-03
      -5.9057461427450926e-03 1.0078673681429885e-02
