<?xml version="1.0"?>
<opencv_storage>
<opencv_ml_svm>
  <format>3</format>
  <svmType>C_SVC</svmType>
  <kernel>
    <type>LINEAR</type></kernel>
  <C>1.</C>
  <term_criteria><iterations>1000</iterations></term_criteria>
  <var_count>3852</var_count>
  <class_count>2</class_count>
  <class_labels type_id="opencv-matrix">
    <rows>2</rows>
    <cols>1</cols>
    <dt>i</dt>
    <data>
      -1 1</data></class_labels>
  <sv_total>1</sv_total>
  <support_vectors>
    <_>
      1.29295552e-06 -3.34421588e-06 4.50560918e-07 2.25964322e-06
      1.33050264e-06 -5.30216539e-07 -1.27612077e-06 -1.36929054e-06
      -1.17917079e-06 -2.54865404e-06 3.14915474e-06 2.55783834e-06
      7.40969028e-07 2.26299835e-06 4.29701316e-07 -1.49086827e-06
      -1.91497452e-06 -2.27837450e-06 -8.81444294e-07 2.70277292e-06
      -2.91112678e-06 1.05815866e-06 -2.55518580e-06 -2.03972559e-06
      3.54259146e-06 -1.84749615e-06 -3.64175776e-06 1.23965219e-06
      -2.92542654e-06 1.01942942e-06 -2.10450776e-06 9.07595052e-07
      4.23417669e-06 1.58664727e-06 -7.86872874e-07 1.10453993e-06
      -1.67519275e-07 2.23412212e-06 1.01450905e-06 -1.76117271e-06
      -1.35789082e-06 7.07364109e-07 -3.98978136e-06 -8.80798962e-06
      -4.38701903e-07 9.01566352e-07 1.96350925e-06 2.11180190e-06
      8.23227651e-07 -1.24070061e-06 -3.36490757e-06 -1.27561850e-06
      1.36225390e-06 3.52699590e-06 5.23987637e-06 2.41092880e-06
      -1.74426907e-06 -5.71426654e-06 -5.37576307e-06 -1.59589911e-06
      4.27807436e-06 5.00353599e-06 2.79910796e-06 2.86474369e-06
      1.77301661e-06 -5.05044625e-07 -1.60650791e-06 -5.25728228e-06
      -9.47645447e-07 1.82838835e-06 1.29783052e-06 -2.65658201e-07
      3.79465405e-07 5.42154794e-07 -2.10106123e-06 -3.06001903e-06
      -1.03387322e-06 4.26303586e-06 -4.16607463e-07 -8.62685113e-07
      -2.06808348e-08 -1.77464244e-07 -2.12368309e-06 -1.09877067e-06
      -1.46911418e-06 1.39105532e-06 3.62446326e-06 8.38794165e-07
      2.38675199e-07 -1.31043964e-06 -4.87542866e-06 -1.61200364e-06
      -1.97063014e-06 2.17119819e-07 5.35853815e-07 1.44755393e-06
      9.05391971e-07 -1.02994488e-06 -6.10049847e-06 -2.88097704e-06
      -1.93666438e-06 -3.30617439e-07 2.06245176e-07 1.30221429e-06
      1.80937127e-06 -5.91052469e-08 -5.25681071e-06 -8.41923702e-06
      -2.51799224e-06 4.19459212e-07 -2.89085074e-06 -7.53361391e-08
      5.42644557e-07 -9.61837259e-07 -3.67842449e-06 -3.05865319e-06
      -2.19409458e-06 6.00002068e-07 -1.60971956e-06 -7.24316294e-07
      -1.49962739e-06 -1.94078393e-06 -4.10477969e-06 -5.06930519e-06
      -7.70541760e-07 4.83871894e-08 6.85434486e-07 4.01478161e-07
      1.55109399e-06 -4.02349713e-07 -1.48137553e-06 -1.05153367e-06
      7.57721978e-07 3.92849461e-06 2.47163644e-06 7.66826133e-07
      1.08745473e-06 5.38074119e-07 -5.88627131e-07 -6.70624843e-07
      -2.45784349e-06 4.98500958e-06 -6.26261354e-08 -4.78933657e-07
      -1.06527217e-07 4.53661755e-07 2.15816613e-06 3.03325533e-06
      -7.81315748e-07 5.01705927e-07 5.68258201e-07 1.12976522e-06
      1.14788868e-07 -2.34537410e-07 -3.61214711e-06 -7.64339632e-07
      -3.51446465e-06 8.78418120e-07 6.47801471e-07 8.87427291e-07
      8.25208474e-07 3.72632002e-07 -1.52003133e-06 -2.66273355e-06
      -4.57731903e-06 8.70755628e-07 4.03156355e-06 7.06735761e-07
      1.60943387e-06 3.08002690e-08 -2.62740059e-06 -7.35669619e-06
      -2.39002088e-06 1.01809201e-06 2.41580983e-06 1.10749556e-06
      4.06573946e-07 -1.58870523e-06 -3.76152087e-07 -1.69103578e-06
      -1.67559085e-06 -6.20767153e-08 9.51094421e-07 1.85954559e-06
      -7.64638912e-08 -2.52951054e-06 -3.38382097e-06 -2.04345793e-06
      -6.42610473e-07 8.73773786e-07 1.28585373e-06 4.32013536e-07
      3.38358836e-06 2.07086988e-08 3.54486787e-07 -6.85144585e-07
      1.39757663e-06 3.36242624e-06 2.47130902e-06 -2.13399176e-07
      1.91594268e-06 1.01608657e-06 1.97947081e-08 -2.72351281e-06
      -3.43554052e-06 1.79859614e-06 1.93593587e-06 -1.46136756e-06
      1.43968782e-06 1.26589600e-06 1.49032871e-06 7.28935902e-07
      -1.49089112e-06 1.97403529e-06 3.15203488e-06 -4.39526787e-07
      1.92888592e-06 -6.79735479e-07 -2.37182849e-06 2.30299611e-06
      6.87561567e-07 1.55177497e-06 -6.52049266e-07 9.43348937e-08
      -6.63003448e-07 -5.40440567e-07 -1.87781336e-06 -1.41622036e-06
      -3.00139595e-06 8.49801893e-07 4.61627315e-06 1.72094781e-06
      4.43403337e-07 3.13375750e-07 -3.42662588e-07 -4.55885311e-06
      -2.50202447e-06 -4.25886867e-07 4.31369671e-07 2.48276774e-06
      3.64662719e-06 -2.17298680e-06 6.28011321e-07 2.75259680e-07
      1.72369056e-07 1.74593117e-06 2.45950946e-06 1.94130871e-06
      1.88125193e-06 -2.96645885e-06 -7.33535273e-07 -1.05326478e-06
      8.68060113e-07 3.48294520e-06 3.77437027e-06 9.41346116e-07
      3.75491163e-06 1.16007789e-06 4.46700824e-06 1.26799762e-06
      -1.48230640e-06 1.76997730e-06 2.39302994e-06 9.83130235e-07
      1.91058666e-06 6.31031298e-08 -4.28283784e-07 -1.72963041e-06
      -3.41327677e-06 1.15817693e-06 5.97129826e-07 -1.64973926e-06
      2.54482620e-06 3.90179912e-06 4.60509955e-06 3.76014304e-06
      -3.65904697e-07 7.70343377e-07 1.86694740e-06 -7.36844470e-07
      3.39913231e-06 1.00739874e-06 4.59879493e-06 6.35281413e-06
      1.13778549e-06 9.93667300e-07 2.87946250e-06 1.81460382e-06
      5.43502756e-06 1.75495586e-07 3.03382819e-07 8.20521961e-07
      -4.96637085e-07 -1.21184553e-06 5.00707711e-06 2.94247457e-06
      5.00100850e-06 4.57719716e-06 2.40293889e-06 -1.00099442e-06
      -7.58302804e-07 -1.04056880e-06 -4.83233725e-06 -1.39349936e-06
      -7.58775684e-07 -5.24349957e-07 4.25150847e-06 4.01740772e-06
      7.16230602e-07 -2.37641260e-07 -1.23541042e-06 1.86631792e-06
      -1.86865179e-06 -1.17261925e-06 9.31609293e-07 1.69742850e-06
      -1.12116481e-06 5.81530287e-07 1.75714854e-06 -7.09393873e-07
      1.41858868e-06 3.32657891e-07 1.73193030e-06 6.34417688e-07
      1.16221531e-06 1.70206056e-06 1.69880548e-06 5.10050029e-07
      5.94073526e-07 -4.43111503e-07 -3.45963031e-07 -3.29601619e-07
      7.71732289e-07 4.06615573e-06 1.97033773e-06 5.16299792e-07
      7.54392261e-07 1.48268725e-06 3.28432179e-06 3.14664703e-06
      9.93817252e-07 9.56395070e-07 1.57615125e-06 6.20960293e-07
      1.53885964e-07 1.60406569e-06 3.78020150e-06 2.83538316e-06
      4.00588942e-06 1.20027141e-06 1.22734627e-06 9.61656951e-07
      2.45277010e-06 -1.42151282e-06 -1.89030277e-06 -7.45733857e-08
      7.09962649e-07 1.40863278e-06 1.08943414e-06 5.12615600e-07
      6.09356857e-06 -6.42298630e-07 -7.94137179e-07 6.79305515e-07
      1.07284143e-06 1.27419594e-06 1.02749266e-06 1.41236953e-07
      -3.72605086e-06 -4.70279338e-06 3.53788494e-07 1.45864249e-06
      2.59370609e-07 9.59959152e-07 7.07134575e-07 7.91612607e-08
      -2.84628049e-06 -1.68173972e-06 -1.72792952e-07 9.78444632e-07
      1.24767519e-06 7.11751937e-08 4.72106507e-07 3.77629499e-06
      4.80028666e-06 8.98636983e-07 5.38837321e-06 2.74877561e-06
      7.38490769e-07 2.70666078e-06 3.85690919e-06 4.09529912e-06
      2.25342455e-06 -1.83791246e-06 1.16163653e-06 -6.79194443e-07
      -2.42258102e-06 -3.09466191e-06 -5.85585212e-07 -1.15775788e-06
      2.41955058e-06 5.33156208e-06 5.34549645e-06 3.02032936e-06
      -6.35650906e-07 -3.89376822e-07 -3.15742540e-07 -1.53974986e-06
      8.76456809e-08 3.96399537e-06 4.35006041e-06 6.70211193e-06
      3.77413107e-06 2.53144708e-06 3.55153725e-06 2.90555067e-06
      3.79784683e-06 -1.31357831e-06 -1.98084376e-06 -3.25608016e-06
      1.16324856e-07 6.55692361e-07 5.73254465e-06 4.99407497e-06
      4.47535422e-06 2.27223973e-06 1.05736933e-06 2.82109363e-06
      1.72651778e-06 1.70621320e-06 1.57696161e-06 3.57437170e-06
      -2.01073613e-06 -6.53510551e-06 -5.16504031e-07 -1.16959211e-06
      -2.48460924e-06 1.34372414e-07 -1.10721578e-06 1.26962948e-06
      -1.71725844e-06 -9.09524033e-07 1.32509376e-06 -3.53441550e-07
      8.30125941e-07 -1.75906408e-07 -5.51836365e-07 -2.10397246e-07
      9.17614557e-07 1.25261252e-07 2.92073241e-06 -1.02501907e-07
      3.13733858e-06 2.78746256e-06 3.93455002e-06 2.89232321e-06
      -1.84237786e-06 -7.20453386e-07 2.80755535e-06 1.81653184e-06
      2.04928119e-06 3.28069473e-06 5.08090238e-07 -8.57182343e-08
      1.36968822e-06 3.88409580e-06 6.48575542e-06 5.98621398e-07
      -1.96662953e-07 1.42212639e-06 1.29867044e-06 -1.48415063e-06
      2.66653331e-07 7.54284656e-07 3.85071559e-07 4.47506545e-06
      4.68217968e-06 2.44194712e-06 1.12181885e-06 -3.02969966e-07
      1.69899727e-06 -1.61135222e-06 -4.27889427e-06 -2.41030943e-06
      1.38570203e-06 2.48594483e-06 3.26827330e-06 3.26177133e-06
      3.33057119e-06 1.03909156e-06 6.96255029e-07 3.32845343e-06
      5.00440956e-06 4.77710046e-06 3.65496567e-06 2.11606675e-06
      -5.51420499e-06 -6.40545886e-06 -1.18465653e-06 -1.36776407e-07
      -1.81486143e-07 1.11291661e-06 -4.22593899e-07 -2.25608619e-06
      -4.40080157e-06 -1.88131298e-06 -8.01642670e-07 2.89142895e-06
      4.47176348e-07 2.71863371e-07 -1.73225033e-06 1.02665274e-06
      -1.79598953e-06 -1.79565666e-06 2.60079059e-06 2.47733055e-06
      2.80437780e-06 4.95624272e-06 6.15721137e-06 5.85664293e-06
      -1.65662243e-07 -1.96323469e-07 3.52336178e-06 4.03001150e-06
      3.09381016e-06 2.96206736e-06 1.29260002e-06 1.33652338e-06
      2.49074174e-06 5.93076311e-06 6.76594618e-06 8.78060121e-07
      -3.84545416e-07 1.01713722e-08 4.34414142e-06 -1.46698687e-06
      2.21189644e-08 4.42935789e-06 4.14018905e-06 3.80200686e-06
      1.43848558e-06 1.46164302e-06 6.67699283e-07 -1.24501764e-06
      -3.26886834e-07 1.03038064e-06 -9.38893891e-07 3.02441208e-07
      1.39735914e-06 2.69493648e-06 3.49428888e-06 3.39620715e-06
      1.23176198e-06 -5.12742417e-07 7.51814582e-07 1.55503437e-06
      8.19518027e-06 4.29042666e-06 1.32318775e-07 8.04491037e-07
      -4.41398151e-06 -4.52039785e-06 -7.60442845e-07 -8.19262186e-06
      -3.20061895e-06 -3.82952578e-07 -6.60289516e-07 -2.41950534e-06
      -5.97546568e-06 -1.76691219e-06 9.00839325e-07 -5.34015635e-06
      5.40972792e-07 7.71743316e-07 2.84800564e-07 -8.80449875e-07
      -8.72672672e-07 -5.97313738e-06 -2.02784790e-07 2.17883257e-06
      1.18425794e-06 2.10333110e-06 5.85725775e-06 5.15344937e-06
      7.37734274e-09 3.75161136e-07 -1.04931803e-06 -2.33197028e-07
      1.97910822e-06 -1.27744016e-07 -1.24903079e-06 -2.55818782e-06
      3.15204170e-06 6.66895676e-06 3.25529118e-06 -1.08439258e-06
      1.00355851e-06 2.59257149e-06 6.59634551e-08 -2.81001894e-06
      1.76654692e-06 7.39980123e-07 6.22088510e-06 -1.23367215e-06
      1.67206107e-08 3.04706487e-06 1.53473013e-06 3.38438258e-06
      4.08153119e-06 2.21683558e-06 3.66597396e-06 -2.36634423e-06
      -3.05918616e-06 -1.72972273e-06 2.31475241e-07 5.61233446e-06
      3.05807248e-06 2.72025613e-06 5.70824750e-06 4.79139499e-06
      2.73504679e-06 3.53808758e-07 -5.25875112e-06 -5.79313746e-06
      -4.50633797e-06 -4.03132987e-07 -6.08484470e-07 7.69525911e-07
      4.08404048e-06 -6.69278108e-07 -3.37335632e-06 -6.24776840e-06
      -5.85899579e-06 -6.34851631e-07 8.96452832e-07 -3.75854052e-06
      -8.13773724e-08 8.17683940e-07 1.33338403e-06 -3.19251899e-06
      -4.26322231e-06 -5.19501828e-06 -7.87713589e-07 -1.05100480e-06
      3.63966706e-06 3.03490447e-06 4.30889713e-06 5.97034204e-06
      -7.94464654e-07 9.05721578e-08 -3.31339174e-06 -1.24873225e-06
      9.34921957e-07 -4.92060281e-07 -1.76570794e-07 1.39865381e-06
      7.32811770e-07 1.84207533e-06 -6.50012311e-08 -1.18101673e-06
      4.53795053e-07 2.73118616e-07 4.51950996e-07 -2.60822799e-06
      1.34057598e-06 2.70450255e-06 1.93531751e-08 3.47370772e-08
      4.58051773e-07 -2.81860764e-07 -6.63590129e-07 -2.76122410e-06
      1.46542266e-06 -7.21574338e-07 -3.43877628e-06 -1.39617180e-06
      -1.19448680e-06 3.22420050e-07 1.28237150e-06 8.41244116e-07
      -7.41879944e-07 -2.28171416e-06 -1.95148732e-06 4.93113816e-07
      6.64028619e-07 4.84551435e-07 8.08877019e-07 2.31321269e-06
      -2.03116292e-06 -4.96000030e-06 -6.27351028e-06 -6.49011236e-06
      -7.19454363e-07 1.37911127e-06 -1.46536678e-07 2.49989830e-06
      -4.11911105e-06 -1.66526797e-06 -1.45921251e-06 -6.49330923e-06
      -9.65702398e-08 1.26363921e-06 1.32555328e-06 -2.34681647e-06
      -6.21780100e-06 -3.90405739e-06 -2.50817789e-06 -6.23975836e-07
      3.24169855e-06 -1.05262495e-06 2.07654830e-06 2.53604253e-06
      -1.03365596e-06 2.11684278e-06 -2.32725324e-06 -2.55876159e-07
      8.90287652e-07 -2.90381217e-06 -1.71013227e-07 -5.41173961e-07
      6.12089423e-07 1.43765646e-06 8.43095108e-07 -3.24526269e-07
      1.86704099e-07 1.25690508e-06 1.65500273e-06 -4.05201308e-06
      -1.16600653e-07 1.07496010e-06 1.51043582e-06 -3.13140390e-07
      4.76033165e-07 8.06936839e-07 -3.21056802e-07 -2.65646008e-06
      -1.04067374e-06 -1.43106422e-06 -9.06210232e-07 -8.65366758e-07
      -8.28187638e-07 -6.79393253e-08 2.59300123e-07 8.61984802e-07
      -2.20237879e-07 -1.60176148e-06 6.19491402e-07 1.60740490e-06
      1.90953551e-06 -2.16703597e-07 -1.13322949e-06 -7.91719799e-07
      -5.43481349e-07 -2.35567404e-06 -5.83388328e-06 -4.67563768e-06
      -1.89631749e-06 -1.22082429e-06 9.94351581e-07 7.48780849e-07
      -8.25538450e-07 -3.09109907e-07 -2.97725046e-06 -6.90505294e-06
      -2.86496856e-06 9.57152793e-07 1.48917434e-06 1.52399502e-06
      6.29229646e-07 -5.24800498e-07 -2.11868792e-06 -1.26956900e-06
      2.87935052e-07 3.30935421e-07 1.18963192e-06 9.82194365e-07
      1.69016778e-06 3.09648794e-06 1.44376020e-06 -8.39031713e-07
      3.65151038e-07 -4.16344164e-06 -4.71528665e-06 6.10236953e-07
      1.39178439e-06 1.33936931e-06 7.95376778e-08 -6.43525368e-07
      3.37745064e-06 1.67081339e-06 -1.37991515e-06 -2.23680513e-06
      4.70939568e-07 -3.04694140e-07 5.92626009e-07 -1.61537412e-06
      -5.67590234e-07 1.51860513e-06 -5.19245134e-07 -1.72085720e-06
      -7.40675091e-07 -1.41937267e-06 -1.61880493e-07 -3.72690079e-06
      -6.56743623e-06 -3.04427977e-06 5.15140130e-07 2.53478015e-06
      -1.45597198e-06 -1.60197897e-06 5.81081110e-07 4.93012237e-07
      -2.70537839e-06 -9.85345196e-07 1.37559095e-06 -6.42691646e-07
      8.37781400e-08 -3.85728981e-07 -6.42000805e-06 -4.31340186e-06
      -2.53638996e-06 -8.36728645e-07 2.45060596e-06 5.64597713e-07
      -7.27470706e-07 3.28890479e-07 -2.20427137e-06 -4.32637989e-06
      -3.35084655e-06 1.19165941e-06 6.11612620e-07 7.00776241e-07
      -8.92188382e-07 -1.68193469e-06 -3.96486803e-06 -3.03686556e-06
      6.58086719e-07 -1.24871656e-06 1.91920299e-06 1.84132807e-06
      3.51493236e-06 1.77644540e-06 -3.35238360e-06 -2.30390947e-06
      4.88415388e-08 -5.23358267e-06 -3.66159156e-06 1.91991671e-06
      2.45918227e-06 2.18009950e-06 1.58417276e-06 9.01060332e-07
      1.93447931e-06 2.21690448e-06 -1.35491985e-06 -3.47277660e-06
      1.44457670e-06 2.16322769e-06 2.98270470e-06 2.31546821e-07
      1.30446062e-06 9.41824510e-07 -1.16870967e-06 -2.45344239e-07
      2.93725719e-07 7.73280817e-07 2.85695091e-06 -2.47812773e-06
      -5.87632121e-06 4.81278221e-07 -3.59345137e-07 4.17042065e-06
      2.01499091e-07 7.47947922e-07 2.62766775e-07 1.39495839e-07
      -2.12661257e-06 -2.26882230e-06 -3.54582630e-06 -4.51510277e-06
      9.60713464e-07 3.54848135e-06 -5.22255777e-06 -3.36842322e-06
      6.08940070e-07 -1.27321732e-06 -1.76791912e-06 -2.66979578e-06
      9.23134564e-07 9.65260824e-07 -1.89756122e-08 -4.87449552e-06
      -4.16027888e-06 -1.81932830e-06 -1.00086561e-06 -5.12065242e-07
      -7.15341457e-07 -3.24483523e-07 -3.58703733e-06 -7.43526016e-07
      -2.27078363e-06 -1.62548531e-06 -1.00546735e-07 6.00584201e-07
      5.71391865e-07 -1.21410676e-06 -4.29902184e-06 -8.76088393e-07
      -3.87077620e-07 -2.65911922e-06 -9.13628014e-07 6.65931680e-07
      6.74645207e-07 3.39565815e-07 -6.60368755e-07 -1.73973547e-07
      7.52716005e-07 8.53222673e-07 -1.66397194e-06 2.96627292e-07
      -1.80861292e-07 1.93479377e-06 6.74029081e-07 -3.76290501e-07
      2.30330670e-07 2.42210490e-07 3.20894173e-08 5.68145495e-08
      -4.30921204e-07 -3.21641380e-07 3.22377900e-07 -1.67846940e-06
      -5.12776796e-06 -8.11313157e-07 -7.57334249e-08 7.10263848e-08
      -8.58389569e-07 -9.98381438e-07 -1.88107492e-06 1.95817563e-07
      -6.90995250e-07 -3.20863506e-07 2.15827995e-07 4.61650416e-08
      2.05206572e-08 -1.65010139e-08 -6.97733367e-06 -4.56230828e-06
      -6.38205506e-07 1.03480170e-06 8.39564734e-07 4.46578952e-08
      -3.79081285e-07 -2.02844262e-07 -2.00267573e-06 -3.11054964e-06
      -4.63687047e-06 2.55000231e-07 7.81217238e-07 1.42725878e-06
      1.77942684e-06 -2.70050236e-06 -4.68212238e-06 -8.79209324e-07
      -4.03666292e-07 -1.12848863e-06 5.31279738e-07 -3.35404167e-07
      2.52948939e-06 1.84739667e-06 -2.84869566e-06 -1.59643514e-06
      -1.67705355e-06 -3.66383279e-06 -1.03876016e-06 1.30050023e-06
      2.47174796e-07 8.88356197e-08 -2.46480766e-07 -4.58694728e-07
      -9.53811181e-08 1.50996061e-06 -1.59512570e-06 4.93931793e-07
      -5.84507916e-07 5.86878741e-07 1.20304389e-06 -4.20161371e-07
      -6.88614591e-07 6.66745564e-07 -3.12029727e-07 1.43072953e-07
      -7.61169019e-07 7.96916140e-07 2.19890012e-06 -6.82123442e-08
      -1.72265516e-06 -1.29295429e-07 9.42471900e-07 1.54643965e-06
      3.78972231e-07 -1.93169896e-07 -4.55118368e-07 -1.23801760e-06
      -2.80446466e-06 -2.87349553e-06 2.01131854e-07 -1.49731807e-06
      4.94713845e-07 7.44391571e-07 -9.96808808e-07 -8.44007047e-07
      -2.43716522e-06 -1.13894475e-06 2.07998369e-06 -2.16043929e-07
      9.25369761e-07 2.02421916e-06 -2.60666923e-07 -4.50677646e-07
      -2.59198964e-06 4.82875066e-07 7.11811140e-07 -3.32325783e-07
      6.03769649e-07 1.72271109e-06 1.62762490e-07 -1.72188186e-06
      -3.78420668e-06 -5.00785518e-06 -1.65340236e-06 -2.16033325e-08
      2.31625836e-06 1.86470936e-06 -1.05650008e-06 -2.98866985e-06
      -3.89710613e-06 -5.59306409e-06 -2.05302399e-06 9.03941554e-07
      -3.20464295e-07 9.61830438e-08 -7.48274953e-09 -2.07692574e-06
      -9.07587037e-07 1.52054383e-06 -2.95665745e-06 7.81451547e-07
      -5.33086563e-07 2.57205897e-07 9.47808019e-07 -8.79154754e-07
      -1.41895759e-06 1.92179959e-06 2.74015946e-07 6.45868909e-07
      -2.30377213e-06 -1.34636286e-06 2.25650936e-07 -2.20844868e-06
      -3.48771664e-06 -1.09327391e-06 2.64478899e-07 1.94898547e-07
      -1.50188623e-06 -5.20201752e-07 -7.36117784e-07 -2.25814210e-06
      -3.63078311e-06 -1.73584658e-06 3.44445894e-08 -1.03417086e-07
      -5.61631680e-07 1.95552147e-07 -4.28442632e-07 -1.21349831e-06
      -1.64702419e-06 1.37732832e-06 3.77456416e-07 -2.67121050e-06
      3.21760382e-07 1.16435092e-06 4.39423644e-07 -5.05354762e-07
      -3.96165160e-06 6.13255509e-07 -1.87324687e-07 -8.76538536e-07
      -1.05688855e-06 1.45334093e-06 -4.72719336e-07 -1.87477997e-06
      -2.21706091e-06 -1.36732115e-06 -4.84912732e-07 -2.96346172e-07
      5.17701551e-07 6.20675110e-07 -1.01932665e-06 -5.50810500e-06
      -3.90448895e-06 -3.88633271e-06 -3.56697143e-07 1.42341526e-06
      3.08825690e-07 1.99181159e-06 -9.11072334e-07 -2.68102531e-06
      -1.04710273e-06 -2.13351670e-09 -3.30665159e-07 1.99505507e-07
      3.71310591e-07 2.53164421e-06 2.51935916e-07 -2.03367335e-06
      -9.80663913e-07 1.00561913e-07 7.70364124e-07 4.33891003e-08
      -7.80530115e-07 5.36783375e-07 3.36354361e-07 -1.58625301e-06
      -5.74031037e-06 -2.33212950e-06 2.01140324e-07 -1.50789916e-07
      -1.54533757e-06 -7.93626100e-07 -3.37076386e-07 -2.07749417e-06
      -6.22222024e-06 -1.80368784e-06 -6.28502903e-07 -2.56696808e-06
      -5.42135581e-07 2.58555986e-07 -7.82513325e-07 -1.88315016e-06
      -4.21982850e-06 -8.65347829e-08 1.21558344e-06 -1.32686750e-06
      -3.39256758e-07 -1.17882564e-07 -4.30553570e-07 -1.18092225e-06
      -4.41830753e-06 -1.09932080e-06 1.81284918e-06 4.40092117e-06
      -2.13632532e-07 1.61303694e-06 -1.86560123e-06 -5.65841356e-06
      1.12488931e-06 1.02019919e-06 1.71023180e-06 -2.31626200e-06
      1.81961059e-06 8.52693006e-07 -4.36732580e-06 -8.29995315e-06
      1.84429894e-06 2.01758382e-07 3.05072786e-06 1.54332542e-06
      3.29316049e-06 1.65227061e-06 -1.51589757e-06 -4.01473926e-06
      -3.26895417e-07 1.98104317e-06 1.17393461e-06 2.44648140e-06
      1.67400560e-06 3.58706529e-06 4.96292114e-06 -3.91084859e-06
      -6.43494286e-06 -1.01830483e-06 -1.82092364e-07 2.85744295e-06
      1.50139772e-06 4.61162517e-06 6.77823209e-06 -1.58120883e-06
      -7.99004374e-06 -3.92222682e-06 -7.54938085e-08 2.60711477e-06
      -1.65918595e-06 1.47923959e-06 3.68600377e-06 -7.38812616e-07
      -5.33721777e-06 -6.61700506e-06 1.52624284e-06 -1.20911363e-06
      -1.96851170e-06 3.19773903e-06 2.66591337e-06 -8.81781659e-07
      -3.10717769e-06 -2.00596378e-06 -1.27623508e-07 -3.77715992e-06
      1.72921511e-06 3.54924896e-06 1.57920658e-06 -4.47246794e-06
      -4.58398017e-06 -2.48108933e-07 2.90193316e-06 1.76845538e-06
      1.72505474e-06 1.33560047e-06 -1.03646880e-06 -4.29894499e-06
      1.57896551e-07 -4.39112313e-07 -2.05113884e-06 -3.64519508e-07
      1.39720385e-06 1.40693669e-06 -2.65708309e-06 -5.42881753e-06
      1.24057601e-06 -2.21283449e-06 -1.40277064e-06 5.05090327e-07
      4.16754602e-07 1.21884193e-06 -3.97831286e-07 -3.42738917e-06
      -4.82307360e-06 -2.97779320e-06 -1.56050987e-06 -3.44427946e-07
      -1.59760404e-07 2.30930641e-06 3.41558263e-07 -3.29180557e-06
      -4.32132765e-06 -1.42944975e-06 1.19040476e-06 4.80067854e-07
      -1.48268771e-06 -2.95543003e-07 4.23338946e-07 -1.68175063e-06
      -2.72635134e-06 -1.09260213e-06 4.15102136e-07 3.83562735e-07
      -3.67254779e-06 -7.49841718e-07 -8.69835219e-07 -3.57674139e-06
      -6.26070914e-06 -2.30044506e-07 3.06431588e-07 -1.72363696e-06
      -3.20028744e-06 -4.93581069e-07 -1.51546317e-06 -1.49471896e-06
      -5.00735541e-06 -5.89788101e-07 -2.01573478e-08 -2.27898408e-06
      -2.33627659e-07 1.04009416e-07 -1.40775239e-06 -8.26844598e-07
      -2.60187903e-06 -1.24883240e-06 1.94855647e-06 5.48008465e-08
      -7.16766522e-07 1.29306920e-06 2.18504482e-07 -1.58533919e-06
      -5.75841284e-07 -1.87114381e-06 -1.25969598e-06 2.80144292e-07
      6.79654306e-07 2.62808544e-06 -2.69655493e-06 -6.35333026e-06
      1.63845118e-06 4.88767682e-07 3.74495755e-07 2.09797054e-06
      -1.84185680e-07 3.37643223e-06 -1.14832926e-06 -8.24852214e-06
      -5.12374299e-06 -2.93260746e-06 -7.91571495e-07 1.40216321e-06
      -1.01532339e-06 -4.06806123e-07 -2.25313073e-07 -2.45780802e-06
      -1.49887853e-06 7.73042245e-07 6.91703349e-07 3.23471198e-07
      -2.05611309e-06 -2.22419203e-06 1.40588065e-06 -4.55007338e-08
      -1.38165751e-06 -3.71654949e-07 2.62572200e-07 1.06955135e-07
      -3.92881066e-06 -1.17545540e-06 -1.95474604e-06 -1.92643188e-06
      -4.06964318e-06 4.20814445e-07 2.60968164e-07 -1.01392288e-06
      -3.78595087e-06 1.61092643e-07 -8.72936539e-07 -5.10729308e-07
      -3.93494975e-06 -2.56118653e-07 1.60680415e-07 -4.30615819e-06
      -2.21573586e-07 4.71609326e-07 -2.12091066e-07 -4.24068276e-07
      -3.93907158e-06 -2.56242629e-06 -1.05253093e-07 -1.37176971e-06
      6.25052499e-09 9.82968686e-07 -6.34118976e-07 1.96322253e-06
      -1.10027216e-07 -1.10014480e-06 -1.44359751e-06 -3.27133307e-07
      -2.02355704e-06 3.33251421e-07 -2.67049199e-06 -4.28930343e-06
      -8.44841566e-07 -2.00654745e-06 1.00666682e-06 2.16817875e-06
      1.57871682e-06 2.86154841e-06 -2.26245947e-06 -7.44855834e-06
      -4.92608842e-06 -3.78677964e-06 2.11938186e-06 3.48346589e-06
      1.63025175e-06 2.97528391e-06 1.17224829e-07 -1.28451427e-06
      -7.90133413e-07 1.48946799e-06 3.13544547e-06 1.12055750e-06
      -1.78258222e-06 1.25227587e-07 3.30769495e-07 -2.03871127e-06
      6.90672096e-07 1.33596632e-06 4.48624263e-07 -9.87053141e-08
      -1.19646506e-06 1.34827260e-07 -6.43423448e-07 -2.71935187e-06
      -4.00502449e-06 -7.19288948e-07 4.66501120e-07 8.42370753e-07
      -1.11944951e-06 1.62877529e-06 9.79368906e-07 -7.55985525e-07
      -2.40719419e-06 1.89117907e-06 -1.88332208e-07 -9.32129296e-07
      -1.12993241e-07 7.45199145e-07 -9.35391427e-07 -2.03011359e-06
      -1.39562599e-06 -8.99165798e-07 -3.20577044e-07 1.15742569e-06
      -2.52231894e-06 2.42819010e-06 2.97532870e-06 1.38682947e-06
      -5.37411552e-07 1.51663312e-06 3.02163653e-06 -3.38651603e-07
      -2.83169538e-06 1.23533084e-06 -7.05863670e-08 -2.45059118e-06
      2.87866555e-07 -1.75272437e-08 3.09066900e-06 4.15732757e-06
      1.09283320e-07 1.08011830e-06 5.96638813e-07 -1.51000370e-06
      1.14728584e-06 -1.80118741e-06 4.88551632e-06 4.69068937e-06
      -1.98642692e-06 3.87090586e-06 9.47585875e-07 -5.24716143e-07
      3.03216711e-06 4.08208052e-06 4.87213720e-06 2.33071205e-07
      -1.33997719e-06 -5.05494143e-07 2.70326109e-06 4.07732614e-06
      6.19317052e-06 -3.87189658e-08 -1.17134800e-06 -4.28564647e-07
      -7.85262444e-07 -5.77689825e-08 2.74562285e-06 9.77360060e-07
      2.20668403e-06 -1.16889180e-06 1.07273866e-06 3.30931562e-06
      5.34868093e-07 1.59078866e-06 2.79871574e-06 2.47033540e-06
      6.81063625e-07 1.65433312e-06 9.78319804e-07 -8.48150307e-07
      4.82141195e-06 3.74540741e-06 1.32165690e-06 2.73166415e-06
      2.70484384e-06 -8.69589769e-07 -8.05668549e-07 1.08373155e-09
      -4.31626631e-07 7.87259978e-07 7.65786979e-07 3.77861198e-07
      -9.80456434e-07 -1.10792861e-07 -1.12424878e-07 7.66105046e-08
      -1.02020135e-06 -6.26010717e-07 -3.40364340e-06 8.65194522e-07
      8.98904034e-07 6.60538660e-07 3.75258111e-07 6.85767702e-07
      6.10141740e-07 -2.04438675e-06 -4.39220094e-06 3.79140737e-08
      1.02549973e-06 -5.37749543e-07 3.54536439e-07 4.97022029e-07
      -6.32952322e-07 -1.70689918e-06 -1.68340350e-07 5.84117554e-09
      -3.30528763e-07 -2.01902594e-07 1.10782548e-06 4.42993638e-07
      -2.11938115e-07 -2.23785014e-06 1.89147599e-07 1.98308570e-07
      5.85240230e-07 1.00657792e-06 8.30331885e-07 4.35202821e-07
      5.17804835e-07 5.14957094e-07 -5.03966874e-07 5.82079185e-09
      4.64396948e-07 6.74381113e-07 3.35502619e-07 1.09909045e-07
      -7.82066991e-07 5.26351698e-07 1.53176552e-06 2.60500451e-06
      3.81928714e-07 7.22074390e-07 -3.14893299e-07 8.66034611e-07
      7.40132236e-07 2.37000631e-06 1.26416225e-07 1.03212540e-06
      -1.47681612e-06 -1.26628731e-06 8.29190185e-07 5.96554810e-06
      -2.97958104e-06 2.46305876e-06 3.89650813e-06 1.75951118e-06
      -7.18211766e-07 2.37033873e-06 -5.89653155e-07 -1.55895168e-06
      -4.54736301e-06 1.27624958e-06 -6.30900729e-07 -2.81221082e-06
      2.04718788e-07 2.54762540e-06 1.99712326e-06 1.28047543e-06
      -9.75171474e-07 -6.06556159e-06 -4.59874627e-06 -3.11648046e-06
      4.31508369e-07 1.06449193e-06 2.49593609e-06 2.39275596e-06
      -2.23588586e-06 -3.15913189e-06 -2.11987344e-06 1.82046122e-07
      4.27623172e-06 4.63171682e-06 3.63858430e-06 8.50330196e-07
      -1.17018806e-06 -3.07199298e-06 -4.91050116e-07 4.03711374e-06
      7.48551474e-06 3.71521128e-06 1.92375296e-06 1.83402892e-06
      3.11088371e-07 8.80856931e-07 -6.30139027e-07 1.33161984e-06
      2.49374420e-06 4.57186530e-07 3.34276206e-06 2.62729918e-06
      1.13575402e-06 3.22624214e-06 4.57632359e-06 2.69266275e-06
      2.07888775e-07 -2.58543356e-08 -8.93031824e-07 -5.98355371e-07
      2.10593407e-06 6.58454201e-06 4.33213245e-06 4.47726006e-06
      4.99867895e-07 -1.61162609e-06 -1.09230461e-06 -3.15769967e-07
      -7.41390465e-07 8.78035067e-09 1.45980687e-06 -1.00486182e-06
      -1.52894438e-06 -1.15425871e-06 -7.79944060e-07 -4.29528700e-06
      -2.46004811e-06 -1.95685743e-06 -2.73697515e-06 -2.78614334e-06
      -4.01433681e-07 -3.12773921e-07 1.28504473e-06 2.18255673e-06
      -2.83374607e-06 -6.53860752e-06 -3.41502346e-06 1.71617689e-08
      9.26850589e-07 1.07750657e-06 5.07494042e-06 2.53599296e-06
      -2.49830282e-06 -3.86804413e-06 -8.20640139e-07 2.49647371e-07
      2.17941306e-06 1.82609438e-06 3.87794307e-06 2.33269770e-06
      -7.69548620e-08 -3.13545547e-06 2.66399798e-06 4.31967055e-06
      4.86126055e-06 3.17084027e-06 3.83269162e-06 4.18040327e-06
      -1.78906845e-07 1.36295603e-06 -2.31029026e-06 -1.88720378e-06
      8.55755445e-07 4.85738326e-07 2.28250519e-06 2.59764329e-06
      1.68654879e-06 2.74050376e-06 2.42704550e-06 8.95312610e-07
      2.33725473e-06 4.10037410e-06 1.06994219e-06 4.99984878e-07
      7.46163823e-06 8.01070291e-06 6.92507365e-06 2.00052500e-06
      1.21875289e-07 1.73252772e-06 8.94363325e-07 3.85902422e-06
      8.56834902e-07 4.01591160e-06 7.64728247e-06 -1.08735367e-06
      -6.00787644e-07 -2.66604525e-06 -5.26765689e-06 -4.07996822e-06
      -1.12008070e-06 -2.03936381e-07 -7.22757704e-07 -3.04026753e-06
      -3.25769179e-06 -1.60831428e-06 -3.35917525e-06 2.77210745e-07
      -1.73881267e-06 -2.90347316e-06 -4.00541779e-07 2.35575226e-06
      2.51863321e-06 3.58871489e-06 5.48503840e-06 1.80755171e-06
      -1.31693025e-06 -1.98527232e-06 -2.01286048e-06 8.43759054e-08
      1.29632940e-06 3.22898836e-06 4.69565111e-06 1.85537760e-06
      1.16821093e-06 -4.23685242e-06 -4.45457999e-06 -5.51114340e-07
      4.45085243e-06 4.62930666e-06 3.97006579e-06 2.94665165e-06
      2.14514515e-07 9.67537176e-07 -3.85295607e-06 -4.48675701e-06
      6.13275404e-07 2.05230390e-06 4.98574173e-06 6.26452538e-06
      -2.05418360e-06 2.38509256e-06 2.62096296e-06 -5.43628076e-08
      1.33285744e-06 3.80125198e-06 3.47031323e-06 2.43098680e-06
      6.40628605e-06 8.56298175e-06 9.26682696e-06 6.26757765e-06
      4.10805660e-06 3.83603719e-06 2.80165955e-06 1.76384674e-06
      -3.84988061e-06 4.48878245e-06 1.17882491e-05 9.88219654e-06
      3.23184872e-06 1.35293328e-06 -1.80799054e-06 -2.32814500e-06
      -2.72505054e-06 1.56064596e-06 4.33120886e-06 4.15799832e-06
      3.48233220e-06 1.21295534e-06 2.92328059e-06 6.61784452e-06
      -1.09928862e-06 -3.01495743e-06 2.66015149e-06 5.43115357e-06
      6.28282032e-06 2.05560150e-06 7.73654165e-07 2.93402735e-07
      -3.80067399e-06 -1.73113597e-06 -9.28290888e-07 3.26497002e-06
      2.43704039e-06 2.84329531e-06 -3.76496678e-06 -2.02330216e-06
      3.18816706e-06 -1.02846138e-06 -4.37754892e-07 5.21237462e-06
      5.87325349e-06 3.17829699e-06 -3.64482344e-06 -3.22153073e-06
      -3.73058970e-06 -2.19140634e-06 5.50830327e-06 4.79432765e-06
      6.34880962e-06 4.53646135e-06 6.72824399e-06 1.03988596e-05
      -5.95555230e-06 7.11824697e-08 9.10414292e-06 5.13978421e-06
      6.85119949e-06 2.57869056e-06 6.48020148e-07 6.77284902e-07
      4.89116292e-06 8.46677631e-06 1.08549766e-05 1.12238604e-05
      7.29345311e-06 3.53421058e-07 -5.84723603e-06 -6.69490510e-06
      -1.60873458e-06 -2.26618924e-09 1.25854035e-06 2.42527767e-06
      4.49232488e-07 -3.60495528e-06 -4.99836551e-06 -5.73998420e-07
      -3.29711997e-06 1.03725517e-06 4.39233236e-06 9.82525762e-07
      -7.80805408e-07 -9.25658867e-07 -2.43546424e-06 -2.05703623e-06
      -6.30282648e-06 -4.42667078e-06 -1.37215284e-06 1.16491236e-07
      -1.79597279e-07 1.16519550e-06 2.36592018e-06 -2.17371053e-06
      -8.13448310e-07 -3.52118968e-06 -3.13355076e-06 -3.92066386e-06
      1.38633607e-06 5.33657726e-07 -5.79617101e-08 -8.40413918e-07
      3.63792674e-06 -4.25726512e-06 -6.73945897e-06 -2.53287681e-06
      1.90604590e-06 1.69305235e-06 7.06787773e-07 -1.65668223e-06
      2.70500686e-06 -2.59114495e-06 -7.27255497e-07 -1.82415511e-06
      4.76609699e-07 2.64591586e-06 1.41409703e-06 2.05843276e-06
      -3.79584799e-06 -1.89771606e-06 -5.98678980e-07 -1.77387699e-06
      -5.88891623e-07 4.59149123e-06 4.60778125e-07 7.63175308e-07
      -7.93881213e-07 8.59522572e-07 4.24462633e-06 5.76378352e-06
      2.85102101e-06 1.49436858e-06 1.22019026e-06 -1.39834349e-08
      -2.05963670e-06 6.02050875e-07 1.30587603e-06 3.84792656e-06
      1.79934682e-06 -7.43319674e-07 -3.79463563e-06 -2.37870745e-06
      -2.89433956e-06 1.76326739e-06 2.67905466e-06 1.26217606e-06
      -9.23153038e-07 3.50726395e-07 1.64938353e-06 -2.97579072e-06
      -2.36162350e-06 -3.71427177e-06 -1.46189848e-06 -1.12339126e-06
      -1.39582573e-06 9.91439265e-07 6.21591334e-06 -2.87784155e-06
      -2.81792404e-06 -3.54941744e-06 -1.40821146e-06 -3.18802836e-06
      -1.25034751e-06 -6.87653881e-07 -5.80656717e-07 -2.50966173e-06
      2.80130848e-06 -4.00170279e-07 -4.52822519e-07 1.00930083e-06
      3.73693274e-06 1.68688427e-06 2.53794747e-06 -1.77859670e-06
      8.10710162e-07 1.04456049e-07 -4.34460816e-07 -8.44916599e-07
      1.33596211e-06 8.76439344e-07 2.22276503e-06 3.75426993e-07
      -3.64940206e-07 2.13106773e-06 -9.90589342e-07 -1.63351422e-06
      -1.08410359e-06 3.59563523e-06 1.12595694e-06 2.22700351e-06
      -2.57852139e-06 5.72171587e-07 5.18849265e-06 5.75055128e-06
      1.83716463e-06 9.37421589e-07 -3.40052384e-06 -1.22086374e-06
      -6.93083280e-07 -1.31777483e-06 4.28396049e-07 3.29987188e-06
      3.41011992e-06 -3.25936685e-06 -3.83622864e-06 -5.22395703e-06
      1.08445455e-07 -2.79596907e-06 -1.40170312e-06 -7.28738144e-07
      -8.88273235e-07 2.21799382e-06 2.66814618e-06 1.85925884e-07
      -2.46962770e-07 -5.05864909e-06 -3.92059883e-06 -8.59296279e-07
      -2.89244849e-06 2.90751564e-06 3.64146808e-06 -1.84209625e-06
      -1.70680357e-06 -4.18791979e-06 -2.14906095e-06 5.28541619e-08
      4.05987635e-07 1.28380123e-06 -7.66423511e-07 -2.43983322e-06
      2.17764682e-06 -3.53754012e-06 -1.70592477e-06 3.52370216e-06
      5.55169390e-06 2.38837720e-06 1.14747070e-06 -5.18816591e-07
      2.36586584e-06 -1.59025194e-06 1.55710336e-06 -7.88884108e-07
      2.73374837e-07 9.89327191e-07 1.49104278e-06 1.51882341e-06
      -4.29402036e-07 -8.80984715e-07 4.54247925e-07 -3.26169607e-06
      -1.70129772e-06 -3.16891089e-07 -2.62898152e-06 -3.29333034e-06
      -4.51686265e-06 1.29325576e-06 3.76720413e-06 2.00244995e-06
      1.51878805e-06 1.11298448e-06 -4.06233949e-06 -1.52770690e-06
      1.62274000e-06 -1.65888855e-06 1.05092295e-06 5.06746073e-06
      5.99240502e-06 -6.43900592e-07 -3.08635595e-06 -1.91516506e-06
      -4.20671358e-06 -3.36942230e-06 1.57853754e-06 4.75747356e-06
      2.90675280e-06 3.62525930e-06 4.30262162e-06 2.56284011e-06
      -6.88073123e-06 -2.90570506e-06 -5.66818301e-07 1.52183929e-06
      1.71732040e-07 1.89560490e-06 4.21778850e-06 5.75173954e-06
      1.71222246e-06 7.57077032e-07 2.40359896e-06 2.03029822e-06
      1.60448383e-06 1.94689869e-06 -1.68454733e-06 -2.09764721e-06
      5.33571779e-07 -2.64159155e-07 5.21753236e-06 4.43877798e-06
      5.07138338e-06 5.12076849e-06 -8.06946787e-07 -2.35598236e-06
      -1.51025813e-06 6.56941381e-07 2.84937323e-06 1.77151594e-06
      2.91747870e-06 3.76422827e-06 2.22393851e-06 3.17096169e-06
      -6.31847058e-07 7.43796932e-07 2.87449211e-06 1.48796266e-06
      3.49970463e-07 -2.25263676e-07 -2.43027375e-06 1.10164342e-06
      -1.55273835e-06 -6.92929632e-07 1.39236772e-06 6.07349739e-06
      3.70645603e-06 -2.23661095e-06 -7.43494093e-06 -2.50264134e-06
      7.76380261e-07 -3.81007482e-07 -2.14092984e-06 -1.24521034e-06
      2.02652836e-06 -1.32593527e-06 -2.90961225e-06 -1.38545568e-06
      -9.96558128e-07 -1.41231715e-06 -9.41455824e-07 -5.14409976e-07
      4.53258821e-07 2.84186569e-07 -1.90683318e-06 -9.02925990e-07
      -5.51325229e-06 -6.61835600e-07 -3.62324613e-06 -1.04025082e-06
      -7.56463123e-07 4.08036094e-08 3.91276387e-07 5.38320990e-07
      -1.25552504e-06 -7.44824831e-07 -1.10028657e-06 -2.73193706e-07
      4.29115119e-07 -2.46568732e-07 5.58910699e-07 4.28943224e-07
      -2.22245475e-07 6.27850909e-08 -1.31954437e-06 -3.00341952e-07
      -1.44868443e-06 -3.15947318e-07 1.24086591e-06 2.81060977e-07
      3.49593989e-07 3.09541292e-07 -1.35663026e-06 -2.18869377e-06
      -1.42725753e-06 1.59453123e-07 1.64493122e-06 -4.72426706e-07
      -7.29399574e-07 7.22181071e-08 -1.92927905e-06 -4.38381176e-06
      -2.45016145e-06 1.57055013e-06 7.64955757e-07 -6.23499886e-07
      -2.08399615e-06 -1.80539337e-06 -1.17680941e-06 -5.08467167e-07
      -4.18780424e-08 -5.87729971e-07 7.59584907e-07 1.89277580e-06
      1.09458767e-06 -8.14504517e-07 -2.72020247e-06 -4.34862500e-07
      1.51785889e-06 8.57268901e-07 -1.17422246e-06 -1.14217251e-07
      -9.83418545e-07 -2.11494148e-06 3.64930450e-08 5.69651831e-07
      -4.87534010e-07 2.36479036e-06 1.79395477e-06 9.44155886e-07
      -2.91744550e-06 -2.29718444e-06 -3.12499515e-06 -9.84842472e-07
      -2.54108545e-06 2.33507066e-07 -3.66004400e-07 2.22965264e-06
      -2.56946237e-06 -2.10817029e-06 -1.56052351e-06 -4.85282385e-07
      1.56422715e-07 -2.48741088e-07 -5.69958559e-07 2.09255541e-06
      -1.94366748e-06 -3.42966496e-06 -1.29628143e-06 -1.20707966e-06
      -8.74310501e-07 9.40125915e-07 1.05745494e-06 4.75493238e-07
      1.14267164e-06 -1.88186584e-06 -1.63671871e-06 -5.38713175e-06
      -4.56331080e-08 1.37216421e-06 2.28380304e-06 7.78064077e-07
      2.36051642e-06 -1.85668512e-06 -3.20432309e-06 -5.12563383e-06
      -2.17850288e-06 -1.54522684e-06 -2.69396355e-06 -2.42998885e-06
      -4.90705645e-07 -3.53452992e-06 -1.99706369e-06 -1.71637524e-07
      -1.17533851e-07 -1.15895784e-06 -3.10012547e-06 -1.79138920e-06
      1.11918325e-06 -1.02546744e-06 -2.26515908e-06 -1.52860605e-06
      -3.80191835e-07 -4.66334171e-07 -1.08554400e-06 -1.40290183e-06
      3.81038319e-07 -1.38009818e-06 -1.50984704e-06 5.54136932e-07
      1.34140089e-06 7.00353098e-07 -9.97070657e-08 -2.56615886e-06
      -4.89355762e-06 -2.44566877e-06 -4.68573717e-06 -5.20479432e-07
      9.63707834e-08 3.35032297e-07 3.16347314e-06 9.83795871e-07
      -8.12041037e-07 -3.19041305e-07 -2.74176728e-06 -2.03161744e-06
      -4.38881642e-07 3.01293142e-07 -1.28435389e-07 6.49819924e-07
      1.00698310e-06 2.11043094e-08 -5.03850379e-06 -1.93220626e-06
      -8.87368913e-07 7.48419382e-07 9.32878265e-07 3.91473208e-07
      1.56003910e-06 -9.54200345e-07 -3.09990560e-06 -5.17816579e-06
      -3.41913108e-07 1.08601580e-06 -1.53884980e-06 1.04216008e-06
      5.92930007e-07 -1.46847026e-06 -2.73472870e-06 -4.78095035e-06
      -3.12822294e-07 -1.28990177e-06 -2.47148500e-06 -8.15166914e-07
      -2.04521530e-06 -3.83571842e-06 -3.90179457e-06 -2.88500837e-06
      -2.41601742e-06 5.17935170e-08 -1.51570433e-07 -1.79317465e-06
      9.47225772e-07 -8.13264364e-07 -2.27302098e-06 -1.42171984e-06
      -1.40140139e-06 2.85055705e-07 -2.95876180e-06 -2.65432800e-06
      5.86763633e-07 1.14064473e-08 1.23459790e-06 3.57541103e-06
      9.52524374e-07 1.98906741e-06 -4.22809080e-06 -3.27799353e-06
      -9.95269602e-07 -1.21407663e-06 -2.67083738e-06 4.65210775e-07
      -5.07160998e-08 1.45730144e-06 1.02786146e-06 1.47801998e-07
      -7.60706598e-07 -8.55608164e-07 -4.82429778e-06 -2.27782471e-06
      5.73852617e-07 7.66030098e-07 2.77943968e-07 7.48984348e-07
      1.22165602e-06 -1.40789098e-06 -6.60403066e-06 -2.32464822e-06
      -2.42407850e-06 -2.85469611e-07 1.72567979e-07 9.43533564e-07
      1.98421571e-06 -4.22483708e-07 -7.97975099e-06 -6.93838956e-06
      -9.71621375e-07 5.88936322e-09 -6.38925940e-07 -6.91843240e-08
      9.62685817e-07 -3.09204950e-07 -6.36350251e-06 -8.95538869e-06
      -4.31353374e-06 1.04956337e-06 -1.98566198e-07 -6.35029039e-07
      -4.65917964e-07 -2.62224466e-06 -3.14820045e-06 -3.56158921e-06
      -8.15263093e-07 3.99540795e-07 5.85526834e-07 2.18927340e-07
      -1.26354138e-07 2.02207573e-07 -1.18560092e-06 -4.95484392e-06
      8.58682597e-07 5.52233644e-07 1.27483188e-08 -1.25571091e-06
      -6.36551292e-08 -5.02143905e-07 -7.79261597e-07 -5.88800913e-06
      4.60082532e-07 2.45935757e-06 3.18626076e-06 2.09912130e-07
      -3.83145277e-07 -7.09263119e-08 -1.23086249e-06 -1.57517400e-06
      -1.99582314e-06 2.18084574e-06 -1.92726219e-07 1.14307579e-06
      2.95463769e-06 1.95211669e-06 -8.47401793e-07 -1.26617465e-06
      -2.20083029e-06 -3.47849635e-07 -6.19223158e-07 2.37101449e-06
      1.45521062e-06 3.48588583e-06 3.29144223e-06 8.86416672e-07
      -4.73891760e-06 -1.53131748e-06 1.61814376e-06 -1.00716093e-07
      -4.01338048e-06 2.04055095e-06 -2.40542840e-06 -7.19656009e-06
      -4.92589379e-06 -4.91946957e-06 2.78583184e-06 1.05611932e-07
      -1.09301789e-06 1.80952100e-06 -1.00673765e-06 -1.80526024e-06
      -2.08484812e-06 5.58107729e-07 1.81533358e-06 -2.04348589e-06
      -1.33290314e-06 -2.17475736e-06 -4.39577343e-06 -2.59508647e-06
      -4.47843888e-07 3.99152623e-06 2.61675473e-06 3.07761547e-06
      3.19607011e-06 7.40368989e-07 -2.52903192e-06 -7.24591109e-06
      -1.65547309e-08 1.61157834e-06 -6.44764100e-07 -6.41661359e-07
      1.79497090e-06 7.55886731e-07 -4.67388509e-06 -8.38231790e-06
      -2.94461216e-07 6.47592231e-07 -1.78315474e-06 -3.65552410e-07
      4.02237333e-07 1.04158812e-06 -2.47487310e-06 -4.53002349e-06
      -6.25338225e-06 -1.56102055e-06 1.91414210e-06 4.93836865e-07
      9.53006634e-08 1.01545538e-06 -4.46334570e-06 -2.89267427e-06
      -5.39363873e-06 -1.08874065e-06 1.63609286e-06 1.92762172e-06
      -4.94814628e-07 -1.23483881e-06 -5.66588596e-06 -4.04140110e-06
      -4.33720243e-06 -1.39539645e-06 6.21347226e-07 1.68451538e-06
      -1.86080933e-06 -7.99452323e-07 -6.00613612e-06 -1.13302658e-05
      -8.57863051e-06 1.89414536e-07 -2.53569965e-06 -1.79456174e-06
      -2.65516610e-06 -1.46263517e-06 -5.17488297e-06 -4.52092536e-06
      -7.18323827e-06 1.02137943e-08 -1.62788467e-06 -2.82379915e-06
      -1.73325498e-06 -1.85440661e-06 -5.25910582e-06 -4.70399573e-06
      -3.46447564e-06 -1.08511438e-06 2.54069096e-06 4.61282696e-07
      8.45211332e-07 8.91352101e-07 -1.26871737e-06 -2.77806976e-06
      2.74063353e-07 1.69182954e-06 1.40434190e-06 1.04697040e-06
      1.72719956e-06 2.56574003e-06 -3.31482511e-06 -6.95652352e-06
      -8.60957073e-07 4.09833183e-06 3.59363526e-07 1.58647754e-06
      -2.75794122e-07 3.97744043e-06 -1.41480837e-06 -5.22753726e-06
      -5.90204399e-06 -2.42259171e-06 -2.30756214e-07 2.53192843e-06
      -8.65753918e-07 -5.03660203e-07 -3.42358021e-06 -2.94811321e-06
      -4.65353605e-06 1.64293681e-06 1.33311778e-06 1.19287358e-06
      -1.11711063e-06 -1.80731047e-06 -2.03407282e-08 -2.72092961e-06
      -5.95518668e-06 4.99100679e-07 4.29320335e-06 8.07607705e-07
      -2.26756606e-06 -1.13881765e-06 -4.61380796e-06 -9.17752823e-06
      -6.29930855e-06 1.43952650e-06 2.67024598e-06 3.88974151e-08
      -3.37636970e-06 -1.44731484e-06 -1.55790292e-06 -2.18948207e-06
      -5.59203136e-06 -2.98671154e-07 1.12313285e-06 -2.45448746e-06
      -1.98319256e-07 -2.05244351e-06 -3.56098121e-06 -2.46759146e-06
      -4.14820715e-06 -1.68865245e-06 1.18060075e-06 -9.39756148e-07
      3.20021604e-06 8.55484814e-07 -3.59328141e-07 1.04823948e-06
      1.07764902e-06 2.42565216e-06 1.07327196e-06 -5.99975067e-07
      -1.04996765e-07 1.13906458e-06 -2.80926611e-06 -6.92462299e-06
      -4.52115819e-06 -9.92975060e-07 2.92321306e-06 6.96353027e-07
      3.01660316e-06 3.76678076e-06 -8.51659820e-07 -6.54867335e-06
      -6.43550493e-06 -1.87099090e-06 3.65738856e-06 2.88384672e-06
      3.46453407e-06 2.12356872e-06 -2.17809338e-06 1.10626445e-06
      -7.59478667e-08 3.04304695e-06 2.47634171e-06 1.21065852e-06
      -2.43171485e-06 -5.05492324e-07 -1.57975069e-06 -3.46597585e-06
      -2.29088619e-06 2.12741156e-06 4.69593351e-06 1.60519005e-06
      -8.57632529e-07 4.34636860e-07 -1.08811003e-06 -7.11447456e-06
      -6.56854718e-06 -1.14516331e-06 8.83795053e-07 3.21855509e-06
      2.54236488e-06 -5.59810360e-07 1.58237799e-06 -4.11894803e-07
      -2.07041808e-06 3.61187813e-06 2.30990008e-06 9.65264007e-07
      1.73896069e-06 -2.06000027e-06 -1.66162636e-06 -2.76684796e-06
      -4.65833125e-07 2.46359650e-06 3.45334115e-06 1.89655429e-06
      7.85326392e-07 3.27857424e-06 6.48197738e-06 3.17906733e-06
      -1.76510571e-06 2.64692085e-06 4.35916763e-06 3.18476594e-07
      -8.08319214e-07 1.37037932e-06 -6.28286216e-07 -4.29242527e-06
      -3.29123759e-06 2.27507172e-07 2.96218172e-06 2.11531528e-06
      2.04473713e-06 3.54136978e-06 2.51183383e-06 1.52247981e-06
      1.34927063e-06 -1.11122006e-06 4.80219887e-06 3.61942307e-06
      5.54701842e-07 3.97407439e-06 4.65036965e-06 5.34579476e-06
      3.74959859e-06 4.59405919e-06 5.03807769e-06 2.17520710e-06
      3.42158023e-06 4.27976943e-07 2.86359432e-06 4.12026657e-06
      5.20770254e-06 -1.06056166e-06 3.09854249e-06 2.47011394e-06
      3.30248145e-06 3.21342532e-06 4.88686555e-06 -1.67535845e-07
      1.27465114e-06 -2.18460991e-06 -2.93620360e-06 1.77804463e-06
      -6.34828780e-07 1.02799697e-06 6.03024091e-06 6.14245528e-06
      1.19823517e-06 1.35759626e-06 -7.14946395e-07 7.55613371e-07
      1.91115942e-06 2.06550203e-06 2.14671900e-06 4.33897731e-06
      9.80485538e-07 -6.33392744e-07 8.94763275e-07 -9.07994490e-07
      8.77047796e-07 7.35856133e-07 2.21105392e-06 8.42758482e-07
      2.44241249e-07 1.58554872e-06 1.54716679e-06 5.80965491e-07
      -4.83092492e-07 -1.66212453e-06 -4.02445175e-06 4.53143713e-07
      1.64804896e-06 4.71762814e-06 2.15968680e-06 1.16138369e-06
      1.26781663e-06 -9.27308179e-07 -1.47641254e-06 3.09331449e-06
      1.20765344e-06 4.21327684e-07 1.90436322e-06 1.10392943e-06
      -4.72172076e-07 -1.69908120e-07 3.45997637e-06 2.71785780e-06
      2.73240835e-06 9.06220237e-07 1.72144667e-06 1.36339452e-06
      1.81778103e-06 -3.55824272e-06 -1.69243663e-06 1.27104343e-07
      1.29733610e-06 2.10700136e-06 1.90069716e-06 9.30727481e-07
      6.09361541e-06 -2.95151096e-07 -1.29746502e-06 6.85126111e-07
      1.53723806e-06 1.94024096e-06 1.34923619e-06 3.88175664e-07
      -5.44441673e-06 -3.94134395e-06 1.88555396e-06 3.03095931e-06
      6.41299323e-07 1.68203360e-06 5.10194468e-07 1.23229336e-06
      -2.23962161e-06 7.42072302e-07 -4.63767194e-08 1.53099575e-06
      -4.18219201e-07 -1.19511208e-06 1.30388389e-06 6.78492688e-06
      1.22479241e-06 2.79278447e-06 8.11984410e-06 4.38169809e-06
      3.06738350e-08 4.72631564e-06 3.02614535e-06 2.35356060e-06
      -2.52620839e-06 -8.35992239e-07 1.15352684e-07 -3.54759686e-06
      -2.17340425e-06 -1.57747786e-06 1.29114267e-06 -1.93161085e-07
      1.29102466e-06 -1.50412052e-06 -6.79436170e-08 -2.37699425e-07
      -6.51564180e-09 -6.45834959e-08 1.08763584e-06 1.03851050e-06
      -1.31117679e-06 1.08212184e-07 1.75316518e-06 6.13434531e-06
      6.47741672e-06 6.45575346e-06 6.76561467e-06 3.47485843e-06
      2.53722669e-06 -4.53805751e-06 -2.49056893e-06 -3.52237180e-07
      7.07222762e-06 3.72830914e-06 7.22125242e-06 6.59656507e-06
      4.39100859e-06 2.65195035e-06 3.09363372e-07 4.04765842e-06
      4.19475782e-06 1.94702011e-06 4.75621164e-06 6.00055455e-06
      -1.18146477e-06 -3.08432800e-06 3.91052663e-06 1.26609541e-06
      -2.23608049e-06 7.78250282e-08 -1.74154252e-06 -1.22608003e-06
      1.10787042e-07 5.15090551e-06 5.18757315e-06 3.61493153e-06
      1.05064385e-06 -1.82466943e-06 -1.58480975e-06 -2.66956818e-06
      -7.59121122e-07 -5.50073480e-07 3.72365457e-06 -8.89509352e-07
      1.46267905e-06 1.44934302e-06 3.02027024e-06 -1.35137770e-06
      -2.65687072e-06 -2.64678647e-06 -1.12671032e-07 -1.07362905e-06
      1.43646685e-06 3.19202309e-06 2.20925108e-06 2.19508161e-06
      -2.20987522e-06 -3.39174062e-06 2.58841965e-06 5.70247096e-07
      5.17284548e-07 2.78172638e-06 4.92995287e-06 8.52064829e-07
      -1.56167346e-06 -1.19124184e-06 4.49319714e-07 4.49546133e-06
      6.42270243e-06 3.96133146e-06 4.59764669e-06 1.15069747e-06
      1.19154276e-06 -4.02986416e-06 -1.19676247e-06 1.60703758e-06
      5.73080752e-06 5.05717480e-06 6.94435130e-06 7.04115564e-06
      2.11923270e-06 1.18583876e-06 -1.74750789e-06 1.97815507e-06
      5.05464686e-06 5.13812802e-06 5.59104819e-06 4.47483171e-06
      -4.93985499e-06 -4.76678542e-06 1.98726426e-07 2.30420937e-07
      2.14979946e-06 4.93688822e-06 9.24918140e-07 -1.78472544e-06
      2.28615500e-06 5.67609322e-06 5.72517592e-06 4.83938675e-06
      8.38977599e-07 1.97439454e-06 -8.53674976e-07 1.56229612e-06
      -1.00269574e-06 9.21977858e-07 5.02459352e-06 2.02643287e-06
      1.26283010e-06 7.88366435e-07 5.20346966e-08 1.09585346e-06
      -2.30797605e-06 -1.14418617e-06 1.84583712e-06 -7.74773525e-08
      -1.37762731e-06 -1.50310754e-07 -2.77866661e-06 7.59511408e-07
      -1.24180144e-06 3.48215053e-07 4.59144348e-06 2.20334891e-06
      1.40696204e-06 2.32425987e-06 6.20216360e-06 -1.01824128e-06
      -1.10669544e-06 1.90903620e-06 1.77910385e-06 3.01409000e-06
      2.77433401e-06 3.46313641e-06 3.64476841e-06 -2.89425145e-07
      7.03213800e-07 -3.79645962e-06 -4.77958929e-06 -1.05261154e-06
      4.55669033e-06 5.60041417e-06 5.34910032e-06 4.74068702e-06
      3.90758629e-07 -1.01137437e-06 -3.23437621e-06 -3.80558299e-06
      6.98615713e-06 5.30662919e-06 3.29227555e-06 4.80347489e-06
      -5.52652455e-06 -4.01118405e-06 -4.19269696e-07 -8.90323645e-06
      -2.12738723e-06 2.95712221e-06 2.73757928e-06 -7.38544585e-08
      5.31578280e-07 5.94026369e-06 6.93332368e-06 -5.80555650e-07
      3.47716650e-06 4.30255659e-06 3.30231978e-06 1.55134592e-06
      -2.77596678e-06 -8.04472904e-07 6.79472259e-06 8.09731591e-06
      4.53315124e-06 3.16337992e-06 1.42303998e-06 7.28511964e-07
      -2.27467899e-06 1.52340522e-06 2.51598931e-06 3.91684853e-06
      4.16122703e-06 1.46852608e-06 5.69063275e-07 2.58430373e-06
      -1.02846934e-06 -2.98163023e-08 4.74410399e-06 1.61767070e-06
      3.35037089e-06 2.52295808e-06 1.87039859e-07 5.73103875e-07
      -4.04336697e-06 -1.63268010e-06 3.96541782e-06 2.89410445e-06
      3.83330962e-06 6.75645379e-06 9.08253753e-07 2.08949677e-06
      2.79607934e-06 1.34537527e-06 3.26650638e-06 1.89480465e-06
      3.56406690e-06 1.01462751e-06 -4.38050665e-06 -1.42384567e-06
      -4.35448896e-07 4.31696030e-08 7.53266386e-06 5.74239129e-06
      7.71590749e-06 3.22883011e-06 9.49451021e-07 2.09565064e-06
      -5.39046641e-06 -9.76240585e-07 5.47278887e-06 1.78979508e-06
      5.78487061e-06 2.08359279e-06 -1.02563479e-06 -1.68014412e-06
      -3.33314745e-07 4.98996906e-06 8.32944716e-06 3.92670154e-06
      4.26414272e-06 9.59149475e-07 -2.50167636e-06 -5.34075889e-06
      -5.73741272e-06 -5.07259665e-06 -5.12345686e-08 1.14393265e-06
      3.81585278e-06 -4.66489467e-07 -6.55443557e-07 4.69935867e-06
      -4.25682629e-06 1.12547559e-06 5.75444858e-07 -5.61141974e-07
      1.42167607e-07 -1.81722919e-06 -1.89417483e-06 -8.98972246e-07
      -5.32027798e-06 -3.16294836e-06 -1.74952561e-06 -1.35900723e-06
      2.86091591e-07 8.03965690e-07 2.39876226e-06 -1.04935987e-06
      2.05059237e-07 -2.61941011e-07 -3.44106729e-06 -2.96350936e-06
      1.54272834e-06 2.42004120e-07 -8.85271959e-07 -3.59946284e-06
      4.68099915e-06 -5.39794837e-06 -9.35665594e-06 -4.79753589e-06
      5.85179748e-07 1.97055942e-06 1.61400794e-06 -7.71836369e-07
      1.27515261e-06 -4.63318383e-06 -2.62221238e-06 -1.33535264e-06
      1.12898158e-06 2.74003628e-06 2.14952570e-06 4.18179025e-06
      -4.78853417e-06 -6.80421408e-06 -6.36417053e-06 -8.16413103e-06
      -2.57526631e-06 4.42739110e-06 2.19645102e-08 3.04172704e-06
      -4.61155787e-06 -9.27358087e-07 2.40086320e-06 -1.51223105e-06
      2.74418062e-06 2.62957792e-06 2.60962702e-06 -1.73958961e-06
      -7.32582475e-06 -3.54856388e-06 -1.23937082e-06 2.50468224e-06
      4.05632636e-06 -1.13779402e-06 -1.76050253e-06 -1.24121314e-07
      -3.87611635e-06 1.84767737e-06 4.33881212e-07 7.63341802e-07
      -7.05495822e-08 -1.69115503e-06 1.42336626e-06 -3.40223232e-06
      -1.75545324e-06 -2.35977632e-06 -8.71300472e-07 -1.61766832e-06
      -1.20963409e-06 2.32364073e-06 5.83888777e-06 -2.51751771e-06
      -2.85171586e-06 -2.43421960e-06 -2.73190111e-08 -3.40881707e-06
      -1.18051810e-06 1.29173372e-07 -9.40410303e-07 -5.18220213e-06
      1.83955888e-06 -1.84563396e-06 -1.32007460e-06 -4.67990020e-07
      2.72191846e-06 1.61639559e-06 2.70762985e-06 -9.28930831e-07
      5.76734124e-07 -1.53814005e-06 1.79373501e-07 8.28049963e-07
      3.23235463e-06 6.49543210e-07 8.93733215e-07 -4.48333424e-07
      -9.42316262e-07 -1.58759562e-07 -6.57756482e-06 -5.99700616e-06
      -2.96719486e-06 2.02473029e-06 1.84521843e-06 2.97246356e-06
      -3.39985058e-06 -2.65869033e-07 2.02732372e-06 -1.00513068e-06
      -1.02875742e-06 1.88786487e-06 -1.91450795e-06 3.14939655e-07
      -5.93856726e-07 -2.09259861e-06 -1.73487831e-06 2.13653539e-06
      3.69224608e-06 -2.17795559e-06 -2.64393179e-06 -4.15395471e-06
      1.86295006e-06 1.79312408e-07 1.28089297e-07 -1.59574608e-06
      -5.41741542e-07 -1.42785086e-06 -1.36344272e-06 4.35640828e-07
      8.72856106e-07 -3.74366641e-06 -3.71179635e-06 -1.54724728e-06
      3.98396082e-07 4.75455454e-06 2.24177893e-06 -8.62011746e-07
      -1.24814426e-06 -4.53374014e-06 -1.65643428e-06 -1.56374449e-06
      -1.56344669e-07 2.78007451e-06 -1.28894453e-06 -3.72643012e-06
      1.40395719e-06 -4.95606218e-06 -1.63459038e-06 -2.21930691e-06
      -7.97700636e-07 -6.48287028e-07 1.65092979e-06 1.85628903e-06
      1.05524543e-06 -3.12771181e-06 2.11014117e-06 -5.85346527e-07
      -2.34454842e-06 -4.27361835e-09 2.40988061e-06 8.31574425e-07
      -3.39541401e-07 -1.25348879e-06 -5.68565292e-06 -6.01053716e-06
      -4.29239799e-06 -1.20690765e-06 -8.04206309e-07 -2.74596550e-06
      -5.05336220e-06 1.14889542e-06 1.73094963e-06 -2.30545106e-06
      -1.80417669e-06 2.21907408e-06 -3.56348482e-06 -8.96906556e-07
      6.73581610e-07 -3.35891605e-06 -2.83389795e-06 2.12035752e-06
      5.98149154e-06 -3.03515719e-07 -1.30366516e-06 -2.24252545e-07
      -1.72812111e-06 -1.47994467e-06 -1.53467352e-06 2.00725481e-06
      2.83496570e-06 -6.61802517e-07 1.03374521e-06 4.34019466e-06
      -4.91451374e-06 -5.83007932e-07 9.12966186e-07 2.20340598e-06
      2.03886179e-06 3.73592025e-06 2.91301126e-06 2.38912094e-06
      2.54947827e-06 3.04872901e-06 5.02559215e-06 2.08221763e-06
      2.79167489e-06 2.73106753e-06 -2.94604524e-06 -2.29005468e-06
      1.18044419e-07 2.47803882e-07 7.33577144e-06 6.57644875e-07
      -3.89335582e-07 5.31934347e-06 -1.04246840e-06 1.06558502e-06
      -1.52180417e-06 9.76218189e-07 3.03117895e-06 1.85816282e-06
      6.91853245e-07 9.50076696e-07 -4.29102840e-07 -1.46060802e-06
      2.26429098e-08 3.75358832e-06 -1.70734074e-06 -1.00613465e-06
      8.84087626e-07 -1.61710761e-06 -4.03828244e-06 -1.87568378e-06
      -8.59665079e-07 8.20267758e-07 1.48443360e-06 6.19955927e-07
      -6.16391162e-07 -3.59849082e-06 -7.85242537e-06 -3.54900067e-06
      2.83356805e-08 -7.05491288e-07 -5.72721274e-06 -1.98873590e-06
      -2.45617684e-07 -2.95430345e-06 -3.01015916e-06 -8.98613337e-07
      -4.27056506e-07 -2.62619915e-06 -5.23699191e-06 -1.39129713e-06
      6.61811228e-08 -2.33455285e-06 -2.82046130e-06 -2.37154580e-07
      -4.83860731e-06 -3.22269699e-07 -4.28361454e-06 -1.21422420e-06
      -3.74700493e-09 9.60440047e-07 -1.11072768e-06 8.34623961e-07
      -1.41803559e-06 1.24486064e-06 -4.97577446e-07 -6.46029889e-07
      6.59445789e-07 -4.35825420e-09 5.18866727e-07 4.85757766e-07
      -6.52058418e-07 -2.58856261e-07 -9.95036999e-07 -1.99358260e-06
      -6.47446086e-06 -1.12512578e-06 1.15853527e-06 3.52087369e-07
      -5.08795551e-07 -6.86061185e-07 -3.23687368e-06 -1.99200235e-06
      -2.07248263e-06 -1.60137631e-07 1.80546181e-06 -4.26261693e-07
      -7.04987258e-07 4.67306513e-08 -8.81255710e-06 -8.24855670e-06
      -3.08542985e-06 2.62594472e-06 1.61235243e-06 -5.78841991e-07
      -2.41854809e-06 -1.87761236e-06 -3.14706699e-06 -3.41443388e-06
      -4.67757400e-06 -3.09883632e-07 1.54080215e-06 3.32003401e-06
      2.87401463e-06 -3.09178313e-06 -7.28230043e-06 -1.32906928e-06
      1.03879586e-06 -9.76950929e-08 -6.52890662e-07 -4.66260246e-07
      1.26606392e-06 -1.23374537e-06 -2.79986807e-06 -1.02327249e-06
      -2.12589430e-06 -1.31977140e-06 7.71999282e-07 2.23572761e-06
      -2.67149903e-06 -2.11701308e-06 -3.26913118e-06 -1.48449806e-06
      -2.61791524e-06 1.71957424e-06 -1.95836992e-06 2.66002326e-06
      -3.13746432e-06 -1.70062719e-06 -3.81062108e-07 -8.74794864e-07
      -3.25985809e-07 4.12495268e-07 -9.48225704e-07 2.15684804e-06
      -2.65907056e-06 -2.57455577e-06 8.43573105e-07 -1.23958318e-06
      -2.59593594e-06 8.00201462e-07 1.93283540e-06 2.01113062e-06
      1.39058204e-06 -2.06073423e-06 -2.04355615e-06 -6.52648123e-06
      -2.84052226e-06 -1.53836640e-06 2.38732423e-06 -4.85670853e-07
      2.78867992e-06 -1.10146607e-06 -4.20314700e-06 -5.27801876e-06
      -4.39162113e-06 -2.71120825e-06 -4.59139585e-07 -2.65410267e-06
      4.49777275e-07 -1.51031088e-06 -2.24532846e-06 -5.79139510e-07
      -2.71843192e-06 -6.17113699e-07 -2.42106671e-06 -2.12710893e-06
      1.69052646e-06 6.97243479e-07 -2.10571739e-06 -3.25711130e-06
      -3.56085775e-06 -5.21496713e-06 -2.66387724e-06 -1.42450529e-06
      2.69729685e-06 4.81913901e-07 -3.27933571e-06 -2.53205872e-06
      -2.55570558e-06 -4.89533340e-06 -1.85205658e-06 -1.63211587e-06
      -5.21147740e-06 -2.10467988e-06 -4.67228710e-06 -2.60003276e-06
      -8.14644523e-07 1.78908556e-06 2.56521730e-07 1.78344783e-06
      -1.25511644e-06 -3.90005805e-09 -1.79251003e-06 -2.84231282e-06
      -1.85783915e-06 2.22113158e-06 4.18872794e-08 1.29410705e-06
      -1.19068181e-06 -1.29264834e-06 -4.74497210e-06 -4.09170116e-06
      -4.37571634e-06 -3.50263434e-07 1.18230855e-06 5.95825497e-07
      1.11891083e-07 -1.46787318e-06 -3.80496681e-06 -7.42767770e-06
      -3.96709675e-06 -6.04628895e-07 -1.50440530e-06 9.36574395e-07
      1.04128102e-08 -1.26833538e-06 -3.12057568e-06 -5.99444866e-06
      -2.30478304e-06 6.50886847e-08 -2.06911636e-06 -3.51708172e-06
      -1.46190155e-06 -2.62861272e-06 -3.44382033e-06 -3.38340715e-06
      -5.36639436e-06 6.60565149e-07 -3.22482151e-07 -2.67151268e-06
      -2.90863369e-07 6.34256367e-07 -2.65563244e-06 -3.25348719e-06
      -3.43155989e-06 -6.45753687e-07 -3.37222195e-06 -2.74951435e-06
      1.08708923e-06 6.31457169e-07 -1.06421915e-07 -2.35912671e-06
      -2.94951019e-06 -1.78818118e-06 -4.18649097e-06 -1.79267863e-06
      -6.63192907e-07 9.63126126e-07 -3.56934356e-06 -2.29138982e-06
      -1.09780262e-06 1.45160379e-06 7.31172349e-07 3.47307605e-07
      -3.91399595e-07 1.69837199e-06 -4.56605903e-06 -4.18221816e-06
      -4.19269099e-07 8.60533703e-07 1.06690322e-06 7.92373442e-07
      4.97872975e-07 -8.22224990e-07 -6.25454595e-06 -3.84070108e-06
      -7.85836528e-06 -2.58641353e-06 3.73708332e-07 7.92743606e-07
      4.89699858e-07 -1.17420598e-06 -8.29242981e-06 -8.50860033e-06
      -7.19288937e-06 -1.78227026e-06 -1.50798667e-06 -2.20545257e-06
      4.18206838e-07 -2.32518058e-08 -7.13215150e-06 -1.07467076e-05
      -8.53336223e-06 9.79075594e-07 1.01930209e-06 -1.96826386e-06
      -9.02998750e-07 -2.64447613e-06 -3.59881369e-06 -4.74106128e-06
      -4.59949797e-06 -5.51155665e-07 2.37554582e-06 4.41914972e-06
      -4.31438707e-07 -2.12514408e-07 2.98539339e-06 1.51440827e-06
      3.39069470e-06 2.26600673e-06 1.66395091e-06 6.13221573e-07
      -3.02486069e-06 2.39244855e-07 -6.96037091e-07 -1.80417646e-06
      1.53635426e-07 -1.88752992e-07 5.02330693e-08 2.42246188e-06
      -2.57026841e-06 5.66053586e-07 2.97873925e-07 5.48791981e-08
      -1.15560749e-06 5.62698119e-07 4.97849487e-06 1.96035148e-06
      -7.36498805e-07 2.65006452e-06 2.09384211e-06 9.55432938e-07
      6.57136070e-07 2.34712320e-06 2.76843161e-06 1.30641979e-06
      2.53028816e-06 1.28107399e-06 -4.37566996e-07 -9.61750288e-07
      -2.50690368e-06 7.84730389e-07 3.76695266e-06 3.94828749e-06
      4.12670124e-06 3.12278758e-06 -5.35005483e-07 -4.80858353e-06
      -2.85251349e-06 -2.09937014e-07 3.25933365e-06 4.08613005e-06
      -2.26276507e-06 -2.12395094e-06 -3.00720717e-06 -5.83684414e-06
      -5.67976804e-06 -6.49653131e-08 6.14504586e-07 -1.80566678e-06
      -2.75318416e-06 -2.03625859e-07 4.61219571e-07 -1.94873064e-06
      -3.34721108e-06 -1.49892992e-06 -1.78142244e-07 2.99376723e-07
      -3.03621346e-06 -3.97706344e-06 1.27356873e-06 -1.01367846e-06
      3.66099385e-07 -1.38950702e-06 -1.65834240e-06 -2.46850277e-06
      -1.27360863e-06 -4.81375082e-07 -2.48401375e-06 -3.71338365e-06
      -6.07852542e-07 3.69427823e-07 3.69306719e-07 -6.87070440e-07
      -1.91246204e-06 2.44981351e-07 -3.65266715e-07 -1.19871618e-06
      -1.18875835e-06 1.41976875e-06 5.48852449e-06 8.88952741e-07
      -3.50053540e-07 -4.44622799e-07 -4.08690056e-07 -1.88469951e-08
      -6.54043220e-07 1.90461310e-06 2.06339155e-06 1.86499938e-06
      4.44982652e-06 -8.99660108e-07 -3.54879899e-06 -3.25305746e-06
      -3.25417136e-06 -1.99109884e-09 3.84372242e-06 3.31248702e-06
      1.88616514e-06 1.90712342e-06 -2.22897211e-06 -6.41864108e-06
      -2.56642693e-06 -8.37528830e-07 2.34964659e-06 2.76419178e-06
      -2.61748119e-06 1.12392001e-06 -6.06339313e-07 -5.31340174e-06
      -4.58757177e-06 8.78992807e-07 1.03729167e-06 8.27126087e-07
      8.45575059e-08 3.20900836e-06 3.01268346e-06 1.73436348e-07
      -1.52904920e-06 1.32658542e-07 -1.14457698e-07 1.23995721e-06
      1.70205908e-06 9.51000800e-07 1.92431844e-06 1.44311218e-06
      2.88340789e-06 2.07534185e-06 1.81370945e-06 1.86065517e-06
      -4.29856811e-07 8.27107058e-08 -1.62145454e-06 -2.92793106e-06
      4.66773002e-07 8.48121545e-07 -3.46022119e-07 9.65836534e-07
      -2.82839409e-07 6.79117420e-08 -8.02244131e-07 -1.60355125e-06
      -3.71242123e-07 3.49368406e-06 1.52546556e-06 -1.34777235e-06
      -2.58723617e-06 -2.44119409e-08 1.27931389e-06 1.14736554e-06
      2.81794269e-06 4.82052474e-06 1.03039724e-06 -6.32456818e-07
      -6.78137951e-07 -5.63206959e-06 7.64376296e-08 1.15638181e-06
      1.85383817e-06 3.89899560e-06 3.70137263e-06 2.51352617e-06
      7.74631587e-07 -1.78023208e-06 -1.05448294e-06 -1.95830034e-06
      9.65238655e-07 2.79426627e-06 1.65063500e-06 1.65206689e-06
      -1.20963148e-06 -3.18481216e-06 -5.16432237e-06 -5.78080335e-06
      -7.93596143e-07 2.83161148e-06 -3.06174712e-08 -3.38628138e-06
      -3.45227545e-06 -3.21697200e-07 -6.36984566e-07 -2.56711337e-06
      -1.27565386e-06 1.93588539e-06 -6.52872245e-07 -2.42156005e-07
      1.23958705e-06 1.02782326e-06 -6.75163676e-07 -2.72318715e-07
      7.30149225e-07 -7.62744435e-07 -4.10932614e-07 -4.10168411e-07
      1.44149203e-06 1.90365949e-06 -1.92571679e-06 -3.76032426e-06
      -1.37501684e-06 -1.88980565e-07 7.32715478e-07 1.70469002e-06
      5.32228228e-07 1.35028326e-08 -8.96647919e-07 -1.68643123e-06
      -1.28372426e-06 3.30523517e-06 3.71416581e-06 -3.55874420e-07
      1.79631479e-06 -6.03838600e-07 -2.05251604e-06 -1.76654021e-06
      1.31506553e-07 4.63885635e-06 2.07545963e-06 4.16315373e-07
      2.06235109e-06 -4.37589961e-06 -3.68981205e-06 -1.68375664e-06
      7.36576382e-08 3.59839146e-06 3.85529029e-06 2.65397011e-06
      -1.70386227e-06 -3.91628328e-06 -1.49666539e-06 -3.22057235e-06
      1.13607871e-06 3.03496063e-06 1.39346582e-06 8.05586069e-07
      -5.63473441e-06 -2.63455058e-06 -1.14148131e-08 -1.29407954e-06
      5.37133701e-07 4.77548065e-06 -3.86586777e-07 -1.37471318e-06
      1.03189848e-06 1.92773450e-06 2.75886623e-06 1.32560433e-06
      1.74137017e-06 3.03719526e-06 1.36967617e-06 1.33104027e-06
      3.99285500e-06 -3.88227136e-06 -1.75818169e-08 -4.01513607e-05
      1.37716602e-03 1.56377431e-03 1.91568048e-03 1.30437396e-03
      1.56855822e-04 -5.95324789e-04 -5.68475924e-04 -7.20404147e-04
      -6.53179362e-04 -7.94183288e-04 -7.26182887e-04 -4.83583397e-04
      -4.65727062e-04 -4.23901452e-04 -2.77939223e-04 -2.62302288e-04
      -1.20107376e-04 -1.17930271e-04 -4.07578664e-05 -3.89952402e-05
      -1.99924416e-05 -6.58064846e-06 0. 0. -2.28282283e-06 0. 0. 0. 0.
      0. 0. 0. -4.28994172e-05 -5.24552752e-06 0. 0. 0. -1.92401535e-06
      -5.02049033e-07 7.51880434e-05 3.64709384e-04 7.59007526e-04
      1.75781443e-03 2.20604567e-03 3.09707085e-03 7.79400638e-04
      7.54367444e-04 6.00913598e-04 7.53447530e-04 7.52291468e-04
      7.86646211e-04 8.09705001e-04 1.10058545e-03 7.52441294e-04
      1.12850161e-03 6.68500375e-04 1.12998660e-03 -3.48607940e-03
      -2.80737272e-03 -2.96384073e-03 -2.29384517e-03 -1.28385157e-03
      -8.87997739e-04 -1.30642287e-03 -1.58478937e-03 -1.65999774e-03
      3.69276108e-06 -7.38941890e-06 -5.26415818e-08 -9.71319678e-05
      1.40634226e-03 9.78128519e-04 6.06634363e-04 -7.03630794e-05
      4.84192191e-04 -8.34737875e-05 -3.87695240e-04 -3.11810756e-04
      -4.83577925e-04 -5.57794992e-04 -2.60687899e-04 -2.23250434e-04
      -2.27447192e-04 -1.04208884e-04 -1.71575593e-04 -1.86837671e-04
      -1.13801572e-04 -1.17866322e-04 -7.22679179e-05 -5.07019504e-05
      -3.45292538e-05 -6.78834294e-06 -2.49051755e-06 -5.84518921e-06
      -3.58807455e-07 -1.92401535e-06 0. 0. 0. 0. 0. 0. -4.18451418e-05
      -4.85628198e-06 0. 0. 0. 0. 0. 1.87757396e-05 8.96558049e-05
      1.81599375e-04 4.06391744e-04 4.81480442e-04 6.78671116e-04
      3.86615837e-04 2.41026974e-05 6.52860326e-04 1.78976465e-04
      2.15094187e-04 2.80587788e-04 1.38416988e-04 3.75456548e-05
      1.34764239e-04 3.32459167e-04 -2.03622330e-05 2.63194932e-04
      -9.45469481e-04 -6.50055299e-04 -7.44858466e-04 -5.23604627e-04
      -2.38928042e-04 -4.00808844e-04 -2.36464170e-04 -3.90481553e-04
      -3.50159826e-04</_></support_vectors>
  <uncompressed_sv_total>73</uncompressed_sv_total>
  <uncompressed_support_vectors>
    <_>
      1.78620011e-01 8.23489353e-02 3.25473770e-02 3.09046730e-02
      2.95347031e-02 9.34558064e-02 1.76215664e-01 1.49652988e-01
      2.98961520e-01 8.36533383e-02 4.88436446e-02 2.46282853e-02
      2.05769408e-02 1.86372414e-01 2.42668569e-01 6.66120797e-02
      3.26319188e-01 1.57739699e-01 4.41042520e-02 6.58735111e-02
      9.72163975e-02 2.33700931e-01 1.09506175e-01 4.76592220e-02
      1.23033017e-01 3.40530723e-02 1.51904628e-01 1.02763809e-01
      1.07826106e-01 1.39595851e-01 9.02648270e-02 2.90476024e-01
      1.42681196e-01 1.94750503e-02 1.33239046e-01 6.36266768e-02
      3.39509696e-02 4.03156690e-02 2.10099250e-01 3.89266551e-01
      2.93833435e-01 2.80214757e-01 1.98885247e-01 3.48415643e-01
      3.34448040e-01 1.08377144e-01 1.99122638e-01 4.00000006e-01
      4.00000006e-01 3.54813337e-01 4.00000006e-01 4.00000006e-01
      3.98308337e-01 1.15047708e-01 2.71603793e-01 3.49512815e-01
      3.95615041e-01 4.00000006e-01 3.10234636e-01 4.00000006e-01
      3.26460183e-01 1.57451615e-01 4.00000006e-01 4.00000006e-01
      3.14075053e-02 6.06341511e-02 2.90053412e-02 3.61975213e-03
      1.83146168e-02 3.60313393e-02 5.01199514e-02 8.88246228e-04
      2.24226952e-01 1.22790016e-01 6.67212671e-03 6.61005126e-03
      2.58842725e-02 3.33150998e-02 1.18679911e-01 0. 2.72379339e-01
      1.23112366e-01 3.93540487e-02 1.11622112e-02 7.73266936e-03
      3.35480161e-02 2.18630694e-02 0. 6.56796843e-02 7.67738372e-02
      1.24184303e-01 1.85556952e-02 0. 0. 0. 0. 0. 2.73890555e-01
      1.95890903e-01 0. 0. 0. 0. 0. 0. 2.15397105e-02 1.37818735e-02
      2.28750221e-02 0. 0. 0. 0. 0. 0. 2.60118786e-02 5.82700819e-02 0.
      0. 0. 0. 0. 0. 0. 0. 0. 0. 0. 0. 3.25129889e-02 5.91637194e-02
      1.06302963e-03 4.35507740e-04 1.36904558e-03 9.63429362e-02
      2.14850053e-01 0. 9.76988673e-02 1.25055104e-01 2.82259341e-02
      1.12642604e-03 9.10027884e-03 1.18656047e-01 2.32175976e-01 0.
      1.48319483e-01 7.92708173e-02 4.70803082e-02 2.53828987e-02
      7.00899363e-02 1.00470126e-01 2.23576128e-02 4.62305825e-03
      4.21090797e-02 7.54040778e-02 2.71804154e-01 1.63753718e-01
      4.43562046e-02 9.88511182e-03 0. 2.07892712e-02 3.48735694e-03
      1.40968755e-01 2.24221408e-01 5.34196831e-02 8.09264311e-04 0. 0.
      0. 0. 2.45097233e-03 4.74369377e-02 1.02395162e-01 5.45468833e-03
      0. 0. 0. 0. 0. 3.69985551e-02 1.09696381e-01 3.97802505e-04 0. 0.
      0. 0. 0. 1.98834226e-03 4.24133427e-03 0. 0. 0. 0. 8.87925401e-02
      8.35535973e-02 8.68764892e-03 5.34941889e-02 3.48586701e-02
      5.37707005e-03 3.47458459e-02 1.04372483e-02 2.95695603e-01
      1.70066148e-01 4.09385562e-02 6.45286217e-02 9.03584808e-02
      6.30701557e-02 6.43264130e-02 0. 1.84340030e-01 1.67003050e-02
      8.57765134e-03 7.02693034e-03 6.39719069e-02 4.23081964e-02
      8.80286191e-03 9.37112141e-03 2.20546834e-02 5.34371957e-02
      2.44215757e-01 7.17556328e-02 3.66150290e-02 7.58895744e-03
      2.13027634e-02 1.43157661e-01 6.47943392e-02 1.72637075e-01
      2.56395549e-01 1.53445480e-02 1.71670858e-02 0. 3.24157067e-02
      1.19563699e-01 0. 2.79453874e-04 9.61813144e-03 1.73680127e-01
      8.27979445e-02 0. 1.33930873e-02 1.84564441e-02 0. 4.93721515e-02
      6.28399253e-02 1.36068791e-01 1.09702656e-02 0. 0. 7.48794973e-02
      0. 1.24667369e-01 4.33038846e-02 4.82578687e-02 0. 0. 0.
      7.41912648e-02 1.66146129e-01 1.56980693e-01 9.12656039e-02
      1.40369288e-03 1.93178076e-02 4.49263006e-02 2.45826785e-02
      1.21866381e-02 2.91816473e-01 3.11949521e-01 1.49783194e-01
      3.95539543e-03 3.35333906e-02 1.27026156e-01 1.12695739e-01
      9.39687900e-03 8.90125185e-02 6.41999543e-02 2.83125276e-03
      3.26994527e-03 3.95913646e-02 1.44383878e-01 3.76084745e-02
      4.41065477e-03 2.57661697e-02 5.19169383e-02 2.07381636e-01
      3.02182585e-02 3.78382765e-02 4.55969423e-02 7.70277306e-02
      3.32984358e-01 2.91866735e-02 1.70483023e-01 2.12517858e-01
      8.74008536e-02 1.78544253e-01 3.43972296e-01 2.90242583e-01
      3.81895959e-01 4.58703712e-02 2.50856757e-01 1.30299196e-01
      2.26252079e-01 3.07203114e-01 1.05614953e-01 1.28095165e-01
      1.24325432e-01 2.61960775e-01 1.50284082e-01 1.74871191e-01
      1.80704147e-01 7.79213756e-02 5.69552043e-03 3.46735381e-02
      9.73810703e-02 2.75776148e-01 1.39650434e-01 8.50088298e-02
      2.51754764e-02 1.70678148e-04 4.27926891e-02 1.08306877e-01
      1.30262941e-01 1.59215741e-02 1.46552414e-01 7.35464133e-03
      5.66806570e-02 3.84173170e-02 9.22279153e-03 4.68489435e-03 0.
      1.61890149e-01 4.00000006e-01 4.86277938e-02 3.38213108e-02
      4.85835671e-02 1.97265316e-02 9.62301064e-03 0. 6.67734537e-03
      2.02394817e-02 3.91595112e-03 1.26952743e-02 2.30168626e-02 0. 0.
      0. 0. 4.88539040e-02 8.79670680e-02 8.72780802e-04 2.78061605e-03
      0. 0. 0. 0. 2.73550153e-01 2.35642478e-01 0. 0. 0. 0. 0. 0. 0. 0.
      0. 0. 0. 0. 0. 0. 0. 0. 0. 0. 0. 0. 0. 0. 0. 0. 0. 0. 0. 0. 0.
      1.01110026e-01 3.71456236e-01 3.64821643e-01 8.36982429e-02
      6.85415044e-02 2.52245739e-02 7.63483462e-04 0. 2.40166008e-01
      4.00000006e-01 4.00000006e-01 9.60548967e-02 9.48057100e-02
      5.59657849e-02 4.27298807e-02 0. 1.30921472e-02 4.40979982e-03
      2.83198226e-02 7.75376484e-02 1.02198295e-01 4.63107303e-02
      2.20154747e-02 0. 9.66405310e-03 2.58448832e-02 9.13364515e-02
      1.71850063e-02 1.61658823e-02 5.39215468e-03 6.90725893e-02
      1.29135892e-01 2.86704414e-02 1.31686598e-01 1.30650252e-01
      5.14176972e-02 2.28131518e-01 2.96172142e-01 2.80395865e-01
      1.50143921e-01 1.11390259e-02 7.10570673e-03 6.45057298e-03
      7.98477456e-02 2.35536993e-01 1.64587229e-01 1.21084437e-01
      1.81634836e-02 3.13737094e-02 2.03297120e-02 0. 0. 0.
      2.10126210e-03 3.19804773e-02 2.62564458e-02 0. 0. 0. 0.
      2.96852458e-03 1.46452780e-03 0. 2.32539754e-02 7.85933286e-02
      1.95534989e-01 3.89929295e-01 4.47983108e-02 2.56058984e-02
      2.73818225e-02 3.75077105e-03 0. 3.26912045e-01 4.00000006e-01
      3.12747478e-01 1.76294148e-02 4.97650951e-02 9.70426649e-02
      4.29238081e-02 0. 1.17695769e-02 2.60956027e-02 3.98551259e-04 0.
      0. 0. 0. 0. 0. 5.28999977e-02 9.05023441e-02 0. 0. 0. 0. 0. 0.
      9.29717124e-02 1.62807077e-01 3.99745535e-03 2.45476831e-02 0. 0.
      0. 0. 8.57371092e-02 4.61130217e-02 8.61267652e-03 4.25465666e-02
      0. 0. 0. 0. 0. 0. 0. 0. 0. 0. 0. 0. 0. 0. 0. 0. 0. 0. 0.
      4.74947616e-02 1.45059988e-01 2.28486612e-01 1.55623555e-01
      1.34092107e-01 6.20086379e-02 1.68524552e-02 0. 1.83976278e-01
      2.17553958e-01 1.30375057e-01 4.84526120e-02 1.01332188e-01
      1.57387838e-01 9.79132578e-02 0. 1.63515843e-02 1.86887588e-02
      6.69555459e-03 9.23564285e-03 1.46217756e-02 0. 0. 0.
      1.39739532e-02 3.26763606e-03 3.93556170e-02 3.49042751e-02
      1.42672742e-02 0. 0. 0. 3.99822220e-02 2.74291001e-02
      3.39031406e-02 2.13339906e-02 0. 0. 0. 0. 5.08017745e-03
      9.07424241e-02 2.24291906e-02 3.74318520e-03 0. 0. 0. 0. 0. 0. 0.
      0. 0. 0. 0. 0. 0. 0. 0. 0. 0. 0. 0. 0. 1.38711989e-01
      8.14225003e-02 3.14067245e-01 1.63310304e-01 1.76863253e-01
      8.30676779e-02 2.16290206e-02 1.71626993e-02 2.44906694e-02
      7.63289779e-02 1.97481424e-01 1.25909850e-01 1.33649319e-01
      2.07168043e-01 1.38200000e-01 2.27577426e-02 2.35175737e-03
      1.30875427e-02 8.38239794e-04 7.62643060e-03 1.11231118e-01
      1.25277653e-01 8.88582766e-02 1.60813332e-02 2.70364247e-02
      4.76622023e-03 4.96509997e-03 8.15177336e-02 8.76203030e-02
      6.97532669e-02 1.29719600e-01 1.76793903e-01 7.43076503e-02
      1.87470112e-02 4.73249853e-02 1.56989962e-01 3.74579430e-01
      4.00000006e-01 4.00000006e-01 4.00000006e-01 7.89294764e-02
      1.48347557e-01 1.77455425e-01 1.81268558e-01 4.00000006e-01
      4.00000006e-01 4.00000006e-01 2.91116297e-01 1.33221269e-01
      2.57638156e-01 1.16426170e-01 4.36824933e-02 5.63566945e-02
      1.69819549e-01 2.94759542e-01 2.03387201e-01 3.67402047e-01
      2.64858365e-01 1.53545395e-01 3.69447246e-02 6.84299171e-02
      4.29651625e-02 8.84229764e-02 1.26279578e-01 0. 7.63934106e-03
      3.39754313e-01 3.90428782e-01 1.77412853e-01 1.35142371e-01
      1.27041489e-02 0. 0. 1.09901186e-02 2.59632289e-01 2.77236849e-01
      1.62629738e-01 2.54497588e-01 7.62621909e-02 0. 0. 0.
      1.48948077e-02 3.83879095e-02 4.40059230e-02 0. 0. 0. 0.
      1.63757876e-02 5.28417677e-02 5.77232614e-02 2.14009117e-02 0. 0.
      0. 0. 1.97657809e-01 1.31268129e-01 2.45710593e-02 0. 0. 0. 0. 0.
      1.48327872e-01 4.05158252e-02 0. 0. 0. 0. 0. 0. 0. 0. 0. 0. 0. 0.
      0. 0. 0. 0. 0. 0. 0. 0. 0. 2.33669151e-02 5.27774505e-02
      1.72997147e-01 4.00000006e-01 1.26655370e-01 1.01560779e-01
      1.90761220e-02 0. 8.31079390e-03 3.08637321e-02 6.65149093e-02
      2.43050709e-01 1.61411554e-01 2.50344604e-01 7.63719603e-02 0. 0.
      0. 0. 0. 0. 0. 0. 0. 9.43675265e-03 9.53990209e-04 0. 0. 0. 0. 0.
      0. 3.30873467e-02 6.50449321e-02 5.15877130e-03 0. 0. 0. 0. 0. 0.
      4.21431884e-02 2.98774056e-03 0. 0. 0. 0. 0. 0. 0. 0. 0. 0. 0. 0.
      0. 0. 0. 0. 0. 0. 0. 0. 0. 1.63048115e-02 9.88242216e-03
      1.84970707e-01 2.46204838e-01 4.87381630e-02 9.91589203e-02
      3.33243310e-02 1.28797088e-02 8.97900108e-03 0. 5.67541979e-02
      1.83074027e-01 6.94781616e-02 2.54090250e-01 8.57587606e-02
      4.49201884e-03 0. 0. 2.50413595e-03 1.15672797e-02 3.98776047e-02
      2.23814696e-02 3.77265476e-02 0. 2.00225841e-02 7.01703364e-03
      7.49338232e-03 4.33901995e-02 2.03109775e-02 5.99128252e-04
      6.08957708e-02 7.64412135e-02 2.94164810e-02 5.01570553e-02
      3.27526405e-02 1.22487191e-02 4.00565378e-03 0. 6.36737049e-02
      7.94584677e-02 1.14576416e-02 3.88747007e-02 1.56656764e-02
      1.10523719e-02 0. 0. 4.09992412e-03 1.90423634e-02 6.65502995e-03
      2.40260232e-02 2.07756497e-02 1.64536163e-02 0. 0. 0.
      5.25128916e-02 8.75974167e-03 3.33777629e-02 0. 0. 1.88906107e-03
      2.63614999e-03 0. 5.83195016e-02 4.82887551e-02 5.92094194e-03
      5.63258119e-02 8.51527452e-02 9.53993052e-02 1.90738812e-02
      2.13599950e-02 3.71942520e-02 4.22683991e-02 4.46871445e-02
      9.16948989e-02 1.54862836e-01 1.52277574e-01 3.27436365e-02
      4.92478050e-02 1.63270757e-02 5.51954657e-03 8.92066862e-03
      8.90364591e-03 5.88908046e-02 8.56141746e-02 4.32877690e-02
      9.23736915e-02 2.48099328e-03 3.40873450e-02 9.56408586e-03
      1.20107625e-02 5.54750785e-02 1.58169270e-02 3.11979130e-02
      2.77626440e-02 8.83953199e-02 1.90619141e-01 2.59662271e-01
      2.62468010e-02 1.07518353e-01 5.63379377e-02 5.64770922e-02
      6.95586354e-02 1.09068513e-01 3.21839973e-02 1.74086586e-01
      5.90946078e-02 1.20258823e-01 7.13934153e-02 6.43828809e-02
      5.44534139e-02 8.91215131e-02 1.04223108e-02 4.45842780e-02
      4.72054929e-02 2.59328615e-02 1.79681703e-02 2.35414840e-02
      8.28312263e-02 1.41458824e-01 8.28970000e-02 1.64549351e-01
      2.77434662e-02 1.89678231e-03 4.19868231e-02 1.16707338e-02
      1.26082441e-02 2.68463045e-02 0. 0. 1.42104253e-01 5.14091253e-02
      7.19124377e-02 3.08202510e-03 5.28419390e-03 5.38578397e-03 0. 0.
      8.38969201e-02 2.80525461e-02 2.47579589e-02 6.17265981e-03 0. 0.
      0. 3.41690145e-02 7.57550914e-03 6.23021135e-03 3.16924043e-02
      9.68641660e-04 0. 0. 1.25646144e-02 4.57723737e-02 2.76925229e-02
      0. 0. 0. 0. 0. 6.11679181e-02 1.67483076e-01 1.96043067e-02 0. 0.
      0. 0. 0. 2.76751304e-03 4.26286040e-03 0. 0. 0. 0. 0. 0. 0. 0. 0.
      0. 0. 0. 0. 0. 0. 0. 0. 0. 0. 0. 0. 0. 3.10607860e-03
      2.20784172e-02 6.86599016e-02 4.09128517e-02 5.15829809e-02
      1.35953422e-03 8.76814425e-02 4.84711006e-02 1.89030473e-03
      2.09237467e-02 8.57131928e-02 7.48258829e-02 1.82230562e-01
      4.96250391e-03 1.69716701e-02 2.09627557e-03 1.70907425e-03
      2.06033066e-02 3.12202629e-02 1.48513103e-02 4.20214832e-02
      9.78098623e-03 6.00031726e-02 0. 3.35138626e-02 1.74703449e-02
      8.87331832e-03 1.85680538e-02 2.41705980e-02 4.40604007e-03
      2.45304517e-02 0. 1.63751379e-01 1.53223798e-01 7.27176070e-02
      3.14505138e-02 0. 0. 0. 0. 1.73273752e-03 1.46119818e-02
      3.08791362e-02 9.81996208e-03 0. 0. 9.29316133e-03 2.75381878e-02
      0. 0. 0. 0. 0. 0. 2.86301412e-02 9.40045640e-02 0. 0. 0. 0. 0. 0.
      0. 0. 0. 7.71747995e-03 5.70307225e-02 1.53842475e-02
      8.08684602e-02 1.59116380e-03 1.28539139e-02 3.04293353e-02 0.
      5.82362805e-03 1.12413922e-02 6.14611879e-02 1.76071376e-01
      1.01782326e-02 1.79235879e-02 5.51566621e-03 0. 1.03702590e-01
      4.92823757e-02 6.88181370e-02 3.35749835e-02 1.83786824e-03
      3.42986099e-02 0. 9.26123932e-02 5.58507890e-02 2.41632257e-02
      3.94282193e-04 2.14941963e-03 0. 0. 0. 2.56769449e-01
      2.78648615e-01 3.42720821e-02 0. 0. 0. 0. 0. 6.61783479e-03
      2.00782921e-02 0. 0. 0. 0. 0. 0. 0. 0. 0. 0. 0. 0. 0. 0. 0. 0. 0.
      0. 0. 0. 0. 0. 0. 1.44819077e-02 5.30586950e-02 4.63963449e-02
      6.67543262e-02 6.30236929e-04 7.46147241e-04 2.56314059e-03 0.
      1.53777562e-02 2.00136136e-02 1.29830390e-01 1.92124575e-01
      1.95674039e-02 0. 0. 0. 1.27449900e-01 4.70296443e-02
      2.71359310e-02 1.89004280e-02 0. 0. 0. 2.76060607e-02
      8.37528631e-02 6.43722340e-02 1.00582808e-01 2.42608450e-02 0. 0.
      0. 5.02931140e-02 1.40699297e-01 1.12269484e-02 2.11284552e-02 0.
      0. 0. 0. 1.64381899e-02 4.98729274e-02 0. 0. 0. 0. 0. 0. 0. 0. 0.
      0. 0. 0. 0. 0. 0. 0. 0. 0. 0. 0. 0. 0. 8.29395428e-02
      9.87026468e-03 1.14005029e-01 7.67158866e-02 3.36105525e-02
      6.06627716e-03 1.23338617e-01 1.72991380e-01 1.41462358e-02
      3.96211259e-02 2.58829951e-01 3.89435261e-01 3.05691697e-02
      1.68477874e-02 1.36245161e-01 1.29486576e-01 4.20964602e-03
      2.67512977e-01 3.70686144e-01 3.99082720e-01 9.86856371e-02
      9.23438370e-02 1.67272091e-01 5.48714548e-02 4.58309799e-02
      3.24012339e-02 1.93962585e-02 4.49856184e-02 7.35318437e-02
      1.62549227e-01 2.06993222e-01 5.57285137e-02 8.09244514e-02
      9.06668976e-02 1.38493732e-01 1.10880174e-01 4.31637950e-02
      5.98079152e-02 9.26756188e-02 1.46511436e-01 1.15682058e-01
      7.75065571e-02 8.39884207e-02 8.71541649e-02 4.34680805e-02
      8.38817582e-02 1.52917385e-01 1.92854717e-01 1.27410546e-01
      1.30826354e-01 8.78644735e-02 7.00788647e-02 1.15606703e-01
      8.16207752e-02 1.33486301e-01 2.35134721e-01 2.32146680e-02
      2.40745544e-01 1.34933844e-01 1.65824518e-02 1.44342482e-01
      4.11312804e-02 7.89229870e-02 7.44471774e-02 1.06927101e-02
      1.46551998e-02 6.01079240e-02 4.27481793e-02 2.25182381e-02
      1.71701573e-02 1.92977861e-01 0. 2.01691538e-02 1.11949742e-02
      1.92138880e-01 3.44613850e-01 6.26090392e-02 7.21658720e-03 0. 0.
      6.02305960e-03 1.54985771e-01 2.08428591e-01 2.50675201e-01
      9.57480744e-02 0. 0. 0. 2.97236517e-02 1.92788899e-01
      1.22704208e-01 6.62524402e-02 3.10498220e-03 0. 0. 0.
      2.33012978e-02 4.93047573e-02 1.25595601e-02 1.99509822e-02 0. 0.
      0. 0. 0. 0. 0. 0. 0. 0. 0. 0. 0. 0. 0. 0. 0. 0. 0. 0. 0. 0. 0. 0.
      0. 0. 0. 0. 3.53746652e-03 1.74488127e-02 3.82931828e-02
      8.74226820e-03 1.24375080e-03 3.63814943e-02 2.21116215e-01
      1.09000606e-02 0. 4.61020134e-02 1.12213962e-01 3.40785384e-01
      6.32596016e-02 7.88126956e-04 5.29560484e-02 4.20241198e-03 0.
      3.80279481e-01 3.45590055e-01 3.55241865e-01 8.85688886e-02
      1.85828898e-02 5.33533981e-03 0. 8.92840605e-03 3.84048313e-01
      3.08024019e-01 9.71841887e-02 2.34482135e-03 3.30445170e-02
      8.21636058e-03 0. 1.68645773e-02 1.55056685e-01 9.25610662e-02
      4.30934457e-03 0. 0. 0. 0. 0. 0. 2.58036070e-02 1.43544599e-02 0.
      0. 0. 0. 0. 0. 2.79302821e-02 1.29271811e-02 0. 0. 0. 0. 0. 0. 0.
      0. 0. 0. 0. 0. 3.21604288e-03 2.31918562e-02 6.42274320e-02
      5.78480996e-02 4.51501720e-02 1.69384107e-02 1.72202736e-01
      9.97852236e-02 3.85514367e-03 1.28037501e-02 1.22609228e-01
      3.56303453e-01 2.20960245e-01 1.52620245e-02 7.01940134e-02
      3.82677205e-02 1.57760689e-03 2.48823375e-01 3.70442748e-01
      3.52669269e-01 4.41297367e-02 1.38553724e-01 1.86055988e-01
      5.77522591e-02 4.59357500e-02 4.00000006e-01 3.12062442e-01
      1.76183805e-01 4.90789302e-02 2.70748317e-01 1.09741494e-01
      1.24612749e-01 4.12073620e-02 1.99229680e-02 0. 1.24825155e-02
      1.22050364e-02 6.52018636e-02 6.94622344e-04 3.25854914e-03
      1.75903179e-02 2.09590364e-02 0. 0. 0. 0. 1.36664137e-03
      3.22255376e-03 0. 1.50492666e-02 1.41069237e-02 0. 0. 0.
      4.47726697e-02 1.23502538e-01 0. 9.78510454e-02 8.80137458e-02 0.
      0. 0. 6.24206327e-02 6.53325990e-02 2.59900503e-02 2.10197996e-02
      8.95591676e-02 5.98235093e-02 2.73048840e-02 7.26987869e-02
      1.50764495e-01 2.55304337e-01 1.81719325e-02 6.14939034e-02
      1.37174562e-01 3.74925643e-01 6.83971420e-02 4.44037467e-02
      1.79277614e-01 2.39033088e-01 6.93573663e-03 2.06578881e-01
      2.35177606e-01 2.50718087e-01 1.47244781e-01 1.04885846e-01
      1.79346099e-01 3.15499604e-01 6.52543008e-02 2.42049903e-01
      7.65032247e-02 1.25120208e-01 1.36497453e-01 2.26825178e-01
      3.85753930e-01 3.39134872e-01 6.34977296e-02 1.03254482e-01
      5.48054278e-02 1.51615337e-01 8.40846896e-02 7.42270350e-02
      5.30110039e-02 3.18644904e-02 1.01447105e-01 4.31866571e-02
      2.22168833e-01 1.51072502e-01 2.58577541e-02 1.09839559e-01
      9.64603275e-02 1.28401682e-01 1.03621833e-01 3.67027104e-01
      1.68382496e-01 7.46602118e-02 1.07453205e-01 4.02483419e-02
      4.62313853e-02 2.02347621e-01 3.85758355e-02 1.57512695e-01
      8.83878395e-02 3.87978218e-02 1.51220828e-01 5.66864237e-02
      1.36210352e-01 8.19395855e-02 0. 3.19619328e-02 4.20910493e-02
      5.85387424e-02 3.65448967e-02 1.17708761e-02 1.03703104e-01
      3.80595364e-02 0. 0. 2.09208746e-02 1.15196735e-01 8.37495178e-02
      4.85993875e-03 4.83062714e-02 6.22930937e-03 0. 2.35684477e-02
      1.46916807e-01 1.28396869e-01 3.59373093e-02 2.90592480e-03 0. 0.
      8.24891031e-03 5.89403585e-02 4.04925346e-02 6.93917572e-02 0. 0.
      0. 0. 1.53314751e-02 1.31021708e-01 8.97968560e-03 0. 0. 0. 0. 0.
      0. 0. 0. 0. 0. 0. 0. 0. 0. 0. 0. 0. 0. 0. 0. 0. 0. 0. 0. 0. 0. 0.
      0. 0. 1.44645441e-02 1.93040892e-02 7.70833716e-02 1.08363047e-01
      2.41803467e-01 6.43297434e-02 2.05834270e-01 1.12561725e-01
      1.64004825e-02 2.98004225e-02 5.89067638e-02 1.12870254e-01
      8.53720456e-02 1.17615061e-02 1.00944214e-01 2.36795709e-01
      1.23136919e-02 1.08251587e-01 2.52635926e-01 2.76650876e-01
      3.36920284e-02 7.34552667e-02 2.30388165e-01 2.79049277e-01
      6.00632429e-02 3.60038996e-01 2.25502282e-01 1.47240400e-01
      1.76549554e-02 2.39703536e-01 2.74735034e-01 1.75081745e-01
      5.99347912e-02 2.69263163e-02 5.74277416e-02 1.43484980e-01
      2.95345187e-02 4.28546593e-02 2.31540776e-04 0. 1.11390259e-02
      1.71576831e-02 0. 0. 0. 0. 9.56648961e-03 2.25578789e-02 0. 0. 0.
      0. 0. 0. 1.37059195e-02 3.20912153e-02 0. 2.82427222e-02
      2.16519423e-02 0. 0. 2.63614999e-03 4.41192947e-02 0.
      5.72732650e-03 1.76235698e-02 6.34679198e-02 1.16665989e-01
      4.00000006e-01 3.20969746e-02 3.32873650e-02 2.03293860e-02
      9.08666011e-03 2.87063569e-02 4.68492135e-02 6.18489198e-02
      1.27320021e-01 3.17803537e-03 9.32649150e-02 1.20819351e-02 0.
      7.34335259e-02 1.30235896e-01 3.22975754e-03 5.39153349e-04
      1.56240994e-02 9.54423547e-02 4.83880080e-02 2.39868425e-02
      1.36279389e-01 9.68822241e-02 6.58941716e-02 2.14941963e-03 0.
      7.91205093e-02 6.74851686e-02 1.34451222e-02 9.74953473e-02
      5.94530404e-02 3.44542563e-02 0. 0. 0. 0. 0. 7.51294056e-03
      3.20176221e-02 2.45620776e-02 0. 0. 0. 0. 0. 0. 1.63228903e-02
      1.29271811e-02 0. 0. 0. 0. 0. 0. 0. 0. 0. 0. 0. 0. 0.
      1.70483859e-03 4.67703864e-02 1.60181403e-01 4.00000006e-01
      2.45612025e-01 2.83490837e-01 6.21772325e-03 0. 6.07031435e-02
      7.08140731e-02 1.35839740e-02 4.58089188e-02 5.69223836e-02
      8.95034820e-02 9.24627576e-03 0. 1.08835459e-01 2.09531635e-01
      7.43292570e-02 6.68701679e-02 2.82130763e-02 4.00822908e-02 0.
      1.33153591e-02 2.08672881e-02 6.15727492e-02 1.28132910e-01
      1.22879595e-02 0. 0. 0. 2.42078677e-03 2.63693207e-03
      3.51667684e-03 2.02579200e-02 3.91469849e-03 0. 0. 0. 0. 0. 0. 0.
      0. 0. 0. 0. 0. 0. 0. 0. 0. 0. 0. 0. 0. 0. 0. 0. 0. 0. 0. 0.
      7.64940158e-02 2.42621787e-02 4.30479310e-02 3.22912425e-01
      2.91091233e-01 4.00000006e-01 2.66845137e-01 2.42576778e-01
      5.25031649e-02 4.36958224e-02 9.62159410e-02 9.22782645e-02
      2.23026723e-01 7.00298175e-02 2.18979195e-01 3.67464781e-01
      1.75911449e-02 7.27678016e-02 2.35624954e-01 3.47350463e-02
      9.36828032e-02 2.26145536e-01 3.77191871e-01 4.00000006e-01
      9.45119560e-02 3.14272940e-01 1.39196932e-01 1.63832635e-01
      3.27337950e-01 4.00000006e-01 4.00000006e-01 3.30123186e-01
      2.40887403e-01 6.60695657e-02 9.75728929e-02 3.06382477e-01
      4.00000006e-01 3.28610748e-01 1.43931970e-01 1.02457114e-01
      3.41633797e-01 2.20428646e-01 2.94944197e-01 3.01509023e-01
      1.26954392e-01 2.52720684e-01 2.82243222e-01 2.07659483e-01
      3.72655094e-01 3.15376520e-01 2.64052272e-01 2.30442673e-01
      4.00000006e-01 4.00000006e-01 4.00000006e-01 4.00000006e-01
      3.74155283e-01 3.34262490e-01 4.00000006e-01 3.94330531e-01
      4.00000006e-01 4.00000006e-01 4.00000006e-01 2.19544888e-01
      2.03714035e-02 2.39079297e-02 4.55870032e-02 1.52751118e-01
      2.09945902e-01 4.00000006e-01 1.20733008e-01 1.07746441e-02
      1.23976758e-02 5.32056727e-02 9.30839330e-02 1.15766944e-02
      4.45552319e-02 6.63639046e-03 5.47934175e-02 2.43042037e-02
      1.06419707e-02 5.98012060e-02 2.87686527e-01 1.13390207e-01
      4.77522500e-02 2.16594851e-03 0. 0. 8.61862749e-02 2.07995772e-01
      1.02262616e-01 7.27108121e-02 0. 0. 0. 0. 3.24782636e-03
      3.53781530e-03 2.09003733e-03 1.66002214e-02 0. 0. 0. 0. 0. 0. 0.
      0. 0. 0. 0. 0. 0. 0. 0. 0. 0. 0. 0. 0. 0. 0. 0. 0. 0. 0. 0. 0. 0.
      0. 3.09877023e-02 2.04510480e-01 5.48241511e-02 3.53568286e-01
      1.44332841e-01 4.08752263e-02 0. 4.77209166e-02 4.33619916e-02
      4.19050083e-02 6.10013492e-02 2.23318897e-02 0. 7.24916086e-02
      5.72103858e-02 7.89789855e-02 1.38718978e-01 1.23565078e-01
      1.05704749e-02 5.24925739e-02 2.54063755e-02 1.38691757e-02
      2.36744761e-01 2.29972273e-01 8.75797197e-02 1.38685346e-01
      7.79653043e-02 5.36620356e-02 3.77343968e-02 0. 0. 0.
      2.52540153e-03 5.31337084e-03 1.75340585e-02 1.14259310e-02 0. 0.
      0. 0. 0. 0. 0. 0. 0. 0. 0. 0. 0. 0. 0. 0. 0. 0. 0. 0. 0. 0.
      1.52659183e-02 4.97077256e-02 0. 0. 2.14402843e-02 5.43012060e-02
      5.89798838e-02 2.25550726e-01 7.45593086e-02 3.03395867e-01
      1.43577754e-01 1.81447566e-02 7.44668674e-03 1.34976348e-03
      1.74150281e-02 5.60708679e-02 9.62980688e-02 2.18066983e-02
      1.25172034e-01 8.84988382e-02 3.10815480e-02 8.46776739e-03
      1.06832355e-01 2.87987739e-02 8.98973346e-02 1.18803903e-01
      1.62279382e-01 7.83005431e-02 1.14850648e-01 1.23351522e-01
      2.30741650e-02 1.90186799e-02 1.01339422e-01 9.48619843e-02
      9.51092988e-02 1.22125018e-02 2.49184202e-02 6.02071323e-02
      3.99664603e-02 2.27476209e-02 1.77393258e-02 1.48830209e-02
      3.47311143e-03 0. 1.55946361e-02 1.51631951e-01 1.03219047e-01
      2.23303009e-02 0. 2.13749660e-03 8.47317651e-03 3.07607390e-02
      1.28980815e-01 1.75046727e-01 1.79029644e-01 3.55189182e-02
      3.65675497e-03 8.73524547e-02 2.95134097e-01 4.37607467e-02
      6.00204393e-02 1.56903993e-02 7.59224035e-03 3.38077694e-02
      1.09295674e-01 5.33088110e-02 6.20938204e-02 0. 1.29570559e-01
      6.23352267e-02 4.61724624e-02 8.46585184e-02 6.35396242e-02
      2.86877662e-01 2.22713932e-01 1.11507721e-01 3.68555114e-02
      3.21338885e-02 1.17738321e-01 1.39189884e-02 2.97870114e-02
      6.95557371e-02 1.27069280e-01 1.35080114e-01 9.83996987e-02
      1.00811705e-01 4.00000006e-01 5.76303825e-02 5.41788600e-02
      1.50959224e-01 7.46488497e-02 1.40589625e-01 2.98058689e-01
      3.33917379e-01 1.09749183e-01 3.58683392e-02 9.66492817e-02
      1.63694292e-01 1.09145299e-01 1.54477298e-01 7.93687478e-02
      1.15303986e-01 1.01724163e-01 4.06918228e-02 4.36709523e-02
      5.49979210e-02 7.43911266e-02 2.94865444e-02 2.75949329e-01
      2.87496448e-01 2.66876042e-01 1.41799867e-01 9.51370001e-02
      6.72555938e-02 2.60512054e-01 1.35627747e-01 3.64908248e-01
      3.32795739e-01 3.76346141e-01 4.00000006e-01 3.54915887e-01
      1.60803542e-01 1.72789782e-01 3.09364259e-01 3.02861392e-01
      2.93193758e-01 4.00000006e-01 4.00000006e-01 4.00000006e-01
      3.84693444e-01 2.38729835e-01 5.32257184e-02 5.51332161e-02
      4.56914380e-02 2.25676503e-02 1.35055259e-01 2.32388880e-02
      1.00993440e-01 6.88170418e-02 0. 2.47702934e-02 1.66968349e-02
      5.70618024e-04 3.81503887e-02 5.66976517e-02 0. 0. 0.
      2.46234983e-01 1.80755779e-01 3.94107681e-03 2.27975892e-03 0. 0.
      0. 0. 3.10915411e-01 3.38184237e-01 3.62360701e-02 2.65843887e-02
      0. 0. 0. 0. 0. 0. 0. 0. 0. 0. 0. 0. 0. 0. 0. 0. 0. 0. 0. 0. 0. 0.
      0. 0. 0. 0. 0. 0. 0. 0. 0. 0. 0. 0. 0. 0. 2.47230679e-02
      9.72655192e-02 5.07782809e-02 1.30674168e-01 2.55964827e-02
      7.04763830e-02 4.78583872e-02 5.80368526e-02 5.27061522e-02
      5.30792177e-02 9.35271010e-02 6.00241311e-02 4.93973717e-02
      4.19471972e-02 1.14935458e-01 3.35340463e-02 3.18005025e-01
      2.70830721e-01 3.98538709e-01 9.38283578e-02 9.12443101e-02
      4.05754335e-02 1.95818748e-02 5.20859994e-02 1.82434455e-01
      1.09837681e-01 3.34330462e-02 6.85956478e-02 8.52933228e-02
      1.65758841e-02 2.51759924e-02 7.41796345e-02 7.32274950e-02
      3.81286778e-02 3.55703793e-02 3.45925316e-02 2.86118146e-02
      1.33947181e-02 0. 3.00789159e-03 6.12855479e-02 7.11228922e-02
      5.57739772e-02 1.15937114e-01 5.14272926e-03 0. 0. 0.
      1.39438715e-02 2.95704864e-02 6.30964190e-02 9.63711739e-02
      1.26579981e-02 0. 0. 0. 1.23285249e-01 3.03823173e-01
      3.09313461e-02 5.09842969e-02 6.61171377e-02 2.63615027e-02
      3.23541462e-02 0. 3.28479037e-02 1.13462657e-01 4.02681530e-02
      1.46646071e-02 1.41837820e-02 2.72239875e-02 6.41595051e-02
      2.95209978e-02 1.97985694e-01 1.63112283e-01 7.24623725e-02
      4.43702377e-03 1.65409176e-03 2.70006806e-03 2.11449596e-03 0.
      3.97083879e-01 3.88098270e-01 2.58950680e-01 8.26634467e-02
      3.64467688e-02 2.63427775e-02 3.55689302e-02 0. 1.75890252e-01
      1.01639703e-01 1.19696051e-01 9.20843855e-02 1.52413379e-02
      3.13499272e-02 5.47757298e-02 0. 4.98193800e-02 1.22800265e-02
      1.09198563e-01 8.85989703e-03 0. 0. 0. 0. 4.06076349e-02
      1.22548616e-03 2.81493906e-02 5.74178398e-02 0. 0. 0. 0. 0. 0.
      3.04693989e-02 5.17087243e-02 0. 0. 0. 0. 0. 0. 0. 0. 0.
      2.60965545e-02 3.74364629e-02 0. 5.29614538e-02 9.89308953e-02
      3.31107154e-02 3.11203040e-02 5.68286795e-03 9.14334655e-02
      1.22574873e-01 0. 2.78667420e-01 9.71651375e-02 3.29014063e-02
      8.91366100e-04 9.82617680e-03 8.58885720e-02 1.65934414e-01 0.
      3.81321430e-01 3.67514819e-01 1.90147042e-01 4.45644557e-02
      5.73776737e-02 3.62202292e-03 0. 0. 1.43234760e-01 1.32374659e-01
      1.54517904e-01 7.25206062e-02 0. 0. 0. 0. 0. 3.30085196e-02
      1.11499153e-01 6.60282280e-03 0. 0. 0. 0. 0. 5.38036898e-02
      9.05216634e-02 2.57176370e-03 0. 0. 0. 0. 0. 0. 0. 0. 0. 0. 0. 0.
      0. 0. 0. 0. 0. 0. 0. 0. 2.03505427e-01 9.22192037e-02
      1.46552399e-01 1.07620552e-01 6.31452501e-02 9.95220765e-02
      2.55309165e-01 2.49661848e-01 3.02622706e-01 1.23274490e-01
      3.07673603e-01 3.98221016e-01 5.11461124e-02 1.99114621e-01
      3.01000893e-01 1.96098655e-01 3.27534497e-01 3.85338813e-01
      3.92424941e-01 4.00000006e-01 1.73963383e-01 2.98624396e-01
      2.76778281e-01 1.02530673e-01 1.68864012e-01 6.64543062e-02
      1.71300873e-01 1.47749424e-01 1.81357950e-01 3.02145094e-01
      2.97258019e-01 3.46204549e-01 2.02145159e-01 1.10141948e-01
      2.34608531e-01 1.74506843e-01 7.71147683e-02 1.00123577e-01
      3.02774876e-01 4.00000006e-01 3.42059404e-01 3.00958186e-01
      2.82873660e-01 3.74511808e-01 3.61152977e-01 1.92258894e-01
      3.52040052e-01 4.00000006e-01 4.00000006e-01 4.00000006e-01
      4.00000006e-01 4.00000006e-01 4.00000006e-01 1.96668476e-01
      3.97786796e-01 4.00000006e-01 4.00000006e-01 4.00000006e-01
      4.00000006e-01 4.00000006e-01 4.00000006e-01 1.98582888e-01
      4.00000006e-01 4.00000006e-01 4.21002172e-02 7.52893537e-02
      8.91132653e-02 4.63679321e-02 4.08328548e-02 5.32014892e-02
      2.26038337e-01 8.88246228e-04 2.34883785e-01 1.33984998e-01
      1.98810995e-01 3.49000484e-01 8.84933174e-02 4.05316837e-02
      1.18679911e-01 0. 2.76152819e-01 2.78098166e-01 2.47782677e-01
      2.57203937e-01 1.03480749e-01 3.35480161e-02 2.18630694e-02 0.
      9.54033434e-02 2.69562751e-01 2.43067786e-01 8.48081410e-02
      3.10498220e-03 0. 0. 0. 2.33012978e-02 2.83860952e-01
      2.03260317e-01 1.99509822e-02 0. 0. 0. 0. 0. 2.15397105e-02
      1.37818735e-02 2.28750221e-02 0. 0. 0. 0. 0. 0. 2.60118786e-02
      5.82700819e-02 0. 0. 0. 0. 0. 0. 0. 0. 0. 0. 0. 0. 3.60504538e-02
      7.66125321e-02 3.93562093e-02 9.17777605e-03 2.61279661e-03
      1.32724419e-01 3.35966259e-01 1.09000606e-02 9.76988673e-02
      1.71157137e-01 1.40439898e-01 3.41532916e-01 7.23598823e-02
      1.19444177e-01 2.61501223e-01 4.20241198e-03 1.48319483e-01
      4.00000006e-01 3.78354967e-01 3.63893390e-01 1.58658803e-01
      1.19053029e-01 2.76929531e-02 4.62305825e-03 5.10374829e-02
      3.96461487e-01 3.94964635e-01 2.01304197e-01 4.67010289e-02
      4.29296270e-02 8.21636058e-03 2.07892712e-02 2.03519352e-02
      2.59862185e-01 2.67309010e-01 5.77290244e-02 8.09264311e-04 0. 0.
      0. 0. 2.45097233e-03 7.32405409e-02 1.16749622e-01 5.45468833e-03
      0. 0. 0. 0. 0. 6.49288371e-02 1.22623563e-01 3.97802505e-04 0. 0.
      0. 0. 0. 1.98834226e-03 4.24133427e-03 0. 0. 0. 0. 9.20085832e-02
      1.06745452e-01 7.29150847e-02 1.11342289e-01 8.00088421e-02
      2.23154780e-02 2.06948578e-01 1.10222466e-01 2.96853542e-01
      1.82869881e-01 1.63547784e-01 3.91082108e-01 2.63730913e-01
      7.83321708e-02 1.34520441e-01 3.82677205e-02 1.85917646e-01
      2.65523702e-01 3.76412213e-01 3.55064332e-01 1.08101644e-01
      1.80861935e-01 1.94858849e-01 6.71233833e-02 6.79904372e-02
      4.00000006e-01 3.89076680e-01 2.03909069e-01 8.56939480e-02
      2.78337300e-01 1.31044269e-01 2.67770410e-01 1.06001705e-01
      1.92560047e-01 2.56395549e-01 2.78270654e-02 2.93721240e-02
      6.52018636e-02 3.31103317e-02 1.22822240e-01 1.75903179e-02
      2.12384909e-02 9.61813144e-03 1.73680127e-01 8.27979445e-02 0.
      1.47597287e-02 2.16789953e-02 0. 6.44214228e-02 7.69468397e-02
      1.36068791e-01 1.09702656e-02 0. 4.47726697e-02 1.98382050e-01 0.
      2.22518414e-01 1.31317645e-01 4.82578687e-02 0. 0. 6.24206327e-02
      1.39523864e-01 1.73944265e-01 1.78000480e-01 1.80824757e-01
      6.12272099e-02 4.66226935e-02 1.17625110e-01 1.75347179e-01
      2.57180125e-01 2.98658758e-01 3.52973849e-01 2.86957741e-01
      3.77299160e-01 1.01930536e-01 1.71429887e-01 2.61684865e-01
      2.48429939e-01 9.59482640e-02 2.70778805e-01 2.38008872e-01
      2.52630651e-01 1.70540541e-01 2.49269739e-01 2.16954589e-01
      3.19910258e-01 9.10204723e-02 2.93966800e-01 2.64506549e-01
      1.55338466e-01 1.74335703e-01 2.72422075e-01 4.00000006e-01
      4.00000006e-01 9.26844105e-02 2.55355120e-01 2.39666864e-01
      2.39016160e-01 2.62628913e-01 3.94203007e-01 3.43253553e-01
      3.96352619e-01 1.47317499e-01 2.78696090e-01 3.12909365e-01
      3.52853179e-01 3.31042528e-01 2.15454504e-01 2.24555492e-01
      2.52727091e-01 3.57318312e-01 4.00000006e-01 3.43253762e-01
      2.55364358e-01 1.85374573e-01 4.59438674e-02 8.09049234e-02
      2.99728692e-01 3.14351976e-01 2.97163188e-01 1.73396647e-01
      6.39732927e-02 1.51391506e-01 9.94791240e-02 2.44517252e-01
      2.12202549e-01 1.59215741e-02 1.78514361e-01 4.94456887e-02
      1.15219399e-01 7.49622062e-02 2.09936704e-02 1.08387992e-01
      3.80595364e-02 1.61890149e-01 4.00000006e-01 6.95486739e-02
      1.49018049e-01 1.32333100e-01 2.45864671e-02 5.79292811e-02
      6.22930937e-03 6.67734537e-03 4.38079275e-02 1.50832757e-01
      1.41092151e-01 5.89541756e-02 2.90592480e-03 0. 0. 8.24891031e-03
      1.07794262e-01 1.28459588e-01 7.02645406e-02 2.78061605e-03 0. 0.
      0. 1.53314751e-02 3.00045341e-01 2.40090758e-01 0. 0. 0. 0. 0. 0.
      0. 0. 0. 0. 0. 0. 0. 0. 0. 0. 0. 0. 0. 0. 0. 0. 0. 0. 0. 0. 0. 0.
      0. 1.15574569e-01 3.73962939e-01 3.94878566e-01 1.92061260e-01
      3.10344994e-01 8.95543173e-02 2.06597745e-01 1.12561725e-01
      2.48831600e-01 4.00000006e-01 4.00000006e-01 2.08925143e-01
      1.80177733e-01 6.77272901e-02 1.43674105e-01 2.36795709e-01
      2.54058391e-02 1.12661384e-01 2.80955762e-01 3.22002292e-01
      1.35890335e-01 1.19765989e-01 2.52403647e-01 2.79049277e-01
      6.97272941e-02 3.69774848e-01 2.83602774e-01 1.63531438e-01
      3.38208377e-02 2.45095685e-01 3.43807638e-01 3.04217666e-01
      8.86052400e-02 1.58612922e-01 1.88078001e-01 1.94902673e-01
      2.57666051e-01 3.39026809e-01 2.80627400e-01 1.50143921e-01
      2.22780518e-02 2.42633894e-02 6.45057298e-03 7.98477456e-02
      2.35536993e-01 1.64587229e-01 1.30650923e-01 4.07213643e-02
      3.13737094e-02 2.03297120e-02 0. 0. 0. 2.10126210e-03
      4.56864014e-02 5.83476610e-02 0. 2.82427222e-02 2.16519423e-02 0.
      2.96852458e-03 4.10067802e-03 4.41192947e-02 2.32539754e-02
      8.43206570e-02 2.04140574e-01 4.00000006e-01 1.61464304e-01
      4.00000006e-01 5.94787970e-02 3.70381325e-02 2.03293860e-02
      3.29263747e-01 4.00000006e-01 3.59021276e-01 7.94783384e-02
      1.77085117e-01 1.00220703e-01 1.36188731e-01 1.20819351e-02
      1.17695769e-02 9.95291322e-02 1.30634442e-01 3.22975754e-03
