<?xml version="1.0"?>
<opencv_storage>
<opencv_ml_ann_mlp>
  <format>3</format>
  <layer_sizes>
    225 225 112 56 2</layer_sizes>
  <activation_function>SIGMOID_SYM</activation_function>
  <f_param1>1.</f_param1>
  <f_param2>1.</f_param2>
  <min_val>-9.4999999999999996e-01</min_val>
  <max_val>9.4999999999999996e-01</max_val>
  <min_val1>-9.7999999999999998e-01</min_val1>
  <max_val1>9.7999999999999998e-01</max_val1>
  <training_params>
    <train_method>BACKPROP</train_method>
    <dw_scale>1.0000000000000000e-03</dw_scale>
    <moment_scale>1.0000000000000001e-01</moment_scale>
    <term_criteria>
      <epsilon>1.0000000000000000e-04</epsilon>
      <iterations>10000</iterations></term_criteria></training_params>
  <input_scale>
    8.4933578153168980e+01 -7.3134757186357535e-01
    1.0319064932372856e+02 -6.3095342224545214e-01
    7.8075992354482395e+01 -7.1197480726180995e-01
    6.6631999458626879e+01 -7.3045480330550594e-01
    4.2414011245550938e+01 -9.4895471012174826e-01
    8.6130452890016358e+01 -7.1430486453190234e-01
    1.2315265832936610e+02 -9.1089239333335448e-01
    1.4028378854892492e+02 -7.5200975073385401e-01
    8.5979783261066942e+01 -7.0402701378659960e-01
    3.6355352935954009e+01 -8.8845014845038184e-01
    4.9829552486456500e+01 -8.8136495514470214e-01
    4.0827806434438145e+01 -1.0292048670568985e+00
    2.9168831404725008e+01 -8.5989545315132121e-01
    2.3202941007677516e+01 -1.2780271479655676e+00
    4.1629795592893252e+01 -8.4301530953394399e-01
    5.4968665049324038e+01 -1.0880514408610402e+00
    5.1487904437082975e+01 -8.1753867926571111e-01
    3.6070652439699629e+01 -8.5777106939634928e-01
    3.2420718214677805e+01 -9.7146460346193708e-01
    3.8002585794819268e+01 -8.9633377874970999e-01
    3.6258030043448883e+01 -1.1588302682388598e+00
    2.5300776788077744e+01 -9.3512099163474882e-01
    2.0338307365681583e+01 -1.3805362706741919e+00
    3.4160122774134798e+01 -8.6608409128939789e-01
    3.8757367311192240e+01 -1.0477798208412554e+00
    4.0957504716470176e+01 -8.8744305231116283e-01
    3.2119822177537110e+01 -9.5232111703005839e-01
    4.4490453115825055e+01 -8.3886696784146986e-01
    5.2641735218538187e+01 -8.0342324202789850e-01
    5.6628391624803136e+01 -1.1815199192002073e+00
    3.5680071780901123e+01 -8.7633488101595636e-01
    2.7400312349201297e+01 -1.2813771331001471e+00
    4.8977080601339388e+01 -7.9617024047898954e-01
    5.1646751097644120e+01 -9.3611765770801980e-01
    5.8648031595947735e+01 -8.2421182879690746e-01
    4.6993608805726701e+01 -8.5638363788229155e-01
    1.1165294732356919e+02 -7.6816368258034240e-01
    1.0639741848302556e+02 -5.8995786232204817e-01
    1.0436415954447682e+02 -8.2672500647343083e-01
    8.7447290773671838e+01 -7.8714011532431982e-01
    6.5116126244291067e+01 -1.1763305967556574e+00
    1.4097893708726247e+02 -8.0788517169652940e-01
    1.4187840069009010e+02 -9.0276913351014587e-01
    1.6179341687048159e+02 -7.3362138452869186e-01
    1.3288215683500732e+02 -8.4798608177385248e-01
    4.2191387632070530e+01 -9.1681801884394964e-01
    5.0626011264103589e+01 -8.7007623717228888e-01
    3.6596331283975701e+01 -9.2816275741712051e-01
    2.8018215052170266e+01 -8.5906441448845716e-01
    2.1025020622511221e+01 -1.1971035214495782e+00
    3.4164288232969817e+01 -8.0114763805632971e-01
    5.1332527262246437e+01 -1.0471690181464921e+00
    6.0487185792984747e+01 -8.9751385287821417e-01
    4.6447184800516176e+01 -9.5488601020855524e-01
    1.8672531105990352e+01 -1.1698327233081895e+00
    1.9710526693617130e+01 -1.0671858037925765e+00
    1.8007098195165987e+01 -1.3091907343428053e+00
    1.4143164117899405e+01 -1.1258263716202224e+00
    1.3538653921132001e+01 -1.7680578766339645e+00
    1.7650618617671988e+01 -1.0436978073861034e+00
    2.2338711062043899e+01 -1.2880015561323519e+00
    2.3035597080070776e+01 -1.0383059769973302e+00
    1.9126016334913032e+01 -1.1329592869246266e+00
    1.6956346040100307e+01 -1.3507714732047260e+00
    1.6363081161513524e+01 -1.1830574660023494e+00
    1.7464712305391693e+01 -1.6120330974643142e+00
    1.3240339435185643e+01 -1.2908520184496799e+00
    1.3191768481997652e+01 -2.0318143169391480e+00
    1.7485602512423874e+01 -1.2096622153018384e+00
    2.0072054334766573e+01 -1.4552157499928509e+00
    2.0914250572012502e+01 -1.1816481061953830e+00
    1.7940185568081063e+01 -1.3154670336419216e+00
    1.9249271289619873e+01 -1.0759186943661465e+00
    1.9116203197791659e+01 -9.5997053921114539e-01
    2.3415100089174722e+01 -1.4437908857584323e+00
    1.6403977668110166e+01 -1.0840483261151563e+00
    1.3777879804249052e+01 -1.5782519757610627e+00
    2.2781993387575433e+01 -1.0167735093532730e+00
    2.4654593554033589e+01 -1.2006730668190324e+00
    2.6350727399429434e+01 -9.9203322962799534e-01
    2.2136325241992591e+01 -1.0926969322020517e+00
    4.1691480820145038e+01 -8.3900556151969774e-01
    4.5408244264427516e+01 -7.5794041182439875e-01
    5.4119148284044776e+01 -1.1291628641179778e+00
    3.5679676267568333e+01 -8.2850208066050990e-01
    2.6839396497281733e+01 -1.2390093995235025e+00
    5.0995664419674732e+01 -8.0698722176425175e-01
    5.4742209132989196e+01 -9.3991388716259783e-01
    6.4296150139817414e+01 -7.9329455175114871e-01
    4.8774083623480728e+01 -8.5160923303852698e-01
    3.0200424630261210e+01 -8.9056652491329635e-01
    3.4766317715070940e+01 -8.4642520231899609e-01
    2.8025428937664984e+01 -9.9945661235078642e-01
    2.2687291155378116e+01 -9.1044677760257797e-01
    1.8124805628611462e+01 -1.2957344071999608e+00
    2.8509622839274652e+01 -8.4165527411508922e-01
    4.2128740177950178e+01 -1.1450435359692639e+00
    4.5747610797456367e+01 -9.4464196592324368e-01
    3.4055593684311042e+01 -9.5224142015802204e-01
    1.6576367767691174e+01 -1.3391186026002264e+00
    1.5572350043035495e+01 -1.1829550450335722e+00
    1.5896130027110100e+01 -1.5875007230272142e+00
    1.3275416919994877e+01 -1.3451268282906650e+00
    1.3323477722753479e+01 -2.0769097819167848e+00
    1.7202878199806992e+01 -1.2461475255409722e+00
    2.1022062234616101e+01 -1.5425833923695849e+00
    2.1661187640664778e+01 -1.2329428361609682e+00
    1.7870534097118306e+01 -1.3135017954748309e+00
    1.4864930993959524e+01 -1.5712263246612708e+00
    1.4013627019827815e+01 -1.4138539261881085e+00
    1.5955061487273595e+01 -2.0437491893779556e+00
    1.2805360037202000e+01 -1.5705384587887896e+00
    1.4551796001993434e+01 -2.6001424434208062e+00
    1.5751327810034434e+01 -1.4195760437177196e+00
    1.7579813927991257e+01 -1.6492628509722134e+00
    1.9584622115494550e+01 -1.3959498710467022e+00
    1.6280263576954713e+01 -1.5172373187036452e+00
    1.6417870522901357e+01 -1.2131579526733247e+00
    1.5433409103853684e+01 -1.0873751867227934e+00
    1.7843348187031747e+01 -1.5630619172026678e+00
    1.4219232091138597e+01 -1.2379011608910755e+00
    1.2912996282094586e+01 -1.8877531654568813e+00
    1.9403045105705431e+01 -1.1761440945845665e+00
    2.0865733358206271e+01 -1.3283492951815306e+00
    2.3848549552515433e+01 -1.1168583943424333e+00
    1.8586662467679663e+01 -1.1932529766147830e+00
    3.1684269440504320e+01 -8.4372949712876821e-01
    3.0740552202581998e+01 -7.3256221154525747e-01
    3.7297040886115539e+01 -1.1008900828117250e+00
    2.6581850270401191e+01 -8.3970931454692765e-01
    1.9730867015324037e+01 -1.2654856842674096e+00
    3.9976538626736563e+01 -8.5299969240563045e-01
    4.8311162224354185e+01 -1.0768814654731089e+00
    6.2320549018810723e+01 -9.4869440307938135e-01
    3.9935671543974664e+01 -9.1659204761607560e-01
    3.9474849696159247e+01 -8.5010834867952079e-01
    4.7128138160251623e+01 -8.2918791105389167e-01
    3.8098184824251689e+01 -1.0023011701014641e+00
    2.8958588320771462e+01 -8.7489020898115843e-01
    2.4168530385001930e+01 -1.2433770370428159e+00
    4.4848336177352138e+01 -8.4708084717075294e-01
    5.8579560625329322e+01 -1.0592771480384375e+00
    7.1082335085561255e+01 -9.6537663931158346e-01
    4.5979952829327743e+01 -9.0987345682905263e-01
    1.8989922483425499e+01 -1.1123679807632996e+00
    1.9458120768358789e+01 -1.0190002780995664e+00
    1.8572399204782716e+01 -1.3540554469408939e+00
    1.5415419376273851e+01 -1.1726546012382884e+00
    1.3617800789644997e+01 -1.6743880593716343e+00
    2.6212873940466515e+01 -1.1936719193003573e+00
    3.0494471140791727e+01 -1.4420196985067364e+00
    3.2164636578738929e+01 -1.1836982279203321e+00
    2.2018893490878433e+01 -1.1432513686637802e+00
    1.5614778079961271e+01 -1.1996977396963537e+00
    1.5261846328444804e+01 -1.0999341836548009e+00
    1.5866462908064090e+01 -1.4868540129315155e+00
    1.3431403211757585e+01 -1.2663433412252019e+00
    1.2786106860282622e+01 -1.9092725051757315e+00
    2.0383540781889206e+01 -1.2121256092380370e+00
    2.2293332725157150e+01 -1.3784419143268969e+00
    2.4785141322083131e+01 -1.1580258431351851e+00
    1.8206361899313976e+01 -1.2113880293436916e+00
    1.9340330887700947e+01 -1.0174365547527706e+00
    1.8804902084807491e+01 -9.1280109708982493e-01
    1.9412645232616587e+01 -1.2336169894425841e+00
    1.6301168093355159e+01 -1.0701458805093462e+00
    1.3582969466894024e+01 -1.5930618777519840e+00
    2.3770395337095778e+01 -1.0089395935083465e+00
    2.7460633696421663e+01 -1.2125393857730697e+00
    3.3420655986982069e+01 -1.0408837964621178e+00
    2.3403313825240755e+01 -1.0574690221264682e+00
    4.4992595761973689e+01 -8.0495313122407008e-01
    4.3808110579109282e+01 -6.6574682623945358e-01
    4.5007807285416817e+01 -9.5087004863757985e-01
    3.0738597955912589e+01 -7.4965486791493963e-01
    2.4347266330956483e+01 -1.1797724038857316e+00
    5.4809253456668969e+01 -8.2819776790812949e-01
    6.6771036297567690e+01 -1.0415167628772120e+00
    8.8362532052063145e+01 -9.2028475696230250e-01
    5.8329333670905285e+01 -9.2328647583074186e-01
    9.6598075807618670e+01 -7.3885064628156116e-01
    1.0837567434674764e+02 -6.7712369855646914e-01
    1.0385813908765316e+02 -9.5358535235701025e-01
    7.0777735913587463e+01 -8.1618562898093394e-01
    4.9484043364240385e+01 -1.0822216770366564e+00
    9.9239261336707230e+01 -7.1260347980929961e-01
    1.0376117655800739e+02 -6.9878104927689211e-01
    1.7311252602702481e+02 -8.0985198476255105e-01
    1.2520710478596615e+02 -8.5489998689046476e-01
    3.7880748255421501e+01 -8.1003231493242500e-01
    3.7924226688992356e+01 -6.8325277367482984e-01
    4.2082281229929798e+01 -1.0362279578162157e+00
    3.1850971316667195e+01 -9.1463768284987801e-01
    2.4730371387953408e+01 -1.3265552210493561e+00
    5.3319010421461485e+01 -8.8287250548640528e-01
    6.4882054744466231e+01 -1.1116688439301305e+00
    7.9095149066339133e+01 -9.9423228536177277e-01
    4.7603624788802691e+01 -8.8423351654409277e-01
    3.0001372785541665e+01 -8.3890480266417611e-01
    3.1039503836647082e+01 -7.2929631434651654e-01
    3.1477084901592558e+01 -9.9436179814674652e-01
    2.4636358612612273e+01 -8.7497447867087830e-01
    1.8532101007863272e+01 -1.3167884472640135e+00
    4.4863916024075607e+01 -9.4187412358854028e-01
    5.2732164930958440e+01 -1.1375106304130929e+00
    6.3320154388016647e+01 -9.6480572786020646e-01
    4.1924528771031689e+01 -9.6801382035652439e-01
    4.6913967125986680e+01 -8.3155030283623776e-01
    4.4268598067818736e+01 -6.7536558512240363e-01
    4.2616506480022949e+01 -9.1787783192463657e-01
    3.2194729493211412e+01 -8.0042707508002353e-01
    2.4048199874883899e+01 -1.2277680888678268e+00
    5.4824337147788327e+01 -8.2575769233920915e-01
    6.9948781883687843e+01 -1.0747852115523893e+00
    9.6152367558072257e+01 -9.7568542182618445e-01
    6.3560862804016217e+01 -9.5301838596508870e-01
    1.4612090401403759e+02 -8.9690741587232103e-01
    1.5248841406189348e+02 -7.4099631551641698e-01
    1.0636369585706515e+02 -8.1725937570126417e-01
    6.9863655751655202e+01 -6.4786559088894657e-01
    5.1392560716365374e+01 -1.0243948403339780e+00
    1.0758806895142386e+02 -6.1634344770124327e-01
    1.6206269941969501e+02 -9.4885994923291428e-01
    2.2764266822175688e+02 -8.5656633685260597e-01
    1.6034426688008514e+02 -9.0327722327188664e-01</input_scale>
  <output_scale>
    1. 7.0064923216240854e-46 1. 7.0064923216240854e-46</output_scale>
  <inv_output_scale>
    1. -7.0064923216240854e-46 1. -7.0064923216240854e-46</inv_output_scale>
  <weights>
    <_>
      -8.1109539582096667e-03 -3.0967232262870304e-03
      6.4322530597158353e-03 6.5464575616384071e-03
      3.2154080229789329e-03 7.5674010149484293e-03
      -1.0145418238018799e-03 -6.0702445386506274e-03
      8.3316179647513460e-03 -9.0958410472935271e-03
      7.6001966398821456e-03 -3.8393779547711442e-03
      5.0624785057926140e-03 -6.4918370335592503e-03
      -8.1833722552379050e-03 -5.3161512641650111e-04
      4.8272836317484824e-03 -2.5642293101556463e-03
      -3.0121911212462396e-04 4.5169813437071459e-03
      3.2408283591633296e-03 -8.0639194353752577e-03
      -7.7996999470806233e-03 -5.9441099355303905e-03
      7.4192430494975327e-03 5.3969754981000092e-03
      7.7396993278901569e-03 -3.9820170619322276e-03
      -5.1916830112536715e-03 5.0691477960421128e-03
      -4.8559034643207094e-03 -5.8334540854732149e-04
      8.4387033160173760e-03 7.0640267876655059e-03
      7.7587348424972055e-03 2.6592810327692412e-03
      6.1067996595662809e-04 1.5615098841498137e-03
      -3.3154211453196676e-03 4.6326387768627972e-04
      4.9513513473998577e-03 4.7680695022803560e-03
      -1.5358267743380981e-03 -5.8020187182294177e-03
      -5.0393371394911596e-03 -7.5926467820128848e-03
      -4.2940511388570128e-03 6.5370309249133552e-03
      -6.3856516768304918e-03 -2.2275037145247814e-03
      -7.0223328286703962e-03 5.1328662986419426e-03
      -6.3022244471464348e-03 -5.0278343853169920e-03
      5.0736281881874016e-03 4.3271294495617584e-03
      -5.3377553688383362e-03 -6.2584857511839749e-04
      4.3460200456518463e-04 1.3149075709793113e-03
      -5.0504337146685873e-03 -2.6866442638902999e-04
      -2.7330128325089805e-03 -2.5805073132138959e-03
      9.0251748104697403e-03 2.8007259286715407e-03
      3.9236793787256023e-03 -7.8976270302514055e-04
      8.1130918223171651e-03 5.5687166953216605e-04
      1.9183914784255355e-03 8.6827511320781252e-03
      -2.9894976269104652e-03 5.3736411772519685e-03
      -4.7770042138103883e-03 2.6138861091115516e-03
      4.8738364913690707e-03 2.5135620768607439e-03
      -4.9467940927377723e-04 7.8646830421337764e-03
      3.0038858783903040e-03 1.4091634831010203e-03
      8.7070070663081423e-03 7.2584595049803111e-03
      -6.8370669002358019e-03 -6.3627339525257273e-03
      8.5911868356014220e-03 -1.0363257602895436e-03
      8.3530935956342214e-03 -5.9063465289428251e-03
      8.4346277309297422e-03 -3.8793565450809192e-03
      3.3330966246610341e-03 4.7513737123336224e-05
      -4.8256215831404825e-03 6.9042474923075416e-03
      3.6938117662685074e-03 -6.6956266961158851e-03
      6.9427663669881646e-04 -2.7745720844989008e-03
      -6.2499836421808243e-04 -7.9165903084189391e-03
      -4.4150456403837923e-03 3.7532847195933029e-03
      1.7092475896547674e-03 -4.4473621508777641e-04
      -5.9959461392859415e-03 -4.6966874707601511e-03
      6.5150176080608340e-03 1.7087651378652599e-03
      -1.1272670269300400e-03 -4.3828610653489780e-03
      -3.4142105785809852e-03 7.8107328988947784e-04
      -1.8858957341334040e-04 -6.4167569263563337e-03
      -8.2625068341676995e-03 2.9644365052206778e-03
      -8.2109507510670955e-03 -6.1897956927095370e-03
      -1.3549451350379718e-04 -6.4963875814103159e-03
      6.5802001820466725e-03 -6.5347653405887990e-03
      3.1991301807930621e-03 -5.3735263046826662e-03
      7.6367329921664482e-03 -1.2030718134811871e-03
      9.1542939626976802e-04 -9.3028509038268602e-03
      -3.0794879618898314e-03 -5.3803854922109592e-03
      9.0925949423029517e-03 -1.7438220337525278e-03
      -6.2529715494379773e-03 -3.7345772416459938e-03
      -1.8509475605862902e-03 3.2468187370215157e-03
      1.7995922405074892e-03 2.8657661891106747e-03
      1.8677475210099317e-03 3.1842406957508277e-03
      -2.5045855637741117e-03 -8.1419551156666041e-03
      6.0619466945126266e-03 -4.0843246793410637e-03
      2.2067968520499445e-03 3.4340086118946115e-03
      6.1651833269046512e-03 -3.0063633240668499e-03
      6.3564282554010977e-03 7.6790409899157889e-03
      2.0008007539112365e-03 -5.9606380989858732e-03
      -5.5893430836244798e-03 7.5001239219714211e-03
      -4.4073679370161701e-03 5.8010362844486893e-03
      2.6732080119556143e-03 2.9794357352804003e-03
      5.1884535306309090e-03 -4.6125995120885966e-03
      -6.9714518346325515e-03 1.5982813646885190e-03
      4.8276171563627675e-03 -2.7240690392074862e-03
      7.1876389266632736e-03 -7.9295640114328582e-03
      4.1064946535913126e-03 4.7509758898246204e-03
      -8.2668078524352449e-03 5.8921895558538911e-04
      4.4637499858906681e-03 -5.6041251348675344e-03
      -2.4352585025792799e-03 -5.4008532615578142e-03
      3.6426100070004182e-03 3.9648557680274660e-03
      -1.2656550809255209e-03 5.6899500957186908e-03
      -6.5556379252167995e-03 -6.4228241742250005e-03
      4.1070355628086965e-03 -8.5692462004714493e-03
      1.0913086109194533e-03 1.0772561394612903e-03
      1.4068663307477182e-03 -7.5852243659872230e-03
      5.3924781693865040e-03 2.7188420027351810e-03
      2.7213432044976252e-03 -2.3869014698208947e-03
      -8.5227635534801810e-03 8.6491463853088837e-04
      -6.2017531032488304e-03 -3.6134036076384771e-03
      -1.7563610557934019e-03 -1.1715163598583747e-03
      -6.3500118032084546e-03 4.3119345703224619e-03
      6.3148607707094392e-03 2.6634790895959781e-03
      5.8860699706611893e-03 -1.4956019606841970e-03
      8.7089284050424298e-04 -8.2234826100455530e-03
      -2.9635884021173421e-03 -4.1523184319541490e-03
      7.2082235835805777e-03 4.8819940443212964e-04
      -8.8385972445995855e-03 3.2179897726621713e-03
      -7.5018283844489582e-03 -4.1013792437092850e-03
      -2.1365953426998904e-03 -1.2812214122654152e-04
      -4.0961036677270258e-03 3.9621713098544039e-03
      -8.1060658199559685e-03 -7.7027208078415119e-04
      1.7148319774200557e-03 -5.4504211008542750e-03
      8.3915903531903389e-03 -6.7906262313142799e-04
      6.7707892928196402e-03 1.7315237960773028e-03
      -9.0006464962181683e-03 -5.4595376557388115e-04
      -1.2183289357010141e-04 2.0016219249423400e-03
      7.1460282447269544e-03 6.3353064589344024e-03
      -6.1038643549479040e-03 7.9860990806249772e-03
      1.2229383553871776e-03 -7.9855808524127488e-03
      -1.0612856727769322e-03 7.4825912168081871e-03
      -7.1059612105396934e-03 -7.4012435494436599e-03
      1.4202355341350397e-03 4.6524391114811364e-03
      8.6278411794688311e-03 -3.1863859096994680e-03
      -7.9977246165722736e-03 -4.6733406312191887e-03
      3.7741523883501777e-04 -1.9787640524565153e-03
      -6.1818775199175844e-03 -4.5488361122561017e-03
      -1.5174649823874228e-03 6.2785561168371713e-03
      3.8055152969497703e-04 1.5024353085508221e-03
      -2.2270401448584736e-04 -8.0972423565719466e-03
      6.3785874617771363e-04 2.3281113718624140e-03
      5.9234372987072360e-04 8.3016955842868511e-03
      4.2961206378460352e-03 -5.0696147964929324e-03
      -8.2287561525152195e-03 8.4075474800577223e-03
      -3.0298531330308193e-03 -4.6103176978145597e-03
      5.3844954960714708e-03 -2.6910358554781857e-03
      -4.2032239560272260e-03 8.3220851212744557e-03
      5.3631586602329757e-03 -5.4270890154320302e-03
      -1.8170335613774972e-03 7.1337004601782893e-03
      4.7891691351900426e-03 -6.3629919162106379e-03
      -7.1447561871212590e-03 -7.4387279491517928e-03
      -8.7025863850156754e-04 1.2100361116726441e-03
      -8.3486505223590649e-03 1.2396507306267801e-05
      7.7933089885543960e-03 -5.4057245946862219e-03
      -3.2863829141511628e-03 -5.2186886351162001e-03
      -7.4587525581052408e-03 -8.5323032838828484e-04
      8.2276989398510306e-03 -2.7924244647385232e-03
      4.7007137567558824e-03 -1.6119689090878671e-03
      -2.9328545215536522e-03 3.5794859060845649e-03
      2.0747122440920446e-03 2.7415690983432959e-03
      -3.2764486464563775e-03 -3.7353227591813034e-03
      2.3433824235848306e-03 -3.1029943043415342e-03
      -3.5942385506993971e-03 -4.7651627278553028e-03
      1.4992590844109396e-03 2.9306490448297298e-03
      2.6265853570198480e-03 -7.5313517261844844e-04
      -4.3324357850777189e-03 7.2326387603474157e-03
      -7.2428198008357477e-03 -1.3103635134719105e-03
      -3.2151023455219948e-03 5.3985969130256007e-03
      -5.1525563986639412e-03 2.3045513179079562e-03
      -7.3522578738213565e-03 -7.1850668694055245e-03
      2.2120987033760848e-03 -8.1169788773000455e-03
      5.1210551902084178e-03 1.1849848538542139e-03
      -3.1024983816664909e-03 1.8176870526059551e-03
      8.1759955284558851e-03 -5.3338063529592972e-03
      -1.2180105493103902e-03 -7.4936903448728862e-03
      8.0946490525812386e-03 -2.4797884459852972e-04
      3.2649303529810711e-03 7.8219543580867832e-03
      5.4821191062324366e-03 -5.7071249168844356e-04
      -6.1605372699589976e-04 6.5940350945458588e-03
      4.0012252226365679e-04 2.7696412125409044e-03
      -1.8604909861492324e-03 -4.3903524629861149e-03
      6.5279776045440259e-03 -5.4939362134221346e-03
      -4.6394381568005613e-04 8.9291060096358277e-03
      9.3379393572692990e-04 6.3426202570888912e-03
      1.5746396794475862e-03 -6.6706285452382517e-03
      -2.6507483052542885e-03 -2.8018393436133396e-03
      -9.5603390405421887e-04 4.3845740737379882e-04
      2.3710600569909930e-03 3.6567853245277580e-03
      7.9188885188017834e-03 4.1924218651201032e-03
      3.7393270291924434e-03 4.1670308795009392e-04
      7.9884760710365165e-03 -3.1302232100586091e-03
      7.7642302053380092e-03 -3.5279440654076739e-03
      -2.2177705014889510e-03 3.6463303830753606e-03
      -3.4262257363361407e-03 5.9945220552269675e-03
      8.4046576913826068e-03 -2.9323909231259842e-04
      -1.3202817041696598e-04 5.2372363139837159e-03
      -3.4928745824431774e-03 3.3232792887556389e-03
      7.0789431787139697e-03 2.1190661484341133e-03
      -6.2055413915738716e-04 1.6980438708587538e-03
      -7.3254839395708558e-03 4.7186104585605080e-03
      -1.3152485498709176e-04 -5.9198024949207485e-03
      3.3030480840123104e-03 -6.4414839558190494e-03
      3.5307780978728136e-03 3.8325199914218027e-03
      7.9477221692325854e-03 9.3890772153891315e-04
      -3.4007146194004181e-03 -7.6912827786610842e-03
      -5.8968552235281919e-03 8.1120720084686682e-03
      -8.1121905490342035e-03 -2.5722457314137655e-04
      7.3902452223750898e-03 4.1230243004164750e-03
      -5.3991006545295759e-03 7.1075113948681622e-04
      6.7950715804983878e-03 -2.7991412486607146e-03
      -4.1500758610886089e-03 -8.1708271345813602e-03
      -3.4948838059370318e-03 5.5799768290405354e-03
      -5.8885219706181066e-03 -7.3866229625797796e-04
      -4.7197021830765176e-03 3.8928287980822796e-03
      -4.6779085081998222e-03 -5.0350296237358441e-03
      2.7726343374225807e-03 -4.8375362086576024e-03
      4.5321323916811462e-03 -4.5121143902289770e-03
      5.6933039938313976e-03 2.8450427977919413e-03
      4.8428956500469848e-03 3.7568094086397395e-03
      3.3491344982893648e-03 1.9217714833097616e-03
      -4.8573230528715370e-05 -7.7789429168582227e-03
      -3.4470419190707154e-03 2.7122588477345409e-03
      -3.0583400368622460e-03 2.4884773875439989e-03
      -7.4344341783142334e-03 5.7530151099286914e-03
      5.5452457049628605e-03 -8.4530375133971391e-03
      -6.3484021893856161e-03 3.4711139741047214e-03
      -1.2243607491556289e-03 5.8718979318780088e-03
      -1.2664007908685315e-03 -5.6891688771025344e-03
      -6.2282886042956832e-03 -4.4303761030161076e-03
      5.7782659117016025e-03 5.1560399513379297e-04
      -2.8835945262995336e-03 -4.2238555102777431e-03
      3.6821374106459121e-03 8.2278461504542225e-03
      8.9625081123211967e-03 3.7995005947615225e-03
      8.1575477314108330e-04 -6.5981875331036378e-03
      -6.0883033230925323e-04 -3.9515934037085733e-03
      2.8346877298599722e-03 -3.9033687211052870e-03
      -7.2842182198600853e-03 6.8145650010197224e-03
      -4.2925484059683720e-03 1.9032104495899599e-03
      -3.3185822422132894e-03 -2.4930682272127336e-03
      -1.7667267307236846e-03 5.4031745344474448e-03
      4.1109218490543529e-03 3.3701689283642698e-03
      -1.4356443558281801e-03 -2.8960859258362372e-03
      -4.2301758322998019e-04 4.8110969549609410e-03
      5.0986869943610985e-03 -6.2817390486404881e-03
      5.3974446254835160e-03 -2.4401933132516770e-03
      3.8930352607929181e-04 -7.7674676922581589e-03
      -5.9395962709098745e-04 5.8530187694717474e-03
      -1.2497042040869426e-04 -2.0689115285629474e-03
      -3.5810254390158266e-03 7.8052722586082557e-03
      2.1294284969680864e-04 9.2827864669687936e-04
      -3.8697569938087577e-03 -2.8498931573229555e-03
      4.0350399871873135e-03 -3.3292216925779137e-03
      -2.2023874985819076e-03 5.9686836004411671e-03
      2.2953157245590317e-03 -3.5162323288984235e-03
      3.5453432303021353e-03 -6.9820766127850148e-03
      -5.4513978252639787e-05 7.0757563130194731e-03
      -1.6410289310620045e-03 -3.4676628801387256e-03
      6.5272939874717276e-03 3.3303765168697370e-03
      -1.1580682895937747e-04 -6.7074448612611916e-03
      8.2412827672657153e-03 4.0328881342266594e-03
      1.3510925529304466e-03 7.5938810570304093e-03
      2.2972025263684752e-03 9.1288721149789670e-03
      5.2233051865175602e-03 -2.9654192034295293e-03
      -7.5628331006930734e-03 6.6826347178630683e-03
      8.1880714797458402e-03 -7.4500831828731243e-03
      8.7645747118614264e-03 4.0965036772458701e-03
      -1.6572395605568167e-03 7.3057216681561695e-03
      8.4596745532195016e-04 8.5761143806275877e-03
      2.8545521259785698e-03 -2.7963890830895880e-03
      7.0331919904670186e-03 4.7127465063006267e-03
      7.7576998163673191e-03 6.1211965225420901e-03
      -1.6496473460637468e-03 -5.2817122287620675e-03
      5.1384158811950235e-03 -2.3808735140966051e-03
      2.6406412111821555e-03 -2.1409002066348514e-03
      -9.6775923250823543e-04 -2.5707882058052891e-03
      1.8198115965293055e-03 -1.6341549335263288e-03
      -4.2250734954500865e-03 5.3019176472724168e-03
      6.0694776716825848e-03 1.5230820384607669e-03
      -1.3033619931987223e-03 -5.3477688707688426e-03
      -4.6527010577421691e-03 3.2291169291394344e-03
      6.7863529321613716e-04 -2.1939214251472309e-03
      5.5671916542999892e-04 7.0892381151364892e-03
      -7.0810256145259010e-03 -3.4606039668966491e-03
      -4.4255183746676578e-03 -7.6270266628218359e-03
      9.3417494440290443e-03 -1.4203467188746923e-03
      -5.3924696625611808e-03 -7.0286945639158674e-03
      -5.5000635580714002e-03 3.6238553617931593e-03
      4.7715540033471558e-03 -3.7501456080235120e-03
      -7.9407517274572986e-03 1.1951691015696688e-04
      -5.3200632762098431e-03 2.9265929378248138e-04
      1.3548797626842580e-03 7.7824461044970327e-03
      -7.4716861934138214e-03 1.2475331009197510e-03
      8.5328756415968467e-04 3.9565822514025560e-03
      -7.7598965901170174e-03 -4.9712505047614323e-03
      -2.2695283436370266e-03 6.3454912324681628e-03
      1.1272441049033992e-03 -2.6165835828449399e-03
      1.8444282379950327e-03 -2.3251078976626273e-03
      9.0650999757752287e-04 6.6514874884446296e-03
      5.7534012594969040e-03 3.4525906852984022e-04
      -1.2668844339186588e-03 -1.6838488015742986e-03
      7.3173074999352081e-03 1.7734470838058440e-03
      2.1621240149697313e-03 -5.4784241179702889e-03
      4.7378310037958686e-03 -8.7593324031738796e-03
      -7.8730309021428965e-03 -7.3234149447921251e-03
      8.7837683550091416e-04 6.9499291323438309e-03
      2.6034614506344781e-03 6.4102341806939848e-03
      1.2527914758627139e-04 -8.2704818396771573e-03
      5.8994861113621441e-03 -1.2509496707746399e-03
      -7.2161545328517695e-03 -6.7511142737234674e-03
      -3.7502825520758288e-03 8.9741286714772554e-03
      6.3530396971743109e-03 5.8108134215208310e-03
      -4.2308885949137037e-03 -7.6361998557549571e-03
      -3.5801403605733831e-03 5.9883544975222964e-03
      4.4103900751877147e-03 5.8388428216953688e-04
      -7.8542404582944633e-03 -8.4314091141935565e-03
      -5.5580297673316461e-03 7.8507646639881194e-03
      -7.9987362600440325e-03 2.9783123809924519e-03
      -6.3788889470293838e-03 -1.5699555310852524e-03
      -6.8905647624686326e-03 -7.1129073385249380e-03
      8.1916820960481398e-04 -7.2704570834596733e-03
      1.6107952930000285e-03 7.9517457834830819e-03
      -2.3140770388103533e-03 -8.6602561177213013e-03
      1.1309703167747669e-04 7.6356489279181816e-03
      2.1143430708054920e-03 -4.8800310935322479e-03
      7.6902038788634287e-03 -8.5232176145283757e-03
      3.6194849790883747e-03 -5.8501679328716374e-03
      3.9032901148161629e-03 2.7434847511605305e-03
      6.6726986465513542e-04 -3.6786654719601214e-03
      -4.5304272056440669e-03 -8.0951642864631849e-03
      8.7298072124259753e-03 -8.1489331902174604e-03
      1.8329084813106299e-03 2.6617974860979454e-03
      6.8715729438659267e-04 -1.6110011356550821e-03
      3.6632051872405274e-03 -5.0896942585859552e-03
      4.3198507032840014e-03 3.2695232906094045e-03
      6.1431560774970733e-03 -3.6386722956184871e-03
      7.7218561650917216e-03 -6.3952901860748609e-03
      1.1629491976184092e-03 -3.0739205812715378e-03
      8.5240360474940057e-03 -2.7141999429375536e-03
      -7.2531188039323654e-03 -9.9764068699445345e-04
      -6.5347687627993045e-03 -2.6311855097190446e-03
      -1.0370329900406122e-03 -7.1074918206409298e-03
      8.5648810962194871e-03 5.6626092062300659e-03
      -5.0377223686463996e-03 -4.3394935987057766e-03
      -1.1970957432061474e-04 2.7070892123179616e-03
      4.8215866444829350e-03 5.1868150318709408e-03
      -3.7033017772271045e-04 3.9971036196343032e-03
      6.1465793266311025e-03 3.9200015397009161e-03
      4.6148504699689745e-03 4.1730127807755781e-03
      2.5902472901896444e-03 -7.6496872217541824e-03
      -6.4523537881496559e-03 -8.2580601861525459e-03
      1.0540540020883380e-03 4.6507834824239796e-03
      9.1271678828638032e-03 8.3981443447441850e-04
      2.8426329660050085e-03 -4.5480446048113774e-03
      4.2485374431795652e-03 -7.9101776062251109e-03
      3.2673714410089770e-03 -2.8984787450491685e-03
      7.4660281414270059e-03 2.3675450005807477e-03
      8.3622122118296744e-03 -1.5308577316638116e-03
      9.4226648131533381e-04 -8.9713386389930622e-03
      1.5954539172994919e-03 8.1515482879242966e-04
      8.0645711952608990e-03 -8.4719483130273000e-04
      -1.2104846813352067e-03 -7.0745993363082191e-03
      5.3688030440672187e-03 -1.5217623247017103e-03
      5.9232264404376787e-03 2.1198472185843152e-05
      -3.8558422954890017e-03 -2.1621732674023718e-03
      -4.8613318928597080e-03 2.3401361203997640e-03
      8.3844382038577008e-03 7.7050660298699104e-03
      -9.7190586157227968e-04 -3.4493453719701530e-03
      2.9518547674825296e-03 -6.0339630144775735e-03
      2.4673793317946434e-03 6.8769204552502749e-03
      5.6242128104955552e-03 -4.7839684370190377e-03
      4.6882692008536949e-03 -4.6674141603026662e-04
      -5.8478832664198063e-03 -6.9668744950425934e-03
      -1.7528732548934684e-03 5.1582300736314601e-03
      -5.2999339611659099e-05 -1.8754093006024932e-03
      8.7843859435204064e-03 2.7717227923656830e-03
      -6.7697759737131375e-03 1.0370585880543775e-03
      6.9878281208568087e-03 -2.3381611820042138e-03
      6.0588727198376451e-03 7.0041889350736094e-03
      7.1436533739767712e-03 2.4585216827491966e-03
      -4.9823376680237222e-03 7.3399800956484062e-03
      -7.6538592526192760e-03 -2.0341452433103196e-03
      3.5282470698998281e-03 1.5014930699197824e-03
      -5.1910772381755649e-03 -6.8374709500606074e-03
      -6.8053206012968197e-03 -3.6721295330875779e-04
      -7.0574782138160159e-03 -6.7488984891826204e-05
      1.7858060773083178e-03 -7.5561772293251681e-03
      8.4758864152183651e-03 -1.6057261656796337e-03
      -6.1980524353947557e-03 4.9645115704330381e-03
      1.7058407436571531e-03 9.0677977109907843e-03
      -6.4227422439663779e-03 -1.3908019249797112e-03
      -3.0535386767628430e-03 3.2150849231614266e-03
      -1.1820368320219021e-03 -3.0104944249760156e-04
      6.2519921956547403e-03 4.4032972063841993e-03
      2.3798815639177366e-03 7.5456936432543578e-03
      -4.8045204660881538e-03 6.0975268017133778e-03
      -4.0808332171310473e-04 -8.5006012558616825e-03
      1.1952857537800982e-03 -8.8326000817826444e-03
      4.5365537872382334e-03 -7.1029532696309135e-03
      -2.1024407981856921e-03 -1.9048885399104950e-03
      7.0005779176830259e-03 -1.4938191430776682e-03
      7.8492701291652707e-03 -1.3414189372501673e-03
      -3.8320026674027638e-03 -2.6514684171391112e-03
      -4.9783825192155568e-04 2.4686984324427453e-03
      -3.8651094882337228e-03 7.4073506410304701e-03
      -7.1279783486805984e-03 4.8528984982239886e-03
      1.7895512327648537e-03 -1.0209859447149984e-03
      8.3904519534137197e-03 -1.2861603316566194e-03
      -4.1456229479089413e-03 -7.0890952841490733e-03
      1.7990616749096093e-03 -7.2089469773400821e-03
      6.9694861333082165e-03 -3.1750794871734478e-03
      1.2595283140221457e-03 -5.2246331271647156e-03
      9.0393619983957629e-03 2.7323955665908592e-03
      -2.4451126954601575e-03 1.5646913256412271e-03
      7.2351522303219212e-03 4.9236939943319376e-04
      3.7757032816125970e-03 -8.9751711030265375e-03
      1.4048079142218024e-04 -8.1878545032016362e-03
      8.7213535670907609e-03 6.7984953134726661e-03
      -6.7479968386163708e-03 -2.7355085788122006e-03
      -8.3448043079473837e-03 -4.4817317537520270e-03
      -3.6195103523735304e-03 5.6071659284923289e-03
      7.8350780617213924e-03 -2.5392823924873915e-04
      -1.4613918066426980e-03 4.6124958510451074e-04
      7.7474119044599757e-03 3.6654582058029701e-03
      2.4607071309245949e-03 -4.2577780591237400e-03
      -4.6681389343859658e-03 4.7776520114420932e-03
      -7.3519036244938827e-03 7.9855589161592494e-03
      6.9458688268986338e-03 -6.8006636319539633e-03
      -2.5380150063061967e-03 -6.3914659388247209e-03
      1.8889336989502360e-03 -6.3161291320408030e-03
      -3.8361601996803659e-03 3.4899768261159266e-03
      -6.9095078470399812e-03 -5.9560661638044026e-03
      6.4593688123635229e-03 -3.2014480219358789e-03
      -9.0404252506196556e-04 5.1402670807172675e-03
      5.5167270451045899e-04 6.6438124141949325e-03
      -2.1199603545807738e-03 1.4986668840645796e-03
      7.4211082274452476e-03 -7.9325667618934219e-03
      3.2046338414041817e-03 4.6795141764858919e-03
      1.0290815804333568e-03 6.6341532008756723e-03
      -3.1935751472783407e-03 -1.6327923190074651e-03
      -2.7419086660457211e-03 -5.4074812123388770e-03
      2.6584396531116267e-03 -7.0758154554685353e-03
      -4.8570595286213112e-03 7.6965588130189205e-03
      2.8863707733276173e-03 6.0889220713319777e-03
      8.2422725597814193e-03 7.3498738584701915e-03
      -7.6077860763050596e-04 2.3845913065874847e-03
      7.5138899730475012e-03 -5.0113350223863096e-04
      6.0495996252312228e-03 6.9590194881549621e-03
      2.0309812450440786e-03 4.3547740048127071e-03
      7.3061420440821900e-03 3.6710253047258479e-03
      -6.8686832739105067e-03 7.4836180832609702e-03
      2.8139142268636752e-03 -3.2046149909083924e-03
      5.9962117407092279e-03 -8.1709327463835059e-03
      -7.6388371798309634e-03 -2.6700535322390652e-03
      4.9791996902676106e-03 -2.6780894015597095e-04
      -5.1512954571665175e-03 -2.1401592846805907e-03
      8.7292856738214082e-03 6.4485253434771513e-03
      1.5112700419441748e-03 5.5421232777859526e-03
      -5.0930992137563835e-03 2.2303311129670748e-03
      -7.1591120757762200e-03 -8.3001003497919501e-03
      -7.1670630093310676e-03 2.2514687443233455e-03
      2.9397108142183723e-03 3.7638218201072795e-03
      8.1434195948436108e-03 2.7253842163126860e-03
      -7.4283414375507983e-03 -8.6324910148747758e-03
      7.3070068563736625e-03 5.4967541765763113e-03
      6.8247122149106935e-03 7.9137276265713909e-04
      5.6282338292834846e-03 -2.8117504424479179e-04
      2.9854760240710528e-03 -5.1757132858868491e-03
      2.2041751865688481e-03 3.3377399783610681e-03
      -6.5218026673363304e-04 6.9830688007382095e-03
      7.9423216624853205e-03 -7.9376115860916897e-03
      -8.2186827469101203e-03 7.2900206704045855e-03
      -2.6521043755676934e-03 7.1460113718222291e-03
      -7.9535070565290942e-03 8.7305464544262992e-03
      -7.8785987171797953e-03 4.8734885111519624e-03
      -4.4735652727732941e-03 4.9642836202961928e-03
      -3.5993647105918331e-03 -6.1388586842662830e-03
      2.4468851396305946e-03 -4.2344773246900894e-03
      -4.0351063652480763e-04 -3.6328250905772515e-03
      -4.5677936911864185e-03 -7.1484735984547543e-03
      -3.5432697084598265e-05 3.1066299636623913e-03
      -2.4163984913447381e-03 7.9574458393168526e-03
      -4.2915490583588650e-03 6.6732117618931016e-03
      -2.0973388754314797e-03 6.2034121173915437e-03
      -1.6097459192186057e-04 -7.6113974650035025e-03
      -1.4217299318027164e-03 -8.1486355668183887e-03
      8.3280548451782445e-04 -2.3502758914260426e-03
      -1.6016339799309978e-03 3.1159531939081416e-03
      -4.8626996518302008e-03 -3.9170014383437040e-03
      5.0820966101263422e-03 -5.7306931549036561e-03
      5.3006501709376395e-03 1.0547372544565492e-03
      4.7315360870365088e-03 3.7804704183853951e-03
      6.1869688990309098e-03 -4.0323257485400275e-03
      -8.9921818833784625e-03 -2.7793672437648777e-03
      4.2376860505329841e-03 4.5068240959965046e-03
      2.8152171206919873e-03 2.1648838085976492e-03
      5.4635616125889149e-03 -2.0090013172756899e-03
      -5.4003087581184018e-03 -2.3892078073280468e-03
      5.6235808844873909e-03 -7.5998447574940403e-03
      3.7629995067638184e-03 8.8387483453491907e-03
      7.9510960054216060e-04 -7.6418247635372570e-03
      -4.4656061952700497e-03 -6.1206575816786018e-03
      -3.5566205938248474e-04 4.9411268501032748e-03
      -1.1212968217325819e-03 -7.1260475379741400e-03
      5.6328078652988483e-03 -4.5954413344841726e-03
      -8.7132547348277457e-03 6.7199768054842547e-03
      2.9858295614027348e-03 -3.3264479063198332e-03
      -8.4273946026131152e-03 6.7716746207255726e-03
      3.4259722310206282e-03 -3.0519967719086351e-03
      6.7928524071913503e-03 2.3026037774506189e-03
      -2.9774603130749704e-03 2.1800949056003374e-03
      -7.2111111047104869e-03 -5.1597817614453629e-04
      -8.1948882910618474e-03 1.6056839710147657e-03
      7.4266349223001626e-04 -1.4544320992656843e-03
      -3.7619847730701278e-03 -2.3189994771284687e-03
      -3.9909836748731392e-03 -8.1252571345535023e-03
      6.2955820085911184e-03 -7.6028808910274187e-03
      -3.1477136566868954e-04 -7.8206007484261895e-03
      -3.6289816977399018e-03 -4.7504111549899700e-03
      2.3039328967711932e-03 -4.3335354538701285e-03
      -4.5489277416942758e-03 -7.3982527317317049e-03
      3.2322806048039649e-03 4.6501348922922446e-03
      -7.5608364037975514e-03 4.8786587008148204e-03
      -7.8183913597881045e-04 -4.6423860687763085e-03
      -6.9757014853573402e-03 3.8920621793516064e-03
      -4.5589490452275635e-03 5.3436754953331434e-03
      1.3188630854860340e-03 -2.5414822538316062e-03
      -5.0200354556927834e-04 4.0904656651862270e-03
      7.9183952100219078e-03 5.5720541174799423e-03
      -7.0744767493221049e-03 2.6285793465633494e-03
      -6.9650712695262015e-03 3.7563219023144571e-03
      7.6537604200571153e-04 4.0088237931288247e-03
      -3.6677555093086738e-03 -4.8023925680768780e-03
      2.4976200638335009e-03 3.0393113879779534e-03
      -6.6356051913016398e-04 -4.0700675162556217e-03
      -3.3491226086559186e-03 -7.2442082650865658e-03
      3.7677340493953225e-03 -1.2476242782818035e-03
      -6.9442306176733595e-03 5.3154101828072724e-03
      3.6155871221413001e-03 6.0303593238069586e-03
      -1.0666502892026459e-03 4.4897317206273794e-04
      2.9459374728057564e-04 -2.9411142866819860e-04
      -4.0318506006712376e-03 -1.1425311420104149e-03
      -3.7346100941832282e-03 -8.3365050611891919e-03
      2.4387830117552751e-03 -1.9604904255318936e-03
      2.8817191224351012e-03 3.7315446010171521e-03
      -6.9284058915750528e-03 -7.7704567214472555e-03
      5.7435793417653805e-04 4.3235183378840967e-03
      -1.0557199325458820e-03 2.9730297580950900e-03
      6.9819903470883446e-03 -5.3061543075437105e-03
      -7.6204878709167220e-03 6.2482281150419289e-03
      -6.0937962243894630e-03 5.3096968766588272e-03
      7.2042828021124858e-04 4.6182267647805432e-03
      -1.0540302156746778e-03 5.5039331911656778e-03
      -7.3664515302714149e-03 -3.5262962271103938e-03
      -1.4488342100229710e-04 -8.0326007420993724e-03
      5.3108186714648413e-03 5.8897123829341654e-03
      8.6420199802493131e-03 -8.3946695068649810e-03
      -7.7244844701770130e-03 -3.4273698565130136e-04
      -1.8957036068233998e-03 -1.8787859947044119e-03
      -5.8429941675406229e-04 6.6048174739825015e-03
      -3.2107714174364472e-03 7.4661700241651268e-03
      -2.7830010573684266e-03 5.3083404497371780e-03
      4.6095726565502527e-03 -1.1448381400375024e-03
      3.8363811756404469e-03 -1.9707591404260821e-03
      5.3029693849090840e-03 7.2665603311711767e-04
      -2.6235017327596527e-03 7.2805912203236442e-03
      -3.9115008034993765e-03 -6.5798455097369575e-03
      -5.6197645021510041e-03 6.7126495426122756e-03
      -4.8115895672035044e-03 7.5183047761083147e-03
      -6.5247015576039369e-03 -1.0611831422177133e-03
      2.6810064491155816e-03 -1.0985071721277618e-03
      5.4596440007597434e-03 -1.3480144337843901e-04
      1.6430859804423173e-03 -7.2747067852951637e-03
      -1.8126238626354956e-03 -5.9847092357340282e-03
      3.8142959847070408e-03 -4.7590086113342535e-03
      -4.6783712360099431e-03 -5.5107532287832651e-03
      5.8882708964013760e-03 2.2718043136804131e-04
      4.1290053777099994e-03 -1.4150817557767560e-03
      -2.6331581956013372e-03 -8.2481520415177874e-03
      6.4513831090970409e-04 -2.5936154937725047e-03
      -6.1509732022062575e-03 -1.3633213452173176e-03
      4.9814778455865513e-04 -9.6043674292919218e-04
      8.0237093274129669e-03 6.3665284969064186e-03
      1.6881180830176114e-03 4.1691503943952681e-03
      -5.3101424908836310e-03 7.8185064517166114e-03
      -5.1356016956301126e-03 -6.4376593205481411e-03
      5.2731200006684228e-03 -1.6517871843093313e-03
      -2.0232167975177875e-03 -4.3163695922471702e-03
      -2.5584252178646218e-03 5.2178439475565122e-03
      1.0426953562500724e-03 5.1659830176276744e-03
      -2.1688074822509805e-03 1.9788792627245095e-03
      -5.5546330585469475e-03 6.3310318081283568e-03
      -1.8877200980663619e-04 -2.7787179407818214e-03
      6.8391877684723986e-03 -1.5492757408244301e-03
      -5.9274676233272202e-04 7.1528126292697307e-03
      -7.7226943634812056e-03 -7.4717937812170772e-03
      -1.1190124008673124e-03 -5.4091796938432954e-03
      8.1176561004054886e-03 -7.9000042088179304e-03
      -3.4764468542134407e-03 -2.5474016279865837e-03
      -4.7947391390650755e-03 -7.7002542723418896e-03
      3.8043224737097530e-03 -7.3281743069490320e-03
      -7.7783533814465991e-03 3.6131793675205199e-03
      -2.3472896861005091e-03 5.1461075564602035e-04
      -4.5207261245471565e-03 2.5406437232267645e-03
      6.2904931389056165e-03 5.5482145156574847e-03
      -2.0980195884055465e-03 -3.2782464055858962e-04
      -3.4102433547435543e-03 2.5980120946988896e-04
      -1.7354356100746113e-03 2.3051621885423908e-03
      8.1099452282222435e-03 2.2069072622628006e-03
      -7.6769728817596672e-04 -2.2191781965695758e-03
      -4.4835923849909217e-03 -1.6975371418899575e-03
      2.0613781120313156e-03 -4.1671033454001817e-03
      5.8021146037037688e-04 5.2757213918022015e-03
      4.8720262784177886e-03 -7.8627348992750014e-03
      7.2211883799009301e-03 2.0132953903340862e-03
      4.9948545228380012e-03 7.8666121863347309e-03
      7.9271176096861618e-03 5.7830109000766208e-03
      4.4028272590149759e-03 -3.3863785920249783e-03
      5.3237198802133642e-03 -5.1936632494245169e-03
      1.5075641547838148e-03 -5.9397163086167097e-03
      8.6567628093227253e-03 -5.5894365611476420e-03
      -7.4595270304208912e-03 2.1716202181654501e-03
      8.0045448848174293e-04 7.8242820483567874e-03
      1.3972593720166157e-03 4.8061005304771455e-03
      5.9091470441061155e-03 -1.6300401232382086e-03
      4.6472822618535813e-03 8.1606399955768353e-03
      7.5603594747586222e-03 3.8617385944737744e-03
      -7.9655509402491217e-03 -4.5988696135651399e-03
      7.1134438393431320e-03 3.1846316899615456e-03
      7.7952216112419570e-03 -7.5804884115986994e-03
      4.5969266878067797e-03 8.4593684513294218e-03
      1.2782690943410010e-03 5.9651979222177728e-03
      4.9268004001874303e-03 3.2181384451255195e-03
      -2.8923185599490169e-03 6.4571322391020159e-03
      9.0638322223730496e-03 -7.0584056511944519e-03
      2.5566429105708358e-03 2.5565461914409063e-03
      -7.7313693431209441e-03 -7.9254947812333436e-03
      -1.7368786307080722e-03 -7.7653824446269476e-03
      -4.0388705378185301e-03 -6.1604336124036034e-03
      2.6767347959238165e-03 -5.6956814684026320e-03
      3.8822183539858881e-03 -9.4067552779271580e-03
      -1.8979118837945308e-03 -3.9176223547845385e-03
      2.5402667922125072e-04 5.0191255938798881e-03
      4.8214636891263761e-04 6.1170004354656228e-03
      8.4080555704812738e-04 -2.0108235944165187e-03
      8.5584660934940084e-03 -2.1258509317051062e-03
      -3.2489042881509336e-03 -4.8246618836487306e-03
      6.2796299086993025e-03 -4.9374698759705755e-03
      -5.8949924238559902e-03 -1.7264168112786729e-03
      -8.0173064432216400e-03 5.9584945297342122e-03
      -8.8191483372153066e-03 -7.4639003582014883e-03
      -7.2003736496874171e-03 9.2340612130681885e-04
      -5.7722605234472339e-03 7.7632891770205463e-03
      8.3596454404666933e-03 5.8997620272529874e-03
      -6.0429014071568263e-03 6.5487738823248572e-03
      -1.2249888594832945e-04 5.4561131138041905e-04
      6.6416009009152401e-03 2.7700272676878827e-03
      -4.3507785676910569e-03 5.4778616432679204e-03
      -1.7675528536107629e-03 -7.6804885617398778e-03
      5.2802383450746880e-03 3.0482585448454304e-03
      3.5813317937158405e-03 7.5933274202556753e-03
      -1.1974243049265242e-03 -5.6532645312696887e-03
      -1.4248867687877113e-04 -1.3634585093843623e-03
      6.1915037367875139e-03 -8.5537697602479663e-03
      4.8197816095304031e-03 2.9713032587454055e-03
      -4.2165708618707628e-04 1.8912346544240543e-03
      -4.8695760396950177e-03 1.7068927826211849e-03
      -3.5308978119894812e-03 4.4209467316890152e-03
      6.5497607342107607e-03 6.0555427235766367e-03
      5.5457326748980327e-03 6.9111158326158424e-03
      -7.8519520128080972e-03 -3.6625730752856309e-04
      6.0887656342294497e-03 -8.8928793701222083e-03
      -7.2857885039721475e-03 6.6018433527346649e-03
      -1.8129191352706118e-03 3.8825701315264470e-04
      -6.2839176008749253e-03 8.0741961821474018e-03
      1.2167096187887096e-03 -8.7283895089985079e-03
      5.4194058928271338e-03 -4.4483646654855605e-03
      3.6739973506310854e-03 -8.3450915473824597e-04
      2.7951278941267402e-03 7.4559976864847716e-03
      -3.1355198711123877e-05 -1.4840942514569033e-03
      2.5102966820158960e-04 -7.5629668372934067e-04
      -6.7087974238822139e-03 1.6570703023640696e-03
      4.5743502837011811e-03 8.3875347167706726e-03
      1.8259569361593893e-03 8.5379354045208508e-03
      1.4082621923138532e-03 5.6249859951185914e-04
      -6.2173575341434775e-03 -6.5741771793541260e-04
      2.9750336923529295e-03 6.4672366229646698e-03
      -3.9357281269412217e-03 -2.4770065158064947e-03
      6.5289870950977985e-03 1.8958700711835766e-03
      -6.1238497656173289e-03 2.0341807300422389e-03
      -1.9888037208556628e-03 1.2545283463829325e-03
      1.2114341477148852e-03 4.4112579683589139e-03
      -3.9742053243975086e-03 -6.3794274339094049e-03
      2.8980611412556772e-03 5.0740431605741793e-03
      -6.1025541576606160e-03 -4.2047750985588338e-03
      -7.1458016603207367e-03 -3.5391740325169587e-03
      5.2088719697248684e-03 -6.8608193161310508e-03
      -2.6489091960677428e-03 -4.2817751344834632e-03
      -4.3005619086265278e-03 -4.8814696588116366e-03
      -3.0324974235250474e-03 4.8755076832700988e-03
      4.0449876984780513e-03 -4.1708907482498788e-04
      -6.0843751899698796e-03 7.1921709226992004e-03
      1.8685857166913468e-03 6.5345166233111186e-03
      5.7493498499056935e-03 1.0199942688084132e-03
      3.4474464976799046e-04 7.4060142895361798e-04
      -1.8431412954562560e-03 1.2521069133307491e-03
      5.2248883621303192e-03 5.7206179699814596e-03
      1.9368284739670865e-03 -2.2421807214957818e-03
      -1.4666143149583261e-03 4.4403143017566751e-03
      -7.6292655647236763e-03 -4.3887626071931482e-03
      -9.2212861813205577e-04 4.9129154603315284e-03
      -1.6847383358037592e-03 2.8345067526480191e-03
      7.7062282614698942e-03 -6.5298856389412671e-03
      -2.5625588494170913e-03 -8.5127636301759440e-03
      4.8617893986883905e-03 8.2036579929720826e-03
      4.9209637207419605e-03 6.7746437699779810e-03
      -4.8552387636918307e-03 -6.7153564608900176e-03
      5.0413350933138585e-03 -5.0558088771864018e-03
      5.5783540774770471e-03 8.5114031464870021e-03
      -5.1199835592560007e-03 -4.0837485476661779e-03
      7.0330179409196041e-04 -4.5833668256708105e-03
      -3.5558667864850667e-03 -3.1009474398740401e-03
      -7.2782757386764541e-03 4.5138289464375699e-03
      -5.6744168663753298e-03 -6.7549178622639356e-03
      -2.2128256490915165e-03 -6.5443604837953986e-03
      7.2687055774231955e-03 -2.9431268019120926e-04
      4.6172312600859363e-04 -5.3768240698105615e-03
      9.4393506205420630e-03 -2.4317465110157079e-03
      4.3206304493266789e-03 2.1392507028935893e-03
      5.5541957588225183e-03 -7.6883013656690669e-03
      7.9332654003036254e-03 -5.3533463067604002e-03
      2.5744898999663130e-03 3.0932329910966527e-03
      -3.3415314110265240e-03 -3.7817529979140298e-03
      -1.3576435985994989e-03 5.8777177698625892e-04
      2.5447512219437425e-03 -4.0956719051857471e-03
      -5.7533505284707099e-03 3.3285888656819679e-03
      1.2924115591651962e-03 8.4318909271143532e-03
      -4.6478794092042015e-03 -1.9415355503883574e-04
      1.7331346686221946e-03 -4.0164235272265236e-03
      -7.7184598798803348e-03 6.8146169447305775e-03
      7.1767710971957941e-03 -2.3944210051869684e-03
      7.9712224293275805e-03 3.8380576281435820e-03
      -4.6860648195352047e-03 -3.1982772951708737e-03
      -3.3233949770573130e-03 -7.6674796379903772e-03
      -6.9260195382657135e-03 -1.9080372944038141e-03
      -7.2825407779030767e-03 -5.7208339949040444e-03
      -1.4911495637942047e-03 2.2126689375853935e-03
      7.6684732831600998e-03 -1.9128202069511519e-04
      4.9794259377479782e-03 -1.9999586316531456e-03
      8.0051103649228673e-03 -2.2640301409322379e-03
      -3.9357615654850532e-03 -4.3208805693721423e-03
      8.2282875531695648e-03 -5.1326726281646249e-03
      5.7748784476678952e-04 7.4535044648178837e-04
      -6.2648998944951030e-03 1.8939361290768472e-03
      -4.1211209547590746e-03 4.7581231781229031e-04
      8.6117283741382056e-03 -6.8909472344069736e-03
      -6.5679694426048450e-03 -7.5750774313857469e-03
      4.0283518102086392e-03 3.0233379212821938e-03
      6.0910105368721483e-03 -2.6081141517533290e-03
      2.1264646353586639e-03 6.3897997202893176e-03
      1.0084299511248904e-04 -1.4297754246326839e-03
      -4.3809696593805078e-03 8.5820686119244087e-03
      -7.0465845281649756e-04 -4.1271619043809719e-03
      -2.7993383182837481e-03 -3.6940230666471364e-03
      2.1684583906820469e-03 5.4084182999025497e-03
      3.1234292968936061e-03 2.8902440473982916e-03
      -3.4949767594197869e-03 1.6522987198157070e-03
      -5.3054129432762113e-03 5.9783366213997076e-03
      -1.4035050772522566e-04 -2.5695378081456804e-03
      6.4811685034029450e-03 -3.4365245741147963e-03
      -8.5482288302985415e-03 5.5676669422064923e-03
      -8.3549932421729360e-03 8.3926601524838620e-03
      1.1958861577473791e-03 -1.7677158855681254e-04
      -7.3324750461614980e-03 -4.0479560035230067e-03
      -3.0381887280060416e-03 1.4999042809589252e-04
      -8.9382693364057388e-03 -3.8645042483899898e-04
      1.5047850633504336e-03 -7.0980650608510401e-03
      -1.3103249229600680e-03 -6.9474727317708432e-03
      -5.6258781537515149e-03 2.1061969052053710e-03
      -2.3191087130718102e-03 6.9901916758373780e-03
      -7.8472974889429534e-03 7.0004629724652913e-03
      5.0287056400874037e-03 -1.4670347809914799e-03
      -4.0422399705008338e-03 -4.2297510920276523e-03
      3.1114491133148550e-03 5.7175370702396804e-03
      -7.3039830953986707e-03 5.3077684883304126e-03
      8.6484684810471963e-03 8.8341513706737002e-03
      -4.0100230743293054e-03 5.3659461386311724e-03
      -3.0282841738277387e-03 3.8303831561787107e-03
      7.2534467896337787e-03 5.4674294744605414e-03
      7.9153140618051336e-03 -8.5307847063911483e-03
      1.5831529940673644e-03 4.7036675495768969e-03
      -1.8243833365197532e-03 -5.6422588546216797e-03
      2.8072563371181955e-03 4.9472824254818033e-03
      4.9607515290418635e-03 3.5062196467309796e-03
      6.7092984357129326e-03 6.4624821486759347e-03
      -2.3270370947571770e-03 -1.9848529290537498e-03
      -5.0358254349544950e-03 2.0357580568286064e-03
      -6.3137899047797019e-03 2.4044489927762167e-04
      2.0929039564632564e-03 -1.2306128439121069e-03
      -5.9500354428879858e-04 8.2086616121989728e-03
      -1.8352167378978511e-03 -4.5155375311048988e-03
      -3.4938397253552909e-03 -8.4575226601076702e-03
      8.2211521866108715e-03 -9.3996448266985629e-04
      2.1456419031795578e-03 4.5146347397616400e-03
      -4.9954764972534949e-03 5.2102864607067841e-03
      -6.1410804559470407e-03 -3.7482195219379938e-03
      -4.1965518533415647e-03 -2.1701467220474942e-03
      5.4675681510110360e-03 -2.7614353047372814e-03
      2.4381761287876323e-03 1.6493610638166807e-03
      -2.5149735735425422e-03 8.2320496539810516e-03
      5.9478615237757949e-03 6.9147787913779665e-03
      -2.8705284541652200e-03 -8.5272466410044479e-03
      3.7651516197147691e-03 8.7745818343269895e-03
      -6.7332147799639029e-03 -4.0023886027062442e-03
      1.2857263611106354e-03 -3.1157548974048987e-03
      3.1092215820460959e-03 -6.8122039829542477e-03
      -2.8644618523987813e-03 1.4075386699837197e-04
      -8.3680389484157465e-03 4.0411894156449323e-03
      -2.4191166097248069e-03 -4.0367145086973623e-03
      -2.8317074241271723e-03 -5.9907126731644118e-03
      8.5626503891953788e-03 3.4224819924890096e-03
      5.2626411255357096e-03 1.4952140503342261e-03
      8.1836366280282746e-03 -2.6608565303203350e-03
      -7.3793958683457837e-03 -4.4435006312222216e-03
      -2.7960956928200159e-03 9.5346768130534693e-04
      4.6880804191991275e-03 4.7101716880158162e-03
      -8.4362346973913664e-04 4.3081413481586648e-03
      -7.8247868286828691e-03 -4.0813960617134176e-04
      -6.3226227379845233e-03 4.1210318786583638e-03
      -1.7430113676801255e-03 -9.3628353408428666e-04
      -5.7512360834222993e-03 1.2020912950897339e-03
      1.1071336732329216e-03 2.4537718583887186e-03
      8.0166530066024099e-03 3.5797982122119805e-03
      -5.3829209623952393e-03 9.2141872411491085e-04
      -8.0466750607786630e-03 6.3250899799794143e-03
      1.9432006830657788e-03 -1.4205413979139180e-03
      6.3331546619718425e-03 -5.1966260551367756e-03
      4.7011680617403337e-03 5.9271180571741798e-03
      5.7148576733536309e-03 -5.7835925777872249e-03
      -3.6506223871658919e-03 5.5398854779446479e-03
      5.8704063556851158e-03 5.8470440432711402e-03
      -5.4256725692153028e-03 4.5887763014853542e-03
      2.2065308953686602e-03 -5.7152585703354308e-03
      -1.3013158851357987e-04 5.8986907821962703e-03
      1.9570645241436123e-03 1.9831411143548684e-03
      -3.2465307281270600e-04 5.0492723565236748e-03
      -3.8639496581913054e-04 -1.5339855893605600e-03
      3.0963635700679507e-03 -8.6022283811916268e-03
      8.5077350005490250e-03 -1.5450417194466056e-03
      5.4783770989789374e-03 -7.9922204103682511e-03
      4.0588384272407805e-03 4.8925278540234108e-03
      6.6130048104632464e-03 -6.5603545551342650e-03
      -4.0085540186310413e-03 -7.0979682998903474e-03
      -2.4010275413344673e-03 8.4885998845037561e-03
      -2.6953140128381761e-03 9.5528564592450819e-05
      -4.6719291208284990e-04 4.1064999862927580e-03
      7.9183167245656140e-03 -6.7582506943698406e-03
      2.0471865382158789e-03 7.1817406531830960e-03
      -7.0868800922050468e-03 -4.0669422454468892e-04
      2.5381015439666780e-04 2.5422768180743639e-03
      -8.2350052222366736e-03 7.4312713360430993e-03
      -5.3171231237258976e-03 -3.1635118302726648e-03
      -8.6294148921916593e-03 4.4053505246782268e-03
      1.8056749897095473e-03 -6.5794101500048728e-04
      -6.6171100329742950e-03 7.0611789190685691e-03
      -6.2096103227768278e-03 -9.2004338747352175e-03
      5.9645322885285004e-03 8.0658102747705202e-03
      -7.2448446556136132e-03 -2.8254633422619291e-03
      2.8809047213582935e-03 -3.0208708997205868e-03
      -2.1898541357072291e-03 6.7007046469154423e-03
      -4.0449843671957631e-03 4.5865274268245973e-03
      -2.4143013656905249e-03 7.1371117796834088e-03
      2.3077168114298188e-03 3.3070008964451035e-03
      -6.9511640716706860e-03 5.3844123888134121e-04
      -8.3032441632095028e-03 6.2161432752856020e-03
      -1.9374353382544706e-03 1.2482685352041996e-03
      4.7828343277535254e-03 -7.4878743481423676e-03
      -4.5799861642548513e-03 -6.4416095440491703e-03
      -2.6302473984528480e-03 6.0930310824072942e-03
      -7.2874849415998496e-03 -7.1806813967711831e-03
      8.6963741050670191e-03 7.0157129954750118e-04
      -4.7271658482164426e-03 -6.4944065889697873e-03
      -7.5082932684016447e-03 5.3391933977099985e-03
      -9.1600810996194156e-03 -5.5163681334039977e-03
      5.5413645123320954e-04 -2.4257377848873459e-03
      6.2960520400349926e-03 4.2096699325035094e-03
      5.6572404582167890e-04 9.0421205804037247e-04
      9.3474315630671001e-04 -9.0749335746908733e-03
      -8.8113564265999578e-03 6.4430490924739020e-03
      4.4954055697780130e-03 9.4423466779161374e-04
      2.8407091706489553e-03 3.1119919882380094e-03
      2.8583700290456620e-03 4.1873440993261861e-03
      -3.3661502577112760e-03 -5.4575908307779005e-03
      -2.6056256912588773e-03 4.4838892208847320e-03
      -4.9980031574637008e-05 5.8095652688086733e-03
      -3.9031384722284269e-03 -8.0874807800795055e-03
      -4.6126612228926655e-04 8.4596904681680987e-03
      2.1392258593482469e-03 -2.7968076782082059e-03
      -8.2976076497065631e-03 -6.6073604311466536e-03
      -1.1071487156033978e-03 -6.8874347169438650e-03
      7.7338608118926759e-03 5.6689017045948300e-03
      -1.6233830604527122e-03 -3.3256679370084756e-03
      -6.2794184357235589e-03 -5.3434617727063328e-03
      -7.0298286299715950e-03 -6.8567627911455377e-03
      -4.2336427725709136e-03 -2.0312814719410078e-03
      6.1629979312254049e-03 3.1768141454164380e-03
      -1.2822356047333726e-03 -8.4244280107291011e-03
      -6.5432715991198221e-03 -5.5855742095325660e-03
      2.2660325979121793e-03 1.5248646511922936e-03
      -4.1979158527545178e-04 -8.0249349033580906e-03
      1.2745421289795296e-03 3.3595807737763590e-03
      5.1211654797581824e-03 -1.0548580691348965e-03
      4.7039717128040193e-03 8.7426483206788589e-03
      -5.0861678464185879e-03 6.5902003271226155e-03
      -2.2465074675290107e-03 6.9189202007325862e-03
      -6.9555165464913089e-03 -5.6979147379351801e-03
      6.6173386756875237e-04 -5.7298583792600947e-03
      -1.1485972897163539e-03 -8.5905537734464570e-03
      1.4010592030920710e-03 6.3533787761427098e-03
      -4.4889761971977421e-03 -1.5702669443391668e-03
      6.4814611215922449e-03 6.9138602899730291e-03
      4.9958352354670700e-03 4.3798033126131435e-03
      3.6100990019528353e-03 -4.0308461814638243e-03
      -5.8154313867383230e-03 -2.1035431020927447e-04
      5.8314652634233761e-03 -5.6656453829245796e-03
      2.1155070766351904e-03 7.3867275192319864e-03
      4.9961110484527151e-03 -5.0077411565877051e-03
      -2.9456519211596587e-04 8.0894464629459092e-03
      8.7055379220215747e-03 1.8421448162615709e-03
      1.6334310801946886e-03 -5.3457919137942719e-03
      1.8421489511028470e-04 -2.2146670553092200e-05
      -6.7306491194388546e-03 -7.7796060492485841e-03
      2.2074139822094822e-03 2.5936687798407960e-03
      -1.6638629313429356e-03 -1.6662676904678263e-03
      4.0411003995648809e-03 -2.8142816864390697e-03
      -8.0258488032031769e-04 -2.7204858680081375e-03
      -6.3358591651491358e-03 2.5417049162970596e-03
      -3.1283405725967325e-04 8.5677285129661870e-03
      -3.1921160596152321e-03 -5.8223174690236416e-03
      1.3976013044420239e-03 -5.3462168933236087e-03
      -2.8773879174021086e-03 -6.0904503384462492e-03
      -3.1289952183385803e-04 -8.2501043274650996e-03
      3.1507808465881989e-06 5.5540710802353165e-03
      3.2528534800077245e-03 -7.3273457323422822e-03
      -8.3251652466311520e-03 7.0607879525541230e-03
      3.2872277455505039e-03 -1.6015563885148462e-03
      5.0417750467441572e-03 2.1321645437078923e-03
      1.2115054052743719e-03 4.1251542145263375e-03
      -4.5486585760565780e-03 2.4987060027491215e-03
      -2.3469579549513361e-03 5.9592543024596951e-03
      -3.5280162264508608e-03 -8.1303181043244493e-03
      5.4354502659192776e-03 2.0354404658045793e-03
      3.9699508795224751e-04 -5.0114131765461355e-03
      3.8377297308750556e-03 -6.9450312346807444e-03
      -4.1549320498117433e-03 -3.8107325957630073e-03
      -7.4426421281343826e-03 3.1952185089731680e-03
      -7.0385918776892497e-03 -8.3309362959645800e-04
      7.5095034727093697e-03 -7.4572550302736051e-03
      8.0558724844391541e-03 -1.0589153458339436e-03
      4.6761525348396737e-03 -1.3936881042300696e-03
      8.6749901929255979e-03 -8.8139794916367031e-03
      -4.4536924690910676e-03 -7.3904675538587162e-03
      7.5138454466503841e-03 -2.6689605640886466e-03
      1.1088260322641918e-03 6.6164197645289359e-03
      -4.4966108351252414e-03 -3.7674432000707656e-03
      -8.1356803316165222e-04 -8.8775490647650702e-03
      6.8562108607953540e-03 3.7804770297232022e-03
      -8.0441212875369175e-04 -6.9253898508909719e-03
      -2.7215154856432009e-03 -7.0460072826302239e-05
      -3.4004786199637342e-03 7.4510805582525905e-03
      2.1083696813512321e-03 2.6934929610761870e-03
      6.1117537072209295e-03 -2.9064477809850144e-03
      -4.5941761900314343e-03 8.2174480683031067e-03
      -4.9655956108465597e-03 1.9203042178994809e-03
      7.2081861889375801e-03 4.0560734245225329e-03
      -7.1556349772567633e-04 -2.4716641707479277e-03
      -4.0734067766782494e-03 -1.7369416355181621e-03
      -7.4719787320831881e-03 -2.2856378804090808e-03
      5.3888418534158416e-03 7.8690929498878310e-03
      -4.4892178325169471e-03 -2.1546287438704353e-03
      -5.0267378247996930e-04 -5.6892803322433965e-03
      8.5640641028660123e-03 -1.4952619967894885e-03
      8.5247402583267344e-03 8.0710482433179100e-03
      4.4848239984755364e-03 -8.6168283547537021e-03
      2.6969914658840411e-03 6.9132290025942485e-03
      5.4603632046635467e-03 1.8048665823314277e-03
      -1.4142239375908761e-03 6.9642979225180198e-03
      1.4286852901759558e-03 -3.2860119047277009e-03
      4.0380728008999733e-03 -2.1206727924901123e-03
      3.4878746444350359e-03 9.3551553389368300e-04
      -1.8128221103073342e-03 -3.7458287385648315e-04
      5.6439375156890218e-03 6.1293078394757431e-04
      8.2538488488374563e-03 -4.3709587421835562e-03
      2.7341832958993955e-03 5.4477886423573447e-03
      4.1586126232297151e-03 7.7224283941340777e-03
      -3.8617291095694897e-03 -5.3683397741530071e-03
      -8.2975041190697808e-03 8.1927711572982870e-03
      4.4364514250507785e-03 2.3426193480255513e-03
      4.5421578074336482e-04 5.9678516827051343e-03
      -6.2479992346978035e-03 -5.1813370331737279e-03
      -4.3869940774867956e-03 4.6086406272348611e-03
      8.3506439958274913e-03 8.1055722332971300e-03
      4.8854202990866917e-03 -4.2677781634199259e-03
      8.7075576832314362e-03 5.3372931271138185e-03
      8.1335918226941202e-03 -1.7562030553813673e-03
      2.1035267467850545e-03 -5.2493850304029853e-03
      6.0289255291737041e-03 -1.4928818976263647e-03
      4.5544138210978063e-03 -1.5898206269151377e-03
      5.5994885751682148e-03 -6.9163640241013125e-03
      1.4417009021955036e-03 3.6981748286826067e-03
      1.5988018689209026e-03 3.2273602056154252e-03
      6.5965699909280107e-03 2.7436706207806679e-03
      7.7865905521665602e-03 8.6018577389048775e-03
      -8.5676259670466083e-03 -5.7174042254852498e-04
      8.6357896962385786e-03 -6.5653398415347456e-05
      6.2433094505929369e-03 -3.5878610418967889e-03
      2.5758017934338984e-03 -7.3943737983153072e-03
      3.1741848010140724e-03 -8.0577898306572558e-03
      -8.5803572789047329e-03 2.1508090922957835e-03
      -1.1569154305599160e-03 -5.5147184794686818e-03
      -7.6414377279078070e-03 1.0320142108330725e-03
      7.2243286755450924e-03 8.1318446289361766e-03
      -1.0909739411426114e-03 5.2311366900224967e-07
      -5.9747007027961896e-03 3.5229364088532802e-03
      -2.5503084544053903e-03 4.1832284219659281e-03
      -2.4600399725489188e-03 6.2072682628026557e-03
      -5.7128115675757199e-03 8.2959287340077011e-03
      -7.5875130316593667e-03 4.0190511885595543e-03
      -7.9392006007791773e-05 -6.7887218028026865e-03
      3.7045626840644949e-03 -3.9915139391443494e-03
      -3.4415483293246223e-03 8.0830654787791140e-04
      -7.8736108746593793e-03 -1.0703877350327032e-03
      -4.2348133059508545e-03 5.1800151967862362e-03
      -6.2246903182385926e-04 -7.9087635937848903e-03
      -8.7478829828479161e-03 6.7458701998897377e-03
      -3.1186025375514641e-04 3.8893427597014021e-03
      8.4494126909529926e-03 -3.4184239420590101e-03
      -8.5282514708640202e-03 -5.2400388276020692e-03
      3.9793741199411212e-03 1.6927547610439495e-03
      2.6446810735862186e-03 -6.4164793075876829e-03
      -7.3689534441231759e-03 -8.8433683135697647e-03
      -2.9643933034145999e-03 4.3910423141826924e-03
      3.7900790784390070e-03 3.2652356790879981e-03
      2.6228156601887428e-03 -7.5190444011525399e-03
      -5.7884576125418292e-03 -5.6265878119473919e-03
      2.7680534963525089e-03 -6.7978249026625411e-03
      -1.4618014498735028e-03 5.4225468527143352e-03
      2.5531168655117203e-03 7.1215489165438618e-03
      -8.6267140900839513e-03 6.0599315078716598e-03
      7.2783914465873014e-03 2.9216759476901888e-03
      -6.3259573600822905e-03 -6.7845774055174078e-03
      5.3900813935939948e-03 6.5839213176902530e-03
      -2.2850067478692201e-03 -3.6981432126830449e-03
      6.4140024010200655e-03 7.6294724631852393e-03
      2.6835782829469981e-03 -1.1298717200896777e-03
      -3.4610584521696419e-03 -7.6480513294733959e-03
      -7.0920126481831434e-03 3.6730575351210581e-03
      -8.5464614386576970e-03 2.8625027623508104e-03
      -3.7509707605076518e-03 -8.3763180349822348e-03
      -2.9696012819925644e-03 7.9736175806220371e-03
      -2.0869500448702704e-03 7.2938340594463143e-04
      -6.3923636609994521e-03 -3.5298563285390350e-03
      -7.7597828933513736e-03 5.2465756636642198e-03
      -3.3915197420728359e-03 1.1927905901935162e-04
      -8.2910615074852177e-03 -5.6145656386145234e-03
      -5.2429632897578503e-03 5.4078497939726178e-03
      2.3085784868597170e-03 1.9017817450883653e-03
      -2.5981064811221345e-03 3.9792868771139564e-03
      4.5505408931839708e-03 2.4916432929871711e-04
      8.4145715694074717e-03 -6.0579439231386988e-03
      6.3304059176291002e-03 4.0964505193987139e-03
      -8.4949249977828260e-03 3.3384002172174540e-04
      -9.0620988681299492e-03 -3.7081027183663707e-03
      6.5636267779792335e-03 -8.3723413489665555e-03
      4.0585875071932750e-03 8.6133295177968118e-03
      -5.2244279201039256e-03 -7.3624266727491880e-03
      5.6861474460535542e-03 6.1485896282891829e-04
      7.8008141028265811e-03 2.2661201017059995e-03
      9.4539440643008382e-04 6.1473082045163342e-03
      -5.9892139992761420e-03 -3.1861042223124978e-03
      2.9720302232536778e-03 -4.0124941532030060e-03
      1.2755697721209373e-03 -2.9071254997411686e-03
      -5.1905580464882400e-03 7.7487712928427334e-03
      6.7497320416194783e-03 -8.6287695063376087e-03
      1.5683166590140974e-03 -5.0075117813446176e-03
      6.2004402219132282e-04 -6.6598610152682194e-03
      -4.2662552197339559e-03 -6.6213753936184942e-03
      5.1263934005645433e-03 4.1634379281648036e-03
      6.2904303812836926e-03 5.9834840221981841e-03
      4.6033359698526167e-03 1.0715716716094919e-03
      2.1519432414487919e-03 2.8225081421984167e-03
      9.8656306048660702e-04 -6.8486719920626471e-03
      5.2836745141090881e-03 -3.5811814760474837e-03
      -8.0948120000162143e-03 -8.0144294453789993e-03
      -8.8556540980889008e-03 3.8166422463572587e-03
      6.8732626524074421e-03 1.8113388029856024e-04
      -7.1360660238721256e-03 5.6459903721444420e-03
      5.4304232902193010e-03 -4.3802642247831149e-03
      -7.4868793663736028e-04 -8.6728162089079429e-03
      -2.2573425307950880e-04 -6.7829391003594466e-04
      -5.4924424945442703e-03 -7.8401615662783142e-03
      -3.2033129622329394e-03 -1.1771057055133490e-03
      -7.8780647762997785e-03 2.0300800630131633e-03
      -8.2986327546097569e-03 -7.2851053380932600e-03
      -5.4207225096826661e-03 9.2874459505027371e-04
      -1.6325913020472714e-03 -7.9501519507844624e-03
      -5.9322272229720063e-03 5.6738316396969576e-03
      4.4972270454450959e-03 9.0028042526946325e-04
      1.8311312411360613e-04 9.1246692040744721e-04
      2.6027290728033873e-03 -7.6111053651725857e-03
      -2.3082720435984483e-03 7.8805943269457043e-03
      4.4010896831987124e-03 -4.5290293807096820e-03
      7.5682083336285197e-03 3.2634643466289632e-03
      6.3268273243758701e-03 -1.9965175412120545e-03
      6.4355395815174495e-04 -6.7964211491590744e-03
      -8.3975773001930942e-03 -6.1334849592859506e-04
      4.9608574138187960e-03 -4.1909486419592079e-03
      -2.5050118397213174e-03 5.2162502903815812e-03
      -5.5437694644677798e-03 -3.8750229759227602e-03
      -3.3941886662446461e-03 -6.0858903579655201e-03
      4.6592899010016739e-03 2.1755785142093345e-03
      4.1454136993375156e-03 -7.9329403519130433e-03
      7.6969932508515974e-03 5.1994370319093453e-03
      -5.8523110620953191e-03 -7.2832585795592217e-03
      6.4890357686934273e-03 -8.4050485443591810e-03
      6.5370298975538583e-03 5.3257195322345590e-03
      6.2073693198834868e-03 -5.0074145895792127e-03
      6.7153570509680864e-03 8.0114107319226562e-03
      8.2689509486881235e-03 -2.9866474241682212e-03
      4.7285115996313397e-03 -4.9692201173908938e-03
      3.2777103271041217e-03 7.3524800110279535e-03
      -3.9622728395042554e-03 -8.6513213336472921e-03
      4.2775123057069717e-03 8.8929296646850960e-03
      -5.4792026719367630e-03 -5.0657315066309555e-03
      6.6660283670763928e-03 5.3789362913689567e-03
      -5.1775669770751293e-04 4.9726846958234238e-03
      7.1835454093802896e-03 -6.0154396626518379e-03
      6.0800167131977714e-03 -7.6918794544501845e-03
      6.7302060260912610e-03 -5.0274353637975193e-03
      -7.1996846287258531e-03 -4.8975285959336765e-03
      3.6806543651771830e-03 -6.5064985318282649e-03
      -1.9082482610368885e-03 -7.7773206358611926e-03
      3.6555995198674241e-03 8.7890963404810060e-03
      -1.4164791093147875e-03 -9.1999423205659490e-04
      4.8860235237146062e-03 1.3123595018364764e-03
      3.0279611871890815e-03 6.1584345963620760e-03
      -5.1686877814404383e-03 3.0702888762224301e-03
      5.3683126954206747e-04 -3.9288987382754921e-03
      -1.4325922620914411e-03 -7.4184402400194888e-03
      3.4694296078420402e-03 -3.5092220563510087e-03
      -6.7371527133008764e-03 8.2245673294936341e-03
      3.6733157465453081e-03 1.8470516040940037e-03
      2.0450463193327321e-03 -1.1021315120817209e-03
      -8.0355408207820524e-03 1.7431339432746006e-04
      8.0313883050020015e-03 -8.5669726450599559e-03
      6.6940242603453735e-03 7.3074222585688148e-03
      -9.2003807335658380e-04 -1.2044365927962317e-03
      -2.2359512513019987e-03 -3.5023586044727996e-03
      -4.9926537066831119e-03 8.8234921136606612e-03
      6.4784258965136605e-03 1.3838949823328807e-03
      6.1467716508560024e-04 -6.8991503768691190e-03
      -4.6820032299324494e-04 7.6821182523521513e-03
      -1.1986619964934645e-03 8.3491829496117383e-03
      -1.6053778410953007e-03 5.4617761310166019e-03
      -2.2510969896400264e-03 8.4400256814830894e-04
      -7.2964549533376145e-03 6.9869806443973309e-03
      3.9031504099842876e-03 -1.8497314518111244e-03
      -2.1746342062697222e-03 -3.4702697885518525e-03
      1.5294606393699609e-03 5.6271406153429902e-03
      7.6731230428894077e-03 -2.3933858617714572e-03
      4.3750454377155055e-03 -2.6242669040817822e-03
      5.6366167640611387e-03 3.4664205568842613e-04
      8.8097205382203000e-03 -5.1506411618111227e-03
      -1.2140757334810348e-03 8.0430062897478578e-03
      7.0830828248579459e-03 6.5746798226865607e-04
      -6.2116939483591377e-03 6.0171655919792643e-04
      7.0194683752517022e-03 5.1556569130976849e-03
      3.3593053455988776e-03 1.9991818346401357e-03
      -7.0158257312866500e-03 -5.1422037720806474e-03
      5.9843616407022826e-03 -8.0676155715109546e-04
      -3.5047459370281032e-03 -6.9618763850358631e-03
      5.9298572581818979e-03 -3.4479804400998990e-03
      5.8016687255177894e-03 -2.9001571921430385e-03
      -3.9238911986749970e-04 -6.8958000519868052e-03
      -1.3248153179927884e-03 -1.6864766925427641e-04
      -7.0327010117195712e-03 7.8502474747455097e-03
      7.9055574644504925e-03 -7.4200875202083986e-03
      -3.4130004416492938e-03 6.5073854918292805e-03
      -5.2035898629004922e-03 1.7220249646730376e-03
      -1.5769359644374741e-03 4.3724792174573953e-03
      2.2686096470555099e-03 -8.7030718795919164e-03
      -7.5497833675465618e-03 -4.5948802366603449e-03
      -3.6766849604451244e-03 -2.0913619834812629e-03
      6.5550065122422212e-03 -4.6780112224272235e-03
      -3.6928202452193230e-03 7.7590266118798051e-03
      6.4203101311396341e-03 -5.6422606069982881e-03
      4.3709106109861102e-03 -8.8487891293288837e-03
      -5.2675875716459023e-03 -5.9091494960873351e-03
      -3.4260359393784006e-03 -1.5867706625142463e-03
      -4.4593847312690837e-03 3.5864569339500948e-03
      6.5434013086241929e-03 7.9504444222327896e-03
      7.7978531388798759e-03 3.0523676458401056e-03
      1.0192201379453964e-03 7.4209604428729175e-04
      6.8136145253531706e-03 6.5370567487349372e-03
      -2.7496689044649632e-03 -7.9285912527301636e-03
      6.2013736297303378e-03 5.7219116594732968e-03
      2.0553649018786274e-03 3.6842466937878466e-03
      7.6662406571674042e-03 1.6935086239876936e-04
      -8.8394064557906823e-03 -2.1182715940141717e-03
      -2.6122443274944705e-03 -6.5381718573759634e-03
      1.1034922703724308e-03 -4.7970523108182016e-04
      -4.7503305487009029e-03 -2.5595338816066546e-03
      3.9315970014536820e-03 5.6107559780294762e-03
      -7.7713362444740506e-03 -8.3182248006655485e-03
      -2.9599613299483431e-03 5.0641381928035155e-03
      1.4526868777593285e-03 5.1202570493780741e-03
      3.5746315768881549e-03 3.9253419977782807e-03
      -8.2687301895464785e-04 4.2433202637989238e-03
      6.4518046341522145e-03 -8.2459061567024747e-03
      -3.1116889578333765e-03 -5.7621460907366770e-03
      3.5344455385574979e-03 -7.1840756027045059e-03
      6.5983674369794890e-03 -8.8195422202936059e-03
      1.6854919325620045e-03 7.9020593116430927e-03
      3.1172218697209353e-03 -5.8789519538227303e-03
      3.4195050354448027e-03 -4.8153097716990461e-03
      9.1713711034083958e-03 -2.1801060005546338e-03
      -1.1928387119452006e-03 8.8516996156254182e-04
      -7.0176331318913942e-03 -1.8551089820539807e-03
      -2.4810787885725730e-03 4.0975091434215447e-03
      -3.4013267480745447e-03 4.1115795596628341e-03
      -6.9783108067881811e-03 -2.5625259376144218e-03
      -4.9297586863504377e-03 1.2725481829229423e-03
      -6.1816881066759262e-03 -5.6056521205829666e-04
      -2.5486713576487181e-03 1.5125286889739733e-03
      -5.5298179603873229e-03 -3.4944103600615677e-03
      2.3325751628458175e-03 -2.4902992039431437e-03
      6.7254247756527571e-03 -6.1887030789659200e-03
      3.2241741583618208e-03 -2.1649114696730598e-03
      -2.8520179054457289e-03 -5.6229264442701570e-04
      -4.1540941065729897e-03 -4.7243546554185901e-03
      -5.0026429325021517e-03 2.0286709429065560e-03
      -6.0250874740202937e-03 3.3573206762678074e-03
      -4.0316152598495409e-03 1.2584814756910268e-03
      -7.6925196935487333e-03 5.9364742440999622e-03
      6.2025941618324533e-03 -6.2120105769186782e-03
      5.3769390326870985e-03 -7.1968047055070965e-03
      1.1949489507696893e-03 4.2564232027060929e-03
      1.5112579365550447e-03 5.3866790682263418e-04
      7.7982878866889134e-03 2.6515904146292239e-03
      -8.6168981759487482e-03 -3.8683986694684337e-03
      -5.7358300803596720e-03 9.5377381489432237e-04
      1.1950047921956586e-03 3.9693070618599894e-03
      -9.1477790177954543e-04 -8.2020496884616621e-03
      8.4282905923168099e-03 2.1415047859244091e-03
      -6.2527431831080078e-03 -6.1930353799724515e-03
      5.8293342833617683e-03 5.5694288332306936e-04
      -7.4635341610343568e-03 4.6079118551266008e-04
      2.0624208153850920e-03 -6.1967653459837208e-03
      7.7126146106605347e-03 -1.4364654207169843e-03
      5.3312715703182720e-03 -3.9215720276072480e-03
      4.4742981153324734e-03 5.4841347199082527e-03
      6.4920712603235660e-03 -1.1284449383517645e-03
      5.9784848407442902e-03 4.9559106652041617e-03
      6.5324281420254642e-03 -1.8974011165346573e-03
      -5.7671604598118920e-03 5.2264425190656381e-04
      -8.7782806812939816e-04 -2.5639273593624796e-03
      -8.3840842491030854e-03 3.2823897262852905e-05
      1.7446104908080953e-03 -4.3778839584762957e-03
      7.6280060647203737e-03 7.4586360346377842e-03
      2.3408148079661737e-03 -6.7050734715150715e-03
      5.8423869062118701e-03 -5.8783889939786641e-03
      6.1635203029129131e-03 -1.5913658974243633e-03
      8.0672230000744128e-03 6.6036478704850163e-03
      -7.6961306329767663e-03 -7.2341391654097151e-03
      4.0622735017494291e-04 -4.3216693471424487e-03
      -8.8787052920847372e-03 -3.1387596261316418e-03
      2.3826713890359892e-04 -7.7326061091904869e-03
      6.6699225793397437e-03 8.6379313105687718e-03
      -8.7491884155015513e-03 4.3677397981881153e-03
      5.0806194665073967e-03 5.9697540584807566e-03
      -2.6894342247486586e-03 5.0829429954648286e-03
      -2.7780131801941068e-03 6.4374014553569567e-03
      -6.4517803836832066e-03 2.5471377721829973e-03
      -8.2440341658093655e-04 -8.4590583801448741e-03
      -4.6582262127116839e-03 -3.3489578206561169e-03
      -2.5099727908882868e-03 -3.2211028830084020e-04
      -1.7783141480798362e-03 -3.0612117754519325e-04
      5.2027657554374425e-03 2.4880577888760167e-03
      2.3691118625497804e-03 6.2499250559155681e-03
      8.0216741339405543e-03 -7.0735084140085503e-05
      4.7111090960468271e-04 7.6906324317238452e-03
      -6.2991698202071022e-03 7.4398130054041641e-03
      -8.3313069363241104e-03 -3.2792245292698617e-03
      -6.4813091247157284e-03 -1.8449607290262318e-03
      -4.5550360569190590e-03 2.3608628766991777e-03
      -7.3417114565510156e-03 -4.1900691611930895e-03
      -5.3234097187954167e-03 3.9978851723937179e-03
      2.8324306271580264e-03 2.1044548968335202e-03
      6.5823878553621703e-03 5.5410050133552578e-03
      3.3235718096846960e-03 -5.9654905233749731e-03
      -6.0777660026539162e-04 7.1951518885376561e-03
      -7.1744766078858076e-03 -3.1136104126826274e-03
      -5.7467285921256545e-03 -8.3108653329090490e-04
      3.9318730741506897e-03 8.6880594127334253e-03
      2.8396951947660407e-03 -2.3304719435469925e-03
      -4.5928801150644733e-03 -6.0012441531189014e-03
      -1.5495126045551293e-03 -7.0612636424388182e-03
      1.0264743588590129e-03 -3.3979616490308773e-03
      1.8031402582832923e-03 -1.1652969445499371e-03
      2.8479940255227013e-04 1.4729561470433873e-03
      5.9137430966144430e-03 2.3637731222939254e-03
      -2.0922993318427084e-03 -4.0416342871038248e-03
      5.1212752664561777e-04 -6.0248048093017714e-03
      4.1485882059910080e-03 5.6647887601233226e-04
      7.5373003870712165e-03 -5.2760168420532064e-03
      8.9697194630985431e-03 7.8478147009136137e-04
      -3.5808743251732611e-03 -8.5368993563282227e-03
      -7.3329758571906789e-03 -7.5490505454627842e-03
      -3.9909367946888517e-03 2.4289683430176131e-03
      -7.4042969795588926e-03 -4.8121131627720162e-03
      5.8588378665812429e-03 -1.1199850104767481e-03
      -3.2176593640610173e-03 -5.4459193869661020e-03
      -7.0640369907407482e-03 -8.2990403322464514e-03
      -1.1750616356753397e-03 7.9446973914213126e-03
      5.1026935181759233e-03 4.5131958779101779e-03
      1.6988321195623424e-03 -1.1155531281664699e-03
      -7.4034888467967436e-03 -1.8711915168064921e-04
      -4.6353413557037870e-03 7.0741712101951761e-03
      -3.0934510563167530e-03 -6.9591923660146911e-03
      3.5161114900009657e-03 -4.8161618160264090e-03
      4.1510679421183350e-04 4.4266791121189090e-03
      -6.6438372084427185e-03 -5.1643222970811792e-04
      6.1035250470188483e-03 -3.0098048295451331e-03
      -5.6659324535827194e-03 4.8888989947151506e-03
      -4.6760681314689124e-03 -5.7589407693346183e-03
      -8.3923399233266000e-06 -3.1484706965772850e-03
      -2.1507770592098826e-03 -7.9775471381932275e-03
      -6.0612344420956305e-03 -6.4037070858069230e-03
      7.8603503769454075e-03 6.5464108669853549e-03
      -5.6628354339588408e-03 4.7598944567728068e-03
      -8.2772667038876261e-04 2.3859279457301690e-03
      -4.7940956872181868e-03 -2.4411188951509728e-03
      8.2530150310274608e-03 6.0581180003566916e-03
      -1.1043666735795691e-03 5.3164131527794218e-03
      -4.3223358222678416e-03 -6.4439215121200825e-03
      7.1973937967423534e-03 2.6706185661869632e-03
      -7.6613971815961976e-03 -7.2199066042662099e-03
      4.9747599235002132e-04 -1.9509809857813202e-03
      -4.8566512783744581e-03 2.5246812142778463e-03
      -1.3512336218277927e-03 -7.6438642905590831e-03
      -3.8789153586087032e-03 1.3244265089301689e-03
      -1.6850310438648540e-04 8.6354395217032309e-03
      3.0811826146686545e-03 -4.6311808152593456e-03
      7.1440449784853860e-03 4.7206783192995082e-04
      4.8896267938213500e-03 7.4832802774999563e-03
      -4.9248821309426640e-03 -1.2539428647114826e-03
      -1.6040398819339051e-03 -6.8321989214968420e-04
      -2.4289245431592002e-05 -4.2161196577701881e-04
      1.2942391038687516e-04 6.1375415571025480e-03
      5.2153830963339743e-03 6.1221700934881423e-03
      7.2555844436895936e-03 -6.4177871883546690e-03
      -2.9393918917337588e-03 6.6465865476025400e-03
      3.1559611180180672e-03 9.3457936136986353e-05
      -5.9213317962382873e-03 -2.3196295379750647e-04
      -1.1578001513556056e-03 4.3000409339736673e-03
      6.9806183882711540e-03 8.2703159402550928e-03
      -3.7506762572800612e-04 5.8864394783675663e-03
      7.5601312461727101e-03 -5.9654262217540962e-03
      -6.8733057573537905e-03 7.2927042232480638e-04
      3.8191482087800532e-03 4.7957371716042477e-03
      5.4295106153364461e-03 -4.7390329613181386e-03
      7.5598499280035390e-03 4.5369849752124585e-03
      3.0306764695449918e-03 3.3879695705167157e-03
      -3.9526418962079653e-03 -5.1803651064489262e-03
      -4.7310157163156360e-03 -7.3240561708474280e-03
      6.8722804121502633e-03 4.1395313022805401e-03
      2.7285288254730327e-05 -6.6462399750727699e-03
      -5.6886330808027978e-03 -2.4058012630594062e-03
      5.7803575519643916e-03 -1.9527871293234086e-03
      1.8814180530244734e-03 8.2016890083399015e-03
      -6.6414030343996859e-03 6.4995760430839895e-03
      4.1852922945444402e-03 7.0722925131492306e-03
      -7.6203250768641434e-03 2.2039781637747113e-03
      7.5945433155272775e-03 2.6249150453303378e-03
      6.1192925306511386e-03 2.5736737988289959e-03
      -6.9005677025363405e-03 -7.7250103545363855e-03
      -4.6535602474829347e-04 -4.2441688888757243e-03
      8.0224151944874138e-03 3.2041423923958845e-03
      -1.8214351152300141e-03 -5.9065953695050409e-03
      -6.9580292110515227e-03 1.1997261707155963e-03
      4.5047394169221823e-03 -5.5628851143207220e-04
      -2.8917272606337149e-03 -1.5318258757605766e-03
      2.2159897996004299e-03 -7.5606557362667389e-03
      -8.2357136725612137e-03 -7.5202120414909097e-03
      8.7477860723593048e-03 -3.8941483871206156e-03
      8.2835798208165633e-03 2.1829291964149400e-03
      4.8825977276087344e-03 3.2040018875661952e-03
      -5.7863515175356388e-03 6.2957833596438964e-03
      -6.4220914041578163e-05 6.5524317537936638e-03
      2.5422964853130670e-04 4.7701330484804802e-03
      -7.9835327705967101e-04 4.0242867116551699e-03
      -7.2462798753896943e-03 3.9529452897371538e-03
      -2.3643262412707416e-03 -3.3525459993773120e-03
      -2.3006119053816218e-03 4.8048063632346438e-03
      8.9407007081679229e-03 1.3631025100677365e-03
      -2.6533824923630350e-03 -4.3447352060769547e-03
      -3.2517110611442941e-03 1.5511462716664450e-03
      -6.0742371778747181e-03 -2.8120642546266244e-03
      3.5942038297667425e-03 -2.7162088018542745e-04
      -1.5428150591346495e-03 5.4453826672569913e-03
      -9.4694820574303118e-03 7.9802716996265465e-03
      8.1433304027734507e-03 -3.6949849819117799e-03
      6.7686311716980930e-03 6.2523093655474146e-03
      -7.9630112242801317e-03 -3.9316850527227436e-03
      -4.0564216044904934e-03 1.9135152742856387e-03
      -3.1927968886747773e-03 -5.4433588539833022e-03
      -8.0349848977609977e-03 -2.6787086226862096e-03
      3.7237582435995851e-03 -2.6551651853019258e-03
      -1.5831278097318355e-03 2.9065918037332814e-03
      -6.5307988021340571e-03 3.4219694334738835e-03
      -6.2102665704476803e-03 3.1022906306620301e-03
      -4.7778945682691578e-03 -2.6095806563214891e-03
      -8.9264173902605746e-03 8.2159000202353394e-03
      1.0827732000776985e-03 -2.5578125180450609e-03
      -6.1145304936680240e-03 -3.2132331761882188e-03
      -6.8873157562098835e-03 1.3072326871010906e-03
      2.7003404136605826e-03 -8.4464154487573218e-03
      2.5117060854216655e-05 -2.1944361640115454e-03
      3.8984172629673900e-03 -9.3056416394945388e-03
      -1.5830886473620936e-04 8.6562521420758837e-04
      3.2227942154322664e-03 6.6468860060406075e-03
      6.1970336897627129e-04 -4.5067972834649831e-03
      3.2284812212018542e-03 -2.4510838823182447e-03
      -1.2249928957523699e-03 4.1835157143435544e-03
      3.3214491636408545e-03 1.2300545232491076e-03
      5.2878496823821420e-03 -5.2133095417948747e-05
      -7.7614115744421451e-03 2.6113789764358165e-03
      -8.2965863289645239e-03 6.7438899007213242e-03
      1.3163420716968443e-03 -5.9157493115713118e-03
      8.0458536711934155e-03 1.9173089402874217e-03
      5.8940938203962887e-03 -5.0144212937880744e-03
      -7.1510348754548472e-03 7.8112842275374931e-03
      4.3427624771265891e-03 2.9033454416009588e-03
      -4.0092082620171157e-03 4.4140388954135379e-03
      5.7923585673749197e-03 2.5209434549927513e-03
      -7.2872429845931047e-04 -4.3778019371663642e-03
      8.0441083341305196e-03 4.2388365897497683e-03
      -1.4071869293914984e-03 6.2833028523652454e-03
      4.4967558495968211e-04 1.7921642741255135e-03
      -1.9180066168077040e-04 -7.1930872680099874e-03
      -6.1091362124174819e-05 -2.2576971293244855e-03
      7.6821976976298931e-03 -2.2458710862978200e-03
      -5.0474011402244605e-03 -3.9472948204783151e-03
      6.0015364421846682e-03 8.3505294777986346e-03
      5.7306586376936674e-03 -4.5437849798048973e-03
      -3.7576536666361214e-03 -5.5316951005158965e-03
      9.2654423918047193e-03 4.0287202030767468e-03
      7.6264515484260999e-03 -3.9366427706665234e-03
      -6.6129172392938442e-05 -2.0722598744877551e-03
      1.0669046789810142e-04 -3.7265529371024412e-04
      7.6696620837580012e-03 -8.6693499832578153e-03
      -7.5941255145412674e-03 7.4772054493213785e-03
      8.5346668717060353e-03 7.8892615655010035e-03
      8.4927767139149641e-03 3.9471738192170579e-03
      -2.7969984309722902e-03 -2.7512078521273885e-03
      -5.0209648910416911e-03 1.9225107883745255e-03
      -5.4578191796693584e-03 3.9146354891417883e-03
      -4.1109209433081596e-03 -1.3692366091116208e-03
      -2.9714149226391872e-03 -3.3319558523999624e-03
      -6.0928002628451777e-03 -6.1463353745533651e-03
      -1.1466613550215811e-03 9.6833998977423515e-04
      8.0938781296202422e-03 -2.9890184546282582e-03
      6.6437676807223544e-03 5.5647822253036133e-03
      -7.2680583189499628e-03 -5.5640723079767316e-03
      -2.8938541769070953e-03 -7.8553199643820286e-03
      -2.6775597280645261e-03 -5.1930013194450130e-03
      8.5532293099595067e-03 -2.0099831305651875e-03
      -3.6290915567073652e-03 2.7225096602661418e-03
      -5.8411271640374154e-03 2.5520742693557240e-03
      -4.5170740314123816e-03 -1.0895676959325900e-03
      -7.2131734605099121e-04 7.5558527634667846e-03
      7.8407761178984920e-03 -5.8109369676236696e-03
      1.1397899520298037e-04 -7.7630243715880881e-04
      -8.3001100117547765e-04 -4.0561032604403665e-03
      -5.2433265449427944e-03 -1.2759518541767937e-03
      4.5118373044346861e-03 3.8041717064678433e-03
      5.1379190675069691e-03 -3.6431890556504372e-03
      7.3044834446171587e-03 -2.9893379340975340e-04
      5.5608244559497318e-03 -7.8627237637820362e-03
      3.9291496350147672e-03 1.8193824950897299e-03
      -2.3147733160450703e-03 1.6364667315315097e-03
      7.8701622531235620e-03 6.9886462018409670e-03
      5.7209170685051771e-03 6.2929669031158326e-03
      -2.8938072223751105e-03 -7.6451328102508714e-03
      2.1001136550777722e-03 -6.6967643136141173e-03
      6.4229758044641134e-03 7.1627380606166203e-03
      2.8814592856260392e-03 7.1839063754610809e-04
      -6.4388588875105967e-03 8.2774958987820394e-03
      5.4244382771622057e-03 8.8421528931581332e-03
      -3.3239868327023959e-03 -4.8578715523488094e-04
      -9.8145531236314403e-04 -2.1185709030006926e-03
      5.7072030901216802e-03 7.8670250086333559e-03
      8.4599431405436142e-03 5.5350697359165891e-03
      2.9228642927981072e-03 -4.8261258412468915e-04
      2.8099254084027235e-03 -4.5384003632193657e-04
      7.4973067044555213e-03 -3.0040221120216626e-03
      -2.9984521874831162e-03 -2.6923825338599828e-03
      5.6816674679525773e-03 2.0762446782231648e-03
      5.1104468850378974e-03 1.9798281586846838e-03
      -6.1492442896735116e-03 8.4400408422294886e-03
      6.6495149714039907e-03 1.6448029749990306e-03
      3.7771339146017602e-04 -4.3508603238452247e-03
      -4.4776118817636658e-03 -4.1614175921247743e-03
      -6.7716971597314643e-03 4.3749761821495897e-03
      -8.1486374298875373e-03 1.2613844383762417e-03
      8.7005315272837627e-03 -3.5950589618519630e-03
      4.8666968470265654e-03 4.7868133238080099e-03
      1.6746338587552774e-03 5.9746250867521392e-03
      2.7435725797788856e-03 -7.3351839256400710e-03
      8.1527629661365154e-03 7.6284349090333121e-03
      -3.6860016734861724e-04 3.1365837574725951e-03
      8.2165412352503894e-03 -7.1813993076276714e-03
      -3.7368534203201524e-03 -4.0484497402010974e-03
      -8.1812875223559872e-03 6.8934909069994447e-03
      1.1342731825249070e-03 1.8377158776975294e-03
      7.7270520362751616e-03 7.4893924827378290e-03
      3.8404414056582028e-03 -1.3683359029044667e-03
      6.6574637412883568e-03 1.8062990640067553e-03
      3.6659813550046047e-03 3.6442547965108390e-03
      3.6307441613370184e-03 4.9465974506718042e-04
      3.5766357410060949e-03 -4.0210170842713087e-03
      -3.0785817909390798e-03 5.5239970563726957e-03
      2.9870864295588554e-03 -2.5931469664558257e-03
      -6.4383902025930365e-03 -4.8093878996964372e-03
      -4.2156249984873790e-03 -8.0540362314694795e-03
      3.6099389265765200e-03 4.8486144716528030e-03
      -6.4924993863424204e-03 -6.1235261962363195e-03
      -4.3959552417684403e-03 3.8452477798192443e-03
      4.3389022912038817e-03 3.7605271110554110e-03
      7.5607164470003754e-03 -4.7654634654697063e-03
      -3.0803842315752835e-03 8.0544724226282050e-03
      -8.1789820202566674e-03 4.9011503443549293e-04
      -3.2533711841032918e-03 2.2447036154959643e-03
      8.3566831433035567e-03 8.5354945984793124e-03
      8.0098252543117348e-03 8.1322782152259600e-03
      -4.3023992351414238e-03 7.4017657733709188e-03
      -8.1115043005872758e-03 -7.0717154498413839e-03
      6.0848560393829600e-03 -1.0198084023528243e-03
      4.6349659289047955e-03 -7.4647583764740153e-03
      -3.2472114862813890e-06 7.5179205285032741e-03
      -8.4941477828038136e-03 -5.5941645018913449e-03
      5.2768318147869021e-03 -7.5931923249831024e-03
      -7.2484731253461693e-03 -3.6452320372933355e-03
      -4.6181004180400644e-03 7.8130285271670631e-03
      3.2516460626966595e-03 -5.5105405193702148e-03
      -3.8435776836923067e-03 -5.8991480791905837e-03
      -4.6483035495607208e-04 -2.2195228686285717e-03
      -6.1547811645444673e-03 -1.1255413825680307e-03
      -1.6196029171772976e-03 5.7106343104625914e-04
      -3.9410449207199719e-03 2.5176103457508186e-03
      -9.1654348443844931e-05 -1.9749992148488621e-03
      -1.6007616537343271e-03 -5.2096017029974401e-03
      5.4758889222532216e-03 7.9392293927284200e-03
      3.1369654391945633e-03 1.6229932893579273e-03
      -7.9202006551861194e-03 -6.5301209574545023e-03
      5.7373714050618354e-03 -4.2921503773911953e-03
      2.7669653460612289e-03 2.2810753931139407e-03
      -5.4397616634190894e-04 2.1339272575053927e-03
      8.1806154414179669e-03 -8.3198387178703738e-03
      -8.1606999530396348e-05 -5.0679416611869987e-03
      2.0688157649198491e-04 -6.9868406814678936e-03
      6.5246714787476345e-03 -7.4987246627743614e-03
      -3.7464177836105282e-03 -3.2605811718178991e-03
      6.1358922535407054e-03 7.7525456693298654e-03
      4.9730754978089950e-03 -3.4851244274870857e-03
      -8.1626952934315024e-03 5.5866447845917136e-03
      -6.8514192313351907e-04 -6.6976723093373890e-03
      -8.4375886072880508e-03 3.4251748300950825e-03
      -5.0239713931092026e-03 7.5935974077404808e-03
      -1.9819053032699538e-03 -6.3380327364293875e-03
      7.5009498310384080e-03 -7.4673578287027670e-03
      2.0886186321715785e-03 3.7518695350548432e-04
      8.7383418731390421e-03 -7.6969822904894196e-03
      5.0262082339008118e-03 -5.8717320316748842e-03
      -1.1788858266591122e-03 4.2493249729908993e-03
      2.8233897284911935e-03 -6.8633025440900308e-03
      4.1928996860175378e-03 3.8229455555670784e-03
      -4.9603944052768311e-03 7.6459403856432044e-03
      -3.9377800545754901e-03 -6.7624712743962201e-03
      4.1054611488425983e-03 -4.3585649228004408e-03
      4.3996577311214025e-03 5.1380596302846599e-04
      4.7013697104392226e-03 5.9302026899620648e-03
      -4.8366858626423754e-03 -7.3301529461522914e-03
      5.1338608703390019e-03 2.1143001849362039e-03
      -3.4849587165644569e-03 -3.8799012792485616e-03
      3.9940982801282242e-03 6.8081324308814284e-03
      6.6013199058925550e-03 -4.6254426751343464e-03
      -8.2253219452870351e-03 3.6036843233900420e-03
      -5.7712597042838439e-03 4.1312851762379975e-03
      -7.9673891010910974e-03 -4.1664138322332440e-03
      -2.0081813187544598e-03 3.1660591231625582e-04
      -5.6398036100278621e-03 -2.4089384073692956e-03
      6.6166082944420831e-03 -3.9489114181979115e-03
      5.4277823949917753e-03 -3.8164492390369790e-03
      4.9918938134260018e-03 -5.7420695946939528e-03
      2.5184893054689479e-03 -4.4923653243231177e-03
      7.0029702165861039e-03 -8.2412054837836708e-03
      1.8481691167714831e-03 4.4539402056232892e-03
      -3.7505701122399473e-03 1.1261211539320753e-03
      3.9194721880578666e-04 6.9400886028749267e-03
      -5.9705054899912811e-03 5.4502738280613775e-03
      -1.5578482229866473e-03 8.4194019921681965e-03
      -7.7887087616804410e-03 -1.4921010779905162e-03
      -5.1216335077906364e-03 2.4269858893833569e-03
      2.4247116272986097e-03 -6.3988123947275061e-03
      8.3787822886651191e-03 5.9873943857002340e-03
      5.5255347505565712e-03 -6.6157779795525753e-04
      5.6677136840707822e-03 -4.6304831977374527e-04
      8.7475926822722944e-03 6.0504551153897695e-03
      9.0958507177153428e-03 4.3791217271307495e-04
      9.1366780058341774e-03 -3.4101631519050518e-03
      5.0984527488884398e-03 -8.4345873346883087e-03
      -2.0195472224570441e-03 -7.9243803232015870e-03
      6.1139437635630654e-03 3.8465708281139013e-03
      2.5984992261173776e-03 2.8969575293745198e-03
      -8.5249182255339451e-03 5.1317429197355012e-03
      -5.7091294900121835e-04 3.9201681876435446e-04
      7.8091878111418624e-03 9.0157378010731308e-03
      3.5168409170878824e-03 4.8677677268318424e-03
      -8.5880752894375370e-03 4.9126723163695468e-03
      -4.8268992081515055e-03 -3.6841772898074496e-03
      -4.0035820108384641e-03 -7.3549730429786631e-03
      -5.0046642468591597e-03 -6.5731610574857827e-03
      4.1261754834385819e-03 4.9317362623308948e-03
      3.0141181587686858e-03 1.9915393270158550e-03
      2.4669988399654861e-04 -2.4507526922389893e-03
      -3.4941022754212256e-03 4.6253735569963513e-03
      -5.8937318783527258e-03 -2.2443416366132608e-03
      -5.3046113060335430e-03 5.8619819613756844e-03
      8.4798185658498827e-03 3.5247324212690613e-03
      -6.9575529101274557e-03 2.5260762673153564e-03
      -9.7182745784707962e-05 -8.4832383510450408e-03
      -2.0763685370537147e-03 -2.1380513562876966e-03
      -4.7628925605475679e-03 6.8463994772102515e-04
      3.5325756512618171e-03 -4.6138705798984712e-03
      -1.2498064735870004e-03 -7.8638599921835133e-03
      1.5893549882535873e-03 -6.7520332292734710e-03
      -5.3767503090279825e-03 -5.7442449364937609e-03
      -5.3712911336564187e-03 1.5837823801786836e-03
      1.9689081490476684e-03 -6.1117435195530163e-04
      6.9941172653044384e-03 5.0044926221003653e-03
      -1.9790599196955111e-04 -2.3442720062360088e-03
      -3.3047778201427194e-03 -3.9006819590341672e-03
      -3.4870598098952032e-03 -6.0172655027448058e-03
      -1.8543676241203609e-03 5.0091836581183571e-03
      -4.5968004150397012e-03 -3.7767805008074931e-03
      -2.7541274803277401e-03 5.8647728391173016e-03
      -2.7173368600441126e-03 -1.9639137875917885e-03
      7.0578388228017324e-03 -3.8229405464301198e-03
      6.6617265543790632e-03 1.4864218848225045e-03
      7.6302267401023539e-03 1.7498285554241402e-03
      5.8731452703822563e-03 -3.3788881136204746e-03
      3.6544062670526060e-03 -7.7180497072481978e-03
      2.9388487747256239e-03 4.0555013745556725e-03
