<?xml version="1.0"?>
<opencv_storage>
<opencv_ml_boost>
  <format>3</format>
  <is_classifier>1</is_classifier>
  <var_all>1451</var_all>
  <var_count>1450</var_count>
  <ord_var_count>1450</ord_var_count>
  <cat_var_count>1</cat_var_count>
  <training_params>
    <boosting_type>DiscreteAdaboost</boosting_type>
    <use_surrogates>0</use_surrogates>
    <max_categories>10</max_categories>
    <regression_accuracy>9.9999997764825821e-03</regression_accuracy>
    <max_depth>5</max_depth>
    <min_sample_count>10</min_sample_count>
    <cross_validation_folds>0</cross_validation_folds>
    <weight_trimming_rate>9.4999999999999996e-01</weight_trimming_rate></training_params>
  <global_var_idx>1</global_var_idx>
  <var_idx>
    0 1 2 3 4 5 6 7 8 9 10 11 12 13 14 15 16 17 18 19 20 21 22 23 24 25
    26 27 28 29 30 31 32 33 34 35 36 37 38 39 40 41 42 43 44 45 46 47 48
    49 50 51 52 53 54 55 56 57 58 59 60 61 62 63 64 65 66 67 68 69 70 71
    72 73 74 75 76 77 78 79 80 81 82 83 84 85 86 87 88 89 90 91 92 93 94
    95 96 97 98 99 100 101 102 103 104 105 106 107 108 109 110 111 112
    113 114 115 116 117 118 119 120 121 122 123 124 125 126 127 128 129
    130 131 132 133 134 135 136 137 138 139 140 141 142 143 144 145 146
    147 148 149 150 151 152 153 154 155 156 157 158 159 160 161 162 163
    164 165 166 167 168 169 170 171 172 173 174 175 176 177 178 179 180
    181 182 183 184 185 186 187 188 189 190 191 192 193 194 195 196 197
    198 199 200 201 202 203 204 205 206 207 208 209 210 211 212 213 214
    215 216 217 218 219 220 221 222 223 224 225 226 227 228 229 230 231
    232 233 234 235 236 237 238 239 240 241 242 243 244 245 246 247 248
    249 250 251 252 253 254 255 256 257 258 259 260 261 262 263 264 265
    266 267 268 269 270 271 272 273 274 275 276 277 278 279 280 281 282
    283 284 285 286 287 288 289 290 291 292 293 294 295 296 297 298 299
    300 301 302 303 304 305 306 307 308 309 310 311 312 313 314 315 316
    317 318 319 320 321 322 323 324 325 326 327 328 329 330 331 332 333
    334 335 336 337 338 339 340 341 342 343 344 345 346 347 348 349 350
    351 352 353 354 355 356 357 358 359 360 361 362 363 364 365 366 367
    368 369 370 371 372 373 374 375 376 377 378 379 380 381 382 383 384
    385 386 387 388 389 390 391 392 393 394 395 396 397 398 399 400 401
    402 403 404 405 406 407 408 409 410 411 412 413 414 415 416 417 418
    419 420 421 422 423 424 425 426 427 428 429 430 431 432 433 434 435
    436 437 438 439 440 441 442 443 444 445 446 447 448 449 450 451 452
    453 454 455 456 457 458 459 460 461 462 463 464 465 466 467 468 469
    470 471 472 473 474 475 476 477 478 479 480 481 482 483 484 485 486
    487 488 489 490 491 492 493 494 495 496 497 498 499 500 501 502 503
    504 505 506 507 508 509 510 511 512 513 514 515 516 517 518 519 520
    521 522 523 524 525 526 527 528 529 530 531 532 533 534 535 536 537
    538 539 540 541 542 543 544 545 546 547 548 549 550 551 552 553 554
    555 556 557 558 559 560 561 562 563 564 565 566 567 568 569 570 571
    572 573 574 575 576 577 578 579 580 581 582 583 584 585 586 587 588
    589 590 591 592 593 594 595 596 597 598 599 600 601 602 603 604 605
    606 607 608 609 610 611 612 613 614 615 616 617 618 619 620 621 622
    623 624 625 626 627 628 629 630 631 632 633 634 635 636 637 638 639
    640 641 642 643 644 645 646 647 648 649 650 651 652 653 654 655 656
    657 658 659 660 661 662 663 664 665 666 667 668 669 670 671 672 673
    674 675 676 677 678 679 680 681 682 683 684 685 686 687 688 689 690
    691 692 693 694 695 696 697 698 699 700 701 702 703 704 705 706 707
    708 709 710 711 712 713 714 715 716 717 718 719 720 721 722 723 724
    725 726 727 728 729 730 731 732 733 734 735 736 737 738 739 740 741
    742 743 744 745 746 747 748 749 750 751 752 753 754 755 756 757 758
    759 760 761 762 763 764 765 766 767 768 769 770 771 772 773 774 775
    776 777 778 779 780 781 782 783 784 785 786 787 788 789 790 791 792
    793 794 795 796 797 798 799 800 801 802 803 804 805 806 807 808 809
    810 811 812 813 814 815 816 817 818 819 820 821 822 823 824 825 826
    827 828 829 830 831 832 833 834 835 836 837 838 839 840 841 842 843
    844 845 846 847 848 849 850 851 852 853 854 855 856 857 858 859 860
    861 862 863 864 865 866 867 868 869 870 871 872 873 874 875 876 877
    878 879 880 881 882 883 884 885 886 887 888 889 890 891 892 893 894
    895 896 897 898 899 900 901 902 903 904 905 906 907 908 909 910 911
    912 913 914 915 916 917 918 919 920 921 922 923 924 925 926 927 928
    929 930 931 932 933 934 935 936 937 938 939 940 941 942 943 944 945
    946 947 948 949 950 951 952 953 954 955 956 957 958 959 960 961 962
    963 964 965 966 967 968 969 970 971 972 973 974 975 976 977 978 979
    980 981 982 983 984 985 986 987 988 989 990 991 992 993 994 995 996
    997 998 999 1000 1001 1002 1003 1004 1005 1006 1007 1008 1009 1010
    1011 1012 1013 1014 1015 1016 1017 1018 1019 1020 1021 1022 1023
    1024 1025 1026 1027 1028 1029 1030 1031 1032 1033 1034 1035 1036
    1037 1038 1039 1040 1041 1042 1043 1044 1045 1046 1047 1048 1049
    1050 1051 1052 1053 1054 1055 1056 1057 1058 1059 1060 1061 1062
    1063 1064 1065 1066 1067 1068 1069 1070 1071 1072 1073 1074 1075
    1076 1077 1078 1079 1080 1081 1082 1083 1084 1085 1086 1087 1088
    1089 1090 1091 1092 1093 1094 1095 1096 1097 1098 1099 1100 1101
    1102 1103 1104 1105 1106 1107 1108 1109 1110 1111 1112 1113 1114
    1115 1116 1117 1118 1119 1120 1121 1122 1123 1124 1125 1126 1127
    1128 1129 1130 1131 1132 1133 1134 1135 1136 1137 1138 1139 1140
    1141 1142 1143 1144 1145 1146 1147 1148 1149 1150 1151 1152 1153
    1154 1155 1156 1157 1158 1159 1160 1161 1162 1163 1164 1165 1166
    1167 1168 1169 1170 1171 1172 1173 1174 1175 1176 1177 1178 1179
    1180 1181 1182 1183 1184 1185 1186 1187 1188 1189 1190 1191 1192
    1193 1194 1195 1196 1197 1198 1199 1200 1201 1202 1203 1204 1205
    1206 1207 1208 1209 1210 1211 1212 1213 1214 1215 1216 1217 1218
    1219 1220 1221 1222 1223 1224 1225 1226 1227 1228 1229 1230 1231
    1232 1233 1234 1235 1236 1237 1238 1239 1240 1241 1242 1243 1244
    1245 1246 1247 1248 1249 1250 1251 1252 1253 1254 1255 1256 1257
    1258 1259 1260 1261 1262 1263 1264 1265 1266 1267 1268 1269 1270
    1271 1272 1273 1274 1275 1276 1277 1278 1279 1280 1281 1282 1283
    1284 1285 1286 1287 1288 1289 1290 1291 1292 1293 1294 1295 1296
    1297 1298 1299 1300 1301 1302 1303 1304 1305 1306 1307 1308 1309
    1310 1311 1312 1313 1314 1315 1316 1317 1318 1319 1320 1321 1322
    1323 1324 1325 1326 1327 1328 1329 1330 1331 1332 1333 1334 1335
    1336 1337 1338 1339 1340 1341 1342 1343 1344 1345 1346 1347 1348
    1349 1350 1351 1352 1353 1354 1355 1356 1357 1358 1359 1360 1361
    1362 1363 1364 1365 1366 1367 1368 1369 1370 1371 1372 1373 1374
    1375 1376 1377 1378 1379 1380 1381 1382 1383 1384 1385 1386 1387
    1388 1389 1390 1391 1392 1393 1394 1395 1396 1397 1398 1399 1400
    1401 1402 1403 1404 1405 1406 1407 1408 1409 1410 1411 1412 1413
    1414 1415 1416 1417 1418 1419 1420 1421 1422 1423 1424 1425 1426
    1427 1428 1429 1430 1431 1432 1433 1434 1435 1436 1437 1438 1439
    1440 1441 1442 1443 1444 1445 1446 1447 1448 1449</var_idx>
  <var_type>
    0 0 0 0 0 0 0 0 0 0 0 0 0 0 0 0 0 0 0 0 0 0 0 0 0 0 0 0 0 0 0 0 0 0
    0 0 0 0 0 0 0 0 0 0 0 0 0 0 0 0 0 0 0 0 0 0 0 0 0 0 0 0 0 0 0 0 0 0
    0 0 0 0 0 0 0 0 0 0 0 0 0 0 0 0 0 0 0 0 0 0 0 0 0 0 0 0 0 0 0 0 0 0
    0 0 0 0 0 0 0 0 0 0 0 0 0 0 0 0 0 0 0 0 0 0 0 0 0 0 0 0 0 0 0 0 0 0
    0 0 0 0 0 0 0 0 0 0 0 0 0 0 0 0 0 0 0 0 0 0 0 0 0 0 0 0 0 0 0 0 0 0
    0 0 0 0 0 0 0 0 0 0 0 0 0 0 0 0 0 0 0 0 0 0 0 0 0 0 0 0 0 0 0 0 0 0
    0 0 0 0 0 0 0 0 0 0 0 0 0 0 0 0 0 0 0 0 0 0 0 0 0 0 0 0 0 0 0 0 0 0
    0 0 0 0 0 0 0 0 0 0 0 0 0 0 0 0 0 0 0 0 0 0 0 0 0 0 0 0 0 0 0 0 0 0
    0 0 0 0 0 0 0 0 0 0 0 0 0 0 0 0 0 0 0 0 0 0 0 0 0 0 0 0 0 0 0 0 0 0
    0 0 0 0 0 0 0 0 0 0 0 0 0 0 0 0 0 0 0 0 0 0 0 0 0 0 0 0 0 0 0 0 0 0
    0 0 0 0 0 0 0 0 0 0 0 0 0 0 0 0 0 0 0 0 0 0 0 0 0 0 0 0 0 0 0 0 0 0
    0 0 0 0 0 0 0 0 0 0 0 0 0 0 0 0 0 0 0 0 0 0 0 0 0 0 0 0 0 0 0 0 0 0
    0 0 0 0 0 0 0 0 0 0 0 0 0 0 0 0 0 0 0 0 0 0 0 0 0 0 0 0 0 0 0 0 0 0
    0 0 0 0 0 0 0 0 0 0 0 0 0 0 0 0 0 0 0 0 0 0 0 0 0 0 0 0 0 0 0 0 0 0
    0 0 0 0 0 0 0 0 0 0 0 0 0 0 0 0 0 0 0 0 0 0 0 0 0 0 0 0 0 0 0 0 0 0
    0 0 0 0 0 0 0 0 0 0 0 0 0 0 0 0 0 0 0 0 0 0 0 0 0 0 0 0 0 0 0 0 0 0
    0 0 0 0 0 0 0 0 0 0 0 0 0 0 0 0 0 0 0 0 0 0 0 0 0 0 0 0 0 0 0 0 0 0
    0 0 0 0 0 0 0 0 0 0 0 0 0 0 0 0 0 0 0 0 0 0 0 0 0 0 0 0 0 0 0 0 0 0
    0 0 0 0 0 0 0 0 0 0 0 0 0 0 0 0 0 0 0 0 0 0 0 0 0 0 0 0 0 0 0 0 0 0
    0 0 0 0 0 0 0 0 0 0 0 0 0 0 0 0 0 0 0 0 0 0 0 0 0 0 0 0 0 0 0 0 0 0
    0 0 0 0 0 0 0 0 0 0 0 0 0 0 0 0 0 0 0 0 0 0 0 0 0 0 0 0 0 0 0 0 0 0
    0 0 0 0 0 0 0 0 0 0 0 0 0 0 0 0 0 0 0 0 0 0 0 0 0 0 0 0 0 0 0 0 0 0
    0 0 0 0 0 0 0 0 0 0 0 0 0 0 0 0 0 0 0 0 0 0 0 0 0 0 0 0 0 0 0 0 0 0
    0 0 0 0 0 0 0 0 0 0 0 0 0 0 0 0 0 0 0 0 0 0 0 0 0 0 0 0 0 0 0 0 0 0
    0 0 0 0 0 0 0 0 0 0 0 0 0 0 0 0 0 0 0 0 0 0 0 0 0 0 0 0 0 0 0 0 0 0
    0 0 0 0 0 0 0 0 0 0 0 0 0 0 0 0 0 0 0 0 0 0 0 0 0 0 0 0 0 0 0 0 0 0
    0 0 0 0 0 0 0 0 0 0 0 0 0 0 0 0 0 0 0 0 0 0 0 0 0 0 0 0 0 0 0 0 0 0
    0 0 0 0 0 0 0 0 0 0 0 0 0 0 0 0 0 0 0 0 0 0 0 0 0 0 0 0 0 0 0 0 0 0
    0 0 0 0 0 0 0 0 0 0 0 0 0 0 0 0 0 0 0 0 0 0 0 0 0 0 0 0 0 0 0 0 0 0
    0 0 0 0 0 0 0 0 0 0 0 0 0 0 0 0 0 0 0 0 0 0 0 0 0 0 0 0 0 0 0 0 0 0
    0 0 0 0 0 0 0 0 0 0 0 0 0 0 0 0 0 0 0 0 0 0 0 0 0 0 0 0 0 0 0 0 0 0
    0 0 0 0 0 0 0 0 0 0 0 0 0 0 0 0 0 0 0 0 0 0 0 0 0 0 0 0 0 0 0 0 0 0
    0 0 0 0 0 0 0 0 0 0 0 0 0 0 0 0 0 0 0 0 0 0 0 0 0 0 0 0 0 0 0 0 0 0
    0 0 0 0 0 0 0 0 0 0 0 0 0 0 0 0 0 0 0 0 0 0 0 0 0 0 0 0 0 0 0 0 0 0
    0 0 0 0 0 0 0 0 0 0 0 0 0 0 0 0 0 0 0 0 0 0 0 0 0 0 0 0 0 0 0 0 0 0
    0 0 0 0 0 0 0 0 0 0 0 0 0 0 0 0 0 0 0 0 0 0 0 0 0 0 0 0 0 0 0 0 0 0
    0 0 0 0 0 0 0 0 0 0 0 0 0 0 0 0 0 0 0 0 0 0 0 0 0 0 0 0 0 0 0 0 0 0
    0 0 0 0 0 0 0 0 0 0 0 0 0 0 0 0 0 0 0 0 0 0 0 0 0 0 0 0 0 0 0 0 0 0
    0 0 0 0 0 0 0 0 0 0 0 0 0 0 0 0 0 0 0 0 0 0 0 0 0 0 0 0 0 0 0 0 0 0
    0 0 0 0 0 0 0 0 0 0 0 0 0 0 0 0 0 0 0 0 0 0 0 0 0 0 0 0 0 0 0 0 0 0
    0 0 0 0 0 0 0 0 0 0 0 0 0 0 0 0 0 0 0 0 0 0 0 0 0 0 0 0 0 0 0 0 0 0
    0 0 0 0 0 0 0 0 0 0 0 0 0 0 0 0 0 0 0 0 0 0 0 0 0 0 0 0 0 0 0 0 0 0
    0 0 0 0 0 0 0 0 0 0 0 0 0 0 0 0 0 0 0 0 0 0 1</var_type>
  <cat_ofs>
    0 0 0 0 0 0 0 0 0 0 0 0 0 0 0 0 0 0 0 0 0 0 0 0 0 0 0 0 0 0 0 0 0 0
    0 0 0 0 0 0 0 0 0 0 0 0 0 0 0 0 0 0 0 0 0 0 0 0 0 0 0 0 0 0 0 0 0 0
    0 0 0 0 0 0 0 0 0 0 0 0 0 0 0 0 0 0 0 0 0 0 0 0 0 0 0 0 0 0 0 0 0 0
    0 0 0 0 0 0 0 0 0 0 0 0 0 0 0 0 0 0 0 0 0 0 0 0 0 0 0 0 0 0 0 0 0 0
    0 0 0 0 0 0 0 0 0 0 0 0 0 0 0 0 0 0 0 0 0 0 0 0 0 0 0 0 0 0 0 0 0 0
    0 0 0 0 0 0 0 0 0 0 0 0 0 0 0 0 0 0 0 0 0 0 0 0 0 0 0 0 0 0 0 0 0 0
    0 0 0 0 0 0 0 0 0 0 0 0 0 0 0 0 0 0 0 0 0 0 0 0 0 0 0 0 0 0 0 0 0 0
    0 0 0 0 0 0 0 0 0 0 0 0 0 0 0 0 0 0 0 0 0 0 0 0 0 0 0 0 0 0 0 0 0 0
    0 0 0 0 0 0 0 0 0 0 0 0 0 0 0 0 0 0 0 0 0 0 0 0 0 0 0 0 0 0 0 0 0 0
    0 0 0 0 0 0 0 0 0 0 0 0 0 0 0 0 0 0 0 0 0 0 0 0 0 0 0 0 0 0 0 0 0 0
    0 0 0 0 0 0 0 0 0 0 0 0 0 0 0 0 0 0 0 0 0 0 0 0 0 0 0 0 0 0 0 0 0 0
    0 0 0 0 0 0 0 0 0 0 0 0 0 0 0 0 0 0 0 0 0 0 0 0 0 0 0 0 0 0 0 0 0 0
    0 0 0 0 0 0 0 0 0 0 0 0 0 0 0 0 0 0 0 0 0 0 0 0 0 0 0 0 0 0 0 0 0 0
    0 0 0 0 0 0 0 0 0 0 0 0 0 0 0 0 0 0 0 0 0 0 0 0 0 0 0 0 0 0 0 0 0 0
    0 0 0 0 0 0 0 0 0 0 0 0 0 0 0 0 0 0 0 0 0 0 0 0 0 0 0 0 0 0 0 0 0 0
    0 0 0 0 0 0 0 0 0 0 0 0 0 0 0 0 0 0 0 0 0 0 0 0 0 0 0 0 0 0 0 0 0 0
    0 0 0 0 0 0 0 0 0 0 0 0 0 0 0 0 0 0 0 0 0 0 0 0 0 0 0 0 0 0 0 0 0 0
    0 0 0 0 0 0 0 0 0 0 0 0 0 0 0 0 0 0 0 0 0 0 0 0 0 0 0 0 0 0 0 0 0 0
    0 0 0 0 0 0 0 0 0 0 0 0 0 0 0 0 0 0 0 0 0 0 0 0 0 0 0 0 0 0 0 0 0 0
    0 0 0 0 0 0 0 0 0 0 0 0 0 0 0 0 0 0 0 0 0 0 0 0 0 0 0 0 0 0 0 0 0 0
    0 0 0 0 0 0 0 0 0 0 0 0 0 0 0 0 0 0 0 0 0 0 0 0 0 0 0 0 0 0 0 0 0 0
    0 0 0 0 0 0 0 0 0 0 0 0 0 0 0 0 0 0 0 0 0 0 0 0 0 0 0 0 0 0 0 0 0 0
    0 0 0 0 0 0 0 0 0 0 0 0 0 0 0 0 0 0 0 0 0 0 0 0 0 0 0 0 0 0 0 0 0 0
    0 0 0 0 0 0 0 0 0 0 0 0 0 0 0 0 0 0 0 0 0 0 0 0 0 0 0 0 0 0 0 0 0 0
    0 0 0 0 0 0 0 0 0 0 0 0 0 0 0 0 0 0 0 0 0 0 0 0 0 0 0 0 0 0 0 0 0 0
    0 0 0 0 0 0 0 0 0 0 0 0 0 0 0 0 0 0 0 0 0 0 0 0 0 0 0 0 0 0 0 0 0 0
    0 0 0 0 0 0 0 0 0 0 0 0 0 0 0 0 0 0 0 0 0 0 0 0 0 0 0 0 0 0 0 0 0 0
    0 0 0 0 0 0 0 0 0 0 0 0 0 0 0 0 0 0 0 0 0 0 0 0 0 0 0 0 0 0 0 0 0 0
    0 0 0 0 0 0 0 0 0 0 0 0 0 0 0 0 0 0 0 0 0 0 0 0 0 0 0 0 0 0 0 0 0 0
    0 0 0 0 0 0 0 0 0 0 0 0 0 0 0 0 0 0 0 0 0 0 0 0 0 0 0 0 0 0 0 0 0 0
    0 0 0 0 0 0 0 0 0 0 0 0 0 0 0 0 0 0 0 0 0 0 0 0 0 0 0 0 0 0 0 0 0 0
    0 0 0 0 0 0 0 0 0 0 0 0 0 0 0 0 0 0 0 0 0 0 0 0 0 0 0 0 0 0 0 0 0 0
    0 0 0 0 0 0 0 0 0 0 0 0 0 0 0 0 0 0 0 0 0 0 0 0 0 0 0 0 0 0 0 0 0 0
    0 0 0 0 0 0 0 0 0 0 0 0 0 0 0 0 0 0 0 0 0 0 0 0 0 0 0 0 0 0 0 0 0 0
    0 0 0 0 0 0 0 0 0 0 0 0 0 0 0 0 0 0 0 0 0 0 0 0 0 0 0 0 0 0 0 0 0 0
    0 0 0 0 0 0 0 0 0 0 0 0 0 0 0 0 0 0 0 0 0 0 0 0 0 0 0 0 0 0 0 0 0 0
    0 0 0 0 0 0 0 0 0 0 0 0 0 0 0 0 0 0 0 0 0 0 0 0 0 0 0 0 0 0 0 0 0 0
    0 0 0 0 0 0 0 0 0 0 0 0 0 0 0 0 0 0 0 0 0 0 0 0 0 0 0 0 0 0 0 0 0 0
    0 0 0 0 0 0 0 0 0 0 0 0 0 0 0 0 0 0 0 0 0 0 0 0 0 0 0 0 0 0 0 0 0 0
    0 0 0 0 0 0 0 0 0 0 0 0 0 0 0 0 0 0 0 0 0 0 0 0 0 0 0 0 0 0 0 0 0 0
    0 0 0 0 0 0 0 0 0 0 0 0 0 0 0 0 0 0 0 0 0 0 0 0 0 0 0 0 0 0 0 0 0 0
    0 0 0 0 0 0 0 0 0 0 0 0 0 0 0 0 0 0 0 0 0 0 0 0 0 0 0 0 0 0 0 0 0 0
    0 0 0 0 0 0 0 0 0 0 0 0 0 0 0 0 0 0 0 0 0 0 0 0 0 0 0 0 0 0 0 0 0 0
    0 0 0 0 0 0 0 0 0 0 0 0 0 0 0 0 0 0 0 0 0 0 0 0 0 0 0 0 0 0 0 0 0 0
    0 0 0 0 0 0 0 0 0 0 0 0 0 0 0 0 0 0 0 0 0 0 0 0 0 0 0 0 0 0 0 0 0 0
    0 0 0 0 0 0 0 0 0 0 0 0 0 0 0 0 0 0 0 0 0 0 0 0 0 0 0 0 0 0 0 0 0 0
    0 0 0 0 0 0 0 0 0 0 0 0 0 0 0 0 0 0 0 0 0 0 0 0 0 0 0 0 0 0 0 0 0 0
    0 0 0 0 0 0 0 0 0 0 0 0 0 0 0 0 0 0 0 0 0 0 0 0 0 0 0 0 0 0 0 0 0 0
    0 0 0 0 0 0 0 0 0 0 0 0 0 0 0 0 0 0 0 0 0 0 0 0 0 0 0 0 0 0 0 0 0 0
    0 0 0 0 0 0 0 0 0 0 0 0 0 0 0 0 0 0 0 0 0 0 0 0 0 0 0 0 0 0 0 0 0 0
    0 0 0 0 0 0 0 0 0 0 0 0 0 0 0 0 0 0 0 0 0 0 0 0 0 0 0 0 0 0 0 0 0 0
    0 0 0 0 0 0 0 0 0 0 0 0 0 0 0 0 0 0 0 0 0 0 0 0 0 0 0 0 0 0 0 0 0 0
    0 0 0 0 0 0 0 0 0 0 0 0 0 0 0 0 0 0 0 0 0 0 0 0 0 0 0 0 0 0 0 0 0 0
    0 0 0 0 0 0 0 0 0 0 0 0 0 0 0 0 0 0 0 0 0 0 0 0 0 0 0 0 0 0 0 0 0 0
    0 0 0 0 0 0 0 0 0 0 0 0 0 0 0 0 0 0 0 0 0 0 0 0 0 0 0 0 0 0 0 0 0 0
    0 0 0 0 0 0 0 0 0 0 0 0 0 0 0 0 0 0 0 0 0 0 0 0 0 0 0 0 0 0 0 0 0 0
    0 0 0 0 0 0 0 0 0 0 0 0 0 0 0 0 0 0 0 0 0 0 0 0 0 0 0 0 0 0 0 0 0 0
    0 0 0 0 0 0 0 0 0 0 0 0 0 0 0 0 0 0 0 0 0 0 0 0 0 0 0 0 0 0 0 0 0 0
    0 0 0 0 0 0 0 0 0 0 0 0 0 0 0 0 0 0 0 0 0 0 0 0 0 0 0 0 0 0 0 0 0 0
    0 0 0 0 0 0 0 0 0 0 0 0 0 0 0 0 0 0 0 0 0 0 0 0 0 0 0 0 0 0 0 0 0 0
    0 0 0 0 0 0 0 0 0 0 0 0 0 0 0 0 0 0 0 0 0 0 0 0 0 0 0 0 0 0 0 0 0 0
    0 0 0 0 0 0 0 0 0 0 0 0 0 0 0 0 0 0 0 0 0 0 0 0 0 0 0 0 0 0 0 0 0 0
    0 0 0 0 0 0 0 0 0 0 0 0 0 0 0 0 0 0 0 0 0 0 0 0 0 0 0 0 0 0 0 0 0 0
    0 0 0 0 0 0 0 0 0 0 0 0 0 0 0 0 0 0 0 0 0 0 0 0 0 0 0 0 0 0 0 0 0 0
    0 0 0 0 0 0 0 0 0 0 0 0 0 0 0 0 0 0 0 0 0 0 0 0 0 0 0 0 0 0 0 0 0 0
    0 0 0 0 0 0 0 0 0 0 0 0 0 0 0 0 0 0 0 0 0 0 0 0 0 0 0 0 0 0 0 0 0 0
    0 0 0 0 0 0 0 0 0 0 0 0 0 0 0 0 0 0 0 0 0 0 0 0 0 0 0 0 0 0 0 0 0 0
    0 0 0 0 0 0 0 0 0 0 0 0 0 0 0 0 0 0 0 0 0 0 0 0 0 0 0 0 0 0 0 0 0 0
    0 0 0 0 0 0 0 0 0 0 0 0 0 0 0 0 0 0 0 0 0 0 0 0 0 0 0 0 0 0 0 0 0 0
    0 0 0 0 0 0 0 0 0 0 0 0 0 0 0 0 0 0 0 0 0 0 0 0 0 0 0 0 0 0 0 0 0 0
    0 0 0 0 0 0 0 0 0 0 0 0 0 0 0 0 0 0 0 0 0 0 0 0 0 0 0 0 0 0 0 0 0 0
    0 0 0 0 0 0 0 0 0 0 0 0 0 0 0 0 0 0 0 0 0 0 0 0 0 0 0 0 0 0 0 0 0 0
    0 0 0 0 0 0 0 0 0 0 0 0 0 0 0 0 0 0 0 0 0 0 0 0 0 0 0 0 0 0 0 0 0 0
    0 0 0 0 0 0 0 0 0 0 0 0 0 0 0 0 0 0 0 0 0 0 0 0 0 0 0 0 0 0 0 0 0 0
    0 0 0 0 0 0 0 0 0 0 0 0 0 0 0 0 0 0 0 0 0 0 0 0 0 0 0 0 0 0 0 0 0 0
    0 0 0 0 0 0 0 0 0 0 0 0 0 0 0 0 0 0 0 0 0 0 0 0 0 0 0 0 0 0 0 0 0 0
    0 0 0 0 0 0 0 0 0 0 0 0 0 0 0 0 0 0 0 0 0 0 0 0 0 0 0 0 0 0 0 0 0 0
    0 0 0 0 0 0 0 0 0 0 0 0 0 0 0 0 0 0 0 0 0 0 0 0 0 0 0 0 0 0 0 0 0 0
    0 0 0 0 0 0 0 0 0 0 0 0 0 0 0 0 0 0 0 0 0 0 0 0 0 0 0 0 0 0 0 0 0 0
    0 0 0 0 0 0 0 0 0 0 0 0 0 0 0 0 0 0 0 0 0 0 0 0 0 0 0 0 0 0 0 0 0 0
    0 0 0 0 0 0 0 0 0 0 0 0 0 0 0 0 0 0 0 0 0 0 0 0 0 0 0 0 0 0 0 0 0 0
    0 0 0 0 0 0 0 0 0 0 0 0 0 0 0 0 0 0 0 0 0 0 0 0 0 0 0 0 0 0 0 0 0 0
    0 0 0 0 0 0 0 0 0 0 0 0 0 0 0 0 0 0 0 0 0 0 0 0 0 0 0 0 0 0 0 0 0 0
    0 0 0 0 0 0 0 0 0 0 0 0 0 0 0 0 0 0 0 0 0 0 0 0 0 0 0 0 0 0 0 0 0 0
    0 0 0 0 0 0 0 0 0 0 0 0 0 0 0 0 0 0 0 0 0 0 0 0 0 0 0 0 0 0 0 0 0 0
    0 0 0 0 0 0 0 0 0 0</cat_ofs>
  <class_labels>
    -1 1</class_labels>
  <missing_subst>
    0. 0. 0. 0. 0. 0. 0. 0. 0. 0. 0. 0. 0. 0. 0. 0. 0. 0. 0. 0. 0. 0. 0.
    0. 0. 0. 0. 0. 0. 0. 0. 0. 0. 0. 0. 0. 0. 0. 0. 0. 0. 0. 0. 0. 0. 0.
    0. 0. 0. 0. 0. 0. 0. 0. 0. 0. 0. 0. 0. 0. 0. 0. 0. 0. 0. 0. 0. 0. 0.
    0. 0. 0. 0. 0. 0. 0. 0. 0. 0. 0. 0. 0. 0. 0. 0. 0. 0. 0. 0. 0. 0. 0.
    0. 0. 0. 0. 0. 0. 0. 0. 0. 0. 0. 0. 0. 0. 0. 0. 0. 0. 0. 0. 0. 0. 0.
    0. 0. 0. 0. 0. 0. 0. 0. 0. 0. 0. 0. 0. 0. 0. 0. 0. 0. 0. 0. 0. 0. 0.
    0. 0. 0. 0. 0. 0. 0. 0. 0. 0. 0. 0. 0. 0. 0. 0. 0. 0. 0. 0. 0. 0. 0.
    0. 0. 0. 0. 0. 0. 0. 0. 0. 0. 0. 0. 0. 0. 0. 0. 0. 0. 0. 0. 0. 0. 0.
    0. 0. 0. 0. 0. 0. 0. 0. 0. 0. 0. 0. 0. 0. 0. 0. 0. 0. 0. 0. 0. 0. 0.
    0. 0. 0. 0. 0. 0. 0. 0. 0. 0. 0. 0. 0. 0. 0. 0. 0. 0. 0. 0. 0. 0. 0.
    0. 0. 0. 0. 0. 0. 0. 0. 0. 0. 0. 0. 0. 0. 0. 0. 0. 0. 0. 0. 0. 0. 0.
    0. 0. 0. 0. 0. 0. 0. 0. 0. 0. 0. 0. 0. 0. 0. 0. 0. 0. 0. 0. 0. 0. 0.
    0. 0. 0. 0. 0. 0. 0. 0. 0. 0. 0. 0. 0. 0. 0. 0. 0. 0. 0. 0. 0. 0. 0.
    0. 0. 0. 0. 0. 0. 0. 0. 0. 0. 0. 0. 0. 0. 0. 0. 0. 0. 0. 0. 0. 0. 0.
    0. 0. 0. 0. 0. 0. 0. 0. 0. 0. 0. 0. 0. 0. 0. 0. 0. 0. 0. 0. 0. 0. 0.
    0. 0. 0. 0. 0. 0. 0. 0. 0. 0. 0. 0. 0. 0. 0. 0. 0. 0. 0. 0. 0. 0. 0.
    0. 0. 0. 0. 0. 0. 0. 0. 0. 0. 0. 0. 0. 0. 0. 0. 0. 0. 0. 0. 0. 0. 0.
    0. 0. 0. 0. 0. 0. 0. 0. 0. 0. 0. 0. 0. 0. 0. 0. 0. 0. 0. 0. 0. 0. 0.
    0. 0. 0. 0. 0. 0. 0. 0. 0. 0. 0. 0. 0. 0. 0. 0. 0. 0. 0. 0. 0. 0. 0.
    0. 0. 0. 0. 0. 0. 0. 0. 0. 0. 0. 0. 0. 0. 0. 0. 0. 0. 0. 0. 0. 0. 0.
    0. 0. 0. 0. 0. 0. 0. 0. 0. 0. 0. 0. 0. 0. 0. 0. 0. 0. 0. 0. 0. 0. 0.
    0. 0. 0. 0. 0. 0. 0. 0. 0. 0. 0. 0. 0. 0. 0. 0. 0. 0. 0. 0. 0. 0. 0.
    0. 0. 0. 0. 0. 0. 0. 0. 0. 0. 0. 0. 0. 0. 0. 0. 0. 0. 0. 0. 0. 0. 0.
    0. 0. 0. 0. 0. 0. 0. 0. 0. 0. 0. 0. 0. 0. 0. 0. 0. 0. 0. 0. 0. 0. 0.
    0. 0. 0. 0. 0. 0. 0. 0. 0. 0. 0. 0. 0. 0. 0. 0. 0. 0. 0. 0. 0. 0. 0.
    0. 0. 0. 0. 0. 0. 0. 0. 0. 0. 0. 0. 0. 0. 0. 0. 0. 0. 0. 0. 0. 0. 0.
    0. 0. 0. 0. 0. 0. 0. 0. 0. 0. 0. 0. 0. 0. 0. 0. 0. 0. 0. 0. 0. 0. 0.
    0. 0. 0. 0. 0. 0. 0. 0. 0. 0. 0. 0. 0. 0. 0. 0. 0. 0. 0. 0. 0. 0. 0.
    0. 0. 0. 0. 0. 0. 0. 0. 0. 0. 0. 0. 0. 0. 0. 0. 0. 0. 0. 0. 0. 0. 0.
    0. 0. 0. 0. 0. 0. 0. 0. 0. 0. 0. 0. 0. 0. 0. 0. 0. 0. 0. 0. 0. 0. 0.
    0. 0. 0. 0. 0. 0. 0. 0. 0. 0. 0. 0. 0. 0. 0. 0. 0. 0. 0. 0. 0. 0. 0.
    0. 0. 0. 0. 0. 0. 0. 0. 0. 0. 0. 0. 0. 0. 0. 0. 0. 0. 0. 0. 0. 0. 0.
    0. 0. 0. 0. 0. 0. 0. 0. 0. 0. 0. 0. 0. 0. 0. 0. 0. 0. 0. 0. 0. 0. 0.
    0. 0. 0. 0. 0. 0. 0. 0. 0. 0. 0. 0. 0. 0. 0. 0. 0. 0. 0. 0. 0. 0. 0.
    0. 0. 0. 0. 0. 0. 0. 0. 0. 0. 0. 0. 0. 0. 0. 0. 0. 0. 0. 0. 0. 0. 0.
    0. 0. 0. 0. 0. 0. 0. 0. 0. 0. 0. 0. 0. 0. 0. 0. 0. 0. 0. 0. 0. 0. 0.
    0. 0. 0. 0. 0. 0. 0. 0. 0. 0. 0. 0. 0. 0. 0. 0. 0. 0. 0. 0. 0. 0. 0.
    0. 0. 0. 0. 0. 0. 0. 0. 0. 0. 0. 0. 0. 0. 0. 0. 0. 0. 0. 0. 0. 0. 0.
    0. 0. 0. 0. 0. 0. 0. 0. 0. 0. 0. 0. 0. 0. 0. 0. 0. 0. 0. 0. 0. 0. 0.
    0. 0. 0. 0. 0. 0. 0. 0. 0. 0. 0. 0. 0. 0. 0. 0. 0. 0. 0. 0. 0. 0. 0.
    0. 0. 0. 0. 0. 0. 0. 0. 0. 0. 0. 0. 0. 0. 0. 0. 0. 0. 0. 0. 0. 0. 0.
    0. 0. 0. 0. 0. 0. 0. 0. 0. 0. 0. 0. 0. 0. 0. 0. 0. 0. 0. 0. 0. 0. 0.
    0. 0. 0. 0. 0. 0. 0. 0. 0. 0. 0. 0. 0. 0. 0. 0. 0. 0. 0. 0. 0. 0. 0.
    0. 0. 0. 0. 0. 0. 0. 0. 0. 0. 0. 0. 0. 0. 0. 0. 0. 0. 0. 0. 0. 0. 0.
    0. 0. 0. 0. 0. 0. 0. 0. 0. 0. 0. 0. 0. 0. 0. 0. 0. 0. 0. 0. 0. 0. 0.
    0. 0. 0. 0. 0. 0. 0. 0. 0. 0. 0. 0. 0. 0. 0. 0. 0. 0. 0. 0. 0. 0. 0.
    0. 0. 0. 0. 0. 0. 0. 0. 0. 0. 0. 0. 0. 0. 0. 0. 0. 0. 0. 0. 0. 0. 0.
    0. 0. 0. 0. 0. 0. 0. 0. 0. 0. 0. 0. 0. 0. 0. 0. 0. 0. 0. 0. 0. 0. 0.
    0. 0. 0. 0. 0. 0. 0. 0. 0. 0. 0. 0. 0. 0. 0. 0. 0. 0. 0. 0. 0. 0. 0.
    0. 0. 0. 0. 0. 0. 0. 0. 0. 0. 0. 0. 0. 0. 0. 0. 0. 0. 0. 0. 0. 0. 0.
    0. 0. 0. 0. 0. 0. 0. 0. 0. 0. 0. 0. 0. 0. 0. 0. 0. 0. 0. 0. 0. 0. 0.
    0. 0. 0. 0. 0. 0. 0. 0. 0. 0. 0. 0. 0. 0. 0. 0. 0. 0. 0. 0. 0. 0. 0.
    0. 0. 0. 0. 0. 0. 0. 0. 0. 0. 0. 0. 0. 0. 0. 0. 0. 0. 0. 0. 0. 0. 0.
    0. 0. 0. 0. 0. 0. 0. 0. 0. 0. 0. 0. 0. 0. 0. 0. 0. 0. 0. 0. 0. 0. 0.
    0. 0. 0. 0. 0. 0. 0. 0. 0. 0. 0. 0. 0. 0. 0. 0. 0. 0. 0. 0. 0. 0. 0.
    0. 0. 0. 0. 0. 0. 0. 0. 0. 0. 0. 0. 0. 0. 0. 0. 0. 0. 0. 0. 0. 0. 0.
    0. 0. 0. 0. 0. 0. 0. 0. 0. 0. 0. 0. 0. 0. 0. 0. 0. 0. 0. 0. 0. 0. 0.
    0. 0. 0. 0. 0. 0. 0. 0. 0. 0. 0. 0. 0. 0. 0. 0. 0. 0. 0. 0. 0. 0. 0.
    0. 0. 0. 0. 0. 0. 0. 0. 0. 0. 0. 0. 0. 0. 0. 0. 0. 0. 0. 0. 0. 0. 0.
    0. 0. 0. 0. 0. 0. 0. 0. 0. 0. 0. 0. 0. 0. 0. 0. 0. 0. 0. 0. 0. 0. 0.
    0. 0. 0. 0. 0. 0. 0. 0. 0. 0. 0. 0. 0. 0. 0. 0. 0. 0. 0. 0. 0. 0. 0.
    0. 0. 0. 0. 0. 0. 0. 0. 0. 0. 0. 0. 0. 0. 0. 0. 0. 0. 0. 0. 0. 0. 0.
    0. 0. 0. 0. 0. 0. 0. 0. 0. 0. 0. 0. 0. 0. 0. 0. 0. 0. 0. 0. 0. 0. 0.
    0. 0.</missing_subst>
  <ntrees>100</ntrees>
  <trees>
    <_>
      <nodes>
        <_>
          <depth>0</depth>
          <value>-3.5493778945029129e+00</value>
          <norm_class_idx>0</norm_class_idx>
          <splits>
            <_><var>696</var>
              <quality>6.9457888603210449e-01</quality>
              <le>8.6393486708402634e-03</le></_></splits></_>
        <_>
          <depth>1</depth>
          <value>-3.5493778945029129e+00</value>
          <norm_class_idx>0</norm_class_idx>
          <splits>
            <_><var>406</var>
              <quality>4.1407424211502075e-01</quality>
              <le>1.6949456185102463e-02</le></_></splits></_>
        <_>
          <depth>2</depth>
          <value>-3.5493778945029129e+00</value>
          <norm_class_idx>0</norm_class_idx>
          <splits>
            <_><var>991</var>
              <quality>3.9126524329185486e-01</quality>
              <le>8.7726041674613953e-03</le></_></splits></_>
        <_>
          <depth>3</depth>
          <value>-3.5493778945029129e+00</value>
          <norm_class_idx>0</norm_class_idx>
          <splits>
            <_><var>772</var>
              <quality>3.9214843511581421e-01</quality>
              <le>2.2396584972739220e-02</le></_></splits></_>
        <_>
          <depth>4</depth>
          <value>-3.5493778945029129e+00</value>
          <norm_class_idx>0</norm_class_idx>
          <splits>
            <_><var>390</var>
              <quality>3.9714145660400391e-01</quality>
              <le>4.2592491954565048e-02</le></_></splits></_>
        <_>
          <depth>5</depth>
          <value>-3.5493778945029129e+00</value>
          <norm_class_idx>0</norm_class_idx></_>
        <_>
          <depth>5</depth>
          <value>3.5493778945029129e+00</value>
          <norm_class_idx>1</norm_class_idx></_>
        <_>
          <depth>4</depth>
          <value>3.5493778945029129e+00</value>
          <norm_class_idx>1</norm_class_idx></_>
        <_>
          <depth>3</depth>
          <value>3.5493778945029129e+00</value>
          <norm_class_idx>1</norm_class_idx>
          <splits>
            <_><var>108</var>
              <quality>1.3969732448458672e-02</quality>
              <le>2.0598456263542175e-02</le></_></splits></_>
        <_>
          <depth>4</depth>
          <value>3.5493778945029129e+00</value>
          <norm_class_idx>1</norm_class_idx></_>
        <_>
          <depth>4</depth>
          <value>-3.5493778945029129e+00</value>
          <norm_class_idx>0</norm_class_idx></_>
        <_>
          <depth>2</depth>
          <value>3.5493778945029129e+00</value>
          <norm_class_idx>1</norm_class_idx>
          <splits>
            <_><var>1271</var>
              <quality>4.8806753009557724e-02</quality>
              <le>4.0568117983639240e-03</le></_></splits></_>
        <_>
          <depth>3</depth>
          <value>-3.5493778945029129e+00</value>
          <norm_class_idx>0</norm_class_idx>
          <splits>
            <_><var>204</var>
              <quality>1.8626309931278229e-02</quality>
              <le>8.9714955538511276e-03</le></_></splits></_>
        <_>
          <depth>4</depth>
          <value>-3.5493778945029129e+00</value>
          <norm_class_idx>0</norm_class_idx></_>
        <_>
          <depth>4</depth>
          <value>3.5493778945029129e+00</value>
          <norm_class_idx>1</norm_class_idx></_>
        <_>
          <depth>3</depth>
          <value>3.5493778945029129e+00</value>
          <norm_class_idx>1</norm_class_idx>
          <splits>
            <_><var>136</var>
              <quality>4.4300410896539688e-02</quality>
              <le>5.9964045882225037e-02</le></_></splits></_>
        <_>
          <depth>4</depth>
          <value>3.5493778945029129e+00</value>
          <norm_class_idx>1</norm_class_idx>
          <splits>
            <_><var>35</var>
              <quality>4.3073341250419617e-02</quality>
              <le>3.8812302052974701e-02</le></_></splits></_>
        <_>
          <depth>5</depth>
          <value>3.5493778945029129e+00</value>
          <norm_class_idx>1</norm_class_idx></_>
        <_>
          <depth>5</depth>
          <value>-3.5493778945029129e+00</value>
          <norm_class_idx>0</norm_class_idx></_>
        <_>
          <depth>4</depth>
          <value>-3.5493778945029129e+00</value>
          <norm_class_idx>0</norm_class_idx></_>
        <_>
          <depth>1</depth>
          <value>3.5493778945029129e+00</value>
          <norm_class_idx>1</norm_class_idx>
          <splits>
            <_><var>769</var>
              <quality>3.5601374506950378e-01</quality>
              <le>2.7212142944335938e-02</le></_></splits></_>
        <_>
          <depth>2</depth>
          <value>3.5493778945029129e+00</value>
          <norm_class_idx>1</norm_class_idx>
          <splits>
            <_><var>1109</var>
              <quality>2.4626708030700684e-01</quality>
              <le>4.3863020837306976e-03</le></_></splits></_>
        <_>
          <depth>3</depth>
          <value>3.5493778945029129e+00</value>
          <norm_class_idx>1</norm_class_idx>
          <splits>
            <_><var>433</var>
              <quality>2.3659716546535492e-01</quality>
              <le>4.7113075852394104e-02</le></_></splits></_>
        <_>
          <depth>4</depth>
          <value>3.5493778945029129e+00</value>
          <norm_class_idx>1</norm_class_idx>
          <splits>
            <_><var>1042</var>
              <quality>2.3874984681606293e-01</quality>
              <le>4.0425881743431091e-02</le></_></splits></_>
        <_>
          <depth>5</depth>
          <value>3.5493778945029129e+00</value>
          <norm_class_idx>1</norm_class_idx></_>
        <_>
          <depth>5</depth>
          <value>-3.5493778945029129e+00</value>
          <norm_class_idx>0</norm_class_idx></_>
        <_>
          <depth>4</depth>
          <value>-3.5493778945029129e+00</value>
          <norm_class_idx>0</norm_class_idx></_>
        <_>
          <depth>3</depth>
          <value>3.5493778945029129e+00</value>
          <norm_class_idx>1</norm_class_idx>
          <splits>
            <_><var>1284</var>
              <quality>2.3673648014664650e-02</quality>
              <le>4.1702142916619778e-03</le></_></splits></_>
        <_>
          <depth>4</depth>
          <value>3.5493778945029129e+00</value>
          <norm_class_idx>1</norm_class_idx>
          <splits>
            <_><var>40</var>
              <quality>1.5133876353502274e-02</quality>
              <le>1.4627428725361824e-02</le></_></splits></_>
        <_>
          <depth>5</depth>
          <value>3.5493778945029129e+00</value>
          <norm_class_idx>1</norm_class_idx></_>
        <_>
          <depth>5</depth>
          <value>-3.5493778945029129e+00</value>
          <norm_class_idx>0</norm_class_idx></_>
        <_>
          <depth>4</depth>
          <value>-3.5493778945029129e+00</value>
          <norm_class_idx>0</norm_class_idx>
          <splits>
            <_><var>24</var>
              <quality>1.2805587612092495e-02</quality>
              <le>2.5105042383074760e-02</le></_></splits></_>
        <_>
          <depth>5</depth>
          <value>-3.5493778945029129e+00</value>
          <norm_class_idx>0</norm_class_idx></_>
        <_>
          <depth>5</depth>
          <value>3.5493778945029129e+00</value>
          <norm_class_idx>1</norm_class_idx></_>
        <_>
          <depth>2</depth>
          <value>3.5493778945029129e+00</value>
          <norm_class_idx>1</norm_class_idx>
          <splits>
            <_><var>674</var>
              <quality>1.4817808568477631e-01</quality>
              <le>4.3198354542255402e-03</le></_></splits></_>
        <_>
          <depth>3</depth>
          <value>-3.5493778945029129e+00</value>
          <norm_class_idx>0</norm_class_idx>
          <splits>
            <_><var>727</var>
              <quality>7.4354104697704315e-02</quality>
              <le>1.3072453439235687e-02</le></_></splits></_>
        <_>
          <depth>4</depth>
          <value>-3.5493778945029129e+00</value>
          <norm_class_idx>0</norm_class_idx>
          <splits>
            <_><var>448</var>
              <quality>7.0253580808639526e-02</quality>
              <le>3.6064427345991135e-02</le></_></splits></_>
        <_>
          <depth>5</depth>
          <value>-3.5493778945029129e+00</value>
          <norm_class_idx>0</norm_class_idx></_>
        <_>
          <depth>5</depth>
          <value>3.5493778945029129e+00</value>
          <norm_class_idx>1</norm_class_idx></_>
        <_>
          <depth>4</depth>
          <value>3.5493778945029129e+00</value>
          <norm_class_idx>1</norm_class_idx>
          <splits>
            <_><var>47</var>
              <quality>1.7462166026234627e-02</quality>
              <le>6.1034653335809708e-02</le></_></splits></_>
        <_>
          <depth>5</depth>
          <value>3.5493778945029129e+00</value>
          <norm_class_idx>1</norm_class_idx></_>
        <_>
          <depth>5</depth>
          <value>-3.5493778945029129e+00</value>
          <norm_class_idx>0</norm_class_idx></_>
        <_>
          <depth>3</depth>
          <value>3.5493778945029129e+00</value>
          <norm_class_idx>1</norm_class_idx>
          <splits>
            <_><var>472</var>
              <quality>9.8206944763660431e-02</quality>
              <le>9.1954506933689117e-03</le></_></splits></_>
        <_>
          <depth>4</depth>
          <value>3.5493778945029129e+00</value>
          <norm_class_idx>1</norm_class_idx>
          <splits>
            <_><var>239</var>
              <quality>9.6380919218063354e-02</quality>
              <le>4.7102896496653557e-03</le></_></splits></_>
        <_>
          <depth>5</depth>
          <value>3.5493778945029129e+00</value>
          <norm_class_idx>1</norm_class_idx></_>
        <_>
          <depth>5</depth>
          <value>-3.5493778945029129e+00</value>
          <norm_class_idx>0</norm_class_idx></_>
        <_>
          <depth>4</depth>
          <value>-3.5493778945029129e+00</value>
          <norm_class_idx>0</norm_class_idx>
          <splits>
            <_><var>72</var>
              <quality>1.2805587612092495e-02</quality>
              <le>1.5625944361090660e-02</le></_></splits></_>
        <_>
          <depth>5</depth>
          <value>3.5493778945029129e+00</value>
          <norm_class_idx>1</norm_class_idx></_>
        <_>
          <depth>5</depth>
          <value>-3.5493778945029129e+00</value>
          <norm_class_idx>0</norm_class_idx></_></nodes></_>
    <_>
      <nodes>
        <_>
          <depth>0</depth>
          <value>3.4989782236250613e+00</value>
          <norm_class_idx>1</norm_class_idx>
          <splits>
            <_><var>1017</var>
              <quality>6.5921539068222046e-01</quality>
              <le>4.1753835976123810e-03</le></_></splits></_>
        <_>
          <depth>1</depth>
          <value>-3.4989782236250613e+00</value>
          <norm_class_idx>0</norm_class_idx>
          <splits>
            <_><var>364</var>
              <quality>4.3237704038619995e-01</quality>
              <le>4.2463038116693497e-03</le></_></splits></_>
        <_>
          <depth>2</depth>
          <value>-3.4989782236250613e+00</value>
          <norm_class_idx>0</norm_class_idx>
          <splits>
            <_><var>466</var>
              <quality>3.7255421280860901e-01</quality>
              <le>4.4944048859179020e-03</le></_></splits></_>
        <_>
          <depth>3</depth>
          <value>-3.4989782236250613e+00</value>
          <norm_class_idx>0</norm_class_idx>
          <splits>
            <_><var>437</var>
              <quality>3.6667075753211975e-01</quality>
              <le>1.2685045599937439e-02</le></_></splits></_>
        <_>
          <depth>4</depth>
          <value>-3.4989782236250613e+00</value>
          <norm_class_idx>0</norm_class_idx>
          <splits>
            <_><var>448</var>
              <quality>3.6577373743057251e-01</quality>
              <le>3.4483596682548523e-02</le></_></splits></_>
        <_>
          <depth>5</depth>
          <value>-3.4989782236250613e+00</value>
          <norm_class_idx>0</norm_class_idx></_>
        <_>
          <depth>5</depth>
          <value>3.4989782236250613e+00</value>
          <norm_class_idx>1</norm_class_idx></_>
        <_>
          <depth>4</depth>
          <value>3.4989782236250613e+00</value>
          <norm_class_idx>1</norm_class_idx>
          <splits>
            <_><var>310</var>
              <quality>1.0259481146931648e-02</quality>
              <le>2.6610644534230232e-02</le></_></splits></_>
        <_>
          <depth>5</depth>
          <value>3.4989782236250613e+00</value>
          <norm_class_idx>1</norm_class_idx></_>
        <_>
          <depth>5</depth>
          <value>-3.4989782236250613e+00</value>
          <norm_class_idx>0</norm_class_idx></_>
        <_>
          <depth>3</depth>
          <value>3.4989782236250613e+00</value>
          <norm_class_idx>1</norm_class_idx>
          <splits>
            <_><var>0</var>
              <quality>2.3388516157865524e-02</quality>
              <le>1.9650654867291451e-02</le></_></splits></_>
        <_>
          <depth>4</depth>
          <value>3.4989782236250613e+00</value>
          <norm_class_idx>1</norm_class_idx>
          <splits>
            <_><var>55</var>
              <quality>2.0359281450510025e-02</quality>
              <le>6.7361108958721161e-02</le></_></splits></_>
        <_>
          <depth>5</depth>
          <value>3.4989782236250613e+00</value>
          <norm_class_idx>1</norm_class_idx></_>
        <_>
          <depth>5</depth>
          <value>-3.4989782236250613e+00</value>
          <norm_class_idx>0</norm_class_idx></_>
        <_>
          <depth>4</depth>
          <value>-3.4989782236250613e+00</value>
          <norm_class_idx>0</norm_class_idx></_>
        <_>
          <depth>2</depth>
          <value>3.4989782236250613e+00</value>
          <norm_class_idx>1</norm_class_idx>
          <splits>
            <_><var>442</var>
              <quality>9.1279640793800354e-02</quality>
              <le>2.0408162381500006e-03</le></_></splits></_>
        <_>
          <depth>3</depth>
          <value>-3.4989782236250613e+00</value>
          <norm_class_idx>0</norm_class_idx>
          <splits>
            <_><var>661</var>
              <quality>1.1477045714855194e-02</quality>
              <le>4.7182347625494003e-03</le></_></splits></_>
        <_>
          <depth>4</depth>
          <value>-3.4989782236250613e+00</value>
          <norm_class_idx>0</norm_class_idx>
          <splits>
            <_><var>10</var>
              <quality>7.1856286376714706e-03</quality>
              <le>1.9762846641242504e-03</le></_></splits></_>
        <_>
          <depth>5</depth>
          <value>3.4989782236250613e+00</value>
          <norm_class_idx>1</norm_class_idx></_>
        <_>
          <depth>5</depth>
          <value>-3.4989782236250613e+00</value>
          <norm_class_idx>0</norm_class_idx></_>
        <_>
          <depth>4</depth>
          <value>3.4989782236250613e+00</value>
          <norm_class_idx>1</norm_class_idx></_>
        <_>
          <depth>3</depth>
          <value>3.4989782236250613e+00</value>
          <norm_class_idx>1</norm_class_idx>
          <splits>
            <_><var>1320</var>
              <quality>8.8405497372150421e-02</quality>
              <le>5.4526749998331070e-02</le></_></splits></_>
        <_>
          <depth>4</depth>
          <value>3.4989782236250613e+00</value>
          <norm_class_idx>1</norm_class_idx>
          <splits>
            <_><var>518</var>
              <quality>8.8972054421901703e-02</quality>
              <le>3.3376339823007584e-02</le></_></splits></_>
        <_>
          <depth>5</depth>
          <value>3.4989782236250613e+00</value>
          <norm_class_idx>1</norm_class_idx></_>
        <_>
          <depth>5</depth>
          <value>-3.4989782236250613e+00</value>
          <norm_class_idx>0</norm_class_idx></_>
        <_>
          <depth>4</depth>
          <value>-3.4989782236250613e+00</value>
          <norm_class_idx>0</norm_class_idx></_>
        <_>
          <depth>1</depth>
          <value>3.4989782236250613e+00</value>
          <norm_class_idx>1</norm_class_idx>
          <splits>
            <_><var>829</var>
              <quality>3.9593261480331421e-01</quality>
              <le>2.5529239326715469e-02</le></_></splits></_>
        <_>
          <depth>2</depth>
          <value>3.4989782236250613e+00</value>
          <norm_class_idx>1</norm_class_idx>
          <splits>
            <_><var>691</var>
              <quality>3.6942192912101746e-01</quality>
              <le>4.2283488437533379e-03</le></_></splits></_>
        <_>
          <depth>3</depth>
          <value>-3.4989782236250613e+00</value>
          <norm_class_idx>0</norm_class_idx>
          <splits>
            <_><var>406</var>
              <quality>2.7105385437607765e-02</quality>
              <le>8.4210895001888275e-03</le></_></splits></_>
        <_>
          <depth>4</depth>
          <value>-3.4989782236250613e+00</value>
          <norm_class_idx>0</norm_class_idx>
          <splits>
            <_><var>50</var>
              <quality>1.6167664900422096e-02</quality>
              <le>4.3380632996559143e-02</le></_></splits></_>
        <_>
          <depth>5</depth>
          <value>-3.4989782236250613e+00</value>
          <norm_class_idx>0</norm_class_idx></_>
        <_>
          <depth>5</depth>
          <value>3.4989782236250613e+00</value>
          <norm_class_idx>1</norm_class_idx></_>
        <_>
          <depth>4</depth>
          <value>3.4989782236250613e+00</value>
          <norm_class_idx>1</norm_class_idx>
          <splits>
            <_><var>525</var>
              <quality>1.6544688493013382e-02</quality>
              <le>8.4210895001888275e-03</le></_></splits></_>
        <_>
          <depth>5</depth>
          <value>3.4989782236250613e+00</value>
          <norm_class_idx>1</norm_class_idx></_>
        <_>
          <depth>5</depth>
          <value>-3.4989782236250613e+00</value>
          <norm_class_idx>0</norm_class_idx></_>
        <_>
          <depth>3</depth>
          <value>3.4989782236250613e+00</value>
          <norm_class_idx>1</norm_class_idx>
          <splits>
            <_><var>72</var>
              <quality>3.5830807685852051e-01</quality>
              <le>4.0408164262771606e-02</le></_></splits></_>
        <_>
          <depth>4</depth>
          <value>3.4989782236250613e+00</value>
          <norm_class_idx>1</norm_class_idx>
          <splits>
            <_><var>753</var>
              <quality>3.3856865763664246e-01</quality>
              <le>3.9639699459075928e-01</le></_></splits></_>
        <_>
          <depth>5</depth>
          <value>3.4989782236250613e+00</value>
          <norm_class_idx>1</norm_class_idx></_>
        <_>
          <depth>5</depth>
          <value>-3.4989782236250613e+00</value>
          <norm_class_idx>0</norm_class_idx></_>
        <_>
          <depth>4</depth>
          <value>3.4989782236250613e+00</value>
          <norm_class_idx>1</norm_class_idx>
          <splits>
            <_><var>764</var>
              <quality>3.0211247503757477e-02</quality>
              <le>3.9736840873956680e-02</le></_></splits></_>
        <_>
          <depth>5</depth>
          <value>3.4989782236250613e+00</value>
          <norm_class_idx>1</norm_class_idx></_>
        <_>
          <depth>5</depth>
          <value>-3.4989782236250613e+00</value>
          <norm_class_idx>0</norm_class_idx></_>
        <_>
          <depth>2</depth>
          <value>-3.4989782236250613e+00</value>
          <norm_class_idx>0</norm_class_idx></_></nodes></_>
    <_>
      <nodes>
        <_>
          <depth>0</depth>
          <value>-3.3775556186051197e+00</value>
          <norm_class_idx>0</norm_class_idx>
          <splits>
            <_><var>1097</var>
              <quality>5.9747624397277832e-01</quality>
              <le>1.8648119643330574e-02</le></_></splits></_>
        <_>
          <depth>1</depth>
          <value>-3.3775556186051197e+00</value>
          <norm_class_idx>0</norm_class_idx>
          <splits>
            <_><var>733</var>
              <quality>5.4067152738571167e-01</quality>
              <le>2.5919014587998390e-02</le></_></splits></_>
        <_>
          <depth>2</depth>
          <value>-3.3775556186051197e+00</value>
          <norm_class_idx>0</norm_class_idx>
          <splits>
            <_><var>806</var>
              <quality>5.0649023056030273e-01</quality>
              <le>8.1466734409332275e-03</le></_></splits></_>
        <_>
          <depth>3</depth>
          <value>3.3775556186051197e+00</value>
          <norm_class_idx>1</norm_class_idx>
          <splits>
            <_><var>749</var>
              <quality>1.5688863396644592e-01</quality>
              <le>4.0568117983639240e-03</le></_></splits></_>
        <_>
          <depth>4</depth>
          <value>-3.3775556186051197e+00</value>
          <norm_class_idx>0</norm_class_idx>
          <splits>
            <_><var>901</var>
              <quality>4.7885533422231674e-02</quality>
              <le>1.0958744212985039e-02</le></_></splits></_>
        <_>
          <depth>5</depth>
          <value>-3.3775556186051197e+00</value>
          <norm_class_idx>0</norm_class_idx></_>
        <_>
          <depth>5</depth>
          <value>3.3775556186051197e+00</value>
          <norm_class_idx>1</norm_class_idx></_>
        <_>
          <depth>4</depth>
          <value>3.3775556186051197e+00</value>
          <norm_class_idx>1</norm_class_idx>
          <splits>
            <_><var>1384</var>
              <quality>1.3409143686294556e-01</quality>
              <le>4.2283488437533379e-03</le></_></splits></_>
        <_>
          <depth>5</depth>
          <value>-3.3775556186051197e+00</value>
          <norm_class_idx>0</norm_class_idx></_>
        <_>
          <depth>5</depth>
          <value>3.3775556186051197e+00</value>
          <norm_class_idx>1</norm_class_idx></_>
        <_>
          <depth>3</depth>
          <value>-3.3775556186051197e+00</value>
          <norm_class_idx>0</norm_class_idx>
          <splits>
            <_><var>379</var>
              <quality>4.2950001358985901e-01</quality>
              <le>1.3453185558319092e-02</le></_></splits></_>
        <_>
          <depth>4</depth>
          <value>-3.3775556186051197e+00</value>
          <norm_class_idx>0</norm_class_idx>
          <splits>
            <_><var>1002</var>
              <quality>4.2327135801315308e-01</quality>
              <le>4.4945864938199520e-03</le></_></splits></_>
        <_>
          <depth>5</depth>
          <value>-3.3775556186051197e+00</value>
          <norm_class_idx>0</norm_class_idx></_>
        <_>
          <depth>5</depth>
          <value>3.3775556186051197e+00</value>
          <norm_class_idx>1</norm_class_idx></_>
        <_>
          <depth>4</depth>
          <value>3.3775556186051197e+00</value>
          <norm_class_idx>1</norm_class_idx>
          <splits>
            <_><var>1370</var>
              <quality>2.1226877346634865e-02</quality>
              <le>4.6560987830162048e-03</le></_></splits></_>
        <_>
          <depth>5</depth>
          <value>3.3775556186051197e+00</value>
          <norm_class_idx>1</norm_class_idx></_>
        <_>
          <depth>5</depth>
          <value>-3.3775556186051197e+00</value>
          <norm_class_idx>0</norm_class_idx></_>
        <_>
          <depth>2</depth>
          <value>3.3775556186051197e+00</value>
          <norm_class_idx>1</norm_class_idx>
          <splits>
            <_><var>1104</var>
              <quality>1.5234190225601196e-01</quality>
              <le>4.5357304625213146e-03</le></_></splits></_>
        <_>
          <depth>3</depth>
          <value>3.3775556186051197e+00</value>
          <norm_class_idx>1</norm_class_idx>
          <splits>
            <_><var>696</var>
              <quality>1.3409100472927094e-01</quality>
              <le>4.0568117983639240e-03</le></_></splits></_>
        <_>
          <depth>4</depth>
          <value>-3.3775556186051197e+00</value>
          <norm_class_idx>0</norm_class_idx></_>
        <_>
          <depth>4</depth>
          <value>3.3775556186051197e+00</value>
          <norm_class_idx>1</norm_class_idx>
          <splits>
            <_><var>638</var>
              <quality>1.3353042304515839e-01</quality>
              <le>4.1580223478376865e-03</le></_></splits></_>
        <_>
          <depth>5</depth>
          <value>-3.3775556186051197e+00</value>
          <norm_class_idx>0</norm_class_idx></_>
        <_>
          <depth>5</depth>
          <value>3.3775556186051197e+00</value>
          <norm_class_idx>1</norm_class_idx></_>
        <_>
          <depth>3</depth>
          <value>-3.3775556186051197e+00</value>
          <norm_class_idx>0</norm_class_idx></_>
        <_>
          <depth>1</depth>
          <value>3.3775556186051197e+00</value>
          <norm_class_idx>1</norm_class_idx>
          <splits>
            <_><var>753</var>
              <quality>1.4716562628746033e-01</quality>
              <le>4.9365317821502686e-01</le></_></splits></_>
        <_>
          <depth>2</depth>
          <value>3.3775556186051197e+00</value>
          <norm_class_idx>1</norm_class_idx>
          <splits>
            <_><var>1449</var>
              <quality>1.4780130982398987e-01</quality>
              <le>1.3353803753852844e-01</le></_></splits></_>
        <_>
          <depth>3</depth>
          <value>-3.3775556186051197e+00</value>
          <norm_class_idx>0</norm_class_idx>
          <splits>
            <_><var>577</var>
              <quality>4.0098703466355801e-03</quality>
              <le>4.5067905448377132e-03</le></_></splits></_>
        <_>
          <depth>4</depth>
          <value>3.3775556186051197e+00</value>
          <norm_class_idx>1</norm_class_idx></_>
        <_>
          <depth>4</depth>
          <value>-3.3775556186051197e+00</value>
          <norm_class_idx>0</norm_class_idx></_>
        <_>
          <depth>3</depth>
          <value>3.3775556186051197e+00</value>
          <norm_class_idx>1</norm_class_idx>
          <splits>
            <_><var>512</var>
              <quality>1.4714573323726654e-01</quality>
              <le>1.3562929630279541e-01</le></_></splits></_>
        <_>
          <depth>4</depth>
          <value>3.3775556186051197e+00</value>
          <norm_class_idx>1</norm_class_idx>
          <splits>
            <_><var>1209</var>
              <quality>1.4760325849056244e-01</quality>
              <le>6.8434782326221466e-02</le></_></splits></_>
        <_>
          <depth>5</depth>
          <value>3.3775556186051197e+00</value>
          <norm_class_idx>1</norm_class_idx></_>
        <_>
          <depth>5</depth>
          <value>-3.3775556186051197e+00</value>
          <norm_class_idx>0</norm_class_idx></_>
        <_>
          <depth>4</depth>
          <value>-3.3775556186051197e+00</value>
          <norm_class_idx>0</norm_class_idx></_>
        <_>
          <depth>2</depth>
          <value>-3.3775556186051197e+00</value>
          <norm_class_idx>0</norm_class_idx></_></nodes></_>
    <_>
      <nodes>
        <_>
          <depth>0</depth>
          <value>4.7273878187123373e+00</value>
          <norm_class_idx>1</norm_class_idx>
          <splits>
            <_><var>406</var>
              <quality>5.8110135793685913e-01</quality>
              <le>1.2793700210750103e-02</le></_></splits></_>
        <_>
          <depth>1</depth>
          <value>-4.7273878187123373e+00</value>
          <norm_class_idx>0</norm_class_idx>
          <splits>
            <_><var>887</var>
              <quality>3.8382384181022644e-01</quality>
              <le>4.1928905993700027e-03</le></_></splits></_>
        <_>
          <depth>2</depth>
          <value>-4.7273878187123373e+00</value>
          <norm_class_idx>0</norm_class_idx>
          <splits>
            <_><var>1307</var>
              <quality>3.1310144066810608e-01</quality>
              <le>1.6772150993347168e-02</le></_></splits></_>
        <_>
          <depth>3</depth>
          <value>-4.7273878187123373e+00</value>
          <norm_class_idx>0</norm_class_idx>
          <splits>
            <_><var>237</var>
              <quality>3.0191954970359802e-01</quality>
              <le>8.8497307151556015e-03</le></_></splits></_>
        <_>
          <depth>4</depth>
          <value>-4.7273878187123373e+00</value>
          <norm_class_idx>0</norm_class_idx>
          <splits>
            <_><var>1008</var>
              <quality>3.0141356587409973e-01</quality>
              <le>2.3641850799322128e-02</le></_></splits></_>
        <_>
          <depth>5</depth>
          <value>-4.7273878187123373e+00</value>
          <norm_class_idx>0</norm_class_idx></_>
        <_>
          <depth>5</depth>
          <value>4.7273878187123373e+00</value>
          <norm_class_idx>1</norm_class_idx></_>
        <_>
          <depth>4</depth>
          <value>4.7273878187123373e+00</value>
          <norm_class_idx>1</norm_class_idx></_>
        <_>
          <depth>3</depth>
          <value>4.7273878187123373e+00</value>
          <norm_class_idx>1</norm_class_idx>
          <splits>
            <_><var>155</var>
              <quality>4.7100964933633804e-02</quality>
              <le>6.4602605998516083e-02</le></_></splits></_>
        <_>
          <depth>4</depth>
          <value>4.7273878187123373e+00</value>
          <norm_class_idx>1</norm_class_idx>
          <splits>
            <_><var>30</var>
              <quality>3.7150520831346512e-02</quality>
              <le>1.2106479145586491e-02</le></_></splits></_>
        <_>
          <depth>5</depth>
          <value>4.7273878187123373e+00</value>
          <norm_class_idx>1</norm_class_idx></_>
        <_>
          <depth>5</depth>
          <value>-4.7273878187123373e+00</value>
          <norm_class_idx>0</norm_class_idx></_>
        <_>
          <depth>4</depth>
          <value>-4.7273878187123373e+00</value>
          <norm_class_idx>0</norm_class_idx></_>
        <_>
          <depth>2</depth>
          <value>4.7273878187123373e+00</value>
          <norm_class_idx>1</norm_class_idx>
          <splits>
            <_><var>537</var>
              <quality>1.5174779295921326e-01</quality>
              <le>7.4771650135517120e-02</le></_></splits></_>
        <_>
          <depth>3</depth>
          <value>4.7273878187123373e+00</value>
          <norm_class_idx>1</norm_class_idx>
          <splits>
            <_><var>971</var>
              <quality>1.3792985677719116e-01</quality>
              <le>8.1798508763313293e-02</le></_></splits></_>
        <_>
          <depth>4</depth>
          <value>4.7273878187123373e+00</value>
          <norm_class_idx>1</norm_class_idx>
          <splits>
            <_><var>985</var>
              <quality>1.2993311882019043e-01</quality>
              <le>2.4269962310791016e-01</le></_></splits></_>
        <_>
          <depth>5</depth>
          <value>4.7273878187123373e+00</value>
          <norm_class_idx>1</norm_class_idx></_>
        <_>
          <depth>5</depth>
          <value>-4.7273878187123373e+00</value>
          <norm_class_idx>0</norm_class_idx></_>
        <_>
          <depth>4</depth>
          <value>-4.7273878187123373e+00</value>
          <norm_class_idx>0</norm_class_idx></_>
        <_>
          <depth>3</depth>
          <value>-4.7273878187123373e+00</value>
          <norm_class_idx>0</norm_class_idx>
          <splits>
            <_><var>928</var>
              <quality>4.4352374970912933e-02</quality>
              <le>3.4130219370126724e-02</le></_></splits></_>
        <_>
          <depth>4</depth>
          <value>-4.7273878187123373e+00</value>
          <norm_class_idx>0</norm_class_idx>
          <splits>
            <_><var>3</var>
              <quality>3.8474004715681076e-02</quality>
              <le>7.4509801343083382e-03</le></_></splits></_>
        <_>
          <depth>5</depth>
          <value>-4.7273878187123373e+00</value>
          <norm_class_idx>0</norm_class_idx></_>
        <_>
          <depth>5</depth>
          <value>4.7273878187123373e+00</value>
          <norm_class_idx>1</norm_class_idx></_>
        <_>
          <depth>4</depth>
          <value>4.7273878187123373e+00</value>
          <norm_class_idx>1</norm_class_idx></_>
        <_>
          <depth>1</depth>
          <value>4.7273878187123373e+00</value>
          <norm_class_idx>1</norm_class_idx>
          <splits>
            <_><var>382</var>
              <quality>3.3431538939476013e-01</quality>
              <le>9.3459989875555038e-03</le></_></splits></_>
        <_>
          <depth>2</depth>
          <value>4.7273878187123373e+00</value>
          <norm_class_idx>1</norm_class_idx>
          <splits>
            <_><var>1262</var>
              <quality>2.6388254761695862e-01</quality>
              <le>5.0855673849582672e-02</le></_></splits></_>
        <_>
          <depth>3</depth>
          <value>4.7273878187123373e+00</value>
          <norm_class_idx>1</norm_class_idx>
          <splits>
            <_><var>14</var>
              <quality>2.5453802943229675e-01</quality>
              <le>1.7665527760982513e-01</le></_></splits></_>
        <_>
          <depth>4</depth>
          <value>4.7273878187123373e+00</value>
          <norm_class_idx>1</norm_class_idx>
          <splits>
            <_><var>86</var>
              <quality>2.5500524044036865e-01</quality>
              <le>5.1741592586040497e-02</le></_></splits></_>
        <_>
          <depth>5</depth>
          <value>4.7273878187123373e+00</value>
          <norm_class_idx>1</norm_class_idx></_>
        <_>
          <depth>5</depth>
          <value>-4.7273878187123373e+00</value>
          <norm_class_idx>0</norm_class_idx></_>
        <_>
          <depth>4</depth>
          <value>-4.7273878187123373e+00</value>
          <norm_class_idx>0</norm_class_idx></_>
        <_>
          <depth>3</depth>
          <value>-4.7273878187123373e+00</value>
          <norm_class_idx>0</norm_class_idx></_>
        <_>
          <depth>2</depth>
          <value>-4.7273878187123373e+00</value>
          <norm_class_idx>0</norm_class_idx>
          <splits>
            <_><var>288</var>
              <quality>1.3142134249210358e-01</quality>
              <le>1.2820746749639511e-02</le></_></splits></_>
        <_>
          <depth>3</depth>
          <value>4.7273878187123373e+00</value>
          <norm_class_idx>1</norm_class_idx>
          <splits>
            <_><var>1203</var>
              <quality>6.1666086316108704e-02</quality>
              <le>4.7143548727035522e-02</le></_></splits></_>
        <_>
          <depth>4</depth>
          <value>4.7273878187123373e+00</value>
          <norm_class_idx>1</norm_class_idx>
          <splits>
            <_><var>173</var>
              <quality>5.6319124996662140e-02</quality>
              <le>5.9094047546386719e-01</le></_></splits></_>
        <_>
          <depth>5</depth>
          <value>4.7273878187123373e+00</value>
          <norm_class_idx>1</norm_class_idx></_>
        <_>
          <depth>5</depth>
          <value>-4.7273878187123373e+00</value>
          <norm_class_idx>0</norm_class_idx></_>
        <_>
          <depth>4</depth>
          <value>-4.7273878187123373e+00</value>
          <norm_class_idx>0</norm_class_idx></_>
        <_>
          <depth>3</depth>
          <value>-4.7273878187123373e+00</value>
          <norm_class_idx>0</norm_class_idx>
          <splits>
            <_><var>321</var>
              <quality>1.0149680823087692e-01</quality>
              <le>9.2719784006476402e-03</le></_></splits></_>
        <_>
          <depth>4</depth>
          <value>-4.7273878187123373e+00</value>
          <norm_class_idx>0</norm_class_idx>
          <splits>
            <_><var>676</var>
              <quality>9.3512825667858124e-02</quality>
              <le>3.2431468367576599e-02</le></_></splits></_>
        <_>
          <depth>5</depth>
          <value>-4.7273878187123373e+00</value>
          <norm_class_idx>0</norm_class_idx></_>
        <_>
          <depth>5</depth>
          <value>4.7273878187123373e+00</value>
          <norm_class_idx>1</norm_class_idx></_>
        <_>
          <depth>4</depth>
          <value>4.7273878187123373e+00</value>
          <norm_class_idx>1</norm_class_idx>
          <splits>
            <_><var>236</var>
              <quality>1.5613587573170662e-02</quality>
              <le>1.0886075906455517e-02</le></_></splits></_>
        <_>
          <depth>5</depth>
          <value>4.7273878187123373e+00</value>
          <norm_class_idx>1</norm_class_idx></_>
        <_>
          <depth>5</depth>
          <value>-4.7273878187123373e+00</value>
          <norm_class_idx>0</norm_class_idx></_></nodes></_>
    <_>
      <nodes>
        <_>
          <depth>0</depth>
          <value>2.8156995912121880e+00</value>
          <norm_class_idx>1</norm_class_idx>
          <splits>
            <_><var>502</var>
              <quality>5.9949940443038940e-01</quality>
              <le>2.9484208673238754e-02</le></_></splits></_>
        <_>
          <depth>1</depth>
          <value>-2.8156995912121880e+00</value>
          <norm_class_idx>0</norm_class_idx>
          <splits>
            <_><var>946</var>
              <quality>4.5657214522361755e-01</quality>
              <le>1.7700500786304474e-02</le></_></splits></_>
        <_>
          <depth>2</depth>
          <value>-2.8156995912121880e+00</value>
          <norm_class_idx>0</norm_class_idx>
          <splits>
            <_><var>435</var>
              <quality>4.2690175771713257e-01</quality>
              <le>4.2919246479868889e-03</le></_></splits></_>
        <_>
          <depth>3</depth>
          <value>-2.8156995912121880e+00</value>
          <norm_class_idx>0</norm_class_idx>
          <splits>
            <_><var>1073</var>
              <quality>3.9318683743476868e-01</quality>
              <le>4.7179255634546280e-03</le></_></splits></_>
        <_>
          <depth>4</depth>
          <value>-2.8156995912121880e+00</value>
          <norm_class_idx>0</norm_class_idx>
          <splits>
            <_><var>772</var>
              <quality>3.9332133531570435e-01</quality>
              <le>2.2396584972739220e-02</le></_></splits></_>
        <_>
          <depth>5</depth>
          <value>-2.8156995912121880e+00</value>
          <norm_class_idx>0</norm_class_idx></_>
        <_>
          <depth>5</depth>
          <value>2.8156995912121880e+00</value>
          <norm_class_idx>1</norm_class_idx></_>
        <_>
          <depth>4</depth>
          <value>2.8156995912121880e+00</value>
          <norm_class_idx>1</norm_class_idx></_>
        <_>
          <depth>3</depth>
          <value>2.8156995912121880e+00</value>
          <norm_class_idx>1</norm_class_idx>
          <splits>
            <_><var>310</var>
              <quality>1.1353553831577301e-01</quality>
              <le>2.4244897067546844e-02</le></_></splits></_>
        <_>
          <depth>4</depth>
          <value>2.8156995912121880e+00</value>
          <norm_class_idx>1</norm_class_idx>
          <splits>
            <_><var>78</var>
              <quality>8.6614482104778290e-02</quality>
              <le>4.3929822742938995e-02</le></_></splits></_>
        <_>
          <depth>5</depth>
          <value>2.8156995912121880e+00</value>
          <norm_class_idx>1</norm_class_idx></_>
        <_>
          <depth>5</depth>
          <value>-2.8156995912121880e+00</value>
          <norm_class_idx>0</norm_class_idx></_>
        <_>
          <depth>4</depth>
          <value>-2.8156995912121880e+00</value>
          <norm_class_idx>0</norm_class_idx>
          <splits>
            <_><var>604</var>
              <quality>3.6414489150047302e-02</quality>
              <le>2.4695120751857758e-02</le></_></splits></_>
        <_>
          <depth>5</depth>
          <value>-2.8156995912121880e+00</value>
          <norm_class_idx>0</norm_class_idx></_>
        <_>
          <depth>5</depth>
          <value>2.8156995912121880e+00</value>
          <norm_class_idx>1</norm_class_idx></_>
        <_>
          <depth>2</depth>
          <value>2.8156995912121880e+00</value>
          <norm_class_idx>1</norm_class_idx>
          <splits>
            <_><var>229</var>
              <quality>8.7726689875125885e-02</quality>
              <le>2.0746889058500528e-03</le></_></splits></_>
        <_>
          <depth>3</depth>
          <value>-2.8156995912121880e+00</value>
          <norm_class_idx>0</norm_class_idx></_>
        <_>
          <depth>3</depth>
          <value>2.8156995912121880e+00</value>
          <norm_class_idx>1</norm_class_idx>
          <splits>
            <_><var>231</var>
              <quality>8.7726101279258728e-02</quality>
              <le>4.9028880894184113e-02</le></_></splits></_>
        <_>
          <depth>4</depth>
          <value>-2.8156995912121880e+00</value>
          <norm_class_idx>0</norm_class_idx></_>
        <_>
          <depth>4</depth>
          <value>2.8156995912121880e+00</value>
          <norm_class_idx>1</norm_class_idx></_>
        <_>
          <depth>1</depth>
          <value>2.8156995912121880e+00</value>
          <norm_class_idx>1</norm_class_idx>
          <splits>
            <_><var>1378</var>
              <quality>2.3407745361328125e-01</quality>
              <le>2.5264166295528412e-02</le></_></splits></_>
        <_>
          <depth>2</depth>
          <value>2.8156995912121880e+00</value>
          <norm_class_idx>1</norm_class_idx>
          <splits>
            <_><var>1104</var>
              <quality>2.2813558578491211e-01</quality>
              <le>4.5560216531157494e-03</le></_></splits></_>
        <_>
          <depth>3</depth>
          <value>2.8156995912121880e+00</value>
          <norm_class_idx>1</norm_class_idx>
          <splits>
            <_><var>218</var>
              <quality>2.2760923206806183e-01</quality>
              <le>7.2904370725154877e-02</le></_></splits></_>
        <_>
          <depth>4</depth>
          <value>2.8156995912121880e+00</value>
          <norm_class_idx>1</norm_class_idx>
          <splits>
            <_><var>1291</var>
              <quality>2.2567881643772125e-01</quality>
              <le>1.7926490306854248e-01</le></_></splits></_>
        <_>
          <depth>5</depth>
          <value>2.8156995912121880e+00</value>
          <norm_class_idx>1</norm_class_idx></_>
        <_>
          <depth>5</depth>
          <value>-2.8156995912121880e+00</value>
          <norm_class_idx>0</norm_class_idx></_>
        <_>
          <depth>4</depth>
          <value>-2.8156995912121880e+00</value>
          <norm_class_idx>0</norm_class_idx></_>
        <_>
          <depth>3</depth>
          <value>-2.8156995912121880e+00</value>
          <norm_class_idx>0</norm_class_idx></_>
        <_>
          <depth>2</depth>
          <value>-2.8156995912121880e+00</value>
          <norm_class_idx>0</norm_class_idx>
          <splits>
            <_><var>652</var>
              <quality>2.9340168461203575e-02</quality>
              <le>3.4988485276699066e-02</le></_></splits></_>
        <_>
          <depth>3</depth>
          <value>-2.8156995912121880e+00</value>
          <norm_class_idx>0</norm_class_idx>
          <splits>
            <_><var>171</var>
              <quality>1.9158197566866875e-02</quality>
              <le>2.0141169428825378e-02</le></_></splits></_>
        <_>
          <depth>4</depth>
          <value>-2.8156995912121880e+00</value>
          <norm_class_idx>0</norm_class_idx></_>
        <_>
          <depth>4</depth>
          <value>2.8156995912121880e+00</value>
          <norm_class_idx>1</norm_class_idx></_>
        <_>
          <depth>3</depth>
          <value>2.8156995912121880e+00</value>
          <norm_class_idx>1</norm_class_idx>
          <splits>
            <_><var>7</var>
              <quality>1.0818297043442726e-02</quality>
              <le>4.2735822498798370e-03</le></_></splits></_>
        <_>
          <depth>4</depth>
          <value>2.8156995912121880e+00</value>
          <norm_class_idx>1</norm_class_idx></_>
        <_>
          <depth>4</depth>
          <value>-2.8156995912121880e+00</value>
          <norm_class_idx>0</norm_class_idx></_></nodes></_>
    <_>
      <nodes>
        <_>
          <depth>0</depth>
          <value>2.6013970773285524e+00</value>
          <norm_class_idx>1</norm_class_idx>
          <splits>
            <_><var>753</var>
              <quality>6.6356235742568970e-01</quality>
              <le>4.0565609931945801e-01</le></_></splits></_>
        <_>
          <depth>1</depth>
          <value>2.6013970773285524e+00</value>
          <norm_class_idx>1</norm_class_idx>
          <splits>
            <_><var>310</var>
              <quality>6.6824632883071899e-01</quality>
              <le>4.6405963599681854e-02</le></_></splits></_>
        <_>
          <depth>2</depth>
          <value>2.6013970773285524e+00</value>
          <norm_class_idx>1</norm_class_idx>
          <splits>
            <_><var>653</var>
              <quality>6.6514271497726440e-01</quality>
              <le>8.2135871052742004e-02</le></_></splits></_>
        <_>
          <depth>3</depth>
          <value>2.6013970773285524e+00</value>
          <norm_class_idx>1</norm_class_idx>
          <splits>
            <_><var>335</var>
              <quality>6.6163581609725952e-01</quality>
              <le>2.4440020322799683e-02</le></_></splits></_>
        <_>
          <depth>4</depth>
          <value>2.6013970773285524e+00</value>
          <norm_class_idx>1</norm_class_idx>
          <splits>
            <_><var>1424</var>
              <quality>6.5985786914825439e-01</quality>
              <le>2.8573332354426384e-02</le></_></splits></_>
        <_>
          <depth>5</depth>
          <value>2.6013970773285524e+00</value>
          <norm_class_idx>1</norm_class_idx></_>
        <_>
          <depth>5</depth>
          <value>-2.6013970773285524e+00</value>
          <norm_class_idx>0</norm_class_idx></_>
        <_>
          <depth>4</depth>
          <value>-2.6013970773285524e+00</value>
          <norm_class_idx>0</norm_class_idx>
          <splits>
            <_><var>195</var>
              <quality>3.0302166938781738e-02</quality>
              <le>1.0648844763636589e-02</le></_></splits></_>
        <_>
          <depth>5</depth>
          <value>2.6013970773285524e+00</value>
          <norm_class_idx>1</norm_class_idx></_>
        <_>
          <depth>5</depth>
          <value>-2.6013970773285524e+00</value>
          <norm_class_idx>0</norm_class_idx></_>
        <_>
          <depth>3</depth>
          <value>-2.6013970773285524e+00</value>
          <norm_class_idx>0</norm_class_idx>
          <splits>
            <_><var>436</var>
              <quality>5.2600841969251633e-02</quality>
              <le>4.3290853500366211e-03</le></_></splits></_>
        <_>
          <depth>4</depth>
          <value>-2.6013970773285524e+00</value>
          <norm_class_idx>0</norm_class_idx>
          <splits>
            <_><var>1005</var>
              <quality>4.6631138771772385e-02</quality>
              <le>4.6190649271011353e-02</le></_></splits></_>
        <_>
          <depth>5</depth>
          <value>-2.6013970773285524e+00</value>
          <norm_class_idx>0</norm_class_idx></_>
        <_>
          <depth>5</depth>
          <value>2.6013970773285524e+00</value>
          <norm_class_idx>1</norm_class_idx></_>
        <_>
          <depth>4</depth>
          <value>2.6013970773285524e+00</value>
          <norm_class_idx>1</norm_class_idx>
          <splits>
            <_><var>9</var>
              <quality>1.8054636195302010e-02</quality>
              <le>4.1684759780764580e-03</le></_></splits></_>
        <_>
          <depth>5</depth>
          <value>-2.6013970773285524e+00</value>
          <norm_class_idx>0</norm_class_idx></_>
        <_>
          <depth>5</depth>
          <value>2.6013970773285524e+00</value>
          <norm_class_idx>1</norm_class_idx></_>
        <_>
          <depth>2</depth>
          <value>-2.6013970773285524e+00</value>
          <norm_class_idx>0</norm_class_idx>
          <splits>
            <_><var>287</var>
              <quality>5.1780141890048981e-02</quality>
              <le>4.0000639855861664e-03</le></_></splits></_>
        <_>
          <depth>3</depth>
          <value>2.6013970773285524e+00</value>
          <norm_class_idx>1</norm_class_idx></_>
        <_>
          <depth>3</depth>
          <value>-2.6013970773285524e+00</value>
          <norm_class_idx>0</norm_class_idx>
          <splits>
            <_><var>402</var>
              <quality>4.8462372273206711e-02</quality>
              <le>4.0245521813631058e-03</le></_></splits></_>
        <_>
          <depth>4</depth>
          <value>2.6013970773285524e+00</value>
          <norm_class_idx>1</norm_class_idx></_>
        <_>
          <depth>4</depth>
          <value>-2.6013970773285524e+00</value>
          <norm_class_idx>0</norm_class_idx></_>
        <_>
          <depth>1</depth>
          <value>-2.6013970773285524e+00</value>
          <norm_class_idx>0</norm_class_idx>
          <splits>
            <_><var>1076</var>
              <quality>5.2963178604841232e-02</quality>
              <le>3.3041857182979584e-02</le></_></splits></_>
        <_>
          <depth>2</depth>
          <value>-2.6013970773285524e+00</value>
          <norm_class_idx>0</norm_class_idx></_>
        <_>
          <depth>2</depth>
          <value>2.6013970773285524e+00</value>
          <norm_class_idx>1</norm_class_idx></_></nodes></_>
    <_>
      <nodes>
        <_>
          <depth>0</depth>
          <value>-2.8670876060627535e+00</value>
          <norm_class_idx>0</norm_class_idx>
          <splits>
            <_><var>1175</var>
              <quality>6.1410051584243774e-01</quality>
              <le>1.6293887048959732e-02</le></_></splits></_>
        <_>
          <depth>1</depth>
          <value>2.8670876060627535e+00</value>
          <norm_class_idx>1</norm_class_idx>
          <splits>
            <_><var>662</var>
              <quality>1.8434062600135803e-01</quality>
              <le>4.3763886205852032e-03</le></_></splits></_>
        <_>
          <depth>2</depth>
          <value>-2.8670876060627535e+00</value>
          <norm_class_idx>0</norm_class_idx>
          <splits>
            <_><var>777</var>
              <quality>3.8892626762390137e-02</quality>
              <le>4.6622324734926224e-03</le></_></splits></_>
        <_>
          <depth>3</depth>
          <value>-2.8670876060627535e+00</value>
          <norm_class_idx>0</norm_class_idx>
          <splits>
            <_><var>437</var>
              <quality>2.4038434028625488e-02</quality>
              <le>8.9349821209907532e-03</le></_></splits></_>
        <_>
          <depth>4</depth>
          <value>-2.8670876060627535e+00</value>
          <norm_class_idx>0</norm_class_idx></_>
        <_>
          <depth>4</depth>
          <value>2.8670876060627535e+00</value>
          <norm_class_idx>1</norm_class_idx></_>
        <_>
          <depth>3</depth>
          <value>2.8670876060627535e+00</value>
          <norm_class_idx>1</norm_class_idx></_>
        <_>
          <depth>2</depth>
          <value>2.8670876060627535e+00</value>
          <norm_class_idx>1</norm_class_idx>
          <splits>
            <_><var>744</var>
              <quality>1.6804830729961395e-01</quality>
              <le>9.8748475313186646e-02</le></_></splits></_>
        <_>
          <depth>3</depth>
          <value>2.8670876060627535e+00</value>
          <norm_class_idx>1</norm_class_idx>
          <splits>
            <_><var>869</var>
              <quality>1.6787463426589966e-01</quality>
              <le>6.8254339694976807e-01</le></_></splits></_>
        <_>
          <depth>4</depth>
          <value>2.8670876060627535e+00</value>
          <norm_class_idx>1</norm_class_idx>
          <splits>
            <_><var>1286</var>
              <quality>1.6826319694519043e-01</quality>
              <le>3.4542955458164215e-02</le></_></splits></_>
        <_>
          <depth>5</depth>
          <value>2.8670876060627535e+00</value>
          <norm_class_idx>1</norm_class_idx></_>
        <_>
          <depth>5</depth>
          <value>-2.8670876060627535e+00</value>
          <norm_class_idx>0</norm_class_idx></_>
        <_>
          <depth>4</depth>
          <value>-2.8670876060627535e+00</value>
          <norm_class_idx>0</norm_class_idx></_>
        <_>
          <depth>3</depth>
          <value>-2.8670876060627535e+00</value>
          <norm_class_idx>0</norm_class_idx>
          <splits>
            <_><var>58</var>
              <quality>4.5027383603155613e-03</quality>
              <le>2.2613959386944771e-02</le></_></splits></_>
        <_>
          <depth>4</depth>
          <value>-2.8670876060627535e+00</value>
          <norm_class_idx>0</norm_class_idx></_>
        <_>
          <depth>4</depth>
          <value>2.8670876060627535e+00</value>
          <norm_class_idx>1</norm_class_idx></_>
        <_>
          <depth>1</depth>
          <value>-2.8670876060627535e+00</value>
          <norm_class_idx>0</norm_class_idx>
          <splits>
            <_><var>680</var>
              <quality>5.2840322256088257e-01</quality>
              <le>3.2203704118728638e-02</le></_></splits></_>
        <_>
          <depth>2</depth>
          <value>-2.8670876060627535e+00</value>
          <norm_class_idx>0</norm_class_idx>
          <splits>
            <_><var>408</var>
              <quality>5.0551527738571167e-01</quality>
              <le>4.8310309648513794e-03</le></_></splits></_>
        <_>
          <depth>3</depth>
          <value>-2.8670876060627535e+00</value>
          <norm_class_idx>0</norm_class_idx>
          <splits>
            <_><var>385</var>
              <quality>5.0973433256149292e-01</quality>
              <le>4.9003850668668747e-02</le></_></splits></_>
        <_>
          <depth>4</depth>
          <value>-2.8670876060627535e+00</value>
          <norm_class_idx>0</norm_class_idx>
          <splits>
            <_><var>1241</var>
              <quality>5.1619964838027954e-01</quality>
              <le>9.0091917663812637e-03</le></_></splits></_>
        <_>
          <depth>5</depth>
          <value>-2.8670876060627535e+00</value>
          <norm_class_idx>0</norm_class_idx></_>
        <_>
          <depth>5</depth>
          <value>2.8670876060627535e+00</value>
          <norm_class_idx>1</norm_class_idx></_>
        <_>
          <depth>4</depth>
          <value>2.8670876060627535e+00</value>
          <norm_class_idx>1</norm_class_idx>
          <splits>
            <_><var>0</var>
              <quality>3.4768994897603989e-02</quality>
              <le>2.1834061481058598e-03</le></_></splits></_>
        <_>
          <depth>5</depth>
          <value>-2.8670876060627535e+00</value>
          <norm_class_idx>0</norm_class_idx></_>
        <_>
          <depth>5</depth>
          <value>2.8670876060627535e+00</value>
          <norm_class_idx>1</norm_class_idx></_>
        <_>
          <depth>3</depth>
          <value>2.8670876060627535e+00</value>
          <norm_class_idx>1</norm_class_idx>
          <splits>
            <_><var>769</var>
              <quality>5.1901757717132568e-02</quality>
              <le>4.6649403870105743e-02</le></_></splits></_>
        <_>
          <depth>4</depth>
          <value>2.8670876060627535e+00</value>
          <norm_class_idx>1</norm_class_idx></_>
        <_>
          <depth>4</depth>
          <value>-2.8670876060627535e+00</value>
          <norm_class_idx>0</norm_class_idx></_>
        <_>
          <depth>2</depth>
          <value>2.8670876060627535e+00</value>
          <norm_class_idx>1</norm_class_idx>
          <splits>
            <_><var>920</var>
              <quality>7.9035870730876923e-02</quality>
              <le>2.3405883461236954e-02</le></_></splits></_>
        <_>
          <depth>3</depth>
          <value>2.8670876060627535e+00</value>
          <norm_class_idx>1</norm_class_idx></_>
        <_>
          <depth>3</depth>
          <value>-2.8670876060627535e+00</value>
          <norm_class_idx>0</norm_class_idx></_></nodes></_>
    <_>
      <nodes>
        <_>
          <depth>0</depth>
          <value>3.2287432277293671e+00</value>
          <norm_class_idx>1</norm_class_idx>
          <splits>
            <_><var>364</var>
              <quality>5.9541350603103638e-01</quality>
              <le>1.9920319318771362e-03</le></_></splits></_>
        <_>
          <depth>1</depth>
          <value>-3.2287432277293671e+00</value>
          <norm_class_idx>0</norm_class_idx>
          <splits>
            <_><var>287</var>
              <quality>4.1622745990753174e-01</quality>
              <le>1.6032129526138306e-02</le></_></splits></_>
        <_>
          <depth>2</depth>
          <value>-3.2287432277293671e+00</value>
          <norm_class_idx>0</norm_class_idx>
          <splits>
            <_><var>1353</var>
              <quality>2.9570075869560242e-01</quality>
              <le>3.8216732442378998e-02</le></_></splits></_>
        <_>
          <depth>3</depth>
          <value>-3.2287432277293671e+00</value>
          <norm_class_idx>0</norm_class_idx>
          <splits>
            <_><var>686</var>
              <quality>2.9808253049850464e-01</quality>
              <le>9.9564101547002792e-03</le></_></splits></_>
        <_>
          <depth>4</depth>
          <value>3.2287432277293671e+00</value>
          <norm_class_idx>1</norm_class_idx>
          <splits>
            <_><var>631</var>
              <quality>2.2786594927310944e-02</quality>
              <le>2.0000000949949026e-03</le></_></splits></_>
        <_>
          <depth>5</depth>
          <value>-3.2287432277293671e+00</value>
          <norm_class_idx>0</norm_class_idx></_>
        <_>
          <depth>5</depth>
          <value>3.2287432277293671e+00</value>
          <norm_class_idx>1</norm_class_idx></_>
        <_>
          <depth>4</depth>
          <value>-3.2287432277293671e+00</value>
          <norm_class_idx>0</norm_class_idx>
          <splits>
            <_><var>1381</var>
              <quality>2.9281046986579895e-01</quality>
              <le>7.2585359215736389e-02</le></_></splits></_>
        <_>
          <depth>5</depth>
          <value>-3.2287432277293671e+00</value>
          <norm_class_idx>0</norm_class_idx></_>
        <_>
          <depth>5</depth>
          <value>3.2287432277293671e+00</value>
          <norm_class_idx>1</norm_class_idx></_>
        <_>
          <depth>3</depth>
          <value>3.2287432277293671e+00</value>
          <norm_class_idx>1</norm_class_idx>
          <splits>
            <_><var>47</var>
              <quality>3.3988248556852341e-02</quality>
              <le>1.8023869022727013e-02</le></_></splits></_>
        <_>
          <depth>4</depth>
          <value>3.2287432277293671e+00</value>
          <norm_class_idx>1</norm_class_idx></_>
        <_>
          <depth>4</depth>
          <value>-3.2287432277293671e+00</value>
          <norm_class_idx>0</norm_class_idx></_>
        <_>
          <depth>2</depth>
          <value>3.2287432277293671e+00</value>
          <norm_class_idx>1</norm_class_idx>
          <splits>
            <_><var>1092</var>
              <quality>1.9343541562557220e-01</quality>
              <le>3.7512212991714478e-02</le></_></splits></_>
        <_>
          <depth>3</depth>
          <value>3.2287432277293671e+00</value>
          <norm_class_idx>1</norm_class_idx>
          <splits>
            <_><var>688</var>
              <quality>1.5822187066078186e-01</quality>
              <le>3.4393470734357834e-02</le></_></splits></_>
        <_>
          <depth>4</depth>
          <value>3.2287432277293671e+00</value>
          <norm_class_idx>1</norm_class_idx>
          <splits>
            <_><var>753</var>
              <quality>1.5895736217498779e-01</quality>
              <le>3.8508063554763794e-01</le></_></splits></_>
        <_>
          <depth>5</depth>
          <value>3.2287432277293671e+00</value>
          <norm_class_idx>1</norm_class_idx></_>
        <_>
          <depth>5</depth>
          <value>-3.2287432277293671e+00</value>
          <norm_class_idx>0</norm_class_idx></_>
        <_>
          <depth>4</depth>
          <value>-3.2287432277293671e+00</value>
          <norm_class_idx>0</norm_class_idx></_>
        <_>
          <depth>3</depth>
          <value>-3.2287432277293671e+00</value>
          <norm_class_idx>0</norm_class_idx>
          <splits>
            <_><var>950</var>
              <quality>8.4795542061328888e-02</quality>
              <le>8.7146386504173279e-03</le></_></splits></_>
        <_>
          <depth>4</depth>
          <value>-3.2287432277293671e+00</value>
          <norm_class_idx>0</norm_class_idx>
          <splits>
            <_><var>1240</var>
              <quality>6.0562293976545334e-02</quality>
              <le>4.6732025220990181e-03</le></_></splits></_>
        <_>
          <depth>5</depth>
          <value>-3.2287432277293671e+00</value>
          <norm_class_idx>0</norm_class_idx></_>
        <_>
          <depth>5</depth>
          <value>3.2287432277293671e+00</value>
          <norm_class_idx>1</norm_class_idx></_>
        <_>
          <depth>4</depth>
          <value>3.2287432277293671e+00</value>
          <norm_class_idx>1</norm_class_idx></_>
        <_>
          <depth>1</depth>
          <value>3.2287432277293671e+00</value>
          <norm_class_idx>1</norm_class_idx>
          <splits>
            <_><var>301</var>
              <quality>2.9149395227432251e-01</quality>
              <le>2.4503046646714211e-02</le></_></splits></_>
        <_>
          <depth>2</depth>
          <value>3.2287432277293671e+00</value>
          <norm_class_idx>1</norm_class_idx>
          <splits>
            <_><var>818</var>
              <quality>2.8461605310440063e-01</quality>
              <le>2.2709483280777931e-02</le></_></splits></_>
        <_>
          <depth>3</depth>
          <value>3.2287432277293671e+00</value>
          <norm_class_idx>1</norm_class_idx>
          <splits>
            <_><var>882</var>
              <quality>2.8215229511260986e-01</quality>
              <le>1.4508929103612900e-02</le></_></splits></_>
        <_>
          <depth>4</depth>
          <value>3.2287432277293671e+00</value>
          <norm_class_idx>1</norm_class_idx>
          <splits>
            <_><var>130</var>
              <quality>2.8282973170280457e-01</quality>
              <le>1.7947758734226227e-01</le></_></splits></_>
        <_>
          <depth>5</depth>
          <value>3.2287432277293671e+00</value>
          <norm_class_idx>1</norm_class_idx></_>
        <_>
          <depth>5</depth>
          <value>-3.2287432277293671e+00</value>
          <norm_class_idx>0</norm_class_idx></_>
        <_>
          <depth>4</depth>
          <value>-3.2287432277293671e+00</value>
          <norm_class_idx>0</norm_class_idx></_>
        <_>
          <depth>3</depth>
          <value>-3.2287432277293671e+00</value>
          <norm_class_idx>0</norm_class_idx></_>
        <_>
          <depth>2</depth>
          <value>-3.2287432277293671e+00</value>
          <norm_class_idx>0</norm_class_idx></_></nodes></_>
    <_>
      <nodes>
        <_>
          <depth>0</depth>
          <value>3.5927550580428389e+00</value>
          <norm_class_idx>1</norm_class_idx>
          <splits>
            <_><var>785</var>
              <quality>6.3572055101394653e-01</quality>
              <le>4.1753835976123810e-03</le></_></splits></_>
        <_>
          <depth>1</depth>
          <value>-3.5927550580428389e+00</value>
          <norm_class_idx>0</norm_class_idx>
          <splits>
            <_><var>656</var>
              <quality>2.5647032260894775e-01</quality>
              <le>4.6189622953534126e-03</le></_></splits></_>
        <_>
          <depth>2</depth>
          <value>-3.5927550580428389e+00</value>
          <norm_class_idx>0</norm_class_idx>
          <splits>
            <_><var>76</var>
              <quality>1.9346922636032104e-01</quality>
              <le>1.9212376326322556e-02</le></_></splits></_>
        <_>
          <depth>3</depth>
          <value>-3.5927550580428389e+00</value>
          <norm_class_idx>0</norm_class_idx>
          <splits>
            <_><var>306</var>
              <quality>1.9492220878601074e-01</quality>
              <le>4.2826747521758080e-03</le></_></splits></_>
        <_>
          <depth>4</depth>
          <value>-3.5927550580428389e+00</value>
          <norm_class_idx>0</norm_class_idx>
          <splits>
            <_><var>48</var>
              <quality>1.8719987571239471e-01</quality>
              <le>3.1466305255889893e-01</le></_></splits></_>
        <_>
          <depth>5</depth>
          <value>-3.5927550580428389e+00</value>
          <norm_class_idx>0</norm_class_idx></_>
        <_>
          <depth>5</depth>
          <value>3.5927550580428389e+00</value>
          <norm_class_idx>1</norm_class_idx></_>
        <_>
          <depth>4</depth>
          <value>3.5927550580428389e+00</value>
          <norm_class_idx>1</norm_class_idx>
          <splits>
            <_><var>489</var>
              <quality>2.6594620198011398e-02</quality>
              <le>4.2742067016661167e-03</le></_></splits></_>
        <_>
          <depth>5</depth>
          <value>3.5927550580428389e+00</value>
          <norm_class_idx>1</norm_class_idx></_>
        <_>
          <depth>5</depth>
          <value>-3.5927550580428389e+00</value>
          <norm_class_idx>0</norm_class_idx></_>
        <_>
          <depth>3</depth>
          <value>3.5927550580428389e+00</value>
          <norm_class_idx>1</norm_class_idx></_>
        <_>
          <depth>2</depth>
          <value>3.5927550580428389e+00</value>
          <norm_class_idx>1</norm_class_idx>
          <splits>
            <_><var>381</var>
              <quality>1.1363103985786438e-01</quality>
              <le>8.2824602723121643e-03</le></_></splits></_>
        <_>
          <depth>3</depth>
          <value>-3.5927550580428389e+00</value>
          <norm_class_idx>0</norm_class_idx>
          <splits>
            <_><var>950</var>
              <quality>5.6986197829246521e-02</quality>
              <le>8.7912511080503464e-03</le></_></splits></_>
        <_>
          <depth>4</depth>
          <value>-3.5927550580428389e+00</value>
          <norm_class_idx>0</norm_class_idx>
          <splits>
            <_><var>1096</var>
              <quality>5.0714779645204544e-02</quality>
              <le>4.2553963139653206e-03</le></_></splits></_>
        <_>
          <depth>5</depth>
          <value>3.5927550580428389e+00</value>
          <norm_class_idx>1</norm_class_idx></_>
        <_>
          <depth>5</depth>
          <value>-3.5927550580428389e+00</value>
          <norm_class_idx>0</norm_class_idx></_>
        <_>
          <depth>4</depth>
          <value>3.5927550580428389e+00</value>
          <norm_class_idx>1</norm_class_idx></_>
        <_>
          <depth>3</depth>
          <value>3.5927550580428389e+00</value>
          <norm_class_idx>1</norm_class_idx>
          <splits>
            <_><var>105</var>
              <quality>8.2608424127101898e-02</quality>
              <le>6.2451388686895370e-02</le></_></splits></_>
        <_>
          <depth>4</depth>
          <value>3.5927550580428389e+00</value>
          <norm_class_idx>1</norm_class_idx>
          <splits>
            <_><var>47</var>
              <quality>8.0356262624263763e-02</quality>
              <le>6.8980649113655090e-02</le></_></splits></_>
        <_>
          <depth>5</depth>
          <value>3.5927550580428389e+00</value>
          <norm_class_idx>1</norm_class_idx></_>
        <_>
          <depth>5</depth>
          <value>-3.5927550580428389e+00</value>
          <norm_class_idx>0</norm_class_idx></_>
        <_>
          <depth>4</depth>
          <value>-3.5927550580428389e+00</value>
          <norm_class_idx>0</norm_class_idx></_>
        <_>
          <depth>1</depth>
          <value>3.5927550580428389e+00</value>
          <norm_class_idx>1</norm_class_idx>
          <splits>
            <_><var>1229</var>
              <quality>4.6169042587280273e-01</quality>
              <le>1.6771562397480011e-02</le></_></splits></_>
        <_>
          <depth>2</depth>
          <value>3.5927550580428389e+00</value>
          <norm_class_idx>1</norm_class_idx>
          <splits>
            <_><var>1393</var>
              <quality>4.4373348355293274e-01</quality>
              <le>1.7535781487822533e-02</le></_></splits></_>
        <_>
          <depth>3</depth>
          <value>3.5927550580428389e+00</value>
          <norm_class_idx>1</norm_class_idx>
          <splits>
            <_><var>516</var>
              <quality>4.5059144496917725e-01</quality>
              <le>2.7334993705153465e-02</le></_></splits></_>
        <_>
          <depth>4</depth>
          <value>3.5927550580428389e+00</value>
          <norm_class_idx>1</norm_class_idx>
          <splits>
            <_><var>406</var>
              <quality>4.5067471265792847e-01</quality>
              <le>1.9685039296746254e-03</le></_></splits></_>
        <_>
          <depth>5</depth>
          <value>-3.5927550580428389e+00</value>
          <norm_class_idx>0</norm_class_idx></_>
        <_>
          <depth>5</depth>
          <value>3.5927550580428389e+00</value>
          <norm_class_idx>1</norm_class_idx></_>
        <_>
          <depth>4</depth>
          <value>-3.5927550580428389e+00</value>
          <norm_class_idx>0</norm_class_idx>
          <splits>
            <_><var>418</var>
              <quality>2.0488884299993515e-02</quality>
              <le>4.5463000424206257e-03</le></_></splits></_>
        <_>
          <depth>5</depth>
          <value>-3.5927550580428389e+00</value>
          <norm_class_idx>0</norm_class_idx></_>
        <_>
          <depth>5</depth>
          <value>3.5927550580428389e+00</value>
          <norm_class_idx>1</norm_class_idx></_>
        <_>
          <depth>3</depth>
          <value>-3.5927550580428389e+00</value>
          <norm_class_idx>0</norm_class_idx></_>
        <_>
          <depth>2</depth>
          <value>-3.5927550580428389e+00</value>
          <norm_class_idx>0</norm_class_idx>
          <splits>
            <_><var>672</var>
              <quality>5.5728595703840256e-02</quality>
              <le>4.5158001594245434e-03</le></_></splits></_>
        <_>
          <depth>3</depth>
          <value>3.5927550580428389e+00</value>
          <norm_class_idx>1</norm_class_idx></_>
        <_>
          <depth>3</depth>
          <value>-3.5927550580428389e+00</value>
          <norm_class_idx>0</norm_class_idx>
          <splits>
            <_><var>46</var>
              <quality>4.1765589267015457e-02</quality>
              <le>8.3241034299135208e-03</le></_></splits></_>
        <_>
          <depth>4</depth>
          <value>3.5927550580428389e+00</value>
          <norm_class_idx>1</norm_class_idx></_>
        <_>
          <depth>4</depth>
          <value>-3.5927550580428389e+00</value>
          <norm_class_idx>0</norm_class_idx></_></nodes></_>
    <_>
      <nodes>
        <_>
          <depth>0</depth>
          <value>3.4297076371415001e+00</value>
          <norm_class_idx>1</norm_class_idx>
          <splits>
            <_><var>986</var>
              <quality>6.3791465759277344e-01</quality>
              <le>4.2105447500944138e-03</le></_></splits></_>
        <_>
          <depth>1</depth>
          <value>-3.4297076371415001e+00</value>
          <norm_class_idx>0</norm_class_idx>
          <splits>
            <_><var>371</var>
              <quality>2.1386690437793732e-01</quality>
              <le>4.3293288908898830e-03</le></_></splits></_>
        <_>
          <depth>2</depth>
          <value>-3.4297076371415001e+00</value>
          <norm_class_idx>0</norm_class_idx>
          <splits>
            <_><var>770</var>
              <quality>1.7727380990982056e-01</quality>
              <le>4.6729994937777519e-03</le></_></splits></_>
        <_>
          <depth>3</depth>
          <value>-3.4297076371415001e+00</value>
          <norm_class_idx>0</norm_class_idx>
          <splits>
            <_><var>935</var>
              <quality>1.8005579710006714e-01</quality>
              <le>4.2518232949078083e-03</le></_></splits></_>
        <_>
          <depth>4</depth>
          <value>-3.4297076371415001e+00</value>
          <norm_class_idx>0</norm_class_idx></_>
        <_>
          <depth>4</depth>
          <value>3.4297076371415001e+00</value>
          <norm_class_idx>1</norm_class_idx></_>
        <_>
          <depth>3</depth>
          <value>3.4297076371415001e+00</value>
          <norm_class_idx>1</norm_class_idx></_>
        <_>
          <depth>2</depth>
          <value>3.4297076371415001e+00</value>
          <norm_class_idx>1</norm_class_idx>
          <splits>
            <_><var>463</var>
              <quality>6.7609459161758423e-02</quality>
              <le>1.2724292278289795e-01</le></_></splits></_>
        <_>
          <depth>3</depth>
          <value>3.4297076371415001e+00</value>
          <norm_class_idx>1</norm_class_idx>
          <splits>
            <_><var>676</var>
              <quality>5.7923134416341782e-02</quality>
              <le>4.3297344818711281e-03</le></_></splits></_>
        <_>
          <depth>4</depth>
          <value>-3.4297076371415001e+00</value>
          <norm_class_idx>0</norm_class_idx></_>
        <_>
          <depth>4</depth>
          <value>3.4297076371415001e+00</value>
          <norm_class_idx>1</norm_class_idx></_>
        <_>
          <depth>3</depth>
          <value>-3.4297076371415001e+00</value>
          <norm_class_idx>0</norm_class_idx>
          <splits>
            <_><var>24</var>
              <quality>2.1958509460091591e-02</quality>
              <le>1.1080917902290821e-02</le></_></splits></_>
        <_>
          <depth>4</depth>
          <value>-3.4297076371415001e+00</value>
          <norm_class_idx>0</norm_class_idx></_>
        <_>
          <depth>4</depth>
          <value>3.4297076371415001e+00</value>
          <norm_class_idx>1</norm_class_idx></_>
        <_>
          <depth>1</depth>
          <value>3.4297076371415001e+00</value>
          <norm_class_idx>1</norm_class_idx>
          <splits>
            <_><var>393</var>
              <quality>5.3981161117553711e-01</quality>
              <le>1.7977619543671608e-02</le></_></splits></_>
        <_>
          <depth>2</depth>
          <value>3.4297076371415001e+00</value>
          <norm_class_idx>1</norm_class_idx>
          <splits>
            <_><var>1311</var>
              <quality>4.9116024374961853e-01</quality>
              <le>1.9841270986944437e-03</le></_></splits></_>
        <_>
          <depth>3</depth>
          <value>3.4297076371415001e+00</value>
          <norm_class_idx>1</norm_class_idx>
          <splits>
            <_><var>804</var>
              <quality>5.1103893667459488e-02</quality>
              <le>9.0371277183294296e-03</le></_></splits></_>
        <_>
          <depth>4</depth>
          <value>-3.4297076371415001e+00</value>
          <norm_class_idx>0</norm_class_idx>
          <splits>
            <_><var>0</var>
              <quality>2.6556411758065224e-02</quality>
              <le>4.4848434627056122e-02</le></_></splits></_>
        <_>
          <depth>5</depth>
          <value>-3.4297076371415001e+00</value>
          <norm_class_idx>0</norm_class_idx></_>
        <_>
          <depth>5</depth>
          <value>3.4297076371415001e+00</value>
          <norm_class_idx>1</norm_class_idx></_>
        <_>
          <depth>4</depth>
          <value>3.4297076371415001e+00</value>
          <norm_class_idx>1</norm_class_idx>
          <splits>
            <_><var>161</var>
              <quality>3.2732322812080383e-02</quality>
              <le>1.2930264696478844e-02</le></_></splits></_>
        <_>
          <depth>5</depth>
          <value>3.4297076371415001e+00</value>
          <norm_class_idx>1</norm_class_idx></_>
        <_>
          <depth>5</depth>
          <value>-3.4297076371415001e+00</value>
          <norm_class_idx>0</norm_class_idx></_>
        <_>
          <depth>3</depth>
          <value>3.4297076371415001e+00</value>
          <norm_class_idx>1</norm_class_idx>
          <splits>
            <_><var>32</var>
              <quality>4.7651109099388123e-01</quality>
              <le>2.9412284493446350e-02</le></_></splits></_>
        <_>
          <depth>4</depth>
          <value>3.4297076371415001e+00</value>
          <norm_class_idx>1</norm_class_idx>
          <splits>
            <_><var>1317</var>
              <quality>4.7601276636123657e-01</quality>
              <le>4.7392785549163818e-02</le></_></splits></_>
        <_>
          <depth>5</depth>
          <value>3.4297076371415001e+00</value>
          <norm_class_idx>1</norm_class_idx></_>
        <_>
          <depth>5</depth>
          <value>-3.4297076371415001e+00</value>
          <norm_class_idx>0</norm_class_idx></_>
        <_>
          <depth>4</depth>
          <value>-3.4297076371415001e+00</value>
          <norm_class_idx>0</norm_class_idx></_>
        <_>
          <depth>2</depth>
          <value>-3.4297076371415001e+00</value>
          <norm_class_idx>0</norm_class_idx>
          <splits>
            <_><var>579</var>
              <quality>8.8276021182537079e-02</quality>
              <le>6.4081616699695587e-02</le></_></splits></_>
