<?xml version="1.0"?>
<opencv_storage>
<opencv_ml_ann_mlp>
  <format>3</format>
  <layer_sizes>
    279 279 139 69 2</layer_sizes>
  <activation_function>SIGMOID_SYM</activation_function>
  <f_param1>1.</f_param1>
  <f_param2>1.</f_param2>
  <min_val>-9.4999999999999996e-01</min_val>
  <max_val>9.4999999999999996e-01</max_val>
  <min_val1>-9.7999999999999998e-01</min_val1>
  <max_val1>9.7999999999999998e-01</max_val1>
  <training_params>
    <train_method>BACKPROP</train_method>
    <dw_scale>1.0000000000000000e-03</dw_scale>
    <moment_scale>1.0000000000000001e-01</moment_scale>
    <term_criteria>
      <epsilon>1.0000000000000000e-04</epsilon>
      <iterations>10000</iterations></term_criteria></training_params>
  <input_scale>
    7.7757932091407893e+00 -1.4504075872302356e+00
    8.2653972935003637e+00 -1.2475964478929815e+00
    8.5657462337855677e+00 -1.1426289687251490e+00
    8.2519189951044503e+00 -1.4777119005264003e+00
    8.3130388239565605e+00 -1.3040829268430068e+00
    8.7376181901927517e+00 -1.2056570273741820e+00
    8.3525914022330987e+00 -1.4479609814098580e+00
    8.5015942465306580e+00 -1.3538778310150819e+00
    8.6780309269800409e+00 -1.3401159205705959e+00
    1.0365540215826803e+01 -1.0076182691474673e+00
    1.0402132912130023e+01 -9.1271460494323786e-01
    1.1412180020737125e+01 -8.6504515523178516e-01
    1.0031747206051914e+01 -9.9384731061612142e-01
    9.4193523736933287e+00 -9.1736945072037301e-01
    1.0698618181201734e+01 -8.5867972506020940e-01
    9.7088600769705540e+00 -9.7524188200822670e-01
    1.0091035435010619e+01 -9.5213479370488152e-01
    1.1454790420662642e+01 -9.1930656122289345e-01
    9.9969053807512793e+00 -1.3547534939994919e+00
    9.4884831052314667e+00 -1.2565796815529380e+00
    9.5534278921027695e+00 -1.2332690511107058e+00
    1.0600181754767194e+01 -1.3668638275735363e+00
    9.4016743761823456e+00 -1.2252541620318651e+00
    9.8804658482955627e+00 -1.1739461152754649e+00
    1.0937379081317848e+01 -1.4389754628955986e+00
    1.1295093702124781e+01 -1.3866616951747104e+00
    1.0908853738608174e+01 -1.3031775856575514e+00
    8.9108443662337091e+00 -1.1178125742639060e+00
    8.6440030416379461e+00 -1.0864366275826962e+00
    8.8056977809677335e+00 -1.1169697751520680e+00
    9.7010443413640139e+00 -1.1179940541663902e+00
    9.6488196115144209e+00 -1.0898389093773215e+00
    9.5085293601754746e+00 -1.0323807313314899e+00
    9.4548763666935205e+00 -1.1119234327073997e+00
    9.9642021052281873e+00 -1.1194668189199266e+00
    9.8364250715965369e+00 -1.0745025945530384e+00
    8.1225602092152105e+00 -1.9101112070971531e+00
    8.3230413647593018e+00 -1.8679964435869127e+00
    8.2726176534450158e+00 -1.9244074820297263e+00
    8.1856460246624287e+00 -1.6528157618388202e+00
    8.1631975949985858e+00 -1.6132353865207789e+00
    7.9628712202286529e+00 -1.6674487830313436e+00
    8.0808172700131458e+00 -1.7347254891740398e+00
    8.0256236013408362e+00 -1.6946661544496913e+00
    8.0132141241592336e+00 -1.8374000195293201e+00
    8.1287010826620154e+00 -8.6527284315813047e-01
    8.7766698856323710e+00 -9.3785837149390139e-01
    1.0291333911234620e+01 -9.8607027447344964e-01
    1.0130982824123118e+01 -8.2027577341483060e-01
    1.0666746238351362e+01 -8.7006243754495660e-01
    1.1953189465978598e+01 -8.8307542144251749e-01
    1.1270751711603465e+01 -8.4354380100865012e-01
    1.1240254708709347e+01 -8.4993416021621915e-01
    1.1745007390094221e+01 -8.3538941436772463e-01
    1.1906931161848410e+01 -9.0962056035872474e-01
    1.1485166394650847e+01 -9.6708649385675372e-01
    1.2338014782236758e+01 -1.0086459187558960e+00
    1.3700132488730528e+01 -8.7704575432873155e-01
    1.3568029502864503e+01 -8.9053643777777269e-01
    1.5669222874010288e+01 -9.3761749049465182e-01
    1.4066584933908826e+01 -9.2241437212221755e-01
    1.4478252769315997e+01 -9.2716373760519566e-01
    1.5597773564566836e+01 -9.3597387412521404e-01
    1.4880182138281651e+01 -1.1481104229857215e+00
    1.2738856948863329e+01 -1.1733575992693785e+00
    1.2387620143645183e+01 -1.2026320956568204e+00
    1.6499159935809097e+01 -1.1157736342485518e+00
    1.4842709889606379e+01 -1.1061631653728079e+00
    1.5268982103092311e+01 -1.1434183423846545e+00
    1.5582307558463386e+01 -1.1416269856763188e+00
    1.6153731577011474e+01 -1.1500339458349573e+00
    1.5914392558856797e+01 -1.1380531913539953e+00
    1.4651280527158022e+01 -8.5303245543609230e-01
    1.1392849534516287e+01 -8.6837945041631426e-01
    1.0569570733761500e+01 -8.9337739422087359e-01
    1.6974242004885074e+01 -9.0283926511567303e-01
    1.4189257159320615e+01 -8.7683910175745494e-01
    1.2322672351697147e+01 -8.2354402203529520e-01
    1.6083989493400569e+01 -8.7101755032162276e-01
    1.5311105273824690e+01 -8.1152890507018083e-01
    1.5149846832407592e+01 -7.8589923636955816e-01
    1.0910932754254382e+01 -1.2034357010530146e+00
    9.9296303787285076e+00 -1.2337703894172252e+00
    8.8084298233536877e+00 -1.2644614074604290e+00
    1.1032659925374302e+01 -1.2271555518658808e+00
    1.0405129992105449e+01 -1.1996035939558425e+00
    8.8277453304678524e+00 -1.1659212008939233e+00
    1.1240572214561263e+01 -1.2463049936040029e+00
    1.0600958796589309e+01 -1.1605390468574017e+00
    1.0184483125663190e+01 -1.1722998125362991e+00
    1.1368918285751707e+01 -8.7625877492571269e-01
    9.8940939643567241e+00 -9.3320457741376550e-01
    9.2156927858194759e+00 -9.2150039024607111e-01
    1.0189524090959031e+01 -9.1557382867579851e-01
    9.3915817861685351e+00 -9.7287842881518050e-01
    9.0157415325975254e+00 -9.5296001754622572e-01
    1.0280693488435698e+01 -8.8830425813582359e-01
    9.6370846169721105e+00 -9.2300500525163276e-01
    9.7737988987714228e+00 -8.7521555338207180e-01
    1.0525467324723900e+01 -1.2681217613207669e+00
    9.9232916341995043e+00 -1.2921317505336283e+00
    1.0276545023900184e+01 -1.3374958677802733e+00
    9.8137682505283124e+00 -1.3134710022387941e+00
    9.0778995043992019e+00 -1.3246052577080165e+00
    9.4084731118360168e+00 -1.3594537887772780e+00
    1.0407798117877100e+01 -1.3382191200632192e+00
    9.3813940371038420e+00 -1.3456492232681592e+00
    1.0030723651999669e+01 -1.3659828995538454e+00
    9.0731833884486672e+00 -1.0987043259204621e+00
    8.7642492785238346e+00 -1.1368143273445164e+00
    9.0464032738832394e+00 -1.1579046868135798e+00
    8.6349850352972624e+00 -1.1709651565461270e+00
    8.3764218457969370e+00 -1.2285993681185619e+00
    8.6323062369274304e+00 -1.2281081039056125e+00
    9.8056846697263129e+00 -1.2252031874532585e+00
    9.3156757673976962e+00 -1.2215658964430163e+00
    9.4840870065952920e+00 -1.2180200180568317e+00
    8.3974456947667715e+00 -2.2566877872046156e+00
    7.9923651746366495e+00 -2.0475200484763629e+00
    8.1831112967263397e+00 -2.1669104748509911e+00
    8.7408919882917253e+00 -2.4169670267962773e+00
    8.3799734260043017e+00 -2.2591651260569412e+00
    8.6972828253410679e+00 -2.4110897644714120e+00
    8.9289834391663785e+00 -2.4771880104747011e+00
    8.7312317258797005e+00 -2.4349212539898604e+00
    9.4485447046487643e+00 -2.7322397035412296e+00
    9.6818422594196658e+00 -1.0074177587870743e+00
    1.0648757446768441e+01 -1.0174318313576924e+00
    1.1438917182130396e+01 -9.7326662033975386e-01
    9.5014717874758237e+00 -1.0845794759317473e+00
    9.7384928842020617e+00 -1.1165098583423678e+00
    1.0350450092663143e+01 -1.0676487546571933e+00
    9.6812559981009390e+00 -1.0512269391885567e+00
    9.5936696672578972e+00 -1.0739447746678241e+00
    9.8715904542814172e+00 -1.0418271698759194e+00
    1.0633794605862443e+01 -1.1234258308279239e+00
    1.2264124658746434e+01 -1.1251629909233722e+00
    1.4893078886232129e+01 -1.1595116132678740e+00
    1.0891417825221406e+01 -1.2189212333084634e+00
    1.1402719760175982e+01 -1.2044875529434653e+00
    1.2461098976398493e+01 -1.1426292461900325e+00
    1.1359587413290223e+01 -1.1654685193970835e+00
    1.1346932319058377e+01 -1.1439304257412068e+00
    1.1971310192323511e+01 -1.1723544945102125e+00
    9.3451686240085472e+00 -1.3620148799089957e+00
    1.0369409114218229e+01 -1.2407176451737338e+00
    1.0844952112367073e+01 -1.1514744882613404e+00
    9.1527423056688715e+00 -1.3880837088215892e+00
    1.0142010133325783e+01 -1.3048979870213524e+00
    1.0846018112731389e+01 -1.2227643697538562e+00
    8.7708447581661559e+00 -1.3032185434862706e+00
    9.8352569516351327e+00 -1.2707524641075019e+00
    1.0318112145837981e+01 -1.2997869825847985e+00
    9.5343429953156917e+00 -9.3396266748534784e-01
    1.2708018911279826e+01 -9.4216742867262571e-01
    1.7133966816345069e+01 -9.8883852932037686e-01
    9.4089159201270913e+00 -9.6713825053274749e-01
    1.1554196592137714e+01 -9.7661070319708387e-01
    1.4885042858263747e+01 -9.7742848901040036e-01
    9.7734766619678535e+00 -9.4369072951128330e-01
    1.1340032082777663e+01 -9.3507708137067791e-01
    1.3351680674724815e+01 -9.4606698797386535e-01
    8.0745901438392416e+00 -2.0838981795771532e+00
    8.2279676235131678e+00 -2.0218628184882399e+00
    8.1929070943198727e+00 -2.0141146099934866e+00
    8.1941336660408997e+00 -2.0727170338432117e+00
    8.1835633314663170e+00 -1.9926217550960583e+00
    8.0723872268612098e+00 -1.9379560762626107e+00
    8.2706624799440203e+00 -2.0648448715995458e+00
    8.0767009789065369e+00 -1.9257550521562123e+00
    8.0111039727954285e+00 -1.9169548068991598e+00
    7.8071835695855949e+00 -1.2949093764794635e+00
    7.7216836733504968e+00 -1.3147681286819530e+00
    7.7945875430328657e+00 -1.2746602354262990e+00
    7.6422272773627267e+00 -1.3273527224067849e+00
    7.3556317880624968e+00 -1.3380498016796087e+00
    7.5546061552309682e+00 -1.2815599937307143e+00
    7.6916590599071357e+00 -1.2862027983571827e+00
    7.5980521391985594e+00 -1.2862319160921223e+00
    7.9547504927386692e+00 -1.2277905612857853e+00
    9.4740613977071924e+00 -2.2669547237068968e+00
    9.3948635084765577e+00 -2.2876983072478190e+00
    9.2357694836456705e+00 -2.2192441692194298e+00
    9.5079502224921715e+00 -2.2962117404128510e+00
    9.0242136299404603e+00 -2.2630486086759727e+00
    8.9473690375454851e+00 -2.1515839847526439e+00
    9.7576387015365835e+00 -2.3353481862882526e+00
    9.3729580310419855e+00 -2.2735474137364449e+00
    9.2456260256793232e+00 -2.1737024736561690e+00
    7.5008511688025221e+00 -1.6529368528257822e+00
    7.6580117553662328e+00 -1.7488295083863845e+00
    7.6675453529365436e+00 -1.7345772625498019e+00
    7.5752545930146358e+00 -1.6904753334094458e+00
    7.6186128716749915e+00 -1.7696457896928683e+00
    7.5645446887325773e+00 -1.6829650407384664e+00
    7.8027601406491449e+00 -1.6879974360630727e+00
    7.9771025025171456e+00 -1.7402865060587094e+00
    7.7786027334355019e+00 -1.6435465070833954e+00
    1.4289019989261631e+01 -5.1123567724397230e+00
    1.2795813247386642e+01 -4.4530823371216108e+00
    1.3348193619294122e+01 -4.6960470739428155e+00
    1.2470550724614750e+01 -4.3575726999624429e+00
    1.1676411207309558e+01 -3.9988974109983779e+00
    1.2418046897950299e+01 -4.3036311352026173e+00
    1.3030083558023037e+01 -4.5851600116142990e+00
    1.2329741367205026e+01 -4.3123785439651581e+00
    1.4505685197636751e+01 -5.2132403728085981e+00
    6.8634440661260996e+00 -1.2796404984195995e+00
    7.3652159847506775e+00 -1.3528888137005406e+00
    7.8464913032647496e+00 -1.3262805725007851e+00
    7.2971465309853061e+00 -1.2998271992226571e+00
    7.6750442176203597e+00 -1.3819539135306460e+00
    7.9424721369422260e+00 -1.3101874117791827e+00
    7.5402069988427778e+00 -1.2692299328253167e+00
    7.7006484660618328e+00 -1.3244961713394026e+00
    7.7805357375029169e+00 -1.2625631514597830e+00
    8.5472686880636033e+00 -1.4843960849555093e+00
    8.9312977611306117e+00 -1.5097635297859120e+00
    9.8041222547360896e+00 -1.5108946818606146e+00
    8.8350279461633523e+00 -1.4867832921200703e+00
    9.1708838210926924e+00 -1.5090807038473342e+00
    1.0078204388317776e+01 -1.4857296051981992e+00
    9.0963759562926612e+00 -1.4641400316994282e+00
    9.3621668632941333e+00 -1.4718088264233284e+00
    9.6931423230268230e+00 -1.4731672572979861e+00
    9.3086594198679968e+00 -1.9916067005548257e+00
    9.4396428899875193e+00 -1.9466178423653719e+00
    9.5526038563784166e+00 -1.8883209324450907e+00
    9.0614360309518815e+00 -1.9027456576484769e+00
    9.3494308330653748e+00 -1.8445739213059311e+00
    9.6725616615647301e+00 -1.7761743118564934e+00
    8.8622840079557470e+00 -1.8520499283602647e+00
    9.2127646060714667e+00 -1.7762717677602251e+00
    9.4432505833848133e+00 -1.7964837424252453e+00
    8.2499391906870816e+00 -1.1975884961568874e+00
    8.6461883611417534e+00 -1.2236684781829732e+00
    9.0456672540827672e+00 -1.2295940006226014e+00
    8.2917940982639724e+00 -1.2210256161258730e+00
    8.8387248863623462e+00 -1.2396818669357828e+00
    9.3265754332780038e+00 -1.1971373117405906e+00
    8.4959752943763025e+00 -1.2018428856730348e+00
    8.7864782855856731e+00 -1.1449257217740574e+00
    9.5943569725177440e+00 -1.1448056305636449e+00
    9.1126450963021473e+00 -2.1403173109641962e+00
    9.5639089852060177e+00 -2.3891783553102406e+00
    1.0309262082121530e+01 -2.7097393811780739e+00
    8.5958364885742391e+00 -2.1867624014024827e+00
    9.5221332079207599e+00 -2.5941327051630445e+00
    9.9911791172359212e+00 -2.8152565413390684e+00
    8.7806422361763161e+00 -2.3727225464981898e+00
    9.2215497242799653e+00 -2.6547881704780756e+00
    9.8437640576200049e+00 -2.9622165099141213e+00
    1.0024659378460687e+01 -2.6146862340083272e+00
    1.0006612361008754e+01 -2.7712969250913990e+00
    1.0054408810821702e+01 -2.8751953561402352e+00
    1.0340825001076622e+01 -2.3915508493552839e+00
    1.0660864639856335e+01 -2.6896417802965447e+00
    1.0605934508648302e+01 -2.7577136907192927e+00
    1.0842801666176053e+01 -2.2960509157432054e+00
    1.0694860337406427e+01 -2.4203001790782626e+00
    1.0347686589915602e+01 -2.4953032945864568e+00
    9.6294409921375106e+00 -2.5735641187716207e+00
    1.1040850089406909e+01 -2.6308622194320459e+00
    1.2277048349219887e+01 -2.6743609956226937e+00
    8.9786447334510058e+00 -2.6044677545801704e+00
    1.0368368876830022e+01 -2.7227154022685678e+00
    1.1234371690907752e+01 -2.6041913594004757e+00
    9.0878413069617512e+00 -2.7583124391530642e+00
    9.7021250324987953e+00 -2.6719596619899204e+00
    1.0437891271726848e+01 -2.5999635010272812e+00
    1.0387198274309124e+01 -3.0881867311904436e+00
    1.0902295806463870e+01 -2.9473843920734542e+00
    1.0834379589399362e+01 -2.6760418550998413e+00
    9.6214646850408183e+00 -2.5943895884694492e+00
    1.0146628279410312e+01 -2.5018447484792556e+00
    1.0644688001003244e+01 -2.3305060020411834e+00
    1.0117013612688869e+01 -2.4978863739157382e+00
    1.0341939496265116e+01 -2.3004194169343397e+00
    1.0640092012544695e+01 -2.1448742909765484e+00</input_scale>
  <output_scale>
    1. 7.0064923216240854e-46 1. 7.0064923216240854e-46</output_scale>
  <inv_output_scale>
    1. -7.0064923216240854e-46 1. -7.0064923216240854e-46</inv_output_scale>
  <weights>
    <_>
      -6.6423281420012418e-03 -4.4997677773360722e-03
      -2.3779030427045090e-03 -6.2728607971363967e-03
      -3.6578019154725481e-03 -6.6428527536048160e-03
      1.0238111384701519e-03 6.4166650601629009e-03
      -7.1225055501481331e-03 -1.4448204050164532e-03
      6.8731040032839726e-03 -5.6986626846697568e-03
      -3.2869702748455481e-04 -3.4185703117042420e-03
      -1.5163855560221334e-03 -3.0861354455425840e-03
      2.9140782536376418e-03 3.1828736310320462e-03
      5.1394216480524354e-03 7.2375271157570815e-03
      -6.8802176726955513e-03 -2.9457502269417350e-03
      1.5954897234795801e-04 -9.8365929980448398e-04
      -3.9909410981587273e-03 6.0565805013264168e-03
      -6.6886238747885180e-03 -6.6077542390551415e-03
      -2.2894986446072986e-03 4.4028896569200116e-03
      -1.1854886133371039e-03 -4.0339915610014491e-03
      2.0914562927010589e-03 -1.9644125484751820e-03
      7.0400830506977044e-04 2.7377578505755474e-03
      -2.0736744115054219e-03 1.1774323704669503e-03
      6.8029531642414785e-03 -6.7251838137930779e-04
      4.1126133952301613e-03 6.9872383853090674e-03
      1.1266034584295262e-03 4.9460161659678958e-03
      -6.2397772470354348e-03 5.9742256625382757e-03
      3.8172737439021590e-03 1.9163224410852983e-03
      5.5684161140574983e-03 6.1778253369212024e-03
      -5.6147574063702757e-03 -6.1766431462865088e-03
      -6.6410247236968684e-04 2.4033929043200458e-03
      3.5078964490984771e-03 -5.5359105013163103e-03
      7.5972765537687947e-04 -4.1416427604037600e-03
      -4.9286435397982425e-03 -6.7921564696014815e-03
      -2.3790651586743498e-03 -6.5527404906078265e-03
      -3.5978940207327544e-03 -1.8678007825885623e-03
      2.5803377044405400e-03 -3.1329122904343505e-03
      -4.7001755496064394e-03 -4.3627319066277866e-03
      -2.7274178684050297e-04 6.3559879673461407e-04
      -1.4332611294234248e-03 2.3713478137811416e-03
      -3.8561422608446704e-03 -9.4501558286755826e-04
      2.6088752233904646e-03 6.9216289721686329e-03
      5.1129353238904716e-03 1.4809879028586830e-03
      -5.6685454485319161e-03 4.5994874092291655e-03
      -5.4001921510251879e-03 5.1271094891651332e-03
      -4.9761941525910576e-03 1.8041715509343778e-03
      -3.5381405889445641e-03 -4.4176108743261347e-03
      -4.6793550478479865e-03 -2.7723667859344228e-04
      -2.5860209942355963e-03 -2.7501626032620986e-04
      -3.2739322673301422e-03 3.6999293304408620e-03
      -3.9809150812470037e-03 -6.7392143366891049e-03
      -4.8353416129756962e-03 -4.8058443995774216e-03
      6.1453190872491591e-03 -1.7111669145631341e-03
      6.0482177514939728e-03 -2.2639290615806247e-03
      1.3254070190784194e-03 2.6878064589197686e-03
      -4.4661414677269881e-03 -6.9906207739134033e-03
      2.9307708599660533e-03 -3.8970702410574994e-04
      1.4435350080286660e-04 5.9352924040041131e-03
      -5.1686672575518835e-03 4.7038205091334932e-03
      3.8870210651507520e-03 1.7993276801103240e-03
      -1.3257882503996351e-03 1.5072133267265740e-03
      4.8290022197078116e-03 4.7022716237776980e-03
      4.9736196878843271e-03 -4.5250267368267226e-03
      6.0420498176830357e-03 -4.3625513787421809e-03
      3.4999268463753513e-03 3.7390188955428471e-03
      -6.9132853187418397e-04 -3.1520352138517285e-03
      6.9679298691570348e-03 -4.3568551672031443e-03
      -6.1663344282222154e-03 4.2728195859623513e-03
      3.1446281373737547e-03 5.0512190753655489e-03
      1.5710019863538201e-03 -3.1878877275475052e-03
      -5.9089290029436063e-04 -6.1368077829720372e-03
      4.7057309494600105e-04 -4.2997361979805583e-03
      2.9376673561315033e-03 2.8726732123131688e-03
      1.7700659810651431e-03 1.0452908962310515e-03
      -2.5842600973687516e-03 1.3300932347603009e-03
      3.8658713971449080e-03 2.6124478289559199e-03
      3.2138975120682618e-03 -3.4142337148745372e-03
      1.2562241388132424e-03 3.2010137951992293e-03
      -6.5159270281491171e-03 5.1066544487596612e-06
      5.6356965048330668e-03 -1.3869827795745316e-03
      3.5432897838891379e-03 1.0898053234115787e-04
      -1.8431788315072029e-03 1.2017437261149372e-03
      6.4679174519014521e-03 6.8923605322768096e-03
      -3.2045941392193390e-03 6.2459393756199265e-03
      -6.5521638039958401e-03 -5.5967393985913222e-03
      4.5686970083593115e-03 6.7259901719248097e-03
      -3.4581950658863149e-03 4.1675994289766998e-03
      5.7700673747413606e-03 -5.9428157749552681e-03
      1.9284303911465720e-03 -1.1852695659526410e-04
      6.4767657247721796e-03 6.0080118891203587e-03
      3.6270594658665617e-03 -1.4624411760255731e-03
      1.8364272868652038e-03 -3.7355974332950004e-03
      5.3890133803005018e-03 6.4578319642108898e-03
      2.4969664938047321e-03 6.2835189381563704e-04
      -6.1917038451346712e-03 6.4887586722400092e-03
      -5.4348261755699772e-03 -6.4368025599350828e-03
      -3.4786440300517778e-03 -1.4763556112420469e-03
      3.4457257251941584e-03 5.7412349051567443e-03
      1.2739534570805329e-03 -2.0988051746542857e-04
      6.5116937431474418e-03 -1.5971057284030960e-03
      3.6533923625914101e-03 1.3335705902919957e-03
      6.7345884922877927e-03 -3.7768542710311297e-04
      -6.1382901131381718e-03 6.8671150948318134e-03
      3.5890904406611856e-03 -2.6987042831775926e-03
      6.6039923930076233e-03 1.1296952083052760e-03
      1.7436302541138851e-04 -4.9108313497057002e-03
      2.0024374624005967e-03 -6.1111338158391813e-03
      1.0823785884370128e-03 -1.9865668708008606e-03
      1.0592032454120200e-03 4.9185916102228010e-03
      5.7281259015347851e-04 -5.6852672637370668e-03
      -1.2166092833410919e-03 1.7665545407229372e-03
      8.1666852845675166e-04 -5.1455793123805198e-03
      6.0145460151198376e-03 -3.4376789939036204e-03
      -3.8654733203459151e-03 -2.7512960257344509e-03
      -4.2850531680741644e-03 5.2438341196994996e-03
      1.3148610254004902e-03 2.4127577454113478e-03
      -2.5660421049689972e-03 3.6125113510974125e-03
      -5.0600623423092518e-03 -6.7441514939083520e-03
      1.2854292375953349e-03 -3.1043862527581423e-03
      2.8360990427372850e-03 -5.2964966097202157e-03
      5.4079700441047891e-03 6.7513024596035495e-03
      -2.3414968223150253e-03 4.0911371176743693e-03
      1.1876823887923429e-04 1.5804890925815861e-03
      -1.3347902423613595e-03 -3.4533245839160590e-03
      3.4993460552589966e-03 5.3194600804904780e-04
      6.8665979589307520e-03 -5.9061127825009467e-03
      -4.9018581444700273e-03 4.6088029688887014e-03
      3.6221887906880195e-03 4.1996617071453149e-03
      5.4384866770542731e-03 -2.4541067795435579e-04
      6.5289612492543494e-04 -6.3638215483861069e-03
      5.6282148755502654e-03 6.9690472005044116e-03
      3.8059510850697240e-03 1.5511750695404861e-03
      1.2625253623943797e-03 -4.9680680349092803e-03
      3.2048611277866587e-03 -9.5332613137569971e-04
      1.3175646442472456e-03 -4.7908768401001972e-03
      6.7236555532557600e-03 -4.9081201851457618e-03
      -3.2493443151220117e-03 3.5337987526973583e-03
      -1.1025698750229504e-03 6.6967967222734482e-03
      6.8677282969778408e-03 4.4495643302959452e-05
      4.2316037691323000e-03 9.1560070640556244e-04
      -1.7563507034271083e-03 5.6154334280179713e-03
      -5.0940720369544419e-03 4.4206719001694643e-03
      -7.8144173170130785e-05 -8.3181225078200586e-04
      7.8386732923412287e-04 1.4185335534050772e-03
      -1.2189636763734975e-04 -2.8322951139253441e-04
      -3.9305838831457472e-03 6.2177988743820625e-03
      1.7909717284561976e-03 3.7334434815979481e-03
      2.9786252898991910e-03 -1.8573621951867628e-03
      9.1017826749060973e-04 -3.9626125883625175e-03
      4.5095141592667214e-03 -6.3621657273783350e-03
      -3.6779504597401588e-03 5.3932915778542286e-03
      3.0733038034084135e-03 -3.0165417605918354e-03
      -3.1372601533977153e-03 2.7959434397327849e-03
      -3.4466477917652555e-03 9.7296895991892804e-04
      4.2698401797262690e-03 9.7678525424965820e-04
      1.1786909908717751e-03 4.3803520051899124e-03
      -1.4195256321024054e-03 -2.0084735611851498e-03
      2.2124388965571620e-03 3.1941450976759695e-03
      4.5088601761711289e-03 5.5486722761237152e-03
      5.6110903319546834e-03 -4.5368097221021352e-03
      -4.1374648820077641e-03 1.9098218114396918e-03
      -5.1497610776993575e-03 1.3769428898043918e-03
      5.5089114320316622e-03 -3.4335328678987216e-03
      -4.8141398656282386e-03 -7.3074033437646058e-03
      -4.4051734646232714e-03 5.3074535490330241e-03
      -2.3308500001981021e-03 1.6003973198418125e-03
      -1.1192976448459661e-03 -8.2548623058438105e-05
      -5.8932295808370935e-04 3.7947755763256992e-04
      2.3135826523307821e-03 4.9216136377107358e-03
      1.9118523065886795e-03 -5.0683729478592848e-03
      -4.6215039278995063e-03 -2.4229930512097639e-03
      1.5396912051617957e-03 4.0874928463990306e-03
      -9.8494881111273495e-04 -2.6349352980151500e-03
      4.2824341010903047e-04 -4.7640864732896738e-03
      -3.4305876047192657e-03 2.3260415628607541e-03
      9.9649764820856153e-04 -1.3501630743743566e-03
      3.1870186355470466e-03 6.7173573502175340e-03
      -9.6456101524970532e-04 -3.3348715258456605e-03
      1.5793240489909237e-03 -6.5279861850714405e-04
      3.9764733967303919e-03 -5.8920496674652145e-04
      -5.3022316380790507e-03 -3.1333844772989952e-04
      -1.9956609301406236e-03 -4.4823653252493715e-04
      5.6346278804566218e-04 6.3575022067426242e-04
      -6.7147956349425213e-03 -2.8844762385023992e-03
      -6.2169269591572703e-03 6.4900273943538115e-03
      6.4202196473633136e-03 3.8088657662029958e-03
      6.4878312387098994e-03 1.3008173830837239e-03
      -1.0510910694868778e-05 -3.7748631757566142e-04
      1.1808287296861837e-03 -2.6391234423314312e-03
      2.6842148139719670e-03 1.8649099826257860e-04
      1.2863914950854776e-03 -3.2027297784354078e-03
      2.5145612042880303e-03 -3.2133665741143247e-03
      3.5582635585413172e-03 3.6212527344143073e-03
      -2.7682482088770654e-03 -9.6067332800776287e-04
      -6.3428531028497754e-03 -5.0193698077144388e-03
      -2.0392634177630550e-03 1.2731238649370353e-03
      -1.2754141798741597e-03 3.9336310277599436e-03
      -1.3798190987527748e-03 -6.9833638200107366e-03
      -3.2808254560682260e-03 1.6584719681494490e-03
      -3.4323012007661472e-03 3.1999560903029941e-03
      -2.3689536976197068e-04 4.2108297209469550e-03
      4.7201584798643500e-03 8.2882816074036171e-05
      6.9344664366677265e-03 -5.9382740204822490e-04
      1.7751521889046160e-03 6.1138514069076716e-03
      9.9760780413920831e-04 6.2012876006043169e-03
      -6.3165885980410626e-03 2.1686636888839073e-03
      6.4868007282731423e-03 4.1369423313859285e-03
      5.9372591045522439e-03 -2.6236621785305650e-03
      1.5734855758010480e-03 -1.4338560149323432e-03
      -4.7704212695336458e-03 -3.7916065865081553e-03
      -1.6551599805508885e-03 -6.2955912551318103e-03
      -4.0265260260734428e-03 4.7746429696580144e-03
      5.5750544424956715e-03 1.9775023414133120e-03
      -1.3972883295462384e-03 -6.5154368373575968e-03
      -7.3689701777499344e-03 5.3942432577139734e-03
      6.8412186653642884e-03 -5.4601499602985127e-03
      -3.8682288767636669e-03 2.9142522687021308e-03
      -2.2051876448757760e-03 -8.6125856799734116e-04
      -7.2041523669637191e-03 4.4356846245804287e-03
      -7.2315334917289148e-04 -5.9664455212234480e-03
      -3.0801612507004540e-03 -2.8865303810654730e-03
      -6.6139741026851294e-03 -5.1154685004669805e-04
      5.6537176117624557e-03 6.3219571460294242e-03
      4.2218281963125256e-03 5.8343884463185874e-03
      3.4699598467192797e-03 1.3965309534630598e-03
      -8.1716091058218359e-04 -5.5562948559644892e-03
      3.5062928617473474e-03 5.4947760215580737e-03
      3.9554913237705531e-03 -7.8869769599652201e-04
      -3.3748277739893248e-03 -3.0467396859047069e-03
      7.2503508524684665e-03 6.2703858009114984e-03
      -4.5414427546810023e-03 8.3127661216831207e-04
      -6.1944515774218240e-03 3.4479049675809610e-03
      4.8107872896701367e-04 -6.9096526070553024e-03
      2.9491519131050318e-03 6.5891754551692175e-03
      2.5375514812428718e-03 6.3116416401431136e-03
      -1.5267456318001362e-03 -6.0265186656745240e-03
      -5.8401062040789277e-03 -1.8642794188406930e-03
      -7.1597970023628789e-03 6.3845376880812604e-03
      -5.2042967274599345e-04 -5.4636931460442717e-03
      -4.1726934807941327e-03 -2.5758495546347807e-03
      -8.1929595340072777e-04 -5.1366994264089852e-03
      -3.3574548610058028e-03 -4.9966254242528874e-03
      2.2160439261099883e-04 -2.9307159712948869e-03
      -5.1135417909759498e-03 -1.4396746088411272e-03
      1.5386635412412209e-03 -6.3167651432771534e-03
      -7.6201003302326926e-04 2.4328403821499982e-03
      -5.2893400439028111e-03 5.2963057170922756e-03
      1.0433722495408488e-03 8.3698228532912546e-04
      -5.7996932935599809e-03 -2.0684554081074561e-03
      1.8691116805937367e-03 5.2038763861165281e-03
      -2.5470455181405300e-03 6.5698643787053901e-04
      2.7153234777641980e-03 5.4302969061899532e-03
      -1.0549862458760627e-03 -4.8889625471665206e-03
      1.4779244323491036e-04 6.2113657393316384e-03
      3.0929500332186857e-03 -5.9830648709896742e-03
      6.7882036467978423e-03 -5.7424787114253931e-03
      5.9010927489857130e-03 1.7221083088031150e-03
      2.7980892522046618e-03 -6.0141426101715132e-03
      -3.8654727746240910e-03 4.6204956398083856e-04
      -2.3998673917989565e-03 6.4788856413234572e-03
      6.8880279002509768e-03 4.9342317084100570e-03
      -3.2963873814307802e-03 -3.8293352590243906e-03
      -6.1708727348923943e-03 9.4281828468857957e-04
      -3.6445216915028645e-03 -5.5804922663004403e-03
      -3.9559232338914167e-03 -4.6475841617931142e-03
      -6.7138406914681367e-03 -7.2408373292613317e-03
      6.5864127597881411e-03 1.0068448887886529e-03
      -2.7285289153184452e-03 -4.1181867184520368e-03
      -1.9131609436376560e-04 -1.6215995492185823e-03
      -5.4593604427494585e-03 3.5255242164557716e-03
      -1.4233741788686415e-03 5.3770472914008906e-03
      -1.0602952775609043e-03 -1.3060162159219976e-03
      2.3464790929068843e-03 3.6794928917875101e-03
      -4.0565680194642816e-04 -3.1896122837941393e-03
      -5.7039741709305123e-04 -2.9293239758985180e-03
      -5.2438250330373078e-03 -7.4112718758239018e-03
      2.4746947185321638e-03 1.0037679163448698e-03
      1.9930345709925608e-03 1.9646746491615752e-03
      -3.8761644495448073e-03 -3.6034123661026064e-03
      -3.2971116596712752e-03 -3.0863621705689262e-03
      -2.5316736451817686e-03 -6.9389275337052190e-03
      4.1801450556306083e-03 1.2844842236427870e-03
      5.2119406672530176e-03 3.9752423752922967e-03
      -3.5141051837671105e-03 -5.0252497452934189e-03
      6.8270664362552911e-04 -1.4037915087231720e-03
      4.0100161515487100e-04 -3.1812596285011683e-03
      -4.7155788009088356e-03 -1.9636754942931956e-03
      -5.9306980513777483e-03 2.8285015592510857e-03
      6.7430873114560121e-03 -3.7585773858960646e-03
      -9.6661706979834410e-04 -3.2722769313520239e-03
      -3.1081974332248805e-03 7.2287600408096047e-03
      -1.3097556190859927e-03 1.8001938595549379e-04
      2.4462455249685006e-03 -1.0711844709018106e-03
      -1.8725939602895585e-03 -4.9791193380996366e-03
      -2.8633058649516568e-03 4.8604322911473931e-03
      -4.0941933380920607e-03 -1.7524040677706627e-03
      -1.6319759919633840e-03 5.7065227958871959e-03
      8.1758977216905891e-04 -4.9902195273718100e-03
      3.9450491477624723e-03 2.2011988083137650e-03
      2.5576042788076349e-04 -5.6215710188825384e-03
      -4.6818589264085927e-03 -2.9868827669541826e-03
      -6.7923837627948333e-03 4.9126351881455352e-04
      1.3256289497922957e-03 5.6801527017489107e-03
      1.0524639673905338e-03 -1.5366453337259101e-03
      -1.8153034537688188e-03 4.0323782728163950e-03
      2.0246048491256684e-03 1.2106201475044188e-03
      -5.1979392423983544e-04 5.3260186330187243e-03
      -5.4750344735496649e-03 -3.4577593743785819e-03
      6.3311786447269331e-03 1.2372933679608987e-03
      -3.7107274793257744e-03 -3.4659684803346733e-03
      5.5985995132374422e-03 -3.8991890164420404e-03
      1.4297224830612134e-03 -2.7126670084534330e-03
      -1.3347138776557475e-03 -2.7810639619509341e-03
      -5.2025269983379850e-03 4.8592351526682252e-03
      1.5184609754070378e-03 6.1687057847667412e-03
      3.8197771837343282e-04 -5.6415781916373427e-03
      3.4736765775143915e-03 -3.7474179548908520e-03
      -6.0319709578225732e-03 -2.2548982611458675e-03
      5.5762995807412570e-03 3.3219038877861868e-03
      -6.8352491449945795e-03 1.9773447084804850e-03
      4.0232254862555116e-03 4.0603803632480165e-03
      1.7436925891381265e-03 5.6604258109731707e-03
      -2.9609986017322264e-03 6.1303038248374702e-04
      7.9393790335176490e-04 -4.6448064458931753e-03
      1.8403754982106741e-03 5.5717397681092152e-03
      3.8524276605079316e-03 6.6175946951269168e-04
      -3.4016026097685309e-03 -3.7479895328874487e-05
      -5.5995362356093207e-03 8.0287545274034639e-04
      -3.0677979002473564e-03 -4.3554684505862596e-03
      1.9806538901744318e-03 -4.7911309186126592e-03
      1.2350922856626781e-03 -2.5211971045382736e-03
      5.1810954758437855e-03 -9.4946381188581682e-04
      -7.6995897429679434e-04 -7.5512784273208946e-03
      -2.4208605280794230e-03 7.7105302380184977e-04
      4.7983002638244034e-03 3.6264355873542060e-03
      -2.3575852409828996e-03 2.5797303561121720e-03
      3.4600292497138598e-04 -3.9955725033428702e-03
      -2.7218005663968265e-03 5.4635061906430837e-03
      2.9237914670181861e-03 -3.5054008640337886e-03
      -6.7217593546192479e-03 4.7599800802604368e-03
      -6.2613546145487116e-03 2.5287116176082179e-03
      3.4701078116502948e-03 -5.0534095478247075e-03
      -5.9862432136591204e-04 3.3696565162906960e-04
      -5.1507268504751777e-03 -5.8300795358476269e-03
      -8.7799038695641173e-04 7.1586740396063124e-04
      5.6100777838999074e-03 -1.6462864377020348e-03
      2.2559888067190375e-03 4.5882887526407581e-03
      2.6409243004942183e-03 3.3856882255391319e-04
      -6.3212567248091059e-03 6.3932997266139460e-03
      -2.1331429502311925e-03 -7.0324142200403606e-04
      -6.8484671721081988e-03 -2.0622887481218451e-03
      -3.2975558914828972e-03 -6.8281498402960553e-04
      6.9835441582318039e-03 2.3565851633460010e-04
      7.6919275805673601e-05 3.6962127476408350e-03
      1.5731053187211901e-03 -5.9701582128511635e-03
      5.3319355995106645e-03 6.5265741126647146e-03
      -2.1657743305027841e-03 -5.6519728726122749e-03
      3.9418412449199851e-03 5.7752467676579304e-06
      -5.4512867305021263e-03 -5.1830462742897092e-03
      -2.3157114052320825e-03 2.4174959721659779e-03
      -3.8843477718169071e-03 -4.6098624690853914e-03
      -5.1071044505747619e-03 -1.7127139529723285e-03
      -7.0203468418495426e-03 -9.3183934974883022e-04
      -1.7480717379085061e-03 -4.4162735531959353e-03
      3.0666241721967846e-03 3.6531439020363893e-03
      5.1998815778583739e-03 1.5325537129640561e-03
      -3.4402302911064335e-03 -4.5300325281048470e-03
      9.3967976651434170e-04 -9.5728908069874364e-04
      -7.0116021249013684e-03 4.4010104968060714e-03
      3.2616750574495624e-03 -5.9271277430969849e-03
      4.5879810089012769e-04 1.1353574404758730e-03
      1.5904351395752939e-03 -2.5032553577138545e-04
      5.7290991109718069e-03 3.4546754069911096e-03
      -3.8533973163189482e-03 -1.6021532735061930e-03
      5.1105095371305042e-03 -3.5319962182281065e-03
      2.7686507436023569e-03 4.5851091644954281e-03
      8.6752483758602891e-04 5.4727553800107713e-03
      -3.2198897901465373e-03 -3.2573793817656155e-04
      5.3891536999753752e-03 6.5852321251860602e-03
      -2.2834589759580192e-03 -4.9438368809977071e-03
      5.2637850066627008e-03 5.1539469319084683e-03
      -2.0988916918000425e-03 2.2516386317367838e-03
      -6.6899904315445569e-03 5.1654260246265333e-03
      3.8673447145833419e-04 7.0080932517339514e-03
      -3.2492275900328754e-03 -2.9225152542571285e-03
      -4.9021896130556665e-03 -6.2529431385728064e-03
      -2.5828004167083123e-04 1.0341079429650098e-04
      1.4705613803720431e-03 -3.7975213392834636e-03
      6.3984469077300625e-03 1.7258623769259944e-03
      -7.5455461075124531e-04 3.5165686493402472e-03
      4.7493756191021828e-03 2.7016197156336103e-03
      -3.5553611456474055e-03 -3.1377494214550211e-03
      -5.3617231481957559e-04 5.4167604897568927e-03
      4.9163750913686311e-03 -2.1604417090917809e-03
      -4.7146290963117794e-03 -1.5518430086646350e-05
      3.0112965936706032e-03 4.4305976885881870e-03
      1.0067864467369254e-03 4.9455901034549266e-03
      -6.1652984517620467e-03 2.5170808643397904e-03
      1.9661228654852276e-04 -9.6564794586489393e-04
      4.1840296564329398e-03 -2.2210466896326283e-03
      -1.0200409801238712e-03 5.6194510371632873e-03
      -4.3181323113758387e-04 3.0831486979182722e-03
      -4.6261044126941001e-03 1.5369645142599166e-03
      -2.5520124858327883e-03 7.0461689843074595e-03
      4.4710305014723497e-03 -4.7436301849533395e-03
      -6.4637875305410515e-03 1.1327266977535595e-03
      -1.2126175600303758e-03 2.8825409230795493e-03
      2.5736580002538420e-03 5.8667902305676418e-04
      1.4842211174513826e-03 3.0817321252619204e-03
      4.2505843804084903e-03 4.6766674597259082e-03
      -6.3367375242183548e-03 7.8821986742326727e-04
      -2.3245687639962755e-03 -6.5621367500923646e-03
      3.5245359017368710e-03 3.2496529998698128e-03
      5.9389186621857572e-03 -2.1156918991663836e-03
      3.8443657231420803e-03 -4.4711243310907996e-04
      7.0708211767809247e-03 8.6745649299789583e-04
      4.3281311033474684e-03 6.6123319192311356e-03
      5.1282855278160216e-03 -7.0604135736181811e-04
      2.4047777344311390e-04 -7.3713183694668321e-03
      -6.5033653503148983e-03 -1.7203338473266441e-03
      -5.9052550347435196e-03 -1.8376133436096389e-04
      -3.9421051090350783e-03 -1.2635620073890472e-03
      3.7117297175759227e-03 -6.7610236088550988e-03
      -3.8693734620928151e-03 5.7977485998168506e-04
      -2.0777434675834858e-03 -3.9661056785991726e-05
      3.3769077455675812e-04 -2.4785021559233229e-03
      1.3487942886804551e-04 -8.3117100065453959e-04
      6.7944232456512684e-03 -6.8631584061835558e-03
      -6.0756921235368307e-03 3.8763295781986435e-03
      -1.1130096383702760e-03 -3.1701340745241978e-03
      3.5494278435804615e-03 3.7185535858539290e-03
      -4.6244429374773877e-03 3.8132180978209056e-03
      2.2672079102098333e-04 -3.2125224009350432e-03
      -3.2749917078869193e-03 5.8912360723973418e-04
      5.2670941564398454e-03 5.2663610942949015e-03
      -3.3670696904304913e-03 1.2721206042010341e-03
      2.2340717053059597e-03 -5.8239375564578567e-03
      4.1834004649440037e-03 4.2164630706547565e-03
      6.9896114140407823e-03 1.2665700104412679e-03
      7.4836687336568590e-03 5.4364688277889709e-03
      -1.4792440421600558e-03 5.1815464805292175e-03
      -2.3503857383101465e-03 -7.5940760939303736e-04
      3.3885827002439412e-03 -5.0989286730542828e-04
      -1.3062284069095534e-03 -6.2339156241714815e-03
      -4.7462158058028149e-03 6.0673664868092139e-03
      6.7380866474466344e-03 6.4521319869208955e-03
      -5.4765054395256481e-03 -3.6797923119810841e-03
      -6.7466060983225867e-03 1.0665878164496892e-03
      4.3730755696324945e-04 -2.5434368975441996e-03
      4.5741073442155211e-04 -5.0664822825171691e-03
      6.5306011535850585e-04 -5.4789479732200710e-03
      2.7128122869488603e-03 -4.6484548415980575e-03
      -2.0008819602788000e-03 -1.1030873123235599e-04
      5.4170468682681987e-03 -7.5880586254132546e-04
      5.0180297958919724e-03 -1.3358718895754946e-03
      -6.1888865043471398e-03 -3.1435502760074011e-03
      3.5909873966499259e-03 7.3128380405462095e-04
      6.3188724535721682e-03 1.7497366985367790e-03
      -6.1359291147213121e-04 5.7138112927798490e-03
      3.4895690137880307e-03 2.3011209347580759e-03
      -3.2722463665091003e-03 2.3364025108427587e-03
      -1.3472397322975272e-03 4.7270521954190041e-04
      1.0223053791359733e-03 -2.8001438288316671e-03
      -3.3279188993798363e-03 2.7041111310992186e-03
      2.7290627620702797e-03 6.0714707210534668e-03
      4.7092280198812444e-03 -2.3244181957844745e-03
      -3.6103973943088577e-03 2.4035437241642791e-03
      3.5505465470830168e-03 2.8121040165310293e-03
      6.8710731632902087e-03 5.2220450696466155e-03
      -5.4476359461639642e-03 5.7761725370173381e-03
      1.4552175276053281e-03 6.2470043665810273e-03
      4.3403039540174842e-03 3.0418036680732365e-03
      -3.2165835590101362e-03 3.5667836963339857e-03
      -7.5412158787934217e-04 -5.1049255224452602e-04
      -8.7402084433620770e-04 -3.7835962742301505e-03
      -3.8004997855295608e-03 -8.1433882487989568e-04
      -6.5099015892907807e-04 4.1458675868560630e-03
      6.8684881807967498e-03 -5.5435480039975277e-03
      -3.8080616742711703e-03 3.8320520064248588e-03
      4.5234454686302189e-03 -5.3478231704436625e-03
      -2.8199297589195536e-03 -1.7308256612619457e-03
      3.9112688857910402e-03 -6.6538861156174899e-03
      5.0348107199731720e-03 -2.8699113465540113e-03
      -2.1758964992783197e-03 1.9105971090673860e-03
      -5.1397580133515182e-03 -2.8378936222268471e-03
      6.5984230941016119e-03 -2.4430726135662769e-03
      -5.1538518012465701e-03 -6.9290777460672207e-03
      3.9544902290587344e-03 -6.0660830627543762e-03
      -2.7594146219463872e-03 5.5426451322523546e-03
      -1.2997802734330361e-03 -4.5213398242364465e-03
      -1.8728196747941193e-04 4.2428677994306736e-03
      4.1876784891556372e-03 1.2510674775730840e-03
      -1.2539764720854280e-03 5.4138529925140833e-03
      9.0766957074606960e-04 -2.3393870079401937e-03
      5.3529198371783052e-03 4.5478689237664896e-03
      5.4241221560854007e-03 5.8222506805966148e-03
      -7.0227451437602454e-03 -2.3428274842565004e-03
      -6.7542763430937323e-03 2.6344045601920541e-03
      2.4230248982573780e-03 6.5710580498829583e-03
      -4.2956457743482616e-03 -2.6795076846622204e-03
      -6.0196114035282579e-03 -4.8193793096779061e-03
      -3.9939566417611450e-03 -6.1439594593943204e-03
      -5.9143043895103584e-03 4.8282973513038277e-03
      4.1618197003871343e-03 4.0981007576392087e-03
      -2.2987134978191448e-03 2.8948828177180657e-03
      1.9017496988381326e-03 5.8455538963211456e-03
      3.1602011514568202e-04 -2.0301927395308520e-03
      -3.9413536046684515e-03 1.8636886652362839e-03
      -4.0183863444714181e-03 1.5096495496392402e-03
      -6.3161298031376668e-03 1.2085761981574198e-03
      -4.2630650422555271e-03 5.2348492139795188e-03
      4.5498904615184129e-03 -4.3332785902852498e-03
      -7.1395312522457540e-03 -3.1852180682533713e-03
      5.0362922339672791e-03 -3.9684386130090497e-04
      6.7335611266486350e-03 -6.9121495388736534e-03
      -9.4645347248219658e-04 1.7077352353722253e-03
      2.5329266904857276e-03 -3.7972522198055710e-03
      1.3918759590541309e-03 -4.0862883842174161e-03
      3.7178793494377204e-03 -6.4821266587817151e-04
      2.9166509757662285e-03 -6.1203631889259558e-03
      -1.4855808327408073e-03 -7.6179295284415662e-04
      4.4142131820771079e-03 4.9542153813229347e-03
      4.9740918280906654e-03 4.9604834684192573e-03
      -5.8731082046371095e-03 6.8509003821648849e-03
      6.3592133943227765e-03 4.0667097352046115e-03
      1.4270186238734351e-03 -1.8899317986935376e-03
      -4.4793832692223839e-03 -5.6447101278746508e-03
      -1.6655913025459585e-03 -7.3077016289786207e-03
      -2.5104482225888104e-03 2.5409529970792360e-03
      -4.2227327636405266e-03 3.7617610027706246e-03
      5.6293361289478086e-03 -5.7111341270812957e-03
      7.1493670536048031e-03 3.7818303172781824e-03
      -4.1870856760863008e-03 -1.0174780237437008e-03
      -5.0789121199636376e-03 2.6462850629032806e-03
      2.0519726074162497e-03 3.5133874558648391e-04
      2.6329978211541658e-04 6.5035088101572146e-03
      5.2642067713317463e-03 -1.2592625451690728e-03
      -4.2760162588746185e-03 5.5243338463712155e-03
      -3.4853793031034848e-03 -2.4441297245685945e-04
      -3.7781807780706118e-03 6.2983381278043649e-03
      -5.3277299780106809e-03 1.8622294110464568e-03
      -3.0682816889915049e-03 -7.3285948569228596e-04
      1.9701523437673247e-03 2.5623992373036688e-03
      -9.1712588947390325e-04 6.8522285248199342e-03
      4.2664193239973572e-03 -3.2065840353734548e-03
      3.0375544729694249e-04 -1.1668942702017953e-03
      -6.8812844920326799e-03 -6.6445963446625541e-04
      4.5265384285027238e-03 -5.5116624016525806e-03
      6.0190145424297925e-03 -4.0847678176983556e-03
      3.7937583924901744e-03 -1.4493072403862198e-03
      5.4301404101245150e-03 -3.2254610463707378e-03
      -6.2759248150121814e-03 7.0229572327602206e-03
      1.0869441036568154e-03 -5.4786087156379910e-03
      9.2517733980545082e-04 -1.4110374143395323e-03
      -2.7812554129674348e-03 5.0464373745355128e-03
      -8.1728731782329013e-04 -5.1820963240656612e-03
      -1.4283697005381903e-03 2.8142645905866572e-03
      4.4194358549816039e-03 -4.1044840915646554e-03
      6.2470455186137462e-03 -2.2927951385374105e-03
      5.2379789737882409e-03 6.4950811976687683e-03
      3.3570515282549222e-03 -2.2544147579810401e-03
      -2.9992988041179056e-03 1.3903087705614187e-03
      -6.0824582317314827e-03 -4.7940843109509496e-03
      5.0117797823535848e-03 4.0178577522705650e-03
      4.7900939960073101e-03 -1.3122145707524038e-03
      -1.6512107675216838e-03 -1.3112443166338008e-03
      1.7163045035347808e-03 4.6160586165883855e-03
      -5.3521884711169151e-04 -2.7088693799734598e-03
      1.7743519032633879e-03 7.8698293105727726e-04
      -6.2082220649449177e-03 -5.2906118182656182e-03
      3.8544779436695633e-03 -1.5408608293509293e-03
      2.3628701335482770e-03 -3.9293911379004063e-03
      -5.5721613469244032e-03 4.0886277726987462e-03
      -1.0145970483252471e-03 -1.0361448072098117e-03
      4.2423627853086831e-03 -1.1378605316347283e-03
      3.4767843382503480e-03 4.0931333604239985e-03
      -1.5163883356269579e-03 -2.0618722976382090e-03
      4.1812828325805103e-03 -6.4091424084401641e-03
      -7.2894689343676929e-04 -7.0560079282678818e-04
      -6.5512513488948714e-03 -5.1123801058870801e-03
      -2.3086963561521337e-03 -5.4542361490827786e-03
      -3.5160491651564012e-04 -6.4261603332293298e-03
      -1.1594489650314668e-03 -2.1044953318268937e-03
      -5.6092042818011141e-03 -5.9508560415821898e-04
      -4.7759938665964388e-03 1.3308293794116893e-03
      3.3915522231278009e-03 -6.2174714123973589e-03
      -1.8985019180139157e-03 -5.2517590133339554e-03
      -1.3839490909178321e-03 7.4227985595510507e-04
      -6.8551217421991756e-04 -4.2080215082990636e-03
      -2.4125498855526997e-03 -8.4026710226354324e-04
      -6.8859041029160082e-03 -6.6623383091467545e-03
      5.4123777611816797e-03 -6.4023821757005668e-03
      2.1823133292575569e-04 -3.1792146579842149e-03
      1.6446558171266947e-03 2.3396410781046178e-03
      -6.1344796215992356e-03 -2.6515118218934652e-03
      2.1848959157195766e-03 -6.2696421988318127e-03
      -2.7515277206532447e-03 -6.4854992262891971e-03
      4.7430196924557154e-03 -5.3175454980356439e-03
      -6.4952893464774600e-03 2.5446939392707235e-03
      -5.5623618297734956e-03 -1.2715501144167083e-03
      -8.3481539439557808e-04 3.4972388717943764e-03
      -1.2481868666271252e-03 -1.3323245653239482e-03
      1.8738033409903100e-03 -4.4773603010376077e-03
      4.1145767014303591e-03 -4.5354307409413456e-03
      1.9592855583931419e-03 2.0285768579579146e-03
      -2.8860047311449282e-03 6.6381179074304457e-03
      -1.6909562471498032e-03 -5.4646605109796350e-03
      3.4612553885420656e-03 4.1162592339276998e-03
      -1.4914232617946918e-04 -1.5119170807884751e-03
      -3.3200252527825639e-03 -2.6285107158731534e-03
      1.9700750319292157e-03 -3.9562598886034714e-03
      -1.3682177121209199e-03 -3.0107356455480994e-03
      6.3958683511747688e-03 2.7783434686429014e-03
      4.3313039789703882e-03 3.2249014935924777e-03
      -2.4915641332411809e-04 1.8083775684517660e-03
      -3.9842842938983009e-03 -8.1376432951212171e-04
      -3.2261799852199036e-05 -3.1047706256722213e-03
      7.4320259810309807e-04 4.6352508368159200e-03
      4.2604808642570970e-03 2.0151669481729586e-03
      4.8085715224086348e-03 4.5357189482723931e-03
      5.9452804642360045e-03 -3.2616739700934813e-03
      -3.0285943770809957e-03 -7.0692503299095173e-04
      -3.8286267560024979e-03 4.2397334511727362e-03
      5.9250530738873871e-03 -5.8907330186488884e-03
      -6.9800668311519815e-03 -1.1593887955292852e-03
      -5.3734094189671622e-03 -4.9103028810646484e-03
      5.8684779491118553e-05 4.6324494960951826e-03
      6.2133788802498030e-03 2.9825734135832706e-03
      -5.4195128769153498e-03 6.8245950399715679e-03
      -6.8011317147106502e-03 -8.7646521630819877e-04
      2.8182073797524804e-03 -1.3658835783621429e-03
      -4.4518197805659882e-04 -2.3126362925950396e-04
      -2.2456044331595597e-04 5.7454398307585624e-04
      -6.7403070339577976e-03 4.7435928514165549e-03
      1.5473514375705746e-03 4.3795764216026907e-03
      5.9789140335311007e-03 -1.2109796283297416e-03
      4.3074298803435409e-03 3.6079360870393136e-03
      -2.6724900169686110e-03 5.1121988602382340e-03
      3.0791037700993342e-04 -5.6438188071941779e-03
      -2.3057203949608017e-03 8.9452767031739282e-05
      -6.6268855064369895e-03 -1.5475157430154440e-04
      4.6387570107723304e-03 -5.0873569347469668e-03
      3.7453579775591837e-03 1.1074943056582534e-03
      -3.2288843645258527e-03 -2.7736259525807240e-03
      1.3963328470224757e-03 -1.5560199531353895e-04
      6.7045651438147292e-03 -3.1255755189951617e-03
      -5.8167513642507140e-03 4.4238225119742214e-04
      -4.1335243990642942e-03 -3.4907723597632557e-03
      -6.9282807450807074e-03 -2.9199881235882708e-03
      3.7194748203199521e-03 5.6629204959540011e-03
      3.9027829647041998e-03 -5.8322479334466191e-03
      1.3403353169676344e-03 -2.6095886824116787e-03
      6.6433408146863836e-03 -3.8441107737145004e-03
      6.6041784070817837e-03 -4.4600187764033926e-03
      -4.7946839364973269e-04 -9.1239041619749969e-06
      -5.1547175595103118e-03 -2.3413692513875387e-03
      -3.2676887297983909e-03 2.7148145995787125e-03
      -2.3561087733194284e-03 5.4090415539237999e-03
      6.8587722127044139e-03 3.6709313422757669e-03
      2.6409721918889497e-03 -4.9035837856697007e-03
      -4.9867249400007280e-03 -3.9362963277249918e-03
      3.8046070221267859e-03 -3.5406882267142695e-03
      2.1483571165431484e-03 -3.1697436054199408e-03
      -6.5901492351724327e-03 1.0750713776967247e-03
      4.5319653316278656e-03 -1.7584332356600950e-03
      -5.2734400933049912e-03 -3.6427599313232236e-03
      -3.4155447901732861e-03 4.2511362709569340e-03
      4.1323158428331376e-03 4.9311913168701557e-03
      -3.4655809858816352e-03 -2.5702292672348401e-04
      6.6021046083003252e-03 -5.0091656137541871e-04
      -7.4678251184858476e-04 1.7575385068265247e-03
      3.8102347001200410e-03 -5.5583211801278056e-04
      3.4267133979932144e-03 -1.5593837636858944e-03
      -4.8890546317303376e-03 -7.5505883457599472e-03
      7.4232369133403697e-05 -5.7525461557910986e-03
      -1.2849704531249784e-03 1.1585512130418976e-03
      5.1134403009947581e-03 -2.7650257123675950e-03
      1.3487618219071129e-03 -4.0764726534573475e-03
      1.1936145438004606e-03 -4.0514131701285313e-03
      -6.5029889253248518e-03 7.7430310476600322e-04
      6.5479641311183062e-03 5.0995313261571491e-03
      -5.1515682564343152e-03 3.2725127676844702e-03
      1.7650184819635152e-03 6.6437338142262582e-03
      2.1741501205735187e-03 -1.6866001953282231e-03
      -8.0451158145797578e-04 5.0251578804871655e-03
      -6.6132824852514049e-03 -3.8158186193033490e-03
      -7.2377535352601864e-03 5.0969826282665897e-03
      6.1642278080672221e-03 -2.5379451960904028e-03
      2.2298892372947126e-03 -7.0475163712970120e-05
      -2.5152790245476851e-03 -5.8890211526544780e-03
      -1.6211989597074616e-03 1.0770005094301526e-03
      3.7481977276517375e-03 5.9895353005308101e-03
      5.9733159861388189e-03 -4.6042624048076262e-03
      7.2552353446873200e-03 -1.0819294509870621e-03
      -1.8630898866831786e-04 -4.4105609158618699e-03
      -2.9921617573210285e-03 -4.9887317752131738e-03
      -2.0728616616533971e-03 -3.2074193949144609e-03
      5.0450084728621220e-03 7.0676631114701700e-03
      -4.3712475293601338e-03 5.8397803286496753e-03
      -2.9864783986866504e-04 3.7636478364009734e-03
      4.0483583490453917e-03 -4.8394866485858591e-03
      5.4102271411018751e-03 -4.5129698738025515e-03
      7.0976562660074580e-04 4.7971380792170377e-03
      -2.6752363947017948e-03 6.6453373604999887e-03
      5.7253472698760481e-03 1.2477139447482867e-03
      6.3089617405206085e-03 -4.5225801219284404e-04
      5.7396616646500738e-03 -7.1613330195850200e-03
      1.9227514309376104e-03 6.3250264740828807e-03
      1.3486466791217807e-03 -4.5454909748102439e-03
      4.7114953416672210e-03 -6.9039653284270214e-03
      -2.4663747591602788e-03 -2.5181877672059219e-03
      -2.2188650285796894e-03 6.1441629990079637e-04
      1.3853435698675642e-03 6.1419093200997792e-03
      -2.9477730942378362e-03 5.0601167797277163e-03
      4.0223016930175460e-03 2.7248923130924279e-03
      2.6117591195933881e-03 -7.0198860407416552e-03
      1.8626159921428162e-03 -4.0281217649054618e-03
      -1.6905957383364660e-03 -1.4680520451701965e-04
      3.6738480481622432e-03 1.5917138257386210e-04
      3.2854831270414603e-03 3.4929368880164428e-03
      1.9464178700097487e-03 4.1629433750972169e-03
      2.8091957969159993e-03 -3.1786692477691319e-03
      -1.9703451673405543e-03 6.3426020533479286e-03
      -5.4803096333328849e-04 6.5434295055675322e-03
      1.8088519024174624e-03 5.9138177128645148e-03
      5.2511460489871259e-03 -2.6647946532167722e-03
      1.1288815139923341e-03 2.7988552887648358e-04
      -1.3352221963246645e-03 4.8452801787285055e-03
      -4.9513859288467642e-03 -1.1949641982041276e-03
      7.0816441574920912e-03 -6.8096084716050189e-03
      -4.4509269158169275e-04 -6.5598038433966515e-03
      -3.8205711090564534e-04 -5.1312692821447164e-03
      -3.6639619080561332e-03 6.2348279735021913e-03
      -3.7238376554401973e-04 4.8960855766123799e-03
      -1.3573375729784174e-03 1.6048619211591246e-03
      1.8006586057484905e-03 -3.8569918971158028e-03
      -2.1637457521372088e-03 -1.6447609407000978e-03
      -8.1184437806846622e-04 -4.7098623163318622e-03
      -3.8650740618441858e-04 4.6663712839093249e-04
      -2.6842713548694596e-03 -1.9066476313719675e-03
      -5.0593669375686018e-03 4.6492574215029639e-04
      1.7761444062892443e-03 5.3949904710191522e-03
      -4.2861144238803836e-03 3.7093486762304413e-03
      4.3404427434680275e-03 3.5593849394457712e-03
      -4.7596893314094451e-03 1.5734367894039083e-04
      2.6412181036615115e-03 -3.7137930400372924e-03
      3.0588387799985182e-04 3.8822197292103923e-03
      1.4031874861384283e-03 -4.3537467637518451e-03
      -5.8025890466949911e-03 8.8675099636449726e-04
      8.4751023602003988e-04 -1.7701237395650535e-03
      4.3849482432362884e-03 -9.7235930868779278e-04
      9.2360422107876452e-04 -2.5476519028243684e-03
      -6.3762747033403533e-03 6.6897037921198107e-03
      1.0135389993772019e-03 -3.6962508045697957e-03
      2.9505935764633021e-03 -7.5257582739604817e-04
      3.2641945081972939e-03 -6.8191922800674614e-03
      -2.6575128580437904e-03 4.2381335475227032e-03
      3.9031455458868919e-03 4.7482360329606172e-03
      -1.7148381925206496e-03 7.7558913816251748e-04
      -2.9127405098541559e-03 1.9543078897010032e-03
      -3.1448972538366889e-03 9.4186340978159156e-05
      1.7345501077833844e-04 -3.4228966604608170e-03
      3.2212883816085994e-03 -4.6624774458193137e-03
      6.9915958212593917e-05 -4.2839872416530131e-03
      5.5857021960578103e-04 3.0228523420435067e-03
      6.7647588523443956e-03 2.6646922352208282e-03
      1.1821416855318666e-03 3.0754854040018413e-03
      2.9044437995098837e-03 5.0185610621243668e-03
      2.9696505156818062e-03 7.4801678072088139e-04
      1.9146945969556934e-03 -3.9121852928768438e-03
      9.4358424076517974e-04 -4.2875195737620744e-03
      -3.1023383401604619e-03 -5.4730203386101940e-03
      4.0068816839838994e-03 2.0063785800958980e-03
      -7.6951691411055085e-04 -5.7662399110751869e-03
      -5.6523441652875797e-03 3.3586742746922701e-03
      -7.8664017896354214e-04 -1.6740887679504810e-04
      4.6058802257423447e-03 2.6174597232271096e-03
      -6.4285190913517792e-03 -1.7365845912447592e-04
      3.5388340446424848e-03 3.0294002516090433e-03
      -6.2514476295465827e-03 -5.3966935948858144e-03
      4.5350039957034009e-03 3.0864096821996628e-04
      5.8129544682608524e-03 -5.6521790500011961e-03
      -3.9924894275426186e-03 -5.1514455566966221e-03
      1.6599674932688287e-04 5.6483016451985173e-04
      -3.7641253049090764e-03 -1.4310867090836334e-03
      -4.5550718251699679e-03 2.9153554962444862e-03
      1.1745805243624696e-03 -1.6415028995820965e-03
      -6.5909790923596480e-03 2.5168242523539372e-03
      1.0213166304070638e-03 1.5434009339305623e-03
      1.3138266463617841e-03 -7.1083933883728939e-03
      2.6118174602350751e-03 4.1677727566227151e-03
      -3.7457965401984121e-03 3.8064739245074462e-03
      -6.5079832176155664e-03 -3.2087293935105390e-04
      -6.7873564061545011e-03 -1.2450106551143954e-03
      5.4152307614411211e-03 -8.7357242501954224e-05
      -1.0357750278363028e-03 -1.9452452658747664e-03
      6.7683956322457861e-03 -4.0440399414257509e-03
      2.9090516984403487e-03 1.9445364723041996e-03
      -2.4741682864075783e-03 -8.3129058602724804e-04
      1.2874643158415607e-03 2.5273661468161668e-04
      1.8327956611584970e-03 6.4022985698344241e-05
      5.4080575752844546e-03 1.7641886846114119e-03
      -5.4996522841928575e-03 -4.6826089062598280e-03
      -5.1757490154961429e-03 -7.0932022300152315e-03
      6.1848077247696354e-03 -6.5720123032901581e-03
      1.5496087160155538e-03 2.2178757279090401e-03
      5.5764333263035454e-03 6.2391682049391549e-03
      -4.9919271112202554e-03 6.0236397871225580e-03
      2.3758416940877561e-03 -5.9950173987404947e-03
      -1.6687024202089748e-03 -6.3212777055599405e-03
      -1.6574495005997848e-03 -3.6789357103213741e-03
      -3.7374588196147857e-03 3.3313279552342119e-03
      -9.2319050580605628e-04 1.2606350970481468e-03
      2.4529659743401234e-03 1.0816775585264478e-03
      3.2311558653540760e-03 -3.5709389538235233e-03
      1.3718147318043470e-03 -2.1634949272968992e-03
      2.3785154506289433e-03 5.8064327630193988e-03
      4.4365084364125220e-03 5.8395931515855285e-03
      1.0371583782237382e-03 3.7883643718748948e-03
      5.4139346840997400e-03 -5.8938857024081988e-05
      2.2571455702181048e-03 -4.1823917685990817e-03
      -5.8149061860776037e-03 -2.3235523367105376e-04
      -6.6824977832940287e-04 6.1350125817471153e-03
      3.9010034326219388e-03 8.5167897863069409e-04
      -6.4764779250803045e-03 1.0454481580193394e-03
      6.6692431089270454e-04 4.6902437560860802e-03
      4.6859269580060739e-04 -3.9372689845575759e-03
      -5.0755045019206099e-03 6.3150780595866828e-03
      -4.9524440702186515e-03 -1.9401437643563699e-03
      6.5997627491460502e-04 -3.7659120342538586e-03
      -2.9647432728652857e-05 4.5430089667404597e-03
      -1.5259407972469189e-04 -5.4231583233870428e-03
      5.6069900172267886e-03 1.6763022994442389e-03
      6.7532500781385509e-03 2.6870674695772057e-04
      -4.3074748409859687e-03 -1.7652212317688766e-03
      -6.6257597004452766e-03 1.3662247196762776e-03
      -6.3747927600164150e-03 -2.1169302360506946e-03
      2.1873057183850303e-03 2.0718670908773849e-03
      6.8693422800863756e-03 -5.6877150411867670e-03
      -6.1399820141881849e-03 -2.7767769274001999e-03
      -5.3772142811814956e-03 -6.6997782442470896e-03
      5.3457702340047692e-03 3.3059510181708784e-04
      5.7340389951824741e-03 -1.2609017833696814e-03
      4.5031219805018634e-03 -3.1621321995205787e-03
      -3.4569777733144125e-03 -3.1736585001320866e-03
      7.0852764795722861e-03 4.1565008727948022e-03
      -3.2052334572868680e-06 -3.0221217876536428e-03
      3.3256308776772859e-03 1.7322907662544230e-03
      -7.3081169024999393e-03 2.6032623377813865e-03
      -7.8555218154680549e-04 2.7753181137081234e-03
      3.3840689736369970e-04 -4.6531642465653779e-03
      -5.3959650528778323e-03 3.0058788458553480e-03
      -3.6531473089584108e-03 6.7891429511609666e-03
      -6.7426848794768131e-03 -4.6317606052186024e-04
      -7.5642566112051242e-04 4.5365468101284511e-03
      -4.2039985002663826e-03 -3.0134868356039191e-03
      4.7706880882441068e-03 -2.9024857875353969e-03
      2.9746382799309925e-04 -4.9152648231973860e-03
      -3.0165414976665319e-03 6.0425334789346967e-03
      -6.6884868009380854e-03 6.6678493682031294e-03
      -2.1618013288226250e-03 -6.9632491886229796e-03
      -6.8874319510458960e-03 4.2703766461169726e-03
      1.9547188940481075e-03 -5.4157761411551984e-03
      9.0013647864966895e-05 -4.3623797784989740e-03
      3.1295424294627457e-03 3.9651353395421737e-03
      6.1637890908779972e-03 -5.1949391155086885e-03
      -2.1998119282581674e-04 5.2887159225516850e-04
      -1.0089498916289171e-04 -1.2374350518657702e-03
      5.2526065752808203e-03 -3.8996937345534143e-03
      6.6609183942029494e-04 3.6238026096448812e-03
      -9.5118517218905491e-04 -7.2323549360998000e-03
      -6.6151859195812965e-03 -6.2978600872777759e-03
      5.5882510156118137e-03 -1.1647967999653033e-03
      3.6331479713466769e-03 -1.1826952911474966e-03
      4.6812513246235017e-03 -3.1072351087491502e-03
      -4.7340974391764943e-03 -2.1835161280122934e-03
      -6.0524440724360462e-04 5.7558881709967981e-03
      6.9139045128540104e-03 3.8820316441690469e-03
      -5.7078391432249295e-03 -2.3079458572603483e-03
      2.2261325395663265e-03 3.2941893897601997e-03
      -4.9430170813271940e-04 5.2610206374424087e-03
      -5.2438598740304713e-03 1.5626650615292639e-04
      2.2650915082112208e-03 4.2678889611710391e-04
      2.9072181805778067e-03 -4.3064596617576369e-03
      5.0823662676041034e-03 3.0062474502725520e-03
      -2.1473925056713044e-03 2.8581060455472921e-03
      8.8529027962645237e-04 -2.4676336494602576e-04
      -1.7974172142870371e-03 1.1127191844618337e-03
      -3.5679940047058868e-03 4.6865644325586268e-03
      -2.6563534106208314e-03 -6.0372286028243819e-03
      -4.7655020134281792e-03 4.7207061160309746e-03
      -1.6265644359763597e-03 -1.2311680480076744e-03
      -3.3668691960564699e-03 -4.9858965904763823e-03
      -4.2074015948613940e-03 1.0629402036828098e-03
      -5.7011684022100677e-03 5.7561696131853413e-03
      5.5600739844154116e-03 -5.4901369897956366e-03
      4.5126956212304861e-03 -6.2397543047575336e-03
      4.4684604306781308e-03 4.9154579005112912e-03
      -4.3425440066001669e-03 2.5694628834442242e-03
      -2.2618608337445938e-03 2.9637502062314913e-03
      -4.6811357555870542e-03 -1.4013403427948993e-03
      2.3735623382746605e-03 3.9006321503156959e-03
      1.1557995146829379e-03 -5.0160677597066777e-03
      -6.1608274027494248e-03 -4.5976705802010694e-03
      -4.5142977508832294e-04 5.7306101591301792e-03
      -8.9227498832847275e-04 2.4624900004831386e-03
      -3.0259278803669896e-04 -5.6282759653337030e-03
      6.3882315488765834e-03 2.0985273507891679e-03
      5.4083710920835694e-03 -3.7027675419921756e-03
      1.4180578675003896e-03 -4.0302664933403037e-03
      4.7577145093382982e-04 4.2980106471842104e-03
      2.8793912265191210e-03 -7.3380596185495086e-03
      -3.1278718406599843e-03 -4.7701499888594063e-03
      6.2894217324516513e-03 -2.6580575092835154e-04
      -6.1240104710090591e-03 -4.3127221286128840e-03
      4.0383383727803299e-03 1.7868845259167588e-03
      -3.2766966056416123e-03 -1.2087392484073992e-03
      5.0432384959928148e-03 -4.2461826908552318e-03
      -5.7521506171291144e-03 -3.2249567202671269e-03
      1.1030690998741438e-04 -2.7144381449066353e-03
      7.4923774783288823e-03 4.2233267617895736e-03
      4.6311600230268500e-03 -2.5447581345944170e-03
      2.2903893571164431e-03 -4.2527668293817411e-03
      4.4784550112588533e-03 1.4562255700311391e-03
      6.2040100441732122e-03 -4.7588755645217931e-03
      -4.3512944771367437e-03 5.9874965213154484e-03
      -5.1402132091600237e-03 4.2924742356536677e-03
      4.9802079144656225e-03 -7.0312555539524292e-06
      -4.1757399499643740e-03 -5.2869850679402247e-03
      -3.9245646646284740e-03 -6.2629133807353072e-03
      -7.0665307907290522e-03 3.7632173524940731e-03
      3.3855132417519064e-03 6.3829930993323418e-03
      -2.6709118841316336e-03 2.7842612547631287e-03
      1.4607175826189442e-03 5.0935506116425787e-04
      -1.1880217264939525e-03 -4.2701329600688138e-03
      6.6412488182402861e-03 6.0650628609428556e-03
      -5.6714638445345480e-03 -5.9454207165799897e-03
      4.6565668786531442e-03 2.6115713128734633e-03
      1.6552650007141618e-03 4.1946212385628161e-03
      -5.2059189542235824e-03 5.1675355164316674e-03
      3.1228660598543712e-03 4.4910390009084587e-03
      7.2196843516946808e-03 -5.6920006723624704e-03
      6.1755298422212978e-03 -5.3536496028992633e-04
      -5.8243750242933830e-03 2.2068308928700044e-03
      1.8325687938151251e-03 5.3171541105229364e-03
      -3.7329745762123730e-03 6.1895602626432398e-03
      5.4917119832019095e-03 1.1011339398938032e-03
      1.7151330087696447e-04 1.4799737788532103e-03
      6.1501095591037095e-03 6.5667917740845228e-03
      -3.2245062743900478e-03 -3.4986863578393632e-03
      -5.7313522177398464e-03 -4.2350139552912473e-03
      5.2153475644703168e-04 3.3801155524980993e-03
      6.3842234765127792e-04 -1.8309999279215669e-03
      7.9837559448875340e-04 -4.8207893849605121e-03
      -2.6482484040146396e-03 -3.4582181841456539e-03
      6.4555309701115554e-03 -1.4101688536141987e-03
      -2.6102630893619786e-03 2.3953867462304496e-03
      4.7538579185038614e-04 6.4649659516359268e-03
      -4.9202011988038457e-03 2.5763533215733617e-03
      1.6409943986584034e-03 -5.6393374439401194e-03
      2.1595820631434891e-04 2.2826014173532830e-03
      -5.5185650778118408e-03 -3.5966081035985150e-03
      2.2103832994770640e-03 -4.8540062604597901e-03
      -6.4610270505548271e-03 5.1667833190361277e-03
      -5.6832487428547613e-03 -1.5002195133514038e-03
      2.7650691141644615e-03 6.2194030580116607e-03
      -6.5036566355664216e-03 6.4630759213493731e-03
      4.5002942332360105e-03 4.8766657224573818e-03
      -3.6054888012427145e-03 -3.7417920881797672e-03
      3.8755971153842995e-04 -4.8377539507197522e-03
      1.9174612288549587e-03 -7.1549428375187736e-04
      -5.9769850000483057e-03 -6.0270443820489511e-03
      -2.7736598761129200e-03 -4.1367166025621108e-03
      -5.9138826408150144e-03 -5.0147842885430909e-03
      5.3027083486320908e-03 1.0531765738057890e-03
      -4.6817301491566708e-03 -5.8814997400807390e-03
      5.7116304319879893e-03 9.6721052308494204e-04
      -3.3700941323719445e-04 -2.2849656103578601e-03
      6.6626585264504428e-04 3.4561825498135783e-03
      -3.8263753788655096e-04 5.7504832735081014e-03
      6.4377150432538225e-04 -3.6983770254872929e-03
      -4.1436295607935993e-03 -2.3252141624446995e-03
      2.6966569434389302e-03 7.1781772616380888e-03
      5.5413569359338182e-03 1.7623662555529707e-03
      -6.6898352117779007e-03 -4.1396843964453905e-04
      -4.5794563110092496e-03 5.2857378859349699e-03
      -3.9299944844976157e-03 6.9604356833102184e-03
      6.9886225374830848e-03 -4.4873433583665322e-03
      1.4717006148703081e-03 3.4946237075093005e-04
      -8.6466417338034059e-04 4.9283503538388373e-03
      3.1201133614382650e-03 -3.8764696219116199e-03
      -1.5531742227130718e-03 -6.9675591328638205e-03
      -4.0746979238488511e-03 1.8124105463013470e-03
      5.0752147491667243e-04 -5.4050621763231310e-03
      -1.9853071166217387e-03 6.2756059221538586e-03
      1.6299074433709583e-03 -5.0194149841456467e-03
      4.5525091443673624e-03 -6.1757353641830317e-03
      -3.7435951308539229e-03 -3.2823656292772464e-03
      4.2650917221886492e-04 -3.2031773155030800e-03
      -3.6189547526550136e-03 3.2632205259774988e-03
      -4.6562191838611698e-04 3.5470352416987001e-03
      1.0024141594929619e-03 -4.2304472926691190e-03
      -6.5307328528547799e-03 1.6712605409715425e-03
      5.7458216267900234e-03 5.2062876790452258e-03
      3.8722642149887931e-03 5.5563751842163996e-03
      -5.2683877810898692e-03 -6.8864093925516392e-03
      6.2029566484254556e-03 3.2664077464394995e-04
      3.7360013463072846e-03 4.9910837868773171e-03
      -4.1305821602860568e-03 -5.6068239370143137e-03
      6.3673037456924118e-03 2.8355428720172812e-03
      2.2477859234049948e-03 -3.2777960381775296e-03
      4.9115976386661835e-03 3.9041923354879147e-03
      4.6684999682714348e-03 -5.6262948873023605e-03
      4.6656321086599641e-03 -4.1837543065655720e-03
      -2.1177808620144595e-03 6.7530923995941456e-03
      3.9818620352237936e-03 8.3351763839613140e-04
      -5.5297244846587964e-03 -6.7727915327814633e-03
      -1.2979268400125897e-03 3.2005934892985412e-03
      -2.0792806268567030e-03 2.8415901803421550e-03
      -2.2170062536703353e-03 4.8388606620465152e-03
      3.3205816342319395e-03 3.2087096531837203e-03
      -2.6071181878610920e-03 -2.2754463123351664e-03
      -1.2822921156791398e-04 -2.5341046496483538e-04
      -3.3302333045550038e-03 -2.8859687983177787e-03
      -2.0702269842973651e-03 2.8918907964465674e-03
      -4.8283718498467187e-03 -6.8670597809791000e-03
      -6.6844152490389604e-03 -1.0170252055421917e-03
      -2.0809701576983445e-03 -1.6652820700230574e-03
      2.6956144216234101e-03 7.8734985732323781e-04
      -7.2479444896187274e-04 -6.3273384218063538e-03
      1.3785685930030060e-04 5.3345799129760028e-03
      -5.2317250317702353e-03 5.7613911104987129e-03
      1.9789138981574981e-03 -2.6558334379502609e-04
      2.6237252688026944e-03 -7.0822080663644291e-03
      -4.3626747052029772e-03 -5.5068278065663447e-03
      1.6160904054863367e-03 4.1156726128930591e-03
      -2.8611163919405333e-03 -6.0686160328931905e-03
      3.7016474243056160e-03 -2.8503962395740141e-03
      3.8591455863485843e-03 -5.3368032049363554e-03
      -4.9117754389928093e-03 5.0202673494409769e-04
      -4.6408439843150231e-03 3.1347886760126884e-03
      1.7154815974836982e-03 -6.3360886692538218e-03
      2.5709268392718880e-03 6.5304314387380040e-03
      1.4056395997361674e-03 -2.7592333072495607e-03
      -3.9875281574859789e-03 2.6382880626936102e-03
      -1.6742452541534754e-03 3.9839138658519166e-03
      2.7979409412029856e-04 -4.8820578890729303e-03
      6.0441679985314160e-03 4.0068217322610025e-03
      1.5360259382270600e-03 -9.9338294706185983e-04
      1.4589639817224291e-04 -3.3534304259409215e-03
      -5.2191039111631572e-03 1.8821941986871581e-03
      -1.7627540321087558e-03 1.4742965428072052e-03
      -3.5237626274405654e-03 1.4353353367706834e-03
      -2.9158068706700321e-03 7.1316119886464758e-03
      1.4448131715124543e-03 -1.7032890446284348e-03
      7.0695402684944576e-03 -3.0162743255407634e-03
      7.6656275938098001e-04 -4.9760881660624113e-03
      -5.8584101860681302e-03 -5.8892843600462080e-03
      -6.8813170996305092e-03 4.4785344098223377e-03
      5.6139497306689073e-03 4.5721962589488655e-03
      -4.9989729550705599e-03 -3.0450224347382785e-03
      4.8956649389060233e-03 5.3137243552384035e-03
      -6.3989500706869273e-03 -3.1956103132151684e-03
      6.1230783943906197e-03 2.0984396357700496e-03
      5.3949500197445445e-03 -1.7399194001251133e-03
      -5.1836664609782764e-03 -4.2554319685401028e-03
      -4.0689600602936563e-03 4.8240685073408585e-03
      5.6344888274225497e-03 -5.6277774735236505e-03
      -2.2787899116495210e-04 5.7332038499734684e-03
      1.0259431703645238e-03 -3.1381373097372376e-03
      -4.7219620903599475e-03 4.9202200275933351e-03
      2.6682394960576227e-03 1.6614934656316871e-03
      4.8557000398595264e-03 3.6935058552981515e-03
      -3.7872619983268978e-03 3.9796734679360792e-03
      3.0227483559832789e-03 -3.9495587940146333e-03
      3.9215584418239276e-03 4.1685315210157415e-03
      -1.5749545739875950e-03 -6.0203945355528886e-03
      4.9128741605008602e-03 2.4429369894822555e-04
      3.1724816177586385e-03 3.9137365229227252e-03
      -3.1962991685747207e-03 5.7370450074674013e-03
      3.9143128943480536e-03 -2.4824358956241606e-03
      6.4917944375382595e-03 -7.2171419834986207e-04
      -1.3093078186902100e-03 -4.1086497159473602e-03
      -2.5703932280335727e-03 -5.4614845049479627e-03
      -8.7759747228481177e-04 5.9522065544629701e-03
      6.2128289724338861e-03 -6.4237505813442885e-04
      -7.2235632834247972e-03 2.8148532132411760e-03
      -6.4520195107958872e-03 6.9930944812478585e-03
      3.2013189466778744e-03 3.4239267204014883e-03
      -5.6575470429503427e-03 -6.7163676317397517e-03
      -2.8278136168371110e-04 1.6960080482111102e-03
      8.0754282375480196e-05 -1.7294877791890831e-03
      3.4998042637802720e-03 8.3183144599585721e-04
      -1.6693645012640687e-03 -1.5918721694515338e-03
      -4.6502250389488502e-03 -6.6675880427287636e-03
      -4.3541595045781881e-03 5.5303121776122243e-03
      -2.5362692014529310e-03 -3.7536796707999495e-04
      6.5025598224538895e-03 -4.9562759621565649e-03
      -1.8124397643923362e-03 -2.8261254155693483e-05
      1.7645781172646450e-03 5.1524483100908267e-03
      6.4551729616585379e-03 2.0789447923786098e-04
      1.0909452070263616e-03 -1.4225134995185761e-03
      5.4884622923878695e-03 -4.5223273361031334e-04
      2.9361626307158606e-03 -5.7997897377121037e-03
      3.6938823276664489e-04 -2.0703551779866340e-03
      6.2751099606617403e-03 -4.6703119118399840e-05
      -4.0899754824698254e-03 -2.1847113000703169e-03
      3.3456074880619437e-03 -2.4366569163468124e-03
      -1.3972352770998063e-04 -2.9159510657554917e-03
      -6.4215932971800060e-03 6.4885381665373753e-03
      4.9084131357598464e-03 -7.0262466038145373e-03
      1.0023565517677719e-03 -6.0975756052175541e-03
      3.4858150106988513e-03 5.6445142362659103e-03
      -2.7692097997953071e-03 6.5407175203781986e-03
      -3.2679751354241721e-03 -6.5934715477575026e-03
      5.0943228779295338e-03 -3.3440768857578573e-03
      -1.9744657793318312e-03 1.9894166594984267e-03
      6.0846839836356552e-03 3.5843596289051888e-03
      5.7991235163673948e-03 3.4113105142592123e-03
      5.1490039095671543e-03 -5.1145738325158367e-04
      -4.1656574615897063e-03 3.2402143383966735e-03
      -5.4173681390380125e-03 6.7345629041610398e-03
      -2.7531529549856314e-03 6.9463866315698118e-03
      -4.0210428573673610e-03 3.9471885654200883e-03
      -4.3247162966675579e-03 -4.0746695714654483e-03
      -5.0434679857598655e-03 -3.7276205412547021e-03
      -6.7550367315093450e-05 4.1457481015407995e-03
      -4.2857815059858138e-03 -5.9823593525749788e-04
      3.6829764257525311e-04 6.2136402885080650e-03
      7.1403509234373597e-04 1.4989693217078211e-03
      -6.3001856357998648e-03 2.1425665912820985e-05
      3.3902191133929479e-05 -2.1256991629089307e-03
      -1.6327905294147393e-03 4.7410230677963298e-03
      -4.2893965447904706e-03 -5.3331655610003087e-04
      -5.6246348355913937e-03 -2.0110191295284515e-03
      4.7308688350845840e-03 2.6881606577029266e-03
      -6.6391103921808739e-03 -5.9981638672868323e-04
      -1.2548462748348836e-03 6.9779655076437535e-03
      6.8498957458975268e-03 -5.6412319524531442e-03
      -4.3367375314750283e-03 -6.4876071801369846e-03
      2.6259780342894699e-03 2.2830361403512341e-03
      -5.4077363265671047e-03 3.4910799811134338e-03
      -1.3213502211912344e-03 4.1084195395205214e-03
      -5.5602219794267408e-03 2.2235911570703719e-03
      1.4348520804257899e-03 3.9568768242595541e-04
      2.0237310490567261e-03 -7.5192981381615523e-03
      -3.2591885837162061e-03 1.6518656099023320e-03
      4.9410048023436895e-03 4.9922786428286013e-03
      -6.8632888985072213e-03 -6.4699012249991869e-03
      4.9060000570227569e-03 -1.3796127966349797e-03
      -6.1072631680144261e-03 -5.7310321180780574e-03
      6.5967650683827110e-04 -3.8691916868134478e-03
      -5.5545384417029619e-03 6.4117250284067657e-03
      -1.0091352171280163e-03 -6.5754679548497299e-04
      3.7886051155349106e-03 6.4572912763055535e-03
      6.0184926357465668e-04 6.6596485307124096e-03
      2.2646669512492698e-04 4.1907494054004886e-04
      6.5600735781519391e-03 2.7003459507118879e-03
      6.4812990750682531e-03 -7.0438094141419899e-04
      5.2812368155054773e-03 -6.3801331404767367e-03
      -1.9531028195059748e-03 -6.3424346960455572e-03
      5.0556514964144117e-03 4.7110426379777057e-03
      -3.1524763300940116e-03 2.8474893321791834e-03
      4.0841018106823222e-03 4.0115047922384146e-03
      -1.7288429853604557e-03 -5.1144959182130760e-03
      3.7286630089907609e-03 -6.0584848485240889e-03
      -3.6051268397154549e-03 1.1423048037956737e-03
      5.6493788934524232e-03 6.1337317041003942e-03
      1.6042724558294318e-04 -5.6782672091785173e-03
      -5.6006931811189656e-03 -1.1374246053293172e-03
      5.8392886869618917e-03 -5.0004187394794169e-04
      5.6479566864978974e-05 1.9093670818942680e-03
      5.3367739516557901e-03 1.9109125385848896e-03
      -4.0383012564474885e-03 7.4585948860735681e-04
      -2.7815985493348334e-03 -1.1451355772925920e-03
      9.4878827442916721e-04 -2.1210796624376242e-05
      -3.3043986653816890e-03 3.6194234786824583e-03
      -5.1549328884514809e-03 2.0705490742125411e-03
      2.0885864246056370e-03 -4.5857611154465202e-04
      2.7304066408387843e-03 -4.3547126757108390e-03
      6.9059783957816766e-03 4.3152180096631279e-03
      -5.0312462059389582e-03 2.2186793211338915e-03
      -2.8593407622895368e-03 9.4720025896945746e-04
      1.4906531097153019e-03 1.6584691992211084e-03
      5.3934669669444772e-03 -3.7115410617778477e-03
      1.8848268473752997e-03 -1.3000005486095338e-03
      -4.3696681915407756e-03 -1.7851502099877434e-03
      6.5926920565497361e-03 -4.2340918552116417e-03
      2.7959371997786061e-03 5.3656876379459643e-04
      6.1702158468480463e-03 -5.0894471036169913e-03
      -5.8333618890525412e-03 -1.7988057214163684e-03
      5.5154183412598054e-03 3.6421472170088962e-03
      -1.5484741978396281e-03 1.8439660708073383e-03
      -4.3159391837909399e-04 5.7452930110963359e-04
      -5.7704069977494894e-03 -1.9893455072884066e-03
      -3.0154033930782443e-03 -6.4959479240621881e-03
      -6.7899779401233795e-04 1.2491331121132201e-03
      -2.4616747221130695e-03 -6.4203146005801625e-04
      3.1875365282069508e-03 5.3721564753029041e-04
      -5.4265197091838248e-03 4.2688642386186689e-03
      -1.5241822725585775e-03 4.6098448291663164e-03
      3.8805023592286780e-04 4.9165075621506798e-03
      -9.7192083957780586e-04 5.2465185522969022e-03
      -3.4666846684841116e-03 6.7796630873011915e-03
      4.2119946411368149e-04 -1.1907118902743136e-06
      -3.3240189256986707e-03 -1.4827303018232056e-03
      6.9158318431426771e-03 7.0255858758248605e-03
      -7.0593728590919863e-03 6.4964123089904348e-03
      6.4161979014720604e-03 6.5108938538293182e-03
      4.0737037209577949e-03 5.7385993120973025e-03
      -3.1312714773725110e-03 6.0164890743175580e-03
      -4.3555473542829654e-03 4.1612458275192147e-03
      1.4303324516117134e-03 3.9504134723723850e-03
      1.7793982885527851e-03 -2.5643766037668938e-03
      -4.3240525057337996e-03 -6.1094482967746205e-03
      1.0008712943489331e-05 -5.3833078641524063e-03
      2.0788845014281547e-03 4.5906422570551253e-03
      -1.2134398440260300e-03 -4.2124330288365909e-03
      -2.1527213173476844e-03 4.5273331841622485e-03
      -1.7887020710447886e-03 -4.9607460199687725e-03
      6.3283670728774173e-03 8.0507353998866956e-04
      2.4966974402437616e-03 5.4360460290388301e-04
      6.5462356115691383e-03 -4.8630286068749740e-03
      -3.8059552419079487e-03 6.7577865705058665e-03
      3.0353195883045130e-03 6.2298955982364656e-03
      -4.8821706607015906e-03 1.6503707581356070e-03
      -6.4365953541233563e-03 -2.7371475292399120e-03
      -4.6134891507316287e-03 -5.8437473574218584e-03
      -4.1264195660204814e-03 -3.0537716561692698e-03
      8.9484509293933409e-04 -2.3238886014255665e-03
      -7.3092008548639210e-03 3.3039835975819131e-03
      -2.0409251163840468e-03 3.0175739012573912e-03
      -5.6579284808194763e-04 5.4051434577951883e-03
      -3.5253143401377295e-03 -6.3358071952975331e-03
      6.6173980556193009e-03 -4.4867693076704584e-03
      -5.0116753563709962e-04 6.1184503683578174e-03
      2.1794651235525122e-03 9.1601928167870912e-04
      -4.9910687193506506e-03 6.9264936106660444e-03
      -1.6838881116102277e-03 3.9300339925348472e-03
      -6.8564630201312978e-03 4.8626203724057380e-04
      -1.9249240199145376e-03 -2.3507057085832704e-03
      4.7720184409393331e-03 6.7716262068704342e-03
      6.1785034916807136e-03 4.1718584433539044e-03
      5.6179416930146721e-03 -9.3879178008732581e-04
      -6.7233333612277662e-03 -7.0555410671228856e-03
      2.6091418615691781e-03 1.6220352679055952e-03
      -6.2868501377974307e-03 -1.8656081189273154e-03
      2.6434997214873652e-03 1.3497616391790930e-03
      -4.2623843297182416e-03 1.6807742407504867e-03
      -9.1162756161293273e-04 -1.2447081888024463e-03
      5.5079926293423141e-03 -2.0608833068957158e-03
      2.8108550002733197e-03 4.5216612260607081e-03
      -4.4012151733395883e-03 5.0952029459215183e-03
      -3.3024309234994625e-03 3.5398866719364278e-03
      -4.7761404402103195e-03 5.5083657456344469e-03
      6.9475428553699928e-03 -1.2253764153989028e-03
      -4.3118250775480470e-03 -4.4551637206814574e-04
      3.8793307339749449e-03 5.4032625570652115e-03
      3.4645055952929088e-03 4.4985817217238349e-05
      3.2549198796435700e-03 5.0827336958265855e-03
      1.0190767820916161e-03 3.3196936404204518e-03
      -2.5143481819236871e-03 -2.8077820423286610e-03
      -1.5144875660762730e-03 5.3561522810187156e-03
      5.1348443665692215e-03 -3.6052736836755272e-03
      4.4327371622265108e-03 4.5001431406158383e-03
      -1.2332841303370396e-03 -2.6099376067324867e-04
      -6.8420858553371803e-04 -6.8786938843778402e-04
      -2.8745013547257364e-03 3.0959398327546185e-03
      2.5064554529494236e-04 4.2178793031421476e-03
      -4.2824688777971459e-03 -5.4728898854436618e-03
      -6.4343869281859216e-03 -4.4059864066488421e-04
      -4.9869842674597053e-03 4.9759876684589829e-03
      6.6581034399387073e-03 -4.2210477278756837e-03
      4.2476192814462866e-03 2.5328191809806540e-03
      1.5180530690991835e-04 6.9653422973049734e-03
      1.0099282098332679e-03 -4.7591018084246700e-03
      3.6247738957342632e-03 -6.0562395583969274e-03
      -6.1979767346473291e-03 -2.8851273632951873e-03
      4.7666997521354353e-04 -2.2563037631127473e-03
      -6.8534391482815852e-03 6.0132534587631530e-03
      -6.0801553983712156e-04 6.3667930228834329e-03
      1.3491249958156848e-03 4.2205702396827883e-03
      3.4177596110333626e-03 -1.4411320375615217e-03
      2.6535755614105648e-03 -1.3759741756289008e-03
      -3.5658570914114331e-03 5.8398269837851039e-03
      2.7729124635616038e-03 8.0285367722009941e-04
      1.8720579540476077e-03 4.3292695246270598e-03
      1.5071998902896177e-03 -6.0318113282577437e-03
      -5.3455926545165813e-03 4.9789928822367747e-03
      -3.3448205318688863e-03 -2.9427619248418887e-03
      -5.3565052677167768e-03 -3.7210227642755622e-03
      7.5221388404522506e-03 6.5726729692242485e-03
      5.2255372964171813e-03 5.2865322759681147e-03
      -6.7965705703418519e-03 -4.4052620303809790e-06
      -4.6052669481974140e-03 -3.8037117549238534e-03
      1.8367206236210216e-03 -4.6062910409978765e-04
      4.2451288107982496e-03 -6.0936986809393221e-03
      -2.5320650177478761e-03 1.7329564507488383e-03
      -3.6321570120815103e-03 -2.4094348338277571e-03
      -3.9703235994745416e-03 -4.7414314740497031e-03
      -3.9621659856694533e-03 -3.6813966426298933e-03
      -4.8448262010189211e-03 6.3671560006141985e-03
      -6.0636382482118500e-03 6.3217607797650911e-03
      3.4453245770110503e-04 -4.7106781824660547e-03
      5.7234947422083685e-03 6.0304389346122773e-03
      -2.6918541975390151e-03 2.5486834372797232e-03
      1.1027175235221150e-03 2.8666367865436116e-03
      3.9189056347132553e-03 2.0587023229519000e-03
      -1.7624027384373154e-03 -5.2032495883307548e-03
      2.0032828440392845e-03 3.7147145886427153e-03
      -1.2561429894380504e-03 -5.7416885597738046e-03
      -3.1186103087414286e-03 -3.6455535043031098e-04
      -7.7421463865323687e-03 1.7511637012854173e-03
      2.5970992856046825e-03 -5.3399596560413680e-03
      -4.9670274707370532e-03 6.6468391616671839e-03
      -6.5261907169963627e-03 -3.0197472986677274e-03
      1.4570798606208121e-04 -1.4777802909672236e-03
      -3.9297407721648643e-03 5.4977970139931396e-03
      2.0264281328848744e-03 3.2861481342241049e-03
      4.7143254709336160e-03 6.0967414684888954e-04
      -3.3395212717247844e-03 -6.4683201338266803e-03
      -4.2999858811589757e-03 3.8002079540040527e-03
      -4.8363839636373935e-03 -1.5543322477505567e-03
      -4.2760691665886461e-03 -1.6146975926570062e-03
      3.5999991863448428e-03 5.1878905421592425e-03
      -3.8759753281137205e-03 5.8282125064012692e-03
      4.8757118456100338e-03 4.6815403138586058e-04
      2.1453286735108594e-04 -4.3950176627098039e-03
      1.1227927312408947e-03 5.9976304597296149e-03
      -6.3723824277980142e-03 -7.1327183669010752e-03
      3.0227869712631107e-03 -6.3966017652951216e-03
      5.8112731254134839e-03 -5.6413780870648682e-03
      -6.1193600013470109e-03 5.7370469282726493e-04
      -4.9223057904849146e-03 1.7574789682182177e-03
      3.7521351249745066e-03 5.1476741047996304e-03
      -5.7081329771362108e-03 -4.0439014836436979e-03
      -8.9048763973244099e-04 -1.2805231961069690e-03
      -5.9071357799661724e-03 6.9293070804983614e-03
      -2.2737209831211064e-05 -8.1341579586092334e-04
      -8.8135363251783084e-04 3.1166826316103491e-03
      3.3677054988371403e-03 -3.5183131956642143e-03
      -6.8321252232177911e-03 -5.6696264814737295e-03
      4.6646971487105341e-03 6.5711082666433758e-03
      -3.6457941877450538e-03 -4.6960442721248399e-03
      -7.3063365032405422e-03 -5.4175215812617954e-03
      3.4426483108900541e-03 5.8806356046451295e-03
      -3.7031775452368884e-03 -1.2543678087096196e-03
      -5.4156759796095124e-03 1.7425127118847201e-03
      -1.0516426713077730e-03 -4.6836851924967893e-03
      -3.3551895028745256e-03 2.5560880818754550e-03
      -7.5271668634019351e-03 3.6518617489133810e-04
      1.9266251732059534e-03 -3.9672521296338505e-04
      -5.0949646222529059e-03 1.0936511117437494e-03
      4.1953118548028754e-03 -1.2745616992494038e-03
      2.4440459156130096e-03 -6.3804772942884112e-03
      5.6580201400604707e-03 -3.7685451584672197e-03
      -4.8932036199658994e-03 5.7510580542068290e-03
      -2.5199958608151307e-03 -3.2638075352240106e-03
      -3.3172104128328067e-03 6.5417006725151383e-03
      -1.0965303130370068e-03 -6.0605242939172684e-03
      -1.9882708221990787e-03 3.4111918135980575e-03
      -6.1676672297986410e-03 -1.9463689784043209e-03
      5.4885347812299043e-03 4.6841222373145003e-03
      3.8914775963614502e-03 2.7722636926881482e-03
      4.6312116986706861e-03 -2.3155260733281934e-03
      4.8939345869182778e-03 5.3537580632495758e-03
      2.3817818280894589e-03 7.0467759611576117e-03
      4.7250280303572185e-03 6.1929074500694696e-03
      -1.0511951252799737e-03 -3.9232917598806373e-03
      -5.7424685472248788e-03 -5.3545567384113996e-03
      -2.0816077177124247e-03 -4.4652390338542841e-03
      6.4476770969082746e-03 7.7659634528336814e-04
      -3.5968569638858213e-03 -3.2909336941917282e-03
      -4.8656856456817778e-03 4.8340594836780151e-03
      -3.6393841319427838e-03 -3.2000271423458060e-03
      -7.1622839617376992e-03 -5.7780730773305837e-03
      7.0043618911878446e-03 5.1152271861738506e-03
      4.4887732188657620e-03 -4.2710445331222511e-03
      6.6291946178744356e-04 4.2290847675388737e-03
      5.8380954726663060e-03 -4.1689580971033846e-04
      5.3556125997211094e-04 4.8249993926164384e-03
      2.7882650236381824e-03 3.6975129482161415e-03
      1.6619247506902113e-03 2.2525095787601375e-04
      -5.6451254343303277e-03 -2.5880135312673974e-03
      -5.3932749014535281e-03 -9.8283773126874030e-04
      3.6925509192678820e-03 -8.7045455398735965e-05
      -4.7436600078281021e-03 2.9525405850024749e-03
      5.5247160740023388e-03 -6.2349244698917485e-04
      -3.7210010620982083e-03 -4.6660433351148013e-03
      3.5391464836400572e-03 -5.0713259097503625e-04
      1.4472221733319130e-03 6.5461058967171640e-03
      1.6964172080064740e-03 -2.0964471258884884e-04
      -6.3841652450276317e-03 5.8282516470836284e-03
      -5.4454571010362036e-03 6.9499115090699793e-03
      -1.4301841221628329e-03 -4.5457120462833725e-03
      4.0326575961541471e-03 -1.4906709824191464e-03
      6.8818588208911773e-03 -1.3353010128187732e-05
      4.2213341168894523e-03 -7.0930274677805348e-03
      -4.1479217056689145e-03 2.7731422453998031e-03
      5.5113838259852324e-03 -7.6468349527367651e-04
      -3.4484008172573689e-03 3.4440592816371855e-03
      6.1174292616681799e-03 5.1588442195673366e-03
      -5.8882868310796274e-03 -3.1390574962492979e-03
      6.9553266648449963e-03 -5.2109652358991098e-05
      -7.0972663825280861e-03 5.5385264679112865e-04
      2.0234759425940936e-04 -4.1504620614466713e-03
      -1.7877886554457632e-03 -4.2174637430524029e-03
      -5.6723913446569329e-03 -1.4991818306596793e-03
      -6.8345413779845364e-03 -1.6093208175921700e-03
      4.5860238646274077e-03 -4.6149563184361029e-03
      -1.3678291235438595e-03 1.1456438711743785e-03
      2.9783801583675180e-03 -2.8854479453637384e-03
      -1.6694244113723408e-03 -6.1687975075886692e-03
      -6.0725497040682169e-03 1.7666166438013190e-03
      1.8703216074286825e-03 6.7959292491882369e-03
      -2.3522776539329849e-03 6.1962949503926281e-03
      -6.8905656381319390e-04 1.5906085382937341e-03
      -2.5151051017367116e-03 -2.0511232453815872e-03
      4.8341354240089580e-03 -4.8207432119665942e-03
      -1.2018926233671231e-03 1.4070069613985631e-03
      -5.8734485119207340e-03 2.3303854869121373e-03
      6.4174540364309168e-03 -6.0992758370423199e-04
      -6.8288280464240013e-03 -1.8112290564383973e-03
      -2.2719343657645881e-03 -3.0804982971015791e-03
      -5.6931577309335506e-03 2.3293694863756060e-03
      5.7735487586935499e-04 -5.0849713236574895e-03
      -4.0383543333065439e-03 -2.7155919383382988e-03
      -3.5838695970467310e-03 1.7530007946161559e-03
      4.8276265823339604e-03 -1.7075368924940487e-03
      5.2394839460727406e-03 1.6689556739413823e-03
      -3.8355448282918290e-03 6.8470433492304585e-04
      6.0999781204486986e-03 3.3914594559235228e-03
      6.3239041873426076e-03 1.1101301954241838e-03
      -3.9110123188033858e-03 4.4298557471828563e-03
      -6.8627626562806814e-03 4.4387048780676467e-04
      6.3303976380004578e-03 -6.4512595347923233e-03
      -3.7443999830015814e-03 -3.6061848902904938e-03
      -2.2867853230476693e-03 5.9400564676047518e-03
      -1.0953927681630711e-03 -5.5902917124090075e-03
      -2.7387244957474124e-03 4.2791592041033031e-03
      -2.4140442427577659e-03 -3.7374098610112702e-03
      -3.7434121162497102e-03 5.0209200775088950e-03
      5.7908036841415053e-03 3.4694193806537343e-03
      4.0199263527614486e-03 2.9777046861020414e-03
      -2.1927690922787478e-03 1.0264305731656309e-03
      -5.7757675613206707e-03 1.0728534907087620e-03
      5.2567425492215964e-05 5.5569122771034624e-03
      -5.0186628773029041e-03 3.5806442351425695e-03
      -3.9326754409962777e-03 3.1447270913198106e-03
      2.9507764101236239e-03 7.1029004455651773e-03
      6.2394589449892490e-03 5.1025888913144456e-04
      -6.8199883270605730e-03 6.9855933875304531e-03
      4.9751590193663738e-03 2.3963814184825094e-03
      -7.0833910627055106e-04 -6.6450036745244459e-03
      6.1694920629546861e-03 4.9940500693678618e-04
      -2.3864252496816462e-03 -7.1329389800202352e-03
      -5.7289733830624637e-03 6.5486923754328810e-03
      5.9664476629372326e-03 -3.2773563711453162e-03
      9.9729342331589081e-04 -5.8935879635483215e-03
      6.7356386059118549e-03 -5.1003467012249062e-04
      6.8310890805350849e-03 -6.7373609922461181e-03
      1.3391509594570198e-03 4.2989090756133603e-03
      1.6944150520754552e-03 -3.3903954593151515e-03
      -4.7830452165668952e-03 -2.9812510488215062e-03
      -4.3705080183478913e-03 -4.7677139984902538e-03
      3.5241727393127624e-03 3.2887086753304430e-03
      4.7467473277569843e-04 -5.7157578096364925e-03
      -7.0014902798214637e-03 -2.2656556358067793e-03
      -4.2869817389198346e-03 -2.1134650096138446e-03
      6.3098668042992434e-03 -6.0391841402102717e-03
      -3.3324993992412846e-03 6.8594356075408324e-03
      5.8461052940909364e-03 5.0123604078169395e-03
      -4.8029425402406406e-03 -4.8170508460531900e-03
      4.2937209573467939e-03 3.9567492396959140e-03
      -5.7699446959184634e-03 -4.6992849654435773e-03
      6.1329853644792182e-03 1.9062727509560106e-03
      6.3164667401338376e-03 1.4021187423637183e-04
      -1.9929605901706600e-03 -3.4730358329298303e-03
      -6.3798390009629216e-03 2.1823153958848039e-03
      -3.3453701549207666e-03 -6.2190143958691375e-04
      4.3590170513873967e-03 5.1817422899060363e-03
      -5.0137604185705054e-03 1.4492564652271514e-03
      3.5055911137070453e-03 -3.6032971995408358e-03
      -1.3374114043556409e-03 -1.3541340628601050e-03
      -4.3123400976740689e-03 -5.7932135091590294e-03
      3.8962087885152439e-03 -1.0195452773976135e-03
      5.8317592311172683e-03 2.8193744348135913e-03
      -6.0024099995864407e-03 4.5503896123289785e-03
      2.6327148766376925e-03 3.5600425082373201e-03
      -6.3572018909698498e-03 7.2624459550898511e-03
      -4.6968164220966219e-03 -4.2170040291558070e-03
      1.8126786804538461e-03 -6.1840766622916436e-03
      4.1273327728140431e-04 -4.4129922359903108e-03
      -3.0302339168248554e-03 -4.8553815043731255e-03
      -6.8310581013504221e-03 1.4244332359840540e-03
      6.1826528660310744e-03 -6.4983991574921662e-03
      -6.3571590122394163e-03 -5.4874461400010073e-03
      1.3815852868647115e-03 6.0229547597381106e-03
      -5.6791852624371742e-03 4.5443093143494726e-05
      3.7960700073261331e-03 -3.2726724334376346e-03
      4.4740261377535047e-03 -1.3678691085299032e-04
      -2.0831983544948559e-03 -2.3628654378563840e-03
      -3.9990802567072981e-03 4.4658270328550996e-04
      2.9084243433043513e-03 3.2960187633084169e-03
      2.4836031183042531e-03 -7.1741184194614796e-03
      -8.6684753093420027e-04 1.1598934105342582e-03
      -7.1189831639560438e-03 -1.2124791218699733e-03
      -5.8162983783071375e-03 4.2453366468989040e-03
      4.2468950117650391e-03 -4.6152778844429677e-03
      4.9226029934993929e-03 3.0164971892254512e-03
      -6.0993580378229193e-03 -2.1658491370248616e-03
      3.9284169193038289e-03 4.6657419598960361e-03
      1.6517493649039789e-03 -8.5404421515101147e-04
      -2.1534413584030632e-03 3.7854032975951561e-03
      -6.8070225183534143e-03 -4.0305436160241260e-03
      -1.0527254566313929e-03 3.9698888997943297e-03
      3.6087585034718867e-03 -2.0734409174952262e-03
      4.8509133384561278e-03 -1.0781942565411639e-03
      6.4877782120337825e-03 -3.9850201973456586e-03
      -5.7975099750351040e-03 4.6940637910614959e-04
      1.0302921099063266e-03 -7.5581582409638029e-04
      -6.4860340233883623e-03 8.1431699991622647e-04
      -2.6333150630326865e-03 -5.0898516136523688e-03
      -6.3377601237648027e-03 6.0935062163547373e-03
      -5.8892592424334093e-03 -4.5334753953373977e-03
      2.1465095350406398e-03 -4.7814324434837692e-03
      -1.9347673513750900e-03 5.5050384483741393e-03
      -4.6424411647166507e-03 6.3598200803235494e-03
      1.1557859369435790e-03 4.2850012483507888e-03
      -3.9451257399267725e-03 -1.2890456608105768e-03
      -4.8101428531144713e-03 -6.5297274798432094e-03
      2.2350149422042465e-04 4.1791515752560935e-03
      5.4476030222823683e-03 1.7525195766278092e-03
      2.3315928891334322e-03 4.5052950739957135e-03
      -1.4865214909306199e-03 3.6723858773340013e-03
      2.5686617926133607e-03 8.6002674419202892e-04
      -2.3980877491565421e-03 -3.1363908099473039e-03
      -3.8000403944383760e-04 7.1003997166373739e-03
      -4.6995764268844449e-03 7.8128123298056864e-04
      3.5817071515976177e-03 5.3173327292401892e-03
      3.1888968594616946e-03 5.7773808746595084e-03
      2.9652786478127956e-03 -8.4926337538222428e-04
      -2.2955905898815561e-03 6.6138049714136490e-04
      2.8463007398973400e-03 -7.1219505435296260e-03
      7.6775800520623649e-05 -7.5917783290578014e-04
      1.8153725142183816e-03 6.3281381448142332e-03
      7.5966202077978060e-03 -4.8250997943481404e-03
      -5.8569992863635985e-03 2.5169888870411773e-05
      -2.3914060919926691e-03 6.0646382231538077e-03
      1.2155300907046736e-03 -5.2677464934933558e-03
      -4.6883378463867253e-03 -3.8527479515621564e-03
      -4.4116311073821952e-03 3.2975163054252787e-03
      -3.8424372716935810e-03 4.9897963830328887e-03
      -1.4098355027270576e-03 4.7586407274409987e-03
      -2.5933458923302912e-03 -3.7118398473765762e-03
      -2.4990186468037616e-03 2.3855597901260208e-03
      2.8744221251606255e-03 6.8289401807956679e-03
      -6.9631435044184044e-03 3.6251797577065577e-03
      -2.7178008204662759e-03 -1.6718412998575499e-03
      -2.1707388757963259e-04 -6.5985949911643270e-03
      -2.9470800901826907e-03 -6.3469120149277029e-03
      2.2574924389625202e-03 2.2215551548454421e-03
      6.1960230856879074e-03 6.3609536351611762e-03
      -5.3719433874290330e-03 -5.4531924872872747e-03
      2.3210231035524654e-03 3.7404136981762557e-03
      3.3965103157599739e-03 5.0834395384509326e-03
      4.2137182534713975e-03 1.0283281808715471e-03
      -3.5762240738839704e-03 -8.0888903463057155e-04
      -1.9256531454553002e-03 6.2478632354097197e-03
      5.5535803911391339e-03 3.0751834298122492e-03
      2.9035873690709396e-03 -1.6078430756516768e-03
      4.6371841798299833e-03 -1.0618930296070841e-03
      1.3647448769998443e-03 2.3845067688806698e-03
      -2.8126679183816889e-03 -1.8864967635743922e-03
      6.0162928020271881e-03 4.2756085895015068e-03
      2.4575966467108011e-03 1.6823715606334865e-03
      6.6483428425624753e-03 -6.6727717470365846e-03
      5.5409939518466329e-03 -1.9450490146011900e-03
      4.8949899866608309e-03 -3.7772151097370159e-03
      -3.1676497416813832e-03 5.2409254481579001e-03
      -2.2864625201794763e-03 1.5709589320243710e-03
      -5.2023644698299856e-04 6.7268272723432420e-03
      4.4967948413856829e-04 -1.0720974404059120e-03
      -4.6423395345567423e-03 -1.6908658304953146e-03
      -1.7016338638064395e-03 5.6926850590836393e-03
      4.1613424485429590e-03 -2.4923961790418981e-03
      6.7470155028326387e-03 -4.8418847702044777e-03
      5.5164304548154320e-03 3.7102039172241734e-03
      -4.2910792121281741e-03 -3.5792697109673791e-03
      -4.0995582983699040e-03 -5.9522213810042218e-03
      -4.8098461290516370e-03 -4.6713067425018396e-03
      4.7259863461120450e-03 -3.1525734374737707e-04
      6.4964621318184708e-03 -4.0925215110182833e-03
      2.4694983887558314e-03 -2.7939940253808773e-03
      -3.4486081413697914e-03 -2.3071759034601316e-03
      -9.0405186956430100e-04 -2.9791791166721279e-03
      -2.3581343925095188e-03 -3.8675411118622505e-04
      5.6800262112018671e-03 -3.7076100471617728e-03
      -3.2389959890486834e-03 3.9432204377843070e-03
      -4.0613967365637476e-03 1.9181120703008598e-03
      5.9954137486678905e-03 -1.1754969877201952e-03
      -5.9989071598086884e-04 5.1647620630370442e-03
      -4.3013437757655724e-03 -5.9858497805348760e-03
