%YAML:1.0
---
opencv_ml_svm:
   format: 3
   svmType: C_SVC
   kernel:
      type: LINEAR
   C: 1.
   term_criteria: { iterations:1000 }
   var_count: 419
   class_count: 2
   class_labels: !!opencv-matrix
      rows: 2
      cols: 1
      dt: i
      data: [ -1, 1 ]
   sv_total: 1
   support_vectors:
      - [ -3.38891425e-07, 1.24053895e-06, 3.44018588e-07,
          -2.98369969e-06, -2.80293943e-06, 1.73343767e-06,
          -4.18989384e-06, -6.96443249e-06, 3.85972908e-06,
          -6.53168343e-07, -2.02625347e-06, 2.08879305e-06,
          -2.68924168e-06, -3.11395274e-06, 1.52330813e-06,
          -3.92713719e-06, -5.61612933e-06, 1.33973617e-06,
          1.95606844e-06, 1.38437645e-06, 3.30185208e-06, 1.69116925e-06,
          2.32918273e-06, 3.40676547e-06, 8.26112370e-08, 1.27040451e-07,
          1.06115590e-06, 5.04348418e-06, 2.04889193e-06, 1.87056094e-06,
          1.91188860e-06, 1.78012033e-06, 4.22416588e-06,
          -3.06115930e-06, 1.88552036e-08, 1.91587537e-06,
          5.25851419e-06, 2.71899466e-06, 2.21116761e-06, 4.23691881e-06,
          2.34154254e-06, 4.96497478e-06, 1.51701511e-06, 4.58987643e-06,
          1.78801656e-06, 7.11636858e-07, 8.54010636e-07, 1.04279741e-06,
          3.35477381e-07, -2.82581937e-07, 8.18737419e-07,
          -4.05350693e-06, -2.07058611e-06, 1.79618780e-06,
          1.44733644e-06, 5.65298741e-08, -2.48939637e-06,
          2.32300849e-07, -2.81958637e-06, -1.23908308e-06,
          -4.72870852e-06, -6.59701254e-06, 1.22228914e-06,
          -1.08445090e-06, -1.43245745e-06, -2.44666194e-06,
          2.59978083e-06, -1.87467697e-06, 1.68202035e-07,
          -1.86971602e-06, -4.78272887e-06, -1.25087399e-06,
          -5.96224538e-07, -4.18695754e-06, -4.69303268e-06,
          9.79857873e-07, -2.34832964e-06, -1.17779825e-06,
          -6.42666862e-07, -5.16273894e-06, -2.17394791e-06,
          8.19522725e-08, -5.87087334e-06, -1.43730972e-07,
          3.73336911e-06, -5.39236498e-06, -1.97509939e-06,
          1.32813102e-06, -6.12639587e-06, -2.88961701e-06,
          6.51384767e-07, -7.19654554e-06, -1.49454172e-06,
          1.09791108e-06, -5.92221568e-06, -1.43525506e-06,
          -1.53046028e-06, -4.89547392e-06, -2.60200545e-06,
          1.74053199e-07, -3.67389225e-06, -4.11034279e-07,
          2.47655453e-06, 1.36201561e-06, 3.06304287e-06, 1.61629157e-06,
          1.21051153e-06, 1.65514314e-06, -3.00455758e-06,
          -1.02021636e-06, 3.53902556e-06, -3.47720675e-06,
          2.53422832e-06, 4.12895770e-06, 2.17336446e-06, 1.11646011e-06,
          1.74375168e-06, 2.18298737e-06, 4.23541087e-06, 1.85385238e-06,
          1.57683269e-06, 6.51546952e-06, 6.87196962e-06, 5.66240487e-06,
          5.89400088e-06, 6.60892601e-06, 2.81715387e-07, 1.19720721e-06,
          -1.79799110e-06, -3.99666806e-06, -6.90195350e-07,
          5.94543849e-07, -2.43281534e-06, 6.95648794e-07,
          3.14655108e-06, -1.88151364e-06, -2.50061248e-07,
          1.92608309e-06, -1.91310119e-06, 1.47505079e-06,
          2.48863716e-06, -4.76930950e-07, -4.05074502e-07,
          1.85971692e-06, -2.00814475e-06, 2.21950359e-06,
          3.76384105e-06, 7.64117885e-07, 2.44221224e-06, 3.56084433e-06,
          6.20282037e-07, -5.39987013e-07, 3.60704303e-06,
          -3.26901181e-06, -5.57355008e-07, -1.84565977e-07,
          -5.22743676e-06, -2.84678072e-06, 9.57662337e-07,
          -5.30485340e-06, -5.74107980e-06, 3.18645533e-07,
          7.92912147e-07, -2.13873273e-06, -4.48235831e-08,
          1.06717636e-07, -2.46760578e-06, 1.84452870e-06,
          -2.84209818e-06, -4.70357918e-06, 1.64393646e-06,
          -9.05239176e-07, -6.66019787e-06, -3.08724253e-07,
          -1.27334954e-06, -7.30994452e-06, 5.09676795e-07,
          -5.10871496e-06, -9.27643487e-06, -9.27369626e-07,
          -6.32465884e-08, -1.58242563e-06, 2.00127602e-06,
          2.94387792e-06, 3.47151172e-06, 5.97645385e-06, 1.91705089e-06,
          1.31445279e-06, 2.66505754e-06, 6.11867222e-07,
          -2.37261574e-07, 3.56838223e-06, -2.11967358e-06,
          2.37717154e-06, 6.21439904e-06, -5.46191814e-07,
          3.47757407e-07, 3.27550242e-06, 3.91186086e-06, 5.14589647e-06,
          3.10813880e-06, 2.83356599e-06, 5.07488221e-06, 6.51534265e-06,
          3.44139312e-06, 3.79639164e-06, 3.15762509e-06,
          -1.24817336e-06, 7.23449489e-07, -7.27796532e-07,
          -4.26737824e-06, -7.77782247e-07, 2.15708019e-06,
          -5.75209242e-06, -3.17469994e-06, 2.81989901e-06,
          -1.37898701e-06, -6.76380751e-07, 1.32617492e-06,
          -1.95787516e-06, -1.91372555e-06, 1.12556074e-06,
          -4.15650993e-06, -5.64457378e-06, 2.07154540e-06,
          -2.81901089e-06, 6.78924096e-07, 1.15967282e-06,
          3.18990965e-06, 1.08811014e-06, 3.74278602e-06,
          -1.13316366e-06, -2.88971637e-06, 2.37411859e-06,
          -3.41435793e-06, -4.53405937e-06, -4.00161844e-06,
          -3.70911039e-06, -4.92717754e-06, -2.38260483e-07,
          -5.82925986e-06, -1.03430211e-05, -1.60794502e-06,
          1.58570265e-06, 2.17989253e-07, 2.48735887e-06, 2.68274175e-06,
          -8.57666180e-07, 2.39968676e-06, -2.78481457e-06,
          -6.65065772e-06, -1.37255563e-06, -1.07795620e-06,
          -3.95280676e-06, -2.12326341e-07, -1.18034700e-06,
          -3.60776585e-06, 1.93468736e-06, -1.11144084e-06,
          -6.03290937e-06, 7.11178586e-07, 1.71535942e-06,
          1.20878804e-06, 2.12989266e-06, -6.77605456e-08,
          2.48461379e-06, 6.34321350e-06, -3.75524269e-06,
          -3.04777905e-06, 5.08507583e-06, 1.11840585e-07,
          -2.31018066e-06, -5.01209513e-07, -7.98790552e-07,
          -1.46694310e-06, 4.72697639e-06, -1.40783447e-06,
          -8.85309817e-07, 6.42158602e-06, 3.99327246e-06,
          -3.88272247e-06, -1.76335178e-08, -4.01549732e-05,
          1.37722155e-03, 1.56388315e-03, 1.91581203e-03, 1.30453182e-03,
          1.56905822e-04, -5.95331076e-04, -5.68475283e-04,
          -7.20440701e-04, -6.53238618e-04, -7.94265594e-04,
          -7.26260536e-04, -4.83642623e-04, -4.65776568e-04,
          -4.23951889e-04, -2.77969346e-04, -2.62326444e-04,
          -1.20117060e-04, -1.17940792e-04, -4.07608641e-05,
          -3.89987690e-05, -1.99940314e-05, -6.58108593e-06, 0., 0.,
          -2.28301883e-06, 0., 0., 0., 0., 0., 0., 0., -4.29040483e-05,
          -5.24619782e-06, 0., 0., 0., -1.92419452e-06, -5.02022829e-07,
          7.51906409e-05, 3.64726962e-04, 7.59098388e-04, 1.75798777e-03,
          2.20635463e-03, 3.09738936e-03, 7.79506750e-04, 7.54298992e-04,
          6.01003820e-04, 7.53577508e-04, 7.52414577e-04, 7.86798249e-04,
          8.09852616e-04, 1.10079348e-03, 7.52551598e-04, 1.12865574e-03,
          6.68546418e-04, 1.13006495e-03, -3.48653900e-03,
          -2.80774874e-03, -2.96421419e-03, -2.29412806e-03,
          -1.28399883e-03, -8.88081384e-04, -1.30656490e-03,
          -1.58494827e-03, -1.66016270e-03, 3.69313921e-06,
          -7.39025427e-06, -5.27133395e-08, -9.71419067e-05,
          1.40644622e-03, 9.78212571e-04, 6.06697577e-04,
          -7.03628393e-05, 4.84271150e-04, -8.34749735e-05,
          -3.87725828e-04, -3.11829557e-04, -4.83625772e-04,
          -5.57858148e-04, -2.60716886e-04, -2.23274663e-04,
          -2.27473312e-04, -1.04220751e-04, -1.71592095e-04,
          -1.86858349e-04, -1.13814131e-04, -1.17878371e-04,
          -7.22742989e-05, -5.07065888e-05, -3.45325425e-05,
          -6.78875813e-06, -2.49069103e-06, -5.84586951e-06,
          -3.58824281e-07, -1.92419452e-06, 0., 0., 0., 0., 0., 0.,
          -4.18496602e-05, -4.85692590e-06, 0., 0., 0., 0., 0.,
          1.87763253e-05, 8.96600104e-05, 1.81621086e-04, 4.06431122e-04,
          4.81548544e-04, 6.78738987e-04, 3.86661530e-04, 2.40700629e-05,
          6.52939896e-04, 1.78996503e-04, 2.15160617e-04, 2.80641019e-04,
          1.38421397e-04, 3.75739255e-05, 1.34784670e-04, 3.32503376e-04,
          -2.03765539e-05, 2.63213093e-04, -9.45596374e-04,
          -6.50138187e-04, -7.44950725e-04, -5.23667608e-04,
          -2.38954031e-04, -4.00858815e-04, -2.36484542e-04,
          -3.90521367e-04, -3.50193935e-04 ]
   uncompressed_sv_total: 73
   uncompressed_support_vectors:
      - [ 2.92679399e-01, 7.29886517e-02, 1.70753047e-01, 1.92935914e-01,
          1.16614573e-01, 9.65540335e-02, 2.35674500e-01, 2.77308047e-01,
          2.09958881e-01, 1.33310243e-01, 7.33728260e-02, 1.47547200e-01,
          2.83073843e-01, 1.57669291e-01, 2.33665556e-02, 1.37753144e-01,
          1.05896041e-01, 7.79669499e-03, 2.49116063e-01, 2.83529647e-02,
          7.84862936e-02, 2.11624652e-01, 9.46895853e-02, 1.21783398e-01,
          1.78789511e-01, 1.36290833e-01, 1.09206587e-01, 4.00000006e-01,
          1.41912788e-01, 6.50293157e-02, 8.88865590e-02, 6.04882054e-02,
          9.59709138e-02, 6.17470890e-02, 6.43830821e-02, 9.72334445e-02,
          2.67932266e-01, 1.39373854e-01, 1.44472107e-01, 9.62576270e-02,
          1.06834874e-01, 2.45865494e-01, 1.55545175e-01, 1.70345023e-01,
          3.58335376e-01, 1.37034327e-01, 2.71099299e-01, 1.62663981e-01,
          5.19146062e-02, 2.91783176e-02, 1.21356361e-03, 5.95200099e-02,
          4.30277170e-04, 0., 8.49446654e-02, 1.63457587e-01,
          1.46654725e-01, 4.19535078e-02, 2.35024095e-02, 2.47044545e-02,
          7.31221735e-02, 6.37415471e-03, 3.98497749e-03, 7.97294825e-02,
          1.29110381e-01, 5.99373542e-02, 8.21999013e-02, 3.57962288e-02,
          4.05474566e-02, 9.31962132e-02, 5.87805621e-02, 5.30911013e-02,
          5.87567613e-02, 1.40339732e-01, 5.20429686e-02, 1.09689593e-01,
          3.08366474e-02, 7.72505207e-03, 6.98998570e-02, 8.89151241e-04,
          1.16777169e-02, 3.82820517e-01, 3.24804217e-01, 4.85565774e-02,
          2.10203558e-01, 1.14070259e-01, 8.77716690e-02, 1.05530865e-01,
          6.35592341e-02, 1.08617321e-01, 4.00000006e-01, 3.26216370e-01,
          5.55046722e-02, 3.73028576e-01, 1.69335857e-01, 5.61004318e-02,
          3.67294215e-02, 7.57840229e-03, 1.30984476e-02, 3.26557875e-01,
          2.96462566e-01, 9.86978412e-02, 3.04874361e-01, 1.62426129e-01,
          1.45419613e-01, 1.26056299e-01, 8.63210186e-02, 7.30674043e-02,
          2.35695049e-01, 1.74517527e-01, 7.04322308e-02, 2.86364108e-01,
          1.26152098e-01, 8.22553188e-02, 2.47849729e-02, 8.20411369e-03,
          7.74471648e-03, 1.92096144e-01, 1.93277434e-01, 1.94394410e-01,
          2.20217377e-01, 1.94345564e-01, 2.95653254e-01, 2.19901010e-01,
          2.64730185e-01, 3.52986872e-01, 2.81659961e-01, 1.53763428e-01,
          9.95946676e-02, 1.34254739e-01, 1.14596374e-01, 2.06754729e-02,
          0., 0., 0., 1.22103445e-01, 1.01245791e-01, 9.93745402e-02,
          1.73955217e-01, 7.99151659e-02, 4.24851924e-02, 1.08771764e-01,
          1.69486217e-02, 6.86282516e-02, 3.40157866e-01, 1.44568548e-01,
          8.94839987e-02, 3.04855198e-01, 1.08102091e-01, 8.16196650e-02,
          2.35050857e-01, 2.03836560e-01, 1.64018095e-01, 3.66505474e-01,
          8.55467692e-02, 6.62170351e-02, 2.43085355e-01, 1.18666515e-01,
          2.97800601e-02, 8.63484740e-02, 7.00233355e-02, 1.88577140e-03,
          4.00000006e-01, 3.66097748e-01, 1.89267814e-01, 3.19847912e-01,
          1.87949702e-01, 1.84325680e-01, 2.49010012e-01, 2.93303460e-01,
          3.13864231e-01, 4.00000006e-01, 3.67727190e-01, 1.77424267e-01,
          4.00000006e-01, 2.29448035e-01, 7.94669762e-02, 1.74482584e-01,
          1.13474451e-01, 2.08951440e-02, 4.00000006e-01, 3.12503397e-01,
          1.67560786e-01, 3.67787570e-01, 1.98527008e-01, 2.49451146e-01,
          2.38522142e-01, 2.22611859e-01, 1.82273954e-01, 4.00000006e-01,
          2.79021353e-01, 1.35461599e-01, 3.12788904e-01, 1.71157494e-01,
          1.78226292e-01, 8.65320563e-02, 7.25871995e-02, 1.04978174e-01,
          3.95805418e-01, 2.88198441e-01, 2.49482021e-01, 2.94083744e-01,
          2.35076860e-01, 3.37257624e-01, 2.47519150e-01, 3.12076420e-01,
          4.00000006e-01, 3.87197196e-01, 3.58091444e-01, 2.00639695e-01,
          1.86169341e-01, 1.43774688e-01, 2.18890365e-02, 5.95200099e-02,
          4.30277170e-04, 0., 2.07048073e-01, 2.49756724e-01,
          1.93811655e-01, 2.15908691e-01, 1.03417583e-01, 6.71896413e-02,
          1.81893975e-01, 2.33227722e-02, 7.26132244e-02, 3.87445658e-01,
          2.54834592e-01, 1.49421364e-01, 3.29292119e-01, 1.43898323e-01,
          1.22167140e-01, 2.46827662e-01, 2.57312298e-01, 2.17109188e-01,
          3.88565034e-01, 2.25886449e-01, 1.18259996e-01, 3.04875225e-01,
          1.49503157e-01, 3.75051163e-02, 1.56248331e-01, 7.09124878e-02,
          1.35634886e-02, 5.17700613e-01, 5.45124710e-01, 5.27000666e-01,
          5.45127630e-01, 5.25595963e-01, 2.93290287e-01, 3.96966577e-01,
          2.83279538e-01, 2.38380939e-01, 4.44367528e-01, 3.17274570e-01,
          1.38726801e-01, 2.51852036e-01, 1.34785205e-01, 1.81952029e-01,
          6.28572702e-02, 1.48240939e-01, 2.00932458e-01, 5.43685853e-01,
          2.91876882e-01, 1.38821542e-01, 5.40970623e-01, 1.48252144e-01,
          1.86506137e-01, 4.24836755e-01, 2.55892724e-01, 2.18894035e-01,
          5.45374215e-01, 2.41274938e-01, 6.74753636e-02, 2.69244462e-01,
          6.02691472e-02, 4.51187156e-02, 6.21183701e-02, 3.94448601e-02,
          1.15523726e-01, 1.29177019e-01, 9.58191216e-01, 8.19952548e-01,
          4.56819630e+00, 5230., 306., 172., 133., 105., 75., 57., 61.,
          51., 59., 25., 31., 22., 21., 19., 11., 6., 5., 2., 2., 4., 2.,
          0., 0., 1., 0., 0., 0., 0., 0., 0., 0., 5.28315258e+00,
          -4.85366732e-01, 0., 0., 0., 1., 0., 3., 11., 27., 53., 83.,
          147., 2258., 2617., 492., 95., 50., 38., 36., 22., 26., 29.,
          37., 26., 42., 51., 77., 53., 33., 18., 17., 32., 26.,
          1.21677764e-01, 8.98486495e-01, 7.82554567e-01, 1.05532055e+01,
          1250., 55., 40., 38., 29., 20., 24., 15., 12., 12., 12., 9.,
          10., 10., 17., 13., 11., 9., 7., 0., 3., 2., 1., 0., 0., 1.,
          0., 0., 0., 0., 0., 0., 5.20759916e+00, -4.75045294e-01, 0.,
          0., 0., 0., 0., 0., 1., 8., 11., 21., 39., 537., 677., 125.,
          22., 15., 12., 12., 8., 6., 5., 6., 10., 11., 10., 22., 14.,
          6., 4., 5., 11., 2. ]
      - [ 1.09305531e-01, 1.09431513e-01, 1.76372096e-01, 2.14849249e-01,
          8.16928148e-02, 2.83686936e-01, 2.59287030e-01, 1.80746078e-01,
          3.76780093e-01, 4.77073044e-02, 8.03392306e-02, 9.23963264e-02,
          1.62218943e-01, 1.97973475e-02, 1.16232425e-01, 1.68610394e-01,
          1.35213695e-02, 1.20141562e-02, 8.32457840e-02, 8.20134580e-02,
          5.73376864e-02, 1.43387839e-01, 9.52674299e-02, 3.12918335e-01,
          1.44048363e-01, 1.89321384e-01, 2.47963071e-01, 2.81332314e-01,
          8.20048153e-02, 1.23646408e-02, 1.43658221e-01, 8.38606060e-02,
          7.25593269e-02, 3.88609469e-02, 8.86065140e-02, 3.01297493e-02,
          1.88683748e-01, 1.73242033e-01, 7.34128654e-02, 8.48335028e-02,
          1.82994187e-01, 3.08046341e-01, 1.37657225e-01, 2.90746868e-01,
          3.19153726e-01, 2.71225542e-01, 1.83423430e-01, 5.04757576e-02,
          3.82168591e-02, 3.13318637e-03, 2.82309786e-03, 8.82301014e-03,
          0., 0., 1.44655198e-01, 1.25421643e-01, 5.30762412e-02,
          3.13415304e-02, 1.09388130e-02, 5.77959903e-02, 3.30781043e-02,
          2.82513537e-03, 1.00642163e-03, 1.10546529e-01, 1.08438864e-01,
          2.52032112e-02, 3.81536931e-02, 2.80244537e-02, 8.37663636e-02,
          5.53888679e-02, 3.41015495e-02, 1.21163644e-01, 1.24072850e-01,
          1.04342133e-01, 2.14973930e-02, 4.37929854e-02, 1.47995511e-02,
          5.65894730e-02, 1.03549380e-02, 2.43233587e-03, 2.40492839e-02,
          4.00000006e-01, 6.44335225e-02, 1.00784868e-01, 2.00145140e-01,
          6.42489865e-02, 9.68393460e-02, 7.91179389e-02, 7.52388015e-02,
          2.20026135e-01, 4.00000006e-01, 1.13965370e-01, 6.72756210e-02,
          2.86152184e-01, 5.96476272e-02, 9.10725296e-02, 2.24403311e-02,
          0., 0., 3.86708379e-01, 1.60235599e-01, 1.67635188e-01,
          2.44101852e-01, 1.28477812e-01, 1.44291580e-01, 1.05277523e-01,
          5.61447777e-02, 1.17490411e-01, 2.45579824e-01, 7.94694051e-02,
          1.29542783e-01, 2.08884045e-01, 7.59060979e-02, 1.02651820e-01,
          2.67848168e-02, 4.26036399e-03, 1.38592636e-02, 1.93078637e-01,
          1.74358636e-01, 2.93781966e-01, 2.01084718e-01, 2.18694001e-01,
          3.01114678e-01, 2.48111203e-01, 3.27333689e-01, 3.79656523e-01,
          2.17943102e-01, 1.05476335e-01, 6.02040477e-02, 1.88423932e-01,
          1.60430800e-02, 2.34003440e-02, 1.26012228e-02, 0., 0.,
          1.27918780e-01, 8.22396278e-02, 1.10700369e-01, 1.11619763e-01,
          6.63462207e-02, 4.46908586e-02, 6.16327859e-02, 3.11369170e-02,
          4.25422862e-02, 2.15066463e-01, 8.78254324e-02, 1.87985897e-01,
          1.28721565e-01, 6.29733801e-02, 1.41206667e-01, 1.81281522e-01,
          1.54675260e-01, 2.32819319e-01, 1.45058110e-01, 7.59348348e-02,
          8.55956227e-02, 1.52585939e-01, 3.40649709e-02, 6.88619614e-02,
          1.18343309e-01, 1.34609398e-02, 9.26746521e-03, 4.00000006e-01,
          1.66520059e-01, 2.32593596e-01, 3.04090679e-01, 1.45941809e-01,
          3.42549473e-01, 2.73063719e-01, 2.55984873e-01, 4.00000006e-01,
          4.00000006e-01, 1.74340159e-01, 1.59671977e-01, 3.28809559e-01,
          7.94449672e-02, 2.07304969e-01, 1.91050708e-01, 1.35213695e-02,
          1.20141562e-02, 4.00000006e-01, 1.92683578e-01, 2.07628384e-01,
          3.04095358e-01, 2.00540274e-01, 3.52737755e-01, 2.43414804e-01,
          2.45466232e-01, 3.50969911e-01, 4.00000006e-01, 1.61474243e-01,
          1.41907424e-01, 2.82900751e-01, 1.59766749e-01, 1.75211161e-01,
          6.56457618e-02, 9.28668827e-02, 4.39890139e-02, 3.54940951e-01,
          2.47600675e-01, 3.25008214e-01, 2.47312948e-01, 2.99337476e-01,
          3.70340168e-01, 2.72081256e-01, 3.54123533e-01, 4.00000006e-01,
          4.00000006e-01, 2.23778263e-01, 1.10679828e-01, 2.16771603e-01,
          1.91762671e-02, 2.62234416e-02, 2.14242321e-02, 0., 0.,
          2.72574067e-01, 1.79450348e-01, 1.63776636e-01, 1.42961308e-01,
          7.72850290e-02, 1.02486849e-01, 9.47108939e-02, 3.39620523e-02,
          4.35486995e-02, 3.17444354e-01, 1.75089955e-01, 2.01990992e-01,
          1.66875303e-01, 9.09978300e-02, 2.24973097e-01, 2.36670434e-01,
          1.88776761e-01, 3.43092680e-01, 2.69130945e-01, 1.68973237e-01,
          1.07093006e-01, 1.96378931e-01, 4.88645285e-02, 1.25451446e-01,
          1.28698245e-01, 1.58932731e-02, 3.33167464e-02, 5.33771515e-01,
          5.66807628e-01, 4.09044057e-01, 5.69782019e-01, 3.13682199e-01,
          3.69896114e-01, 3.32102418e-01, 2.32606128e-01, 2.99767524e-01,
          3.95681888e-01, 1.52928233e-01, 1.82289079e-01, 1.84656650e-01,
          1.39106244e-01, 2.96651602e-01, 9.61136222e-02, 1.87633410e-01,
          2.55871117e-01, 4.25167978e-01, 1.32744849e-01, 1.92122579e-01,
          3.48121971e-01, 1.04292661e-01, 2.98216254e-01, 3.25317413e-01,
          2.11901069e-01, 2.58123428e-01, 3.85864675e-01, 8.68381038e-02,
          4.88762185e-02, 1.33543238e-01, 3.07182092e-02, 1.23496190e-01,
          5.33695370e-02, 5.82558475e-02, 1.98777974e-01, 1.21511348e-01,
          9.57072258e-01, 8.20921421e-01, 4.56882906e+00, 5221., 307.,
          174., 136., 110., 73., 59., 54., 55., 59., 28., 30., 21., 22.,
          15., 13., 7., 5., 2., 2., 4., 2., 0., 0., 1., 0., 0., 0., 0.,
          0., 0., 0., 5.31639862e+00, -4.66312855e-01, 0., 0., 0., 0.,
          2., 2., 9., 28., 52., 81., 88., 1668., 3111., 654., 88., 58.,
          33., 35., 28., 24., 28., 35., 28., 38., 58., 73., 49., 37.,
          19., 17., 31., 26., 1.13990590e-01, 8.95617247e-01,
          7.81518936e-01, 1.05551281e+01, 1255., 58., 34., 33., 30., 20.,
          26., 15., 12., 12., 11., 10., 10., 12., 15., 13., 11., 10., 6.,
          0., 3., 2., 1., 0., 1., 0., 0., 0., 0., 0., 0., 0.,
          5.22280121e+00, -4.59172428e-01, 0., 0., 0., 0., 0., 0., 1.,
          8., 12., 20., 22., 394., 796., 169., 18., 15., 13., 12., 8.,
          6., 5., 6., 10., 11., 12., 21., 11., 8., 4., 6., 9., 3. ]
      - [ 3.00701708e-01, 8.13641027e-02, 3.13076302e-02, 7.79430568e-02,
          7.33690038e-02, 3.23408581e-02, 2.73235887e-01, 9.34843943e-02,
          5.11329360e-02, 1.85239792e-01, 3.21163684e-02, 8.10085088e-02,
          1.18360102e-01, 6.14951141e-02, 8.03135633e-02, 2.55929232e-01,
          1.08782977e-01, 8.01734179e-02, 2.12458014e-01, 4.72431406e-02,
          7.62301385e-02, 2.38216907e-01, 8.20708871e-02, 1.34164751e-01,
          2.26091594e-01, 1.05864167e-01, 5.14530167e-02, 5.06532714e-02,
          1.85172297e-02, 5.44268079e-02, 1.61078185e-01, 2.48916671e-01,
          2.63466746e-01, 2.50387222e-01, 1.88419357e-01, 1.15777954e-01,
          1.37620538e-01, 8.51418078e-02, 2.35404193e-01, 2.56268919e-01,
          3.64969790e-01, 4.00000006e-01, 2.57512420e-01, 2.35292539e-01,
          3.70188445e-01, 2.94641741e-02, 7.90819749e-02, 1.10044941e-01,
          7.11154416e-02, 1.00888297e-01, 1.92271516e-01, 1.42131850e-01,
          1.38820410e-01, 1.31333604e-01, 4.27939147e-02, 4.59604152e-02,
          6.88056871e-02, 5.49526066e-02, 6.95475861e-02, 1.14760466e-01,
          1.27907693e-01, 1.29196018e-01, 4.74331491e-02, 2.83935387e-02,
          1.10722147e-01, 6.64383322e-02, 3.73699442e-02, 6.63566440e-02,
          5.60728982e-02, 8.60564783e-02, 1.00240618e-01, 7.04608709e-02,
          5.88774495e-02, 1.01648055e-01, 7.99820423e-02, 5.64371049e-02,
          7.97247738e-02, 4.88773137e-02, 5.38228601e-02, 8.61962885e-02,
          3.13038826e-02, 3.64556521e-01, 1.74486578e-01, 1.24551125e-01,
          1.06850542e-01, 1.01885684e-01, 2.42638998e-02, 5.77356815e-02,
          9.13675129e-02, 7.48555511e-02, 3.87684792e-01, 2.38177478e-01,
          7.91683495e-02, 1.34070933e-01, 9.16648805e-02, 4.27316017e-02,
          4.97184917e-02, 6.08006604e-02, 7.10348114e-02, 3.70821029e-01,
          2.74751335e-01, 1.00684814e-01, 2.41222784e-01, 1.06263787e-01,
          7.92311728e-02, 8.38857144e-02, 8.95860493e-02, 8.18238780e-02,
          3.40454996e-01, 3.27208668e-01, 2.04378009e-01, 2.16103896e-01,
          1.21110678e-01, 1.75229877e-01, 8.60157609e-02, 8.79713967e-02,
          2.49344707e-01, 3.88154596e-01, 3.56482714e-01, 3.97445768e-01,
          2.07741171e-01, 2.74065107e-01, 3.00226688e-01, 1.52865201e-01,
          1.16693214e-01, 3.84061158e-01, 3.54830444e-01, 2.03073740e-01,
          1.34661138e-01, 9.17093232e-02, 1.06216393e-01, 9.32632461e-02,
          1.25071153e-01, 5.45512959e-02, 7.15159178e-02, 2.92207927e-01,
          1.11127727e-01, 1.19383954e-01, 6.90348893e-02, 6.29920214e-02,
          9.72013548e-02, 6.83731437e-02, 3.01174037e-02, 2.20763758e-02,
          3.83270025e-01, 7.84561038e-02, 1.02667511e-01, 6.61099553e-02,
          5.48336953e-02, 6.92933053e-02, 6.95350841e-02, 3.54400128e-02,
          3.71060893e-02, 3.35625291e-01, 6.17435798e-02, 7.89476633e-02,
          5.86216263e-02, 5.93188033e-02, 5.21436743e-02, 1.36098221e-01,
          7.43121430e-02, 4.66290861e-02, 4.00000006e-01, 2.55850762e-01,
          1.55858740e-01, 1.84793606e-01, 1.75254643e-01, 5.66047505e-02,
          3.30971539e-01, 1.84851900e-01, 1.25988498e-01, 4.00000006e-01,
          2.70293891e-01, 1.60176873e-01, 2.52431124e-01, 1.53159991e-01,
          1.23045139e-01, 3.05647790e-01, 1.69583619e-01, 1.51208207e-01,
          4.00000006e-01, 3.15797955e-01, 1.76914975e-01, 3.55904251e-01,
          1.88334703e-01, 2.13395953e-01, 3.09977353e-01, 1.95450157e-01,
          1.33276880e-01, 3.76030087e-01, 3.39618772e-01, 2.58804858e-01,
          3.22652102e-01, 3.48133057e-01, 4.00000006e-01, 3.36402953e-01,
          2.76390791e-01, 3.58180761e-01, 4.00000006e-01, 3.86326700e-01,
          4.00000006e-01, 3.50886881e-01, 4.00000006e-01, 4.00000006e-01,
          3.94064218e-01, 3.49168628e-01, 4.00000006e-01, 3.72963339e-01,
          2.82155722e-01, 2.44706124e-01, 1.62824765e-01, 2.07104638e-01,
          2.85534739e-01, 2.67203033e-01, 1.93371668e-01, 2.02849492e-01,
          3.35001856e-01, 1.57088146e-01, 1.88189641e-01, 1.23987511e-01,
          1.32539630e-01, 2.11961806e-01, 1.96280867e-01, 1.59313440e-01,
          6.95095286e-02, 3.94440919e-01, 1.89178288e-01, 1.69105858e-01,
          1.03479885e-01, 1.21190339e-01, 1.25366226e-01, 1.55591637e-01,
          1.35680601e-01, 1.07566960e-01, 3.77557904e-01, 1.63391635e-01,
          1.58929706e-01, 1.15058742e-01, 1.39043614e-01, 1.01020992e-01,
          1.89921051e-01, 1.60508424e-01, 7.79329836e-02, 5.48310220e-01,
          3.65365863e-01, 2.71656871e-01, 3.61676306e-01, 2.76954710e-01,
          2.77635008e-01, 2.70387590e-01, 1.61681458e-01, 2.14247882e-01,
          4.79273438e-01, 3.19708288e-01, 2.59440422e-01, 1.76573351e-01,
          2.48619050e-01, 2.61596560e-01, 2.92939246e-01, 2.15813994e-01,
          2.59566724e-01, 5.36929846e-01, 2.50441104e-01, 2.57392675e-01,
          3.58279794e-01, 3.15058976e-01, 2.76216179e-01, 3.26115221e-01,
          2.32228026e-01, 2.04649225e-01, 4.45464998e-01, 2.08726525e-01,
          2.22925693e-01, 1.70356870e-01, 1.61427081e-01, 2.47971594e-01,
          2.90188223e-01, 2.51596987e-01, 2.58549303e-01, 2.10682880e-02,
          9.72974420e-01, 6.13324821e-01, 3.16360760e+00, 2952., 2005.,
          680., 277., 153., 126., 59., 50., 30., 19., 22., 11., 5., 3.,
          2., 3., 1., 2., 0., 0., 0., 0., 0., 0., 0., 0., 0., 0., 0., 0.,
          0., 0., 6.23478460e+00, -4.95614231e-01, 0., 0., 0., 0., 0.,
          0., 0., 3., 7., 34., 47., 115., 348., 680., 960., 1213., 1584.,
          621., 132., 49., 43., 46., 40., 40., 38., 29., 46., 39., 43.,
          102., 128., 13., 1.46577097e-02, 9.39192355e-01,
          4.82142508e-01, 6.81538486e+00, 429., 502., 284., 157., 67.,
          45., 35., 23., 11., 7., 13., 6., 5., 4., 6., 2., 1., 0., 0.,
          1., 0., 1., 1., 0., 0., 0., 0., 0., 0., 0., 0., 0.,
          6.15156078e+00, -5.16683221e-01, 0., 0., 0., 0., 0., 0., 0.,
          0., 1., 5., 14., 25., 88., 169., 245., 300., 398., 159., 33.,
          14., 8., 9., 13., 11., 10., 8., 9., 9., 17., 23., 30., 2. ]
      - [ 4.82104793e-02, 5.31018153e-02, 4.79063280e-02, 6.02015480e-02,
          6.18409663e-02, 1.21718727e-01, 4.44320515e-02, 6.83945641e-02,
          1.51859850e-01, 2.65475083e-02, 4.56133448e-02, 8.47617239e-02,
          3.11550759e-02, 6.10370375e-02, 9.16886404e-02, 5.23615219e-02,
          8.59967917e-02, 1.24803685e-01, 9.05741751e-02, 7.60997832e-02,
          1.23851612e-01, 3.34628448e-02, 5.43595664e-02, 1.46763593e-01,
          7.32159391e-02, 1.65028274e-01, 2.42948398e-01, 7.86360055e-02,
          1.69827849e-01, 2.66328752e-01, 4.10623699e-02, 8.40586126e-02,
          2.55518019e-01, 2.36017987e-01, 2.87205845e-01, 2.85973996e-01,
          1.14107981e-01, 2.87412703e-01, 4.00000006e-01, 7.64983445e-02,
          3.06461215e-01, 4.00000006e-01, 3.73799324e-01, 4.00000006e-01,
          3.14052582e-01, 4.00000006e-01, 1.39765516e-01, 2.51472622e-01,
          4.42049354e-02, 1.12448826e-01, 1.21983916e-01, 1.07902318e-01,
          1.28593311e-01, 1.10685602e-01, 4.00000006e-01, 1.37389809e-01,
          8.51801038e-02, 6.98055923e-02, 7.41733611e-02, 6.77790046e-02,
          1.05874859e-01, 8.18516538e-02, 1.26963079e-01, 3.30037266e-01,
          8.32080543e-02, 4.72357497e-02, 9.91336554e-02, 5.01695685e-02,
          1.89216174e-02, 9.02115479e-02, 5.63130565e-02, 3.99685055e-02,
          1.61795169e-01, 8.44947845e-02, 6.01839237e-02, 1.35763228e-01,
          7.87703246e-02, 1.88736245e-02, 7.02579618e-02, 3.22258659e-02,
          5.85791618e-02, 2.54907608e-01, 1.05622418e-01, 4.03193906e-02,
          1.66750148e-01, 1.10691071e-01, 2.58906744e-02, 6.72382042e-02,
          3.03458180e-02, 5.74046336e-02, 2.65843034e-01, 7.80165642e-02,
          6.07414618e-02, 2.65697360e-01, 8.61619338e-02, 4.63100784e-02,
          8.65634978e-02, 4.92658876e-02, 1.30867600e-01, 3.09132546e-01,
          5.20560220e-02, 1.68467045e-01, 2.66208172e-01, 7.32081831e-02,
          1.31666422e-01, 8.52177814e-02, 5.14849946e-02, 1.67692363e-01,
          2.45289996e-01, 1.59146622e-01, 2.85002112e-01, 3.05061162e-01,
          1.53139278e-01, 1.56702265e-01, 1.85027584e-01, 1.83130786e-01,
          2.59242356e-01, 1.89707801e-01, 3.23740631e-01, 4.00000006e-01,
          3.09343278e-01, 3.74983251e-01, 3.30958128e-01, 3.86933506e-01,
          2.70979106e-01, 3.55386019e-01, 1.44006670e-01, 8.38209167e-02,
          1.33162647e-01, 2.08303422e-01, 1.25939891e-01, 7.06716999e-02,
          1.82686985e-01, 1.43483937e-01, 1.58337817e-01, 1.54496878e-01,
          9.71260592e-02, 6.61636889e-02, 1.36153132e-01, 9.76746976e-02,
          4.83131222e-02, 8.40289742e-02, 1.08037144e-01, 8.54571387e-02,
          1.08207956e-01, 6.59112185e-02, 2.40104683e-02, 7.33642504e-02,
          6.28197044e-02, 2.76494417e-02, 6.71355575e-02, 9.71395299e-02,
          6.65063784e-02, 8.06958973e-02, 8.20113346e-02, 3.69578637e-02,
          7.32361823e-02, 5.88327982e-02, 6.60161078e-02, 5.54385856e-02,
          6.65373877e-02, 1.12559706e-01, 3.03118110e-01, 1.58724248e-01,
          8.82257223e-02, 2.26951748e-01, 1.72532067e-01, 1.47609413e-01,
          1.11670241e-01, 9.87403691e-02, 2.09264517e-01, 2.92390525e-01,
          1.23629905e-01, 1.45503253e-01, 2.96852410e-01, 1.47198990e-01,
          1.37998700e-01, 1.38925016e-01, 1.35262698e-01, 2.55671293e-01,
          3.73826265e-01, 1.28155842e-01, 2.92318732e-01, 2.99670935e-01,
          1.27567753e-01, 2.78430074e-01, 1.58433706e-01, 2.16513276e-01,
          3.85826677e-01, 3.23925972e-01, 3.28974426e-01, 4.00000006e-01,
          3.34416896e-01, 2.37197876e-01, 3.86205673e-01, 3.76383483e-01,
          4.00000006e-01, 4.00000006e-01, 3.03815782e-01, 4.00000006e-01,
          4.00000006e-01, 3.61316562e-01, 4.00000006e-01, 4.00000006e-01,
          4.00000006e-01, 4.00000006e-01, 4.00000006e-01, 4.00000006e-01,
          2.23586455e-01, 3.79178733e-01, 2.52508402e-01, 2.38388672e-01,
          1.92655578e-01, 2.90589243e-01, 2.72077262e-01, 2.69023389e-01,
          4.00000006e-01, 2.34515890e-01, 1.51343793e-01, 2.05958754e-01,
          1.71848089e-01, 1.16092123e-01, 1.89903811e-01, 1.89888775e-01,
          2.12420210e-01, 3.89665008e-01, 1.49119258e-01, 7.12462142e-02,
          1.72497898e-01, 1.12989262e-01, 4.65710610e-02, 1.57347113e-01,
          1.53452575e-01, 1.06474884e-01, 2.42491037e-01, 1.66506082e-01,
          9.71417874e-02, 2.08999425e-01, 1.37603149e-01, 8.48897249e-02,
          1.25696540e-01, 9.87632349e-02, 1.71138853e-01, 4.27557170e-01,
          2.48488873e-01, 2.90151358e-01, 3.64435226e-01, 2.59092569e-01,
          2.71563411e-01, 2.93824434e-01, 2.83677757e-01, 3.80184621e-01,
          4.54224527e-01, 2.75064230e-01, 3.00014168e-01, 2.70546943e-01,
          2.21630365e-01, 2.27585435e-01, 2.67852426e-01, 2.50983447e-01,
          3.02125782e-01, 3.45261276e-01, 2.29749396e-01, 3.02316099e-01,
          2.90481746e-01, 2.69789368e-01, 2.74364918e-01, 3.31267148e-01,
          2.91133374e-01, 3.54960054e-01, 3.76768142e-01, 2.48132989e-01,
          3.24565053e-01, 2.03740790e-01, 2.04916432e-01, 2.38792181e-01,
          2.16904581e-01, 2.61270940e-01, 3.05897325e-01, 2.10019797e-02,
          9.55652118e-01, 6.03559732e-01, 4.20680380e+00, 3067., 2013.,
          710., 292., 99., 69., 36., 25., 16., 8., 13., 9., 8., 10., 7.,
          7., 7., 2., 0., 2., 0., 0., 0., 0., 0., 0., 0., 0., 0., 0., 0.,
          0., 6.02352095e+00, -4.93737549e-01, 0., 0., 0., 0., 0., 0.,
          0., 0., 0., 0., 0., 49., 263., 608., 975., 1380., 1587., 788.,
          243., 46., 25., 29., 31., 27., 23., 20., 31., 35., 40., 83.,
          104., 13., 1.48005020e-02, 8.99362385e-01, 4.71950710e-01,
          9.39038467e+00, 460., 509., 289., 165., 74., 30., 17., 6., 8.,
          3., 5., 6., 5., 1., 12., 2., 2., 1., 2., 3., 0., 0., 0., 0.,
          0., 0., 0., 0., 0., 0., 0., 0., 5.93473339e+00,
          -4.90318328e-01, 0., 0., 0., 0., 0., 0., 0., 0., 0., 0., 0.,
          4., 63., 163., 228., 351., 413., 194., 57., 11., 6., 6., 11.,
          7., 5., 5., 8., 9., 15., 18., 24., 2. ]
      - [ 8.23687166e-02, 3.78864482e-02, 6.88522086e-02, 3.94104123e-02,
          7.33649433e-02, 1.49098709e-01, 1.05293632e-01, 4.69490029e-02,
          1.12217665e-01, 2.61430554e-02, 3.97631675e-02, 7.34821707e-02,
          4.84256856e-02, 6.20938018e-02, 1.48025498e-01, 1.10465981e-01,
          8.57784748e-02, 1.85682699e-01, 4.43445295e-02, 7.09445626e-02,
          1.54361203e-01, 4.21732590e-02, 1.12353057e-01, 1.82998329e-01,
          1.55737802e-01, 1.23313420e-01, 2.24668771e-01, 3.49105969e-02,
          1.17050759e-01, 2.81455368e-01, 1.10707566e-01, 2.22005770e-01,
          2.59030730e-01, 3.84196162e-01, 3.24357003e-01, 2.20941901e-01,
          6.95779994e-02, 2.71619976e-01, 4.00000006e-01, 1.87012538e-01,
          3.41141075e-01, 3.49406213e-01, 3.89113456e-01, 4.00000006e-01,
          3.83101940e-01, 1.11874878e-01, 9.72166806e-02, 1.70475379e-01,
          1.11927725e-01, 1.17933929e-01, 9.80482921e-02, 1.26502350e-01,
          1.99128330e-01, 2.79276699e-01, 1.89285830e-01, 1.00706935e-01,
          7.62110502e-02, 1.16973318e-01, 6.70330077e-02, 5.47969677e-02,
          8.40146244e-02, 1.07353792e-01, 9.11026299e-02, 2.17600986e-01,
          6.13930672e-02, 4.39645238e-02, 7.70752877e-02, 4.49086502e-02,
          2.04538554e-02, 6.45606369e-02, 9.50056612e-02, 5.33572547e-02,
          1.95505455e-01, 1.22122973e-01, 2.32401751e-02, 8.44403729e-02,
          5.64383939e-02, 1.88929364e-02, 6.03721142e-02, 2.83230543e-02,
          5.39855883e-02, 2.51101792e-01, 1.07942611e-01, 4.09356728e-02,
          7.15730488e-02, 4.46301736e-02, 4.95511368e-02, 1.00139365e-01,
          3.24341729e-02, 9.36327353e-02, 3.58500898e-01, 9.03467834e-02,
          5.55468053e-02, 1.12030588e-01, 3.95856053e-02, 6.21991232e-02,
          1.01529881e-01, 5.98550551e-02, 9.85397100e-02, 3.30621719e-01,
          8.20845068e-02, 2.01601863e-01, 1.23988770e-01, 8.04113150e-02,
          1.34052590e-01, 7.90597051e-02, 1.22142628e-01, 1.84617162e-01,
          3.73445600e-01, 1.69177443e-01, 2.64063329e-01, 3.09875011e-01,
          1.88598290e-01, 1.82843059e-01, 6.77516088e-02, 1.91738814e-01,
          2.17404693e-01, 2.36010090e-01, 3.55076820e-01, 4.00000006e-01,
          3.92653912e-01, 3.79310489e-01, 2.78128147e-01, 1.72733694e-01,
          3.76121134e-01, 3.06471556e-01, 1.01945356e-01, 9.50315893e-02,
          1.00632519e-01, 1.93514496e-01, 1.41481012e-01, 1.34703949e-01,
          7.71751329e-02, 1.03557214e-01, 1.14341155e-01, 1.86796278e-01,
          1.19217992e-01, 3.51143256e-02, 1.26429453e-01, 1.18682846e-01,
          7.97829330e-02, 4.90922704e-02, 5.77060580e-02, 1.27237201e-01,
          9.53590423e-02, 5.13050668e-02, 2.12324075e-02, 5.98208085e-02,
          8.60019028e-02, 7.04633296e-02, 6.99183568e-02, 4.50922549e-02,
          9.25761238e-02, 6.95061088e-02, 4.37913761e-02, 3.86054851e-02,
          4.18780297e-02, 8.76346156e-02, 1.21301532e-01, 4.14846912e-02,
          3.09038069e-02, 1.12611912e-01, 3.29522878e-01, 1.45829067e-01,
          1.09787881e-01, 1.10983454e-01, 1.17995121e-01, 1.98649824e-01,
          2.05432966e-01, 7.93831795e-02, 2.05850393e-01, 3.70568067e-01,
          1.30109951e-01, 1.29028991e-01, 1.60456285e-01, 1.01679377e-01,
          2.10224584e-01, 2.11995855e-01, 1.45633489e-01, 2.84222484e-01,
          3.61097872e-01, 1.53029129e-01, 3.55963022e-01, 1.66162014e-01,
          1.92764431e-01, 3.17050993e-01, 2.34797567e-01, 2.45456129e-01,
          3.81645560e-01, 3.81018877e-01, 2.86228091e-01, 4.00000006e-01,
          3.79155993e-01, 3.88033628e-01, 3.96856040e-01, 4.00000006e-01,
          4.00000006e-01, 3.94437313e-01, 3.05588037e-01, 4.00000006e-01,
          4.00000006e-01, 4.00000006e-01, 4.00000006e-01, 4.00000006e-01,
          4.00000006e-01, 4.00000006e-01, 4.00000006e-01, 2.13820264e-01,
          1.92248210e-01, 2.71107882e-01, 3.05442274e-01, 2.59414822e-01,
          2.32752204e-01, 2.03677461e-01, 3.02685559e-01, 3.74691904e-01,
          3.58851761e-01, 2.19924897e-01, 1.11325361e-01, 2.43402734e-01,
          1.85715839e-01, 1.34579912e-01, 1.33106872e-01, 1.65059850e-01,
          2.18339860e-01, 3.12959969e-01, 1.12698145e-01, 6.51969388e-02,
          1.36896074e-01, 1.30910546e-01, 9.09171700e-02, 1.34478986e-01,
          1.40097931e-01, 1.45933375e-01, 2.65011609e-01, 1.65914357e-01,
          6.18456788e-02, 1.26318395e-01, 1.44073009e-01, 1.40194461e-01,
          1.01856798e-01, 5.92268631e-02, 1.66597515e-01, 4.22426313e-01,
          2.49318749e-01, 2.89007038e-01, 3.00460875e-01, 2.84203768e-01,
          3.20777178e-01, 2.72524387e-01, 2.98316985e-01, 4.11307573e-01,
          3.73183072e-01, 2.41791233e-01, 2.77636945e-01, 2.59493053e-01,
          2.43829250e-01, 2.47346520e-01, 2.29391277e-01, 2.60100752e-01,
          3.20945084e-01, 3.45655590e-01, 2.53046542e-01, 2.97158092e-01,
          2.92208940e-01, 2.91567415e-01, 3.02613527e-01, 3.31706941e-01,
          3.20266366e-01, 3.56452018e-01, 2.61115968e-01, 2.14057505e-01,
          2.91032821e-01, 2.08455026e-01, 2.47475013e-01, 2.57700354e-01,
          2.21918896e-01, 2.66715705e-01, 3.02771896e-01, 2.23501213e-02,
          9.56559181e-01, 6.13024592e-01, 4.19936705e+00, 3128., 1976.,
          657., 301., 103., 66., 42., 29., 14., 15., 12., 10., 8., 9.,
          10., 6., 8., 2., 2., 2., 0., 0., 0., 0., 0., 0., 0., 0., 0.,
          0., 0., 0., 6.05448914e+00, -5.08913219e-01, 0., 0., 0., 0.,
          0., 0., 0., 0., 0., 2., 1., 50., 252., 529., 846., 1244.,
          1678., 933., 325., 53., 29., 23., 36., 37., 23., 19., 30., 35.,
          50., 79., 112., 14., 1.53026385e-02, 8.97797167e-01,
          4.79632974e-01, 9.72820568e+00, 462., 531., 277., 149., 68.,
          40., 13., 2., 11., 8., 6., 3., 5., 3., 8., 2., 3., 3., 3., 2.,
          1., 0., 0., 0., 0., 0., 0., 0., 0., 0., 0., 0., 5.96174955e+00,
          -5.12617528e-01, 0., 0., 0., 0., 0., 0., 0., 0., 0., 0., 1.,
          5., 60., 124., 224., 308., 421., 243., 82., 10., 5., 8., 11.,
          3., 7., 9., 13., 2., 13., 22., 25., 4. ]
      - [ 7.94429183e-02, 3.12942863e-02, 1.84346214e-02, 1.50806531e-01,
          4.56603579e-02, 1.60542075e-02, 1.53930364e-02, 4.01932281e-03,
          1.64195872e-03, 5.21406531e-02, 2.52743531e-02, 1.78891942e-02,
          1.21789247e-01, 3.86005156e-02, 5.38058439e-03, 5.76700503e-03,
          3.66675388e-03, 4.67830058e-03, 3.09643522e-02, 2.12553665e-02,
          4.65524793e-02, 3.74718867e-02, 1.20040951e-02, 1.66712813e-02,
          5.15984446e-02, 1.47280525e-02, 4.35089227e-03, 1.76074609e-01,
          4.19288129e-02, 9.75712836e-02, 7.92319402e-02, 4.04364914e-02,
          6.06702417e-02, 1.05783358e-01, 7.41841644e-02, 1.17054254e-01,
          3.05764318e-01, 3.88292015e-01, 4.00000006e-01, 3.53519887e-01,
          3.86383533e-01, 3.91185224e-01, 3.30293953e-01, 3.56469840e-01,
          3.89199317e-01, 2.59410501e-01, 1.32027417e-01, 1.22120559e-01,
          1.67333856e-01, 1.14746645e-01, 1.57818735e-01, 2.03212976e-01,
          1.29978463e-01, 1.54845282e-01, 1.30799085e-01, 5.14266938e-02,
          4.30702325e-03, 8.79847407e-02, 2.21881811e-02, 1.88961159e-02,
          6.67977929e-02, 1.01515122e-01, 7.47874752e-02, 1.18857861e-01,
          8.34541023e-02, 3.72803910e-03, 3.07679977e-02, 2.12642401e-02,
          1.02226725e-02, 3.16402502e-02, 4.83731218e-02, 6.68641105e-02,
          1.45840883e-01, 7.77778625e-02, 2.61364086e-03, 3.80423814e-02,
          1.29725635e-02, 1.98661499e-02, 1.78044755e-02, 1.79909747e-02,
          1.09693725e-02, 1.21480010e-01, 9.60002095e-02, 1.66419242e-03,
          1.52514074e-02, 1.56320147e-02, 4.84853797e-03, 2.06053853e-02,
          6.40761619e-03, 9.25515871e-03, 1.67369962e-01, 9.49791446e-02,
          1.12109398e-03, 5.89187294e-02, 3.37937661e-02, 5.12677617e-03,
          1.93663836e-02, 5.44726709e-03, 3.01444414e-03, 2.49542251e-01,
          5.39817140e-02, 5.98264439e-03, 1.10873900e-01, 1.83514915e-02,
          1.60039496e-02, 1.98837128e-02, 4.49752947e-03, 4.58550639e-03,
          3.93077284e-01, 6.10648394e-02, 2.05749404e-02, 3.48734677e-01,
          5.95128909e-02, 5.26998527e-02, 2.29391698e-02, 5.59146050e-03,
          5.55425696e-03, 3.57995749e-01, 4.00000006e-01, 4.00000006e-01,
          3.58651102e-01, 3.97910893e-01, 4.00000006e-01, 6.56453297e-02,
          7.07564577e-02, 6.68168068e-02, 2.24997610e-01, 1.14224851e-01,
          6.28663376e-02, 2.37246424e-01, 3.88448030e-01, 4.00000006e-01,
          1.25126950e-02, 2.90961470e-02, 5.79671822e-02, 1.21788561e-01,
          7.42386281e-02, 2.38707215e-02, 5.94548658e-02, 7.76666105e-02,
          9.44714099e-02, 5.11086546e-03, 3.46768764e-03, 6.31443458e-03,
          1.34645700e-01, 4.75213975e-02, 1.47632509e-02, 6.57435730e-02,
          2.55632214e-02, 3.81629504e-02, 1.06927678e-02, 3.63712991e-03,
          4.33735643e-03, 9.50170606e-02, 3.58683877e-02, 2.59473361e-03,
          4.61740419e-02, 1.42334327e-02, 9.87933949e-03, 4.46273480e-03,
          1.75857299e-03, 2.80718505e-03, 2.00922891e-01, 1.27294496e-01,
          2.00988129e-02, 1.66057929e-01, 6.12923726e-02, 2.09027454e-02,
          3.59984189e-02, 1.04269385e-02, 1.08971177e-02, 2.19510615e-01,
          1.20253488e-01, 1.90102868e-02, 1.80707991e-01, 7.23942816e-02,
          1.05073610e-02, 2.51333863e-02, 9.11402144e-03, 7.69274542e-03,
          2.80506641e-01, 7.52370805e-02, 5.25351241e-02, 1.48345783e-01,
          3.03555913e-02, 3.26752365e-02, 7.14821592e-02, 1.92255806e-02,
          8.93639773e-03, 4.00000006e-01, 1.02993637e-01, 1.18146211e-01,
          3.80430222e-01, 9.99493897e-02, 1.13370046e-01, 1.28722519e-01,
          7.97756240e-02, 1.22608513e-01, 4.00000006e-01, 4.00000006e-01,
          4.00000006e-01, 4.00000006e-01, 4.00000006e-01, 4.00000006e-01,
          3.54571939e-01, 3.85107517e-01, 4.00000006e-01, 4.00000006e-01,
          2.46252224e-01, 1.84986919e-01, 3.61666918e-01, 4.00000006e-01,
          4.00000006e-01, 2.15725660e-01, 1.59074634e-01, 2.12812439e-01,
          2.52587557e-01, 1.25665337e-01, 2.81777456e-02, 1.47439599e-01,
          9.98548120e-02, 1.13367535e-01, 7.19086528e-02, 1.04982793e-01,
          8.11019093e-02, 2.53503561e-01, 1.30975500e-01, 1.84912886e-02,
          9.65115950e-02, 4.68274690e-02, 4.83856350e-02, 4.23330143e-02,
          5.20102568e-02, 7.12014660e-02, 2.40857914e-01, 1.13646239e-01,
          5.20837400e-03, 8.42164159e-02, 2.72060018e-02, 2.97454968e-02,
          2.22672094e-02, 1.97495483e-02, 1.37765575e-02, 3.86676133e-01,
          2.21585527e-01, 1.50048018e-01, 3.46067131e-01, 2.16328710e-01,
          2.08711401e-01, 1.44506544e-01, 1.19221933e-01, 1.28178343e-01,
          4.18563336e-01, 2.23186821e-01, 1.49714395e-01, 2.56958187e-01,
          1.98993832e-01, 2.01193601e-01, 9.94800851e-02, 8.60289410e-02,
          1.01454243e-01, 3.16832125e-01, 2.01541185e-01, 1.43647686e-01,
          3.06688786e-01, 2.17976049e-01, 2.09769920e-01, 1.51543856e-01,
          1.22411765e-01, 1.31671101e-01, 3.70022535e-01, 2.16644377e-01,
          1.44268632e-01, 2.06570506e-01, 1.80048153e-01, 1.90178260e-01,
          8.03572610e-02, 8.79208669e-02, 1.03050217e-01, 1.71265621e-02,
          9.46054280e-01, 5.98232508e-01, 4.77468348e+00, 3574., 1452.,
          622., 300., 151., 93., 55., 45., 31., 24., 19., 12., 8., 3.,
          3., 4., 1., 2., 0., 1., 0., 0., 0., 0., 0., 0., 0., 0., 0., 0.,
          0., 0., 6.43715048e+00, -4.75934803e-01, 0., 0., 0., 0., 0.,
          0., 0., 1., 2., 23., 30., 27., 516., 1157., 879., 549., 642.,
          587., 655., 650., 315., 66., 63., 49., 37., 26., 23., 22., 17.,
          21., 28., 15., 1.13196503e-02, 8.81199062e-01, 4.46959138e-01,
          1.02730770e+01, 584., 371., 220., 167., 94., 47., 48., 22.,
          15., 12., 7., 7., 0., 1., 1., 1., 1., 1., 0., 1., 0., 0., 0.,
          0., 0., 0., 0., 0., 0., 0., 0., 0., 6.35592270e+00,
          -4.77340430e-01, 0., 0., 0., 0., 0., 0., 0., 0., 0., 3., 9.,
          4., 127., 279., 224., 150., 153., 152., 172., 160., 74., 20.,
          18., 11., 7., 8., 3., 5., 7., 6., 5., 3. ]
      - [ 2.66407728e-01, 4.69684675e-02, 3.02248728e-02, 3.19579661e-01,
          1.73375830e-01, 5.12152575e-02, 2.26819426e-01, 1.95756122e-01,
          4.53986861e-02, 3.51875633e-01, 2.04921886e-02, 3.01019347e-04,
          2.21240878e-01, 1.39657110e-01, 1.39772715e-02, 2.07032710e-01,
          2.63266057e-01, 6.57770410e-02, 2.60018945e-01, 7.46061057e-02,
          1.07984310e-02, 9.36877429e-02, 1.28364161e-01, 2.31703054e-02,
          8.44769925e-02, 4.00000006e-01, 4.00000006e-01, 3.75466049e-01,
          1.30264729e-01, 1.90268597e-03, 7.80945644e-02, 9.85125452e-02,
          1.41744673e-01, 3.82816680e-02, 1.84303716e-01, 3.82450521e-01,
          1.75334066e-01, 1.08668916e-01, 8.06490630e-02, 4.34990562e-02,
          7.90509060e-02, 1.86084032e-01, 4.93271500e-02, 4.83652428e-02,
          3.91958445e-01, 1.73867732e-01, 1.26105279e-01, 0.,
          3.60996947e-02, 1.21714540e-01, 8.54154453e-02, 4.54949588e-02,
          4.96303551e-02, 1.81965306e-01, 1.67113930e-01, 1.84322670e-01,
          1.25907315e-03, 8.12518895e-02, 2.48063833e-01, 1.27613559e-01,
          6.01958819e-02, 6.76759481e-02, 2.29611307e-01, 1.89293355e-01,
          2.67631233e-01, 5.12357764e-02, 8.35310668e-02, 3.76594245e-01,
          1.49340615e-01, 5.99048361e-02, 1.59176633e-01, 2.68999368e-01,
          3.16147059e-01, 4.00000006e-01, 6.35141786e-03, 1.45472243e-01,
          4.00000006e-01, 1.39011070e-01, 7.54443780e-02, 2.06362635e-01,
          3.15013647e-01, 5.52571900e-02, 1.51919752e-01, 2.11524323e-01,
          1.53624132e-01, 3.37251067e-01, 1.42856970e-01, 1.46382943e-01,
          2.78323144e-01, 3.90910208e-01, 2.98128240e-02, 3.97621095e-02,
          8.60015526e-02, 7.63686001e-02, 1.90652966e-01, 5.93603961e-02,
          2.55869981e-02, 1.68414935e-01, 2.08972365e-01, 4.70782369e-02,
          4.64645587e-02, 2.25592107e-01, 9.22632217e-02, 1.76799983e-01,
          9.15353522e-02, 5.79022951e-02, 1.64294392e-01, 8.46369565e-02,
          1.86042078e-02, 4.51079383e-02, 4.79407795e-02, 1.07717827e-01,
          1.55951917e-01, 2.67689284e-02, 6.75167888e-02, 1.60214648e-01,
          1.36668146e-01, 8.84491429e-02, 1.11260325e-01, 2.64870048e-01,
          1.27290398e-01, 1.41872287e-01, 1.06749676e-01, 1.78701580e-01,
          1.23036511e-01, 1.08440228e-01, 2.81884223e-02, 2.26135999e-02,
          0., 5.38618863e-02, 5.91817163e-02, 3.59368883e-02,
          9.16386247e-02, 1.46896034e-01, 7.37957433e-02, 9.70418155e-02,
          6.12136424e-02, 9.53629147e-03, 1.82405204e-01, 1.10456452e-01,
          7.75640132e-03, 2.01089084e-01, 1.86945751e-01, 9.72926244e-02,
          1.30978659e-01, 4.56014201e-02, 3.93784828e-02, 3.57437760e-01,
          1.49806067e-01, 1.66855808e-02, 2.36153111e-01, 1.96262509e-01,
          8.93597901e-02, 3.46760660e-01, 6.97766766e-02, 1.19203655e-03,
          4.00000006e-01, 2.28286922e-01, 3.93960476e-02, 3.06768924e-01,
          2.44030967e-01, 3.99123393e-02, 3.00651610e-01, 1.98888242e-01,
          2.26055011e-01, 3.75198007e-01, 4.00000006e-01, 1.57656536e-01,
          2.97037959e-01, 4.00000006e-01, 3.99384350e-01, 3.61944646e-01,
          6.02542982e-02, 8.63025635e-02, 2.97609448e-01, 3.18483561e-01,
          7.33376667e-02, 2.19306558e-01, 3.91369522e-01, 2.74749339e-01,
          2.90313601e-01, 1.21070638e-01, 2.30783477e-01, 1.85951054e-01,
          3.01850706e-01, 1.14705659e-01, 1.42379269e-01, 4.00000006e-01,
          4.00000006e-01, 3.77942592e-01, 1.75372660e-01, 4.98434640e-02,
          1.85812384e-01, 2.54464447e-01, 1.49480030e-01, 1.05798468e-01,
          3.44518393e-01, 4.00000006e-01, 2.63471186e-01, 2.19929263e-01,
          2.78700262e-01, 1.70789450e-01, 2.20923200e-01, 2.16931239e-01,
          2.09383368e-01, 1.71401754e-01, 4.00000006e-01, 2.02056140e-01,
          1.48718923e-01, 0., 8.99615884e-02, 1.80896282e-01,
          1.21352337e-01, 1.37133598e-01, 1.96526393e-01, 2.55761027e-01,
          2.63702065e-01, 2.44758651e-01, 1.07953651e-02, 2.63657153e-01,
          3.37143153e-01, 1.35369956e-01, 2.29964539e-01, 2.54621625e-01,
          3.15914571e-01, 2.98478365e-01, 2.94516087e-01, 9.06142443e-02,
          3.83550495e-01, 4.00000006e-01, 1.54162183e-01, 2.64888942e-01,
          3.54336411e-01, 3.36690277e-01, 4.00000006e-01, 4.00000006e-01,
          7.54345441e-03, 4.00000006e-01, 4.00000006e-01, 1.51553944e-01,
          3.25030565e-01, 3.95330191e-01, 3.41375053e-01, 2.21482083e-01,
          1.75334841e-01, 1.72518417e-01, 2.25046232e-01, 3.17794830e-01,
          7.91050270e-02, 1.42459601e-01, 3.30803126e-01, 4.29834902e-01,
          4.17686492e-01, 3.42934996e-01, 2.31197909e-01, 2.68864512e-01,
          4.92807388e-01, 4.64951724e-01, 1.31853268e-01, 3.69627059e-01,
          4.96716052e-01, 3.32909554e-01, 1.45912826e-01, 2.97141001e-02,
          3.86051208e-01, 3.43257636e-01, 4.94428761e-02, 4.76282448e-01,
          4.28347647e-01, 3.45740765e-01, 4.97617871e-01, 2.56366611e-01,
          7.03869089e-02, 3.70875150e-01, 4.09125626e-01, 8.75000954e-02,
          2.67034322e-01, 3.99966151e-01, 3.82886291e-01, 1.78102374e-01,
          9.74212050e-01, 8.44945252e-01, 2.22436714e+00, 5260., 305.,
          224., 164., 104., 77., 73., 54., 29., 25., 16., 14., 13., 12.,
          12., 6., 4., 2., 5., 1., 0., 0., 0., 0., 0., 0., 0., 0., 0.,
          0., 0., 0., 4.82568932e+00, -4.78609949e-01, 0., 0., 0., 0.,
          0., 0., 0., 0., 0., 0., 0., 0., 0., 0., 0., 0., 17., 948.,
          4068., 347., 112., 85., 79., 69., 69., 89., 109., 35., 46.,
          49., 77., 201., 1.68860123e-01, 9.40567434e-01, 8.09327602e-01,
          5.00897455e+00, 1213., 76., 58., 40., 33., 41., 30., 21., 12.,
          22., 12., 11., 6., 8., 4., 4., 2., 4., 3., 0., 0., 0., 0., 0.,
          0., 0., 0., 0., 0., 0., 0., 0., 4.74390936e+00,
          -4.69621956e-01, 0., 0., 0., 0., 0., 0., 0., 0., 0., 0., 0.,
          0., 0., 0., 0., 0., 1., 224., 1021., 93., 30., 26., 14., 23.,
          18., 23., 26., 9., 13., 12., 21., 46. ]
      - [ 1.08444639e-01, 3.80727500e-02, 4.16093767e-02, 3.30182225e-01,
          4.89519723e-02, 6.56495616e-02, 2.67378151e-01, 6.50855675e-02,
          5.99713959e-02, 1.72676846e-01, 7.85118807e-03, 0.,
          2.05365464e-01, 2.44076476e-02, 1.67870447e-02, 3.45324427e-01,
          1.70587271e-01, 2.94829216e-02, 1.35086000e-01, 2.04819292e-02,
          9.43326764e-03, 1.97011977e-01, 4.24636230e-02, 2.04613507e-02,
          2.97855169e-01, 4.00000006e-01, 5.30628040e-02, 2.96465099e-01,
          4.23791818e-03, 1.34452875e-03, 7.64623210e-02, 7.37866387e-02,
          5.46937920e-02, 5.32998666e-02, 3.12645286e-01, 1.31591499e-01,
          1.68196231e-01, 6.72915801e-02, 9.81468186e-02, 6.88494891e-02,
          1.62185103e-01, 2.00024843e-01, 3.28424834e-02, 3.37877989e-01,
          3.11632037e-01, 2.23451018e-01, 6.46577496e-03, 0.,
          1.15897447e-01, 8.98691043e-02, 1.07593372e-01, 5.14618829e-02,
          1.34567410e-01, 1.75528958e-01, 1.22470230e-01, 1.12451911e-02,
          6.29239483e-03, 1.89125717e-01, 1.47721544e-01, 1.15485497e-01,
          6.54533207e-02, 1.34653687e-01, 2.15658829e-01, 3.57556969e-01,
          6.51291534e-02, 9.96502265e-02, 2.62231618e-01, 2.11563423e-01,
          1.48031220e-01, 9.24060941e-02, 1.83476865e-01, 3.16388518e-01,
          4.00000006e-01, 2.47085616e-01, 0., 4.00000006e-01,
          2.89218187e-01, 2.98299361e-02, 1.84585631e-01, 2.89240003e-01,
          3.36643994e-01, 1.27805039e-01, 1.94304734e-01, 2.46425331e-01,
          2.66129762e-01, 2.01639205e-01, 1.11992188e-01, 1.71072036e-01,
          3.24167103e-01, 4.00000006e-01, 3.68250646e-02, 7.48779252e-02,
          7.22084492e-02, 1.38858825e-01, 1.34868875e-01, 2.83995476e-02,
          1.29293025e-01, 1.78497061e-01, 1.79127663e-01, 3.66829969e-02,
          1.35706916e-01, 2.81444699e-01, 1.34903938e-01, 1.03339002e-01,
          6.13098927e-02, 1.44847721e-01, 1.31522134e-01, 9.72393006e-02,
          3.63446698e-02, 5.11178374e-02, 7.07939342e-02, 2.07078293e-01,
          9.15218890e-02, 1.42341852e-02, 1.59974739e-01, 1.19226731e-01,
          1.02909870e-01, 8.24115872e-02, 1.93686560e-01, 3.67486864e-01,
          1.52953148e-01, 9.67432931e-02, 1.27295911e-01, 1.13591090e-01,
          7.46991336e-02, 1.15584210e-01, 3.26375179e-02, 1.39670796e-03,
          0., 7.70807788e-02, 2.47373022e-02, 7.44758546e-03,
          1.69134140e-01, 8.36791992e-02, 6.25265762e-02, 8.43440294e-02,
          7.24985683e-03, 3.00278086e-02, 2.06573829e-01, 1.52432406e-02,
          2.26068799e-03, 2.88866937e-01, 9.36048180e-02, 5.57568930e-02,
          1.14478745e-01, 4.44293544e-02, 1.01838477e-01, 2.63382673e-01,
          2.23830696e-02, 3.65034640e-02, 2.83727735e-01, 8.37371051e-02,
          4.81255688e-02, 1.68068305e-01, 1.10928155e-02, 0.,
          3.94871444e-01, 2.50945482e-02, 2.10975460e-03, 3.22201490e-01,
          5.22691905e-02, 2.44424939e-02, 2.36249655e-01, 2.09639013e-01,
          2.88034707e-01, 4.00000006e-01, 2.21471459e-01, 1.66902214e-01,
          3.71395379e-01, 3.71127725e-01, 4.00000006e-01, 2.09501997e-01,
          8.27291161e-02, 7.22084492e-02, 3.44224304e-01, 1.59276545e-01,
          4.51865941e-02, 3.98249596e-01, 3.43149096e-01, 2.08610609e-01,
          1.71769023e-01, 1.56188846e-01, 2.90877998e-01, 3.31915915e-01,
          1.45802632e-01, 8.17712471e-02, 3.75749350e-01, 4.00000006e-01,
          1.50302112e-01, 3.08584541e-01, 5.53557575e-02, 7.21384585e-02,
          2.83540606e-01, 1.65308535e-01, 6.89279661e-02, 2.13274613e-01,
          3.96094501e-01, 2.34501362e-01, 2.50607818e-01, 2.20789120e-01,
          3.77312034e-01, 2.21802682e-01, 2.04901457e-01, 2.47966200e-01,
          1.46433547e-01, 3.88985723e-01, 3.47928047e-01, 2.56088525e-01,
          7.86248315e-03, 0., 1.92978233e-01, 1.14606395e-01,
          1.15040958e-01, 2.20596075e-01, 2.18246624e-01, 2.38055527e-01,
          2.06814259e-01, 1.84950493e-02, 3.63202058e-02, 3.75641614e-01,
          1.62964761e-01, 1.17746167e-01, 3.31363022e-01, 2.28258535e-01,
          2.66917497e-01, 3.94313067e-01, 1.09558530e-01, 2.01488703e-01,
          4.00000006e-01, 2.20631644e-01, 1.69498190e-01, 3.44207823e-01,
          2.67213911e-01, 3.31501007e-01, 4.00000006e-01, 2.51553357e-01,
          0., 4.00000006e-01, 2.99384892e-01, 3.19396928e-02,
          4.00000006e-01, 3.37872803e-01, 3.44319463e-01, 2.33489737e-01,
          1.43104464e-01, 1.93204552e-01, 3.53411198e-01, 1.40372902e-01,
          6.43831566e-02, 2.96232194e-01, 3.64127517e-01, 3.80238593e-01,
          4.12963569e-01, 2.95324475e-01, 2.14839548e-01, 4.76465493e-01,
          4.50814754e-01, 3.26339483e-01, 2.99868673e-01, 4.42142516e-01,
          4.33764964e-01, 2.30475694e-01, 3.75786312e-02, 8.17988738e-02,
          4.37888592e-01, 1.05656169e-01, 2.91891657e-02, 5.05863369e-01,
          3.42121422e-01, 2.12315768e-01, 3.97723049e-01, 8.10624063e-02,
          1.82710916e-01, 4.70283955e-01, 1.54389158e-01, 1.22255214e-01,
          3.93951386e-01, 3.45742613e-01, 2.53861576e-01, 1.77234113e-01,
          9.73136306e-01, 8.37596238e-01, 2.31661391e+00, 5198., 344.,
          238., 175., 104., 74., 81., 47., 28., 27., 16., 12., 12., 13.,
          11., 8., 3., 4., 4., 1., 0., 0., 0., 0., 0., 0., 0., 0., 0.,
          0., 0., 0., 4.78901911e+00, -4.23867524e-01, 0., 0., 0., 0.,
          0., 0., 0., 0., 0., 0., 0., 0., 0., 0., 0., 0., 17., 866.,
          4160., 319., 113., 101., 77., 71., 73., 84., 110., 38., 38.,
          55., 73., 205., 1.75304070e-01, 9.39564764e-01, 8.02027881e-01,
          5.10000038e+00, 1197., 76., 61., 47., 38., 42., 29., 22., 12.,
          21., 13., 11., 7., 7., 4., 4., 2., 4., 3., 0., 0., 0., 0., 0.,
          0., 0., 0., 0., 0., 0., 0., 0., 4.69793129e+00,
          -4.69277918e-01, 0., 0., 0., 0., 0., 0., 0., 0., 0., 0., 0.,
          0., 0., 0., 0., 0., 1., 195., 1062., 73., 34., 30., 13., 23.,
          19., 24., 24., 10., 13., 12., 23., 44. ]
      - [ 2.71471024e-01, 2.81230032e-01, 2.98892688e-02, 2.10818633e-01,
          2.55998313e-01, 1.78886428e-01, 3.14595878e-01, 2.32008457e-01,
          2.25561082e-01, 2.49885529e-01, 3.83190632e-01, 2.64217146e-02,
          5.93749322e-02, 1.64988145e-01, 9.35263932e-02, 1.50998710e-02,
          6.38785139e-02, 4.80261035e-02, 2.46328771e-01, 4.00000006e-01,
          8.52793157e-02, 5.89836314e-02, 1.08516641e-01, 6.55223057e-02,
          1.75711378e-01, 1.28552049e-01, 7.17710927e-02, 1.63913980e-01,
          2.82126606e-01, 3.16018015e-02, 5.43120923e-03, 4.54222858e-02,
          5.20439520e-02, 3.94989178e-03, 6.91950470e-02, 3.54126841e-02,
          9.17153582e-02, 2.60173846e-02, 2.81170160e-02, 5.55124655e-02,
          5.85493743e-02, 5.99224493e-02, 1.67539775e-01, 2.21183524e-01,
          1.61686033e-01, 2.47351024e-02, 3.40275019e-02, 3.11542153e-02,
          4.74147685e-03, 7.64867589e-02, 1.86877698e-02, 2.58551538e-03,
          1.77524999e-01, 2.99018752e-02, 1.73479933e-02, 3.51815224e-02,
          3.90925743e-02, 1.41523015e-02, 7.08893314e-02, 1.57851484e-02,
          1.57210734e-02, 1.24984577e-01, 7.36454967e-03, 3.40226740e-02,
          3.60825025e-02, 5.60402721e-02, 6.62409067e-02, 7.97084272e-02,
          2.76861638e-02, 5.49010523e-02, 8.04368481e-02, 9.52311140e-03,
          1.22859562e-02, 8.08206648e-02, 2.49888986e-01, 6.12682253e-02,
          7.81101435e-02, 2.36056522e-02, 7.93427136e-03, 4.90096621e-02,
          8.06119107e-03, 2.76520178e-02, 1.25963807e-01, 3.93967479e-01,
          3.69076394e-02, 5.57072759e-02, 6.27851933e-02, 3.71962897e-02,
          9.19856578e-02, 4.76097949e-02, 1.01377666e-02, 1.65758744e-01,
          3.93111825e-01, 1.80946179e-02, 2.01689944e-01, 2.80540019e-01,
          2.33574654e-03, 8.59099254e-03, 3.59704904e-03, 2.64395736e-02,
          2.92136252e-01, 4.00000006e-01, 8.20762292e-02, 3.56742859e-01,
          3.77108097e-01, 2.62660626e-02, 1.14421003e-01, 7.06027225e-02,
          1.22219566e-02, 6.86200857e-02, 2.60471702e-01, 3.86292301e-02,
          2.27093354e-01, 1.98609009e-01, 5.14614489e-03, 2.21294705e-02,
          1.29749607e-02, 1.38873637e-01, 9.92204174e-02, 2.13483274e-01,
          2.46003330e-01, 3.44819129e-01, 2.22247213e-01, 1.00354277e-01,
          1.98708713e-01, 2.62654185e-01, 3.38027328e-02, 1.60802156e-01,
          1.12840019e-01, 2.04930585e-02, 3.92259210e-01, 1.05428755e-01,
          5.10719139e-04, 3.86185478e-03, 5.66338364e-04, 1.76881194e-01,
          2.74857730e-01, 9.69812796e-02, 2.00577810e-01, 3.72355938e-01,
          3.14699113e-02, 1.40841836e-02, 5.90346567e-02, 2.89940443e-02,
          2.13873476e-01, 2.17281014e-01, 5.47583774e-02, 2.36403257e-01,
          2.65709579e-01, 3.24140191e-02, 1.44891933e-01, 1.83720186e-01,
          2.10572213e-01, 2.68454403e-01, 3.32101345e-01, 5.41538447e-02,
          2.53623903e-01, 3.07012051e-01, 4.45453860e-02, 2.14890614e-02,
          5.77939525e-02, 2.43926328e-02, 2.75983244e-01, 3.79259586e-01,
          3.99093449e-01, 2.27744132e-01, 3.02646518e-01, 2.25218847e-01,
          3.20280612e-01, 2.42225334e-01, 2.42737859e-01, 2.51539797e-01,
          4.00000006e-01, 3.97643089e-01, 7.74695501e-02, 3.23140830e-01,
          3.28399807e-01, 1.74356177e-02, 7.24695101e-02, 5.16231507e-02,
          2.50643164e-01, 4.00000006e-01, 4.00000006e-01, 1.41059861e-01,
          3.86889577e-01, 3.84275615e-01, 2.01977447e-01, 2.26987079e-01,
          1.42373830e-01, 1.76135957e-01, 3.44811738e-01, 2.86876678e-01,
          4.40604389e-02, 2.72515625e-01, 2.29872406e-01, 9.09603573e-03,
          9.13245082e-02, 4.83876504e-02, 2.23608539e-01, 1.25237778e-01,
          2.41600275e-01, 2.60868281e-01, 3.64481658e-01, 2.53295183e-01,
          2.46774286e-01, 2.47603983e-01, 2.87329882e-01, 5.85378334e-02,
          1.94829643e-01, 1.43994227e-01, 2.52345372e-02, 4.00000006e-01,
          1.24116533e-01, 3.09623452e-03, 1.81386828e-01, 3.04682106e-02,
          1.94229156e-01, 3.10039222e-01, 1.36073872e-01, 2.07067937e-01,
          3.88228446e-01, 4.72550541e-02, 2.98052598e-02, 1.84019238e-01,
          3.63585949e-02, 2.32886165e-01, 2.53363460e-01, 1.10798664e-01,
          2.59206831e-01, 3.16000998e-01, 6.01001829e-02, 1.99793011e-01,
          2.29339987e-01, 2.18898892e-01, 2.70459205e-01, 3.80459219e-01,
          2.94534981e-01, 2.64510602e-01, 3.33243668e-01, 6.81510493e-02,
          2.94233318e-02, 1.06803626e-01, 3.24538201e-02, 1.01133756e-01,
          3.86712253e-01, 3.74058932e-01, 9.71111357e-02, 4.85924155e-01,
          3.71054322e-01, 1.64403051e-01, 3.73463541e-01, 2.61403173e-01,
          8.58685523e-02, 3.16913992e-01, 3.03418487e-01, 5.12874834e-02,
          2.86916852e-01, 1.83354050e-01, 2.33921818e-02, 4.83618379e-02,
          6.90923184e-02, 4.03746873e-01, 4.51821119e-01, 2.81920880e-01,
          3.68904680e-01, 5.14254868e-01, 2.18315765e-01, 2.16732100e-01,
          4.13887024e-01, 2.30493799e-01, 3.61508340e-01, 3.98027837e-01,
          2.46102288e-01, 2.69627839e-01, 3.44934464e-01, 1.18614152e-01,
          1.18879341e-01, 5.38374782e-02, 3.26371007e-02, 2.05402493e-01,
          9.76502240e-01, 8.63793731e-01, 2.20031643e+00, 5506., 289.,
          157., 96., 78., 37., 49., 28., 25., 20., 24., 18., 19., 17.,
          13., 10., 6., 4., 4., 0., 0., 0., 0., 0., 0., 0., 0., 0., 0.,
          0., 0., 0., 4.65048409e+00, -4.20652032e-01, 0., 0., 0., 0.,
          0., 0., 0., 0., 0., 0., 0., 0., 0., 0., 4., 24., 135., 4256.,
          1129., 121., 76., 55., 41., 42., 21., 33., 38., 25., 41., 50.,
          96., 213., 1.85565621e-01, 9.41930771e-01, 8.27735841e-01,
          5.37243605e+00, 1291., 73., 43., 36., 22., 21., 10., 11., 11.,
          16., 10., 11., 6., 8., 10., 5., 7., 4., 4., 1., 0., 0., 0., 0.,
          0., 0., 0., 0., 0., 0., 0., 0., 4.61772728e+00,
          -4.13923979e-01, 0., 0., 0., 0., 0., 0., 0., 0., 0., 0., 0.,
          0., 0., 0., 1., 3., 33., 1036., 311., 25., 23., 18., 8., 13.,
          7., 10., 8., 6., 10., 11., 26., 51. ]
      - [ 3.41514796e-01, 6.55231476e-02, 7.59647265e-02, 2.25699753e-01,
          1.66391104e-01, 9.58061218e-02, 2.54678309e-01, 2.29712784e-01,
          2.16654688e-01, 3.88837159e-01, 1.79210931e-01, 2.68358123e-02,
          1.50811017e-01, 1.82061613e-01, 2.72108689e-02, 3.05806883e-02,
          6.12504892e-02, 3.49762570e-03, 3.99193257e-01, 2.34735653e-01,
          4.24242802e-02, 6.23297393e-02, 6.41517192e-02, 7.12791458e-02,
          1.25734225e-01, 1.25871241e-01, 5.64140305e-02, 2.14354843e-01,
          8.74072164e-02, 4.39802893e-02, 2.84394305e-02, 5.50132208e-02,
          1.35211973e-02, 4.19720039e-02, 8.96073207e-02, 1.60089217e-03,
          6.83252141e-02, 3.63656096e-02, 7.09236637e-02, 4.84656468e-02,
          5.35963327e-02, 1.04826875e-01, 1.84618905e-01, 1.83049172e-01,
          1.17175624e-01, 2.31234115e-02, 3.98646407e-02, 9.31680016e-03,
          6.42038062e-02, 6.16752431e-02, 2.42471159e-03, 1.42409042e-01,
          1.32019296e-01, 0., 2.22671889e-02, 4.92584929e-02,
          3.47661972e-02, 5.02500832e-02, 4.21328954e-02, 2.49896720e-02,
          5.35122566e-02, 3.59149724e-02, 1.63373128e-02, 1.52139692e-02,
          5.34800217e-02, 6.56868964e-02, 8.40677768e-02, 4.17280346e-02,
          3.56913172e-02, 1.08863749e-01, 5.21001630e-02, 4.28492315e-02,
          2.21428946e-02, 2.26909444e-01, 1.71059951e-01, 7.67363757e-02,
          3.60500216e-02, 2.32763588e-02, 2.74514761e-02, 1.77720748e-02,
          0., 3.67750973e-02, 3.83405358e-01, 3.01834792e-01,
          6.37274832e-02, 8.41754377e-02, 1.07066467e-01, 1.06686972e-01,
          7.31884986e-02, 8.26727971e-02, 5.10071069e-02, 4.00000006e-01,
          2.49907792e-01, 8.84309560e-02, 3.20634842e-01, 6.60734028e-02,
          1.21717621e-02, 2.13642735e-02, 1.43669808e-04, 5.88687509e-02,
          4.00000006e-01, 2.70433545e-01, 1.64544344e-01, 4.00000006e-01,
          1.43865243e-01, 5.26139326e-02, 7.49652684e-02, 8.86450782e-02,
          4.16723005e-02, 1.53922066e-01, 1.96107104e-01, 1.28655702e-01,
          2.82904953e-01, 2.40776837e-02, 5.68015501e-03, 4.59562428e-02,
          2.89802495e-02, 5.96892461e-02, 1.85947195e-01, 2.45440260e-01,
          2.69616395e-01, 3.08679312e-01, 1.64931983e-01, 1.64876267e-01,
          2.45095536e-01, 3.28016818e-01, 1.03470892e-01, 1.24040656e-01,
          1.14803106e-01, 3.48531812e-01, 3.04597348e-01, 8.65847897e-03,
          4.74368129e-03, 3.82685661e-03, 0., 2.52573013e-01,
          1.41932726e-01, 9.45769027e-02, 3.56579304e-01, 2.01819301e-01,
          1.41109414e-02, 2.97069382e-02, 3.38981487e-02, 4.42502983e-02,
          3.09863985e-01, 1.46158561e-01, 8.18529725e-02, 3.35479140e-01,
          1.09962203e-01, 7.27119669e-02, 1.59931406e-01, 1.78768456e-01,
          1.99097708e-01, 3.76210213e-01, 8.18047747e-02, 3.90683264e-02,
          3.57985526e-01, 1.49346456e-01, 1.06771048e-02, 3.75256687e-02,
          2.90694013e-02, 0., 3.54641438e-01, 4.00000006e-01,
          3.20208192e-01, 2.69401550e-01, 2.50566542e-01, 1.68010265e-01,
          2.68251330e-01, 2.38867909e-01, 2.91051984e-01, 3.96977544e-01,
          4.00000006e-01, 2.63663173e-01, 2.39241987e-01, 3.78987700e-01,
          9.32842717e-02, 4.27524522e-02, 8.26147720e-02, 3.64129548e-03,
          4.00000006e-01, 4.00000006e-01, 2.90683180e-01, 2.26874128e-01,
          4.00000006e-01, 1.72124207e-01, 1.78348139e-01, 2.00836509e-01,
          1.45059124e-01, 2.56027102e-01, 2.41329312e-01, 2.23062873e-01,
          1.57095149e-01, 3.11633289e-01, 3.75988819e-02, 4.76521589e-02,
          1.35563552e-01, 3.05811446e-02, 1.28014460e-01, 2.22312838e-01,
          2.81793952e-01, 2.97983319e-01, 3.25857580e-01, 2.00073764e-01,
          2.44463786e-01, 2.67993152e-01, 3.33543837e-01, 1.26594290e-01,
          1.63905323e-01, 1.24119908e-01, 3.62099349e-01, 3.24916989e-01,
          1.10831903e-02, 1.47152722e-01, 1.35846153e-01, 0.,
          2.74840236e-01, 1.91191211e-01, 1.29343092e-01, 3.63338709e-01,
          2.43952200e-01, 3.91006172e-02, 8.32192004e-02, 6.98131248e-02,
          6.05876110e-02, 3.19406271e-01, 1.99638620e-01, 1.47539884e-01,
          3.59751642e-01, 1.51690230e-01, 1.08403273e-01, 2.34001085e-01,
          2.28443682e-01, 2.41946936e-01, 3.82319272e-01, 3.08714271e-01,
          2.07706541e-01, 3.67340565e-01, 1.85396448e-01, 3.39534655e-02,
          6.49771467e-02, 4.68414798e-02, 0., 2.96990097e-01,
          4.00952071e-01, 4.33815271e-01, 3.69610012e-01, 4.57135379e-01,
          3.12337548e-01, 2.72772431e-01, 3.36593777e-01, 2.00322568e-01,
          2.52565116e-01, 3.34710658e-01, 2.99312919e-01, 1.90932572e-01,
          2.58753449e-01, 8.66318122e-02, 3.89311276e-02, 5.73745631e-02,
          1.69553235e-01, 3.92349124e-01, 3.60885441e-01, 1.56006157e-01,
          4.77400988e-01, 4.08563226e-01, 5.31772636e-02, 3.51875752e-01,
          3.29826146e-01, 1.75042823e-01, 3.71006161e-01, 3.12935591e-01,
          1.17306486e-01, 3.31276625e-01, 2.26084337e-01, 2.45374627e-02,
          6.41550049e-02, 4.62119766e-02, 3.31817567e-02, 2.01521650e-01,
          9.75595713e-01, 8.56312573e-01, 2.25696206e+00, 5459., 302.,
          181., 103., 82., 39., 46., 26., 24., 24., 24., 15., 19., 19.,
          13., 10., 4., 5., 5., 0., 0., 0., 0., 0., 0., 0., 0., 0., 0.,
          0., 0., 0., 4.60904217e+00, -4.43711489e-01, 0., 0., 0., 0.,
          0., 0., 0., 0., 0., 0., 0., 0., 0., 1., 2., 27., 64., 3991.,
          1442., 126., 82., 62., 42., 41., 28., 30., 33., 27., 43., 49.,
          93., 217., 1.86747000e-01, 9.40292060e-01, 8.25082839e-01,
          5.43205166e+00, 1280., 73., 47., 39., 27., 20., 9., 12., 12.,
          16., 9., 11., 7., 7., 8., 7., 6., 5., 4., 1., 0., 0., 0., 0.,
          0., 0., 0., 0., 0., 0., 0., 0., 4.57368803e+00,
          -4.35470998e-01, 0., 0., 0., 0., 0., 0., 0., 0., 0., 0., 0.,
          0., 0., 0., 1., 3., 19., 971., 384., 28., 24., 21., 7., 12.,
          7., 10., 9., 6., 10., 13., 23., 52. ]
      - [ 1.81307003e-01, 4.66367751e-02, 1.06248386e-01, 1.74668431e-01,
          2.60691881e-01, 9.82400328e-02, 1.37451679e-01, 2.87122607e-01,
          2.82712430e-01, 7.78770298e-02, 2.22128611e-02, 1.07270062e-01,
          1.43418998e-01, 2.12657303e-01, 1.39554113e-01, 1.42187461e-01,
          1.51721790e-01, 2.83426970e-01, 1.57363802e-01, 6.71998337e-02,
          1.47363320e-01, 2.45041519e-01, 1.73990890e-01, 8.44509900e-02,
          1.75702810e-01, 9.44390744e-02, 6.65842816e-02, 1.51405528e-01,
          7.91544318e-02, 6.97484016e-02, 2.73366332e-01, 3.15642774e-01,
          8.55105445e-02, 1.33542299e-01, 8.42861235e-02, 6.76105469e-02,
          2.86819577e-01, 2.63122916e-01, 2.36275330e-01, 2.83791035e-01,
          3.83355379e-01, 3.14691126e-01, 2.17425674e-01, 1.00719497e-01,
          1.47803098e-01, 2.90994942e-02, 6.27530441e-02, 4.92960252e-02,
          1.42427906e-01, 4.00000006e-01, 3.78485441e-01, 1.14115044e-01,
          1.34126201e-01, 1.52489707e-01, 2.13219449e-02, 5.57461083e-02,
          4.27650660e-02, 8.26216340e-02, 3.53321701e-01, 3.93044204e-01,
          9.41464826e-02, 8.46547186e-02, 1.89668089e-01, 2.86844485e-02,
          5.65362312e-02, 4.67906669e-02, 5.02674356e-02, 1.01110145e-01,
          2.33599573e-01, 4.84264418e-02, 3.88727263e-02, 1.41804740e-01,
          1.56931039e-02, 2.30262205e-02, 9.26126167e-03, 4.46766838e-02,
          6.43609837e-02, 1.49331450e-01, 3.87691893e-02, 6.16561696e-02,
          2.10129365e-01, 3.28537636e-02, 4.15171273e-02, 2.62406543e-02,
          3.77358161e-02, 6.82170540e-02, 2.29412898e-01, 4.06430326e-02,
          2.35230416e-01, 4.00000006e-01, 4.79613915e-02, 6.94285259e-02,
          1.01947261e-03, 5.62193654e-02, 1.01215497e-01, 1.63759276e-01,
          7.80336708e-02, 2.73154587e-01, 3.66273522e-01, 7.01981783e-02,
          6.17087483e-02, 1.92064866e-02, 7.77511150e-02, 3.16660069e-02,
          6.34000897e-02, 8.77436996e-02, 1.07216574e-01, 3.00727189e-01,
          8.08678344e-02, 5.76288477e-02, 2.97983009e-02, 1.35334700e-01,
          7.38977939e-02, 4.42713127e-02, 1.36413455e-01, 1.34681255e-01,
          1.64621919e-01, 2.75105327e-01, 2.97748417e-01, 2.53846049e-01,
          2.71721452e-01, 9.14098322e-02, 1.05789497e-01, 2.51919270e-01,
          2.76162148e-01, 3.08705151e-01, 4.69734147e-02, 5.51112778e-02,
          5.93143590e-02, 1.19192883e-01, 8.15111324e-02, 8.01436901e-02,
          1.24176204e-01, 3.08651447e-01, 2.58797199e-01, 4.68340479e-02,
          2.40862798e-02, 5.70880771e-02, 2.28567854e-01, 1.33835882e-01,
          4.95544672e-02, 1.76046252e-01, 3.56053978e-01, 2.91249305e-01,
          9.56227481e-02, 2.69977935e-02, 4.62029502e-02, 2.09080398e-01,
          2.15683490e-01, 5.22159860e-02, 2.41561949e-01, 4.00000006e-01,
          3.76242876e-01, 4.85158749e-02, 3.42671983e-02, 6.95880428e-02,
          2.62469351e-01, 3.02839756e-01, 3.75360772e-02, 2.39498347e-01,
          3.96897048e-01, 1.30902678e-01, 2.14160800e-01, 8.81539062e-02,
          1.32489026e-01, 2.12404221e-01, 3.20241183e-01, 2.95026600e-01,
          1.78094715e-01, 3.98260742e-01, 4.00000006e-01, 1.25838444e-01,
          9.16413888e-02, 1.08289525e-01, 1.99638367e-01, 3.10172826e-01,
          2.80539066e-01, 2.18151271e-01, 3.75252038e-01, 4.00000006e-01,
          2.27561995e-01, 1.28908649e-01, 1.66569829e-01, 2.80059695e-01,
          2.05656901e-01, 1.47851080e-01, 2.41342202e-01, 2.01655656e-01,
          3.58697653e-01, 2.32273459e-01, 1.36783287e-01, 9.95467007e-02,
          3.06760728e-01, 3.54131669e-01, 1.29781872e-01, 2.44834483e-01,
          2.18967319e-01, 2.32232526e-01, 3.48096341e-01, 3.60871345e-01,
          3.12901706e-01, 3.55862945e-01, 3.98496300e-01, 3.61901492e-01,
          3.08574647e-01, 3.51178974e-01, 3.90319347e-01, 7.60729164e-02,
          1.17864318e-01, 1.08610377e-01, 2.53813833e-01, 4.00000006e-01,
          3.90236467e-01, 2.27846116e-01, 3.84123147e-01, 3.78427386e-01,
          6.81560040e-02, 7.98323750e-02, 9.98531282e-02, 2.76787341e-01,
          3.87405962e-01, 4.00000006e-01, 2.44961649e-01, 3.88196439e-01,
          3.95148635e-01, 1.24307200e-01, 8.35340321e-02, 9.29936469e-02,
          2.52477437e-01, 3.12128663e-01, 2.70123959e-01, 2.67537773e-01,
          4.00000006e-01, 4.00000006e-01, 6.42089844e-02, 5.72934002e-02,
          7.88493156e-02, 2.79212922e-01, 3.42976093e-01, 1.86867490e-01,
          2.60298461e-01, 4.00000006e-01, 3.40189010e-01, 6.40712604e-02,
          6.93558902e-02, 8.68740827e-02, 1.38703659e-01, 2.91718215e-01,
          2.81133741e-01, 1.47777796e-01, 3.86337042e-01, 5.59218287e-01,
          2.38639906e-01, 2.36959428e-01, 2.89179206e-01, 2.04906911e-01,
          4.36802417e-01, 4.49923396e-01, 1.12533823e-01, 3.37682337e-01,
          5.23575246e-01, 1.79425120e-01, 8.17406401e-02, 5.32589182e-02,
          4.66938347e-01, 3.71454716e-01, 2.17540756e-01, 5.22283494e-01,
          5.13090193e-01, 4.68384892e-01, 3.16660881e-01, 2.45927826e-01,
          2.19964072e-01, 5.27463496e-01, 4.86493081e-01, 3.25604320e-01,
          3.85452449e-01, 4.24896300e-01, 4.00318027e-01, 8.46254304e-02,
          9.51527178e-01, 8.01364660e-01, 3.34193039e+00, 5415., 414.,
          124., 105., 66., 48., 55., 38., 23., 21., 24., 10., 17., 11.,
          3., 11., 3., 3., 5., 2., 2., 0., 0., 0., 0., 0., 0., 0., 0.,
          0., 0., 0., 5.24760008e+00, -4.88062620e-01, 0., 0., 0., 0.,
          0., 0., 0., 0., 0., 0., 1., 7., 353., 1955., 2345., 1161., 98.,
          50., 34., 28., 22., 28., 24., 41., 32., 66., 35., 22., 29.,
          25., 22., 22., 6.63387552e-02, 8.99871469e-01, 7.40635395e-01,
          6.74487209e+00, 1226., 169., 44., 19., 20., 16., 18., 13., 15.,
          7., 8., 14., 9., 2., 8., 4., 1., 2., 3., 1., 0., 0., 0., 1.,
          0., 0., 0., 0., 0., 0., 0., 0., 5.14187431e+00,
          -4.82576817e-01, 0., 0., 0., 0., 0., 0., 0., 0., 0., 0., 0.,
          1., 88., 475., 581., 309., 29., 8., 6., 9., 8., 5., 11., 8.,
          11., 17., 7., 4., 9., 4., 4., 6. ]
      - [ 2.02041924e-01, 1.77864894e-01, 1.48779362e-01, 4.60297316e-02,
          1.14577480e-01, 2.72853702e-01, 1.45097911e-01, 1.17907435e-01,
          1.13243051e-01, 3.10926884e-02, 5.08703738e-02, 2.50783265e-02,
          2.09196545e-02, 7.83555880e-02, 9.93464142e-02, 1.49803922e-01,
          1.11414373e-01, 4.41963561e-02, 1.33531719e-01, 6.47639558e-02,
          1.17585421e-01, 4.20532003e-02, 1.39136672e-01, 2.55565643e-01,
          1.30397692e-01, 1.00441448e-01, 8.12266842e-02, 7.46863931e-02,
          3.70018892e-02, 9.92706567e-02, 6.53876960e-02, 4.80566770e-02,
          7.00640231e-02, 2.35651493e-01, 1.07877746e-01, 4.85163368e-02,
          3.64091903e-01, 2.09816933e-01, 2.43250117e-01, 2.95607328e-01,
          2.64626622e-01, 2.47247562e-01, 3.94039273e-01, 2.53377229e-01,
          1.47603974e-01, 4.84572817e-03, 1.49187911e-02, 1.64009109e-02,
          1.59834027e-02, 2.75539272e-02, 2.39131823e-02, 3.99920791e-01,
          2.97750741e-01, 3.20246294e-02, 1.85088683e-02, 2.95811966e-02,
          2.99056601e-02, 3.31435874e-02, 4.71890904e-02, 8.17550495e-02,
          3.80252421e-01, 3.30391109e-01, 5.99795282e-02, 3.35438848e-02,
          2.76839137e-02, 4.24325541e-02, 2.73656622e-02, 3.36447284e-02,
          2.91460492e-02, 1.50367856e-01, 2.06142172e-01, 1.16096437e-01,
          6.12830324e-03, 1.48320906e-02, 1.82917230e-02, 1.25005879e-02,
          3.87598854e-03, 1.50095311e-03, 7.55041838e-02, 1.31570607e-01,
          4.39450964e-02, 2.66802236e-02, 3.17443907e-02, 4.16540802e-02,
          4.44051251e-02, 2.98962519e-02, 2.61051990e-02, 8.08212012e-02,
          1.12827130e-01, 2.04382837e-01, 2.06398442e-02, 5.44214025e-02,
          7.57404342e-02, 2.61102393e-02, 8.40689894e-03, 5.62857429e-04,
          6.82192594e-02, 5.82733043e-02, 4.56738248e-02, 7.99474865e-02,
          1.95712402e-01, 3.78683746e-01, 6.18589446e-02, 5.13281524e-02,
          3.50494236e-02, 1.87427644e-02, 4.44609821e-02, 1.18222773e-01,
          1.23503856e-01, 1.53008431e-01, 1.98215365e-01, 8.53278637e-02,
          3.88923362e-02, 4.99535957e-03, 4.96012084e-02, 4.28878851e-02,
          4.29676212e-02, 4.00000006e-01, 4.00000006e-01, 4.00000006e-01,
          3.40578347e-01, 2.29502797e-01, 1.48273453e-01, 9.37218741e-02,
          4.79873531e-02, 1.84869319e-01, 1.74884930e-01, 3.79479080e-01,
          1.55945301e-01, 9.14664418e-02, 5.34869470e-02, 8.86959862e-03,
          7.31070638e-02, 6.79740310e-02, 5.80053311e-03, 8.31836760e-02,
          1.68112606e-01, 7.85568357e-02, 4.06997986e-02, 4.99250740e-02,
          2.42732279e-02, 6.75010905e-02, 1.18894875e-02, 2.10030912e-03,
          1.51519492e-01, 2.00530633e-01, 1.58304200e-01, 4.42998223e-02,
          8.58899578e-02, 1.11429617e-01, 9.94153619e-02, 3.32996547e-02,
          2.43798681e-02, 1.19177952e-01, 6.11735955e-02, 3.34075615e-02,
          2.80033257e-02, 3.35441232e-02, 1.67684574e-02, 9.74025428e-02,
          3.51932272e-02, 1.19887218e-02, 2.28722155e-01, 2.09609285e-01,
          1.90433443e-01, 9.04348567e-02, 1.44473732e-01, 2.89210826e-01,
          2.25919142e-01, 2.12824345e-01, 2.58066416e-01, 5.17325290e-02,
          1.05291791e-01, 1.00818738e-01, 4.70298827e-02, 8.67624953e-02,
          9.99092609e-02, 2.18023211e-01, 1.69687673e-01, 8.98701698e-02,
          2.13479280e-01, 2.60476381e-01, 4.00000006e-01, 1.03912130e-01,
          1.90464884e-01, 2.82094866e-01, 1.49140447e-01, 1.44902423e-01,
          1.94550335e-01, 1.98190302e-01, 1.90010354e-01, 2.97486067e-01,
          1.50715575e-01, 8.69490206e-02, 7.50593767e-02, 2.85252750e-01,
          1.50765628e-01, 9.14839804e-02, 4.00000006e-01, 4.00000006e-01,
          4.00000006e-01, 4.00000006e-01, 3.49405587e-01, 3.44942719e-01,
          4.00000006e-01, 2.76842028e-01, 2.57611036e-01, 1.79730669e-01,
          3.82395655e-01, 1.72346205e-01, 1.07449859e-01, 8.10408741e-02,
          3.27827819e-02, 4.00000006e-01, 3.29620123e-01, 3.78251597e-02,
          1.01692542e-01, 1.97693825e-01, 1.08462490e-01, 7.38433823e-02,
          9.71141681e-02, 1.06028259e-01, 3.95604789e-01, 3.33653510e-01,
          6.20798394e-02, 1.85063422e-01, 2.28214547e-01, 2.00736776e-01,
          7.16654956e-02, 1.19534716e-01, 1.40575647e-01, 2.49783188e-01,
          2.22424999e-01, 1.40476272e-01, 1.25306249e-01, 7.60056749e-02,
          5.16992807e-02, 4.05039191e-02, 3.74201126e-02, 1.82694122e-02,
          1.72906756e-01, 1.66763812e-01, 5.59338145e-02, 2.07204267e-01,
          2.81315893e-01, 2.87692368e-01, 9.69878510e-02, 1.49819314e-01,
          2.55712211e-01, 2.42385000e-01, 2.03005135e-01, 1.31656319e-01,
          2.63654470e-01, 2.82562643e-01, 2.59082288e-01, 2.11506277e-01,
          2.40505159e-01, 1.79120362e-01, 3.85194093e-01, 4.35242146e-01,
          3.25527519e-01, 2.14360252e-01, 2.22110420e-01, 2.58947968e-01,
          9.78333950e-02, 6.29117340e-02, 9.66427252e-02, 2.62404293e-01,
          1.11878537e-01, 4.33231220e-02, 2.80221730e-01, 2.84814328e-01,
          2.60359854e-01, 2.16747090e-01, 1.77450895e-01, 1.55700386e-01,
          3.87319267e-01, 2.45323136e-01, 1.25149608e-01, 1.11822598e-01,
          9.48498011e-01, 8.31869066e-01, 2.88306975e+00, 5627., 273.,
          123., 90., 61., 46., 40., 35., 16., 15., 19., 10., 11., 10.,
          4., 8., 3., 4., 1., 3., 1., 0., 0., 0., 0., 0., 0., 0., 0., 0.,
          0., 0., 4.96089077e+00, -5.00579894e-01, 0., 0., 0., 0., 0.,
          0., 0., 0., 0., 0., 1., 2., 36., 385., 2223., 2622., 696., 46.,
          26., 22., 22., 25., 23., 35., 32., 59., 28., 20., 28., 28.,
          16., 25., 8.64887461e-02, 8.97208154e-01, 7.66349137e-01,
          5.56987190e+00, 1303., 128., 32., 20., 15., 14., 14., 14., 14.,
          4., 7., 9., 9., 3., 4., 4., 0., 2., 2., 1., 0., 0., 0., 1., 0.,
          0., 0., 0., 0., 0., 0., 0., 4.86396837e+00, -4.94736969e-01,
          0., 0., 0., 0., 0., 0., 0., 0., 0., 0., 0., 0., 7., 82., 551.,
          675., 178., 7., 6., 7., 8., 4., 10., 7., 10., 14., 7., 4., 9.,
          4., 4., 6. ]
      - [ 1.99243680e-01, 2.48396397e-01, 1.78685576e-01, 1.20853685e-01,
          7.53515139e-02, 9.84497368e-02, 1.77689254e-01, 2.19281852e-01,
          2.00687528e-01, 1.48628891e-01, 9.48808938e-02, 8.15259665e-03,
          1.10879935e-01, 2.78697591e-02, 1.36610568e-02, 1.72423214e-01,
          1.57164559e-01, 7.96817839e-02, 1.96693182e-01, 3.00978720e-01,
          1.42525688e-01, 9.46666226e-02, 5.94506860e-02, 8.97986367e-02,
          5.15049733e-02, 1.89741567e-01, 1.99493036e-01, 6.92155957e-02,
          6.56089336e-02, 3.29895839e-02, 5.83523102e-02, 2.98180170e-02,
          3.72160152e-02, 4.24207523e-02, 1.49502978e-01, 1.93437487e-01,
          2.43742347e-01, 3.05913299e-01, 9.25483108e-02, 2.51762152e-01,
          1.30985141e-01, 2.41745681e-01, 1.20260149e-01, 3.28877747e-01,
          3.77689332e-01, 1.85914133e-02, 1.73324347e-02, 0.,
          2.17073306e-01, 4.30610329e-02, 2.59882472e-02, 1.06785849e-01,
          2.80054837e-01, 2.08309799e-01, 5.14625907e-02, 4.93166037e-02,
          1.30820740e-03, 2.90581942e-01, 3.52931917e-02, 4.99090552e-02,
          1.52001575e-01, 1.16035327e-01, 1.83691904e-01, 6.11362644e-02,
          7.88526163e-02, 4.52302694e-02, 2.10595205e-01, 8.90814438e-02,
          8.44855681e-02, 1.69182420e-01, 1.28757313e-01, 1.72626704e-01,
          3.62494239e-03, 0., 0., 1.71086594e-01, 4.10507061e-02,
          2.34353710e-02, 2.74068832e-01, 1.44020826e-01, 1.24470472e-01,
          2.37245075e-02, 8.16251487e-02, 1.89207956e-01, 2.63504773e-01,
          2.15106413e-01, 1.70224398e-01, 4.00000006e-01, 2.22615302e-01,
          2.72401989e-01, 4.55604313e-04, 1.30951442e-02, 1.47315534e-02,
          1.27160236e-01, 4.93852906e-02, 3.22095864e-02, 3.41340423e-01,
          7.03428537e-02, 1.15547664e-01, 2.39433572e-02, 8.51042122e-02,
          1.49792314e-01, 6.40404969e-02, 1.53770894e-01, 6.16561100e-02,
          3.29460680e-01, 2.54504025e-01, 1.06897086e-01, 1.15651079e-02,
          3.56752686e-02, 8.23033154e-02, 2.90215015e-02, 6.85215667e-02,
          4.10742313e-02, 1.49968833e-01, 2.17227429e-01, 2.40419522e-01,
          1.30343959e-01, 2.84001410e-01, 4.00000006e-01, 9.07512456e-02,
          1.90313309e-01, 3.01902533e-01, 1.88091367e-01, 2.91121632e-01,
          2.88072497e-01, 1.22246947e-02, 1.49963219e-02, 4.04337347e-02,
          4.09741178e-02, 5.27064651e-02, 7.05806017e-02, 1.30040213e-01,
          2.18124926e-01, 2.93949306e-01, 3.02029960e-02, 5.32864407e-03,
          1.48073928e-02, 2.80532837e-02, 4.04382162e-02, 1.70887709e-02,
          1.59700260e-01, 1.73179850e-01, 1.10460185e-01, 5.40494770e-02,
          7.90126920e-02, 1.50967419e-01, 3.12656090e-02, 3.46126892e-02,
          6.15053922e-02, 2.28184283e-01, 9.67796296e-02, 1.06747046e-01,
          4.14163470e-02, 2.10481440e-03, 0., 3.01365182e-02,
          2.24209391e-02, 2.58164518e-02, 9.66160819e-02, 1.57438323e-01,
          1.77251086e-01, 2.22968206e-01, 3.15953553e-01, 3.53539616e-01,
          3.22475463e-01, 2.49247313e-01, 2.55382538e-01, 4.00000006e-01,
          3.59988809e-01, 3.87789369e-01, 1.49084494e-01, 1.07976042e-01,
          2.28841491e-02, 2.16151983e-01, 7.72550553e-02, 4.58706468e-02,
          3.96276921e-01, 2.27507457e-01, 1.95229501e-01, 2.20636576e-01,
          3.44285488e-01, 2.92318016e-01, 1.58707112e-01, 1.96608260e-01,
          1.51454777e-01, 3.49215448e-01, 3.60838979e-01, 2.93958127e-01,
          8.07806849e-02, 1.01284206e-01, 1.15292884e-01, 8.73738006e-02,
          9.83395949e-02, 7.82902464e-02, 1.92389578e-01, 3.32774699e-01,
          3.72216314e-01, 3.02767545e-01, 3.67593110e-01, 4.00000006e-01,
          2.96044350e-01, 2.49661177e-01, 3.59259844e-01, 3.08351398e-01,
          4.00000006e-01, 4.00000006e-01, 3.08161154e-02, 3.23287547e-02,
          4.04337347e-02, 2.37066671e-01, 9.57674980e-02, 9.65688527e-02,
          2.36825973e-01, 3.80365908e-01, 3.96385610e-01, 8.16655830e-02,
          5.46452440e-02, 1.61155984e-02, 3.04270595e-01, 7.57313967e-02,
          6.69978261e-02, 3.11701894e-01, 2.89215147e-01, 2.86210924e-01,
          1.15185708e-01, 1.57865375e-01, 1.96197689e-01, 2.25851282e-01,
          1.23694144e-01, 1.45990983e-01, 3.52410078e-01, 2.25537002e-01,
          2.76855588e-01, 4.50412855e-02, 2.10481440e-03, 0.,
          1.98187023e-01, 6.34716302e-02, 4.92518209e-02, 3.42176259e-01,
          2.99874634e-01, 2.91002691e-01, 1.20517120e-01, 2.33285442e-01,
          1.82275131e-01, 2.19936654e-01, 9.98629779e-02, 1.16397992e-01,
          4.64109302e-01, 4.84968424e-01, 3.91676158e-01, 2.73365051e-01,
          2.82525212e-01, 2.14722991e-01, 4.76418793e-01, 3.40190858e-01,
          2.73795992e-01, 4.63550806e-01, 5.37341177e-01, 5.72521865e-01,
          4.55495603e-02, 9.45856273e-02, 1.52627632e-01, 1.27112418e-01,
          5.36003225e-02, 6.65074885e-02, 3.30584347e-01, 2.93968886e-01,
          3.12797874e-01, 1.82947144e-01, 2.20323920e-01, 1.78073868e-01,
          2.28122383e-01, 1.47096455e-01, 2.25301832e-01, 2.92553693e-01,
          2.93460131e-01, 3.50214571e-01, 1.27776653e-01, 9.40722108e-01,
          8.13396990e-01, 3.51772141e+00, 5478., 337., 126., 104., 67.,
          53., 56., 46., 25., 24., 27., 10., 14., 11., 2., 8., 1., 3.,
          4., 2., 2., 0., 0., 0., 0., 0., 0., 0., 0., 0., 0., 0.,
          4.80684566e+00, -5.06659567e-01, 0., 0., 0., 0., 0., 0., 0.,
          0., 0., 0., 0., 7., 163., 476., 2106., 3072., 105., 48., 39.,
          35., 20., 24., 29., 34., 30., 62., 34., 21., 26., 25., 22.,
          22., 1.05515696e-01, 8.77290606e-01, 7.60582924e-01,
          7.04935932e+00, 1275., 109., 46., 29., 22., 27., 13., 15., 14.,
          8., 7., 9., 9., 1., 8., 4., 1., 1., 2., 0., 0., 0., 0., 0., 0.,
          0., 0., 0., 0., 0., 0., 0., 4.67813635e+00, -5.59413075e-01,
          0., 0., 0., 0., 0., 0., 0., 0., 0., 0., 0., 1., 41., 109.,
          504., 800., 28., 11., 7., 9., 10., 4., 12., 6., 8., 16., 7.,
          4., 9., 4., 4., 6. ]
      - [ 1.44320950e-01, 2.58823872e-01, 2.49587372e-01, 1.56600505e-01,
          9.42846984e-02, 6.20633103e-02, 1.99666008e-01, 1.65937483e-01,
          2.10809201e-01, 6.51642978e-02, 1.14664540e-01, 1.87130235e-02,
          1.01121679e-01, 4.63337079e-02, 7.40466593e-03, 1.68834955e-01,
          1.34154990e-01, 7.22499564e-02, 9.87228900e-02, 2.70615220e-01,
          1.79122850e-01, 1.03230692e-01, 7.01053441e-02, 3.94686162e-02,
          7.78066367e-02, 1.38301864e-01, 2.23698884e-01, 6.89369068e-02,
          8.19740072e-02, 6.25980124e-02, 7.97282755e-02, 2.24933978e-02,
          7.92010128e-03, 3.74554209e-02, 8.94366801e-02, 1.69758856e-01,
          3.23686302e-01, 3.03815275e-01, 2.67487735e-01, 2.42164195e-01,
          1.57754079e-01, 1.10717699e-01, 2.01020241e-01, 2.79546767e-01,
          4.00000006e-01, 1.41331227e-02, 7.07603572e-03, 2.07311544e-03,
          2.23253772e-01, 1.47831859e-02, 6.40040846e-04, 2.10935190e-01,
          1.76079482e-01, 2.51864642e-01, 3.75778005e-02, 2.85096765e-02,
          2.11045938e-03, 2.61285245e-01, 2.99000442e-02, 1.88573831e-04,
          2.69107431e-01, 5.23753092e-02, 6.22573122e-02, 4.62668911e-02,
          3.22514549e-02, 4.84974794e-02, 1.85947746e-01, 9.31288078e-02,
          4.44936305e-02, 2.61363417e-01, 9.91833732e-02, 1.58334538e-01,
          2.67495052e-03, 4.85598855e-03, 3.54262511e-03, 9.96004492e-02,
          5.68235628e-02, 1.68082155e-02, 3.02896231e-01, 1.51255503e-01,
          1.77696988e-01, 2.92336643e-02, 3.94528136e-02, 1.39669031e-01,
          1.06793970e-01, 1.59760892e-01, 1.94842473e-01, 4.00000006e-01,
          2.06183225e-01, 1.91386640e-01, 5.28626610e-03, 2.40955409e-03,
          0., 4.71440554e-02, 6.26618862e-02, 3.11817583e-02,
          3.49976301e-01, 1.75918162e-01, 1.27574891e-01, 1.79839004e-02,
          4.26235422e-02, 1.19643293e-01, 1.86622851e-02, 1.53468251e-01,
          1.55139342e-01, 2.17060804e-01, 1.71361983e-01, 1.40928522e-01,
          2.57069692e-02, 1.39164031e-02, 2.29834355e-02, 2.59663425e-02,
          2.82233972e-02, 5.23480996e-02, 1.05030373e-01, 1.37322739e-01,
          1.38540372e-01, 3.04189891e-01, 1.98037758e-01, 3.89814079e-01,
          8.50384980e-02, 1.85340598e-01, 3.65017653e-01, 1.78425789e-01,
          2.17961758e-01, 3.10888886e-01, 3.73094901e-02, 6.69354713e-03,
          1.18216937e-02, 1.40855042e-02, 7.85477925e-03, 2.13346966e-02,
          9.01727825e-02, 1.52904361e-01, 2.55799085e-01, 4.19276468e-02,
          1.48015451e-02, 2.42399313e-02, 2.67559104e-02, 1.17561333e-02,
          4.21776809e-02, 1.53923258e-01, 9.49896574e-02, 6.15855642e-02,
          7.93189630e-02, 1.28928065e-01, 1.23484269e-01, 3.96698713e-02,
          4.86965552e-02, 7.29899034e-02, 1.18384317e-01, 6.10753447e-02,
          6.14365898e-02, 2.86068600e-02, 4.70600650e-02, 3.22326533e-02,
          2.36386117e-02, 1.11811962e-02, 1.25213023e-02, 7.73849413e-02,
          1.00930214e-01, 1.47233024e-01, 1.73554614e-01, 2.96303868e-01,
          3.69623363e-01, 2.17973664e-01, 2.24285215e-01, 2.54556566e-01,
          4.00000006e-01, 3.16308677e-01, 3.59203815e-01, 7.04505667e-02,
          1.17074095e-01, 1.87130235e-02, 1.48265734e-01, 1.08995594e-01,
          3.85864191e-02, 4.00000006e-01, 2.85724074e-01, 1.99824840e-01,
          1.16706789e-01, 3.06150824e-01, 2.98766226e-01, 1.21892989e-01,
          2.09377587e-01, 1.94607943e-01, 2.94867456e-01, 2.85478920e-01,
          3.34992081e-01, 9.46438685e-02, 9.58904177e-02, 8.55814591e-02,
          1.05694622e-01, 5.07167950e-02, 6.02682009e-02, 1.42485812e-01,
          2.26759464e-01, 2.98690140e-01, 3.72063249e-01, 3.87593180e-01,
          4.00000006e-01, 2.80252755e-01, 2.67850161e-01, 3.77773464e-01,
          3.42818618e-01, 3.61817151e-01, 4.00000006e-01, 5.14426120e-02,
          1.37695819e-02, 1.38948094e-02, 2.29562640e-01, 2.26379670e-02,
          2.19747387e-02, 3.00326198e-01, 2.97050953e-01, 3.85804474e-01,
          7.95054436e-02, 4.33112197e-02, 2.63503920e-02, 2.73269147e-01,
          4.16561775e-02, 4.23662513e-02, 3.59223276e-01, 1.47364944e-01,
          1.23842873e-01, 1.25585854e-01, 1.61179528e-01, 1.71981722e-01,
          2.03715771e-01, 1.41825363e-01, 1.17483512e-01, 3.42932135e-01,
          1.60258666e-01, 2.19771117e-01, 3.12818103e-02, 5.19160554e-02,
          3.57752778e-02, 1.23239040e-01, 6.80047572e-02, 2.93295160e-02,
          3.43913823e-01, 2.51051337e-01, 3.09408218e-01, 1.84228092e-01,
          2.55471796e-01, 2.24073559e-01, 1.42871708e-01, 9.65177864e-02,
          1.12685814e-01, 4.58127439e-01, 3.54435056e-01, 3.59901339e-01,
          2.13416949e-01, 2.09019154e-01, 2.18063220e-01, 4.30096060e-01,
          3.02073270e-01, 2.10950494e-01, 5.14820397e-01, 4.86747414e-01,
          5.05088747e-01, 7.29095638e-02, 1.30316630e-01, 1.95615634e-01,
          8.12594593e-02, 4.03740108e-02, 7.50093684e-02, 3.16354036e-01,
          1.79192722e-01, 2.68510908e-01, 1.75763592e-01, 1.57794222e-01,
          1.62513882e-01, 2.13481247e-01, 1.52435705e-01, 1.84603274e-01,
          3.22639734e-01, 2.07595438e-01, 3.57100844e-01, 1.40845954e-01,
          9.41113532e-01, 8.20200264e-01, 3.56297469e+00, 5516., 324.,
          122., 87., 69., 49., 50., 40., 29., 23., 28., 7., 19., 7., 5.,
          9., 4., 5., 3., 1., 2., 1., 0., 0., 0., 0., 0., 0., 0., 0., 0.,
          0., 4.76968241e+00, -5.37768781e-01, 0., 0., 0., 0., 0., 0.,
          0., 0., 0., 0., 1., 5., 128., 385., 2043., 3206., 155., 44.,
          30., 34., 28., 22., 30., 32., 42., 53., 43., 19., 29., 28.,
          19., 24., 1.18946835e-01, 8.93194556e-01, 7.63743460e-01,
          6.12884617e+00, 1266., 133., 44., 23., 14., 19., 14., 18., 12.,
          16., 13., 6., 4., 4., 3., 3., 2., 3., 1., 0., 1., 1., 0., 0.,
          0., 0., 0., 0., 0., 0., 0., 0., 4.69710827e+00,
          -5.26780009e-01, 0., 0., 0., 0., 0., 0., 0., 0., 0., 0., 0.,
          0., 29., 94., 498., 813., 41., 15., 8., 9., 7., 8., 10., 6.,
          14., 13., 7., 7., 7., 4., 4., 6. ]
      - [ 2.36755967e-01, 4.00000006e-01, 7.59067163e-02, 2.24846780e-01,
          4.00000006e-01, 1.65654197e-01, 2.33745188e-01, 4.00000006e-01,
          2.03787252e-01, 1.70476615e-01, 4.00000006e-01, 4.65038978e-02,
          1.03151813e-01, 3.54869574e-01, 1.01162650e-01, 2.48206910e-02,
          3.33227634e-01, 1.09441914e-01, 7.75002837e-02, 2.16087312e-01,
          6.28914312e-02, 3.17877457e-02, 1.37201250e-01, 6.26264140e-02,
          1.89613029e-02, 1.72786489e-01, 1.10261828e-01, 2.66724341e-02,
          5.38860857e-02, 2.97120828e-02, 2.22223643e-02, 5.10404743e-02,
          2.93085240e-02, 9.94975958e-03, 4.33536693e-02, 3.18438150e-02,
          7.87755102e-02, 5.55656366e-02, 5.03073148e-02, 6.71373829e-02,
          4.04696688e-02, 3.03726718e-02, 2.59079635e-02, 4.33322042e-02,
          4.39779982e-02, 0., 4.65328358e-02, 4.46594805e-02, 0.,
          4.71386202e-02, 4.15919535e-02, 0., 4.52975631e-02,
          4.23149057e-02, 1.22963600e-02, 1.78278908e-02, 3.66175137e-02,
          5.65742236e-03, 9.87655073e-02, 1.28621012e-01, 2.16331501e-02,
          1.07697114e-01, 1.40313223e-01, 4.34231497e-02, 5.53995855e-02,
          1.17214441e-01, 9.99587215e-03, 4.00131121e-02, 8.47023278e-02,
          3.21554206e-03, 4.59975451e-02, 1.11445539e-01, 3.34286243e-02,
          1.03372529e-01, 2.83793598e-01, 6.45687431e-03, 1.12687051e-01,
          2.19854981e-01, 1.02618877e-02, 1.54369459e-01, 3.06696415e-01,
          1.50655895e-01, 2.12130859e-01, 4.00000006e-01, 6.34402186e-02,
          3.37265462e-01, 4.00000006e-01, 1.22225389e-01, 2.32900411e-01,
          3.83548617e-01, 1.75307915e-02, 1.73959166e-01, 4.00000006e-01,
          1.80620458e-02, 1.44724309e-01, 3.18096906e-01, 2.89394651e-02,
          7.62134641e-02, 1.84864044e-01, 1.46901041e-01, 1.50605768e-01,
          3.23296338e-01, 6.66284561e-02, 6.11877516e-02, 1.43583715e-01,
          8.39844346e-02, 1.26253769e-01, 2.59860575e-01, 2.14655325e-02,
          5.17871603e-02, 7.81298801e-02, 1.89682022e-02, 4.94036935e-02,
          5.33611402e-02, 3.46684717e-02, 1.87453941e-01, 1.70082927e-01,
          2.21580595e-01, 5.44265807e-02, 6.50963187e-02, 2.36296356e-01,
          9.24202949e-02, 8.12587440e-02, 2.26403534e-01, 4.00000006e-01,
          3.82268608e-01, 2.88722888e-02, 6.94412589e-02, 3.47805023e-02,
          3.42959054e-02, 5.24937809e-02, 2.53271665e-02, 2.30311267e-02,
          3.28327000e-01, 2.27462456e-01, 6.37972280e-02, 1.39928848e-01,
          5.57189249e-02, 1.27181754e-01, 1.07328542e-01, 2.84074098e-02,
          4.86800149e-02, 3.06379870e-02, 4.11385596e-02, 1.38100982e-01,
          3.01410347e-01, 4.94363010e-02, 1.07427903e-01, 1.26011342e-01,
          3.57015245e-02, 1.73991621e-01, 1.39175564e-01, 4.99450266e-02,
          1.26660720e-01, 3.24464589e-01, 6.52204454e-02, 1.36601508e-01,
          2.95872003e-01, 6.49601743e-02, 1.12792119e-01, 9.03517008e-02,
          3.41720842e-02, 2.50019848e-01, 4.00000006e-01, 4.00000006e-01,
          2.30046570e-01, 4.00000006e-01, 4.00000006e-01, 2.43564814e-01,
          4.00000006e-01, 4.00000006e-01, 1.88007399e-01, 4.00000006e-01,
          4.00000006e-01, 1.21213876e-01, 4.00000006e-01, 3.53888452e-01,
          5.37601449e-02, 3.73514235e-01, 2.78663129e-01, 2.19756514e-01,
          3.65031034e-01, 3.46398652e-01, 9.84161943e-02, 1.98388994e-01,
          2.06210107e-01, 1.02945752e-01, 2.99040258e-01, 3.26713234e-01,
          4.81379703e-02, 1.05673246e-01, 1.07841954e-01, 4.11905684e-02,
          1.00444168e-01, 8.26696530e-02, 4.46182340e-02, 2.30807632e-01,
          2.01926723e-01, 2.28516072e-01, 1.09992236e-01, 1.15403630e-01,
          2.41799206e-01, 1.32889956e-01, 1.11631416e-01, 2.28484988e-01,
          4.00000006e-01, 3.88472259e-01, 2.88722888e-02, 1.15974113e-01,
          7.94399828e-02, 3.42959054e-02, 9.96324122e-02, 6.69191182e-02,
          2.30311267e-02, 3.57606977e-01, 2.63772637e-01, 7.60935843e-02,
          1.57756716e-01, 9.23364460e-02, 1.32839173e-01, 2.06094101e-01,
          1.57028437e-01, 7.03131557e-02, 1.38335109e-01, 1.81451783e-01,
          1.81524128e-01, 3.56809974e-01, 1.66650757e-01, 1.17423773e-01,
          1.66024476e-01, 1.20403856e-01, 1.77207157e-01, 1.85173109e-01,
          1.61390528e-01, 1.60089344e-01, 3.92549008e-01, 3.28205377e-01,
          1.43058389e-01, 3.86404961e-01, 2.84815192e-01, 1.23054013e-01,
          2.44721144e-01, 3.27073246e-01, 3.73964980e-02, 3.11296433e-01,
          3.09110761e-01, 3.03323586e-02, 2.82937884e-01, 3.03789675e-01,
          3.27501595e-02, 3.70452374e-01, 4.66603011e-01, 3.72740924e-02,
          3.07270169e-01, 3.00600529e-01, 3.01359612e-02, 2.73522913e-01,
          2.79711336e-01, 2.37461124e-02, 2.90926158e-01, 3.60096425e-01,
          3.43459815e-01, 3.57436806e-01, 2.19395548e-01, 2.82372773e-01,
          3.23443860e-01, 1.85862735e-01, 2.76266694e-01, 4.08035308e-01,
          2.90854782e-01, 3.33709836e-01, 3.56575489e-01, 2.17074305e-01,
          2.60631442e-01, 3.21654826e-01, 1.80323809e-01, 2.34436512e-01,
          3.24706495e-01, 2.18135551e-01, 1.70823857e-01, 9.80984271e-01,
          8.80985379e-01, 1.19588614e+00, 5514., 299., 124., 108., 89.,
          76., 51., 32., 17., 29., 14., 14., 9., 6., 6., 5., 3., 4., 0.,
          0., 0., 0., 0., 0., 0., 0., 0., 0., 0., 0., 0., 0.,
          4.82419729e+00, -4.65618640e-01, 0., 0., 0., 0., 0., 0., 0.,
          0., 0., 0., 0., 0., 0., 1255., 3719., 597., 124., 69., 49.,
          71., 79., 105., 66., 65., 31., 53., 50., 23., 5., 5., 11., 23.,
          1.62436306e-01, 9.54122365e-01, 8.53671253e-01, 2.83589745e+00,
          1308., 62., 35., 33., 30., 28., 19., 16., 15., 15., 5., 4., 8.,
          3., 2., 6., 2., 3., 2., 2., 2., 0., 0., 0., 0., 0., 0., 0., 0.,
          0., 0., 0., 4.76961136e+00, -4.63847518e-01, 0., 0., 0., 0.,
          0., 0., 0., 0., 0., 0., 0., 0., 0., 299., 941., 150., 34., 14.,
          13., 18., 22., 32., 11., 16., 10., 13., 14., 2., 2., 1., 4.,
          4. ]
      - [ 3.79177421e-01, 2.44965225e-01, 7.90316090e-02, 4.00000006e-01,
          3.84490669e-01, 1.66119203e-01, 4.00000006e-01, 4.00000006e-01,
          1.11659408e-01, 3.87075871e-01, 2.73642749e-01, 5.61994966e-03,
          2.65111923e-01, 1.51858464e-01, 1.03823496e-02, 2.41880298e-01,
          1.57658726e-01, 1.21266535e-02, 1.70969650e-01, 1.10736661e-01,
          1.31791150e-02, 1.36328176e-01, 1.20445244e-01, 3.56194898e-02,
          1.41054869e-01, 1.39734104e-01, 1.00342818e-01, 3.35398577e-02,
          5.20789102e-02, 1.68538489e-03, 3.33631076e-02, 3.56926322e-02,
          1.06469421e-02, 3.19004357e-02, 4.06399854e-02, 5.16500743e-03,
          6.12338036e-02, 5.42283989e-02, 4.10254151e-02, 4.15615886e-02,
          3.93235274e-02, 2.12100856e-02, 4.03053425e-02, 4.19025868e-02,
          1.84010983e-01, 9.65410378e-03, 2.76804231e-02, 1.31798070e-02,
          2.34828945e-02, 5.23948185e-02, 9.52587556e-03, 2.97690462e-02,
          5.41103780e-02, 1.07158683e-02, 2.62335986e-02, 4.92041521e-02,
