<?xml version="1.0"?>
<opencv_storage>
<opencv_ml_svm>
  <format>3</format>
  <svmType>C_SVC</svmType>
  <kernel>
    <type>LINEAR</type></kernel>
  <C>1.</C>
  <term_criteria><iterations>1000</iterations></term_criteria>
  <var_count>225</var_count>
  <class_count>2</class_count>
  <class_labels type_id="opencv-matrix">
    <rows>2</rows>
    <cols>1</cols>
    <dt>i</dt>
    <data>
      -1 1</data></class_labels>
  <sv_total>1</sv_total>
  <support_vectors>
    <_>
      -6.95870996e-01 2.63565660e-01 7.77345121e-01 4.46552485e-01
      -4.99810547e-01 -1.74058691e-01 1.46665141e-01 -5.03130704e-02
      -6.63068891e-01 -1.57069457e+00 -1.50008857e-01 9.02611315e-01
      -1.83947265e-01 -8.51339340e-01 -5.40738106e-01 -2.80887425e-01
      -8.74158323e-01 -1.47220528e+00 -1.20236444e+00 1.09457806e-01
      1.33246303e+00 4.56926525e-01 1.22192442e+00 7.32711256e-02
      1.44282922e-01 -3.20961684e-01 -8.43440235e-01 -1.05610833e-01
      1.21483803e-01 9.55994368e-01 4.25398201e-01 1.16805172e+00
      -9.04428512e-02 -7.16011599e-02 -3.23115826e-01 -3.65451835e-02
      4.89166349e-01 5.53630769e-01 8.01229119e-01 5.61139762e-01
      6.83071792e-01 2.12714940e-01 1.15656875e-01 -3.20262089e-02
      3.52782130e-01 -7.71196961e-01 1.73037395e-01 8.96411657e-01
      4.52769428e-01 -2.44766623e-01 -6.15287840e-01 -1.16145127e-02
      -2.26623520e-01 -5.67996442e-01 -1.66806662e+00 -3.95265371e-01
      3.03555340e-01 -2.01891139e-01 -2.29155183e-01 -9.68358397e-01
      -6.86512515e-02 -8.35810542e-01 -1.29990733e+00 -2.14916095e-01
      2.79056042e-01 1.15982091e+00 2.48007500e-03 2.20459414e+00
      6.28000498e-03 7.21202433e-01 -1.34064034e-01 -5.47912605e-02
      -3.29239294e-02 -2.97084868e-01 1.00855589e+00 -4.32677597e-01
      1.48323405e+00 -1.41205072e-01 -2.76148945e-01 -1.40241659e+00
      -5.45001253e-02 2.61446446e-01 1.93543494e-01 1.03214860e+00
      1.20874155e+00 1.10885751e+00 1.13299400e-01 -1.14441589e-01
      -5.47183454e-01 1.03096314e-01 6.46552622e-01 7.77149260e-01
      1.19982648e+00 6.25960290e-01 1.16500974e+00 -2.23046076e-02
      2.52508640e-01 -3.60698164e-01 2.38214403e-01 -1.63429767e-01
      4.54298854e-01 4.61214483e-01 -2.68487573e-01 1.88615155e+00
      -6.15951419e-01 7.67429948e-01 -4.66310620e-01 2.01145887e-01
      2.61789858e-01 9.68562216e-02 8.84426594e-01 -7.19212472e-01
      3.19925475e+00 -3.62000346e-01 3.15971285e-01 -5.59731781e-01
      9.20602083e-01 1.90531590e-03 -6.92318082e-01 1.08557868e+00
      -3.61778289e-01 2.33609986e+00 -2.84790039e-01 5.78480884e-02
      -8.29113603e-01 5.77790141e-01 3.69007558e-01 -1.68742493e-01
      1.15319049e+00 1.21796167e+00 1.11388505e+00 2.50363052e-01
      3.90089780e-01 1.38588935e-01 6.79498434e-01 1.01497197e+00
      7.24651039e-01 1.08874106e+00 8.63418102e-01 1.46888161e+00
      6.19045854e-01 6.97824657e-01 2.65908897e-01 7.55661309e-01
      3.60950738e-01 -3.64247203e-01 1.03308056e-02 -5.28959095e-01
      1.21841729e+00 5.97104914e-02 8.62285256e-01 -7.23155737e-02
      4.55119222e-01 2.12172661e-02 -2.24418789e-01 5.08043170e-01
      -2.15585276e-01 2.47005510e+00 5.02067208e-02 1.13232303e+00
      1.59145236e-01 9.31273103e-01 -1.52744398e-01 -6.02859795e-01
      5.87105930e-01 6.64396763e-01 1.91940761e+00 -7.73682026e-03
      5.11315107e-01 1.75349683e-01 3.51209313e-01 4.52929646e-01
      7.39643630e-03 6.27184272e-01 9.42844033e-01 1.12886286e+00
      1.72248065e-01 6.93299294e-01 5.62326312e-01 8.74822855e-01
      5.54169059e-01 4.71971720e-01 7.15530038e-01 5.41461170e-01
      8.85635018e-01 5.69969177e-01 6.67760611e-01 3.46916348e-01
      4.68990654e-01 -3.12554725e-02 -1.58505328e-02 6.43158317e-01
      5.94735384e-01 1.10257626e+00 6.41656041e-01 9.58305001e-01
      3.59596878e-01 2.55941212e-01 -2.56864667e-01 9.26054083e-03
      3.68061811e-01 1.05674946e+00 1.29137611e+00 4.93922889e-01
      1.08192229e+00 4.47444469e-01 1.63055733e-01 2.96792954e-01
      4.10348959e-02 5.93602777e-01 1.14216638e+00 1.66617548e+00
      7.09931135e-01 1.10252035e+00 7.76040852e-01 7.32522845e-01
      4.96118248e-01 3.48012865e-01 4.70005333e-01 4.62807953e-01
      6.35476291e-01 3.13725948e-01 5.60623288e-01 4.68240738e-01
      6.13992393e-01</_></support_vectors>
  <uncompressed_sv_total>287</uncompressed_sv_total>
  <uncompressed_support_vectors>
    <_>
      7.26282224e-03 5.41771762e-03 5.52052679e-03 8.94119963e-03
      1.17710000e-02 5.15993685e-03 3.83338891e-03 4.79237037e-03
      6.06719777e-03 1.65075473e-02 1.74987894e-02 1.60954650e-02
      2.24595685e-02 2.99572702e-02 1.10909045e-02 7.04999967e-03
      7.49729061e-03 8.99921730e-03 1.30363042e-02 1.26741240e-02
      1.75946411e-02 2.17421502e-02 3.39199230e-02 2.28513442e-02
      1.41764777e-02 1.29892370e-02 8.43767915e-03 9.90239158e-03
      1.06853228e-02 1.19114378e-02 1.33684687e-02 1.80285554e-02
      1.48409717e-02 1.36425961e-02 1.06009878e-02 8.16463400e-03
      5.80537692e-03 3.85861495e-03 4.49339021e-03 4.89203166e-03
      1.05872341e-02 9.97621939e-03 5.64733287e-03 3.70529387e-03
      4.01239842e-03 9.29274224e-03 6.25820272e-03 1.04534682e-02
      1.52185233e-02 2.69371998e-02 1.44194150e-02 1.25064319e-02
      7.48636201e-03 7.27417367e-03 2.34311558e-02 1.95945650e-02
      2.31998283e-02 3.61241102e-02 6.67488202e-02 3.31112556e-02
      2.82899290e-02 1.96760911e-02 2.17742547e-02 2.75174063e-02
      2.69246586e-02 3.25889997e-02 3.91035601e-02 6.81552291e-02
      4.75263447e-02 3.79292630e-02 2.38572545e-02 2.44135782e-02
      1.74727868e-02 2.36737672e-02 3.39529961e-02 2.53951289e-02
      4.35952097e-02 2.64280140e-02 2.37134211e-02 1.85456611e-02
      1.38429701e-02 1.80836190e-02 2.64232978e-02 2.41752695e-02
      1.68221444e-02 1.65109746e-02 1.45687182e-02 9.50976741e-03
      8.43041390e-03 1.07755428e-02 1.21758590e-02 1.23167923e-02
      1.74745750e-02 2.25496311e-02 4.24905084e-02 2.10187547e-02
      1.55713763e-02 1.01810209e-02 8.75925086e-03 2.64840070e-02
      2.31032297e-02 3.70409526e-02 6.79516196e-02 9.85621363e-02
      5.80441207e-02 3.79589126e-02 3.00103184e-02 3.28734815e-02
      3.20140049e-02 3.72250117e-02 5.46219349e-02 6.20217323e-02
      1.00701056e-01 3.91405746e-02 4.43762913e-02 2.11664047e-02
      2.69350894e-02 3.22498493e-02 7.72072598e-02 9.10589322e-02
      6.39345050e-02 5.56698143e-02 2.96688564e-02 2.84609254e-02
      2.00728998e-02 1.69160850e-02 4.56741750e-02 1.37584120e-01
      4.42092940e-02 2.24649440e-02 1.92120094e-02 1.19077880e-02
      1.53047945e-02 1.36256795e-02 1.78864840e-02 1.01600094e-02
      1.25364931e-02 2.37176642e-02 2.85029206e-02 3.56120840e-02
      1.06280604e-02 8.80203024e-03 6.50727376e-03 9.60305519e-03
      4.06467728e-02 9.14882421e-02 7.77245611e-02 7.54969120e-02
      6.45281002e-02 3.46343741e-02 2.70718858e-02 2.68315431e-02
      3.19557339e-02 2.20824867e-01 2.20824867e-01 1.59651175e-01
      5.37475459e-02 5.68592511e-02 3.33545431e-02 3.83678898e-02
      4.33111601e-02 1.41573310e-01 2.02075437e-01 2.02295735e-01
      2.20824867e-01 1.30951330e-01 9.65240449e-02 3.99535187e-02
      7.57034570e-02 7.62384310e-02 1.69089988e-01 1.20203532e-01
      2.20824867e-01 1.28440082e-01 4.14151289e-02 1.59041155e-02
      1.16965882e-02 3.40247229e-02 4.35468517e-02 7.61919022e-02
      5.79561340e-03 1.87600181e-02 2.29942370e-02 7.47857196e-03
      1.45258857e-02 6.40533213e-03 4.61894833e-03 3.30810645e-03
      3.50988284e-03 5.68302684e-02 2.20824867e-01 1.71347558e-01
      2.40095723e-02 2.28224527e-02 1.22258943e-02 1.05213663e-02
      1.13403155e-02 1.52724674e-02 2.20824867e-01 2.20824867e-01
      2.15586647e-01 9.01528373e-02 9.79459211e-02 3.73326652e-02
      2.37291865e-02 2.25517657e-02 8.89214501e-02 9.81204286e-02
      1.29488423e-01 2.05909073e-01 1.71473220e-01 9.21674594e-02
      3.60710807e-02 3.70853283e-02 3.36580724e-02 7.57177547e-02
      3.71260121e-02 3.81831117e-02 2.39689499e-02 1.89360622e-02
      1.02548227e-02 5.63250668e-03 1.24118654e-02 2.03819200e-02
      3.68867144e-02</_>
    <_>
      5.55107230e-03 6.81600254e-03 6.03267737e-03 6.53186766e-03
      1.00939432e-02 3.10080592e-03 2.86764349e-03 3.87649331e-03
      3.61769251e-03 7.97790848e-03 1.00838067e-02 1.00732623e-02
      1.62079223e-02 2.83128116e-02 1.10074971e-02 6.11440837e-03
      7.67610921e-03 5.55012701e-03 9.11323447e-03 1.22277196e-02
      1.36579145e-02 1.49649233e-02 2.36519035e-02 1.44197391e-02
      9.77091398e-03 1.07953800e-02 1.07724788e-02 1.00350259e-02
      8.33989587e-03 8.18448421e-03 9.53186583e-03 2.33600158e-02
      1.74615327e-02 9.98716522e-03 7.62162264e-03 1.05985058e-02
      6.05972763e-03 4.45423555e-03 5.30957058e-03 5.57899429e-03
      8.14908464e-03 4.96878568e-03 3.03157768e-03 3.08614643e-03
      2.78286776e-03 7.48996716e-03 6.11572154e-03 7.46898167e-03
      1.19712651e-02 2.27317344e-02 1.16147967e-02 7.26070907e-03
      7.02713476e-03 8.54269788e-03 1.76889934e-02 2.10276358e-02
      1.83884129e-02 2.65074242e-02 4.89938073e-02 3.11122872e-02
      2.03646235e-02 1.57965180e-02 1.76765416e-02 1.90386269e-02
      2.29912996e-02 3.02862301e-02 2.76509468e-02 5.27389608e-02
      3.22942957e-02 2.50376742e-02 1.74914654e-02 1.78206787e-02
      3.77263837e-02 4.45348658e-02 3.80004495e-02 3.61704752e-02
      3.37504633e-02 3.06306444e-02 1.93722658e-02 1.32752722e-02
      1.47561878e-02 1.73961911e-02 1.62322633e-02 1.14095407e-02
      1.02519765e-02 1.31537803e-02 7.42390845e-03 7.49450317e-03
      9.15934425e-03 1.12194074e-02 1.06254518e-02 1.13455374e-02
      1.37437033e-02 2.28292495e-02 3.35682817e-02 1.97953992e-02
      1.16798766e-02 9.87172686e-03 1.12358024e-02 1.85798332e-02
      2.57417373e-02 2.49812752e-02 3.32010351e-02 7.09029511e-02
      3.54955904e-02 2.87389643e-02 1.84269436e-02 1.61326081e-02
      3.30747589e-02 6.23045489e-02 9.36160907e-02 6.18862286e-02
      5.93264289e-02 3.04269139e-02 2.57368907e-02 2.21235100e-02
      1.98516753e-02 6.61773011e-02 1.96006924e-01 8.56459811e-02
      4.85570207e-02 4.66134325e-02 2.92065293e-02 2.99727116e-02
      2.53303479e-02 2.27704123e-02 8.95055532e-02 2.23225385e-01
      4.68223877e-02 1.37327779e-02 1.29749002e-02 7.99774658e-03
      1.07324887e-02 9.21531580e-03 2.38358192e-02 1.02371955e-02
      1.77397355e-02 2.01029163e-02 2.92670727e-02 2.27089226e-02
      1.25676971e-02 8.75059795e-03 9.32322908e-03 1.09941298e-02
      1.36167809e-01 1.32527232e-01 8.99579003e-02 2.99652480e-02
      3.63272615e-02 1.78124085e-02 2.20306702e-02 2.44711265e-02
      5.98097630e-02 2.23225385e-01 1.83438733e-01 1.93129361e-01
      1.10328287e-01 9.84876677e-02 4.51632887e-02 5.54782823e-02
      7.44890049e-02 1.78641826e-01 2.08378717e-01 2.23225385e-01
      2.23225385e-01 1.11793235e-01 5.47475554e-02 3.13645266e-02
      7.03514889e-02 1.07975930e-01 1.57347605e-01 1.61938220e-01
      2.23225385e-01 5.62027246e-02 9.31698084e-03 7.74820615e-03
      4.81420662e-03 5.82931750e-03 8.31117388e-03 3.91259976e-02
      1.47810578e-02 8.87666643e-02 5.20974733e-02 7.84388278e-03
      8.41000397e-03 2.76821456e-03 2.69433623e-03 3.81461484e-03
      4.89447126e-03 1.21271595e-01 2.23225385e-01 1.32232338e-01
      3.78781259e-02 4.31165956e-02 1.57466494e-02 1.21139800e-02
      1.39668407e-02 4.43200842e-02 1.47905871e-01 1.54801384e-01
      2.23225385e-01 1.84553280e-01 1.11195788e-01 4.24464121e-02
      3.41282859e-02 3.03012077e-02 8.75435024e-02 7.44759217e-02
      7.80455992e-02 8.88222605e-02 7.37622231e-02 3.78734246e-02
      1.60649028e-02 2.88371183e-02 5.01711555e-02 8.35277587e-02
      1.42370723e-02 2.23331861e-02 9.98491980e-03 3.60075524e-03
      5.03144180e-03 3.06848506e-03 3.15200700e-03 3.54791852e-03
      6.96199294e-03</_>
    <_>
      2.10976461e-03 3.74331628e-03 7.19698705e-03 6.69361558e-03
      6.14661630e-03 2.95034121e-03 2.24790187e-03 1.96395977e-03
      2.27500522e-03 8.01556278e-03 7.85520673e-03 6.47512777e-03
      1.16918730e-02 2.11622417e-02 9.88074951e-03 8.54471885e-03
      8.80672876e-03 6.71363203e-03 1.01383617e-02 8.25479068e-03
      9.60569084e-03 1.33961150e-02 2.76402794e-02 1.32525815e-02
      1.13547519e-02 9.96638276e-03 9.64724552e-03 5.21910889e-03
      5.02443220e-03 5.40695991e-03 8.73916131e-03 1.78669561e-02
      8.99625942e-03 7.65855331e-03 4.92943684e-03 4.89353249e-03
      2.71218712e-03 3.32595315e-03 3.45505727e-03 3.07942298e-03
      5.39660081e-03 4.13812278e-03 3.04857502e-03 1.77508220e-03
      2.13254313e-03 7.33473059e-03 8.15324392e-03 1.31701566e-02
      1.57971419e-02 1.69155169e-02 1.05813844e-02 9.52576473e-03
      5.14744408e-03 7.52211735e-03 1.28306244e-02 1.30157080e-02
      1.78700741e-02 3.22151929e-02 5.59811555e-02 2.85889879e-02
      1.90910809e-02 1.08354026e-02 1.14083728e-02 1.75359733e-02
      1.36701241e-02 2.51488499e-02 4.11487520e-02 8.14444944e-02
      3.87440249e-02 2.52346322e-02 1.66890305e-02 1.65651068e-02
      1.66564882e-02 1.77930240e-02 2.71586142e-02 2.64359359e-02
      3.73853855e-02 1.74738578e-02 1.53666055e-02 9.82208084e-03
      1.25230635e-02 6.80059893e-03 1.21272793e-02 1.68541670e-02
      1.23191038e-02 1.06649725e-02 8.80006980e-03 6.60258811e-03
      4.08905465e-03 4.54300456e-03 8.34284816e-03 2.17111558e-02
      4.17383350e-02 4.21964899e-02 2.91399322e-02 1.22009590e-02
      1.02778422e-02 5.90684311e-03 6.83891913e-03 2.49811858e-02
      2.98240855e-02 4.83086146e-02 8.38894695e-02 7.59778544e-02
      3.26326825e-02 2.30372120e-02 1.91289205e-02 2.76660305e-02
      6.20896779e-02 4.33086157e-02 5.26210405e-02 6.49464279e-02
      7.63476938e-02 4.84274849e-02 4.04157825e-02 3.07603776e-02
      3.81298997e-02 1.27156883e-01 7.86051899e-02 7.52330273e-02
      3.81615907e-02 4.12209630e-02 2.32903454e-02 3.12987790e-02
      2.87704226e-02 6.84381723e-02 5.56493215e-02 7.72246346e-02
      7.90711045e-02 4.12242785e-02 2.42424905e-02 1.32310884e-02
      2.00873893e-02 2.70663220e-02 4.13236469e-02 6.68671774e-03
      1.25578661e-02 2.70353053e-02 2.99176592e-02 2.78244223e-02
      1.14265541e-02 8.82419199e-03 5.22825494e-03 3.81151075e-03
      3.11827138e-02 1.36043206e-01 9.61064324e-02 5.11017293e-02
      4.79840636e-02 1.89210810e-02 1.69250444e-02 1.41383074e-02
      2.10911203e-02 2.28073239e-01 2.54582167e-01 2.54582167e-01
      7.17539936e-02 5.89130931e-02 3.21750194e-02 3.68879102e-02
      3.31746712e-02 5.86205274e-02 2.54582167e-01 2.54582167e-01
      2.54582167e-01 1.58772573e-01 1.00859925e-01 4.95628715e-02
      4.49532345e-02 4.49579433e-02 1.59615532e-01 8.13121274e-02
      8.05739164e-02 1.23887084e-01 1.08376004e-01 5.38979657e-02
      2.25441158e-02 3.90096605e-02 4.96543832e-02 8.58123749e-02
      6.74072048e-03 2.14039553e-02 1.63337942e-02 1.78959593e-02
      2.34297141e-02 1.08227963e-02 5.93242235e-03 2.21630931e-03
      1.87103404e-03 6.60929754e-02 2.54582167e-01 1.30325064e-01
      2.23686565e-02 3.43806036e-02 1.68968476e-02 1.30815748e-02
      7.17182551e-03 1.70853101e-02 1.26462206e-01 2.54582167e-01
      1.64695010e-01 3.88263613e-02 4.42591049e-02 1.73990466e-02
      1.60632115e-02 1.52089549e-02 3.45020294e-02 1.07166208e-01
      2.02198282e-01 1.98151380e-01 7.24332035e-02 4.84104380e-02
      1.42242527e-02 1.70773342e-02 1.75203439e-02 4.22517136e-02
      1.04113836e-02 3.04634478e-02 4.01729606e-02 2.43912432e-02
      1.00658219e-02 3.51165025e-03 2.87533551e-03 2.50767358e-03
      4.63110954e-03</_>
    <_>
      2.89789587e-03 2.24103942e-03 2.19425303e-03 3.84418713e-03
      7.40743149e-03 3.23302369e-03 2.66513764e-03 2.78445822e-03
      2.29828642e-03 6.78435946e-03 5.69293462e-03 6.35414803e-03
      1.01083498e-02 1.59191322e-02 9.00973100e-03 5.46025904e-03
      7.29948189e-03 6.34089345e-03 6.17359346e-03 6.15204033e-03
      6.76750392e-03 1.13790371e-02 1.80539284e-02 1.15602203e-02
      9.55323223e-03 7.69920694e-03 5.15648257e-03 4.07652650e-03
      4.99817776e-03 5.73970284e-03 5.40349819e-03 1.24089252e-02
      7.09773181e-03 5.35207381e-03 4.45204461e-03 3.58740473e-03
      4.08981508e-03 5.39689325e-03 4.35007410e-03 3.57762678e-03
      6.47034915e-03 4.31244308e-03 3.08278692e-03 2.53884052e-03
      2.24462547e-03 4.80549689e-03 3.78580741e-03 6.45000720e-03
      8.60697217e-03 1.92622561e-02 1.03903525e-02 6.50148233e-03
      3.71149322e-03 4.81701083e-03 1.12078125e-02 9.45709925e-03
      1.39864767e-02 3.00187003e-02 4.93918248e-02 2.51333043e-02
      1.53253525e-02 1.10563366e-02 1.20677464e-02 1.70355290e-02
      1.45048872e-02 2.47024000e-02 2.96880696e-02 4.55420502e-02
      2.68923584e-02 2.06242893e-02 1.28368419e-02 1.36855692e-02
      1.09622236e-02 2.20135357e-02 3.57803330e-02 2.64447089e-02
      2.38776002e-02 1.75998881e-02 1.51233766e-02 1.05111962e-02
      7.08272960e-03 1.26173245e-02 2.73457319e-02 1.55921783e-02
      1.11882063e-02 8.90292227e-03 4.89024771e-03 5.88118611e-03
      4.58259694e-03 5.46935713e-03 8.61161202e-03 9.32129938e-03
      1.82397775e-02 2.65672803e-02 2.63325479e-02 9.76486318e-03
      5.81659842e-03 4.33238503e-03 8.61675665e-03 2.64864918e-02
      2.06540208e-02 3.78124602e-02 5.58811352e-02 5.13639003e-02
      3.14033590e-02 2.80628484e-02 2.08102595e-02 2.62417253e-02
      1.16067596e-01 6.87245801e-02 6.48440719e-02 3.52852158e-02
      4.15700786e-02 2.37980951e-02 3.05197593e-02 2.47947406e-02
      6.69428930e-02 1.03111908e-01 1.21881865e-01 1.27843812e-01
      6.69234619e-02 5.19848578e-02 2.55313981e-02 3.65104564e-02
      3.70799229e-02 7.49523789e-02 8.41176435e-02 2.36426458e-01
      8.37414414e-02 2.71536410e-02 1.35366861e-02 8.45982973e-03
      1.47598693e-02 2.24617235e-02 3.92931178e-02 7.48838158e-03
      1.96638592e-02 2.35282443e-02 1.58397444e-02 1.71908513e-02
      8.93112924e-03 6.27566176e-03 3.43723688e-03 4.92243096e-03
      7.65993297e-02 2.36426458e-01 1.87358007e-01 4.78488617e-02
      3.30073461e-02 1.56185627e-02 1.59642603e-02 1.27025209e-02
      2.07420737e-02 2.36426458e-01 2.36426458e-01 2.36426458e-01
      1.07632875e-01 9.16258171e-02 4.01583761e-02 3.27030011e-02
      3.37849185e-02 1.68179974e-01 1.83206260e-01 1.88221276e-01
      2.36426458e-01 2.21415877e-01 1.34921372e-01 5.38701564e-02
      6.45116195e-02 6.66093528e-02 1.51782364e-01 7.27035031e-02
      9.23542902e-02 5.73918410e-02 2.82463282e-02 1.43028600e-02
      9.00940597e-03 2.09622253e-02 4.35741954e-02 7.23018274e-02
      1.95458867e-02 7.23789036e-02 3.97553779e-02 9.79501847e-03
      1.60922632e-02 1.02891335e-02 6.75559230e-03 2.41806731e-03
      3.14743049e-03 8.15506801e-02 2.26785064e-01 1.07685089e-01
      1.41536258e-02 2.31648497e-02 6.47769403e-03 5.61637804e-03
      4.73281555e-03 1.45200863e-02 1.20989226e-01 2.36426458e-01
      1.95978507e-01 6.65939897e-02 6.03317507e-02 1.69201512e-02
      1.38190687e-02 2.35976242e-02 4.28553894e-02 4.32228632e-02
      8.58958438e-02 1.21213287e-01 5.91216609e-02 2.52782926e-02
      8.68531410e-03 6.76308572e-03 7.49577256e-03 1.45723196e-02
      3.04600038e-03 7.24656321e-03 1.02357464e-02 9.07220319e-03
      1.01416027e-02 4.43754811e-03 3.06922756e-03 9.52019705e-04
      1.44067209e-03</_>
    <_>
      3.64079577e-04 1.74761852e-04 4.67106816e-04 4.04528510e-05
      1.26210961e-03 1.94425884e-05 5.38097229e-04 1.87251077e-04
      3.60918260e-04 2.03371583e-03 1.21215044e-03 1.33413891e-03
      6.28395646e-04 2.72133877e-03 3.11455602e-04 1.31874322e-03
      9.09323222e-04 1.58874574e-03 9.34035797e-03 7.57477386e-03
      1.46224974e-02 1.39182294e-02 5.74099319e-03 2.49586371e-03
      3.14807985e-03 4.82493546e-03 7.95865618e-03 3.01300474e-02
      2.03924682e-02 2.27272417e-02 2.16905568e-02 7.04226363e-03
      5.78462379e-03 1.20090721e-02 2.65526120e-02 4.58298847e-02
      5.54767903e-03 4.77608526e-03 2.80802022e-03 2.47947755e-03
      3.81923048e-03 4.02462156e-03 9.12130997e-03 8.06850009e-03
      7.20942393e-03 1.60989934e-03 6.94791263e-04 1.38522801e-03
      5.17337641e-04 2.04387889e-03 3.59773607e-04 1.62534730e-03
      7.19856005e-04 1.55615690e-03 2.33922862e-02 2.82399300e-02
      5.08582704e-02 7.64687359e-02 2.97010038e-02 2.29754858e-02
      2.56719999e-02 2.02869326e-02 1.56140570e-02 6.56160340e-02
      8.29569176e-02 1.51626289e-01 1.87615305e-01 1.30970478e-01
      1.27201989e-01 9.18768868e-02 7.50049576e-02 4.97349687e-02
      1.63962007e-01 1.74461126e-01 1.50379747e-01 1.66574374e-01
      1.14150301e-01 9.31669995e-02 8.69467780e-02 1.04559988e-01
      1.53471917e-01 4.13137898e-02 5.62778898e-02 2.62974221e-02
      2.38719806e-02 1.85502302e-02 1.50068384e-02 2.11522523e-02
      2.05471367e-02 2.56178789e-02 2.31133681e-03 1.90590823e-03
      2.71442044e-03 1.98566355e-03 4.79317224e-03 1.05427962e-03
      1.94672192e-03 1.09822094e-03 2.14309245e-03 6.88419193e-02
      4.44951467e-02 1.49788827e-01 2.24613577e-01 2.24613577e-01
      5.79967722e-02 6.17373623e-02 4.50342260e-02 3.62718329e-02
      6.33757487e-02 9.79191363e-02 1.40268400e-01 2.24613577e-01
      2.24613577e-01 2.24613577e-01 2.02846259e-01 1.14425443e-01
      6.16544858e-02 1.08226493e-01 1.48296326e-01 7.64162913e-02
      6.13975264e-02 9.73529741e-02 9.08400789e-02 7.01685026e-02
      6.23115785e-02 8.86287540e-02 8.05694796e-03 1.24852229e-02
      7.20093073e-03 6.13098592e-03 1.21928463e-02 6.07736455e-03
      5.01784217e-03 5.53059811e-03 6.31759688e-03 2.30925111e-03
      3.37997801e-03 4.14907048e-03 7.29336962e-03 8.54443759e-03
      5.36730001e-03 4.51281387e-03 4.15310636e-03 2.32424238e-03
      1.44757763e-01 7.02399388e-02 7.96257183e-02 1.28033414e-01
      1.23774931e-01 5.83111197e-02 4.82388288e-02 8.11332762e-02
      1.47478163e-01 1.15272373e-01 5.38713373e-02 5.44797033e-02
      1.30962461e-01 1.96149603e-01 1.50554419e-01 1.00239411e-01
      4.38081101e-02 8.55986178e-02 1.27256671e-02 1.09721543e-02
      1.07798772e-02 1.19561413e-02 2.31455993e-02 1.65927224e-02
      1.55690284e-02 8.87519680e-03 1.32108917e-02 1.28611480e-03
      1.63311092e-03 3.30697605e-03 2.10675970e-03 6.23003393e-03
      8.92202661e-04 1.29645213e-03 5.15061023e-04 1.16216787e-03
      6.01961219e-04 2.65775103e-04 3.24634457e-04 2.36674212e-04
      4.99808695e-04 2.02910349e-04 8.61192588e-04 6.02739805e-04
      6.10336254e-04 1.39107909e-02 2.21565901e-03 1.68968830e-03
      1.07667455e-03 2.75040627e-03 9.21983737e-04 2.97599984e-03
      7.63146393e-03 2.16130186e-02 1.82635393e-02 5.93242934e-03
      5.05083008e-03 2.88645644e-03 8.18794034e-03 7.94793945e-04
      2.31182296e-03 3.46598541e-03 1.29599823e-02 1.62799726e-03
      1.38413440e-03 2.59679533e-03 1.42135413e-03 6.43311394e-03
      7.02304766e-04 1.91215368e-03 1.29703654e-03 1.57855172e-03
      9.77363670e-04 9.93088470e-04 1.39309396e-03 4.31114080e-04
      1.44849776e-03 2.81236280e-04 5.41113259e-04 3.19938408e-04
      8.68041767e-04</_>
    <_>
      4.69845632e-04 2.03890668e-04 5.86145441e-04 2.19458138e-06
      1.22251862e-03 1.67242575e-07 3.89230932e-04 1.30047149e-04
      4.68111364e-04 3.00657121e-03 1.44942210e-03 1.80175086e-03
      2.86939438e-04 2.84270942e-03 3.41390347e-04 8.38911219e-04
      9.34896234e-04 2.48922012e-03 1.10899862e-02 9.76356771e-03
      1.77054796e-02 1.49385035e-02 7.05101993e-03 2.56562582e-03
      4.78186132e-03 4.48003365e-03 9.92416497e-03 3.03261690e-02
      2.19148081e-02 2.11670380e-02 1.80365592e-02 8.56550317e-03
      5.69129502e-03 1.50974346e-02 2.77128704e-02 4.82907109e-02
      4.78110788e-03 4.71108314e-03 2.60941405e-03 2.05483846e-03
      3.79480235e-03 3.99805559e-03 9.03168600e-03 6.85831811e-03
      5.49487164e-03 1.90122984e-03 9.02405067e-04 1.68887188e-03
      3.53156996e-04 2.32756860e-03 3.70699185e-04 1.44388049e-03
      6.06933550e-04 1.94560783e-03 2.60722544e-02 3.07708010e-02
      5.02034575e-02 8.02850649e-02 3.44071425e-02 2.74395850e-02
      2.75805797e-02 2.61738002e-02 1.86468866e-02 7.87334070e-02
      9.36176330e-02 1.46549895e-01 1.94450811e-01 1.47194177e-01
      1.31723598e-01 9.58333611e-02 6.62280843e-02 5.07454090e-02
      1.89062417e-01 1.73520774e-01 1.54870033e-01 1.45897999e-01
      1.17981464e-01 8.27014595e-02 1.00910760e-01 1.01426490e-01
      1.50595680e-01 3.92565094e-02 4.84573804e-02 2.56168991e-02
      2.32444797e-02 1.68859176e-02 1.33122951e-02 1.97803993e-02
      1.79947857e-02 1.76484883e-02 2.99521605e-03 3.40621057e-03
      4.43190895e-03 4.67549032e-03 7.98697956e-03 2.20033689e-03
      2.43744231e-03 1.28973823e-03 2.49064039e-03 6.91798553e-02
      5.05392253e-02 1.53566405e-01 2.24895343e-01 2.24895343e-01
      6.96330890e-02 6.02686629e-02 5.16918637e-02 4.55236472e-02
      7.86166936e-02 1.00394554e-01 1.26958251e-01 2.24895343e-01
      2.24895343e-01 2.24895343e-01 1.85543343e-01 1.20771453e-01
      6.51068315e-02 1.15312949e-01 1.32570028e-01 8.81543756e-02
      5.71311601e-02 7.93386027e-02 7.75725842e-02 6.13797456e-02
      5.61147071e-02 8.29842314e-02 8.43637064e-03 9.11993161e-03
      9.68189724e-03 6.39492925e-03 1.09107262e-02 4.58963914e-03
      4.30426095e-03 3.59006622e-03 5.25338994e-03 3.03456001e-03
      5.35260979e-03 6.63102651e-03 1.04064634e-02 1.06012374e-02
      7.07544480e-03 6.36108546e-03 6.05921960e-03 3.52650159e-03
      1.40350983e-01 7.47292489e-02 8.31061825e-02 1.27698481e-01
      1.35390073e-01 6.19853549e-02 5.02969027e-02 7.34840184e-02
      1.69902503e-01 1.02402546e-01 4.91315722e-02 5.34908064e-02
      1.21180445e-01 1.85350657e-01 1.45502537e-01 9.41374078e-02
      4.45877127e-02 8.01143721e-02 1.33526428e-02 1.18235182e-02
      1.04156332e-02 1.14887105e-02 2.11914834e-02 1.67408455e-02
      1.03354789e-02 6.27760775e-03 1.02087241e-02 1.27054995e-03
      1.49637414e-03 2.59100879e-03 2.02086032e-03 6.57978840e-03
      7.59414397e-04 1.31298078e-03 5.37853746e-04 1.04108511e-03
      6.79538818e-04 3.13546800e-04 4.24001948e-04 1.71009378e-04
      9.26638953e-04 2.22742659e-04 7.25601334e-04 7.46391364e-04
      8.62922054e-04 1.45098157e-02 2.37548747e-03 1.79877027e-03
      1.10238267e-03 2.75935396e-03 7.53651198e-04 3.02426144e-03
      6.61738589e-03 2.40169913e-02 1.61234252e-02 5.43688936e-03
      6.26732921e-03 3.22744390e-03 7.71008246e-03 1.56894606e-03
      3.19666113e-03 3.01037636e-03 1.14579825e-02 2.12365598e-03
      2.29457603e-03 2.55887629e-03 1.48559955e-03 5.54908719e-03
      1.24432961e-03 2.18999316e-03 1.27972045e-03 1.61406596e-03
      9.47718625e-04 9.42046696e-04 1.26360892e-03 3.74769617e-04
      1.59386895e-03 1.53570334e-04 7.37309456e-04 4.37813665e-04
      8.56196100e-04</_>
    <_>
      4.90560487e-04 4.34123591e-04 1.09776680e-03 1.96212190e-04
      2.22715898e-03 2.90151860e-04 6.74568582e-04 2.61147681e-04
      4.87202924e-04 1.52457494e-03 1.17113837e-03 2.40861694e-03
      9.33170260e-04 4.22116462e-03 2.10184851e-04 1.36723358e-03
      4.67882579e-04 1.42935000e-03 1.99725479e-03 1.37176551e-03
      2.77906423e-03 6.12802280e-04 6.68710703e-03 1.38407026e-03
      3.09618982e-03 1.00453116e-03 1.91864080e-03 1.43438962e-03
      5.56625251e-04 1.27635023e-03 1.30957967e-04 4.29846998e-03
      2.12892570e-04 1.81610975e-03 6.76021096e-04 1.41824933e-03
      7.21367425e-04 2.83645320e-04 5.57982130e-04 3.15569523e-05
      1.52494397e-03 3.59937949e-05 7.00466102e-04 3.70621972e-04
      7.29673484e-04 1.25241419e-03 8.53040663e-04 1.91404950e-03
      2.03480362e-04 4.06253245e-03 2.70593882e-04 1.43223873e-03
      7.01263838e-04 1.25659967e-03 4.39020805e-03 2.13239784e-03
      3.63124441e-03 6.91900263e-04 8.53164494e-03 6.80384168e-04
      3.49731767e-03 1.29394711e-03 4.16091690e-03 9.48701240e-03
      7.61800306e-03 9.36833397e-03 4.55837604e-03 1.22111933e-02
      4.66314284e-03 9.34359431e-03 8.43129959e-03 9.94904898e-03
      1.97466165e-02 1.26531385e-02 7.67924357e-03 3.08081182e-03
      7.29426835e-03 1.95123593e-03 9.98895522e-03 2.05196477e-02
      2.87298597e-02 3.99994617e-03 9.24894761e-04 1.14681129e-03
      3.44804925e-04 3.50488140e-03 7.96088949e-04 4.26625041e-03
      4.04244661e-03 4.99485759e-03 2.45360658e-03 1.27234880e-03
      2.76297284e-03 2.30344478e-04 4.03253175e-03 8.66184928e-05
      1.81858044e-03 1.34768919e-03 2.53049238e-03 2.31367014e-02
      2.29976997e-02 2.73647197e-02 2.47328486e-02 1.84317548e-02
      7.96862412e-03 1.20910089e-02 1.33872125e-02 1.69656407e-02
      7.22637773e-02 8.53514671e-02 1.68000937e-01 1.93252176e-01
      8.56470466e-02 3.39652784e-02 4.34874818e-02 5.13546839e-02
      6.67901933e-02 2.03586593e-01 1.79435879e-01 1.78045541e-01
      1.78738743e-01 1.06783599e-01 6.21991791e-02 1.08449206e-01
      1.69518590e-01 2.13260815e-01 4.67992909e-02 5.39462194e-02
      2.61023100e-02 2.40542907e-02 2.40124818e-02 2.53719520e-02
      4.92403172e-02 3.93233486e-02 3.25965136e-02 2.63852091e-03
      1.76463509e-03 2.58788443e-03 1.50182203e-03 3.58127849e-03
      1.24909182e-03 2.23878794e-03 1.31999038e-03 2.39228853e-03
      3.77200022e-02 3.66095267e-02 1.09743409e-01 1.97913542e-01
      9.45057347e-02 5.60427085e-02 6.15208820e-02 5.03131859e-02
      2.53641903e-02 9.85029936e-02 1.34901941e-01 1.68776020e-01
      2.13260815e-01 2.13260815e-01 2.13260815e-01 1.84378237e-01
      1.22348733e-01 7.38866553e-02 2.13260815e-01 2.13260815e-01
      1.65633857e-01 1.38486207e-01 1.46293879e-01 1.11401834e-01
      1.13883592e-01 1.08950198e-01 1.66944757e-01 3.38569209e-02
      4.49734703e-02 2.35384796e-02 1.85393915e-02 1.81031879e-02
      1.17412033e-02 1.25155989e-02 1.09942732e-02 1.57246552e-02
      1.11990515e-03 2.19110772e-03 2.97738519e-03 4.34853509e-03
      4.70154500e-03 1.99464429e-03 1.07534300e-03 7.65607227e-04
      7.70526123e-04 3.97905149e-02 2.88332794e-02 6.41016886e-02
      1.26953080e-01 1.15850158e-01 3.29579636e-02 2.41851266e-02
      2.15406362e-02 2.19952744e-02 1.84089448e-02 2.37039477e-02
      4.18903679e-02 1.24017827e-01 1.44934326e-01 9.67071205e-02
      6.36850521e-02 3.86402532e-02 2.00517122e-02 1.26928305e-02
      1.98461972e-02 1.51081998e-02 1.24899382e-02 2.05207467e-02
      1.40160946e-02 1.16057042e-02 1.29614556e-02 1.13813290e-02
      6.99321274e-04 8.76967097e-04 1.39849423e-03 1.22620282e-03
      4.14753286e-03 4.05323197e-04 7.69922510e-04 6.01260632e-04
      6.73123635e-04</_>
    <_>
      4.41951677e-04 2.41648449e-04 5.52334066e-04 1.05331164e-04
      2.05542683e-03 1.00196041e-04 7.19464500e-04 3.11209296e-04
      4.44618403e-04 1.61341298e-03 5.80779859e-04 1.56577991e-03
      3.50534421e-04 3.82626988e-03 4.23473830e-04 1.55862852e-03
      6.07309979e-04 1.61858264e-03 2.04998744e-03 7.10322172e-04
      2.13315547e-03 5.78698528e-04 5.41296601e-03 1.05756195e-03
      2.60144915e-03 8.65350710e-04 2.06216355e-03 2.51642289e-03
      8.56159255e-04 1.04797026e-03 3.62407736e-04 4.15790780e-03
      8.64692440e-04 2.83372635e-03 1.51607324e-03 2.59478809e-03
      7.94143125e-04 2.93353485e-04 3.64798674e-04 3.71471215e-05
      1.51913101e-03 4.78553120e-04 1.21834769e-03 7.70786952e-04
      8.49855540e-04 1.39631925e-03 6.37542922e-04 1.72747101e-03
      1.65151039e-04 4.18649008e-03 1.61909673e-04 1.82479538e-03
      7.26553961e-04 1.40791386e-03 3.85753764e-03 1.75192754e-03
      3.49335698e-03 8.20882386e-04 8.73650797e-03 5.69780183e-04
      3.52783618e-03 2.02879100e-03 3.98153346e-03 1.85974520e-02
      1.36590023e-02 1.25963511e-02 1.08178025e-02 1.47992708e-02
      4.44249855e-03 7.96548650e-03 8.57482385e-03 1.52293826e-02
      4.47383337e-02 4.79916111e-02 8.77081528e-02 7.27725029e-02
      3.08993943e-02 1.20788813e-02 1.12767257e-02 2.52748206e-02
      5.33368737e-02 5.08553460e-02 4.06454466e-02 2.28738077e-02
      1.80709381e-02 1.57321468e-02 1.42768789e-02 2.98611224e-02
      4.50529158e-02 6.29658401e-02 2.67901248e-03 4.26401675e-04
      1.27375277e-03 1.09359116e-05 2.24522431e-03 1.36110204e-04
      2.52132583e-03 8.78382241e-04 2.69051478e-03 9.13549587e-03
      7.57280132e-03 2.37575620e-02 4.13413569e-02 2.09417231e-02
      2.31572986e-03 6.42538955e-03 4.81074257e-03 1.01409843e-02
      8.83211568e-02 8.81885961e-02 1.60073474e-01 2.27943286e-01
      1.27340943e-01 1.25439838e-01 1.08805664e-01 9.89110097e-02
      5.98205663e-02 1.38595447e-01 1.51246518e-01 2.27943286e-01
      2.27943286e-01 2.27943286e-01 1.96264550e-01 1.34710744e-01
      1.24172688e-01 1.07265867e-01 1.32386148e-01 1.34238109e-01
      7.27118328e-02 5.68436868e-02 7.12553337e-02 4.99423407e-02
      6.65040463e-02 7.25431591e-02 1.01122953e-01 1.68633624e-03
      3.25144618e-04 9.72955895e-04 0. 2.03754101e-03 1.16950810e-04
      1.32313638e-03 4.48290986e-04 1.69156387e-03 2.56031044e-02
      1.96975954e-02 5.38995750e-02 1.07564203e-01 1.01723984e-01
      1.37657672e-02 1.03616184e-02 1.33450078e-02 1.88508499e-02
      8.55338275e-02 6.17933907e-02 1.79949611e-01 2.27943286e-01
      2.27943286e-01 1.50638059e-01 1.21287376e-01 9.37277153e-02
      6.16473742e-02 6.48237392e-02 9.49252546e-02 8.50356072e-02
      1.84800491e-01 2.19090864e-01 1.91133678e-01 1.14707485e-01
      8.62114206e-02 6.26730397e-02 3.02771013e-02 3.60378474e-02
      2.14475337e-02 1.07432660e-02 1.28435167e-02 1.01627810e-02
      8.83884169e-03 9.91008151e-03 2.06879042e-02 8.10766418e-04
      1.63851597e-04 4.52674401e-04 4.38248389e-06 9.65431915e-04
      2.36587493e-05 4.97100758e-04 2.39772096e-04 8.24074144e-04
      2.37425473e-02 1.73498914e-02 2.13794932e-02 3.07387169e-02
      2.22236626e-02 1.48268687e-02 1.58383064e-02 2.51814388e-02
      3.03393174e-02 1.17873065e-01 4.32659239e-02 4.63519767e-02
      7.49431327e-02 8.35150033e-02 5.22524230e-02 4.48127985e-02
      4.75538112e-02 1.19749554e-01 2.84714922e-02 1.33171901e-02
      1.22397691e-02 2.61796899e-02 4.82580923e-02 4.24220487e-02
      2.72872653e-02 1.20445946e-02 1.33433277e-02 1.23496540e-03
      1.31241779e-03 1.56882696e-03 1.22080033e-03 3.05629685e-03
      9.47116583e-04 7.96585809e-04 5.09855570e-04 8.99979728e-04</_>
    <_>
      4.62640659e-04 3.38815793e-04 6.28171954e-04 6.54668984e-05
      1.38403499e-03 8.46148614e-05 5.86741196e-04 2.37525965e-04
      4.45169338e-04 1.49265688e-03 5.25698066e-04 1.36110454e-03
      3.68729176e-04 2.65047932e-03 5.44476148e-04 1.62540062e-03
      6.10103831e-04 1.49693142e-03 2.11885013e-03 1.15915341e-03
      1.95488567e-03 5.85541420e-04 4.14821971e-03 1.69256935e-03
      3.06926901e-03 1.46918651e-03 2.10094266e-03 1.55989791e-03
      6.45194552e-04 1.02078298e-03 1.24278347e-04 2.67700292e-03
      3.65419895e-04 1.93897693e-03 1.85596792e-03 1.90798345e-03
      6.78192067e-04 1.71013104e-04 4.09464526e-04 7.96747845e-05
      1.04268536e-03 1.30027707e-04 7.35744077e-04 5.05349890e-04
      7.89398386e-04 1.29617273e-03 6.80663798e-04 1.40455668e-03
      7.04025151e-05 2.45833863e-03 1.16173607e-04 1.16826757e-03
      5.62791131e-04 1.29090040e-03 7.79115641e-03 6.58228341e-03
      5.47883147e-03 4.63654660e-03 7.58689549e-03 1.66349171e-03
      5.22870524e-03 3.64737352e-03 6.29177876e-03 3.05232089e-02
      3.41772996e-02 5.84542938e-02 5.53838834e-02 2.32679490e-02
      7.46373553e-03 1.23414285e-02 1.38448142e-02 2.79428251e-02
      9.35708582e-02 7.59524032e-02 6.39226362e-02 6.04716912e-02
      3.00943721e-02 1.95258446e-02 3.54912356e-02 7.22888857e-02
      1.25579789e-01 1.61827281e-02 1.87139474e-02 8.88065528e-03
      7.58056203e-03 9.43918247e-03 1.12903472e-02 2.06289217e-02
      1.92008521e-02 1.56471357e-02 2.46570562e-03 1.50078349e-03
      2.21229019e-03 1.03421940e-03 3.31000844e-03 7.28567888e-04
      2.27973657e-03 1.31770270e-03 2.48688203e-03 3.49181592e-02
      3.99610624e-02 8.64983052e-02 1.26109824e-01 5.72786070e-02
      3.92199941e-02 4.44453470e-02 4.15697508e-02 2.57549454e-02
      9.80107486e-02 1.25184461e-01 2.05264226e-01 2.14000016e-01
      2.14000016e-01 1.88646644e-01 1.42930537e-01 1.01743184e-01
      8.66562352e-02 2.14000016e-01 2.14000016e-01 1.95248738e-01
      1.92939475e-01 1.65148139e-01 1.17132097e-01 1.34818792e-01
      1.48271695e-01 2.08430782e-01 4.87992987e-02 6.39474094e-02
      3.30511555e-02 2.62121558e-02 2.51819026e-02 1.74733996e-02
      2.27479804e-02 2.15235464e-02 2.33370010e-02 2.10031332e-03
      2.84278439e-03 2.94956472e-03 4.85052913e-03 6.16289070e-03
      2.15199008e-03 2.56255548e-03 1.45610480e-03 1.59559934e-03
      5.53291552e-02 3.88366543e-02 1.17785066e-01 2.14000016e-01
      2.06800640e-01 5.29058687e-02 5.10753281e-02 4.41377461e-02
      3.85149084e-02 4.94850539e-02 7.52134845e-02 9.66318473e-02
      2.14000016e-01 2.14000016e-01 2.14000016e-01 1.45344153e-01
      8.46106634e-02 5.87875545e-02 7.29411617e-02 9.70408693e-02
      5.55261672e-02 3.47396433e-02 5.03918156e-02 5.32489344e-02
      3.85486521e-02 3.41406167e-02 5.86753301e-02 4.51382017e-03
      5.78657910e-03 4.61084396e-03 3.59400292e-03 8.57562385e-03
      2.11459142e-03 2.68453802e-03 2.07250612e-03 2.47842749e-03
      1.38149492e-03 2.09102896e-03 2.39068922e-03 4.68789320e-03
      3.80482222e-03 2.33412767e-03 2.79640360e-03 2.92078406e-03
      1.43114279e-03 6.66852146e-02 2.93205902e-02 3.05072926e-02
      4.88216393e-02 4.43181396e-02 2.16156114e-02 2.17984598e-02
      3.47271003e-02 7.91296884e-02 4.97528613e-02 2.09377259e-02
      1.91093627e-02 3.94601896e-02 7.05827028e-02 5.82765117e-02
      3.89592871e-02 1.77692100e-02 3.50778438e-02 5.00099501e-03
      4.13184753e-03 3.69004230e-03 4.36735572e-03 8.34645238e-03
      7.09080976e-03 4.09793667e-03 1.96992350e-03 3.66910733e-03
      5.75235812e-04 6.97134295e-04 8.21852824e-04 7.41810654e-04
      3.06973327e-03 1.65479549e-04 4.24216531e-04 1.28405358e-04
      4.47967846e-04</_>
    <_>
      4.30787739e-04 1.62357988e-04 4.28419182e-04 0. 2.43791169e-03
      1.19233091e-05 5.47200150e-04 1.94322041e-04 4.29589534e-04
      1.36970473e-03 7.74973072e-04 1.91029639e-03 2.03309755e-04
      4.90453606e-03 1.02844060e-04 1.41089130e-03 5.48770244e-04
      1.35401357e-03 2.98346952e-03 1.20756146e-03 2.39570811e-03
      3.80580081e-04 5.17909508e-03 4.16443712e-04 1.90765329e-03
      7.81689014e-04 2.90544261e-03 3.91101558e-03 2.07287748e-03
      3.42007983e-03 1.72995497e-03 4.21517622e-03 9.02934175e-04
      2.50811805e-03 1.57733436e-03 3.39448778e-03 9.96251497e-03
      6.29053544e-03 7.45516457e-03 5.71123743e-03 3.39295878e-03
      1.02287775e-03 1.85299804e-03 5.37620671e-03 1.20339058e-02
      1.62603322e-03 5.01745206e-04 1.55742909e-03 1.14586575e-04
      4.04021842e-03 1.02806043e-04 2.40029953e-03 1.05255214e-03
      1.70940789e-03 5.04445145e-03 1.61219668e-03 4.70283581e-03
      1.31667723e-04 6.00362336e-03 1.58969885e-06 4.55999840e-03
      2.26948550e-03 5.18595800e-03 1.90820452e-02 1.86273213e-02
      3.80497798e-02 4.56247963e-02 2.17094421e-02 8.39506276e-03
      1.46134840e-02 1.37901735e-02 1.18557662e-02 5.78395016e-02
      6.21565953e-02 1.00737058e-01 1.21461786e-01 7.22405389e-02
      6.40299097e-02 5.38987443e-02 5.39238639e-02 4.10535373e-02
      6.27425835e-02 5.68659119e-02 9.69236046e-02 9.97495055e-02
      6.83377832e-02 3.74584198e-02 3.30033675e-02 3.88281941e-02
      6.27301559e-02 2.30357749e-03 3.03176435e-04 9.89265856e-04
      1.67827340e-04 5.23615861e-03 4.08667111e-04 4.55200393e-03
      1.79758831e-03 2.40642182e-03 6.53985143e-03 1.84792140e-03
      4.98491898e-03 7.08331820e-04 6.77359710e-03 3.47821740e-04
      5.75305475e-03 2.13790825e-03 6.43867673e-03 6.07363768e-02
      4.27773222e-02 1.74845904e-01 2.30282351e-01 2.19887480e-01
      4.55788486e-02 5.06386943e-02 3.86818051e-02 3.74769606e-02
      7.38442391e-02 8.23246911e-02 1.86122417e-01 2.30282351e-01
      2.30282351e-01 2.30282351e-01 2.11697429e-01 1.29019082e-01
      5.84075041e-02 8.07889253e-02 1.03537679e-01 6.82512671e-02
      7.01615587e-02 1.11419141e-01 9.84548330e-02 6.54061437e-02
      4.55285572e-02 6.41003400e-02 1.32292253e-03 3.96832911e-04
      1.44242344e-03 5.21495589e-04 5.75887086e-03 6.73706818e-04
      2.85877474e-03 1.03480346e-03 1.36219244e-03 5.39832423e-03
      2.30658310e-03 4.06352570e-03 1.38180878e-03 1.00547615e-02
      9.16021527e-04 4.50560730e-03 1.47361518e-03 4.97586746e-03
      1.55890614e-01 1.04873121e-01 1.51244760e-01 2.30282351e-01
      1.98935524e-01 8.64088088e-02 6.72245696e-02 9.75055546e-02
      1.64874479e-01 1.57364413e-01 7.61305988e-02 1.02503918e-01
      2.30282351e-01 2.30282351e-01 1.68398231e-01 1.23365805e-01
      7.06959441e-02 1.35479674e-01 1.29278945e-02 1.38604967e-02
      1.27502792e-02 2.18530763e-02 3.61405611e-02 3.61139663e-02
      2.40878221e-02 1.21378899e-02 1.10506741e-02 7.08342413e-04
      1.49860804e-04 3.72861774e-04 4.41202246e-06 2.23572273e-03
      6.31896954e-04 1.44704781e-03 6.68942987e-04 7.62760523e-04
      2.63928599e-03 9.33850533e-04 1.64922210e-03 2.90489348e-04
      3.38081340e-03 8.32335354e-05 1.62273995e-03 8.77055107e-04
      2.53095315e-03 2.64531560e-02 5.40976785e-03 6.98823901e-03
      7.38703087e-03 1.25397034e-02 1.04703195e-02 1.33609520e-02
      2.84870919e-02 4.76813279e-02 5.11018522e-02 1.22840405e-02
      1.04287881e-02 1.14897434e-02 1.24768447e-02 6.10307092e-03
      7.49580003e-03 1.24136955e-02 4.44526374e-02 2.84334272e-03
      1.97061663e-03 2.03166204e-03 2.33960873e-03 4.70078364e-03
      1.57553947e-03 1.93589157e-03 1.66401651e-03 1.55115512e-03</_>
    <_>
      3.36173631e-04 1.86168530e-04 4.90281091e-04 2.40834343e-05
      1.87938090e-03 1.60161901e-04 5.65631432e-04 1.82242307e-04
      3.34749027e-04 1.35972025e-03 3.95524956e-04 1.07665686e-03
      7.93041618e-05 3.21424170e-03 1.49128246e-04 1.06398482e-03
      4.03357262e-04 1.36458408e-03 3.55524803e-03 1.26836426e-03
      1.74518116e-03 1.95332774e-04 3.66800767e-03 3.76212440e-04
      1.76127511e-03 1.16891426e-03 3.45554762e-03 1.12387417e-02
      8.42458569e-03 9.61397402e-03 9.32699535e-03 6.86783064e-03
      1.12501602e-03 2.69270572e-03 5.63778542e-03 1.25139123e-02
      8.63197818e-03 4.04310413e-03 2.40761088e-03 2.54002726e-03
      2.47758627e-03 2.25373683e-03 7.06147123e-03 1.12609277e-02
      1.43529959e-02 1.71803893e-03 4.01227124e-04 1.01461739e-03 0.
      2.21218914e-03 3.10464529e-05 1.61801279e-03 5.48903714e-04
      1.70790718e-03 5.34321507e-03 3.90154845e-03 9.19557922e-03
      9.29540489e-03 8.90639797e-03 1.93502579e-03 4.38873563e-03
      2.42696889e-03 4.96816915e-03 5.04086800e-02 5.43827191e-02
      6.86103776e-02 9.18260738e-02 4.65762466e-02 4.47161645e-02
      4.49911729e-02 4.01703306e-02 3.46275866e-02 8.06162879e-02
      8.56851265e-02 1.69041857e-01 1.93295613e-01 1.16100237e-01
      7.19195828e-02 5.71345910e-02 5.70745058e-02 6.89785108e-02
      8.93893018e-02 8.71678814e-02 4.62382808e-02 4.60144617e-02
      3.86531726e-02 2.78500617e-02 4.49030846e-02 5.36580905e-02
      7.35827312e-02 2.33584829e-03 3.73513700e-04 9.79905366e-04
      2.93681705e-06 2.27755588e-03 9.98258765e-05 1.38536608e-03
      5.83362242e-04 2.35463353e-03 1.74430199e-02 1.34806344e-02
      5.11115566e-02 1.01299793e-01 8.29096735e-02 1.30367940e-02
      1.13087688e-02 9.57467500e-03 1.32204536e-02 7.56173581e-02
      6.72003627e-02 2.10179135e-01 2.25387976e-01 2.25387976e-01
      1.82660833e-01 1.54044896e-01 1.08515717e-01 5.84869422e-02
      1.03658296e-01 1.51864678e-01 1.25115827e-01 2.11174354e-01
      2.25387976e-01 2.25387976e-01 1.61094964e-01 1.03193969e-01
      8.87647197e-02 6.18185475e-02 6.83081746e-02 4.06274013e-02
      2.23170649e-02 2.46183127e-02 2.17723157e-02 2.47932374e-02
      2.38237903e-02 4.30209525e-02 1.12778950e-03 4.27277497e-04
      1.28578488e-03 2.52362806e-05 2.49921787e-03 9.07376125e-06
      1.16346381e-03 4.81379015e-04 1.14727812e-03 4.48841527e-02
      4.32944633e-02 5.71664385e-02 8.45565125e-02 7.37469122e-02
      3.35140638e-02 2.69951336e-02 3.57924625e-02 5.06920628e-02
      1.87915027e-01 9.85743552e-02 1.28810450e-01 2.25387976e-01
      2.25387976e-01 1.49332955e-01 9.28366557e-02 8.86295140e-02
      1.83246046e-01 4.65273783e-02 3.23399827e-02 3.24919634e-02
      9.58866403e-02 1.34729788e-01 1.20374359e-01 6.77942783e-02
      3.41794193e-02 3.48849371e-02 3.69793689e-03 3.34340031e-03
      3.67917330e-03 3.88980517e-03 6.98575517e-03 2.44486262e-03
      1.97543320e-03 2.11974117e-03 2.99857394e-03 8.05683318e-04
      1.40385717e-04 4.25814389e-04 1.17142999e-05 5.64228685e-04 0.
      5.30139019e-04 1.77163602e-04 8.05683318e-04 6.36861846e-03
      2.30162148e-03 3.24883335e-03 2.71067768e-03 5.49413590e-03
      4.57602600e-03 7.19817169e-03 1.11164423e-02 1.42791569e-02
      5.12982160e-02 1.05668399e-02 9.19106603e-03 9.69142001e-03
      9.83101130e-03 7.14142341e-03 8.80992506e-03 1.78628992e-02
      5.99279180e-02 1.57865472e-02 6.68057799e-03 5.83220180e-03
      7.72682577e-03 9.38018784e-03 5.16050775e-03 5.48853166e-03
      3.79772414e-03 7.80692743e-03 8.85490852e-04 6.78854529e-04
      1.27537653e-03 1.09068130e-03 2.53239437e-03 5.13779407e-04
      8.86774564e-04 5.30080637e-04 8.45726230e-04</_>
    <_>
      3.86425061e-04 1.38603398e-04 4.27156367e-04 3.96982723e-05
      9.87475622e-04 1.01049100e-05 3.51686904e-04 1.19912314e-04
      3.86776141e-04 1.97679829e-03 6.57448196e-04 9.40346275e-04
      9.36734796e-05 2.66655255e-03 4.31903754e-05 7.19183648e-04
      4.37197741e-04 1.89195608e-03 6.88140700e-03 6.21930463e-03
      8.00304767e-03 6.89105038e-03 6.37123222e-03 1.83250755e-03
      2.92926654e-03 2.69612228e-03 6.72393292e-03 1.81154404e-02
      1.11122141e-02 9.66629479e-03 8.21620505e-03 5.31067187e-03
      3.24135087e-03 9.87308007e-03 1.99937541e-02 3.20356190e-02
      2.06593960e-03 8.39664659e-04 6.68697874e-04 4.78635251e-04
      1.80182827e-03 2.47203372e-03 5.95563697e-03 4.91599040e-03
      3.92279495e-03 1.60991179e-03 8.50751298e-04 1.53744139e-03
      4.23854013e-04 2.09319172e-03 1.14923787e-04 1.49929314e-03
      6.74767653e-04 1.54306914e-03 2.30556522e-02 2.59018969e-02
      3.62269878e-02 5.01368530e-02 1.88712757e-02 1.70435607e-02
      1.83501430e-02 1.74907446e-02 1.44949518e-02 6.94312081e-02
      7.61950612e-02 1.47207439e-01 1.78026333e-01 1.04534604e-01
      7.30492696e-02 5.69596961e-02 5.16671576e-02 5.17990328e-02
      1.69936642e-01 1.55725494e-01 1.44849300e-01 1.45506263e-01
      1.02893047e-01 6.48327991e-02 8.33976641e-02 1.05143152e-01
      1.62524998e-01 3.69131230e-02 5.17469458e-02 2.37764306e-02
      2.12051012e-02 1.85074210e-02 1.57200117e-02 2.37741657e-02
      2.09947620e-02 2.10358631e-02 2.48350296e-03 2.07688636e-03
      2.64620478e-03 2.73424177e-03 6.06146036e-03 1.28800003e-03
      2.84613553e-03 1.79393648e-03 2.20566127e-03 4.58006747e-02
      3.88992876e-02 1.41652986e-01 2.19662830e-01 1.87847137e-01
      6.39108196e-02 6.62625059e-02 5.41663691e-02 3.12073138e-02
      9.10546109e-02 1.13272309e-01 1.46913797e-01 2.19662830e-01
      2.19662830e-01 2.19662830e-01 2.02730700e-01 1.22036323e-01
      6.60400987e-02 1.60406828e-01 1.71615526e-01 1.13236308e-01
      7.66090974e-02 1.00901842e-01 9.28867906e-02 8.15939382e-02
      7.18570352e-02 1.09996885e-01 1.51305022e-02 1.88753754e-02
      1.27047850e-02 8.35304614e-03 1.39967976e-02 6.66045910e-03
      6.23713201e-03 6.23775227e-03 7.74217770e-03 3.05545353e-03
      4.28696675e-03 7.25356955e-03 1.06934253e-02 9.26117413e-03
      6.12116326e-03 4.91413474e-03 5.05983597e-03 3.23372474e-03
      1.25041097e-01 7.16441870e-02 9.85476673e-02 1.69887140e-01
      1.62364244e-01 6.94306716e-02 4.67300564e-02 6.43839240e-02
      1.34447128e-01 7.66092688e-02 5.32442890e-02 5.36496863e-02
      1.64448485e-01 2.11291954e-01 1.77868918e-01 9.49077159e-02
      5.28671704e-02 6.06971309e-02 1.26202451e-02 1.54366512e-02
      1.12561788e-02 1.60771776e-02 2.34407745e-02 2.32918859e-02
      1.29136257e-02 9.66440141e-03 1.21332295e-02 1.20826962e-03
      1.15260866e-03 2.31219037e-03 2.02579820e-03 7.02069141e-03
      5.55931299e-04 1.03498739e-03 4.90016537e-04 1.18840218e-03
      7.79518741e-04 3.03670706e-04 6.69034198e-04 6.76388852e-04
      1.69170089e-03 1.07601366e-03 1.33800053e-03 1.67390157e-03
      1.20094838e-03 2.65013576e-02 5.71042579e-03 5.36058471e-03
      4.96854028e-03 6.44563371e-03 4.73170076e-03 6.71650330e-03
      1.46070663e-02 4.28405814e-02 2.90023312e-02 1.21767260e-02
      9.79078375e-03 1.02439271e-02 1.35097299e-02 6.29183557e-03
      6.75655203e-03 5.12920460e-03 1.92202646e-02 2.37394194e-03
      2.21770746e-03 3.26597760e-03 2.55622156e-03 6.16563717e-03
      1.20262557e-03 2.28332542e-03 1.20476237e-03 1.95499277e-03
      6.74728944e-04 7.03134108e-04 1.12361857e-03 5.66756644e-04
      2.13666866e-03 2.62385147e-04 6.83695369e-04 2.87395174e-04
      6.08594331e-04</_>
    <_>
      6.69355271e-04 1.78570073e-04 5.38946886e-04 2.94487763e-05
      1.13112375e-03 5.29051104e-05 6.79036137e-04 2.18278976e-04
      6.68676803e-04 1.92199019e-03 1.29487552e-03 2.23449781e-03
      6.28649606e-04 3.30905779e-03 2.93160236e-04 1.43774005e-03
      9.09414259e-04 1.98194548e-03 1.59626100e-02 1.45182088e-02
      1.45177972e-02 1.67938806e-02 1.15777571e-02 5.20140631e-03
      5.58212586e-03 7.27667660e-03 1.14287641e-02 2.46019419e-02
      2.83338036e-02 5.91122881e-02 6.93198964e-02 2.87041441e-02
      1.00439005e-02 1.08808074e-02 1.66212711e-02 2.82379854e-02
      2.94321757e-02 2.91764420e-02 1.50193060e-02 1.60054564e-02
      1.20356213e-02 1.00774234e-02 1.84147079e-02 2.29705125e-02
      3.26777957e-02 1.80798490e-03 2.59352877e-04 6.93192647e-04
      2.42026490e-05 1.49882410e-03 2.01131788e-05 1.37714029e-03
      4.93770465e-04 1.80905929e-03 7.45530054e-03 6.16182107e-03
      3.19899470e-02 5.36537990e-02 3.57115231e-02 6.86169975e-03
      6.01465441e-03 3.90120293e-03 6.90265000e-03 5.58633246e-02
      5.84179014e-02 1.47830099e-01 2.29715571e-01 1.68288529e-01
      1.26398221e-01 1.09253556e-01 8.58593956e-02 4.02647257e-02
      1.00414529e-01 1.29071802e-01 1.18406743e-01 1.83693558e-01
      2.12804943e-01 1.79318398e-01 1.30864367e-01 8.33877474e-02
      7.58441612e-02 7.23731145e-02 7.74764866e-02 4.35516499e-02
      2.58179866e-02 3.04911844e-02 2.56403107e-02 3.04461531e-02
      3.11024487e-02 4.84411977e-02 2.03089206e-03 4.71188658e-04
      1.35226466e-03 2.85199694e-05 3.42761795e-03 2.87209896e-05
      1.70451717e-03 6.24496955e-04 2.03791540e-03 5.42975031e-02
      4.77283224e-02 7.72242248e-02 1.34809688e-01 1.24938756e-01
      3.95645723e-02 2.49781907e-02 3.42036039e-02 4.74978201e-02
      1.99499667e-01 1.21349968e-01 1.99122235e-01 2.29715571e-01
      2.29715571e-01 2.02386945e-01 1.33384556e-01 1.14836432e-01
      1.60460770e-01 5.62969632e-02 6.31810278e-02 6.06079437e-02
      1.78340852e-01 2.29715571e-01 1.75211310e-01 1.15723558e-01
      6.32222891e-02 5.43358810e-02 1.04112979e-02 1.31161008e-02
      1.15271807e-02 6.92169368e-03 9.09117050e-03 4.39727306e-03
      3.68887093e-03 4.35103662e-03 7.97045883e-03 2.35391338e-03
      4.95424960e-04 9.30317736e-04 1.40525575e-04 2.40568025e-03
      7.56731897e-05 1.18978601e-03 6.84196362e-04 2.37267837e-03
      2.99136490e-02 2.46456228e-02 2.71586105e-02 2.95205861e-02
      2.60686781e-02 1.96411610e-02 2.33235359e-02 4.57715131e-02
      5.44835255e-02 1.90862626e-01 5.76774552e-02 5.46232872e-02
      6.78727031e-02 7.20690936e-02 5.63022904e-02 5.07940911e-02
      7.83363879e-02 2.12902740e-01 5.37139624e-02 2.39346102e-02
      1.99998487e-02 3.07626799e-02 5.60596511e-02 4.39626016e-02
      3.44291553e-02 1.88737754e-02 2.46000998e-02 2.13488564e-03
      2.45942012e-03 4.24431683e-03 2.65503814e-03 6.52371952e-03
      1.04641344e-03 2.02303543e-03 1.21395418e-03 2.04125606e-03
      5.46720636e-04 1.19856537e-04 2.37414308e-04 3.00550892e-05
      9.07637412e-04 3.22931483e-05 4.09421569e-04 1.32641435e-04
      5.37534594e-04 1.18531473e-03 7.49580737e-04 1.49729080e-03
      1.21928111e-04 2.87582306e-03 4.06372965e-06 1.17088086e-03
      5.55597711e-04 1.16903626e-03 1.77729747e-03 7.40297546e-04
      1.80153246e-03 5.70200558e-04 4.78528766e-03 2.71393539e-04
      1.44582614e-03 8.29418772e-04 1.78884529e-03 1.20630057e-03
      7.24768441e-04 1.86890503e-03 1.15023786e-03 6.34239381e-03
      6.43832551e-04 2.10260949e-03 6.91145193e-04 1.13750959e-03
      9.16035729e-04 4.94304928e-04 7.37636699e-04 2.82302964e-04
      1.73250667e-03 2.86622613e-04 1.10507756e-03 6.32255862e-04
      9.14516335e-04</_>
    <_>
      4.71076882e-03 4.94308677e-03 3.51291220e-03 3.95160168e-03
      5.25524840e-03 2.20798119e-03 1.69779093e-03 2.54425779e-03
      4.11085039e-03 3.15873846e-02 3.22518758e-02 1.81571618e-02
      2.35938802e-02 5.13024852e-02 2.09980793e-02 4.38352954e-03
      5.68447355e-03 1.20370192e-02 9.32188407e-02 5.71215712e-02
      3.72037552e-02 3.81487608e-02 7.61464015e-02 5.71106002e-02
      4.13277782e-02 4.46934290e-02 8.92197415e-02 1.80821884e-02
      2.12230105e-02 2.09196080e-02 1.54314311e-02 1.99843943e-02
      2.01298501e-02 2.69270334e-02 2.38993969e-02 2.55749654e-02
      5.92090888e-03 4.33868961e-03 5.55469422e-03 3.95574234e-03
      3.53432843e-03 2.01127795e-03 2.80589075e-03 4.59088897e-03
      5.92346024e-03 8.66253581e-03 6.52899593e-03 6.59340201e-03
      9.96538904e-03 1.02949981e-02 6.10135077e-03 6.85510598e-03
      6.22549001e-03 9.22383741e-03 3.75332907e-02 2.74996459e-02
      3.04280277e-02 7.31889755e-02 2.14440703e-01 1.04459889e-01
      6.73940927e-02 2.67747641e-02 3.05360034e-02 1.73586741e-01
      1.41165361e-01 1.00867659e-01 1.25460386e-01 2.14440703e-01
      2.14440703e-01 2.14440703e-01 9.86611843e-02 1.86060116e-01
      6.73240200e-02 1.02938555e-01 9.28428024e-02 9.39442739e-02
      1.10857457e-01 1.10845335e-01 1.19453780e-01 6.22340776e-02
      7.41845742e-02 1.20496182e-02 1.08996574e-02 9.81311500e-03
      1.01823444e-02 1.26678860e-02 5.25458250e-03 7.08456663e-03
      7.90438708e-03 8.84257164e-03 1.34548424e-02 1.19448937e-02
      1.51681164e-02 1.90810263e-02 1.45191373e-02 1.01273591e-02
      1.16950916e-02 1.44006237e-02 1.62820984e-02 4.92139235e-02
      2.71465108e-02 2.62151491e-02 2.72639152e-02 7.37355202e-02
      7.04246610e-02 8.85822251e-02 5.35928644e-02 5.09120189e-02
      1.73272833e-01 1.43143728e-01 1.38262704e-01 1.05821662e-01
      1.57922640e-01 1.20821737e-01 1.58526734e-01 1.15230598e-01
      1.45092890e-01 6.22976162e-02 9.27970484e-02 8.43889043e-02
      8.00837129e-02 8.26076344e-02 4.35753204e-02 2.56654173e-02
      2.64496803e-02 3.68223116e-02 3.16890962e-02 2.92979013e-02
      2.86234803e-02 2.50840615e-02 1.97342746e-02 9.93593410e-03
      1.35818440e-02 1.72780603e-02 2.37132814e-02 1.21397199e-02
      1.23868268e-02 1.38110882e-02 1.59761813e-02 1.32602816e-02
      7.21122744e-03 7.22507574e-03 9.20655299e-03 8.47106520e-03
      2.38356031e-02 2.34735925e-02 1.99679323e-02 2.04271544e-02
      1.86434779e-02 1.14763370e-02 1.52574442e-02 1.60610676e-02
      1.86440144e-02 7.84493759e-02 9.87479016e-02 8.98817927e-02
      5.34503572e-02 4.22432087e-02 2.71681417e-02 3.42152640e-02
      4.31835428e-02 4.31882478e-02 2.14440703e-01 2.14440703e-01
      1.48078248e-01 8.46791640e-02 8.22461247e-02 4.83817980e-02
      3.89466099e-02 6.50888085e-02 1.10952362e-01 1.02087013e-01
      6.59424737e-02 4.07460853e-02 4.73873019e-02 4.29749787e-02
      4.67503816e-02 3.58226560e-02 4.85679433e-02 5.79285584e-02
      7.62991840e-03 5.56488335e-03 4.32323478e-03 5.62106166e-03
      5.44051826e-03 3.40573397e-03 3.00226640e-03 3.26405535e-03
      4.36354987e-03 1.00092934e-02 9.82020050e-03 1.16397180e-02
      1.80801041e-02 2.04117186e-02 1.33434162e-02 1.15650594e-02
      9.26019438e-03 8.88503250e-03 7.65268281e-02 7.01574907e-02
      8.12875330e-02 8.31991509e-02 5.78324385e-02 2.63824649e-02
      2.69295685e-02 2.72577517e-02 5.16718253e-02 1.23607002e-01
      9.97320935e-02 5.44172637e-02 2.09058598e-02 2.10842080e-02
      1.68516971e-02 2.11626645e-02 1.95412263e-02 5.18249236e-02
      3.96577865e-02 2.28321701e-02 1.51951462e-02 2.10756902e-02
      1.77178252e-02 1.10273222e-02 8.70519970e-03 8.82568397e-03
      1.38750961e-02</_>
    <_>
      3.04594776e-03 3.01594730e-03 3.77715356e-03 5.01656672e-03
      5.45600941e-03 2.25996994e-03 1.95819302e-03 2.40934896e-03
      3.05077271e-03 1.74247064e-02 1.49230305e-02 1.70991179e-02
      3.86268161e-02 1.23058803e-01 4.31346931e-02 1.81916971e-02
      6.32272894e-03 1.01525662e-02 6.80602640e-02 5.22093996e-02
      3.87495421e-02 5.70151396e-02 1.44906789e-01 1.23028360e-01
      9.75812599e-02 3.53651606e-02 7.21595958e-02 3.02794334e-02
      3.90099399e-02 3.69163416e-02 3.74610759e-02 4.34335135e-02
      5.38426638e-02 5.67630567e-02 2.54542641e-02 3.31799462e-02
      4.50604642e-03 4.21822397e-03 4.10297047e-03 3.58700939e-03
      3.99466231e-03 1.47128652e-03 2.13704351e-03 2.96481373e-03
      3.04838340e-03 9.65444557e-03 6.73987763e-03 7.63758225e-03
      1.05735585e-02 1.15116853e-02 6.27362262e-03 7.37557514e-03
      1.08155450e-02 1.24552436e-02 4.19056006e-02 1.90832559e-02
      2.05666572e-02 2.55150050e-02 1.16100773e-01 7.74561167e-02
      8.58433619e-02 4.25746888e-02 3.89267728e-02 1.67248726e-01
      1.53106287e-01 1.28871277e-01 9.70350206e-02 1.93224236e-01
      1.28381997e-01 1.59454420e-01 8.73030201e-02 1.34969145e-01
      5.06848805e-02 8.34084824e-02 7.93658346e-02 7.33647197e-02
      7.49940425e-02 5.23623116e-02 3.79846022e-02 2.18190737e-02
      3.28012742e-02 1.56077221e-02 1.47628812e-02 1.78975929e-02
      1.31380176e-02 1.23346755e-02 1.05672507e-02 9.67737846e-03
      9.75406077e-03 1.23483250e-02 1.54415891e-02 1.74658019e-02
      1.86075456e-02 2.54210625e-02 1.95871145e-02 1.15105417e-02
      1.04326969e-02 1.19541660e-02 1.33744581e-02 3.94950584e-02
      3.36309262e-02 3.05400249e-02 3.08660548e-02 3.27931009e-02
      1.95677504e-02 2.94224434e-02 2.68394928e-02 3.74445170e-02
      9.64078456e-02 8.57013240e-02 8.39612707e-02 4.93852533e-02
      6.55672401e-02 4.47136462e-02 7.05914423e-02 8.80481824e-02
      7.37573057e-02 2.10156277e-01 2.08565950e-01 1.53259501e-01
      9.61833671e-02 9.23181772e-02 5.91109917e-02 4.76266444e-02
      7.19322041e-02 1.09024256e-01 1.10881753e-01 7.12033138e-02
      5.22945039e-02 5.01131155e-02 4.20227014e-02 4.08185683e-02
      3.72329243e-02 5.33716716e-02 5.99655584e-02 1.64660476e-02
      1.27059007e-02 1.03408685e-02 1.34168388e-02 1.20382942e-02
      8.50884523e-03 6.50074473e-03 7.77298864e-03 1.24896504e-02
      2.56302077e-02 1.98397525e-02 2.41241045e-02 3.12291496e-02
      3.25093791e-02 2.20239088e-02 1.85243804e-02 2.30338108e-02
      2.47951522e-02 1.72816172e-01 2.01027960e-01 2.01784432e-01
      1.79293171e-01 9.53641161e-02 5.10712117e-02 4.41329926e-02
      6.06326051e-02 7.60316551e-02 2.10156277e-01 2.10156277e-01
      1.80562213e-01 7.68530667e-02 6.36801720e-02 5.36734127e-02
      4.42568175e-02 6.66941255e-02 1.24933027e-01 1.01842828e-01
      6.01782128e-02 4.73559089e-02 6.41699061e-02 5.23073673e-02
      4.03015465e-02 3.49842198e-02 4.09718789e-02 4.52904031e-02
      9.39447898e-03 6.05067797e-03 3.38155543e-03 4.12720069e-03
      4.73592896e-03 4.37750341e-03 2.76257307e-03 3.02500534e-03
      5.10395411e-03 2.30033770e-02 1.83288157e-02 2.09218264e-02
      2.36772411e-02 2.37402488e-02 1.55725013e-02 8.22400395e-03
      1.10286791e-02 1.74600221e-02 6.70027658e-02 2.11150479e-02
      2.86610164e-02 4.51300107e-02 4.40975018e-02 2.10956335e-02
      2.02517956e-02 3.83981839e-02 7.92844519e-02 1.05351649e-01
      5.42736128e-02 1.28205363e-02 7.57413078e-03 9.51050688e-03
      7.67263724e-03 8.88238288e-03 1.88090354e-02 6.39484748e-02
      2.27754619e-02 1.27211586e-02 6.81608031e-03 5.64709399e-03
      7.19307316e-03 4.64467658e-03 2.89685815e-03 3.78122460e-03
      7.84567837e-03</_>
    <_>
      2.71508135e-02 1.36632593e-02 8.28185491e-03 6.58618892e-03
      8.55487958e-03 3.70662869e-03 5.24269463e-03 1.40477549e-02
      3.10966130e-02 1.25612058e-02 1.26142837e-02 1.15796048e-02
      9.19778738e-03 1.98261365e-02 9.39188618e-03 1.10846534e-02
      1.64617226e-02 2.05569267e-02 3.11381705e-02 2.08611432e-02
      1.84264407e-02 1.76773611e-02 2.80857868e-02 1.77046601e-02
      1.61667205e-02 2.09754910e-02 2.71156952e-02 1.06607461e-02
      1.09208282e-02 1.10246576e-02 6.34897547e-03 1.50765982e-02
      7.46354274e-03 7.71700172e-03 7.58037763e-03 9.69613064e-03
      7.28313858e-03 4.29394236e-03 5.24643390e-03 1.01825213e-02
      1.05993040e-02 4.82890289e-03 5.74313570e-03 5.26446663e-03
      7.27404980e-03 9.03364941e-02 5.78075051e-02 4.53806743e-02
      5.65784350e-02 1.01201281e-01 1.18472576e-01 1.03792667e-01
      5.31003214e-02 9.66161191e-02 7.80298486e-02 9.65767726e-02
      1.11682236e-01 8.87255222e-02 1.12897627e-01 1.35252431e-01
      1.50814548e-01 7.93668255e-02 1.01181857e-01 4.35665920e-02
      5.84667809e-02 5.88771552e-02 4.77223359e-02 4.91339229e-02
      1.97293311e-02 2.58055236e-02 3.51070762e-02 3.80449891e-02
      2.52355691e-02 3.16281021e-02 3.72782014e-02 2.28185728e-02
      3.62737104e-02 2.20612288e-02 1.77015569e-02 1.71457622e-02
      2.28334535e-02 1.21720610e-02 1.16728013e-02 1.99023988e-02
      2.92374641e-02 3.07826512e-02 1.84371080e-02 1.47488294e-02
      9.37617011e-03 1.37907639e-02 1.10293008e-01 1.04739815e-01
      8.75424966e-02 7.05861226e-02 1.11012518e-01 8.64563957e-02
      9.42705795e-02 5.36252446e-02 8.67342576e-02 8.88698623e-02
      1.47375777e-01 1.57723993e-01 1.32404730e-01 1.37948051e-01
      1.00465752e-01 9.11498666e-02 5.69231696e-02 5.67231663e-02
      8.29993561e-02 7.90224671e-02 8.16257298e-02 7.10930526e-02
      5.77568822e-02 5.50600104e-02 6.38331994e-02 6.04410321e-02
      6.64934069e-02 4.14539054e-02 2.78407466e-02 2.51638945e-02
      2.47428194e-02 4.73523997e-02 2.73718722e-02 2.89277136e-02
      3.08153126e-02 4.62807938e-02 1.44852130e-02 1.40957637e-02
      2.25670673e-02 2.24009100e-02 2.88749970e-02 1.89011283e-02
      1.27677433e-02 6.50340924e-03 1.24937277e-02 3.24590653e-02
      2.64928509e-02 3.16779129e-02 1.97397936e-02 2.52469108e-02
      2.09880322e-02 2.88419798e-02 2.91578341e-02 2.42866278e-02
      1.99088782e-01 1.73320711e-01 1.37729451e-01 8.74656811e-02
      8.35012123e-02 4.47698459e-02 5.28410710e-02 5.52423298e-02
      8.77214447e-02 2.04921558e-01 1.84707776e-01 1.49804264e-01
      1.23019651e-01 1.13106243e-01 9.66302902e-02 9.20370445e-02
      1.37792796e-01 1.45314574e-01 5.11421487e-02 4.63514887e-02
      3.35309394e-02 2.73414664e-02 3.17286924e-02 3.47721614e-02
      3.61073688e-02 3.50126103e-02 5.13794534e-02 1.58225112e-02
      8.53934605e-03 4.44408227e-03 2.70202057e-03 6.72786357e-03
      5.25929034e-03 6.30222680e-03 5.50196646e-03 1.47171859e-02
      2.93764230e-02 3.68927345e-02 4.15813215e-02 2.56529618e-02
      1.48496907e-02 4.55553131e-03 6.72819605e-03 6.20704703e-03
      7.18491944e-03 1.78304806e-01 1.52181596e-01 1.21099509e-01
      5.32855131e-02 5.57698496e-02 3.09347864e-02 3.27728726e-02
      3.77583764e-02 6.84711933e-02 1.73515320e-01 1.07453361e-01
      8.81198049e-02 1.30073324e-01 1.30302921e-01 9.05672088e-02
      7.11948723e-02 9.14507359e-02 8.47476423e-02 2.10648570e-02
      2.89540514e-02 3.94985862e-02 8.54952782e-02 6.91587776e-02
      3.89969610e-02 2.72035170e-02 1.67241599e-02 1.53772961e-02
      3.47822299e-03 2.79050111e-03 2.82210903e-03 1.56211480e-03
      3.01793334e-03 6.42379979e-04 1.89393316e-03 1.89761561e-03
      3.49272555e-03</_>
    <_>
      5.02892723e-03 4.44588298e-03 4.44174791e-03 4.69179684e-03
      5.39223664e-03 2.48242565e-03 1.66173512e-03 2.51284288e-03
      2.95780902e-03 3.16788629e-02 3.02614309e-02 1.81393400e-02
      3.45228501e-02 7.85894543e-02 2.51868814e-02 4.65198932e-03
      5.37491310e-03 9.72850900e-03 9.19249654e-02 5.59772924e-02
      3.80083136e-02 5.20101525e-02 1.05183706e-01 8.18472207e-02
      6.59771040e-02 4.72389944e-02 8.83529931e-02 1.98980160e-02
      2.40512621e-02 2.98955757e-02 2.10213307e-02 2.50715725e-02
      3.51450220e-02 4.18159440e-02 2.61737276e-02 3.17451507e-02
      4.26782528e-03 4.78560058e-03 5.19297086e-03 3.93409422e-03
      3.59244016e-03 1.71101256e-03 3.40533373e-03 3.59880016e-03
      4.38507693e-03 8.27090442e-03 6.27860054e-03 8.21463764e-03
      8.13237764e-03 9.70316026e-03 4.62780846e-03 7.29484903e-03
      7.87640642e-03 8.10386986e-03 3.46654989e-02 2.13126708e-02
      2.13919040e-02 6.39786124e-02 2.13013053e-01 1.05727062e-01
      8.13618377e-02 3.35818380e-02 3.58220227e-02 1.93002701e-01
      1.46921068e-01 1.22217134e-01 1.20235980e-01 2.13013053e-01
      2.12399691e-01 2.01487929e-01 8.58389586e-02 1.78882033e-01
      6.35326356e-02 1.03501007e-01 1.14513271e-01 8.61751214e-02
      1.23030372e-01 9.08642933e-02 8.53510350e-02 4.44767848e-02
      5.58418371e-02 1.46196373e-02 1.02822902e-02 1.02500925e-02
      1.12958616e-02 1.12161133e-02 6.59486558e-03 1.05954735e-02
      9.41372942e-03 9.57646966e-03 1.58526525e-02 1.67194195e-02
      1.79501623e-02 2.21272446e-02 2.04952136e-02 9.99027304e-03
      1.21620540e-02 1.35000013e-02 1.30222272e-02 4.07123379e-02
      3.10443565e-02 2.82638557e-02 3.38980108e-02 5.25273494e-02
      4.81566936e-02 6.36877343e-02 4.71697636e-02 4.10954915e-02
      1.30272329e-01 1.17505088e-01 1.13367870e-01 8.15252289e-02
      1.20962545e-01 1.03719786e-01 1.32657543e-01 9.90828350e-02
      1.12485245e-01 8.90174732e-02 1.05771318e-01 8.73259380e-02
      7.18122050e-02 8.03878084e-02 4.24734801e-02 2.80476492e-02
      3.69724445e-02 4.96802740e-02 5.40598556e-02 4.55042310e-02
      3.50540616e-02 2.67787538e-02 2.10160352e-02 1.77964121e-02
      1.92605928e-02 2.63352655e-02 2.87886187e-02 1.25291515e-02
      1.26712108e-02 1.32189626e-02 1.37012964e-02 1.24764219e-02
      6.61176816e-03 6.62884070e-03 9.21225641e-03 1.10200141e-02
      2.66949497e-02 1.71255749e-02 1.70112681e-02 1.78238042e-02
      2.16061529e-02 1.27745885e-02 1.47507275e-02 1.54644875e-02
      2.36733239e-02 1.06911339e-01 1.29345208e-01 1.32805765e-01
      8.12360868e-02 5.04277311e-02 2.99706776e-02 3.32885906e-02
      4.23003994e-02 4.98706847e-02 2.13013053e-01 2.13013053e-01
      1.99273318e-01 8.99770558e-02 8.28752220e-02 5.91440275e-02
      4.34536822e-02 6.05260916e-02 1.24580421e-01 9.94909629e-02
      6.66470751e-02 4.45350260e-02 5.19980341e-02 5.44703864e-02
      5.32750934e-02 3.83272134e-02 5.09760045e-02 5.60514107e-02
      8.35867226e-03 5.61714591e-03 4.17120568e-03 5.88606764e-03
      5.41437417e-03 3.59181548e-03 3.56685789e-03 3.13489255e-03
      5.50369965e-03 1.61141697e-02 1.24299359e-02 1.51859559e-02
      2.16059871e-02 2.57736742e-02 1.54689439e-02 1.18869022e-02
      1.07751703e-02 1.41261341e-02 8.18189234e-02 5.19390702e-02
      7.02757835e-02 8.53117108e-02 6.39511868e-02 2.17216332e-02
      2.45222058e-02 3.80928367e-02 7.71313161e-02 1.27717569e-01
      8.48429203e-02 4.19431925e-02 1.45621710e-02 1.40953613e-02
      1.29367681e-02 1.51638119e-02 2.23624520e-02 6.71702623e-02
      3.85810360e-02 1.94379073e-02 1.59511790e-02 1.59223843e-02
      1.31278168e-02 5.33816777e-03 5.55282226e-03 8.11099540e-03
      1.46370698e-02</_>
    <_>
      1.54259102e-02 1.64260324e-02 1.90473571e-02 1.46854054e-02
      1.94211863e-02 2.79016495e-02 3.14706862e-02 1.92590598e-02
      2.42817923e-02 1.50145004e-02 1.84262339e-02 2.25403979e-02
      1.56199662e-02 1.40910456e-02 9.19615943e-03 1.53628075e-02
      1.41334552e-02 1.75260995e-02 1.63024422e-02 2.01795716e-02
      2.95886789e-02 1.89084783e-02 1.48580819e-02 8.47824384e-03
      1.14697209e-02 9.95599013e-03 1.46827195e-02 1.73128489e-02
      1.51586616e-02 1.78542547e-02 1.85872484e-02 2.20170040e-02
      1.26840798e-02 1.20680155e-02 1.34529201e-02 1.51885627e-02
      1.32130133e-02 8.51450674e-03 1.20919123e-02 9.33163613e-03
      9.00236052e-03 3.72656435e-03 4.12856368e-03 4.88043390e-03
      1.06862867e-02 4.72234301e-02 7.61357024e-02 7.86721781e-02
      5.94409183e-02 8.92532691e-02 6.81210756e-02 6.38446212e-02
      3.05786729e-02 4.30044308e-02 5.50348721e-02 4.53960635e-02
      5.33309244e-02 4.95564826e-02 5.10345511e-02 3.16093937e-02
      4.13406864e-02 3.57294939e-02 3.64390500e-02 3.75799276e-02
      2.78913863e-02 2.58632489e-02 2.57958639e-02 4.86124568e-02
      2.56330203e-02 3.45868468e-02 3.26536559e-02 3.58316749e-02
      2.34877095e-02 2.28321776e-02 3.52772810e-02 4.55515124e-02
      7.32734427e-02 4.34249043e-02 2.38026064e-02 1.70346703e-02
      2.11394001e-02 1.74940731e-02 1.11674098e-02 1.55949602e-02
      1.47465654e-02 1.88250579e-02 1.80768352e-02 1.89501792e-02
      1.26310857e-02 1.80021692e-02 4.25679684e-02 5.77170402e-02
      5.24200611e-02 4.39004004e-02 4.93699685e-02 2.47751456e-02
      1.27935009e-02 1.71958599e-02 2.79089697e-02 2.03776315e-01
      1.74873352e-01 1.29464775e-01 9.63536724e-02 8.28443542e-02
      6.39665127e-02 6.83854595e-02 9.14929286e-02 1.01832077e-01
      1.04043998e-01 9.01120305e-02 6.06344342e-02 5.65061718e-02
      4.79640923e-02 4.84557636e-02 5.97377047e-02 8.71068761e-02
      9.57816839e-02 5.83725609e-02 4.09447253e-02 2.35059932e-02
      1.26023665e-02 3.33997831e-02 2.20722184e-02 2.20565889e-02
      2.35274713e-02 4.94450033e-02 1.43427262e-02 8.99848901e-03
      1.04928082e-02 7.92691950e-03 2.28500962e-02 1.28981769e-02
      1.11298626e-02 6.66400138e-03 1.41346166e-02 1.34801462e-01
      1.52748898e-01 1.21445023e-01 4.62373793e-02 4.18610238e-02
      2.91361511e-02 2.11130381e-02 2.68593393e-02 6.26681224e-02
      2.22195342e-01 2.22195342e-01 1.86697438e-01 1.74516588e-01
      1.82549685e-01 1.68787301e-01 1.24973454e-01 1.74366564e-01
      2.12981299e-01 1.12572834e-01 1.14080258e-01 1.43865794e-01
      2.22195342e-01 2.22195342e-01 2.07327709e-01 1.28404677e-01
      9.81505439e-02 9.27483588e-02 2.82469876e-02 2.71801259e-02
      2.51347888e-02 2.60754749e-02 3.79658453e-02 1.81580745e-02
      1.86327826e-02 1.89277641e-02 2.81579010e-02 1.47844059e-02
      9.22099035e-03 7.67299673e-03 5.24130277e-03 6.60314271e-03
      2.59404862e-03 3.08189006e-03 2.35960167e-03 1.04097230e-02
      7.56002292e-02 4.78384160e-02 2.57400405e-02 6.92418870e-03
      7.67224003e-03 7.23007089e-03 9.54402145e-03 1.47248767e-02
      4.54110280e-02 1.52500346e-01 8.77798051e-02 5.77172078e-02
      4.78559956e-02 4.08650339e-02 1.96463931e-02 1.99054070e-02
      2.89951395e-02 5.75216152e-02 5.85390218e-02 3.37656662e-02
      6.34985194e-02 1.00909382e-01 7.48236105e-02 2.17736121e-02
      1.85173471e-02 2.34101284e-02 2.75429618e-02 8.99372436e-03
      6.00572675e-03 9.92387906e-03 9.32994485e-03 1.42947827e-02
      5.66531019e-03 7.37012969e-03 8.31696112e-03 1.01745315e-02
      7.80430157e-03 3.89342569e-03 3.79224354e-03 3.03370296e-03
      2.47168541e-03 1.94016134e-03 1.39798503e-03 1.30085705e-03
      7.22205732e-03</_>
    <_>
      2.19648927e-02 1.79101042e-02 1.17267417e-02 1.54918339e-02
      2.99347509e-02 3.26222293e-02 3.18643115e-02 1.31737562e-02
      2.34222095e-02 2.02446189e-02 3.18216309e-02 3.60220931e-02
      3.07027530e-02 3.74924354e-02 3.69816720e-02 4.08244282e-02
      1.97411068e-02 2.39626616e-02 1.21428007e-02 1.30097689e-02
      1.27406064e-02 1.13674123e-02 1.17759667e-02 7.49423821e-03
      1.06943147e-02 7.56913098e-03 9.07384884e-03 5.56318136e-03
      4.86144749e-03 5.82380546e-03 4.77151899e-03 1.20731862e-02
      7.86055997e-03 6.44774362e-03 4.39517619e-03 4.90280474e-03
      2.80682486e-03 2.24576821e-03 4.58957441e-03 7.05421669e-03
      8.69572349e-03 6.64109085e-03 2.92089232e-03 1.63028121e-03
      2.36084918e-03 4.13619727e-02 4.21658084e-02 3.65709998e-02
      2.76315976e-02 3.84524502e-02 2.59334166e-02 3.46458033e-02
      2.42630411e-02 2.95708142e-02 3.67074199e-02 5.90139367e-02
      6.39890134e-02 5.08395918e-02 5.11718951e-02 2.92709414e-02
      2.46810503e-02 2.07072143e-02 2.42338143e-02 4.83615473e-02
      5.21624498e-02 5.93571626e-02 5.08913994e-02 3.19441296e-02
      3.09635773e-02 3.42293642e-02 3.18428725e-02 3.98114137e-02
      2.68052407e-02 1.78180188e-02 1.40521172e-02 1.06570860e-02
      1.66985746e-02 1.22808944e-02 1.09524047e-02 2.03759838e-02
      3.31875719e-02 9.56964865e-03 6.44581951e-03 8.18340667e-03
      6.14974322e-03 8.78781918e-03 6.17078179e-03 3.66763631e-03
      3.16594844e-03 7.22595816e-03 3.07648275e-02 3.82803679e-02
      4.27803211e-02 1.62642207e-02 1.73071995e-02 1.16107818e-02
      1.44359954e-02 1.99141353e-02 1.73339024e-02 2.23904118e-01
      2.23904118e-01 1.98246583e-01 9.46074426e-02 1.10854156e-01
      5.97758479e-02 7.01538995e-02 6.82657734e-02 1.34978771e-01
      2.23904118e-01 2.23904118e-01 1.67715490e-01 1.62123784e-01
      1.74709350e-01 1.67708203e-01 1.38525978e-01 2.02149332e-01
      1.85326338e-01 3.74751501e-02 5.40414639e-02 5.60675561e-02
      7.13461563e-02 8.53471309e-02 6.30310923e-02 4.25603725e-02
      3.65421958e-02 4.20397893e-02 1.22908894e-02 6.55356888e-03
      6.33710017e-03 2.52494542e-03 6.84170937e-03 3.16152722e-03
      3.85129009e-03 4.70836321e-03 1.06768804e-02 5.84130958e-02
      5.42760193e-02 7.01650009e-02 5.49267121e-02 3.72435488e-02
      1.78886075e-02 2.02374402e-02 2.17305869e-02 3.66250761e-02
      2.23904118e-01 2.23904118e-01 1.36897802e-01 6.08132780e-02
      5.68843223e-02 4.25694585e-02 4.72470745e-02 4.77184430e-02
      1.16879359e-01 2.23904118e-01 1.58341959e-01 1.33526772e-01
      1.83216274e-01 1.66660517e-01 9.14373845e-02 7.55481720e-02
      8.06488320e-02 1.02289662e-01 3.69336270e-02 3.31230648e-02
      6.81083202e-02 1.17128663e-01 1.01936445e-01 3.86131890e-02
      3.18866745e-02 2.85107680e-02 2.11410057e-02 6.35611685e-03
      3.11113894e-03 4.45571821e-03 2.23435950e-03 4.27380577e-03
      1.22480467e-03 4.21591522e-03 3.69227934e-03 6.50059571e-03
      2.11317539e-02 7.29953405e-03 6.55293977e-03 6.84059598e-03
      7.85664376e-03 5.58420923e-03 4.75242874e-03 8.69831443e-03
      2.31805518e-02 7.43662268e-02 3.88588272e-02 1.04011623e-02
      6.58031553e-03 1.02731036e-02 6.04587514e-03 5.36911562e-03
      1.06502725e-02 4.83746007e-02 2.51642335e-02 1.74596328e-02
      1.41076585e-02 1.63099933e-02 2.64868084e-02 1.05496468e-02
      8.22649058e-03 6.51309267e-03 1.44492881e-02 7.63475522e-03
      9.87811666e-03 1.75331198e-02 1.48749799e-02 1.68128666e-02
      3.58212367e-03 3.29593872e-03 2.10620672e-03 3.79550690e-03
      2.28738878e-03 1.63833797e-03 1.68691191e-03 1.07798225e-03
      3.54514830e-03 8.64538946e-04 1.68594171e-03 9.90070635e-04
      1.83926511e-03</_>
    <_>
      4.41922667e-03 3.18215019e-03 2.50260602e-03 3.33722006e-03
      4.01326641e-03 1.71435461e-03 3.19617311e-03 4.02255682e-03
      5.06989239e-03 2.08490137e-02 1.76923871e-02 8.07074271e-03
      8.74368474e-03 1.12381792e-02 4.74749971e-03 5.10770734e-03
      5.84539725e-03 1.17574381e-02 4.25018221e-02 1.92615129e-02
      9.85741988e-03 8.34965147e-03 1.13378409e-02 6.52901921e-03
      9.05798003e-03 2.35131066e-02 4.32644486e-02 6.34599803e-03
      5.99958375e-03 6.83085760e-03 6.14294410e-03 1.17922993e-02
      6.19749771e-03 7.42578367e-03 9.33532137e-03 7.20611960e-03
      6.01574499e-03 3.76632763e-03 4.45038546e-03 3.90037801e-03
      5.97802317e-03 4.66677453e-03 4.10905899e-03 3.54573061e-03
      3.99625069e-03 1.03828097e-02 8.66769906e-03 9.48708691e-03
      1.14149638e-02 1.29961539e-02 5.02852071e-03 4.37383633e-03
      4.70496435e-03 8.04593135e-03 6.95090219e-02 6.62037209e-02
      4.86696064e-02 8.20840895e-02 2.16282442e-01 6.48374334e-02
      1.69119034e-02 1.55643858e-02 3.04366983e-02 1.85279265e-01
      1.12115473e-01 1.06493652e-01 1.22038901e-01 2.16525227e-01
      2.10121766e-01 1.74489200e-01 1.14523560e-01 1.72399536e-01
      5.05913980e-02 5.38483933e-02 6.44061267e-02 4.58284095e-02
      6.15171939e-02 7.42763132e-02 8.91654566e-02 5.83774410e-02
      5.81353493e-02 9.66668036e-03 1.05028246e-02 1.23447552e-02
      9.07063112e-03 5.48657449e-03 4.71932301e-03 6.60787011e-03
      8.68462585e-03 1.00910375e-02 1.05791409e-02 6.26393268e-03
      8.40823539e-03 8.12232867e-03 1.18988948e-02 5.55410283e-03
      7.42787262e-03 1.19568985e-02 1.12066623e-02 5.47277927e-02
      2.24864688e-02 3.17167826e-02 6.49915785e-02 2.16525227e-01
      1.34587660e-01 1.22137070e-01 5.13115935e-02 5.29175736e-02
      2.16525227e-01 2.03598246e-01 1.77210450e-01 1.35324076e-01
      2.16525227e-01 2.16525227e-01 2.16525227e-01 1.10123612e-01
      2.03371570e-01 7.41682276e-02 1.14485502e-01 1.12958893e-01
      9.56336707e-02 1.23773053e-01 1.00628570e-01 8.42937753e-02
      5.22536039e-02 5.22171594e-02 1.51978135e-02 1.34952683e-02
      1.23378718e-02 1.14248665e-02 1.28178122e-02 9.83884744e-03
      1.13187805e-02 9.95702948e-03 1.13272946e-02 9.71734617e-03
      9.88925528e-03 1.29068391e-02 1.67418327e-02 1.69482436e-02
      5.73606091e-03 8.26849137e-03 1.03795463e-02 9.94755886e-03
      2.95211989e-02 1.86667927e-02 1.93717945e-02 1.78210884e-02
      4.11519930e-02 2.35792100e-02 4.99021299e-02 3.43908556e-02
      2.72729751e-02 7.72867203e-02 6.98366016e-02 7.69589841e-02
      5.30099161e-02 7.36555383e-02 5.33959530e-02 8.82066339e-02
      7.28704929e-02 5.54548241e-02 7.56265596e-02 7.61642084e-02
      6.67896643e-02 5.80240190e-02 4.63217832e-02 2.61685438e-02
      2.89354511e-02 2.72753052e-02 3.63530107e-02 4.02023010e-02
      2.88788062e-02 2.43908260e-02 2.15189736e-02 1.81549825e-02
      1.24960523e-02 1.29246162e-02 1.95900220e-02 2.34272778e-02
      4.87413397e-03 4.44647623e-03 4.21561953e-03 3.97504447e-03
      4.08309372e-03 2.26504100e-03 2.46526604e-03 3.33376974e-03
      4.37028706e-03 9.47351661e-03 6.92205084e-03 7.26112397e-03
      5.11348154e-03 7.52815511e-03 3.86940315e-03 5.48337959e-03
      6.65420340e-03 7.94135593e-03 5.38568869e-02 6.17641993e-02
      7.07596689e-02 3.06095444e-02 2.04248559e-02 8.45231209e-03
      1.18462769e-02 1.34034762e-02 1.63368285e-02 1.11625984e-01
      1.00933000e-01 8.24786425e-02 3.74504104e-02 3.28979082e-02
      2.08373200e-02 2.13549994e-02 2.48786490e-02 4.78992574e-02
      3.48593965e-02 1.94356963e-02 1.69821922e-02 2.19516456e-02
      2.43708435e-02 1.97248086e-02 1.63492747e-02 1.84476580e-02
      2.19395664e-02</_>
    <_>
      3.41757983e-02 1.82516053e-02 1.33740343e-02 1.56880319e-02
      1.88767631e-02 2.31659766e-02 1.90102682e-02 2.11626720e-02
      3.48845124e-02 2.19067298e-02 2.12188736e-02 1.99222323e-02
      1.65661667e-02 2.12412998e-02 1.95977930e-02 2.77234353e-02
      2.56816354e-02 2.30024606e-02 1.98523924e-02 2.06883606e-02
      2.57324483e-02 1.42329326e-02 1.45965898e-02 9.46824346e-03
      1.47298416e-02 1.68439094e-02 1.80176590e-02 1.26387365e-02
      1.45704327e-02 1.74109638e-02 8.80070589e-03 9.12378728e-03
      5.83965657e-03 7.20550958e-03 7.05608306e-03 7.48662138e-03
      6.44777250e-03 5.17030200e-03 8.09522532e-03 1.01335086e-02
      1.01758437e-02 5.67798829e-03 4.83526336e-03 4.64585098e-03
      6.65651541e-03 7.83761889e-02 6.32449016e-02 4.68645431e-02
      4.78217825e-02 7.92027861e-02 9.44467187e-02 8.91433880e-02
      4.67099622e-02 8.11456591e-02 7.23905861e-02 9.87488702e-02
      8.62829611e-02 8.99595022e-02 1.19604863e-01 1.05817288e-01
      9.96188074e-02 6.44548684e-02 6.31719455e-02 3.88622321e-02
      4.60477173e-02 4.39746492e-02 3.01841944e-02 3.46387886e-02
      2.60935389e-02 3.31393145e-02 2.69357394e-02 3.00998706e-02
      1.94163043e-02 1.53214969e-02 1.96234845e-02 1.42778922e-02
      4.44366932e-02 2.85758022e-02 1.80417821e-02 1.56496391e-02
      1.98706053e-02 9.66269337e-03 1.15577998e-02 1.69084053e-02
      1.90236755e-02 3.07455808e-02 1.80410426e-02 8.39847419e-03
      5.75074693e-03 8.20875727e-03 6.97634742e-02 6.84498549e-02
      6.78208023e-02 3.93633470e-02 5.70428185e-02 3.99268121e-02
      4.49679270e-02 3.31067666e-02 4.71222177e-02 8.71793702e-02
      1.08191244e-01 1.02677703e-01 7.83336088e-02 8.61317441e-02
      4.56748866e-02 4.65950780e-02 3.78930010e-02 3.94303985e-02
      1.07664451e-01 9.65893194e-02 1.11144699e-01 8.77590328e-02
      6.78514838e-02 4.32400554e-02 5.53958900e-02 7.59056658e-02
      8.49866420e-02 5.30648753e-02 3.27848196e-02 2.45247353e-02
      1.37922019e-02 2.54656263e-02 2.39838157e-02 1.87421609e-02
      4.02523391e-02 5.87623268e-02 1.33575518e-02 1.38520999e-02
      1.56004094e-02 9.21904109e-03 1.48812057e-02 8.86688847e-03
      6.22994360e-03 8.98672733e-03 1.31422142e-02 3.91099043e-02
      4.68939953e-02 4.89238687e-02 2.13054456e-02 1.47344125e-02
      1.60401613e-02 1.41767310e-02 1.61333010e-02 1.83538683e-02
      2.20813751e-01 2.20813751e-01 2.20813751e-01 1.19503595e-01
      9.65429693e-02 6.55698031e-02 7.74719492e-02 7.93822929e-02
      1.50230184e-01 2.20813751e-01 2.09056184e-01 1.58852175e-01
      1.91102102e-01 1.92099243e-01 1.90677002e-01 1.46330789e-01
      1.86988801e-01 2.14025587e-01 5.17393164e-02 4.37216312e-02
      4.92201224e-02 8.04372132e-02 8.19925517e-02 6.17317446e-02
      4.36115749e-02 3.28773148e-02 4.21353020e-02 1.04549741e-02
      6.69118529e-03 6.37816731e-03 2.63268105e-03 6.21642964e-03
      2.72695255e-03 3.23977042e-03 5.55704767e-03 1.10494560e-02
      3.87733765e-02 3.13394554e-02 3.99890691e-02 2.99693774e-02
      2.00455952e-02 1.15724672e-02 1.08023360e-02 1.47813540e-02
      2.49730125e-02 1.45724848e-01 1.21349312e-01 7.11158291e-02
      2.90839262e-02 2.57382486e-02 2.54860856e-02 2.34457087e-02
      2.60142386e-02 6.34940788e-02 1.34830847e-01 7.60263875e-02
      7.75984079e-02 9.85692069e-02 8.51317421e-02 4.77570631e-02
      3.60735245e-02 2.97385734e-02 5.45320772e-02 1.67798530e-02
      1.58674531e-02 3.10176425e-02 5.63977771e-02 4.47991937e-02
      1.92300621e-02 1.24724135e-02 1.11946957e-02 1.30903041e-02
      3.87920323e-03 1.69170182e-03 2.16945447e-03 5.48310694e-04
      2.00093957e-03 7.54157489e-04 1.47668598e-03 1.73788681e-03
      3.89099657e-03</_>
    <_>
      5.00170980e-03 4.60058730e-03 3.83009645e-03 3.69668589e-03
      5.50735090e-03 1.60644250e-03 1.58117630e-03 2.93289823e-03
      3.43693653e-03 3.98584343e-02 3.10268551e-02 2.07545087e-02
      2.32298411e-02 5.44167943e-02 2.15084273e-02 4.62719472e-03
      5.59285516e-03 1.40253063e-02 9.28737149e-02 4.84193079e-02
      4.30568755e-02 4.28660996e-02 6.53778911e-02 6.60744980e-02
      4.15743031e-02 4.87117693e-02 8.32896456e-02 1.64958071e-02
      1.95914675e-02 2.03622989e-02 1.46699063e-02 1.47690913e-02
      2.00899020e-02 2.26713736e-02 2.30627935e-02 1.94637850e-02
      4.95427102e-03 4.53316979e-03 5.83291799e-03 4.12634946e-03
      3.21426964e-03 1.79348898e-03 3.61644896e-03 5.07265795e-03
      4.78209136e-03 7.42677739e-03 6.23202324e-03 7.72178685e-03
      7.79832620e-03 1.13402931e-02 4.40670783e-03 5.27816545e-03
      6.71604555e-03 7.43238721e-03 4.28737029e-02 2.43734587e-02
      2.97844298e-02 7.64835849e-02 2.14709193e-01 1.17440589e-01
      6.18998408e-02 2.78377105e-02 3.72545458e-02 1.80624366e-01
      1.40215948e-01 1.19834088e-01 1.26510948e-01 2.14709193e-01
      2.14709193e-01 2.14709193e-01 1.08831264e-01 1.75881088e-01
      6.04172610e-02 8.94553438e-02 9.06016231e-02 8.25580880e-02
      1.00984156e-01 1.03922740e-01 9.67661738e-02 6.02611266e-02
      5.88039868e-02 1.05653973e-02 9.38481372e-03 1.01695517e-02
      7.91201647e-03 8.95364583e-03 5.59560396e-03 7.87620712e-03
      7.61875464e-03 8.64834711e-03 1.36691919e-02 1.19099589e-02
      1.37876235e-02 1.88916810e-02 1.61045939e-02 1.08429156e-02
      1.02899307e-02 1.37185948e-02 1.35869011e-02 4.99740653e-02
      2.90020015e-02 2.33990662e-02 2.89165378e-02 7.99915791e-02
      8.01647231e-02 9.47397426e-02 6.05420880e-02 5.03353588e-02
      1.67529896e-01 1.65686339e-01 1.67394161e-01 8.46268609e-02
      1.53357089e-01 1.30261704e-01 1.39951870e-01 9.70056430e-02
      1.23346463e-01 5.52261919e-02 9.14028212e-02 8.51574540e-02
      6.25360161e-02 7.92484581e-02 4.33524437e-02 3.17029394e-02
      2.67234780e-02 3.02009173e-02 2.94668078e-02 2.77068522e-02
      2.62901392e-02 2.10424606e-02 2.02345867e-02 1.00634238e-02
      1.38695436e-02 1.96560994e-02 2.07557753e-02 1.22607611e-02
      1.26555357e-02 1.32665234e-02 1.52672725e-02 1.39946993e-02
      7.24019948e-03 5.64125273e-03 7.24254223e-03 1.02702230e-02
      2.40298007e-02 2.26142853e-02 1.83524843e-02 1.89870689e-02
      2.27000006e-02 1.32475877e-02 1.39994724e-02 1.55818826e-02
      2.04002187e-02 8.62719715e-02 1.14146292e-01 1.01740859e-01
      5.16757034e-02 4.10082601e-02 3.48041281e-02 3.75626571e-02
      4.36949767e-02 4.41679284e-02 2.14709193e-01 2.14709193e-01
      1.65472999e-01 8.77805278e-02 7.92945698e-02 5.26719019e-02
      4.71535511e-02 6.39344230e-02 1.16486430e-01 9.42205936e-02
      6.04752153e-02 4.15663980e-02 4.01564352e-02 4.73360829e-02
      4.68156599e-02 3.39069702e-02 5.05519547e-02 5.21838367e-02
      8.16726033e-03 4.83164843e-03 5.61365485e-03 5.63781988e-03
      5.33545809e-03 3.84107698e-03 3.41830472e-03 2.84244632e-03
      5.41885523e-03 1.15605611e-02 8.64413846e-03 1.47160757e-02
      2.14414615e-02 1.95495840e-02 1.43137863e-02 1.25513915e-02
      8.48614052e-03 9.38987639e-03 8.40434209e-02 7.32955188e-02
      8.98607969e-02 8.26620907e-02 4.84137088e-02 2.62832828e-02
      2.92182621e-02 3.27726863e-02 5.52048795e-02 1.18456468e-01
      9.80406255e-02 5.58986887e-02 2.22449917e-02 2.01466195e-02
      1.90057624e-02 1.68298166e-02 2.13853978e-02 4.99040261e-02
      3.70805636e-02 2.08095908e-02 1.73578430e-02 2.11878624e-02
      1.87189318e-02 1.09211635e-02 9.08366125e-03 8.78376979e-03
      1.26643442e-02</_>
    <_>
      2.52515748e-02 1.69060715e-02 1.36299040e-02 1.63891651e-02
      2.71470398e-02 3.62072438e-02 3.48834023e-02 1.56308543e-02
      2.29269229e-02 2.28448361e-02 3.08613852e-02 2.87356135e-02
      2.97217313e-02 3.69851366e-02 3.74010205e-02 3.84021401e-02
      2.38466579e-02 2.05586199e-02 1.08819772e-02 1.37178712e-02
      1.59226116e-02 1.16578853e-02 1.15853893e-02 5.31943841e-03
      6.75889291e-03 8.99617933e-03 8.90189037e-03 5.91601245e-03
      5.39631629e-03 9.34067182e-03 6.87683700e-03 1.29313115e-02
      6.61804806e-03 5.92264207e-03 5.13355527e-03 7.10183941e-03
      3.18708341e-03 3.29128583e-03 6.21135300e-03 7.99695216e-03
      9.75409243e-03 5.62950177e-03 3.65363690e-03 2.05209642e-03
      2.99657485e-03 5.46793304e-02 5.42531535e-02 4.84451056e-02
      2.83151753e-02 5.17306849e-02 3.28531116e-02 3.66848782e-02
      2.31266916e-02 3.72033566e-02 4.22191247e-02 6.62671924e-02
      6.28869161e-02 5.45783676e-02 6.48417920e-02 3.94915342e-02
      3.29748541e-02 2.65224054e-02 2.18488593e-02 4.47132289e-02
      3.61087769e-02 4.80755344e-02 4.44722362e-02 3.36332843e-02
      2.28209384e-02 3.50630768e-02 3.74058969e-02 3.19383740e-02
      3.00618932e-02 1.66404564e-02 1.23473639e-02 1.02345319e-02
      2.55564433e-02 1.66981425e-02 1.34381913e-02 1.90262534e-02
      2.53251530e-02 7.41444761e-03 9.10860114e-03 1.04250032e-02
      8.83622561e-03 1.29733253e-02 8.39412492e-03 5.05746761e-03
      4.17871308e-03 7.41987862e-03 3.22456993e-02 3.26556079e-02
      3.19661200e-02 1.62033774e-02 2.01830529e-02 1.58177130e-02
      2.06507593e-02 2.17355080e-02 2.04592701e-02 2.18508407e-01
      2.18508407e-01 1.57119662e-01 1.20804399e-01 1.00191012e-01
      4.83471192e-02 6.08078018e-02 7.22999200e-02 1.12614602e-01
      2.18508407e-01 1.86836779e-01 1.26419663e-01 1.60506308e-01
      1.45978257e-01 1.23018131e-01 1.06177583e-01 1.72782823e-01
      1.71453252e-01 5.24641275e-02 4.22605462e-02 2.86535956e-02
      4.17849161e-02 5.07184416e-02 3.84038314e-02 3.38649154e-02
      3.78128812e-02 4.36571091e-02 1.39575759e-02 7.20596174e-03
      5.23137907e-03 2.29526847e-03 5.68085443e-03 4.72651469e-03
      5.06776804e-03 6.01489050e-03 1.35942213e-02 7.10341483e-02
      6.84005991e-02 8.65293518e-02 5.13148531e-02 2.54271515e-02
      1.34568792e-02 2.05240473e-02 1.85099896e-02 2.84068789e-02
      2.18508407e-01 2.18508407e-01 1.76107615e-01 8.20217505e-02
      7.18765557e-02 5.51346131e-02 5.86814322e-02 6.45094439e-02
      1.24144994e-01 2.18508407e-01 1.57840759e-01 1.66516423e-01
      2.18508407e-01 2.09018439e-01 1.29680485e-01 1.10100158e-01
      1.15192279e-01 1.28633067e-01 3.52761373e-02 4.01389636e-02
      6.33416250e-02 1.34296581e-01 1.08394198e-01 4.58255485e-02
      3.49372290e-02 2.75142174e-02 2.54720356e-02 6.97787106e-03
      4.14799899e-03 4.69204690e-03 1.76436966e-03 4.10474511e-03
      1.02604635e-03 2.87395134e-03 3.11105466e-03 7.12799653e-03
      2.80545112e-02 6.62569888e-03 7.83819333e-03 1.15337744e-02
      1.19608836e-02 5.90170920e-03 8.49717949e-03 1.21413590e-02
      2.87817232e-02 1.00965731e-01 5.85838184e-02 1.81721710e-02
      8.05176795e-03 1.04087610e-02 7.25861453e-03 9.00012814e-03
      1.53085571e-02 4.84657139e-02 5.85564636e-02 3.33050676e-02
      2.39323471e-02 2.13441793e-02 2.46167965e-02 1.47344572e-02
      1.14526069e-02 1.09962765e-02 1.96783207e-02 1.05269030e-02
      1.16848974e-02 1.62869412e-02 1.47805875e-02 1.56124141e-02
      5.93702914e-03 3.78186256e-03 4.44658659e-03 5.74193476e-03
      2.90699094e-03 1.41636725e-03 1.55832036e-03 7.67059391e-04
      3.34032020e-03 1.08603411e-03 1.34757801e-03 1.13985117e-03
      2.72480515e-03</_>
    <_>
      2.98050907e-03 3.53923161e-03 3.45872715e-03 4.40903520e-03
      5.41701261e-03 1.98480673e-03 2.02698866e-03 2.54252250e-03
      2.44759535e-03 1.91423427e-02 1.53717687e-02 1.47149377e-02
      3.98342684e-02 1.33528098e-01 4.06077094e-02 1.70865227e-02
      8.81618354e-03 1.34646604e-02 7.41919652e-02 4.93893959e-02
      4.32112999e-02 5.76330870e-02 1.36942953e-01 1.21062107e-01
      1.03516698e-01 4.32828143e-02 6.15616255e-02 2.75924057e-02
      3.73102576e-02 3.33632641e-02 3.23576070e-02 3.98506783e-02
      4.65724617e-02 4.83388603e-02 2.68519018e-02 2.39955932e-02
      3.50374379e-03 5.28271683e-03 3.38595896e-03 3.03224078e-03
      3.55749717e-03 1.69537775e-03 2.62543582e-03 2.70880572e-03
      2.87025957e-03 9.49412212e-03 7.08322553e-03 7.35813146e-03
      1.13924248e-02 1.04472125e-02 5.95769426e-03 8.97336565e-03
      1.03046168e-02 1.00148674e-02 4.16643061e-02 1.71323344e-02
      1.87998693e-02 2.90857386e-02 1.18966542e-01 8.39102045e-02
      9.15767476e-02 5.00611067e-02 4.38176729e-02 1.66959822e-01
      1.53504714e-01 1.46621391e-01 9.23933908e-02 1.82400778e-01
      1.29098445e-01 1.39136329e-01 8.28830302e-02 1.23418935e-01
      4.66416962e-02 7.42505342e-02 6.71282783e-02 6.03050143e-02
      7.74710774e-02 4.57399637e-02 3.59320492e-02 2.76050102e-02
      2.40522828e-02 1.45230638e-02 1.15110148e-02 1.55032054e-02
      1.36958174e-02 1.21576935e-02 7.90201873e-03 1.15226740e-02
      1.10591138e-02 9.92008112e-03 1.37649858e-02 1.63426269e-02
      2.08132211e-02 2.59028170e-02 1.90751199e-02 9.68671869e-03
      1.01027666e-02 1.14519335e-02 1.37133775e-02 3.52530330e-02
      3.34074497e-02 2.84876041e-02 2.73335185e-02 2.95829084e-02
      2.12753527e-02 3.07963509e-02 3.20224650e-02 3.23757380e-02
      9.35514122e-02 1.02448098e-01 8.91445130e-02 5.59669696e-02
      5.77054918e-02 5.66497222e-02 6.47653192e-02 7.96166286e-02
      7.07064867e-02 2.10030869e-01 2.10030869e-01 1.61432996e-01
      1.02763027e-01 9.46926177e-02 5.03348298e-02 5.45087010e-02
      6.41495809e-02 1.12851806e-01 9.96553898e-02 6.64241761e-02
      4.34547551e-02 4.36381735e-02 4.78864983e-02 3.58913653e-02
      3.60406153e-02 5.13441376e-02 5.78522980e-02 1.68010201e-02
      1.18749961e-02 1.02143278e-02 1.35933403e-02 1.24555407e-02
      8.35300982e-03 6.01729658e-03 8.08072183e-03 1.39538804e-02
      2.56306510e-02 1.91792231e-02 2.44051404e-02 3.75929885e-02
      3.27529386e-02 2.08014566e-02 2.39090752e-02 1.80870984e-02
      2.65133139e-02 1.90621004e-01 2.06102982e-01 2.10030869e-01
      1.72423199e-01 9.02902856e-02 4.05084454e-02 6.20459057e-02
      5.15804440e-02 9.07502845e-02 2.10030869e-01 2.10030869e-01
      1.96492389e-01 7.35277459e-02 5.95481694e-02 5.53305298e-02
      5.69694154e-02 5.63984141e-02 1.27487570e-01 9.13508311e-02
      5.57612292e-02 5.17380275e-02 5.81629016e-02 5.87612912e-02
      3.91475707e-02 3.80381122e-02 3.48910615e-02 4.45013568e-02
      9.25017148e-03 6.68198429e-03 4.03427565e-03 5.37883677e-03
      4.37263306e-03 3.97437951e-03 3.63846961e-03 3.25643574e-03
      5.71368868e-03 2.15609074e-02 1.92712676e-02 2.09450051e-02
      2.36595850e-02 2.27076150e-02 1.45412544e-02 1.17206089e-02
      1.09400311e-02 1.83538310e-02 7.30125532e-02 2.40276046e-02
      2.85953917e-02 3.84854935e-02 4.07913774e-02 1.63703244e-02
      2.61885822e-02 3.38729918e-02 8.62403736e-02 9.75405574e-02
      5.62006272e-02 1.68629698e-02 6.93339435e-03 8.83779023e-03
      5.34804771e-03 9.69157834e-03 1.90746300e-02 5.67116588e-02
      1.94838326e-02 1.15123466e-02 7.51001574e-03 4.80998866e-03
      7.69747887e-03 3.94154107e-03 3.82393133e-03 3.78295570e-03
      7.34590460e-03</_>
    <_>
      4.57463227e-03 4.07704664e-03 7.74036720e-03 8.54856148e-03
      1.22655025e-02 7.82372430e-03 4.09263931e-03 3.78285954e-03
      3.51501000e-03 1.50734102e-02 1.83359794e-02 2.34411508e-02
      2.04362143e-02 2.61706803e-02 1.43040400e-02 9.35650058e-03
      8.48659221e-03 8.92974343e-03 1.49310222e-02 1.77308749e-02
      1.74916424e-02 2.26092786e-02 2.80859433e-02 1.66284405e-02
      1.39166582e-02 1.23814978e-02 1.13298818e-02 5.38229849e-03
      5.13949757e-03 7.27227237e-03 1.45136295e-02 2.76470948e-02
      2.69759074e-02 9.83825140e-03 5.72824618e-03 4.50133020e-03
      2.94732396e-03 2.07040971e-03 5.69407409e-03 7.50335678e-03
      9.29676369e-03 6.52035652e-03 3.54772410e-03 2.52406439e-03
      2.92755826e-03 1.00934573e-01 3.18028182e-02 1.66029744e-02
      2.57156547e-02 5.87591380e-02 4.52567637e-02 2.40332894e-02
      2.91449483e-02 9.41619053e-02 2.08722785e-01 9.62833837e-02
      6.98663965e-02 8.90676752e-02 1.09733634e-01 8.45833272e-02
      7.16007352e-02 1.04942784e-01 2.08722785e-01 7.32528642e-02
      1.14362977e-01 1.40567645e-01 1.54741153e-01 1.63397089e-01
      8.63239467e-02 6.67533800e-02 1.09723620e-01 6.67720661e-02
      2.15692446e-02 3.63281555e-02 4.83062044e-02 5.32347970e-02
      5.86678684e-02 5.25208823e-02 2.35799234e-02 2.17890199e-02
      1.71967447e-02 1.37234787e-02 1.13783088e-02 1.91229992e-02
      2.18943693e-02 3.10714561e-02 1.44423246e-02 8.93238559e-03
      7.05486536e-03 1.16482256e-02 2.53523495e-02 2.68098079e-02
      3.36361751e-02 5.17212935e-02 2.08722785e-01 1.03673652e-01
      4.37144414e-02 2.38919519e-02 2.64948253e-02 2.08722785e-01
      1.91095546e-01 1.83135867e-01 1.49961621e-01 1.32617489e-01
      1.20092176e-01 8.90526175e-02 1.32411152e-01 1.74230665e-01
      1.75176680e-01 2.08722785e-01 2.03135714e-01 1.45248681e-01
      1.58607095e-01 9.59838182e-02 7.57516325e-02 1.50255293e-01
      1.25257567e-01 5.14683872e-02 6.34774268e-02 7.69864470e-02
      7.92022198e-02 5.44808656e-02 2.47375462e-02 2.33932566e-02
      1.77984089e-02 2.90776156e-02 1.74185708e-02 1.76523980e-02
      1.60753857e-02 1.93941016e-02 2.47304905e-02 1.83861535e-02
      1.48272188e-02 1.19470321e-02 1.62958782e-02 2.28345338e-02
      3.23942974e-02 3.40724848e-02 2.56652385e-02 6.60730377e-02
      9.32196155e-02 8.43018889e-02 3.09271663e-02 2.25066319e-02
      8.12675655e-02 9.93793383e-02 1.01261280e-01 7.47159123e-02
      6.55866042e-02 7.11293519e-02 6.02241494e-02 5.19853681e-02
      6.77723512e-02 3.61708663e-02 4.27234657e-02 6.22091480e-02
      1.10757262e-01 1.34721681e-01 7.45399073e-02 3.47674675e-02
      3.11202370e-02 3.25556360e-02 3.38470377e-02 2.99686324e-02
      3.73042524e-02 8.38788375e-02 5.55080213e-02 2.55590230e-02
      1.64978262e-02 1.43350177e-02 2.08468139e-02 8.78875516e-03
      8.84524919e-03 9.13259573e-03 1.12386625e-02 1.24020828e-02
      1.01564759e-02 8.40488728e-03 7.60126859e-03 9.96939372e-03
      4.96600335e-03 3.11106211e-03 5.45968255e-03 1.05555626e-02
      1.16944658e-02 9.08406172e-03 9.52204596e-03 7.59975752e-03
      6.93089934e-03 1.46204326e-02 1.11398399e-02 1.24793975e-02
      1.97100304e-02 2.58920882e-02 1.69461258e-02 1.28630651e-02
      1.18770432e-02 1.24807516e-02 1.07823610e-02 1.24499537e-02
      2.04339474e-02 5.02676703e-02 5.55821806e-02 2.31081918e-02
      1.63581036e-02 1.21859843e-02 1.03700692e-02 4.48298268e-03
      7.45842978e-03 1.78888589e-02 4.29480560e-02 3.64511535e-02
      1.23329125e-02 9.90286563e-03 6.83739595e-03 4.30620136e-03
      3.10350792e-03 3.09606432e-03 5.16458601e-03 1.07847890e-02
      1.30961966e-02 3.98587855e-03 2.69552576e-03 2.56686122e-03
      3.33845220e-03</_>
    <_>
      1.19318045e-03 2.28743232e-03 6.71509467e-03 8.19317065e-03
      6.70495210e-03 2.52745557e-03 1.35151006e-03 1.37942738e-03
      1.52404059e-03 5.19313067e-02 2.89040152e-02 2.21959706e-02
      1.66427735e-02 2.62241717e-02 3.04260571e-02 1.82014592e-02
      1.80531014e-02 3.91782001e-02 1.04246937e-01 3.20541002e-02
      2.48372816e-02 2.83189509e-02 4.43097278e-02 3.13225016e-02
      1.71644669e-02 2.81985439e-02 1.14605114e-01 2.84725409e-02
      2.91396119e-02 2.94795465e-02 3.25537287e-02 3.58686298e-02
      2.27464288e-02 1.66306272e-02 2.00929474e-02 3.10260579e-02
      2.96624028e-03 6.72259089e-03 7.62077142e-03 1.20472182e-02
      1.09768482e-02 7.08803441e-03 3.22436425e-03 2.48341332e-03
      2.44664866e-03 3.69236199e-03 6.16308860e-03 1.07076373e-02
      1.69015881e-02 1.77899823e-02 1.13729704e-02 3.90745373e-03
      3.13480967e-03 3.71350930e-03 4.89529893e-02 3.43826674e-02
      3.26008797e-02 7.76647255e-02 2.10010633e-01 1.33870244e-01
      4.70245704e-02 4.28300425e-02 4.42830920e-02 2.10010633e-01
      1.09214835e-01 9.40636620e-02 1.07634269e-01 1.84887230e-01
      1.24414571e-01 7.26571009e-02 9.12987217e-02 1.63608178e-01
      1.70796335e-01 1.42978266e-01 1.22108445e-01 1.02744430e-01
      1.23166122e-01 7.79075548e-02 9.04651582e-02 1.43758506e-01
      1.07289344e-01 1.13011217e-02 2.42674388e-02 2.94524934e-02
      2.32890639e-02 1.89397968e-02 6.32486865e-03 5.84906666e-03
      3.32555640e-03 7.17223389e-03 1.79728623e-02 1.42038995e-02
      1.33385649e-02 2.40727682e-02 3.52443270e-02 2.00192295e-02
      6.66519906e-03 7.39898393e-03 1.72590669e-02 3.97288539e-02
      5.25029935e-02 5.60354926e-02 7.18980730e-02 2.10010633e-01
      2.10010633e-01 1.66274622e-01 5.67293167e-02 4.22754623e-02
      1.86861992e-01 2.05466971e-01 2.07638726e-01 1.57476425e-01
      1.72160655e-01 1.96332783e-01 1.70272321e-01 1.19127266e-01
      1.36545867e-01 9.04103145e-02 9.36314240e-02 1.05578676e-01
      9.14191455e-02 9.90951881e-02 6.81282654e-02 3.90804037e-02
      4.58052978e-02 6.72236308e-02 1.80508960e-02 1.64581425e-02
      1.94378532e-02 3.30080278e-02 2.87883356e-02 1.32662058e-02
      6.46639569e-03 6.56670704e-03 1.06296903e-02 9.69949272e-03
      6.37461711e-03 7.32311513e-03 1.13527039e-02 1.33411344e-02
      5.91545086e-03 5.14510367e-03 4.25439002e-03 1.11212302e-02
      2.29471568e-02 1.59289893e-02 2.50336602e-02 4.23093364e-02
