<?xml version="1.0"?>
<opencv_storage>
<opencv_ml_svm>
  <format>3</format>
  <svmType>C_SVC</svmType>
  <kernel>
    <type>LINEAR</type></kernel>
  <C>1.</C>
  <term_criteria><iterations>1000</iterations></term_criteria>
  <var_count>279</var_count>
  <class_count>2</class_count>
  <class_labels type_id="opencv-matrix">
    <rows>2</rows>
    <cols>1</cols>
    <dt>i</dt>
    <data>
      -1 1</data></class_labels>
  <sv_total>1</sv_total>
  <support_vectors>
    <_>
      -9.23861861e-01 9.00404342e-03 6.96135163e-01 -2.90347874e-01
      4.40047473e-01 7.38692820e-01 -1.01946024e-02 4.25649047e-01
      2.36023724e-01 1.44384181e+00 9.13222611e-01 -1.15637407e-01
      1.58095062e-01 2.11104453e-02 -5.23802519e-01 -1.25952542e-01
      -3.71403366e-01 -5.81130326e-01 1.17870796e+00 2.72101790e-01
      -7.60281146e-01 3.52278709e-01 5.86207807e-01 7.07997829e-02
      7.29099870e-01 3.93411577e-01 5.31774342e-01 6.55643821e-01
      1.87089100e-01 -3.27276319e-01 3.81563157e-01 -5.67075372e-01
      2.27435440e-01 -2.84347266e-01 -1.34233505e-01 3.30686331e-01
      -1.88815929e-02 7.52067327e-01 -4.14273292e-02 6.79045081e-01
      1.02541649e+00 5.75276136e-01 2.36985743e-01 -5.06027788e-03
      4.43114400e-01 -4.84889507e-01 2.03871623e-01 -4.15713549e-01
      2.37152785e-01 7.47545242e-01 5.71695387e-01 5.96536100e-02
      1.72936231e-01 -8.96980241e-02 -3.66376668e-01 1.11496374e-01
      5.38271666e-02 -1.81599066e-01 2.98846155e-01 3.45223159e-01
      -6.96942285e-02 -4.89203818e-02 2.81267166e-01 -3.34793404e-02
      3.56185809e-03 9.57807899e-02 -1.41339973e-01 -5.71017385e-01
      -3.84523809e-01 -2.52167434e-01 -5.81979334e-01 -5.34246802e-01
      8.79716128e-02 -5.51129162e-01 -6.09139621e-01 2.87536860e-01
      -1.50404521e-03 2.04811677e-01 2.81964261e-02 -2.16565430e-01
      -2.40072068e-02 1.22858360e-01 -5.79310596e-01 2.08612699e-02
      6.83820605e-01 -6.12711981e-02 -9.44525152e-02 3.36508572e-01
      4.84362155e-01 -1.35629445e-01 -1.08299351e+00 -4.87633497e-01
      -2.06970632e-01 -2.56848395e-01 -7.06306934e-01 1.55412450e-01
      -6.06380999e-01 -8.97975266e-01 -8.81983161e-01 -7.46445596e-01
      -1.71078175e-01 1.77612677e-01 -1.24124885e-01 -4.81721818e-01
      2.04249725e-01 3.97703230e-01 5.30609190e-01 -6.92318439e-01
      -7.03236163e-01 -9.19510126e-01 2.21834004e-01 -4.61277634e-01
      -4.91378725e-01 -4.28108901e-01 -5.49122542e-02 -1.94565117e-01
      -8.37279141e-01 5.77846766e-01 6.63381457e-01 6.07846044e-02
      1.15302598e+00 8.00553679e-01 5.79086170e-02 6.17336631e-01
      1.46448147e+00 2.72612095e-01 2.28683457e-01 1.05665421e+00
      7.27997959e-01 5.84787965e-01 4.20794159e-01 1.32931873e-01
      -2.81225979e-01 -1.00261465e-01 -6.28900588e-01 4.37045693e-01
      -3.82043839e-01 3.77476543e-01 7.81452179e-01 2.16603920e-01
      3.55826229e-01 -4.44292665e-01 4.85782683e-01 6.32116437e-01
      -5.03517807e-01 -8.58467370e-02 7.09204003e-02 -1.96838766e-01
      -1.45678902e-02 7.39438832e-01 -7.20603347e-01 -4.24393833e-01
      3.68849605e-01 -3.77160966e-01 1.50635481e-01 7.04579234e-01
      -6.71188414e-01 6.50525913e-02 -2.02326149e-01 -8.48422050e-01
      -1.93867847e-01 9.82565805e-02 -9.68375683e-01 1.72962800e-01
      4.90791351e-01 1.95084676e-01 4.52587724e-01 1.85357723e-02
      5.65600276e-01 7.89035738e-01 4.97611076e-01 1.40227437e-01
      3.91618192e-01 -1.12749204e-01 8.36472958e-02 -6.26524448e-01
      -1.35739148e-01 -3.15473586e-01 -6.11045301e-01 -8.56581256e-02
      7.09465221e-02 5.33732057e-01 -2.73523808e-01 4.01737899e-01
      6.39797151e-01 1.23786449e-01 6.00964367e-01 1.06878316e+00
      7.20087588e-01 2.90965468e-01 -1.15688607e-01 5.01560926e-01
      1.04089141e-01 -2.80865312e-01 2.38677099e-01 -6.40145123e-01
      1.39798447e-01 3.29551250e-01 5.99393368e-01 9.99215782e-01
      1.52448785e+00 1.31155443e+00 1.56340361e+00 1.69175208e+00
      3.53786230e-01 1.36858070e+00 1.05267346e+00 -1.23718286e+00
      -2.43514135e-01 -1.85604036e-01 -2.19181329e-01 -4.97542679e-01
      -1.81555778e-01 -9.48528290e-01 1.37524456e-01 -1.02747369e+00
      -4.39941823e-01 -6.92428648e-01 5.09019852e-01 4.65730071e-01
      -3.12192470e-01 5.78134097e-02 2.12333664e-01 1.78121880e-01
      7.47170076e-02 -4.65548605e-01 -7.70671293e-02 1.77417561e-01
      8.20946246e-02 -4.50847387e-01 5.75259805e-01 -3.81947160e-01
      -6.16072476e-01 2.78138429e-01 -9.10433084e-02 -2.72286534e-01
      1.62410438e-01 -2.93507397e-01 -1.15424119e-01 -1.48138031e-01
      -3.89671266e-01 -2.34298512e-01 -5.21370992e-02 -9.00822412e-03
      -3.61969694e-02 -3.74250151e-02 -1.19554944e-01 -3.25876057e-01
      -8.22570562e-01 -4.02259618e-01 -7.51015246e-01 -1.53557074e+00
      1.41982302e-01 3.91457200e-01 -8.25310826e-01 1.16153383e+00
      4.27920371e-01 8.24666172e-02 9.41306651e-01 3.41817498e-01
      -6.49864018e-01 4.33763415e-02 4.21445191e-01 7.74417520e-01
      2.37991363e-02 4.61999327e-02 9.17891204e-01 -1.25394332e+00
      -9.89938453e-02 3.08570713e-01 -4.15938288e-01 -2.36223862e-01
      4.33086425e-01 3.36741328e-01 6.66030049e-01 1.11691892e+00
      1.05507962e-01 8.79661679e-01 1.30623209e+00</_></support_vectors>
  <uncompressed_sv_total>189</uncompressed_sv_total>
  <uncompressed_support_vectors>
    <_>
      1.04889371e-01 3.57082546e-01 3.96738738e-01 1.23684026e-01
      4.00000006e-01 4.00000006e-01 2.69665450e-01 2.38565832e-01
      1.65660635e-01 1.67090259e-03 1.84112906e-01 1.95192873e-01
      2.59254098e-01 2.44278610e-01 8.48189145e-02 4.00000006e-01
      4.00000006e-01 9.68269557e-02 1.48283839e-01 8.11037272e-02
      6.60582483e-02 1.79135114e-01 9.22720581e-02 2.47954559e-02
      2.85825968e-01 1.63277104e-01 4.97397333e-02 2.53431182e-02
      1.03719711e-01 3.15428764e-01 1.40541196e-01 1.42206281e-01
      3.11467592e-02 7.63760358e-02 8.49488825e-02 2.96241101e-02
      2.83380151e-01 2.37176776e-01 4.00000006e-01 1.94391012e-01
      2.46710867e-01 4.54544574e-02 7.58588463e-02 1.29164994e-01
      4.97083589e-02 1.69073092e-03 6.18727272e-03 3.19505304e-01
      1.65125057e-02 2.71641731e-01 4.96723242e-02 1.08511150e-02
      1.66925639e-01 5.34254536e-02 3.47982086e-02 2.49971896e-02
      1.09384805e-01 1.83857456e-02 1.44064635e-01 5.85898533e-02
      1.35316513e-02 1.33449882e-01 5.74056245e-02 1.24831110e-01
      5.87265082e-02 9.21550542e-02 4.93456870e-02 1.87251538e-01
      7.30765313e-02 2.06630938e-02 1.82163447e-01 1.22299947e-01
      2.57759802e-02 2.52628140e-02 1.26600653e-01 1.17019005e-02
      1.18576750e-01 3.57141405e-01 9.00693983e-03 1.22811303e-01
      1.72566146e-01 1.38498947e-01 4.63612378e-02 3.17499667e-01
      5.55243604e-02 5.48414886e-02 4.00000006e-01 3.50777805e-02
      1.02422200e-01 3.99999648e-01 1.04299448e-02 1.05881933e-02
      3.63899797e-01 0. 6.38551041e-02 4.00000006e-01 1.42933391e-02
      2.10365355e-01 3.04981679e-01 6.56714365e-02 1.62337814e-02
      9.37933102e-02 3.46850380e-02 1.61522739e-02 1.73552155e-01
      4.35862318e-02 3.82576108e-01 2.50988096e-01 1.18522095e-02
      1.07561536e-02 4.09121588e-02 1.76802045e-03 1.61135849e-02
      8.96619856e-02 1.78883635e-02 1.81583434e-01 1.82262197e-01
      1.91715658e-01 5.63285202e-02 4.37581316e-02 7.71782771e-02
      2.05526203e-02 4.48862761e-02 4.59488966e-02 1.12454206e-01
      1.04041457e-01 4.22682730e-04 1.93304066e-02 4.85192165e-02
      4.75422340e-03 3.26410905e-02 7.25611597e-02 7.38692749e-03
      5.85877486e-02 3.62665579e-02 1.89223103e-02 3.00851073e-02
      2.73554195e-02 9.82809626e-03 2.95743234e-02 7.03882277e-02
      8.46065767e-03 2.46061068e-02 7.91373998e-02 6.27382174e-02
      5.11673465e-02 1.59980394e-02 6.38944507e-02 7.62486011e-02
      1.07907832e-01 3.53656113e-02 9.65830088e-02 1.55261636e-01
      6.07039221e-03 1.38598144e-01 9.12180543e-02 8.72855913e-03
      1.75925046e-01 1.99608356e-01 6.20383769e-02 1.09418929e-01
      1.69137970e-01 2.43388325e-01 3.60989213e-01 4.00000006e-01
      1.71678275e-01 4.00000006e-01 4.00000006e-01 2.90246874e-01
      3.39068115e-01 4.00000006e-01 1.21008474e-02 1.90395147e-01
      4.00000006e-01 2.59254098e-01 2.80654132e-01 4.00000006e-01
      4.00000006e-01 4.00000006e-01 3.58825624e-01 2.13955313e-01
      9.73375142e-02 1.59851551e-01 1.93008155e-01 1.08424336e-01
      1.98347628e-01 3.11399549e-01 4.00000006e-01 2.80048639e-01
      3.71953249e-02 1.14475854e-01 3.29982787e-01 1.42309219e-01
      1.58319876e-01 1.20808735e-01 9.42644179e-02 2.66532272e-01
      2.11886346e-01 3.33142191e-01 2.63328791e-01 4.00000006e-01
      2.25260139e-01 2.58418828e-01 9.03407335e-02 1.21807754e-01
      2.41619274e-01 1.53749794e-01 2.11341353e-03 2.55176798e-02
      3.36765438e-01 2.12667286e-02 2.90235966e-01 1.22233465e-01
      1.82380415e-02 2.25513458e-01 8.96920189e-02 5.37205189e-02
      5.50823025e-02 1.36740208e-01 2.82138418e-02 1.73638985e-01
      1.28978059e-01 2.19923146e-02 1.58056006e-01 1.36543036e-01
      1.87569454e-01 1.09893858e-01 1.08153179e-01 1.13240182e-01
      2.50104696e-01 1.80984378e-01 5.60287163e-02 2.78746486e-01
      2.62166321e-01 3.18463705e-02 1.63860947e-01 2.17818737e-01
      2.04304606e-02 2.67765015e-01 4.00000006e-01 7.10453242e-02
      2.32230216e-01 2.99641848e-01 4.67043929e-02 7.29490593e-02
      3.01517695e-01 5.48767857e-02 1.93662658e-01 3.34226966e-01
      1.25019595e-01 3.58381808e-01 4.39977586e-01 1.11730270e-01
      1.32413775e-01 4.28222954e-01 9.41120535e-02 1.98469400e-01
      3.18608582e-01 1.40345931e-01 2.72474408e-01 2.40986288e-01
      2.00029269e-01 1.69493109e-01 2.88379252e-01 1.24131471e-01
      2.81640381e-01 3.03376615e-01 1.75385237e-01 3.43557537e-01
      2.77835935e-01 2.34084621e-01 3.12366307e-01 4.26272213e-01
      3.15811217e-01 4.25970435e-01 3.08689594e-01 2.34218195e-01
      3.92614305e-01 2.09969357e-01</_>
    <_>
      8.86711702e-02 1.98883027e-01 7.02782422e-02 8.31637606e-02
      3.99992645e-01 2.11559385e-01 7.85183609e-02 1.75157383e-01
      7.74698853e-02 6.83352500e-02 2.59345710e-01 3.61290395e-01
      7.86806196e-02 3.23756963e-01 1.56096011e-01 2.91959047e-01
      3.83626968e-01 1.41834795e-01 1.00922987e-01 3.77331346e-01
      4.00000006e-01 1.61356688e-01 3.69353771e-01 2.33449727e-01
      2.73971558e-01 3.83084744e-01 2.47452304e-01 1.45697743e-01
      1.29941672e-01 8.02250206e-02 1.23484030e-01 3.75689268e-02
      2.65380442e-02 1.94985077e-01 2.87864566e-01 1.91478372e-01
      2.99527138e-01 1.03176236e-01 2.89006867e-02 1.33605212e-01
      3.21526155e-02 1.21452063e-02 1.23453692e-01 1.28131807e-01
      1.45443648e-01 9.31731611e-02 2.18696836e-02 1.10135591e-02
      3.00073847e-02 4.94374428e-03 2.82832840e-03 2.21912079e-02
      1.59697421e-02 3.44022103e-02 6.33580908e-02 2.80946102e-02
      1.31465103e-02 5.81986569e-02 1.60974860e-02 4.98455856e-03
      3.03510204e-02 6.65793419e-02 5.06466217e-02 6.67665824e-02
      2.54598968e-02 1.41738011e-02 3.38791087e-02 1.46743860e-02
      7.43721053e-03 2.86641307e-02 1.73930377e-01 9.42725986e-02
      6.28001094e-02 1.98090449e-02 2.38295831e-02 2.24226397e-02
      2.01144703e-02 4.93557379e-02 2.22690199e-02 2.76318341e-01
      1.40334561e-01 1.47207171e-01 3.52102034e-02 4.65697162e-02
      7.22862780e-02 3.76647525e-02 1.24130361e-01 3.77703011e-02
      3.31765682e-01 2.49068052e-01 2.72502750e-02 2.47312114e-02
      1.86997592e-01 4.68194708e-02 7.41799548e-02 3.67308885e-01
      5.73032945e-02 1.80979639e-01 1.17168687e-01 5.92388585e-02
      5.49787804e-02 1.65007427e-01 8.05000514e-02 1.02979623e-01
      4.00000006e-01 1.01480916e-01 1.84409320e-01 3.34138572e-01
      9.86375809e-02 4.82955948e-02 7.68060088e-02 1.10637039e-01
      1.34365499e-01 3.88663381e-01 8.72531235e-02 1.62922084e-01
      3.21669400e-01 2.90705472e-01 1.28759623e-01 8.73982981e-02
      2.36013591e-01 1.90984040e-01 3.26569915e-01 1.20172381e-01
      1.62152529e-01 2.53596246e-01 1.68237984e-01 3.28858681e-02
      3.98855545e-02 4.19122465e-02 7.81896412e-02 1.07809484e-01
      6.44750744e-02 6.16159067e-02 5.64147308e-02 1.77178368e-01
      5.92554286e-02 2.75538228e-02 5.64263389e-02 6.71470016e-02
      7.30135888e-02 6.84456825e-02 5.85676432e-02 5.38226031e-02
      9.10307169e-02 5.45359626e-02 3.48460861e-02 7.22901970e-02
      5.83627783e-02 4.51936163e-02 5.93710281e-02 4.15854752e-02
      2.93286853e-02 4.17697243e-02 7.12064207e-02 3.73828709e-02
      4.73974720e-02 1.86364219e-01 7.35025108e-02 6.28015995e-02
      6.19514100e-02 2.24338248e-02 2.35878363e-01 2.25202590e-01
      1.16847977e-01 1.55450031e-01 4.00000006e-01 3.35689783e-01
      1.16288692e-01 4.00000006e-01 2.93768942e-01 9.55855399e-02
      2.72572994e-01 4.00000006e-01 1.25500143e-01 3.48648578e-01
      4.00000006e-01 3.11503440e-01 4.00000006e-01 2.49447584e-01
      1.60161823e-01 3.86351049e-01 4.00000006e-01 2.37268448e-01
      3.95308197e-01 4.00000006e-01 3.13441753e-01 4.00000006e-01
      4.00000006e-01 2.44335368e-01 1.78237289e-01 1.57031000e-01
      2.32878029e-01 1.71934411e-01 3.93839270e-01 2.39378095e-01
      3.89590353e-01 4.00000006e-01 3.71526688e-01 2.24048719e-01
      1.16298988e-01 2.83567995e-01 2.23136723e-01 3.38715166e-01
      2.20310152e-01 2.90284365e-01 3.37518722e-01 2.61411130e-01
      5.47555499e-02 5.08991107e-02 7.19196349e-02 8.31333995e-02
      1.10637821e-01 8.66662860e-02 7.75856599e-02 9.08169597e-02
      2.40536511e-01 8.73500407e-02 4.07003276e-02 1.14624999e-01
      8.32444951e-02 7.79981390e-02 9.87966955e-02 1.25146985e-01
      1.04469240e-01 1.57797307e-01 7.99958408e-02 4.90198843e-02
      1.06169328e-01 7.30371624e-02 5.26308157e-02 8.80351663e-02
      2.15515852e-01 1.23601265e-01 1.04569837e-01 9.10154507e-02
      6.12124428e-02 6.98201060e-02 2.06478715e-01 1.22858234e-01
      8.50706100e-02 3.32260191e-01 1.62768394e-01 1.10378757e-01
      1.10032387e-01 1.77549645e-01 6.68203905e-02 2.09679171e-01
      3.41567189e-01 9.86735076e-02 3.64270836e-01 4.66018885e-01
      1.83184877e-01 1.33764580e-01 1.85573846e-01 9.07262638e-02
      1.89780608e-01 2.58049637e-01 1.25302032e-01 3.01161885e-01
      2.41295815e-01 3.51400465e-01 2.23533109e-01 2.07491964e-01
      2.41829917e-01 2.81679392e-01 3.28802794e-01 2.18452230e-01
      3.70661080e-01 2.74033964e-01 3.40511084e-01 3.21692854e-01
      2.33273178e-01 3.02582949e-01 3.31858546e-01 3.02222550e-01
      3.70950878e-01 4.42519814e-01 2.25907072e-01</_>
    <_>
      1.99872434e-01 7.04921633e-02 6.94052428e-02 1.38966814e-01
      8.61259848e-02 3.97142529e-01 1.13545120e-01 4.19787094e-02
      3.03671092e-01 1.83953717e-01 9.27827358e-02 2.13137180e-01
      1.02268018e-01 7.86480680e-02 3.70926797e-01 1.27503365e-01
      1.74550444e-01 3.60916287e-01 8.24830383e-02 8.73769745e-02
      3.15898508e-01 1.41022041e-01 1.20008945e-01 3.75242263e-01
      1.37377784e-01 2.21530765e-01 3.58660758e-01 1.22289717e-01
      1.52370989e-01 1.77956000e-01 1.94086000e-01 1.12994805e-01
      1.01945072e-01 1.29173726e-01 1.99328288e-01 2.96994567e-01
      3.97552371e-01 3.55628729e-01 1.75417796e-01 3.38462919e-01
      1.64422125e-01 2.83376500e-02 1.82639301e-01 1.45566821e-01
      8.40428248e-02 1.05237171e-01 1.20180503e-01 2.87187360e-02
      1.03173666e-01 2.03168355e-02 4.83061885e-03 5.56378216e-02
      1.65191889e-02 1.51537564e-02 9.38738585e-02 7.94639364e-02
      3.73263136e-02 1.22418463e-01 7.93546438e-02 1.18370419e-02
      3.12837847e-02 1.59706362e-02 2.90348940e-02 7.37880766e-02
      6.44253567e-02 3.69409323e-02 8.33268166e-02 5.97452149e-02
      2.30846386e-02 7.84385353e-02 3.88146788e-02 1.62466660e-01
      3.91367339e-02 1.12006150e-01 3.85824814e-02 7.13775158e-02
      1.57868378e-02 1.02349333e-02 3.93069200e-02 2.23411769e-02
      1.97089240e-01 8.30811709e-02 1.15840204e-01 7.14838803e-02
      9.00073349e-02 5.18416911e-02 2.36826222e-02 6.79031387e-02
      3.19924615e-02 1.74473763e-01 6.30251840e-02 4.10760194e-02
      2.46052258e-02 9.10718441e-02 3.68545949e-02 6.28647432e-02
      1.00005038e-01 7.25496113e-02 1.00840107e-01 1.01329923e-01
      7.93485865e-02 4.63128611e-02 8.53191391e-02 5.71727678e-02
      6.42911345e-02 1.51687413e-01 1.45801947e-01 1.59571066e-01
      1.43322811e-01 8.53575319e-02 5.94812036e-02 5.68351783e-02
      9.45064127e-02 8.70889500e-02 1.39142901e-01 1.44872248e-01
      2.12013721e-01 3.94120932e-01 2.78508991e-01 1.85593903e-01
      2.77015805e-01 2.75953829e-01 1.27320409e-01 2.94682920e-01
      1.39614075e-01 2.36465797e-01 1.40759245e-01 1.64793357e-01
      5.93777075e-02 1.84896827e-01 7.80077055e-02 4.61150073e-02
      1.32567540e-01 6.21473491e-02 6.98370486e-02 1.71984941e-01
      1.65194422e-01 7.34263882e-02 1.97991341e-01 7.45743290e-02
      6.25957549e-02 2.20549271e-01 8.09163079e-02 8.04895237e-02
      1.78017542e-01 1.08336732e-01 4.47680205e-02 1.45259425e-01
      6.72542304e-02 5.41901737e-02 1.47026494e-01 8.24753493e-02
      7.31976554e-02 1.45641521e-01 7.05711693e-02 5.88141382e-02
      1.05110876e-01 6.01602420e-02 1.41633257e-01 1.08691618e-01
      4.77531999e-02 9.75504294e-02 2.82953620e-01 1.86332375e-01
      1.40889108e-01 2.28974149e-01 1.37967676e-01 4.00000006e-01
      1.81448266e-01 7.39711672e-02 3.96443874e-01 2.46978909e-01
      1.33858740e-01 2.26413578e-01 1.93339854e-01 1.15502678e-01
      3.91537458e-01 2.27508307e-01 2.29797632e-01 3.98911119e-01
      1.83812916e-01 1.66725531e-01 3.27813864e-01 2.26341203e-01
      1.77181691e-01 3.95753533e-01 2.89065212e-01 2.90136456e-01
      4.00000006e-01 2.65612483e-01 2.37728477e-01 2.26251274e-01
      2.50921249e-01 2.07501248e-01 1.89034104e-01 2.68316627e-01
      2.80802935e-01 4.00000006e-01 4.00000006e-01 3.95564198e-01
      2.91958898e-01 4.00000006e-01 3.18982989e-01 1.55658036e-01
      3.75387520e-01 2.49800891e-01 3.13550502e-01 2.45996371e-01
      2.84973860e-01 8.80964398e-02 2.88070500e-01 9.83245373e-02
      5.09456173e-02 1.88205346e-01 7.86665380e-02 8.49907994e-02
      2.65858829e-01 2.44658381e-01 1.10752739e-01 3.20409834e-01
      1.53928995e-01 7.44327977e-02 2.51833051e-01 9.68869403e-02
      1.09524414e-01 2.51805574e-01 1.72762096e-01 8.17089379e-02
      2.28586257e-01 1.26999468e-01 7.72748366e-02 2.25465000e-01
      1.21290006e-01 2.35664308e-01 1.84778273e-01 1.82577312e-01
      9.73966122e-02 1.76488400e-01 7.59470910e-02 1.51868194e-01
      1.47998586e-01 7.00943917e-02 2.94639766e-01 3.22649390e-01
      1.48733720e-01 9.74564850e-02 2.97279894e-01 7.92799741e-02
      1.98033676e-01 1.68052271e-01 8.23708549e-02 3.07511806e-01
      3.12632263e-01 2.53777713e-01 1.27137512e-01 2.80934930e-01
      1.11692019e-01 1.89464316e-01 2.78649777e-01 1.08535111e-01
      2.91133195e-01 3.25773209e-01 3.32187444e-01 2.28440017e-01
      3.29408616e-01 2.72204667e-01 2.53234953e-01 3.08569670e-01
      2.28701606e-01 3.67092639e-01 3.20915908e-01 3.23017240e-01
      3.56483787e-01 2.84374803e-01 2.59830266e-01 2.98947752e-01
      3.08765024e-01 3.74578655e-01 4.54354048e-01</_>
    <_>
      1.94867969e-01 9.15257260e-02 3.19582015e-01 1.32446766e-01
      5.62990978e-02 3.97854179e-01 2.08409190e-01 7.38618821e-02
      6.62902445e-02 1.34146467e-01 9.95018631e-02 3.18956256e-01
      8.13564360e-02 1.18050963e-01 3.07251185e-01 2.60685712e-01
      3.57021213e-01 4.00000006e-01 1.45134538e-01 1.08367532e-01
      3.99462193e-01 1.10958673e-01 1.29006967e-01 3.65604043e-01
      1.67384133e-01 3.21563363e-01 4.00000006e-01 1.09769143e-01
      9.92898643e-02 9.46794301e-02 1.05683148e-01 1.87000945e-01
      9.01934803e-02 1.71789944e-01 1.22601822e-01 3.14164281e-01
      4.00000006e-01 1.90917313e-01 5.89355007e-02 2.91226029e-01
      1.27508789e-01 5.32441773e-02 1.33309707e-01 9.06103700e-02
      9.25193056e-02 6.12001494e-02 5.47797494e-02 1.53385680e-02
      9.69854817e-02 2.31854953e-02 8.83692224e-03 5.72912693e-02
      1.44181652e-02 2.84496341e-02 8.24732333e-02 6.04065135e-02
      2.21919827e-02 8.40541124e-02 3.88264284e-02 2.79531740e-02
      6.38790950e-02 2.42802575e-02 4.78843935e-02 8.08407292e-02
      7.76399598e-02 1.72974896e-02 7.85845369e-02 4.27998081e-02
      4.81784269e-02 5.39376065e-02 2.05568150e-02 1.63260013e-01
      5.25205135e-02 6.39358014e-02 2.43273713e-02 4.08270843e-02
      2.12952998e-02 8.30994397e-02 6.09949529e-02 1.52701959e-02
      2.98487842e-01 8.15455616e-02 5.73024862e-02 3.17699909e-02
      9.01458263e-02 3.79042253e-02 8.36028978e-02 5.34950048e-02
      3.31214927e-02 3.24563384e-01 9.34248045e-02 4.48192954e-02
      3.20227742e-02 7.56023452e-02 5.56024089e-02 5.90904504e-02
      1.20820493e-01 4.26188558e-02 3.71759921e-01 7.73246437e-02
      5.22743836e-02 5.70483617e-02 1.17898822e-01 1.38310552e-01
      1.42753512e-01 1.68655217e-01 9.41452980e-02 2.28967339e-01
      1.02146491e-01 7.34188259e-02 4.00212929e-02 9.47579890e-02
      1.20141819e-01 1.55700609e-01 1.59294933e-01 5.94115406e-02
      7.73945600e-02 3.89040709e-01 2.98058838e-01 1.12432949e-01
      2.31563464e-01 1.75086409e-01 2.59108126e-01 2.83507347e-01
      9.29585397e-02 7.61352107e-02 1.69904888e-01 1.24202646e-01
      3.50408331e-02 1.16094455e-01 5.61122783e-02 9.84668136e-02
      1.80188209e-01 4.76873145e-02 3.20534818e-02 2.28604764e-01
      1.45252943e-01 4.31465581e-02 1.38156801e-01 4.29357588e-02
      7.42059946e-02 2.03375012e-01 5.39275594e-02 2.66187452e-02
      1.26360193e-01 8.92825797e-02 7.04126880e-02 1.10171363e-01
      6.28466308e-02 8.31509754e-02 1.01233512e-01 6.78996146e-02
      4.11563292e-02 1.48535162e-01 4.36755419e-02 1.02065578e-01
      8.38486999e-02 5.07770814e-02 1.61940604e-01 6.88437894e-02
      5.64327091e-02 3.88193130e-02 2.76413560e-01 1.48828208e-01
      3.28929514e-01 2.22592592e-01 9.42033231e-02 4.00000006e-01
      2.61904180e-01 1.06983371e-01 3.76306176e-01 2.27571294e-01
      1.44321144e-01 3.28378141e-01 1.56958804e-01 1.73653424e-01
      3.44449371e-01 3.23809981e-01 3.68993878e-01 4.00000006e-01
      2.22459197e-01 1.60641909e-01 4.00000006e-01 2.28857502e-01
      2.45172948e-01 4.00000006e-01 3.09054673e-01 3.48011136e-01
      4.00000006e-01 2.11915672e-01 1.72708660e-01 1.34700716e-01
      2.00441152e-01 2.66800910e-01 2.45894134e-01 3.07446808e-01
      1.82013363e-01 3.76804650e-01 4.00000006e-01 3.53764355e-01
      1.71368420e-01 3.92529041e-01 2.64331311e-01 2.96629578e-01
      3.35269451e-01 1.83568895e-01 1.68654546e-01 2.31105044e-01
      1.78982347e-01 5.03794029e-02 2.13080004e-01 7.92977661e-02
      1.07303761e-01 2.37479419e-01 6.21054769e-02 6.05031215e-02
      3.11078012e-01 2.05659479e-01 6.53385371e-02 2.22210839e-01
      8.17621946e-02 1.02159180e-01 2.67254174e-01 7.82078058e-02
      7.45031461e-02 2.07200944e-01 1.66922539e-01 8.77101868e-02
      1.88755855e-01 1.05646461e-01 1.31329417e-01 1.55171126e-01
      8.84564221e-02 2.04416305e-01 2.01055676e-01 1.07611336e-01
      1.26392946e-01 1.24675781e-01 7.20724016e-02 2.45039999e-01
      1.29838780e-01 7.17029124e-02 3.37307155e-01 3.23181659e-01
      9.88328457e-02 1.49870470e-01 1.73573688e-01 6.90965801e-02
      2.47578114e-01 1.30919203e-01 1.11103565e-01 3.58269691e-01
      3.09985727e-01 1.50491387e-01 1.61562622e-01 2.65530318e-01
      1.01831473e-01 2.37252235e-01 2.54157752e-01 1.40707090e-01
      3.32681000e-01 3.25976044e-01 2.99806178e-01 2.41223291e-01
      2.72816271e-01 2.08907381e-01 3.02704304e-01 4.02017981e-01
      1.99131444e-01 3.38767529e-01 3.03202420e-01 2.87448585e-01
      2.93388367e-01 2.68771887e-01 3.19583237e-01 3.91087532e-01
      3.99475068e-01 2.97830790e-01 3.97941738e-01</_>
    <_>
      9.46189612e-02 6.54773489e-02 6.76155388e-02 1.31844938e-01
      1.68751553e-01 1.89761698e-01 1.43525064e-01 3.06724697e-01
      3.90410483e-01 1.08479492e-01 9.60117579e-02 2.26387948e-01
      9.30026099e-02 1.23425484e-01 3.63779873e-01 9.61729735e-02
      2.34893858e-01 2.56994903e-01 1.02664001e-01 1.01163805e-01
      3.75010341e-01 9.14120078e-02 1.35222048e-01 4.00000006e-01
      1.55757338e-01 2.84789115e-01 3.83270591e-01 1.43439054e-01
      2.46566013e-01 1.35421351e-01 1.55272126e-01 1.17514312e-01
      5.98807633e-02 2.03232914e-01 8.28315765e-02 1.98559891e-02
      3.92133534e-01 2.62563705e-01 1.22176453e-01 3.43687892e-01
      1.69471264e-01 4.29468602e-02 2.15163529e-01 6.94635212e-02
      1.49949975e-02 1.00427091e-01 6.01624101e-02 3.48817930e-02
      5.82465082e-02 4.01690230e-02 1.58163123e-02 5.51553816e-02
      1.59424022e-02 4.35041031e-03 1.11430749e-01 3.79721448e-02
      2.99021937e-02 8.94552916e-02 4.47019227e-02 1.21551454e-02
      9.44053382e-02 4.49462458e-02 7.94732384e-03 5.57114519e-02
      5.43346033e-02 2.57041752e-02 6.20649084e-02 5.24921678e-02
      1.94505118e-02 5.04913591e-02 4.58431095e-02 1.60610005e-02
      6.45536333e-02 6.31343499e-02 1.28586143e-02 5.91831431e-02
      3.60903293e-02 1.33388881e-02 4.93389517e-02 1.69934109e-02
      2.21292153e-02 6.15080446e-02 9.45581272e-02 3.27579528e-02
      5.34291118e-02 6.75016344e-02 1.04166036e-02 6.75280020e-02
      5.17807342e-02 7.80962035e-02 4.94101085e-02 4.87314053e-02
      1.54270399e-02 3.71993445e-02 4.19230014e-02 3.20767313e-02
      6.89755976e-02 4.73672077e-02 1.94704831e-01 6.01252764e-02
      9.79931355e-02 4.20695469e-02 6.43344671e-02 4.46530879e-02
      6.37177676e-02 1.01901278e-01 5.70985973e-02 3.54392111e-01
      1.13020532e-01 1.59102440e-01 3.03768180e-02 9.82673168e-02
      7.95984566e-02 4.53930907e-02 1.22468337e-01 8.50058347e-02
      3.68967861e-01 3.53425235e-01 3.07358593e-01 1.01486281e-01
      3.89627457e-01 1.80266619e-01 8.83950293e-02 2.90545285e-01
      1.60065562e-01 3.42182428e-01 1.52229413e-01 1.06637925e-01
      3.95184904e-02 1.52133912e-01 6.93227276e-02 2.68989280e-02
      6.25375807e-02 4.59736548e-02 1.15870714e-01 1.75651491e-01
      1.01600312e-01 2.13557500e-02 2.01720893e-01 1.03225470e-01
      4.11969870e-02 9.14137587e-02 5.50065376e-02 9.61989537e-02
      9.87676084e-02 5.15584573e-02 3.83223444e-02 1.28328770e-01
      6.89090416e-02 3.31939496e-02 1.04778826e-01 7.30008483e-02
      6.46891594e-02 4.71164808e-02 4.11387235e-02 3.35230865e-02
      7.18289986e-02 6.82725236e-02 4.44895066e-02 5.44994324e-02
      1.36652783e-01 1.15780368e-01 1.56126991e-01 1.60035491e-01
      1.00373492e-01 1.85274050e-01 2.35263407e-01 2.00178295e-01
      2.11053059e-01 3.18599701e-01 4.00000006e-01 1.57889619e-01
      1.44743145e-01 2.34624892e-01 1.30201966e-01 1.65348500e-01
      3.76424551e-01 1.65148616e-01 2.60553867e-01 3.83684337e-01
      1.62789270e-01 1.99156910e-01 3.80124688e-01 1.55746490e-01
      1.79875165e-01 4.00000006e-01 2.57658631e-01 2.97883660e-01
      4.00000006e-01 2.56459534e-01 3.26975137e-01 1.65798187e-01
      2.53539383e-01 1.97112828e-01 1.05273880e-01 3.07626814e-01
      1.67837411e-01 3.76225263e-01 4.00000006e-01 3.56538504e-01
      2.19419837e-01 4.00000006e-01 2.69629300e-01 1.31341904e-01
      3.70311916e-01 2.24341720e-01 3.52630913e-01 2.52656490e-01
      1.66800410e-01 7.44002685e-02 2.10380420e-01 1.09491751e-01
      4.27152365e-02 1.17692940e-01 6.19160458e-02 1.20221116e-01
      2.87082255e-01 1.39572471e-01 5.12579381e-02 2.91176200e-01
      1.47927433e-01 5.33521399e-02 1.85819119e-01 9.99528095e-02
      1.04146287e-01 1.54479131e-01 1.05893083e-01 6.40265197e-02
      1.90393686e-01 1.21401221e-01 5.26444688e-02 1.55270189e-01
      1.18843943e-01 8.07501525e-02 1.11670114e-01 1.04273051e-01
      4.63817120e-02 1.31012157e-01 1.04362860e-01 5.78283928e-02
      1.03838407e-01 1.53646186e-01 1.37909591e-01 2.54257321e-01
      8.94213095e-02 9.38208327e-02 2.22233459e-01 6.62525967e-02
      1.48004636e-01 1.31290272e-01 1.19471081e-01 3.39423120e-01
      2.35393718e-01 2.10357919e-01 1.50163531e-01 2.53157318e-01
      8.49907473e-02 1.60834089e-01 1.92600697e-01 1.04537569e-01
      2.66317248e-01 2.87355959e-01 3.31121922e-01 1.42414808e-01
      3.13947737e-01 2.83696890e-01 1.86744019e-01 3.44044656e-01
      2.76442498e-01 3.79728675e-01 3.00016671e-01 3.10053080e-01
      2.66399860e-01 2.85953999e-01 3.24733168e-01 2.12895259e-01
      2.88021415e-01 3.54855686e-01 3.56571376e-01</_>
    <_>
      6.17783815e-02 5.97870499e-02 4.29673120e-02 1.03655234e-01
      3.94543022e-01 1.33760929e-01 9.41402316e-02 2.64582783e-01
      7.68817514e-02 1.25940591e-01 2.76852638e-01 3.86337072e-01
      9.55415219e-02 3.83158326e-01 1.48912951e-01 2.24214166e-01
      3.16634953e-01 1.37815654e-01 1.07433304e-01 3.86897504e-01
      4.00000006e-01 1.06104121e-01 4.00000006e-01 2.66782105e-01
      2.44907618e-01 3.41723651e-01 2.45624304e-01 1.91832364e-01
      1.46120325e-01 1.41726881e-01 8.08624178e-02 3.59188542e-02
      3.10308635e-02 2.31666178e-01 1.92611188e-01 1.38951242e-01
      2.95534283e-01 1.20562717e-01 3.14906910e-02 1.46666586e-01
      4.19242978e-02 2.17396524e-02 1.41182333e-01 9.45666581e-02
      9.10575688e-02 1.18053317e-01 2.59245597e-02 2.06528306e-02
      3.07260882e-02 3.84711707e-03 5.14466595e-03 2.20386945e-02
      6.11553434e-03 2.37061456e-02 6.78188652e-02 2.60921977e-02
      1.67076811e-02 6.00693002e-02 1.01940781e-02 3.56824510e-03
      1.79257244e-02 5.50159588e-02 2.57370546e-02 6.56794086e-02
      3.34351510e-02 1.16330441e-02 5.21309525e-02 8.20344128e-03
      5.83889941e-03 2.36269161e-02 1.37153447e-01 2.42588893e-02
      8.57358724e-02 1.46965627e-02 1.85956359e-02 3.05871777e-02
      1.05753075e-02 5.75161800e-02 2.94103138e-02 2.12786287e-01
      5.00612408e-02 1.68007553e-01 3.22231799e-02 9.39795524e-02
      5.12771942e-02 2.95757502e-02 1.28095657e-01 2.77866367e-02
      2.06891403e-01 1.42723799e-01 4.60459813e-02 3.24578732e-02
      2.41455525e-01 4.28023748e-02 7.05832988e-02 4.00000006e-01
      8.64609927e-02 1.52134895e-01 1.95235804e-01 4.21227627e-02
      2.97134724e-02 1.50310948e-01 5.47215790e-02 9.15772617e-02
      4.00000006e-01 8.67370814e-02 2.49759510e-01 4.00000006e-01
      1.09479383e-01 3.82611677e-02 4.43601348e-02 1.14406101e-01
      1.05213538e-01 2.98676789e-01 1.19057581e-01 2.87534028e-01
      3.67924809e-01 2.82285511e-01 1.28641412e-01 4.78402227e-02
      2.34344304e-01 1.75599515e-01 2.59559572e-01 1.17258407e-01
      3.38003248e-01 2.92950124e-01 1.38729572e-01 2.66833678e-02
      2.41194256e-02 4.42830324e-02 4.96215969e-02 8.75013992e-02
      3.47199365e-02 1.00190498e-01 4.95875776e-02 1.99142396e-01
      4.91792485e-02 2.39346102e-02 8.47479180e-02 5.62341735e-02
      6.58646747e-02 5.84102646e-02 9.73534435e-02 5.11707366e-02
      9.29398686e-02 4.53573391e-02 2.24193782e-02 5.30283600e-02
      6.27244115e-02 3.81873846e-02 5.41139692e-02 5.27032167e-02
      2.99658962e-02 4.54891771e-02 4.45395038e-02 2.61166506e-02
      3.16652507e-02 1.44711927e-01 5.62448576e-02 4.83526215e-02
      1.24183498e-01 4.16920595e-02 2.29785949e-01 9.20102447e-02
      1.36946887e-01 1.54932410e-01 3.99479806e-01 2.61856645e-01
      1.21926881e-01 3.87932509e-01 2.19605565e-01 1.71986490e-01
      2.94147938e-01 4.00000006e-01 1.38343886e-01 3.99480522e-01
      4.00000006e-01 2.65190512e-01 3.87428164e-01 3.01200449e-01
      1.49556071e-01 3.90412152e-01 4.00000006e-01 1.60825670e-01
      4.00000006e-01 4.00000006e-01 2.86014825e-01 4.00000006e-01
      4.00000006e-01 2.83640862e-01 1.84381530e-01 1.86086953e-01
      1.95268527e-01 1.41132370e-01 3.29707682e-01 2.88090974e-01
      3.89549673e-01 4.00000006e-01 3.63076359e-01 2.32789367e-01
      7.93309212e-02 2.76372284e-01 2.17523813e-01 2.81299263e-01
      2.22482532e-01 3.80748004e-01 3.47959042e-01 2.56782889e-01
      5.26079237e-02 4.47722599e-02 7.50091225e-02 5.34687117e-02
      9.26460475e-02 5.67586422e-02 1.06306046e-01 7.32937232e-02
      2.66961306e-01 7.52714276e-02 4.06422876e-02 1.44817233e-01
      6.64282516e-02 6.94329217e-02 7.63360038e-02 1.52369380e-01
      7.69077986e-02 1.58619344e-01 7.87924826e-02 3.40524316e-02
      1.05159327e-01 7.09278584e-02 4.40262854e-02 7.77408630e-02
      1.89856634e-01 5.42247817e-02 1.31225079e-01 5.92360646e-02
      4.47122753e-02 6.22524209e-02 1.55287236e-01 1.13761030e-01
      7.77629316e-02 3.36969763e-01 9.17533189e-02 1.07076861e-01
      1.07071355e-01 1.81532413e-01 5.94301634e-02 2.16067523e-01
      3.07944775e-01 9.55661535e-02 3.77330333e-01 3.88598323e-01
      1.94785520e-01 1.35316253e-01 2.05967233e-01 7.45226741e-02
      2.03593716e-01 2.55914718e-01 1.05309762e-01 2.84180373e-01
      2.35550299e-01 3.86372507e-01 1.90660760e-01 1.99586660e-01
      2.52876788e-01 2.63556182e-01 2.93854237e-01 2.02806070e-01
      4.10189331e-01 2.77188569e-01 3.69619817e-01 2.82272816e-01
      2.35348552e-01 2.81442702e-01 2.94572771e-01 2.77628660e-01
      3.79796952e-01 4.50910330e-01 2.23125130e-01</_>
    <_>
      1.09385014e-01 4.00000006e-01 1.41612560e-01 5.75030968e-02
      1.07284367e-01 5.33169433e-02 9.86953750e-02 2.63370499e-02
      3.62283066e-02 1.28183603e-01 3.58429104e-01 1.20614208e-01
      2.94597089e-01 3.40753913e-01 1.61770299e-01 4.00000006e-01
      2.58137107e-01 7.08112568e-02 1.34120584e-01 4.00000006e-01
      1.91031799e-01 2.87346661e-01 3.53499323e-01 2.65585870e-01
      4.00000006e-01 1.86396182e-01 1.40321419e-01 9.27839279e-02
      7.37342685e-02 3.82725373e-02 2.06218213e-01 2.21617326e-01
      1.83264986e-01 5.31737879e-02 6.83540851e-02 1.65065795e-01
      1.19490325e-01 2.44615208e-02 1.79391596e-02 1.31334126e-01
      1.07422568e-01 1.33927748e-01 3.15755717e-02 4.51641344e-02
      1.85705572e-01 2.53211875e-02 5.63845038e-03 1.29303019e-02
      1.63537711e-02 1.44047467e-02 3.55711430e-02 2.80825235e-03
      4.46392270e-03 2.78798435e-02 5.72894625e-02 1.02398042e-02
      8.83978698e-03 2.40375400e-02 7.06726164e-02 5.51693067e-02
      1.00825625e-02 2.28480212e-02 6.18537702e-02 5.51307835e-02
      1.23271160e-02 7.15641910e-03 3.82203907e-02 2.25556493e-01
      4.89239693e-02 9.95611213e-03 8.41070935e-02 7.56759346e-02
      4.01368886e-02 1.59326904e-02 5.96213751e-02 2.53010392e-02
      2.49367505e-01 5.75864762e-02 1.22101717e-02 1.37932718e-01
      6.56800345e-02 4.39960957e-02 3.00227590e-02 1.23143710e-01
      3.17819864e-02 3.38502258e-01 1.32982448e-01 8.52653086e-02
      3.08113068e-01 1.38084233e-01 4.86020818e-02 1.02806322e-01
      4.00000006e-01 4.63681296e-02 1.92682177e-01 1.23587571e-01
      1.96007609e-01 4.00000006e-01 9.23600569e-02 9.47434902e-02
      1.43995792e-01 4.00000006e-01 8.99283588e-02 2.55186498e-01
      3.11213344e-01 9.44134593e-02 3.99669945e-01 1.11936174e-01
      1.20495245e-01 1.69426143e-01 3.87712628e-01 7.74593055e-02
      2.46758014e-01 3.06395739e-01 3.16905975e-02 3.91662456e-02
      6.66589662e-02 2.03893363e-01 2.34227985e-01 3.57081920e-01
      7.07828552e-02 2.05188051e-01 2.38428608e-01 3.82091291e-02
      3.94141525e-02 1.88694507e-01 5.18750660e-02 9.70967188e-02
      7.28095174e-02 3.95909548e-02 9.70975831e-02 4.35235463e-02
      1.88255534e-02 1.65787060e-02 5.18096574e-02 4.38362584e-02
      7.46686533e-02 5.48038222e-02 6.38688356e-02 6.62348419e-02
      3.84805650e-02 3.04927882e-02 1.16713364e-02 7.85660967e-02
      5.38432673e-02 4.84916680e-02 5.51249422e-02 7.59776384e-02
      5.00077717e-02 3.21557745e-02 3.66882570e-02 1.79534256e-02
      4.76380102e-02 6.44581392e-02 2.35338330e-01 6.95675239e-02
      4.49755043e-02 8.81051049e-02 2.05112677e-02 3.51903923e-02
      1.52492886e-02 2.28002593e-02 1.53381109e-01 4.00000006e-01
      2.64756292e-01 8.92850906e-02 3.90298188e-01 1.86299384e-01
      1.83960691e-01 3.25683892e-01 1.74312532e-01 1.76785707e-01
      3.95098537e-01 4.00000006e-01 3.16116750e-01 4.00000006e-01
      2.58345485e-01 4.00000006e-01 4.00000006e-01 1.63171321e-01
      2.13640869e-01 4.00000006e-01 4.00000006e-01 3.29082817e-01
      4.00000006e-01 4.00000006e-01 4.00000006e-01 4.00000006e-01
      2.13349298e-01 2.05902278e-01 2.43160427e-01 3.99139911e-01
      2.42167413e-01 3.94717842e-01 3.88234943e-01 8.48643854e-02
      1.07520357e-01 2.04123065e-01 2.63119698e-01 2.58689523e-01
      3.69732201e-01 1.93803370e-01 3.12610567e-01 3.12745303e-01
      6.97846860e-02 8.45782980e-02 2.74400055e-01 7.71962553e-02
      1.02735162e-01 8.57398063e-02 5.59447296e-02 1.11502327e-01
      7.90946856e-02 2.16338076e-02 2.10426301e-02 7.96895176e-02
      1.01125717e-01 8.49084482e-02 6.36436194e-02 8.79063755e-02
      1.36907458e-01 9.36498940e-02 4.05753478e-02 3.45193557e-02
      1.40419886e-01 1.08974084e-01 6.08187802e-02 6.22813627e-02
      1.14198022e-01 2.75564283e-01 8.10797438e-02 4.66443747e-02
      1.02060534e-01 1.23313949e-01 1.04595058e-01 2.51271069e-01
      1.29188865e-01 7.02765435e-02 3.37262452e-01 7.80977681e-02
      4.74005565e-02 1.53182000e-01 8.84802938e-02 6.07492290e-02
      2.48695135e-01 3.23854625e-01 1.06696017e-01 4.06479865e-01
      4.23723847e-01 1.70570105e-01 2.94212639e-01 4.19635504e-01
      7.43850768e-02 2.38827944e-01 2.75591552e-01 1.35001957e-01
      3.08854103e-01 2.13241130e-01 1.70375213e-01 2.40478829e-01
      1.64140835e-01 2.14318559e-01 3.11516672e-01 2.99603075e-01
      1.70774117e-01 3.58423650e-01 2.38722712e-01 1.90290272e-01
      2.23507106e-01 1.06431477e-01 3.51801395e-01 3.49696487e-01
      2.88071007e-01 3.51978958e-01 4.49039847e-01 1.81387842e-01
      2.16074929e-01 2.23056585e-01 7.71303773e-02</_>
    <_>
      1.09305531e-01 1.09431513e-01 1.76372096e-01 2.14849249e-01
      8.16928148e-02 2.83686936e-01 2.59287030e-01 1.80746078e-01
      3.76780093e-01 4.77073044e-02 8.03392306e-02 9.23963264e-02
      1.62218943e-01 1.97973475e-02 1.16232425e-01 1.68610394e-01
      1.35213695e-02 1.20141562e-02 8.32457840e-02 8.20134580e-02
      5.73376864e-02 1.43387839e-01 9.52674299e-02 3.12918335e-01
      1.44048363e-01 1.89321384e-01 2.47963071e-01 2.81332314e-01
      8.20048153e-02 1.23646408e-02 1.43658221e-01 8.38606060e-02
      7.25593269e-02 3.88609469e-02 8.86065140e-02 3.01297493e-02
      1.88683748e-01 1.73242033e-01 7.34128654e-02 8.48335028e-02
      1.82994187e-01 3.08046341e-01 1.37657225e-01 2.90746868e-01
      3.19153726e-01 2.71225542e-01 1.83423430e-01 5.04757576e-02
      3.82168591e-02 3.13318637e-03 2.82309786e-03 8.82301014e-03 0. 0.
      1.44655198e-01 1.25421643e-01 5.30762412e-02 3.13415304e-02
      1.09388130e-02 5.77959903e-02 3.30781043e-02 2.82513537e-03
      1.00642163e-03 1.10546529e-01 1.08438864e-01 2.52032112e-02
      3.81536931e-02 2.80244537e-02 8.37663636e-02 5.53888679e-02
      3.41015495e-02 1.21163644e-01 1.24072850e-01 1.04342133e-01
      2.14973930e-02 4.37929854e-02 1.47995511e-02 5.65894730e-02
      1.03549380e-02 2.43233587e-03 2.40492839e-02 4.00000006e-01
      6.44335225e-02 1.00784868e-01 2.00145140e-01 6.42489865e-02
      9.68393460e-02 7.91179389e-02 7.52388015e-02 2.20026135e-01
      4.00000006e-01 1.13965370e-01 6.72756210e-02 2.86152184e-01
      5.96476272e-02 9.10725296e-02 2.24403311e-02 0. 0. 3.86708379e-01
      1.60235599e-01 1.67635188e-01 2.44101852e-01 1.28477812e-01
      1.44291580e-01 1.05277523e-01 5.61447777e-02 1.17490411e-01
      2.45579824e-01 7.94694051e-02 1.29542783e-01 2.08884045e-01
      7.59060979e-02 1.02651820e-01 2.67848168e-02 4.26036399e-03
      1.38592636e-02 1.93078637e-01 1.74358636e-01 2.93781966e-01
      2.01084718e-01 2.18694001e-01 3.01114678e-01 2.48111203e-01
      3.27333689e-01 3.79656523e-01 2.17943102e-01 1.05476335e-01
      6.02040477e-02 1.88423932e-01 1.60430800e-02 2.34003440e-02
      1.26012228e-02 0. 0. 1.27918780e-01 8.22396278e-02 1.10700369e-01
      1.11619763e-01 6.63462207e-02 4.46908586e-02 6.16327859e-02
      3.11369170e-02 4.25422862e-02 2.15066463e-01 8.78254324e-02
      1.87985897e-01 1.28721565e-01 6.29733801e-02 1.41206667e-01
      1.81281522e-01 1.54675260e-01 2.32819319e-01 1.45058110e-01
      7.59348348e-02 8.55956227e-02 1.52585939e-01 3.40649709e-02
      6.88619614e-02 1.18343309e-01 1.34609398e-02 9.26746521e-03
      4.00000006e-01 1.66520059e-01 2.32593596e-01 3.04090679e-01
      1.45941809e-01 3.42549473e-01 2.73063719e-01 2.55984873e-01
      4.00000006e-01 4.00000006e-01 1.74340159e-01 1.59671977e-01
      3.28809559e-01 7.94449672e-02 2.07304969e-01 1.91050708e-01
      1.35213695e-02 1.20141562e-02 4.00000006e-01 1.92683578e-01
      2.07628384e-01 3.04095358e-01 2.00540274e-01 3.52737755e-01
      2.43414804e-01 2.45466232e-01 3.50969911e-01 4.00000006e-01
      1.61474243e-01 1.41907424e-01 2.82900751e-01 1.59766749e-01
      1.75211161e-01 6.56457618e-02 9.28668827e-02 4.39890139e-02
      3.54940951e-01 2.47600675e-01 3.25008214e-01 2.47312948e-01
      2.99337476e-01 3.70340168e-01 2.72081256e-01 3.54123533e-01
      4.00000006e-01 4.00000006e-01 2.23778263e-01 1.10679828e-01
      2.16771603e-01 1.91762671e-02 2.62234416e-02 2.14242321e-02 0. 0.
      2.72574067e-01 1.79450348e-01 1.63776636e-01 1.42961308e-01
      7.72850290e-02 1.02486849e-01 9.47108939e-02 3.39620523e-02
      4.35486995e-02 3.17444354e-01 1.75089955e-01 2.01990992e-01
      1.66875303e-01 9.09978300e-02 2.24973097e-01 2.36670434e-01
      1.88776761e-01 3.43092680e-01 2.69130945e-01 1.68973237e-01
      1.07093006e-01 1.96378931e-01 4.88645285e-02 1.25451446e-01
      1.28698245e-01 1.58932731e-02 3.33167464e-02 5.33771515e-01
      5.66807628e-01 4.09044057e-01 5.69782019e-01 3.13682199e-01
      3.69896114e-01 3.32102418e-01 2.32606128e-01 2.99767524e-01
      3.95681888e-01 1.52928233e-01 1.82289079e-01 1.84656650e-01
      1.39106244e-01 2.96651602e-01 9.61136222e-02 1.87633410e-01
      2.55871117e-01 4.25167978e-01 1.32744849e-01 1.92122579e-01
      3.48121971e-01 1.04292661e-01 2.98216254e-01 3.25317413e-01
      2.11901069e-01 2.58123428e-01 3.85864675e-01 8.68381038e-02
      4.88762185e-02 1.33543238e-01 3.07182092e-02 1.23496190e-01
      5.33695370e-02 5.82558475e-02 1.98777974e-01</_>
    <_>
      1.00511804e-01 1.61005303e-01 7.01287910e-02 6.07080087e-02
      1.75991714e-01 1.38246208e-01 9.62775126e-02 1.35591298e-01
      3.81355286e-01 7.04661831e-02 7.93523118e-02 2.16083005e-02
      4.50121723e-02 1.15816474e-01 1.32917138e-02 4.75411154e-02
      3.08437981e-02 1.51110083e-01 7.58364350e-02 7.20876902e-02
      2.48000678e-02 3.32536325e-02 3.99150923e-02 5.00279814e-02
      6.10960051e-02 1.14883684e-01 2.67361760e-01 3.47920805e-01
      1.39780194e-01 3.33982753e-03 1.23361655e-01 5.30412942e-02 0.
      4.83748317e-02 7.00525641e-02 4.11468595e-02 3.91781300e-01
      1.08138226e-01 6.86097667e-02 1.75725117e-01 9.92109627e-02
      6.12069108e-02 8.41240138e-02 1.74317375e-01 1.12340726e-01
      2.28450418e-01 9.48396102e-02 0. 2.85022855e-01 1.16430745e-01 0.
      2.20412947e-02 0. 0. 8.91988128e-02 5.65039031e-02 6.55636191e-03
      1.30038008e-01 1.00574829e-01 1.69961189e-03 2.58079376e-02
      3.68892252e-02 3.12619321e-02 7.05203861e-02 9.65223238e-02
      5.62637672e-02 1.33146316e-01 3.93163599e-02 1.55824861e-02
      4.40545604e-02 5.11583202e-02 2.10724156e-02 6.55733198e-02
      2.35611320e-01 2.27311086e-02 1.67888775e-01 2.19919384e-02
      5.39711071e-03 4.90433425e-02 2.53906026e-02 4.42402204e-03
      1.38025805e-01 4.00000006e-01 1.87570706e-01 2.01788798e-01
      8.61331075e-02 6.50621951e-02 1.71422780e-01 8.16218928e-02
      4.67648432e-02 8.65477026e-02 2.07333431e-01 1.11856116e-02
      2.12761939e-01 9.73087102e-02 1.62293464e-02 1.79876924e-01
      6.40754998e-02 2.31013726e-02 9.26948190e-02 1.16452105e-01
      2.17918023e-01 2.58292675e-01 1.43702284e-01 2.04568565e-01
      1.74252614e-01 2.16698438e-01 1.19833693e-01 3.08677584e-01
      1.32572785e-01 4.05465961e-02 1.51460260e-01 8.79987329e-02
      5.33300452e-02 1.52373970e-01 1.36999607e-01 6.27139658e-02
      4.00000006e-01 2.96389133e-01 2.27535859e-01 3.06309253e-01
      2.36100763e-01 3.10315132e-01 1.72268078e-01 2.96930969e-01
      2.78772056e-01 3.58640015e-01 2.46440470e-01 7.13231042e-03
      2.24619657e-01 1.93005964e-01 1.72422659e-02 8.97802711e-02
      1.27104309e-03 5.30337170e-03 2.77605414e-01 1.94558546e-01
      4.73600663e-02 1.46280646e-01 1.83810025e-01 9.21684951e-02
      6.61334693e-02 5.66810556e-02 4.22677547e-02 1.80091232e-01
      1.11687154e-01 1.24406300e-01 8.65365565e-02 1.21551611e-01
      2.31332704e-01 5.69796041e-02 1.09177716e-01 2.20965281e-01
      9.01684612e-02 9.49423015e-02 3.33200917e-02 5.46697453e-02
      9.27388817e-02 3.34445797e-02 8.03565979e-02 3.36694941e-02
      4.81630862e-02 2.38537654e-01 4.00000006e-01 2.19367743e-01
      2.45382309e-01 2.11907238e-01 2.03308389e-01 2.05389261e-01
      2.17213184e-01 3.86428535e-01 1.57013893e-01 2.86685795e-01
      3.27939093e-02 2.42766678e-01 1.88868299e-01 2.95210592e-02
      1.96649283e-01 9.49193016e-02 1.74211457e-01 1.68531224e-01
      1.88539743e-01 2.20457390e-01 2.76710004e-01 1.76564187e-01
      2.47995526e-01 1.95807174e-01 2.80288041e-01 3.38926435e-01
      4.00000006e-01 2.72352934e-01 4.38864231e-02 2.52208501e-01
      1.41040057e-01 5.33300452e-02 1.70823708e-01 2.07052261e-01
      1.03860833e-01 4.00000006e-01 3.37636739e-01 2.32692316e-01
      3.86018753e-01 2.77469426e-01 3.21853608e-01 2.01946810e-01
      3.34300041e-01 3.40331942e-01 4.00000006e-01 3.15624446e-01
      7.13231042e-03 3.87721092e-01 2.41554886e-01 1.72422659e-02
      1.11821555e-01 1.27104309e-03 5.30337170e-03 3.66804272e-01
      2.51062423e-01 5.39164282e-02 2.53037453e-01 2.25747406e-01
      9.38680992e-02 9.19414014e-02 9.35702994e-02 7.35296905e-02
      2.50611633e-01 2.08209425e-01 1.80670068e-01 2.19682857e-01
      1.60867959e-01 2.45690808e-01 1.01034164e-01 1.60336092e-01
      2.42037699e-01 1.55741781e-01 3.11990380e-01 5.60512058e-02
      2.22558513e-01 1.14730820e-01 3.88416871e-02 1.29399940e-01
      5.90600967e-02 5.25871031e-02 4.06917334e-01 4.39772576e-01
      2.31280491e-01 5.50865591e-01 5.22693038e-01 2.36201182e-01
      4.70464081e-01 3.35218042e-01 2.89848059e-01 4.08176243e-01
      4.16081548e-01 2.73289174e-01 2.56657273e-01 1.57044575e-01
      2.40169540e-01 1.19579695e-01 1.59531415e-01 2.50756562e-01
      3.55293900e-01 2.42068842e-01 2.44883001e-02 2.93479353e-01
      1.87452465e-01 1.11192942e-01 1.17727458e-01 2.25942165e-01
      2.21381098e-01 4.19523656e-01 2.42853776e-01 2.29631513e-02
      2.17457935e-01 7.78061301e-02 2.95734480e-02 5.67549765e-02
      5.06453067e-02 1.13864399e-01</_>
    <_>
      5.12895137e-02 1.31558910e-01 9.74656269e-02 8.75897035e-02
      9.42963734e-02 3.32043558e-01 1.08528174e-01 2.23388508e-01
      4.00000006e-01 4.86890823e-02 1.11162193e-01 9.16319713e-03
      4.98334318e-02 7.13087022e-02 1.21163242e-01 3.57931368e-02
      8.86643007e-02 1.85989037e-01 4.18597311e-02 3.76638807e-02
      3.03669311e-02 3.90187912e-02 6.11679107e-02 1.10789217e-01
      1.04984134e-01 1.89994514e-01 2.53528327e-01 1.01550862e-01
      3.95815969e-02 2.51634861e-04 3.72047611e-02 3.59926149e-02
      1.80153493e-02 1.24340661e-01 1.36738166e-01 3.62453647e-02
      2.21850455e-01 8.87989700e-02 7.88974315e-02 8.94842222e-02
      1.18564166e-01 9.85090956e-02 2.12578133e-01 3.45948756e-01
      2.14679897e-01 3.28916252e-01 1.26259789e-01 0. 7.88204744e-02
      4.17108163e-02 0. 8.08225945e-03 0. 0. 1.41197979e-01
      6.74206018e-02 3.46297491e-03 7.36787021e-02 4.56935093e-02
      3.01280641e-03 2.45817006e-02 3.33237499e-02 2.34066956e-02
      1.36678845e-01 2.31922511e-02 3.10257021e-02 5.98047413e-02
      3.18924338e-02 2.58793347e-02 4.47135642e-02 1.18776165e-01
      6.58583120e-02 1.20031103e-01 3.36535498e-02 8.99664499e-03
      1.16493478e-01 2.33235639e-02 7.57107697e-03 2.96622398e-03
      2.71118619e-02 2.21498162e-02 1.09077759e-01 3.03347856e-01
      1.08894520e-01 1.93535998e-01 6.23130724e-02 6.10783882e-02
      4.39894050e-02 1.21284701e-01 1.39355451e-01 1.26101583e-01
      1.83237359e-01 4.01006527e-02 2.49629647e-01 7.57700875e-02
      1.90952830e-02 3.32097895e-02 3.64982635e-02 8.67936388e-03
      1.61365584e-01 1.15616083e-01 2.23999724e-01 2.22561806e-01
      1.74381584e-01 1.49073526e-01 9.05891135e-02 9.58257243e-02
      4.80079874e-02 2.67435402e-01 1.25456914e-01 6.89046085e-02
      1.38614550e-01 1.25841469e-01 8.27934444e-02 6.90982416e-02
      7.12759793e-02 1.50034185e-02 4.00000006e-01 2.90859193e-01
      2.69915938e-01 1.53621748e-01 2.28381515e-01 3.28305483e-01
      2.26456106e-01 2.42027164e-01 2.02160314e-01 3.31450999e-01
      2.58911967e-01 2.41277856e-03 9.73678231e-02 1.31512582e-02
      1.63038971e-03 1.17517393e-02 5.12340944e-03 6.30229770e-04
      2.43439257e-01 2.35463098e-01 5.79838641e-02 5.30320853e-02
      6.81924373e-02 8.74328613e-02 3.47193927e-02 6.34139255e-02
      2.27912888e-02 1.58782423e-01 1.61350995e-01 1.75158530e-01
      1.02316722e-01 1.05395816e-01 2.84864306e-01 9.12104324e-02
      1.06609769e-01 1.69511005e-01 5.83185516e-02 1.03029132e-01
      3.28672528e-02 5.17340451e-02 4.49131280e-02 1.17646441e-01
      1.36650866e-02 9.37298033e-03 5.42701930e-02 1.60367265e-01
      3.53988469e-01 2.06360146e-01 2.28670672e-01 1.56609431e-01
      3.36114705e-01 1.52517572e-01 3.22087139e-01 4.00000006e-01
      1.74790710e-01 2.50713438e-01 4.92638499e-02 2.69619226e-01
      1.47078753e-01 1.40258551e-01 6.90029413e-02 1.25162601e-01
      1.94668397e-01 2.03225285e-01 1.53280035e-01 2.32758850e-01
      2.38213331e-01 2.02212572e-01 2.59862870e-01 1.91373184e-01
      2.85820335e-01 3.01536292e-01 3.37202072e-01 1.65038496e-01
      6.91562444e-02 1.70526028e-01 1.61834091e-01 1.00808799e-01
      1.90376014e-01 2.08014131e-01 5.12487777e-02 4.00000006e-01
      3.34431708e-01 2.79712826e-01 1.97516575e-01 2.79830366e-01
      3.34871531e-01 3.15033376e-01 3.70297521e-01 3.74575555e-01
      4.00000006e-01 3.23548794e-01 2.41277856e-03 1.70674056e-01
      5.48620783e-02 1.63038971e-03 1.98340025e-02 5.12340944e-03
      6.30229770e-04 3.47263277e-01 2.69978046e-01 6.14468455e-02
      1.26710787e-01 1.13885976e-01 9.04456675e-02 5.93010932e-02
      9.67376828e-02 4.61979806e-02 2.89936692e-01 1.84543222e-01
      2.06184238e-01 1.62121490e-01 1.37288272e-01 3.00018489e-01
      1.35924026e-01 2.25385979e-01 2.35369280e-01 1.78349629e-01
      1.36682674e-01 4.18638922e-02 1.67480737e-01 6.82366937e-02
      1.25217512e-01 1.66313089e-02 3.64848450e-02 7.64200091e-02
      4.76071268e-01 4.98700321e-01 2.35045478e-01 4.88273025e-01
      3.65731239e-01 2.98656791e-01 3.05814534e-01 3.02620381e-01
      2.60921896e-01 3.24819177e-01 2.80202210e-01 2.59145319e-01
      1.52347758e-01 1.07283212e-01 2.73259372e-01 1.13850527e-01
      2.34768689e-01 2.31433034e-01 3.31144750e-01 2.29632333e-01
      6.21724837e-02 1.57333955e-01 1.57699361e-01 2.33614847e-01
      1.54681072e-01 2.69438297e-01 2.15061754e-01 3.04822505e-01
      1.40072659e-01 2.81161312e-02 9.50470716e-02 3.97603922e-02
      6.60506263e-02 2.96443701e-02 9.60905030e-02 1.70464307e-01</_>
    <_>
      2.53519446e-01 1.80482894e-01 7.00972676e-02 2.35788643e-01
      2.15002030e-01 5.41988686e-02 2.50475883e-01 3.69336754e-01
      1.56266809e-01 3.71850953e-02 1.53298780e-01 1.13055199e-01
      8.54371935e-02 1.59808472e-01 7.40280226e-02 2.00921565e-01
      2.69758195e-01 1.07289858e-01 1.20694794e-01 1.84646875e-01
      1.26895130e-01 1.47817343e-01 2.50968963e-01 1.03048444e-01
      1.57227322e-01 2.49934942e-01 8.88374820e-02 3.41321602e-02
      1.36599243e-01 4.00000006e-01 8.02195817e-02 3.75993520e-01
      3.60738367e-01 6.11900054e-02 3.33196372e-01 2.06170455e-01
      2.56673902e-01 1.80068761e-01 4.00000006e-01 7.96782002e-02
      2.84232706e-01 3.05177391e-01 4.82695773e-02 2.01475918e-01
      1.17498070e-01 0. 3.92032117e-02 6.91742375e-02 0. 8.50008279e-02
      3.80668670e-01 7.75558583e-05 2.70329565e-02 1.64829463e-01
      8.95147305e-03 2.24205274e-02 4.37186658e-02 8.91192723e-03
      5.14031947e-02 1.93525776e-01 5.83250728e-03 2.50027515e-02
      9.44968089e-02 4.46202122e-02 2.55153738e-02 3.98946814e-02
      9.56142321e-03 5.20804971e-02 1.51417136e-01 1.62265766e-02
      4.98936698e-02 1.20555691e-01 3.36714729e-04 6.91394694e-03
      1.05960341e-02 1.07678687e-02 1.93865225e-02 6.22430779e-02
      1.06706284e-02 2.50605345e-02 6.32042289e-02 1.10847101e-01
      4.01291400e-02 5.04999310e-02 5.66829517e-02 5.79017997e-02
      1.79015309e-01 4.63624820e-02 3.01620245e-01 4.00000006e-01
      2.78575346e-02 3.18418369e-02 3.53464633e-02 2.46005431e-02
      5.03293052e-02 1.44542933e-01 1.18624978e-02 3.30489069e-01
      4.00000006e-01 1.13785803e-01 9.33749974e-02 5.67036495e-02
      8.24876353e-02 8.72777626e-02 1.98362410e-01 3.98550816e-02
      2.21974552e-01 3.97291094e-01 2.56738402e-02 6.46726787e-02
      1.03599504e-01 3.78723778e-02 5.66753745e-02 1.95961416e-01
      1.83850974e-02 1.37662932e-01 2.50423193e-01 1.98558420e-01
      6.49612844e-02 1.24193490e-01 2.12208539e-01 5.64280115e-02
      2.89329469e-01 1.52477413e-01 2.04252779e-01 2.60645300e-01
      2.43041525e-03 2.70689391e-02 9.68701914e-02 2.80005410e-02
      4.86897305e-02 2.34551892e-01 1.19191613e-02 1.87510386e-01
      2.28794828e-01 2.78706141e-02 7.09734410e-02 2.15868443e-01
      1.23985298e-01 5.98552972e-02 3.14136863e-01 6.28836527e-02
      1.87248155e-01 8.73155072e-02 1.66165650e-01 1.41862750e-01
      1.98636830e-01 2.06657916e-01 1.13824025e-01 2.41273910e-01
      2.31325328e-01 3.52502316e-01 2.95493931e-01 1.28369210e-02
      1.17139943e-01 9.68363732e-02 1.36893660e-01 1.29387349e-01
      7.90153816e-02 2.49942541e-01 4.00000006e-01 1.34419113e-01
      3.03974628e-01 1.93933591e-01 1.20597206e-01 2.43271708e-01
      2.44493276e-01 2.33214170e-01 2.55106330e-01 4.00000006e-01
      4.00000006e-01 6.50426224e-02 1.63971692e-01 1.48401648e-01
      1.10037729e-01 2.07029819e-01 2.18570977e-01 2.12784082e-01
      4.00000006e-01 4.00000006e-01 2.34480619e-01 2.15944797e-01
      1.83598772e-01 2.11375296e-01 2.95422316e-01 3.01410854e-01
      1.97082415e-01 3.80715251e-01 4.00000006e-01 5.98059893e-02
      1.67463362e-01 4.00000006e-01 1.18091956e-01 3.83060902e-01
      4.00000006e-01 7.95750916e-02 3.82491380e-01 3.86836886e-01
      3.26147169e-01 2.01842815e-01 4.00000006e-01 2.39968091e-01
      3.12973261e-01 4.00000006e-01 2.00746983e-01 3.56810063e-01
      3.49682957e-01 2.43041525e-03 6.62721470e-02 1.66044444e-01
      2.80005410e-02 1.33690551e-01 4.00000006e-01 1.19967181e-02
      2.14543357e-01 3.59904826e-01 3.68220843e-02 9.33939740e-02
      2.55378187e-01 1.32897228e-01 1.11258507e-01 4.00000006e-01
      6.87161684e-02 2.12250918e-01 1.81812376e-01 2.10785851e-01
      1.56102657e-01 2.38531530e-01 2.11281806e-01 1.65904507e-01
      3.73407811e-01 2.32945949e-01 3.71785700e-01 3.70483875e-01
      1.31736360e-02 1.24053895e-01 1.07432373e-01 1.47661567e-01
      1.48773849e-01 1.41258508e-01 2.51008272e-01 4.00000006e-01
      1.97623372e-01 3.90474834e-02 4.74725179e-02 2.00283095e-01
      3.06407753e-02 1.48215786e-01 4.06609029e-01 5.21403812e-02
      4.13117796e-01 5.21777809e-01 1.54947340e-01 9.26657915e-02
      2.57209212e-01 6.88690543e-02 1.97052449e-01 3.87909383e-01
      4.97087352e-02 3.37679207e-01 3.76563102e-01 2.27223992e-01
      1.40044600e-01 2.35047862e-01 2.75794476e-01 2.43900120e-01
      3.86203021e-01 3.25020581e-01 5.44911146e-01 4.22753006e-01
      2.58612603e-01 4.65189964e-01 3.69056344e-01 3.63656104e-01
      4.26352710e-01 4.98061150e-01 3.16019088e-01 5.30490756e-01
      3.63485307e-01</_>
    <_>
      2.75475860e-01 1.63836479e-01 1.31733984e-01 1.90635085e-01
      1.35359034e-01 1.01068869e-01 2.80254126e-01 1.14956409e-01
      2.20889896e-02 3.58620733e-02 6.26198351e-02 1.04718000e-01
      1.25909954e-01 1.87459528e-01 9.91912708e-02 2.52051562e-01
      9.56675410e-02 5.43285832e-02 1.26546293e-01 1.37128174e-01
      1.17001861e-01 1.33120731e-01 1.71095550e-01 8.51741582e-02
      2.90346593e-01 1.95794016e-01 4.98495623e-02 3.07453647e-02
      2.37140954e-01 3.06851804e-01 4.60543334e-02 3.43923539e-01
      3.89459252e-01 3.20664555e-01 4.00000006e-01 1.36856675e-01
      1.66739076e-01 2.29801565e-01 3.55585933e-01 1.58874214e-01
      3.24367523e-01 4.00000006e-01 2.66710311e-01 3.74692917e-01
      1.61650971e-01 3.19054845e-04 2.88211368e-02 2.31852382e-01
      2.24446543e-02 1.10029727e-01 2.14300931e-01 3.12897153e-02
      3.55515689e-01 3.28594685e-01 5.02349064e-03 1.98158957e-02
      6.54085129e-02 8.24110210e-03 5.49916551e-02 5.84032759e-02
      2.45378781e-02 1.74709156e-01 1.69761777e-01 2.10033283e-02
      1.55562600e-02 7.31032193e-02 2.49925740e-02 3.16482671e-02
      7.27832764e-02 1.17022758e-02 1.34701431e-01 1.46337345e-01
      4.51211708e-05 8.71640258e-03 6.24201745e-02 6.61674887e-03
      1.47361718e-02 6.48765117e-02 1.08303744e-02 5.26840687e-02
      1.55129775e-01 6.03547916e-02 3.17866504e-02 7.34538734e-02
      6.19074516e-02 5.63178584e-02 1.13973588e-01 6.88752830e-02
      3.11037213e-01 1.80361539e-01 1.35363516e-04 2.68749404e-03
      6.63539916e-02 1.80433989e-02 3.94786522e-02 8.86291191e-02
      4.69550788e-02 2.65289932e-01 2.29946315e-01 7.24272430e-02
      1.84342898e-02 6.29945323e-02 6.69662356e-02 1.36926830e-01
      8.83047208e-02 5.31603545e-02 2.46452317e-01 1.81111813e-01
      7.88116362e-03 5.02805552e-03 6.47612885e-02 3.64954434e-02
      1.01763338e-01 2.43942976e-01 2.67038010e-02 1.30095303e-01
      2.02919364e-01 2.47001976e-01 7.56203532e-02 8.92129913e-02
      1.01274639e-01 9.38058794e-02 4.00000006e-01 4.73305769e-02
      1.34845868e-01 3.72044772e-01 2.87149334e-03 2.35211290e-03
      2.01547258e-02 5.90707548e-03 2.05643192e-01 2.93441772e-01
      3.58059444e-02 2.10448354e-01 2.66189337e-01 2.38415599e-02
      1.42530166e-02 1.59466937e-02 4.79157120e-02 2.50778109e-01
      2.25177512e-01 3.02202310e-02 1.20473802e-01 1.84459955e-01
      2.05624014e-01 8.43546093e-02 4.21106331e-02 1.25457689e-01
      2.30610669e-01 1.87702850e-01 1.15974933e-01 2.23636031e-01
      1.30473733e-01 4.05173525e-02 4.75132540e-02 4.62753512e-02
      1.00328878e-01 1.32607505e-01 8.11448246e-02 2.88568616e-01
      1.66051507e-01 6.57121316e-02 3.06563437e-01 1.75199032e-01
      2.05187857e-01 2.10535645e-01 1.91676900e-01 2.15042442e-01
      2.96367913e-01 3.87956828e-01 2.02450559e-01 3.59974355e-02
      6.53073341e-02 1.71071991e-01 1.43953353e-01 2.20143408e-01
      1.87820375e-01 2.76981801e-01 3.50762308e-01 2.71664828e-01
      1.98973536e-01 1.55562520e-01 1.79996416e-01 1.64319336e-01
      2.63070196e-01 1.73478872e-01 3.02783787e-01 3.91338915e-01
      2.30961353e-01 3.86265367e-02 2.38938302e-01 3.20328146e-01
      8.25497657e-02 3.76605779e-01 4.00000006e-01 3.26912075e-01
      4.00000006e-01 3.05180252e-01 3.19435537e-01 2.56833106e-01
      3.74150544e-01 1.91429615e-01 3.69833201e-01 4.00000006e-01
      2.84533501e-01 4.00000006e-01 4.00000006e-01 3.19054816e-03
      3.11732516e-02 2.43278921e-01 2.83517316e-02 2.67120481e-01
      4.00000006e-01 6.70956522e-02 4.00000006e-01 4.00000006e-01
      2.88650449e-02 3.40689123e-02 8.13551992e-02 5.61568141e-02
      2.79891223e-01 2.83580810e-01 5.47581166e-02 2.95182973e-01
      3.13903540e-01 2.26627409e-01 9.99108776e-02 1.15213856e-01
      1.48363262e-01 2.47365594e-01 2.60486126e-01 1.27677202e-01
      3.48942131e-01 2.67157614e-01 4.05624695e-02 5.62296547e-02
      1.08695529e-01 1.06945612e-01 1.47343680e-01 1.46021321e-01
      2.91102469e-01 2.18735576e-01 2.20841944e-01 2.96736937e-02
      3.37417722e-02 1.17048480e-01 3.02053411e-02 1.85401112e-01
      3.64516824e-01 1.36454031e-01 4.16714817e-01 5.28153598e-01
      1.60787448e-01 1.32925466e-01 3.08816016e-01 7.06121325e-02
      2.61280566e-01 3.91300291e-01 1.64332852e-01 3.72382283e-01
      3.11543554e-01 1.87754512e-01 8.27339143e-02 1.31072998e-01
      1.10844590e-01 2.74048388e-01 3.35008085e-01 3.43087196e-01
      4.46161091e-01 3.15069139e-01 2.45176628e-01 3.09433162e-01
      3.52844983e-01 3.92294824e-01 5.15077233e-01 4.21240270e-01
      3.94150496e-01 5.12262702e-01 2.77274758e-01</_>
    <_>
      2.96937764e-01 2.29146659e-01 2.23051727e-01 1.71112448e-01
      8.93428400e-02 2.71741211e-01 1.96497768e-01 5.38948290e-02
      1.60566494e-01 2.06908258e-03 3.82167078e-03 2.36541070e-02
      1.44162536e-01 6.64303675e-02 1.95423454e-01 1.35843217e-01
      5.51879108e-02 8.33984166e-02 1.73256904e-01 1.24631658e-01
      1.19660750e-01 1.91080719e-01 1.06771514e-01 2.16283441e-01
      2.33942091e-01 9.05239284e-02 8.17333609e-02 5.72230667e-03
      9.72911343e-03 2.67290995e-02 2.26424724e-01 3.86196941e-01
      3.71205389e-01 3.70860398e-01 3.44080031e-01 1.23780325e-01
      5.84904626e-02 7.43947849e-02 1.36364266e-01 1.98150113e-01
      3.99906963e-01 3.76001030e-01 2.50930667e-01 3.19046795e-01
      2.02351302e-01 0. 1.74076855e-03 1.00237820e-02 3.44840884e-02
      2.40107179e-01 3.34033400e-01 2.18162909e-01 3.59690189e-01
      1.56312510e-01 0. 8.77179089e-04 1.61587559e-02 1.61026530e-02
      4.06070687e-02 1.29411340e-01 5.49228936e-02 9.79095995e-02
      8.84632543e-02 2.41784826e-02 4.17337706e-03 3.18891928e-02
      2.10217033e-02 3.99213806e-02 2.76687384e-01 7.49113709e-02
      1.15222767e-01 7.92971626e-02 0. 0. 2.38348544e-03 6.98495284e-03
      2.56284978e-02 2.73317695e-01 1.52177643e-02 5.32674417e-02
      1.31324738e-01 4.28684279e-02 1.61625259e-02 6.72080219e-02
      2.39183884e-02 6.74212649e-02 3.51123571e-01 6.87321424e-02
      8.97137970e-02 3.71404886e-01 0. 3.94415390e-03 1.81086548e-02
      1.17281042e-02 5.52753210e-02 1.18678838e-01 9.85102057e-02
      9.80119333e-02 1.80234209e-01 1.35338157e-01 3.10836360e-02
      4.30759937e-02 5.04911840e-02 7.22980574e-02 8.79355818e-02
      1.34062946e-01 1.23569570e-01 1.33965567e-01 2.58635322e-04
      4.29177005e-03 6.37744926e-03 1.76243912e-02 6.64809644e-02
      1.22770399e-01 7.09140003e-02 2.49429971e-01 2.57612646e-01
      2.69969314e-01 1.19113512e-01 1.91993192e-01 7.15330765e-02
      6.94209039e-02 1.18833512e-01 5.05734533e-02 4.00000006e-01
      4.00000006e-01 0. 4.84543853e-04 1.12542491e-02 2.17252895e-02
      3.31045724e-02 3.47533897e-02 1.03144921e-01 3.96687299e-01
      3.52877408e-01 1.45482380e-04 1.00503098e-02 1.39133940e-02
      8.13970864e-02 9.97501910e-02 4.14822958e-02 1.64289504e-01
      3.40731263e-01 3.44125837e-01 2.67132789e-01 2.15818346e-01
      1.59009278e-01 1.49754286e-01 8.13722610e-02 6.00178801e-02
      1.50233388e-01 2.52532691e-01 1.75689325e-01 3.61442864e-02
      6.23068493e-03 1.58240926e-03 7.31894076e-02 5.59943132e-02
      6.51423186e-02 1.44323200e-01 9.77770984e-02 1.28894046e-01
      3.07431400e-01 2.30606526e-01 2.28522420e-01 1.79635465e-01
      1.56764090e-01 4.00000006e-01 2.38843143e-01 1.43608645e-01
      4.00000006e-01 2.06908258e-03 7.76582491e-03 4.17627580e-02
      1.55549556e-01 1.21705674e-01 3.02274704e-01 2.22679853e-01
      1.53199852e-01 2.63632655e-01 2.75540054e-01 1.55715317e-01
      1.62736744e-01 2.09072590e-01 1.79069579e-01 2.95910090e-01
      3.04121643e-01 2.14093447e-01 2.15698928e-01 5.98094240e-03
      1.40208835e-02 3.31065431e-02 2.32704967e-01 3.95230979e-01
      3.89136016e-01 3.84635687e-01 4.00000006e-01 3.47475260e-01
      2.84287006e-01 1.93508297e-01 2.26728112e-01 2.23639965e-01
      4.00000006e-01 3.93356711e-01 2.77404994e-01 4.00000006e-01
      4.00000006e-01 0. 2.22531240e-03 2.12780312e-02 5.62093705e-02
      2.59161025e-01 3.46444070e-01 2.72157401e-01 4.00000006e-01
      4.00000006e-01 1.45482380e-04 1.09274881e-02 3.00721489e-02
      9.74997431e-02 1.40357241e-01 1.70893639e-01 2.14753792e-01
      4.00000006e-01 3.78332406e-01 2.73051351e-01 2.18029261e-01
      1.90898448e-01 1.60853744e-01 1.21293649e-01 3.16830516e-01
      2.17859268e-01 3.58761311e-01 2.54986495e-01 3.61442864e-02
      6.23068493e-03 3.96589469e-03 8.01743567e-02 8.16228315e-02
      3.17960501e-01 1.59540981e-01 1.51044577e-01 2.60218859e-01
      2.94390526e-02 1.56505071e-02 2.47045476e-02 4.83413376e-02
      1.65449440e-01 3.73956174e-01 1.74838513e-01 4.02350128e-01
      5.03129423e-01 2.24683881e-01 1.77513778e-01 2.38201469e-01
      1.18762083e-01 2.46935964e-01 5.26317716e-01 2.22181678e-01
      3.96157056e-01 4.47507471e-01 1.36101052e-01 2.48868596e-02
      1.99060012e-02 1.36857033e-01 1.93089277e-01 2.62927473e-01
      2.81481653e-01 3.96313101e-01 3.40908796e-01 2.28500187e-01
      1.85327232e-01 2.36882195e-01 4.08277690e-01 3.35463196e-01
      4.60712910e-01 5.17014503e-01 4.72668350e-01 3.35757673e-01</_>
    <_>
      1.92914009e-01 9.84798595e-02 2.29594782e-01 1.91548914e-01
      7.38976374e-02 2.37215102e-01 2.12536454e-01 3.59652676e-02
      1.12755068e-01 5.61102070e-02 4.78035472e-02 1.65133372e-01
      1.84852615e-01 7.78472573e-02 1.16793722e-01 1.73645586e-01
      4.72340696e-02 1.12065874e-01 1.58126637e-01 8.70223194e-02
      2.11010486e-01 1.66228414e-01 9.32391584e-02 1.36587128e-01
      2.43729770e-01 5.95927685e-02 3.95485759e-02 1.72613233e-01
      2.97115713e-01 3.04770529e-01 2.40759313e-01 4.00000006e-01
      3.05019408e-01 4.00000006e-01 2.51558185e-01 6.87998459e-02
      1.62783235e-01 3.45970213e-01 3.25115174e-01 2.42424697e-01
      4.00000006e-01 3.43634605e-01 3.65395486e-01 2.73093373e-01
      1.31510004e-01 1.24800298e-02 1.00956887e-01 2.45274693e-01
      7.60703683e-02 1.56202376e-01 2.24733859e-01 2.05103785e-01
      3.94661337e-01 2.20701814e-01 1.52925309e-02 3.58229950e-02
      1.60201788e-01 3.14471051e-02 5.95592633e-02 7.54270256e-02
      7.95789883e-02 2.05423295e-01 1.16380990e-01 2.02649236e-02
      3.58366892e-02 2.13584989e-01 3.86093520e-02 4.87254336e-02
      1.19305737e-01 9.31378603e-02 1.78620681e-01 6.69129640e-02
      8.86529032e-03 2.06809342e-02 2.56914020e-01 1.40640773e-02
      2.88892128e-02 2.45202646e-01 2.80917883e-02 1.09097987e-01
      7.57688656e-02 2.62100510e-02 5.49453571e-02 2.13226289e-01
      4.81573716e-02 7.52768666e-02 4.00000006e-01 2.09811375e-01
      2.96825200e-01 9.65680033e-02 2.44041206e-03 3.20829935e-02
      7.95860291e-02 4.22523320e-02 5.18895388e-02 2.11247057e-01
      1.52472809e-01 3.16588998e-01 1.22440018e-01 4.07329910e-02
      4.06521708e-02 8.16471428e-02 1.46251574e-01 9.68527719e-02
      1.34310946e-01 1.52863726e-01 2.75067270e-01 8.12308788e-02
      1.54951599e-03 3.64597812e-02 8.69506299e-02 8.41799080e-02
      2.10869521e-01 2.41755337e-01 8.30398947e-02 2.12160647e-01
      1.55114770e-01 1.12556934e-01 5.37719950e-02 6.21486008e-02
      5.47825247e-02 3.30762953e-01 3.64619076e-01 1.22744828e-01
      2.81465024e-01 3.31842929e-01 5.90347685e-03 2.74173506e-02
      4.10804451e-02 8.87457132e-02 2.65728116e-01 3.14896137e-01
      1.25152618e-01 2.42236048e-01 2.84252018e-01 3.35449204e-02
      4.19510417e-02 3.27172019e-02 1.87763542e-01 3.09410661e-01
      2.43646130e-01 6.51701316e-02 2.02782914e-01 2.48067662e-01
      1.24287963e-01 3.11071984e-02 4.48721275e-02 1.78519100e-01
      2.15664327e-01 9.52699184e-02 1.64560005e-01 1.72441661e-01
      1.00166135e-01 2.80608218e-02 3.47881913e-02 6.26554564e-02
      1.67186648e-01 1.17856905e-01 1.34732723e-01 2.47484356e-01
      7.90683404e-02 1.12336449e-01 2.02416897e-01 1.53425202e-01
      3.00976515e-01 2.11981624e-01 1.49174541e-01 4.00000006e-01
      3.66109371e-01 3.24475139e-01 2.09323108e-01 5.85506186e-02
      7.98865408e-02 2.40911365e-01 2.02779889e-01 1.29736781e-01
      3.28040749e-01 3.12101811e-01 3.48449528e-01 2.23157495e-01
      1.72895029e-01 1.27674490e-01 2.66734719e-01 2.32582271e-01
      1.90091923e-01 2.70898074e-01 3.55980217e-01 3.25736254e-01
      1.20779544e-01 1.73175037e-01 3.04418355e-01 3.24597865e-01
      2.76475996e-01 4.00000006e-01 3.99856478e-01 4.00000006e-01
      4.00000006e-01 2.17595190e-01 2.03592479e-01 3.56740355e-01
      3.39286923e-01 2.65668362e-01 4.00000006e-01 4.00000006e-01
      4.00000006e-01 4.00000006e-01 3.73483717e-01 1.83835067e-02
      1.28374249e-01 2.66898900e-01 1.64816082e-01 3.75002116e-01
      3.98551673e-01 3.14793050e-01 4.00000006e-01 3.74471456e-01
      4.88374494e-02 7.77740330e-02 1.92918971e-01 2.01106250e-01
      3.48791212e-01 3.19073200e-01 1.44749135e-01 3.75344872e-01
      3.09188485e-01 1.44552886e-01 6.69438988e-02 2.48821616e-01
      1.94900692e-01 2.64389753e-01 2.14575663e-01 2.57697880e-01
      3.36799979e-01 1.67079046e-01 3.69261168e-02 5.54691255e-02
      2.76428044e-01 1.76902950e-01 1.46746129e-01 3.54116678e-01
      2.75576174e-01 1.88166350e-01 1.88105300e-01 2.42520329e-02
      7.92559013e-02 1.99626893e-01 1.11094460e-01 3.07211727e-01
      5.29004574e-01 3.06496024e-01 5.42703032e-01 5.00047445e-01
      1.03628509e-01 2.06118509e-01 5.25386572e-01 1.76745072e-01
      3.54295105e-01 5.48481166e-01 3.03142697e-01 3.74779910e-01
      2.58700132e-01 9.06050652e-02 1.08961925e-01 1.46220803e-01
      1.98804572e-01 3.18971694e-01 3.56731892e-01 3.80183190e-01
      4.00067329e-01 2.45693132e-01 3.35290819e-01 2.76408762e-01
      4.56469029e-01 5.42829633e-01 4.39708859e-01 4.25188959e-01
      4.83090818e-01 3.95478755e-01 1.62975147e-01</_>
    <_>
      1.66825950e-01 6.56554773e-02 2.72864491e-01 1.70583904e-01
      3.56580913e-02 1.03846326e-01 3.77404422e-01 1.29750833e-01
      1.26838699e-01 1.88003361e-01 8.92874300e-02 1.62378609e-01
      1.51188344e-01 7.08542988e-02 9.95738059e-02 1.67958319e-01
      9.22730491e-02 1.09164082e-01 1.94363236e-01 1.22244738e-01
      2.01263517e-01 2.74567008e-01 7.09485039e-02 5.69878221e-02
      2.78196782e-01 6.05199486e-02 6.94905370e-02 2.15813160e-01
      4.00000006e-01 3.66257131e-01 3.96013111e-01 2.55442083e-01
      7.43944719e-02 3.28755319e-01 1.20245226e-01 7.31956959e-02
      2.20286041e-01 4.00000006e-01 3.95377606e-01 2.97936678e-01
      2.53052264e-01 1.37805492e-01 1.99051410e-01 9.85317826e-02
      1.30297437e-01 4.37698141e-02 1.38106048e-01 2.62056679e-01
      2.20612317e-01 3.80447835e-01 1.71826020e-01 6.80553764e-02
      1.85377225e-01 1.56284407e-01 1.21121742e-02 3.94152403e-02
      1.23219475e-01 7.89505839e-02 1.72164962e-01 8.23257864e-02
      4.37443927e-02 1.15153566e-01 9.28100348e-02 2.70298589e-02
      2.84695700e-02 2.15034246e-01 6.75592944e-02 1.11403152e-01
      5.94623089e-02 5.09587824e-02 7.96050280e-02 6.22904599e-02
      1.31480191e-02 2.87908334e-02 2.79389530e-01 2.26670466e-02
      7.72142112e-02 7.27198794e-02 6.24802969e-02 8.32881182e-02
      7.41992146e-02 3.91336456e-02 8.57947469e-02 3.94759506e-01
      1.15412459e-01 1.63219362e-01 2.89637536e-01 3.79497975e-01
      3.75188142e-01 7.31168240e-02 1.61887910e-02 4.77635749e-02
      1.43865183e-01 6.99941367e-02 1.41172022e-01 1.26697510e-01
      3.93488556e-01 3.89206082e-01 5.98183908e-02 9.58719105e-02
      7.31381550e-02 1.27509236e-01 1.38936758e-01 1.61799043e-01
      9.79425013e-02 3.51342410e-01 3.30058068e-01 9.25152898e-02
      5.58570251e-02 1.34309679e-01 1.72831565e-01 7.37877488e-02
      2.72773027e-01 2.27252394e-01 1.79343939e-01 1.88314870e-01
      8.53111446e-02 6.88517690e-02 1.71168000e-01 1.95563465e-01
      7.34159499e-02 3.76002043e-01 3.88281733e-01 2.70454019e-01
      1.89110845e-01 1.61351547e-01 7.02149421e-02 1.37833104e-01
      1.47245258e-01 8.56822878e-02 3.37882310e-01 3.91082942e-01
      2.14712232e-01 1.58431530e-01 6.36638850e-02 1.36016399e-01
      1.41123712e-01 9.21911895e-02 1.11606315e-01 3.00603539e-01
      3.04218620e-01 1.99408665e-01 1.03132255e-01 6.70894310e-02
      1.29316419e-01 1.45140171e-01 6.22509681e-02 1.27949819e-01
      2.05479488e-01 1.78687304e-01 3.74435157e-01 2.05662221e-01
      6.09100237e-02 1.41328663e-01 8.79535973e-02 1.23675853e-01
      1.30935967e-01 6.97140992e-02 7.83281624e-02 3.84381205e-01
      8.89924616e-02 3.82524915e-02 1.81539923e-01 1.51450187e-01
      4.00000006e-01 2.60456175e-01 1.98877469e-01 3.51190627e-01
      4.00000006e-01 4.00000006e-01 1.62459984e-01 1.94090217e-01
      1.37051001e-01 3.06243777e-01 2.21182495e-01 2.12026298e-01
      2.26271391e-01 4.00000006e-01 4.00000006e-01 1.52784944e-01
      2.30410367e-01 1.95382923e-01 3.21629107e-01 3.52516502e-01
      2.32747525e-01 1.54930323e-01 4.00000006e-01 3.65821779e-01
      1.50605664e-01 2.36815006e-01 4.00000006e-01 3.97505403e-01
      4.00000006e-01 4.00000006e-01 2.84584194e-01 3.96955967e-01
      2.82340556e-01 1.49512678e-01 2.46173799e-01 4.00000006e-01
      4.00000006e-01 3.39126229e-01 4.00000006e-01 4.00000006e-01
      3.89591455e-01 2.69979566e-01 2.02052489e-01 1.13984741e-01
      2.74591148e-01 3.70107919e-01 2.71844387e-01 4.00000006e-01
      4.00000006e-01 2.82767534e-01 3.03170443e-01 1.76171049e-01
      1.48128584e-01 1.80538923e-01 2.15410665e-01 1.90556929e-01
      4.00000006e-01 3.52033913e-01 2.43153065e-01 2.18285829e-01
      1.49947688e-01 1.56346276e-01 1.73609704e-01 2.77285218e-01
      1.95509091e-01 3.16882610e-01 2.38149613e-01 3.85202318e-01
      2.68575847e-01 1.23200469e-01 1.54476702e-01 1.16744436e-01
      3.69039714e-01 1.53603002e-01 1.46928310e-01 1.51048034e-01
      3.96303743e-01 1.72280639e-01 1.12451695e-01 7.42912591e-02
      2.19772071e-01 4.51373011e-01 2.13725284e-01 4.42370743e-01
      4.75387305e-01 5.20292401e-01 5.07492900e-01 5.08859813e-01
      1.30920798e-01 2.76054710e-01 5.37981749e-01 2.50619441e-01
      3.73214483e-01 3.51266176e-01 4.10837322e-01 3.11295211e-01
      9.55647528e-02 1.74008995e-01 2.45209292e-01 3.30071658e-01
      2.84351707e-01 3.71624500e-01 3.02414179e-01 5.65187395e-01
      3.31605494e-01 9.90564078e-02 4.85396743e-01 3.60256463e-01
      4.42558169e-01 4.80632246e-01 4.41884428e-01 2.57366419e-01
      5.41880190e-01 2.60445535e-01 4.91633490e-02</_>
    <_>
      9.75282788e-02 1.20937862e-01 8.80608484e-02 3.12412560e-01
      3.38805541e-02 1.28063425e-01 2.43468732e-01 9.20421407e-02
      3.94610316e-01 1.31334305e-01 7.89147019e-02 1.13619134e-01
      1.20035201e-01 1.92226227e-02 3.41414243e-01 9.74888727e-02
      1.04441285e-01 4.00000006e-01 1.05014399e-01 8.31113681e-02
      9.11274627e-02 7.17541203e-02 2.41974182e-02 3.25626493e-01
      1.77355096e-01 5.58483973e-02 4.00000006e-01 1.45505056e-01
      7.89096802e-02 8.05566460e-02 8.77142623e-02 2.42185760e-02
      2.64038473e-01 1.89585105e-01 2.92144138e-02 2.92698801e-01
      4.00000006e-01 1.82034716e-01 1.44232452e-01 4.00000006e-01
      1.09755248e-01 1.91228092e-01 1.34758890e-01 5.08367606e-02
      1.41074792e-01 4.00000006e-01 3.16839874e-01 5.18855900e-02
      3.88231933e-01 2.66721845e-01 6.26946241e-02 2.80236378e-02
      1.08738141e-02 5.00543378e-02 2.73952723e-01 2.50301749e-01
      6.89562187e-02 1.59099028e-01 2.10910827e-01 8.04049373e-02
      9.67522040e-02 2.00553164e-02 4.98592705e-02 1.03543364e-01
      2.62239397e-01 8.47134367e-02 7.43986145e-02 2.96561390e-01
      9.57244560e-02 3.67692336e-02 8.61547049e-03 3.85254249e-02
      4.72601950e-02 1.20567963e-01 6.44698143e-02 3.63765545e-02
      1.76258802e-01 9.11362916e-02 6.76407889e-02 3.26627716e-02
      6.34023100e-02 1.05928302e-01 2.17614114e-01 1.46719158e-01
      2.91888833e-01 4.00000006e-01 5.10111898e-02 9.68894213e-02
      6.80615231e-02 8.43934491e-02 2.13461611e-02 8.90971869e-02
      1.22231826e-01 2.02812806e-01 2.34469041e-01 4.05329131e-02
      2.22586989e-01 1.57980859e-01 1.47908941e-01 3.66706774e-02
      6.34180903e-02 1.19811572e-01 2.44771674e-01 3.21364403e-01
      4.59392704e-02 2.80311376e-01 2.34784588e-01 9.51723158e-02
      5.73030896e-02 6.62504733e-02 9.60367322e-02 1.39024884e-01
      2.00461805e-01 2.36073062e-02 1.66758388e-01 1.84752986e-01
      1.03040636e-01 1.00097552e-01 6.75644949e-02 1.39581561e-01
      3.14899147e-01 2.23065525e-01 4.34774272e-02 3.52651805e-01
      2.72046536e-01 1.83609396e-01 5.07619604e-02 2.34394632e-02
      2.88716555e-02 2.63979673e-01 9.81758311e-02 2.23715119e-02
      2.15180457e-01 1.14126928e-01 9.73590389e-02 2.71244645e-02
      2.14316398e-02 4.09843996e-02 4.00000006e-01 2.96589769e-02
      1.53451860e-02 3.64714205e-01 7.94490650e-02 1.32982716e-01
      4.18033451e-02 6.65402636e-02 8.16062242e-02 3.09524059e-01
      3.90554667e-02 3.20827775e-02 3.29873055e-01 8.65682885e-02
      1.21202573e-01 3.95877808e-02 8.69229063e-02 7.90742338e-02
      2.45375335e-01 2.18659751e-02 5.83442226e-02 2.33263284e-01
      6.94805160e-02 2.16942877e-01 2.03456551e-01 2.93520659e-01
      2.34780028e-01 4.00000006e-01 4.00000006e-01 1.79074600e-01
      3.13326418e-01 1.60103679e-01 4.00000006e-01 1.52680486e-01
      1.68011904e-01 2.35850915e-01 3.22848082e-01 2.53691703e-01
      3.55809808e-01 3.06573123e-01 2.62215853e-01 4.00000006e-01
      1.41685113e-01 1.46529421e-01 2.10938990e-01 3.16525757e-01
      3.36497843e-01 3.41942161e-01 3.52385551e-01 2.79654384e-01
      4.00000006e-01 2.02808112e-01 1.45160183e-01 1.76593378e-01
      2.26739109e-01 2.24680394e-01 2.87645817e-01 3.18648905e-01
      2.13967428e-01 3.78948897e-01 4.00000006e-01 2.42674112e-01
      2.82612056e-01 4.00000006e-01 3.08151394e-01 2.34705478e-01
      3.97521377e-01 3.03471148e-01 3.24684262e-01 4.00000006e-01
      3.30238074e-01 8.07572678e-02 4.00000006e-01 3.28212738e-01
      8.50661322e-02 2.43204057e-01 1.25000760e-01 1.47413373e-01
      3.00942689e-01 2.62552351e-01 1.09940641e-01 4.00000006e-01
      2.40569800e-01 9.57501382e-02 3.96928996e-01 9.95043665e-02
      1.82841972e-01 1.45346671e-01 3.00274640e-01 1.66319683e-01
      3.83922607e-01 3.20987284e-01 1.27807230e-01 3.42115819e-01
      9.51837599e-02 1.59728006e-01 8.68479609e-02 2.07490861e-01
      1.43544048e-01 2.81751961e-01 1.98124766e-01 1.49480507e-01
      2.95788109e-01 1.02143303e-01 2.80345172e-01 2.05167174e-01
      2.36331001e-01 1.18136488e-01 4.81694847e-01 2.90585876e-01
      1.51257381e-01 4.83913392e-01 1.60950810e-01 3.28027427e-01
      3.11360031e-01 4.17428851e-01 2.76099026e-01 4.82553363e-01
      4.43713278e-01 2.75753647e-01 2.86108315e-01 1.69080853e-01
      3.39854717e-01 2.02254325e-01 1.28989398e-01 1.28432885e-01
      4.78384078e-01 2.76027322e-01 1.83235914e-01 5.18011689e-01
      2.99112678e-01 3.70408177e-01 3.11125040e-01 2.52519190e-01
      2.51631945e-01 4.72353876e-01 2.76534498e-01 2.91570216e-01
      2.83663243e-01 1.58969432e-01 3.81974876e-01</_>
    <_>
      2.57263690e-01 1.18560411e-01 2.68205643e-01 1.14958785e-01
      1.31277233e-01 3.46520543e-01 1.25315174e-01 2.00450689e-01
      2.38106340e-01 9.90338176e-02 5.74115142e-02 4.00000006e-01
      2.25821227e-01 1.06486648e-01 3.97929966e-01 2.12169990e-01
      1.55839026e-01 1.84758082e-01 1.89114481e-01 8.42748657e-02
      2.90891975e-01 2.27820769e-01 1.06962711e-01 3.04431558e-01
      3.82613868e-01 1.29284650e-01 1.30786553e-01 1.89382195e-01
      7.12357983e-02 2.07320184e-01 1.68919116e-01 1.46223217e-01
      2.14958489e-01 1.65422156e-01 8.79409015e-02 8.33834633e-02
      1.36649132e-01 2.80661602e-02 7.32175410e-02 2.18770757e-01
      1.11593783e-01 2.00443804e-01 2.32434824e-01 2.85004824e-01
      1.30010247e-01 3.42097059e-02 3.51153431e-03 3.39664221e-02
      4.10317667e-02 6.03688806e-02 7.63280764e-02 9.34622884e-02
      1.16376735e-01 4.87936735e-02 1.39358908e-01 1.07607348e-02
      2.43426617e-02 6.00570962e-02 1.13776326e-01 6.50899708e-02
      1.22144014e-01 1.38099715e-01 7.25778341e-02 4.93110344e-02
      1.71735268e-02 5.66248409e-02 8.20230767e-02 8.96059722e-02
      5.89459352e-02 1.00143634e-01 1.09527066e-01 8.12720731e-02
      9.36850309e-02 1.52079463e-02 6.38370067e-02 1.65162608e-01
      6.84359372e-02 4.37257290e-02 9.66493115e-02 7.11696595e-02
      7.87999183e-02 1.71728343e-01 7.74195567e-02 8.32008049e-02
      1.10363930e-01 8.42437670e-02 8.83787796e-02 1.47994325e-01
      1.10890388e-01 9.73404646e-02 1.93269923e-01 2.61816263e-01
      1.15522079e-01 9.23020691e-02 1.49658620e-01 1.13008499e-01
      5.18631712e-02 6.92266747e-02 8.44742432e-02 2.16846675e-01
      3.62143248e-01 1.41499072e-01 1.18483879e-01 1.38297200e-01
      1.35939598e-01 7.43947625e-02 5.78550249e-02 1.45526648e-01
      1.77793860e-01 2.73740321e-01 1.44200027e-01 1.08566038e-01
      1.19193174e-01 1.19606778e-01 9.69006196e-02 5.38220294e-02
      1.00100517e-01 3.12950104e-01 3.85981977e-01 1.71496615e-01
      1.84355929e-01 1.09567523e-01 1.73007071e-01 1.98400304e-01
      1.19601443e-01 1.91841111e-01 3.37846994e-01 2.01855943e-01
      1.11782707e-01 4.02794518e-02 4.78820875e-02 1.39045998e-01
      5.72224483e-02 3.36956419e-02 1.20322868e-01 3.90953749e-01
      3.10742080e-01 1.03373252e-01 5.75351790e-02 6.99281693e-02
      2.60033488e-01 9.57881510e-02 4.62361872e-02 1.90934062e-01
      3.20116043e-01 1.62375137e-01 8.23569074e-02 1.17065191e-01
      9.09068361e-02 2.19628215e-01 8.54071751e-02 7.13541359e-02
      1.21164620e-01 2.81158358e-01 1.21504381e-01 1.60167396e-01
      8.19076672e-02 1.18040703e-01 3.20160002e-01 1.02598466e-01
      1.74485385e-01 1.76027596e-01 3.61279130e-01 1.95979983e-01
      3.49810153e-01 2.25322708e-01 2.15521008e-01 3.80244702e-01
      2.73309499e-01 3.11341107e-01 2.93582886e-01 2.91426599e-01
      3.16818088e-01 4.00000006e-01 2.94254810e-01 2.37367436e-01
      4.00000006e-01 2.64033139e-01 2.25065678e-01 2.53441602e-01
      3.52620661e-01 3.89686644e-01 3.87082189e-01 3.02604556e-01
      2.31529817e-01 3.77121955e-01 4.00000006e-01 1.87139720e-01
      2.57477134e-01 3.38039458e-01 3.34306300e-01 3.49891037e-01
      2.77398109e-01 2.42339462e-01 3.13174158e-01 2.62322783e-01
      1.41762957e-01 1.83483928e-01 3.73620242e-01 3.91334951e-01
      2.44714141e-01 3.19440007e-01 2.18605995e-01 3.37950885e-01
      4.00000006e-01 3.52636963e-01 2.83430338e-01 3.50708097e-01
      2.05367476e-01 1.45749137e-01 8.13112184e-02 1.08250968e-01
      2.15374067e-01 1.50684699e-01 1.50072366e-01 1.69116512e-01
      4.00000006e-01 3.18363249e-01 1.27715901e-01 1.17592312e-01
      1.83704495e-01 3.07158172e-01 2.17932180e-01 1.84335902e-01
      2.50181377e-01 3.44899297e-01 1.79548681e-01 1.38981774e-01
      1.99088261e-01 1.80512816e-01 2.77498424e-01 1.85550854e-01
      1.80881232e-01 2.02436686e-01 3.40922058e-01 1.36712328e-01
      2.24004373e-01 2.47070283e-01 1.86476618e-01 3.48020643e-01
      1.99247777e-01 2.45655060e-01 2.45231941e-01 4.74309206e-01
      3.13220382e-01 2.49551728e-01 3.58239651e-01 1.88045561e-01
      3.62584025e-01 2.80127019e-01 3.02381635e-01 3.03649336e-01
      2.97477633e-01 2.88019210e-01 2.96147525e-01 1.38308913e-01
      1.25614539e-01 2.81865060e-01 2.89650887e-01 1.24546640e-01
      1.18592694e-01 5.51158905e-01 3.68860096e-01 3.37710112e-01
      3.76694113e-01 4.07124430e-01 5.14931738e-01 2.77086705e-01
      2.60781109e-01 4.60348576e-01 3.69713485e-01 2.38478571e-01
      3.10189396e-01 1.71118587e-01 1.57182321e-01 3.85497957e-01
      3.03798407e-01 2.69647300e-01 1.90429986e-01</_>
    <_>
      9.75045413e-02 2.44680643e-01 3.92223120e-01 1.02692150e-01
      2.66593337e-01 1.90781370e-01 1.41429186e-01 3.25519204e-01
      1.98551685e-01 1.15198702e-01 3.56479496e-01 4.00000006e-01
      8.33812281e-02 2.39275455e-01 9.46455970e-02 1.34713933e-01
      2.77485877e-01 1.59868672e-01 1.94598660e-01 1.92808032e-01
      3.37012559e-01 1.22785762e-01 1.57966942e-01 9.57630351e-02
      2.03123838e-01 1.73655838e-01 1.75036490e-01 1.54776722e-01
      1.80599719e-01 2.29822889e-01 1.18560895e-01 1.54919073e-01
      2.12028682e-01 1.73417658e-01 7.21770152e-02 1.73464045e-01
      1.16807789e-01 1.01817407e-01 1.01408966e-01 2.55777210e-01
      1.44902438e-01 2.37508252e-01 4.00000006e-01 1.42738372e-01
      2.65925497e-01 5.08674905e-02 6.50341362e-02 7.48296157e-02
      1.05450146e-01 6.36251047e-02 9.23749059e-02 2.34177858e-01
      7.93966353e-02 6.79672286e-02 8.41058195e-02 4.23937216e-02
      5.06816804e-02 1.40008301e-01 5.35530597e-02 9.04113948e-02
      1.83970779e-01 6.98969215e-02 9.68104377e-02 8.53521600e-02
      3.86493728e-02 3.00817639e-02 1.51286006e-01 3.96387987e-02
      6.21368811e-02 1.22431673e-01 6.49981126e-02 9.77490097e-02
      8.83067176e-02 4.32964899e-02 5.84258139e-02 1.08035915e-01
      2.27799155e-02 5.62490299e-02 1.10941730e-01 7.32523948e-02
      1.10328712e-01 1.25828996e-01 8.97124410e-02 2.14987069e-01
      1.78291619e-01 4.63370532e-02 9.32686627e-02 1.20921597e-01
      1.26277730e-01 1.65601417e-01 1.40668109e-01 1.20042481e-01
      2.85874873e-01 1.13112025e-01 9.37182158e-02 2.41278157e-01
      7.14001358e-02 4.56099063e-02 7.02779815e-02 1.13879919e-01
      1.61494300e-01 1.48055688e-01 7.13641644e-02 4.24593501e-02
      1.36369914e-01 6.43812865e-02 5.67573532e-02 4.07359749e-02
      1.79696932e-01 1.35749876e-01 2.06098109e-01 4.25605252e-02
      4.46818061e-02 3.28514189e-01 2.84309506e-01 4.27624360e-02
      3.52607295e-02 2.48344958e-01 1.13935739e-01 2.43845195e-01
      1.14391036e-01 5.73446751e-02 4.00000006e-01 3.64215016e-01
      1.12917885e-01 7.98795596e-02 1.32630497e-01 1.04045376e-01
      2.34081253e-01 1.45016350e-02 3.10437530e-02 2.70378381e-01
      1.50588840e-01 3.63736972e-02 1.79995541e-02 1.33693859e-01
      1.18496090e-01 2.65631884e-01 3.36624160e-02 1.35036618e-01
      3.37614983e-01 1.23311363e-01 6.42807335e-02 3.42984460e-02
      1.27467304e-01 1.21424951e-01 2.02253759e-01 6.44991398e-02
      1.76608384e-01 1.45899519e-01 7.22430274e-02 8.25379267e-02
      6.73508346e-02 1.06716968e-01 1.97814614e-01 2.35487029e-01
      7.48625100e-02 2.40431994e-01 1.47395447e-01 8.91160965e-02
      1.31322950e-01 5.52765653e-02 2.23333538e-01 2.95981228e-01
      4.00000006e-01 2.80983746e-01 2.92842358e-01 2.84050018e-01
      2.62350738e-01 3.56018007e-01 2.80384958e-01 2.44803444e-01
      3.94399673e-01 4.00000006e-01 1.96493268e-01 2.92365044e-01
      3.12197655e-01 2.06114128e-01 3.05887014e-01 2.30146646e-01
      2.74578154e-01 3.02602082e-01 4.00000006e-01 1.94150016e-01
      2.00426295e-01 2.32132971e-01 2.67505169e-01 2.30413198e-01
      2.15772465e-01 2.89289653e-01 2.80899495e-01 3.94794703e-01
      1.61121428e-01 1.99600905e-01 3.96123648e-01 4.00000006e-01
      1.14939407e-01 2.08724782e-01 3.11908603e-01 2.15753198e-01
      3.45254153e-01 3.59307677e-01 2.02247143e-01 4.00000006e-01
      4.00000006e-01 2.55656302e-01 2.83558488e-01 1.83497995e-01
      1.69079512e-01 3.08910847e-01 1.19951777e-01 9.46688503e-02
      3.21158648e-01 3.78511846e-01 1.15770340e-01 8.59667957e-02
      2.17799619e-01 1.60889804e-01 3.16313535e-01 1.73670709e-01
      1.88589737e-01 3.67812157e-01 3.07282239e-01 1.34177670e-01
      1.31108895e-01 2.12819472e-01 1.60074323e-01 2.32335523e-01
      2.15785116e-01 2.16247231e-01 2.08036423e-01 1.94674715e-01
      1.47536054e-01 1.65099859e-01 1.95023686e-01 2.37875536e-01
      2.93912828e-01 1.82898477e-01 2.53336370e-01 2.03644454e-01
      2.00057819e-01 2.04575315e-01 1.65605307e-01 2.94704735e-01
      2.12527439e-01 4.46303725e-01 2.52064347e-01 2.00544164e-01
      4.73835796e-01 3.91154170e-01 3.38834465e-01 3.63767862e-01
      1.59391090e-01 1.94922775e-01 3.89801085e-01 1.47652969e-01
      1.01847008e-01 2.72131830e-01 3.55230004e-01 1.09325245e-01
      9.89194140e-02 4.66225445e-01 4.63104993e-01 4.72246259e-01
      2.56856501e-01 3.99861962e-01 4.89190817e-01 3.27810943e-01
      2.55601227e-01 3.35329860e-01 1.62233904e-01 2.74238944e-01
      4.40937579e-01 2.36842796e-01 2.45701820e-01 2.88712740e-01
      3.61087292e-01 2.28658840e-01 1.03488728e-01</_>
    <_>
      2.51996666e-01 6.94142431e-02 7.76666254e-02 4.00000006e-01
      1.77269712e-01 4.03707549e-02 1.66357771e-01 1.54971898e-01
      2.78719544e-01 3.34253997e-01 5.44484258e-02 5.88474460e-02
      3.40479583e-01 6.32019565e-02 6.92772940e-02 1.10496193e-01
      9.03402194e-02 3.95810336e-01 2.52174377e-01 7.53835738e-02
      1.00184634e-01 1.74852744e-01 3.62304375e-02 5.67082688e-02
      1.79982945e-01 9.91849676e-02 2.26206452e-01 2.31787264e-01
      9.69854072e-02 1.06439322e-01 1.14219949e-01 3.99520621e-02
      4.00589406e-02 2.10594401e-01 1.26969039e-01 1.43550843e-01
      4.00000006e-01 3.97344649e-01 2.32636213e-01 2.90248632e-01
      2.90230483e-01 9.74781290e-02 1.02851495e-01 6.22192137e-02
      1.08416438e-01 3.62733066e-01 4.00000006e-01 1.15114726e-01
      1.67672619e-01 3.53637457e-01 8.92221183e-02 1.00139350e-01
      4.02120873e-02 4.21304256e-02 9.95044559e-02 3.46650988e-01
      1.76491365e-01 4.47136089e-02 2.49710262e-01 1.38668627e-01
      1.16418876e-01 3.14794183e-02 3.47062647e-02 2.64508408e-02
      1.72906995e-01 2.09392905e-01 2.68846601e-02 1.39426887e-01
      2.70246238e-01 1.26435831e-01 3.02765835e-02 4.35694531e-02
      1.87643822e-02 1.04771540e-01 1.10486493e-01 1.95797570e-02
      9.48156938e-02 1.40418142e-01 1.18646547e-01 3.39010507e-02
      4.52682786e-02 3.36034223e-02 2.18500257e-01 1.77598879e-01
      4.43337150e-02 4.00000006e-01 2.15068072e-01 1.32742703e-01
      6.04386777e-02 8.24640542e-02 1.31027671e-02 3.72709110e-02
      1.31791666e-01 9.47160572e-02 3.19350064e-01 1.34550661e-01
      1.53631911e-01 2.51185596e-01 9.28154737e-02 4.13428620e-02
      2.21499950e-02 9.64747071e-02 2.03309327e-01 3.80534083e-01
      2.08985820e-01 1.82900086e-01 2.88399607e-01 1.80224940e-01
      4.79834862e-02 5.26120141e-02 6.02530316e-02 1.91916555e-01
      2.26057515e-01 1.36740908e-01 1.19565159e-01 2.28240117e-01
      1.61050946e-01 8.93202871e-02 8.38252008e-02 1.40108883e-01
      2.76734948e-01 3.29851300e-01 1.56320676e-01 2.05570310e-01
      3.58897805e-01 1.85053408e-01 4.13192958e-02 1.76614225e-02
      1.23373568e-02 3.71084243e-01 2.15640768e-01 6.68654665e-02
      1.67211339e-01 2.39488780e-01 1.19549669e-01 3.00154127e-02
      1.95174478e-02 4.09925207e-02 4.00000006e-01 3.68084133e-01
      4.95349579e-02 3.01705629e-01 2.90365338e-01 8.89659300e-02
      6.37748241e-02 4.21159565e-02 7.46133327e-02 2.75069207e-01
      1.71434939e-01 3.75044569e-02 2.37503007e-01 1.92755610e-01
      1.21280551e-01 8.06296319e-02 4.06426899e-02 1.01853721e-01
      3.73767018e-01 1.34827897e-01 2.88979895e-02 2.58291066e-01
      1.61317080e-01 1.10041283e-01 2.79531866e-01 2.83274472e-01
      2.42853269e-01 4.00000006e-01 4.00000006e-01 2.55438805e-01
      2.77917892e-01 2.15410575e-01 3.35494578e-01 3.38828593e-01
      9.17193145e-02 1.90639138e-01 3.81301075e-01 3.72236401e-01
      2.03827977e-01 2.57114828e-01 3.15268338e-01 4.00000006e-01
      2.84508675e-01 9.75335762e-02 1.96659401e-01 3.55699509e-01
      3.95872235e-01 2.65694082e-01 3.10573399e-01 3.36940557e-01
      3.64996523e-01 2.75867462e-01 1.49597451e-01 1.66692361e-01
      3.06136459e-01 2.66009569e-01 1.76799804e-01 2.96393156e-01
      3.22191924e-01 2.98602790e-01 4.00000006e-01 4.00000006e-01
      3.11044753e-01 4.00000006e-01 4.00000006e-01 2.53798872e-01
      2.83462644e-01 3.80301237e-01 2.91344702e-01 3.73311758e-01
      4.00000006e-01 1.27452105e-01 4.00000006e-01 4.00000006e-01
      1.56087577e-01 2.59031713e-01 2.76299238e-01 1.61680102e-01
      1.29519880e-01 3.53376448e-01 2.17483893e-01 4.00000006e-01
      4.00000006e-01 1.88203588e-01 3.38797361e-01 3.10207278e-01
      1.23672172e-01 9.02256370e-02 2.15022951e-01 2.58937359e-01
      3.01953882e-01 3.10861707e-01 2.97509611e-01 3.10895145e-01
      2.23032206e-01 1.64849967e-01 9.93940085e-02 1.45414233e-01
      2.12340251e-01 3.81828606e-01 2.29643553e-01 1.69316158e-01
      3.17237079e-01 1.95218176e-01 1.55309573e-01 1.95097849e-01
      2.34298900e-01 1.92020759e-01 4.03659165e-01 5.00995696e-01
      1.93165570e-01 4.15270001e-01 3.71593177e-01 2.47244030e-01
      3.15562546e-01 3.31287920e-01 4.18868601e-01 3.88027817e-01
      5.18297315e-01 3.33831191e-01 1.78708076e-01 2.49802843e-01
      2.60785729e-01 2.56724238e-01 2.02160224e-01 1.19194880e-01
      5.11662424e-01 4.40810919e-01 1.97709024e-01 5.58593392e-01
      4.55630124e-01 3.85731667e-01 3.72828454e-01 2.93951064e-01
      2.23700956e-01 4.92505163e-01 4.20920789e-01 2.07222193e-01
      2.57420540e-01 2.14925483e-01 2.65810907e-01</_>
    <_>
      1.90289795e-01 3.62679251e-02 8.16854164e-02 6.46073595e-02
      5.75728118e-02 7.70921707e-02 1.63897425e-01 5.44296429e-02
      8.58953446e-02 1.48171484e-01 5.59668429e-02 1.04059331e-01
      1.12511843e-01 7.67712295e-02 1.10028856e-01 1.71808183e-01
      6.71876967e-02 1.00534357e-01 1.08988240e-01 3.10868993e-02
      9.14059728e-02 1.32369623e-01 8.35024342e-02 1.77759036e-01
      1.85877025e-01 9.76276398e-02 1.07644908e-01 5.92055656e-02
      3.51168327e-02 1.72085598e-01 2.10703418e-01 3.17053556e-01
      3.27852488e-01 2.18390927e-01 1.26563072e-01 2.10955948e-01
      3.84882353e-02 1.04316950e-01 3.42564911e-01 2.09015027e-01
      4.00000006e-01 4.00000006e-01 3.39964241e-01 2.06999525e-01
      3.60148430e-01 2.58342493e-02 1.37450516e-01 1.66699126e-01
      7.37037435e-02 1.75438091e-01 1.26363456e-01 1.87858805e-01
      9.47082639e-02 1.89346150e-01 3.55382971e-02 4.65247035e-02
      5.35965599e-02 3.33615467e-02 9.34676453e-02 1.05350509e-01
      1.28146574e-01 6.75435215e-02 7.28320777e-02 6.58895299e-02
      9.23971385e-02 5.21294959e-02 8.68719369e-02 6.52417988e-02
      3.46380919e-02 1.44428402e-01 7.86486492e-02 4.37146984e-02
      1.08316965e-01 8.78079459e-02 3.51911634e-02 7.45625272e-02
      3.95977832e-02 5.99084906e-02 8.79434645e-02 6.81757778e-02
      4.31782752e-02 3.63653749e-01 1.05771959e-01 8.86274874e-02
      1.30306527e-01 3.91737483e-02 3.05370912e-02 8.45996290e-02
      7.08186328e-02 1.38411950e-02 3.60648274e-01 1.56818360e-01
      9.05570537e-02 2.12946475e-01 5.46444878e-02 5.10814078e-02
      8.35523307e-02 7.47735426e-02 4.72536758e-02 3.60714674e-01
      1.33405015e-01 9.22715217e-02 1.59938455e-01 4.58657667e-02
      9.34803709e-02 9.33590010e-02 8.13165233e-02 1.28542706e-01
      3.77949655e-01 2.49422073e-01 2.27867082e-01 2.12161988e-01
      9.85357091e-02 1.39760584e-01 1.14381529e-01 8.69251713e-02
      2.64174134e-01 3.64909798e-01 3.87743264e-01 3.94737661e-01
      2.12062880e-01 3.26844960e-01 3.22511196e-01 1.28015161e-01
      1.99663371e-01 3.81822735e-01 2.82745391e-01 2.05186546e-01
      1.60260811e-01 8.71375427e-02 1.15456708e-01 1.25688210e-01
      7.13055953e-02 8.20237547e-02 1.30530447e-01 1.53340772e-01
      9.34063345e-02 1.07001126e-01 4.17024530e-02 8.13371688e-02
      1.01190090e-01 5.83772026e-02 2.19990183e-02 5.48491105e-02
      2.66583681e-01 7.55705684e-02 7.62199685e-02 5.34506999e-02
      5.39511032e-02 8.28607827e-02 5.42539656e-02 4.10723612e-02
      6.10908419e-02 1.61852539e-01 5.72528988e-02 9.80897248e-02
      3.72812673e-02 4.08166274e-02 6.24592751e-02 9.57720056e-02
      5.12921028e-02 5.09482175e-02 4.00000006e-01 1.42039880e-01
      1.70312911e-01 1.94913894e-01 9.67465639e-02 1.07629269e-01
      2.48497009e-01 1.25248253e-01 9.97365192e-02 3.99169981e-01
      2.12785199e-01 1.94616482e-01 3.13083947e-01 1.31415695e-01
      1.61110222e-01 2.55360454e-01 1.41961202e-01 1.47788003e-01
      3.91794324e-01 1.64491922e-01 1.83677539e-01 2.92308033e-01
      1.29368186e-01 2.71239400e-01 2.79236019e-01 1.78944156e-01
      2.36187577e-01 3.89121652e-01 2.84538805e-01 3.91459703e-01
      3.46929103e-01 3.78243983e-01 4.00000006e-01 3.32772434e-01
      2.13488206e-01 3.96959692e-01 3.79637122e-01 4.00000006e-01
      4.00000006e-01 3.46308023e-01 4.00000006e-01 4.00000006e-01
      3.98477107e-01 3.77680331e-01 4.00000006e-01 3.08579683e-01
      3.40044886e-01 3.26959908e-01 1.60841346e-01 2.90894806e-01
      2.52051622e-01 2.59164333e-01 1.76732004e-01 3.19876730e-01
      1.88879073e-01 1.39930993e-01 1.60597697e-01 7.50640035e-02
      1.74804837e-01 2.06540674e-01 1.86523765e-01 8.95425379e-02
      1.27681181e-01 3.29635024e-01 1.67967677e-01 1.28349468e-01
      1.40322626e-01 1.19192898e-01 1.17498875e-01 1.98682338e-01
      1.19721010e-01 1.04805551e-01 2.70169467e-01 1.45060852e-01
      1.33280888e-01 1.11843817e-01 8.04144293e-02 1.22367702e-01
      1.83715492e-01 1.19467884e-01 9.41264927e-02 4.75597769e-01
      2.87623674e-01 3.03086311e-01 3.21775407e-01 2.65828788e-01
      2.95423388e-01 2.39258423e-01 1.41533300e-01 2.73075223e-01
      4.34322089e-01 2.64906377e-01 2.85310090e-01 1.96907088e-01
      2.48103201e-01 2.82940805e-01 2.87007302e-01 1.90428048e-01
      3.03828776e-01 4.09009606e-01 2.34708741e-01 2.92581826e-01
      3.37954253e-01 3.02902639e-01 2.93207914e-01 3.09291750e-01
      1.85935110e-01 2.28087083e-01 3.18315625e-01 1.98709786e-01
      2.66915441e-01 1.54382378e-01 2.03884229e-01 2.73263156e-01
      3.01437974e-01 2.23042265e-01 3.01538378e-01</_>
    <_>
      7.89923966e-02 2.37680189e-02 6.50393143e-02 3.24243680e-02
      3.87870632e-02 1.69170246e-01 1.56565815e-01 4.65665348e-02
      1.22018173e-01 4.32027616e-02 4.10532616e-02 7.72806779e-02
      5.58007210e-02 8.46135169e-02 8.74708444e-02 1.34429246e-01
      6.66201338e-02 1.85377628e-01 3.99856344e-02 6.58563673e-02
      1.26326740e-01 4.83695976e-02 1.00185350e-01 2.11494654e-01
      1.29957467e-01 1.17889196e-01 2.21337020e-01 2.79547181e-02
      1.17201447e-01 2.74230093e-01 6.39684200e-02 1.73184708e-01
      2.89710909e-01 3.50808948e-01 2.87912458e-01 2.89258450e-01
      5.43488264e-02 1.94856375e-01 4.00000006e-01 1.63156375e-01
      3.49096924e-01 3.57790828e-01 3.96127969e-01 4.00000006e-01
      3.57545406e-01 1.13861240e-01 1.17804863e-01 2.21239120e-01
      1.22418687e-01 1.16161197e-01 9.74797904e-02 1.23169184e-01
      1.97392985e-01 1.90112069e-01 2.07797244e-01 1.12249002e-01
      6.38467968e-02 6.82684258e-02 9.78780091e-02 5.53490296e-02
      1.12649754e-01 1.66000813e-01 1.36081696e-01 1.45228058e-01
      8.30391347e-02 5.27878627e-02 7.13981539e-02 6.11593723e-02
      2.11012177e-02 6.67464659e-02 8.50447267e-02 9.71625969e-02
      2.48216838e-01 1.02850825e-01 3.20378318e-02 9.96444821e-02
      6.09467626e-02 2.43959725e-02 9.59706381e-02 6.11152686e-02
      7.25864172e-02 2.84887552e-01 1.53870732e-01 3.11416052e-02
      1.14034675e-01 3.85947414e-02 3.26083861e-02 1.10934325e-01
      2.28623170e-02 5.28004207e-02 3.66155744e-01 1.08939491e-01
      6.49932325e-02 1.03827693e-01 4.56915870e-02 5.98756745e-02
      9.05713215e-02 5.77485114e-02 1.22856200e-01 3.44084322e-01
      1.13522813e-01 2.04012856e-01 1.95705175e-01 1.05876438e-01
      8.50084275e-02 9.88505334e-02 1.16884865e-01 1.08499989e-01
      3.81438583e-01 1.30922422e-01 3.07930470e-01 2.84930766e-01
      1.64224952e-01 1.88896000e-01 9.86610949e-02 2.03949124e-01
      2.53135473e-01 2.10993707e-01 2.75344163e-01 4.00000006e-01
      3.77414435e-01 3.88856977e-01 2.80375242e-01 1.26716495e-01
      3.38919044e-01 2.68049121e-01 1.70432627e-01 1.37812898e-01
      1.25406191e-01 2.36062586e-01 1.68441936e-01 1.68499470e-01
      9.99238864e-02 1.18661322e-01 1.32564619e-01 1.58671498e-01
      8.09863284e-02 4.97970283e-02 1.04588121e-01 1.25875175e-01
      6.69267774e-02 5.06833531e-02 5.72049059e-02 1.48998782e-01
      1.25423044e-01 9.55072492e-02 3.40223759e-02 6.64557144e-02
      7.98917115e-02 8.54277760e-02 3.35593931e-02 5.12855537e-02
      1.36874527e-01 3.96346636e-02 4.33630981e-02 5.01692444e-02
      4.81182598e-02 9.09729153e-02 1.20789990e-01 5.82033545e-02
