<?xml version="1.0"?>
<opencv_storage>
<opencv_ml_svm>
  <format>3</format>
  <svmType>C_SVC</svmType>
  <kernel>
    <type>LINEAR</type></kernel>
  <C>1.</C>
  <term_criteria><iterations>1000</iterations></term_criteria>
  <var_count>140</var_count>
  <class_count>2</class_count>
  <class_labels type_id="opencv-matrix">
    <rows>2</rows>
    <cols>1</cols>
    <dt>i</dt>
    <data>
      -1 1</data></class_labels>
  <sv_total>1</sv_total>
  <support_vectors>
    <_>
      3.99333976e-06 -3.88281205e-06 -1.76499046e-08 -4.01557809e-05
      1.37723237e-03 1.56390434e-03 1.91585661e-03 1.30456756e-03
      1.56914146e-04 -5.95332123e-04 -5.68476971e-04 -7.20449549e-04
      -6.53251773e-04 -7.94284977e-04 -7.26277824e-04 -4.83655662e-04
      -4.65788937e-04 -4.23963676e-04 -2.77976535e-04 -2.62333080e-04
      -1.20119890e-04 -1.17943768e-04 -4.07617918e-05 -3.89997003e-05
      -1.99944407e-05 -6.58118643e-06 0. 0. -2.28306658e-06 0. 0. 0. 0.
      0. 0. 0. -4.29049433e-05 5.24633560e-06 0. 0. 0. -1.92424045e-06
      -5.02012881e-07 7.51917469e-05 3.64733249e-04 7.59122369e-04
      1.75803096e-03 2.20642728e-03 3.09745874e-03 7.79496739e-04
      7.54275126e-04 6.01009873e-04 7.53621222e-04 7.52425694e-04
      7.86812278e-04 8.09900404e-04 1.10078335e-03 7.52584659e-04
      1.12871022e-03 6.68563298e-04 1.13009743e-03 -3.48661328e-03
      -2.80781230e-03 -2.96429056e-03 -2.29418720e-03 -1.28403131e-03
      -8.88101000e-04 -1.30659493e-03 -1.58498413e-03 -1.66020368e-03
      3.69320060e-06 -7.39040570e-06 -5.27306874e-08 -9.71442205e-05
      1.40647567e-03 9.78237949e-04 6.06706191e-04 -7.03671030e-05
      4.84288408e-04 -8.34780367e-05 -3.87729786e-04 -3.11833166e-04
      -4.83637181e-04 -5.57871652e-04 -2.60723406e-04 -2.23279858e-04
      -2.27479555e-04 -1.04223553e-04 -1.71596112e-04 -1.86863821e-04
      -1.13817005e-04 -1.17881544e-04 -7.22762052e-05 -5.07080003e-05
      -3.45335757e-05 -6.78886090e-06 -2.49074083e-06 -5.84607096e-06
      -3.58825901e-07 -1.92424045e-06 0. 0. 0. 0. 0. 0. -4.18505188e-05
      4.85704822e-06 0. 0. 0. 0. 0. 1.87765854e-05 8.96615311e-05
      1.81626965e-04 4.06440988e-04 4.81564406e-04 6.78752956e-04
      3.86664760e-04 2.40605914e-05 6.52953750e-04 1.79002294e-04
      2.15173030e-04 2.80640030e-04 1.38434101e-04 3.75661693e-05
      1.34791015e-04 3.32518917e-04 -2.03769996e-05 2.63220747e-04
      -9.45616805e-04 -6.50153495e-04 -7.44969293e-04 -5.23681461e-04
      -2.38959445e-04 -4.00868914e-04 -2.36489592e-04 -3.90530244e-04
      -3.50202550e-04</_></support_vectors>
  <uncompressed_sv_total>73</uncompressed_sv_total>
  <uncompressed_support_vectors>
    <_>
      1.29177019e-01 9.58191216e-01 8.19952548e-01 4.56819630e+00 5230.
      306. 172. 133. 105. 75. 57. 61. 51. 59. 25. 31. 22. 21. 19. 11. 6.
      5. 2. 2. 4. 2. 0. 0. 1. 0. 0. 0. 0. 0. 0. 0. 5.28315258e+00
      4.85366732e-01 0. 0. 0. 1. 0. 3. 11. 27. 53. 83. 147. 2258. 2617.
      492. 95. 50. 38. 36. 22. 26. 29. 37. 26. 42. 51. 77. 53. 33. 18.
      17. 32. 26. 1.21677764e-01 8.98486495e-01 7.82554567e-01
      1.05532055e+01 1250. 55. 40. 38. 29. 20. 24. 15. 12. 12. 12. 9.
      10. 10. 17. 13. 11. 9. 7. 0. 3. 2. 1. 0. 0. 1. 0. 0. 0. 0. 0. 0.
      5.20759916e+00 4.75045294e-01 0. 0. 0. 0. 0. 0. 1. 8. 11. 21. 39.
      537. 677. 125. 22. 15. 12. 12. 8. 6. 5. 6. 10. 11. 10. 22. 14. 6.
      4. 5. 11. 2.</_>
    <_>
      1.21511348e-01 9.57072258e-01 8.20921421e-01 4.56882906e+00 5221.
      307. 174. 136. 110. 73. 59. 54. 55. 59. 28. 30. 21. 22. 15. 13. 7.
      5. 2. 2. 4. 2. 0. 0. 1. 0. 0. 0. 0. 0. 0. 0. 5.31639862e+00
      4.66312855e-01 0. 0. 0. 0. 2. 2. 9. 28. 52. 81. 88. 1668. 3111.
      654. 88. 58. 33. 35. 28. 24. 28. 35. 28. 38. 58. 73. 49. 37. 19.
      17. 31. 26. 1.13990590e-01 8.95617247e-01 7.81518936e-01
      1.05551281e+01 1255. 58. 34. 33. 30. 20. 26. 15. 12. 12. 11. 10.
      10. 12. 15. 13. 11. 10. 6. 0. 3. 2. 1. 0. 1. 0. 0. 0. 0. 0. 0. 0.
      5.22280121e+00 4.59172428e-01 0. 0. 0. 0. 0. 0. 1. 8. 12. 20. 22.
      394. 796. 169. 18. 15. 13. 12. 8. 6. 5. 6. 10. 11. 12. 21. 11. 8.
      4. 6. 9. 3.</_>
    <_>
      2.10682880e-02 9.72974420e-01 6.13324821e-01 3.16360760e+00 2952.
      2005. 680. 277. 153. 126. 59. 50. 30. 19. 22. 11. 5. 3. 2. 3. 1.
      2. 0. 0. 0. 0. 0. 0. 0. 0. 0. 0. 0. 0. 0. 0. 6.23478460e+00
      4.95614231e-01 0. 0. 0. 0. 0. 0. 0. 3. 7. 34. 47. 115. 348. 680.
      960. 1213. 1584. 621. 132. 49. 43. 46. 40. 40. 38. 29. 46. 39. 43.
      102. 128. 13. 1.46577097e-02 9.39192355e-01 4.82142508e-01
      6.81538486e+00 429. 502. 284. 157. 67. 45. 35. 23. 11. 7. 13. 6.
      5. 4. 6. 2. 1. 0. 0. 1. 0. 1. 1. 0. 0. 0. 0. 0. 0. 0. 0. 0.
      6.15156078e+00 5.16683221e-01 0. 0. 0. 0. 0. 0. 0. 0. 1. 5. 14.
      25. 88. 169. 245. 300. 398. 159. 33. 14. 8. 9. 13. 11. 10. 8. 9.
      9. 17. 23. 30. 2.</_>
    <_>
      2.10019797e-02 9.55652118e-01 6.03559732e-01 4.20680380e+00 3067.
      2013. 710. 292. 99. 69. 36. 25. 16. 8. 13. 9. 8. 10. 7. 7. 7. 2.
      0. 2. 0. 0. 0. 0. 0. 0. 0. 0. 0. 0. 0. 0. 6.02352095e+00
      4.93737549e-01 0. 0. 0. 0. 0. 0. 0. 0. 0. 0. 0. 49. 263. 608. 975.
      1380. 1587. 788. 243. 46. 25. 29. 31. 27. 23. 20. 31. 35. 40. 83.
      104. 13. 1.48005020e-02 8.99362385e-01 4.71950710e-01
      9.39038467e+00 460. 509. 289. 165. 74. 30. 17. 6. 8. 3. 5. 6. 5.
      1. 12. 2. 2. 1. 2. 3. 0. 0. 0. 0. 0. 0. 0. 0. 0. 0. 0. 0.
      5.93473339e+00 4.90318328e-01 0. 0. 0. 0. 0. 0. 0. 0. 0. 0. 0. 4.
      63. 163. 228. 351. 413. 194. 57. 11. 6. 6. 11. 7. 5. 5. 8. 9. 15.
      18. 24. 2.</_>
    <_>
      2.23501213e-02 9.56559181e-01 6.13024592e-01 4.19936705e+00 3128.
      1976. 657. 301. 103. 66. 42. 29. 14. 15. 12. 10. 8. 9. 10. 6. 8.
      2. 2. 2. 0. 0. 0. 0. 0. 0. 0. 0. 0. 0. 0. 0. 6.05448914e+00
      5.08913219e-01 0. 0. 0. 0. 0. 0. 0. 0. 0. 2. 1. 50. 252. 529. 846.
      1244. 1678. 933. 325. 53. 29. 23. 36. 37. 23. 19. 30. 35. 50. 79.
      112. 14. 1.53026385e-02 8.97797167e-01 4.79632974e-01
      9.72820568e+00 462. 531. 277. 149. 68. 40. 13. 2. 11. 8. 6. 3. 5.
      3. 8. 2. 3. 3. 3. 2. 1. 0. 0. 0. 0. 0. 0. 0. 0. 0. 0. 0.
      5.96174955e+00 5.12617528e-01 0. 0. 0. 0. 0. 0. 0. 0. 0. 0. 1. 5.
      60. 124. 224. 308. 421. 243. 82. 10. 5. 8. 11. 3. 7. 9. 13. 2. 13.
      22. 25. 4.</_>
    <_>
      1.71265621e-02 9.46054280e-01 5.98232508e-01 4.77468348e+00 3574.
      1452. 622. 300. 151. 93. 55. 45. 31. 24. 19. 12. 8. 3. 3. 4. 1. 2.
      0. 1. 0. 0. 0. 0. 0. 0. 0. 0. 0. 0. 0. 0. 6.43715048e+00
      4.75934803e-01 0. 0. 0. 0. 0. 0. 0. 1. 2. 23. 30. 27. 516. 1157.
      879. 549. 642. 587. 655. 650. 315. 66. 63. 49. 37. 26. 23. 22. 17.
      21. 28. 15. 1.13196503e-02 8.81199062e-01 4.46959138e-01
      1.02730770e+01 584. 371. 220. 167. 94. 47. 48. 22. 15. 12. 7. 7.
      0. 1. 1. 1. 1. 1. 0. 1. 0. 0. 0. 0. 0. 0. 0. 0. 0. 0. 0. 0.
      6.35592270e+00 4.77340430e-01 0. 0. 0. 0. 0. 0. 0. 0. 0. 3. 9. 4.
      127. 279. 224. 150. 153. 152. 172. 160. 74. 20. 18. 11. 7. 8. 3.
      5. 7. 6. 5. 3.</_>
    <_>
      1.78102374e-01 9.74212050e-01 8.44945252e-01 2.22436714e+00 5260.
      305. 224. 164. 104. 77. 73. 54. 29. 25. 16. 14. 13. 12. 12. 6. 4.
      2. 5. 1. 0. 0. 0. 0. 0. 0. 0. 0. 0. 0. 0. 0. 4.82568932e+00
      4.78609949e-01 0. 0. 0. 0. 0. 0. 0. 0. 0. 0. 0. 0. 0. 0. 0. 0. 17.
      948. 4068. 347. 112. 85. 79. 69. 69. 89. 109. 35. 46. 49. 77. 201.
      1.68860123e-01 9.40567434e-01 8.09327602e-01 5.00897455e+00 1213.
      76. 58. 40. 33. 41. 30. 21. 12. 22. 12. 11. 6. 8. 4. 4. 2. 4. 3.
      0. 0. 0. 0. 0. 0. 0. 0. 0. 0. 0. 0. 0. 4.74390936e+00
      4.69621956e-01 0. 0. 0. 0. 0. 0. 0. 0. 0. 0. 0. 0. 0. 0. 0. 0. 1.
      224. 1021. 93. 30. 26. 14. 23. 18. 23. 26. 9. 13. 12. 21. 46.</_>
    <_>
      1.77234113e-01 9.73136306e-01 8.37596238e-01 2.31661391e+00 5198.
      344. 238. 175. 104. 74. 81. 47. 28. 27. 16. 12. 12. 13. 11. 8. 3.
      4. 4. 1. 0. 0. 0. 0. 0. 0. 0. 0. 0. 0. 0. 0. 4.78901911e+00
      4.23867524e-01 0. 0. 0. 0. 0. 0. 0. 0. 0. 0. 0. 0. 0. 0. 0. 0. 17.
      866. 4160. 319. 113. 101. 77. 71. 73. 84. 110. 38. 38. 55. 73.
      205. 1.75304070e-01 9.39564764e-01 8.02027881e-01 5.10000038e+00
      1197. 76. 61. 47. 38. 42. 29. 22. 12. 21. 13. 11. 7. 7. 4. 4. 2.
      4. 3. 0. 0. 0. 0. 0. 0. 0. 0. 0. 0. 0. 0. 0. 4.69793129e+00
      4.69277918e-01 0. 0. 0. 0. 0. 0. 0. 0. 0. 0. 0. 0. 0. 0. 0. 0. 1.
      195. 1062. 73. 34. 30. 13. 23. 19. 24. 24. 10. 13. 12. 23. 44.</_>
    <_>
      2.05402493e-01 9.76502240e-01 8.63793731e-01 2.20031643e+00 5506.
      289. 157. 96. 78. 37. 49. 28. 25. 20. 24. 18. 19. 17. 13. 10. 6.
      4. 4. 0. 0. 0. 0. 0. 0. 0. 0. 0. 0. 0. 0. 0. 4.65048409e+00
      4.20652032e-01 0. 0. 0. 0. 0. 0. 0. 0. 0. 0. 0. 0. 0. 0. 4. 24.
      135. 4256. 1129. 121. 76. 55. 41. 42. 21. 33. 38. 25. 41. 50. 96.
      213. 1.85565621e-01 9.41930771e-01 8.27735841e-01 5.37243605e+00
      1291. 73. 43. 36. 22. 21. 10. 11. 11. 16. 10. 11. 6. 8. 10. 5. 7.
      4. 4. 1. 0. 0. 0. 0. 0. 0. 0. 0. 0. 0. 0. 0. 4.61772728e+00
      4.13923979e-01 0. 0. 0. 0. 0. 0. 0. 0. 0. 0. 0. 0. 0. 0. 1. 3. 33.
      1036. 311. 25. 23. 18. 8. 13. 7. 10. 8. 6. 10. 11. 26. 51.</_>
    <_>
      2.01521650e-01 9.75595713e-01 8.56312573e-01 2.25696206e+00 5459.
      302. 181. 103. 82. 39. 46. 26. 24. 24. 24. 15. 19. 19. 13. 10. 4.
      5. 5. 0. 0. 0. 0. 0. 0. 0. 0. 0. 0. 0. 0. 0. 4.60904217e+00
      4.43711489e-01 0. 0. 0. 0. 0. 0. 0. 0. 0. 0. 0. 0. 0. 1. 2. 27.
      64. 3991. 1442. 126. 82. 62. 42. 41. 28. 30. 33. 27. 43. 49. 93.
      217. 1.86747000e-01 9.40292060e-01 8.25082839e-01 5.43205166e+00
      1280. 73. 47. 39. 27. 20. 9. 12. 12. 16. 9. 11. 7. 7. 8. 7. 6. 5.
      4. 1. 0. 0. 0. 0. 0. 0. 0. 0. 0. 0. 0. 0. 4.57368803e+00
      4.35470998e-01 0. 0. 0. 0. 0. 0. 0. 0. 0. 0. 0. 0. 0. 0. 1. 3. 19.
      971. 384. 28. 24. 21. 7. 12. 7. 10. 9. 6. 10. 13. 23. 52.</_>
    <_>
      8.46254304e-02 9.51527178e-01 8.01364660e-01 3.34193039e+00 5415.
      414. 124. 105. 66. 48. 55. 38. 23. 21. 24. 10. 17. 11. 3. 11. 3.
      3. 5. 2. 2. 0. 0. 0. 0. 0. 0. 0. 0. 0. 0. 0. 5.24760008e+00
      4.88062620e-01 0. 0. 0. 0. 0. 0. 0. 0. 0. 0. 1. 7. 353. 1955.
      2345. 1161. 98. 50. 34. 28. 22. 28. 24. 41. 32. 66. 35. 22. 29.
      25. 22. 22. 6.63387552e-02 8.99871469e-01 7.40635395e-01
      6.74487209e+00 1226. 169. 44. 19. 20. 16. 18. 13. 15. 7. 8. 14. 9.
      2. 8. 4. 1. 2. 3. 1. 0. 0. 0. 1. 0. 0. 0. 0. 0. 0. 0. 0.
      5.14187431e+00 4.82576817e-01 0. 0. 0. 0. 0. 0. 0. 0. 0. 0. 0. 1.
      88. 475. 581. 309. 29. 8. 6. 9. 8. 5. 11. 8. 11. 17. 7. 4. 9. 4.
      4. 6.</_>
    <_>
      1.11822598e-01 9.48498011e-01 8.31869066e-01 2.88306975e+00 5627.
      273. 123. 90. 61. 46. 40. 35. 16. 15. 19. 10. 11. 10. 4. 8. 3. 4.
      1. 3. 1. 0. 0. 0. 0. 0. 0. 0. 0. 0. 0. 0. 4.96089077e+00
      5.00579894e-01 0. 0. 0. 0. 0. 0. 0. 0. 0. 0. 1. 2. 36. 385. 2223.
      2622. 696. 46. 26. 22. 22. 25. 23. 35. 32. 59. 28. 20. 28. 28. 16.
      25. 8.64887461e-02 8.97208154e-01 7.66349137e-01 5.56987190e+00
      1303. 128. 32. 20. 15. 14. 14. 14. 14. 4. 7. 9. 9. 3. 4. 4. 0. 2.
      2. 1. 0. 0. 0. 1. 0. 0. 0. 0. 0. 0. 0. 0. 4.86396837e+00
      4.94736969e-01 0. 0. 0. 0. 0. 0. 0. 0. 0. 0. 0. 0. 7. 82. 551.
      675. 178. 7. 6. 7. 8. 4. 10. 7. 10. 14. 7. 4. 9. 4. 4. 6.</_>
    <_>
      1.27776653e-01 9.40722108e-01 8.13396990e-01 3.51772141e+00 5478.
      337. 126. 104. 67. 53. 56. 46. 25. 24. 27. 10. 14. 11. 2. 8. 1. 3.
      4. 2. 2. 0. 0. 0. 0. 0. 0. 0. 0. 0. 0. 0. 4.80684566e+00
      5.06659567e-01 0. 0. 0. 0. 0. 0. 0. 0. 0. 0. 0. 7. 163. 476. 2106.
      3072. 105. 48. 39. 35. 20. 24. 29. 34. 30. 62. 34. 21. 26. 25. 22.
      22. 1.05515696e-01 8.77290606e-01 7.60582924e-01 7.04935932e+00
      1275. 109. 46. 29. 22. 27. 13. 15. 14. 8. 7. 9. 9. 1. 8. 4. 1. 1.
      2. 0. 0. 0. 0. 0. 0. 0. 0. 0. 0. 0. 0. 0. 4.67813635e+00
      5.59413075e-01 0. 0. 0. 0. 0. 0. 0. 0. 0. 0. 0. 1. 41. 109. 504.
      800. 28. 11. 7. 9. 10. 4. 12. 6. 8. 16. 7. 4. 9. 4. 4. 6.</_>
    <_>
      1.40845954e-01 9.41113532e-01 8.20200264e-01 3.56297469e+00 5516.
      324. 122. 87. 69. 49. 50. 40. 29. 23. 28. 7. 19. 7. 5. 9. 4. 5. 3.
      1. 2. 1. 0. 0. 0. 0. 0. 0. 0. 0. 0. 0. 4.76968241e+00
      5.37768781e-01 0. 0. 0. 0. 0. 0. 0. 0. 0. 0. 1. 5. 128. 385. 2043.
      3206. 155. 44. 30. 34. 28. 22. 30. 32. 42. 53. 43. 19. 29. 28. 19.
      24. 1.18946835e-01 8.93194556e-01 7.63743460e-01 6.12884617e+00
      1266. 133. 44. 23. 14. 19. 14. 18. 12. 16. 13. 6. 4. 4. 3. 3. 2.
      3. 1. 0. 1. 1. 0. 0. 0. 0. 0. 0. 0. 0. 0. 0. 4.69710827e+00
      5.26780009e-01 0. 0. 0. 0. 0. 0. 0. 0. 0. 0. 0. 0. 29. 94. 498.
      813. 41. 15. 8. 9. 7. 8. 10. 6. 14. 13. 7. 7. 7. 4. 4. 6.</_>
    <_>
      1.70823857e-01 9.80984271e-01 8.80985379e-01 1.19588614e+00 5514.
      299. 124. 108. 89. 76. 51. 32. 17. 29. 14. 14. 9. 6. 6. 5. 3. 4.
      0. 0. 0. 0. 0. 0. 0. 0. 0. 0. 0. 0. 0. 0. 4.82419729e+00
      4.65618640e-01 0. 0. 0. 0. 0. 0. 0. 0. 0. 0. 0. 0. 0. 1255. 3719.
      597. 124. 69. 49. 71. 79. 105. 66. 65. 31. 53. 50. 23. 5. 5. 11.
      23. 1.62436306e-01 9.54122365e-01 8.53671253e-01 2.83589745e+00
      1308. 62. 35. 33. 30. 28. 19. 16. 15. 15. 5. 4. 8. 3. 2. 6. 2. 3.
      2. 2. 2. 0. 0. 0. 0. 0. 0. 0. 0. 0. 0. 0. 4.76961136e+00
      4.63847518e-01 0. 0. 0. 0. 0. 0. 0. 0. 0. 0. 0. 0. 0. 299. 941.
      150. 34. 14. 13. 18. 22. 32. 11. 16. 10. 13. 14. 2. 2. 1. 4. 4.</_>
    <_>
      1.70787781e-01 9.79473174e-01 8.73608887e-01 1.27310133e+00 5451.
      329. 147. 109. 91. 82. 47. 35. 21. 25. 17. 9. 12. 8. 5. 6. 3. 2.
      1. 0. 0. 0. 0. 0. 0. 0. 0. 0. 0. 0. 0. 0. 4.84792328e+00
      4.20928001e-01 0. 0. 0. 0. 0. 0. 0. 0. 0. 0. 0. 0. 0. 944. 3880.
      695. 160. 72. 56. 76. 79. 103. 69. 63. 31. 60. 45. 22. 6. 5. 12.
      22. 1.56341836e-01 9.51990187e-01 8.35986197e-01 2.92371798e+00
      1283. 78. 40. 36. 31. 30. 17. 15. 15. 16. 5. 3. 9. 3. 2. 6. 2. 3.
      2. 2. 2. 0. 0. 0. 0. 0. 0. 0. 0. 0. 0. 0. 4.79905653e+00
      4.88700062e-01 0. 0. 0. 0. 0. 0. 0. 0. 0. 0. 0. 0. 0. 226. 971.
      179. 44. 15. 12. 21. 21. 34. 11. 16. 10. 13. 14. 2. 2. 2. 3. 4.</_>
    <_>
      9.73879024e-02 9.73147452e-01 8.77853692e-01 8.41772139e-01 5619.
      309. 145. 90. 67. 75. 33. 27. 10. 11. 9. 4. 1. 0. 0. 0. 0. 0. 0.
      0. 0. 0. 0. 0. 0. 0. 0. 0. 0. 0. 0. 0. 5.15493202e+00
      4.98665184e-01 0. 0. 0. 0. 0. 0. 0. 0. 0. 0. 0. 0. 0. 7. 630.
      1355. 2462. 1344. 106. 57. 44. 74. 77. 126. 62. 34. 13. 5. 4. 0.
      0. 0. 8.67139250e-02 9.49805140e-01 8.45516741e-01 1.51153851e+00
      1332. 81. 47. 35. 36. 14. 18. 15. 7. 8. 1. 2. 4. 0. 0. 0. 0. 0. 0.
      0. 0. 0. 0. 0. 0. 0. 0. 0. 0. 0. 0. 0. 5.13910770e+00
      4.94096488e-01 0. 0. 0. 0. 0. 0. 0. 0. 0. 0. 0. 0. 0. 0. 152. 332.
      611. 350. 27. 15. 16. 23. 16. 32. 12. 9. 4. 1. 0. 0. 0. 0.</_>
    <_>
      1.14873670e-01 9.80574608e-01 7.90497124e-01 1.57832277e+00 4830.
      637. 483. 262. 109. 46. 9. 4. 8. 5. 4. 2. 1. 0. 0. 0. 0. 0. 0. 0.
      0. 0. 0. 0. 0. 0. 0. 0. 0. 0. 0. 0. 5.35467291e+00 5.06320059e-01
      0. 0. 0. 0. 0. 0. 0. 0. 0. 1. 17. 40. 110. 176. 187. 1119. 3260.
      755. 48. 40. 42. 66. 64. 61. 67. 71. 60. 36. 22. 55. 52. 51.
      9.82706696e-02 9.50553358e-01 7.12418497e-01 3.81987190e+00 1075.
      150. 124. 103. 62. 46. 19. 5. 5. 3. 1. 1. 1. 4. 1. 0. 0. 0. 0. 0.
      0. 0. 0. 0. 0. 0. 0. 0. 0. 0. 0. 0. 5.29993439e+00 5.04536688e-01
      0. 0. 0. 0. 0. 0. 0. 0. 0. 0. 4. 5. 31. 39. 54. 272. 818. 191. 17.
      7. 13. 16. 14. 16. 17. 17. 13. 7. 15. 9. 13. 12.</_>
    <_>
      1.03401601e-01 9.53354359e-01 7.49668896e-01 2.67753172e+00 4673.
      743. 475. 256. 136. 49. 18. 5. 8. 2. 7. 9. 5. 9. 4. 1. 0. 0. 0. 0.
      0. 0. 0. 0. 0. 0. 0. 0. 0. 0. 0. 0. 5.26263332e+00 5.23512959e-01
      0. 0. 0. 0. 0. 0. 0. 0. 0. 1. 22. 51. 119. 172. 262. 655. 2982.
      1546. 61. 43. 49. 57. 56. 60. 56. 53. 50. 21. 10. 28. 33. 13.
      9.01808068e-02 8.90165031e-01 6.74652278e-01 6.15897465e+00 1002.
      191. 135. 99. 68. 46. 24. 8. 3. 6. 6. 2. 1. 2. 2. 2. 1. 2. 0. 0.
      0. 0. 0. 0. 0. 0. 0. 0. 0. 0. 0. 0. 5.19350719e+00 5.20510435e-01
      0. 0. 0. 0. 0. 0. 0. 0. 0. 0. 3. 7. 31. 44. 75. 151. 743. 396. 15.
      9. 14. 17. 17. 16. 13. 13. 8. 4. 11. 2. 8. 3.</_>
    <_>
      1.16106719e-01 9.56037819e-01 7.79254615e-01 2.47499990e+00 4884.
      619. 423. 235. 126. 46. 17. 6. 7. 3. 6. 8. 6. 9. 4. 1. 0. 0. 0. 0.
      0. 0. 0. 0. 0. 0. 0. 0. 0. 0. 0. 0. 5.18958473e+00 5.29008090e-01
      0. 0. 0. 0. 0. 0. 0. 0. 0. 1. 23. 42. 101. 171. 193. 743. 3159.
      1382. 55. 40. 52. 54. 63. 53. 58. 56. 50. 22. 7. 28. 27. 20.
      9.96979773e-02 8.93409193e-01 7.04611540e-01 5.87756443e+00 1082.
      147. 113. 93. 60. 46. 25. 7. 3. 6. 5. 3. 1. 2. 2. 2. 2. 1. 0. 0.
      0. 0. 0. 0. 0. 0. 0. 0. 0. 0. 0. 0. 5.12283230e+00 5.25403976e-01
      0. 0. 0. 0. 0. 0. 0. 0. 0. 0. 4. 6. 29. 36. 62. 175. 783. 355. 16.
      8. 13. 18. 17. 16. 12. 13. 9. 4. 11. 2. 7. 4.</_>
    <_>
      1.06985472e-01 8.63827467e-01 8.10034931e-01 1.20300639e+00 5478.
      426. 156. 141. 79. 54. 36. 16. 10. 4. 0. 0. 0. 0. 0. 0. 0. 0. 0.
      0. 0. 0. 0. 0. 0. 0. 0. 0. 0. 0. 0. 0. 4.67080641e+00
      5.57903528e-01 0. 0. 0. 0. 0. 0. 0. 0. 1. 4. 6. 12. 37. 33. 43.
      107. 2063. 3327. 643. 48. 36. 21. 8. 6. 2. 2. 1. 0. 0. 0. 0. 0.
      8.59927684e-02 7.04179764e-01 7.40905225e-01 2.36025643e+00 1186.
      248. 66. 36. 24. 19. 13. 2. 5. 1. 0. 0. 0. 0. 0. 0. 0. 0. 0. 0. 0.
      0. 0. 0. 0. 0. 0. 0. 0. 0. 0. 0. 4.61325312e+00 5.49909234e-01 0.
      0. 0. 0. 0. 0. 0. 0. 0. 0. 1. 4. 9. 4. 19. 21. 490. 864. 155. 17.
      9. 4. 0. 2. 1. 0. 0. 0. 0. 0. 0. 0.</_>
    <_>
      1.09966084e-01 9.25642610e-01 8.52392018e-01 3.18670899e-01 6056.
      337. 7. 0. 0. 0. 0. 0. 0. 0. 0. 0. 0. 0. 0. 0. 0. 0. 0. 0. 0. 0.
      0. 0. 0. 0. 0. 0. 0. 0. 0. 0. 4.54004049e+00 5.33495665e-01 0. 0.
      0. 0. 0. 0. 0. 0. 0. 0. 0. 737. 3291. 1973. 393. 6. 0. 0. 0. 0. 0.
      0. 0. 0. 0. 0. 0. 0. 0. 0. 0. 0. 8.00569132e-02 8.58371735e-01
      7.59909511e-01 5.92307687e-01 1318. 276. 6. 0. 0. 0. 0. 0. 0. 0.
      0. 0. 0. 0. 0. 0. 0. 0. 0. 0. 0. 0. 0. 0. 0. 0. 0. 0. 0. 0. 0. 0.
      4.51303244e+00 5.23108542e-01 0. 0. 0. 0. 0. 0. 0. 0. 0. 0. 0.
      169. 812. 520. 98. 1. 0. 0. 0. 0. 0. 0. 0. 0. 0. 0. 0. 0. 0. 0. 0.
      0.</_>
    <_>
      3.89780134e-01 8.93972576e-01 9.53243673e-01 9.35126543e-02 6392.
      8. 0. 0. 0. 0. 0. 0. 0. 0. 0. 0. 0. 0. 0. 0. 0. 0. 0. 0. 0. 0. 0.
      0. 0. 0. 0. 0. 0. 0. 0. 0. 3.22799969e+00 4.96712983e-01 0. 0. 0.
      0. 0. 0. 0. 0. 0. 0. 0. 0. 0. 4416. 1967. 17. 0. 0. 0. 0. 0. 0. 0.
      0. 0. 0. 0. 0. 0. 0. 0. 0. 3.63009155e-01 8.16254914e-01
      9.25064147e-01 1.54487178e-01 1594. 6. 0. 0. 0. 0. 0. 0. 0. 0. 0.
      0. 0. 0. 0. 0. 0. 0. 0. 0. 0. 0. 0. 0. 0. 0. 0. 0. 0. 0. 0. 0.
      3.21794987e+00 4.80741203e-01 0. 0. 0. 0. 0. 0. 0. 0. 0. 0. 0. 0.
      0. 1087. 508. 5. 0. 0. 0. 0. 0. 0. 0. 0. 0. 0. 0. 0. 0. 0. 0. 0.</_>
    <_>
      7.51353949e-02 8.38422537e-01 7.09570944e-01 9.43829119e-01 4517.
      1517. 338. 28. 0. 0. 0. 0. 0. 0. 0. 0. 0. 0. 0. 0. 0. 0. 0. 0. 0.
      0. 0. 0. 0. 0. 0. 0. 0. 0. 0. 0. 4.61217499e+00 4.73092049e-01 0.
      0. 0. 0. 0. 0. 0. 0. 0. 0. 0. 0. 0. 0. 41. 2346. 2676. 954. 332.
      51. 0. 0. 0. 0. 0. 0. 0. 0. 0. 0. 0. 0. 5.43904118e-02
      5.89533567e-01 5.83699644e-01 2.23782063e+00 891. 477. 185. 45. 2.
      0. 0. 0. 0. 0. 0. 0. 0. 0. 0. 0. 0. 0. 0. 0. 0. 0. 0. 0. 0. 0. 0.
      0. 0. 0. 0. 0. 4.53886414e+00 4.62632626e-01 0. 0. 0. 0. 0. 0. 0.
      0. 0. 0. 0. 0. 0. 0. 4. 568. 695. 238. 87. 8. 0. 0. 0. 0. 0. 0. 0.
      0. 0. 0. 0. 0.</_>
    <_>
      2.03389943e-01 8.76254201e-01 8.69098127e-01 3.34335446e-01 5765.
      576. 57. 2. 0. 0. 0. 0. 0. 0. 0. 0. 0. 0. 0. 0. 0. 0. 0. 0. 0. 0.
      0. 0. 0. 0. 0. 0. 0. 0. 0. 0. 4.02887917e+00 4.98697102e-01 0. 0.
      0. 0. 0. 0. 0. 0. 0. 0. 0. 0. 0. 0. 856. 4541. 834. 159. 10. 0. 0.
      0. 0. 0. 0. 0. 0. 0. 0. 0. 0. 0. 1.66513190e-01 7.38767385e-01
      7.96035230e-01 6.62179470e-01 1328. 238. 32. 2. 0. 0. 0. 0. 0. 0.
      0. 0. 0. 0. 0. 0. 0. 0. 0. 0. 0. 0. 0. 0. 0. 0. 0. 0. 0. 0. 0. 0.
      4.00195265e+00 4.86267447e-01 0. 0. 0. 0. 0. 0. 0. 0. 0. 0. 0. 0.
      0. 0. 194. 1151. 215. 37. 3. 0. 0. 0. 0. 0. 0. 0. 0. 0. 0. 0. 0.
      0.</_>
    <_>
      3.56026441e-01 8.49544108e-01 9.32325959e-01 1.36867091e-01 6360.
      40. 0. 0. 0. 0. 0. 0. 0. 0. 0. 0. 0. 0. 0. 0. 0. 0. 0. 0. 0. 0. 0.
      0. 0. 0. 0. 0. 0. 0. 0. 0. 3.19673824e+00 6.18137896e-01 0. 0. 0.
      0. 0. 0. 0. 0. 0. 0. 0. 0. 0. 520. 5679. 191. 10. 0. 0. 0. 0. 0.
      0. 0. 0. 0. 0. 0. 0. 0. 0. 0. 3.23292464e-01 7.62722254e-01
      9.01089728e-01 2.07051277e-01 1584. 16. 0. 0. 0. 0. 0. 0. 0. 0. 0.
      0. 0. 0. 0. 0. 0. 0. 0. 0. 0. 0. 0. 0. 0. 0. 0. 0. 0. 0. 0. 0.
      3.16631603e+00 6.03545368e-01 0. 0. 0. 0. 0. 0. 0. 0. 0. 0. 0. 0.
      0. 114. 1438. 46. 2. 0. 0. 0. 0. 0. 0. 0. 0. 0. 0. 0. 0. 0. 0. 0.</_>
    <_>
      2.11587802e-01 8.83128762e-01 8.80443037e-01 2.53164560e-01 5936.
      443. 20. 1. 0. 0. 0. 0. 0. 0. 0. 0. 0. 0. 0. 0. 0. 0. 0. 0. 0. 0.
      0. 0. 0. 0. 0. 0. 0. 0. 0. 0. 3.87185144e+00 5.38178146e-01 0. 0.
      0. 0. 0. 0. 0. 0. 0. 0. 0. 0. 476. 4848. 953. 122. 1. 0. 0. 0. 0.
      0. 0. 0. 0. 0. 0. 0. 0. 0. 0. 0. 1.69976771e-01 7.44869947e-01
      8.03782046e-01 5.26282072e-01 1348. 211. 40. 1. 0. 0. 0. 0. 0. 0.
      0. 0. 0. 0. 0. 0. 0. 0. 0. 0. 0. 0. 0. 0. 0. 0. 0. 0. 0. 0. 0. 0.
      3.82980919e+00 5.23736894e-01 0. 0. 0. 0. 0. 0. 0. 0. 0. 0. 0. 0.
      102. 1220. 248. 30. 0. 0. 0. 0. 0. 0. 0. 0. 0. 0. 0. 0. 0. 0. 0.
      0.</_>
    <_>
      9.31288451e-02 9.23398077e-01 8.28688622e-01 4.12025303e-01 5696.
      636. 44. 12. 5. 2. 2. 1. 2. 0. 0. 0. 0. 0. 0. 0. 0. 0. 0. 0. 0. 0.
      0. 0. 0. 0. 0. 0. 0. 0. 0. 0. 4.59752655e+00 5.11730313e-01 0. 0.
      0. 0. 0. 0. 0. 0. 0. 0. 0. 1. 594. 2785. 2448. 533. 16. 8. 5. 5.
      1. 1. 1. 2. 0. 0. 0. 0. 0. 0. 0. 0. 6.76390976e-02 8.46427560e-01
      7.32177258e-01 7.92948723e-01 1228. 336. 28. 3. 1. 2. 2. 0. 0. 0.
      0. 0. 0. 0. 0. 0. 0. 0. 0. 0. 0. 0. 0. 0. 0. 0. 0. 0. 0. 0. 0. 0.
      4.54257202e+00 5.07711470e-01 0. 0. 0. 0. 0. 0. 0. 0. 0. 0. 0. 0.
      139. 701. 613. 139. 3. 1. 1. 2. 0. 1. 0. 0. 0. 0. 0. 0. 0. 0. 0.
      0.</_>
    <_>
      1.43783078e-01 8.58069420e-01 8.40998352e-01 6.75316453e-01 5687.
      423. 128. 79. 43. 15. 15. 5. 3. 2. 0. 0. 0. 0. 0. 0. 0. 0. 0. 0.
      0. 0. 0. 0. 0. 0. 0. 0. 0. 0. 0. 0. 4.34507751e+00 5.39660096e-01
      0. 0. 0. 0. 0. 0. 0. 0. 0. 0. 0. 0. 0. 3. 11. 25. 981. 4165. 1070.
      65. 40. 22. 6. 6. 3. 3. 0. 0. 0. 0. 0. 0. 1.13890946e-01
      7.08385110e-01 7.66055286e-01 1.25064111e+00 1253. 238. 61. 21.
      10. 10. 4. 2. 1. 0. 0. 0. 0. 0. 0. 0. 0. 0. 0. 0. 0. 0. 0. 0. 0.
      0. 0. 0. 0. 0. 0. 0. 4.29485941e+00 5.29336274e-01 0. 0. 0. 0. 0.
      0. 0. 0. 0. 0. 0. 0. 0. 0. 3. 5. 224. 1058. 272. 20. 11. 3. 1. 2.
      1. 0. 0. 0. 0. 0. 0. 0.</_>
    <_>
      2.17458084e-01 9.68594730e-01 9.48954403e-01 1.88291132e-01 6333.
      21. 9. 2. 2. 3. 4. 1. 5. 5. 2. 6. 4. 3. 0. 0. 0. 0. 0. 0. 0. 0. 0.
      0. 0. 0. 0. 0. 0. 0. 0. 0. 4.12639809e+00 4.80314642e-01 0. 0. 0.
      0. 0. 0. 0. 0. 0. 0. 0. 0. 152. 3702. 2190. 325. 1. 2. 2. 2. 1. 7.
      2. 1. 1. 6. 5. 1. 0. 0. 0. 0. 2.02393785e-01 9.31171238e-01
      9.19094741e-01 3.84615391e-01 1582. 2. 2. 4. 1. 1. 0. 2. 0. 1. 4.
      1. 0. 0. 0. 0. 0. 0. 0. 0. 0. 0. 0. 0. 0. 0. 0. 0. 0. 0. 0. 0.
      4.09220219e+00 4.72649664e-01 0. 0. 0. 0. 0. 0. 0. 0. 0. 0. 0. 0.
      28. 926. 554. 84. 0. 0. 1. 1. 0. 1. 0. 3. 2. 0. 0. 0. 0. 0. 0. 0.</_>
    <_>
      1.21510498e-01 8.89287651e-01 8.44326138e-01 4.22310114e-01 5747.
      561. 62. 23. 4. 3. 0. 0. 0. 0. 0. 0. 0. 0. 0. 0. 0. 0. 0. 0. 0. 0.
      0. 0. 0. 0. 0. 0. 0. 0. 0. 0. 4.45145321e+00 5.06294072e-01 0. 0.
      0. 0. 0. 0. 0. 0. 0. 0. 1. 8. 49. 1015. 3660. 1529. 121. 11. 6. 0.
      0. 0. 0. 0. 0. 0. 0. 0. 0. 0. 0. 0. 9.01319087e-02 7.98617482e-01
      7.54563391e-01 7.21153855e-01 1161. 382. 49. 8. 0. 0. 0. 0. 0. 0.
      0. 0. 0. 0. 0. 0. 0. 0. 0. 0. 0. 0. 0. 0. 0. 0. 0. 0. 0. 0. 0. 0.
      4.40781689e+00 5.00624716e-01 0. 0. 0. 0. 0. 0. 0. 0. 0. 0. 0. 2.
      8. 241. 917. 395. 34. 2. 1. 0. 0. 0. 0. 0. 0. 0. 0. 0. 0. 0. 0. 0.</_>
    <_>
      1.54928386e-01 8.31114054e-01 8.52337480e-01 4.62816447e-01 5848.
      395. 130. 21. 3. 3. 0. 0. 0. 0. 0. 0. 0. 0. 0. 0. 0. 0. 0. 0. 0.
      0. 0. 0. 0. 0. 0. 0. 0. 0. 0. 0. 4.16241360e+00 5.15695691e-01 0.
      0. 0. 0. 0. 0. 0. 0. 0. 1. 2. 25. 435. 3310. 2556. 56. 9. 6. 0. 0.
      0. 0. 0. 0. 0. 0. 0. 0. 0. 0. 0. 0. 1.21617146e-01 6.30562186e-01
      7.69568980e-01 9.44871843e-01 1279. 271. 41. 8. 1. 0. 0. 0. 0. 0.
      0. 0. 0. 0. 0. 0. 0. 0. 0. 0. 0. 0. 0. 0. 0. 0. 0. 0. 0. 0. 0. 0.
      4.10960484e+00 5.80842257e-01 0. 0. 0. 0. 0. 0. 0. 0. 0. 0. 1. 4.
      100. 822. 658. 13. 1. 1. 0. 0. 0. 0. 0. 0. 0. 0. 0. 0. 0. 0. 0. 0.</_>
    <_>
      1.73505768e-01 9.15936232e-01 8.94730985e-01 2.26107597e-01 6162.
      225. 13. 0. 0. 0. 0. 0. 0. 0. 0. 0. 0. 0. 0. 0. 0. 0. 0. 0. 0. 0.
      0. 0. 0. 0. 0. 0. 0. 0. 0. 0. 4.18254662e+00 5.25288582e-01 0. 0.
      0. 0. 0. 0. 0. 0. 0. 0. 0. 0. 34. 1158. 4163. 975. 70. 0. 0. 0. 0.
      0. 0. 0. 0. 0. 0. 0. 0. 0. 0. 0. 1.38045892e-01 8.34980488e-01
      8.21923077e-01 4.19230789e-01 1354. 241. 5. 0. 0. 0. 0. 0. 0. 0.
      0. 0. 0. 0. 0. 0. 0. 0. 0. 0. 0. 0. 0. 0. 0. 0. 0. 0. 0. 0. 0. 0.
      4.15034485e+00 5.17639816e-01 0. 0. 0. 0. 0. 0. 0. 0. 0. 0. 0. 0.
      4. 269. 1060. 252. 15. 0. 0. 0. 0. 0. 0. 0. 0. 0. 0. 0. 0. 0. 0.
      0.</_>
    <_>
      1.50157407e-01 8.59474063e-01 8.57298195e-01 4.17405069e-01 5919.
      370. 95. 11. 2. 3. 0. 0. 0. 0. 0. 0. 0. 0. 0. 0. 0. 0. 0. 0. 0. 0.
      0. 0. 0. 0. 0. 0. 0. 0. 0. 0. 4.25735998e+00 5.54504514e-01 0. 0.
      0. 0. 0. 0. 0. 0. 0. 2. 4. 30. 468. 3794. 1945. 150. 5. 2. 0. 0.
      0. 0. 0. 0. 0. 0. 0. 0. 0. 0. 0. 0. 1.20855734e-01 7.23342240e-01
      7.83810794e-01 7.70512819e-01 1254. 312. 28. 6. 0. 0. 0. 0. 0. 0.
      0. 0. 0. 0. 0. 0. 0. 0. 0. 0. 0. 0. 0. 0. 0. 0. 0. 0. 0. 0. 0. 0.
      4.20802784e+00 5.43934762e-01 0. 0. 0. 0. 0. 0. 0. 0. 0. 0. 0. 6.
      107. 948. 499. 39. 1. 0. 0. 0. 0. 0. 0. 0. 0. 0. 0. 0. 0. 0. 0. 0.</_>
    <_>
      1.04763083e-01 9.17688489e-01 8.41844022e-01 4.51898724e-01 5550.
      721. 97. 22. 3. 5. 2. 0. 0. 0. 0. 0. 0. 0. 0. 0. 0. 0. 0. 0. 0. 0.
      0. 0. 0. 0. 0. 0. 0. 0. 0. 0. 4.68401337e+00 5.23715556e-01 0. 0.
      0. 0. 0. 0. 0. 0. 0. 0. 0. 6. 53. 183. 2340. 2717. 990. 102. 3. 6.
      0. 0. 0. 0. 0. 0. 0. 0. 0. 0. 0. 0. 7.85153732e-02 8.19937706e-01
      7.48763800e-01 9.26282048e-01 1017. 486. 78. 14. 3. 2. 0. 0. 0. 0.
      0. 0. 0. 0. 0. 0. 0. 0. 0. 0. 0. 0. 0. 0. 0. 0. 0. 0. 0. 0. 0. 0.
      4.64302301e+00 5.14243662e-01 0. 0. 0. 0. 0. 0. 0. 0. 0. 0. 0. 1.
      9. 49. 565. 696. 255. 23. 2. 0. 0. 0. 0. 0. 0. 0. 0. 0. 0. 0. 0.
      0.</_>
    <_>
      8.64496753e-02 8.61223698e-01 7.95258939e-01 8.44936728e-01 5030.
      999. 255. 79. 31. 6. 0. 0. 0. 0. 0. 0. 0. 0. 0. 0. 0. 0. 0. 0. 0.
      0. 0. 0. 0. 0. 0. 0. 0. 0. 0. 0. 4.79627132e+00 5.11527956e-01 0.
      0. 0. 0. 0. 0. 0. 0. 0. 0. 0. 2. 16. 86. 424. 2319. 2731. 713. 91.
      18. 0. 0. 0. 0. 0. 0. 0. 0. 0. 0. 0. 0. 6.49365187e-02
      7.38174617e-01 6.99608266e-01 1.45384622e+00 949. 461. 140. 37.
      12. 1. 0. 0. 0. 0. 0. 0. 0. 0. 0. 0. 0. 0. 0. 0. 0. 0. 0. 0. 0. 0.
      0. 0. 0. 0. 0. 0. 4.72610521e+00 5.03414631e-01 0. 0. 0. 0. 0. 0.
      0. 0. 0. 0. 0. 0. 1. 20. 101. 578. 701. 178. 17. 4. 0. 0. 0. 0. 0.
      0. 0. 0. 0. 0. 0. 0.</_>
    <_>
      1.83949843e-01 9.19024169e-01 9.03481007e-01 1.94936708e-01 6213.
      187. 0. 0. 0. 0. 0. 0. 0. 0. 0. 0. 0. 0. 0. 0. 0. 0. 0. 0. 0. 0.
      0. 0. 0. 0. 0. 0. 0. 0. 0. 0. 4.06377745e+00 5.35578012e-01 0. 0.
      0. 0. 0. 0. 0. 0. 0. 0. 0. 0. 0. 516. 4276. 1480. 128. 0. 0. 0. 0.
      0. 0. 0. 0. 0. 0. 0. 0. 0. 0. 0. 1.44809753e-01 8.49278808e-01
      8.33974361e-01 3.55128199e-01 1378. 212. 10. 0. 0. 0. 0. 0. 0. 0.
      0. 0. 0. 0. 0. 0. 0. 0. 0. 0. 0. 0. 0. 0. 0. 0. 0. 0. 0. 0. 0. 0.
      4.03277683e+00 5.24848342e-01 0. 0. 0. 0. 0. 0. 0. 0. 0. 0. 0. 0.
      0. 111. 1077. 378. 34. 0. 0. 0. 0. 0. 0. 0. 0. 0. 0. 0. 0. 0. 0.
      0.</_>
    <_>
      1.38839647e-01 9.52699959e-01 7.97561884e-01 1.50569618e+00 4772.
      774. 424. 217. 109. 65. 25. 11. 3. 0. 0. 0. 0. 0. 0. 0. 0. 0. 0.
      0. 0. 0. 0. 0. 0. 0. 0. 0. 0. 0. 0. 0. 5.10305405e+00
      6.29711628e-01 0. 0. 0. 0. 0. 0. 0. 0. 5. 13. 57. 199. 222. 281.
      298. 332. 527. 3801. 474. 51. 36. 51. 32. 19. 2. 0. 0. 0. 0. 0. 0.
      0. 1.21318422e-01 8.80288899e-01 7.19001293e-01 3.78525639e+00
      1025. 179. 156. 95. 67. 44. 27. 7. 0. 0. 0. 0. 0. 0. 0. 0. 0. 0.
      0. 0. 0. 0. 0. 0. 0. 0. 0. 0. 0. 0. 0. 0. 5.04618311e+00
      6.24577880e-01 0. 0. 0. 0. 0. 0. 0. 0. 0. 4. 14. 46. 58. 67. 84.
      76. 133. 950. 122. 8. 14. 11. 10. 3. 0. 0. 0. 0. 0. 0. 0. 0.</_>
    <_>
      1.86796989e-02 9.18267667e-01 5.98715365e-01 3.26993680e+00 2799.
      2061. 799. 388. 144. 104. 46. 25. 9. 9. 3. 9. 4. 0. 0. 0. 0. 0. 0.
      0. 0. 0. 0. 0. 0. 0. 0. 0. 0. 0. 0. 0. 5.99339581e+00
      5.45728803e-01 0. 0. 0. 0. 0. 0. 0. 1. 144. 54. 30. 76. 160. 354.
      623. 883. 1406. 1334. 956. 300. 60. 15. 3. 0. 0. 0. 1. 0. 0. 0. 0.
      0. 1.37327425e-02 8.25865090e-01 4.85910863e-01 6.49743605e+00
      397. 531. 321. 186. 81. 36. 21. 13. 1. 3. 1. 3. 1. 2. 2. 1. 0. 0.
      0. 0. 0. 0. 0. 0. 0. 0. 0. 0. 0. 0. 0. 0. 5.91834641e+00
      5.44313371e-01 0. 0. 0. 0. 0. 0. 0. 0. 34. 14. 7. 16. 36. 90. 157.
      211. 360. 360. 222. 78. 14. 1. 0. 0. 0. 0. 0. 0. 0. 0. 0. 0.</_>
    <_>
      2.27546934e-02 8.87795746e-01 5.76289237e-01 4.29018974e+00 3042.
      1733. 784. 399. 212. 114. 68. 27. 13. 5. 2. 1. 0. 0. 0. 0. 0. 0.
      0. 0. 0. 0. 0. 0. 0. 0. 0. 0. 0. 0. 0. 0. 5.97031641e+00
      5.03478467e-01 0. 0. 0. 0. 0. 0. 0. 0. 47. 54. 56. 54. 79. 135.
      187. 454. 1376. 1642. 931. 786. 433. 137. 28. 1. 0. 0. 0. 0. 0. 0.
      0. 0. 1.65497623e-02 7.73246109e-01 4.60712373e-01 8.04615402e+00
      553. 477. 256. 152. 66. 44. 23. 16. 10. 2. 1. 0. 0. 0. 0. 0. 0. 0.
      0. 0. 0. 0. 0. 0. 0. 0. 0. 0. 0. 0. 0. 0. 5.87358904e+00
      5.02526343e-01 0. 0. 0. 0. 0. 0. 0. 0. 9. 13. 9. 21. 20. 29. 45.
      106. 357. 407. 241. 196. 109. 34. 4. 0. 0. 0. 0. 0. 0. 0. 0. 0.</_>
    <_>
      9.30277072e-03 8.40795279e-01 4.71713722e-01 6.31613922e+00 1891.
      1947. 1178. 652. 384. 205. 89. 37. 13. 4. 0. 0. 0. 0. 0. 0. 0. 0.
      0. 0. 0. 0. 0. 0. 0. 0. 0. 0. 0. 0. 0. 0. 6.13653708e+00
      5.00670791e-01 0. 0. 0. 0. 0. 0. 0. 1. 10. 125. 544. 789. 1002.
      1105. 858. 724. 630. 423. 154. 27. 7. 1. 0. 0. 0. 0. 0. 0. 0. 0.
      0. 0. 7.06299348e-03 6.88670218e-01 3.65856260e-01 1.13544874e+01
      338. 451. 324. 203. 140. 69. 46. 24. 4. 1. 0. 0. 0. 0. 0. 0. 0. 0.
      0. 0. 0. 0. 0. 0. 0. 0. 0. 0. 0. 0. 0. 0. 6.02574635e+00
      4.97654319e-01 0. 0. 0. 0. 0. 0. 0. 0. 0. 19. 126. 214. 243. 294.
      220. 189. 156. 96. 38. 4. 1. 0. 0. 0. 0. 0. 0. 0. 0. 0. 0. 0.</_>
    <_>
      2.07907017e-02 9.51032579e-01 6.28719389e-01 1.40569615e+00 3294.
      2123. 757. 191. 29. 6. 0. 0. 0. 0. 0. 0. 0. 0. 0. 0. 0. 0. 0. 0.
      0. 0. 0. 0. 0. 0. 0. 0. 0. 0. 0. 0. 5.82478523e+00 4.89308506e-01
      0. 0. 0. 0. 0. 0. 0. 0. 0. 0. 0. 277. 1105. 1237. 1088. 858. 809.
      720. 279. 27. 0. 0. 0. 0. 0. 0. 0. 0. 0. 0. 0. 0. 1.23265944e-02
      8.47021997e-01 4.27557290e-01 4.26538467e+00 458. 402. 365. 219.
      116. 35. 4. 1. 0. 0. 0. 0. 0. 0. 0. 0. 0. 0. 0. 0. 0. 0. 0. 0. 0.
      0. 0. 0. 0. 0. 0. 0. 5.78925037e+00 4.88159448e-01 0. 0. 0. 0. 0.
      0. 0. 0. 0. 0. 0. 64. 272. 307. 269. 229. 203. 183. 70. 3. 0. 0.
      0. 0. 0. 0. 0. 0. 0. 0. 0. 0.</_>
    <_>
      2.68730856e-02 9.58788157e-01 6.08561277e-01 1.52547467e+00 3383.
      2110. 707. 158. 41. 1. 0. 0. 0. 0. 0. 0. 0. 0. 0. 0. 0. 0. 0. 0.
      0. 0. 0. 0. 0. 0. 0. 0. 0. 0. 0. 0. 5.76710320e+00 4.67971921e-01
      0. 0. 0. 0. 0. 0. 0. 0. 0. 0. 0. 0. 0. 767. 1619. 965. 682. 578.
      594. 921. 266. 8. 0. 0. 0. 0. 0. 0. 0. 0. 0. 0. 1.75941009e-02
      8.68814588e-01 4.11299795e-01 4.75448751e+00 490. 392. 338. 253.
      81. 34. 11. 1. 0. 0. 0. 0. 0. 0. 0. 0. 0. 0. 0. 0. 0. 0. 0. 0. 0.
      0. 0. 0. 0. 0. 0. 0. 5.73685646e+00 4.65319872e-01 0. 0. 0. 0. 0.
      0. 0. 0. 0. 0. 0. 0. 0. 176. 408. 251. 170. 143. 156. 232. 63. 1.
      0. 0. 0. 0. 0. 0. 0. 0. 0. 0.</_>
    <_>
      6.11887239e-02 9.29766595e-01 7.56520927e-01 6.84335470e-01 5054.
      1159. 155. 31. 1. 0. 0. 0. 0. 0. 0. 0. 0. 0. 0. 0. 0. 0. 0. 0. 0.
      0. 0. 0. 0. 0. 0. 0. 0. 0. 0. 0. 5.04784441e+00 5.02323389e-01 0.
      0. 0. 0. 0. 0. 0. 0. 0. 0. 0. 521. 2188. 2149. 811. 609. 122. 0.
      0. 0. 0. 0. 0. 0. 0. 0. 0. 0. 0. 0. 0. 0. 4.12576050e-02
      8.11025202e-01 6.08029068e-01 1.77884614e+00 929. 462. 166. 28.
      15. 0. 0. 0. 0. 0. 0. 0. 0. 0. 0. 0. 0. 0. 0. 0. 0. 0. 0. 0. 0. 0.
      0. 0. 0. 0. 0. 0. 5.01483583e+00 4.93138850e-01 0. 0. 0. 0. 0. 0.
      0. 0. 0. 0. 0. 123. 528. 560. 214. 141. 34. 0. 0. 0. 0. 0. 0. 0.
      0. 0. 0. 0. 0. 0. 0. 0.</_>
    <_>
      1.89280938e-02 9.42577899e-01 5.94468892e-01 1.67658222e+00 2974.
      2343. 753. 242. 71. 17. 0. 0. 0. 0. 0. 0. 0. 0. 0. 0. 0. 0. 0. 0.
      0. 0. 0. 0. 0. 0. 0. 0. 0. 0. 0. 0. 5.82948685e+00 4.97512728e-01
      0. 0. 0. 0. 0. 0. 0. 0. 0. 0. 0. 0. 283. 969. 1280. 943. 815.
      1023. 830. 214. 43. 0. 0. 0. 0. 0. 0. 0. 0. 0. 0. 0.
      1.17940502e-02 8.21823180e-01 3.88362229e-01 5.05448723e+00 362.
      425. 430. 217. 113. 41. 11. 1. 0. 0. 0. 0. 0. 0. 0. 0. 0. 0. 0. 0.
      0. 0. 0. 0. 0. 0. 0. 0. 0. 0. 0. 0. 5.80496550e+00 4.90969986e-01
      0. 0. 0. 0. 0. 0. 0. 0. 0. 0. 0. 0. 64. 238. 320. 247. 204. 264.
      198. 56. 9. 0. 0. 0. 0. 0. 0. 0. 0. 0. 0. 0.</_>
    <_>
      1.34090213e-02 9.26078081e-01 5.00352502e-01 3.12025309e+00 2540.
      1977. 1101. 552. 201. 27. 2. 0. 0. 0. 0. 0. 0. 0. 0. 0. 0. 0. 0.
      0. 0. 0. 0. 0. 0. 0. 0. 0. 0. 0. 0. 0. 5.96543932e+00
      5.22099376e-01 0. 0. 0. 0. 0. 0. 0. 0. 0. 0. 0. 0. 0. 0. 2. 402.
      1032. 646. 770. 795. 760. 890. 999. 104. 0. 0. 0. 0. 0. 0. 0. 0.
      8.53961241e-03 7.64080763e-01 3.15477729e-01 9.58910275e+00 359.
      315. 296. 227. 228. 115. 52. 8. 0. 0. 0. 0. 0. 0. 0. 0. 0. 0. 0.
      0. 0. 0. 0. 0. 0. 0. 0. 0. 0. 0. 0. 0. 5.91852045e+00
      5.21655142e-01 0. 0. 0. 0. 0. 0. 0. 0. 0. 0. 0. 0. 0. 0. 0. 93.
      253. 167. 199. 187. 207. 238. 241. 15. 0. 0. 0. 0. 0. 0. 0. 0.</_>
    <_>
      2.56576598e-01 8.91740322e-01 9.51007187e-01 2.32911393e-01 6368.
      7. 4. 3. 1. 3. 2. 3. 0. 3. 0. 1. 2. 1. 2. 0. 0. 0. 0. 0. 0. 0. 0.
      0. 0. 0. 0. 0. 0. 0. 0. 0. 3.71363854e+00 6.05976582e-01 0. 0. 0.
      0. 0. 0. 0. 0. 0. 0. 0. 0. 0. 1. 343. 4206. 1838. 2. 1. 3. 1. 1.
      0. 2. 0. 1. 0. 1. 0. 0. 0. 0. 2.37007111e-01 8.16518605e-01
      9.29102659e-01 3.55128229e-01 1585. 2. 4. 2. 0. 4. 2. 1. 0. 0. 0.
      0. 0. 0. 0. 0. 0. 0. 0. 0. 0. 0. 0. 0. 0. 0. 0. 0. 0. 0. 0. 0.
      3.71245456e+00 5.95021904e-01 0. 0. 0. 0. 0. 0. 0. 0. 0. 0. 0. 0.
      0. 0. 78. 1040. 478. 1. 1. 1. 0. 0. 0. 1. 0. 0. 0. 0. 0. 0. 0. 0.</_>
    <_>
      5.15409946e-01 9.31378245e-01 9.83623445e-01 3.27531621e-02 6400.
      0. 0. 0. 0. 0. 0. 0. 0. 0. 0. 0. 0. 0. 0. 0. 0. 0. 0. 0. 0. 0. 0.
      0. 0. 0. 0. 0. 0. 0. 0. 0. 2.80813980e+00 6.05980217e-01 0. 0. 0.
      0. 0. 0. 0. 0. 0. 0. 0. 0. 0. 0. 0. 89. 6308. 3. 0. 0. 0. 0. 0. 0.
      0. 0. 0. 0. 0. 0. 0. 0. 5.07766902e-01 9.16246831e-01
      9.80448723e-01 3.91025655e-02 1600. 0. 0. 0. 0. 0. 0. 0. 0. 0. 0.
      0. 0. 0. 0. 0. 0. 0. 0. 0. 0. 0. 0. 0. 0. 0. 0. 0. 0. 0. 0. 0.
      2.79215169e+00 5.91071308e-01 0. 0. 0. 0. 0. 0. 0. 0. 0. 0. 0. 0.
      0. 0. 0. 11. 1589. 0. 0. 0. 0. 0. 0. 0. 0. 0. 0. 0. 0. 0. 0. 0.</_>
    <_>
      3.43115240e-01 9.43966687e-01 9.70332265e-01 5.93354441e-02 6400.
      0. 0. 0. 0. 0. 0. 0. 0. 0. 0. 0. 0. 0. 0. 0. 0. 0. 0. 0. 0. 0. 0.
      0. 0. 0. 0. 0. 0. 0. 0. 0. 3.32549429e+00 5.24318039e-01 0. 0. 0.
      0. 0. 0. 0. 0. 0. 0. 0. 0. 0. 0. 1100. 5114. 186. 0. 0. 0. 0. 0.
      0. 0. 0. 0. 0. 0. 0. 0. 0. 0. 3.20863545e-01 9.11780179e-01
      9.52884614e-01 9.42307711e-02 1600. 0. 0. 0. 0. 0. 0. 0. 0. 0. 0.
      0. 0. 0. 0. 0. 0. 0. 0. 0. 0. 0. 0. 0. 0. 0. 0. 0. 0. 0. 0. 0.
      3.33296013e+00 5.13201892e-01 0. 0. 0. 0. 0. 0. 0. 0. 0. 0. 0. 0.
      0. 0. 267. 1277. 56. 0. 0. 0. 0. 0. 0. 0. 0. 0. 0. 0. 0. 0. 0. 0.</_>
    <_>
      3.44614983e-01 9.49821413e-01 9.74129736e-01 5.17405085e-02 6400.
      0. 0. 0. 0. 0. 0. 0. 0. 0. 0. 0. 0. 0. 0. 0. 0. 0. 0. 0. 0. 0. 0.
      0. 0. 0. 0. 0. 0. 0. 0. 0. 3.43598199e+00 5.86489916e-01 0. 0. 0.
      0. 0. 0. 0. 0. 0. 0. 0. 0. 0. 821. 5400. 179. 0. 0. 0. 0. 0. 0. 0.
      0. 0. 0. 0. 0. 0. 0. 0. 0. 3.30695868e-01 9.23937619e-01
      9.61217940e-01 7.75641054e-02 1600. 0. 0. 0. 0. 0. 0. 0. 0. 0. 0.
      0. 0. 0. 0. 0. 0. 0. 0. 0. 0. 0. 0. 0. 0. 0. 0. 0. 0. 0. 0. 0.
      3.42093325e+00 5.75209498e-01 0. 0. 0. 0. 0. 0. 0. 0. 0. 0. 0. 0.
      0. 194. 1355. 51. 0. 0. 0. 0. 0. 0. 0. 0. 0. 0. 0. 0. 0. 0. 0. 0.</_>
    <_>
      2.52273977e-01 8.96528065e-01 9.54009533e-01 2.31962025e-01 6366.
      9. 4. 3. 1. 2. 2. 4. 0. 3. 0. 0. 3. 1. 2. 0. 0. 0. 0. 0. 0. 0. 0.
      0. 0. 0. 0. 0. 0. 0. 0. 0. 3.81110334e+00 5.42869329e-01 0. 0. 0.
      0. 0. 0. 0. 0. 0. 0. 0. 0. 0. 0. 75. 2704. 3607. 4. 1. 3. 2. 0. 0.
      2. 0. 1. 0. 0. 1. 0. 0. 0. 2.40477279e-01 8.20012569e-01
      9.39988136e-01 3.59615386e-01 1585. 2. 4. 2. 0. 4. 2. 1. 0. 0. 0.
      0. 0. 0. 0. 0. 0. 0. 0. 0. 0. 0. 0. 0. 0. 0. 0. 0. 0. 0. 0. 0.
      3.79736662e+00 5.32221973e-01 0. 0. 0. 0. 0. 0. 0. 0. 0. 0. 0. 0.
      0. 0. 14. 670. 912. 1. 1. 1. 0. 0. 0. 1. 0. 0. 0. 0. 0. 0. 0. 0.</_>
    <_>
      2.81977892e-01 9.67145920e-01 9.73892391e-01 5.22151887e-02 6400.
      0. 0. 0. 0. 0. 0. 0. 0. 0. 0. 0. 0. 0. 0. 0. 0. 0. 0. 0. 0. 0. 0.
      0. 0. 0. 0. 0. 0. 0. 0. 0. 3.75258017e+00 5.13773561e-01 0. 0. 0.
      0. 0. 0. 0. 0. 0. 0. 0. 0. 2530. 3781. 89. 0. 0. 0. 0. 0. 0. 0. 0.
      0. 0. 0. 0. 0. 0. 0. 0. 0. 2.73211300e-01 9.47711051e-01
      9.59615409e-01 8.07692334e-02 1600. 0. 0. 0. 0. 0. 0. 0. 0. 0. 0.
      0. 0. 0. 0. 0. 0. 0. 0. 0. 0. 0. 0. 0. 0. 0. 0. 0. 0. 0. 0. 0.
      3.74400735e+00 5.07212043e-01 0. 0. 0. 0. 0. 0. 0. 0. 0. 0. 0. 0.
      612. 965. 23. 0. 0. 0. 0. 0. 0. 0. 0. 0. 0. 0. 0. 0. 0. 0. 0. 0.</_>
    <_>
      3.76916647e-01 9.37132001e-01 9.72072780e-01 5.58544286e-02 6400.
      0. 0. 0. 0. 0. 0. 0. 0. 0. 0. 0. 0. 0. 0. 0. 0. 0. 0. 0. 0. 0. 0.
      0. 0. 0. 0. 0. 0. 0. 0. 0. 3.23662353e+00 6.31971240e-01 0. 0. 0.
      0. 0. 0. 0. 0. 0. 0. 0. 0. 0. 106. 5509. 785. 0. 0. 0. 0. 0. 0. 0.
      0. 0. 0. 0. 0. 0. 0. 0. 0. 3.59964252e-01 8.98098171e-01
      9.55769241e-01 8.84615406e-02 1600. 0. 0. 0. 0. 0. 0. 0. 0. 0. 0.
      0. 0. 0. 0. 0. 0. 0. 0. 0. 0. 0. 0. 0. 0. 0. 0. 0. 0. 0. 0. 0.
      3.22278929e+00 6.22712910e-01 0. 0. 0. 0. 0. 0. 0. 0. 0. 0. 0. 0.
      0. 24. 1371. 205. 0. 0. 0. 0. 0. 0. 0. 0. 0. 0. 0. 0. 0. 0. 0. 0.</_>
    <_>
      3.17116559e-01 9.64829326e-01 9.77927208e-01 4.41455692e-02 6400.
      0. 0. 0. 0. 0. 0. 0. 0. 0. 0. 0. 0. 0. 0. 0. 0. 0. 0. 0. 0. 0. 0.
      0. 0. 0. 0. 0. 0. 0. 0. 0. 3.46357036e+00 4.80246216e-01 0. 0. 0.
      0. 0. 0. 0. 0. 0. 0. 0. 0. 0. 0. 26. 4841. 1533. 0. 0. 0. 0. 0. 0.
      0. 0. 0. 0. 0. 0. 0. 0. 0. 2.99563378e-01 9.45276737e-01
      9.65705097e-01 6.85897470e-02 1600. 0. 0. 0. 0. 0. 0. 0. 0. 0. 0.
      0. 0. 0. 0. 0. 0. 0. 0. 0. 0. 0. 0. 0. 0. 0. 0. 0. 0. 0. 0. 0.
      3.46034551e+00 4.71119076e-01 0. 0. 0. 0. 0. 0. 0. 0. 0. 0. 0. 0.
      0. 0. 4. 1195. 401. 0. 0. 0. 0. 0. 0. 0. 0. 0. 0. 0. 0. 0. 0. 0.</_>
    <_>
      3.94217193e-01 9.38111901e-01 9.74446237e-01 5.11075929e-02 6400.
      0. 0. 0. 0. 0. 0. 0. 0. 0. 0. 0. 0. 0. 0. 0. 0. 0. 0. 0. 0. 0. 0.
      0. 0. 0. 0. 0. 0. 0. 0. 0. 3.22498918e+00 6.33230448e-01 0. 0. 0.
      0. 0. 0. 0. 0. 0. 0. 0. 0. 0. 8. 5019. 1373. 0. 0. 0. 0. 0. 0. 0.
      0. 0. 0. 0. 0. 0. 0. 0. 0. 3.85023415e-01 9.03516710e-01
      9.61538434e-01 7.69230798e-02 1600. 0. 0. 0. 0. 0. 0. 0. 0. 0. 0.
      0. 0. 0. 0. 0. 0. 0. 0. 0. 0. 0. 0. 0. 0. 0. 0. 0. 0. 0. 0. 0.
      3.21597362e+00 6.21163487e-01 0. 0. 0. 0. 0. 0. 0. 0. 0. 0. 0. 0.
      0. 1. 1249. 350. 0. 0. 0. 0. 0. 0. 0. 0. 0. 0. 0. 0. 0. 0. 0. 0.</_>
    <_>
      3.24130386e-01 9.57712770e-01 9.74762678e-01 5.04746847e-02 6400.
      0. 0. 0. 0. 0. 0. 0. 0. 0. 0. 0. 0. 0. 0. 0. 0. 0. 0. 0. 0. 0. 0.
      0. 0. 0. 0. 0. 0. 0. 0. 0. 3.45279717e+00 5.51148176e-01 0. 0. 0.
      0. 0. 0. 0. 0. 0. 0. 0. 0. 0. 0. 2814. 3586. 0. 0. 0. 0. 0. 0. 0.
      0. 0. 0. 0. 0. 0. 0. 0. 0. 3.04501146e-01 9.26183164e-01
      9.56410229e-01 8.71794894e-02 1600. 0. 0. 0. 0. 0. 0. 0. 0. 0. 0.
      0. 0. 0. 0. 0. 0. 0. 0. 0. 0. 0. 0. 0. 0. 0. 0. 0. 0. 0. 0. 0.
      3.45259929e+00 5.43681681e-01 0. 0. 0. 0. 0. 0. 0. 0. 0. 0. 0. 0.
      0. 0. 688. 912. 0. 0. 0. 0. 0. 0. 0. 0. 0. 0. 0. 0. 0. 0. 0. 0.</_>
    <_>
      3.67774159e-01 9.50921834e-01 9.77610767e-01 4.47784811e-02 6400.
      0. 0. 0. 0. 0. 0. 0. 0. 0. 0. 0. 0. 0. 0. 0. 0. 0. 0. 0. 0. 0. 0.
      0. 0. 0. 0. 0. 0. 0. 0. 0. 3.37140131e+00 5.55940986e-01 0. 0. 0.
      0. 0. 0. 0. 0. 0. 0. 0. 0. 0. 1939. 4461. 0. 0. 0. 0. 0. 0. 0. 0.
      0. 0. 0. 0. 0. 0. 0. 0. 0. 3.54665905e-01 9.27246749e-01
      9.67307687e-01 6.53846189e-02 1600. 0. 0. 0. 0. 0. 0. 0. 0. 0. 0.
      0. 0. 0. 0. 0. 0. 0. 0. 0. 0. 0. 0. 0. 0. 0. 0. 0. 0. 0. 0. 0.
      3.35214400e+00 5.44574976e-01 0. 0. 0. 0. 0. 0. 0. 0. 0. 0. 0. 0.
      0. 468. 1132. 0. 0. 0. 0. 0. 0. 0. 0. 0. 0. 0. 0. 0. 0. 0. 0. 0.</_>
    <_>
      2.41042644e-01 9.61666405e-01 9.64873433e-01 7.02531636e-02 6400.
      0. 0. 0. 0. 0. 0. 0. 0. 0. 0. 0. 0. 0. 0. 0. 0. 0. 0. 0. 0. 0. 0.
      0. 0. 0. 0. 0. 0. 0. 0. 0. 3.62358236e+00 5.25341988e-01 0. 0. 0.
      0. 0. 0. 0. 0. 0. 0. 0. 0. 0. 0. 0. 0. 3548. 2852. 0. 0. 0. 0. 0.
      0. 0. 0. 0. 0. 0. 0. 0. 0. 2.25193143e-01 9.40295219e-01
      9.46153879e-01 1.07692309e-01 1600. 0. 0. 0. 0. 0. 0. 0. 0. 0. 0.
      0. 0. 0. 0. 0. 0. 0. 0. 0. 0. 0. 0. 0. 0. 0. 0. 0. 0. 0. 0. 0.
      3.63406372e+00 5.17771065e-01 0. 0. 0. 0. 0. 0. 0. 0. 0. 0. 0. 0.
      0. 0. 0. 0. 870. 730. 0. 0. 0. 0. 0. 0. 0. 0. 0. 0. 0. 0. 0. 0.</_>
    <_>
      3.55729669e-01 9.54278588e-01 9.74367082e-01 5.12658246e-02 6400.
      0. 0. 0. 0. 0. 0. 0. 0. 0. 0. 0. 0. 0. 0. 0. 0. 0. 0. 0. 0. 0. 0.
      0. 0. 0. 0. 0. 0. 0. 0. 0. 3.39278173e+00 4.65801477e-01 0. 0. 0.
      0. 0. 0. 0. 0. 0. 0. 0. 0. 0. 0. 611. 5314. 475. 0. 0. 0. 0. 0. 0.
      0. 0. 0. 0. 0. 0. 0. 0. 0. 3.38281333e-01 9.24183607e-01
      9.58012819e-01 8.39743614e-02 1600. 0. 0. 0. 0. 0. 0. 0. 0. 0. 0.
      0. 0. 0. 0. 0. 0. 0. 0. 0. 0. 0. 0. 0. 0. 0. 0. 0. 0. 0. 0. 0.
      3.38914871e+00 5.65192997e-01 0. 0. 0. 0. 0. 0. 0. 0. 0. 0. 0. 0.
      0. 0. 142. 1333. 125. 0. 0. 0. 0. 0. 0. 0. 0. 0. 0. 0. 0. 0. 0. 0.</_>
    <_>
      1.06392540e-01 8.96299899e-01 8.07067275e-01 2.51867080e+00 5400.
      299. 138. 77. 91. 82. 70. 59. 63. 49. 33. 21. 13. 5. 0. 0. 0. 0.
      0. 0. 0. 0. 0. 0. 0. 0. 0. 0. 0. 0. 0. 0. 4.95680618e+00
      6.14342570e-01 0. 0. 0. 0. 0. 0. 0. 5. 10. 49. 59. 56. 60. 47. 36.
      91. 497. 962. 3144. 1372. 11. 1. 0. 0. 0. 0. 0. 0. 0. 0. 0. 0.
      8.95319656e-02 7.46550679e-01 7.37764001e-01 5.68525648e+00 1140.
      208. 48. 35. 38. 21. 24. 12. 13. 12. 19. 15. 9. 5. 1. 0. 0. 0. 0.
      0. 0. 0. 0. 0. 0. 0. 0. 0. 0. 0. 0. 0. 4.88452768e+00
      6.12028480e-01 0. 0. 0. 0. 0. 0. 0. 0. 3. 8. 12. 19. 14. 18. 7.
      16. 133. 235. 796. 339. 0. 0. 0. 0. 0. 0. 0. 0. 0. 0. 0. 0.</_>
    <_>
      5.68775013e-02 9.66397047e-01 7.61306286e-01 6.83291149e+00 5083.
      460. 140. 88. 85. 83. 76. 70. 84. 68. 73. 38. 29. 13. 6. 3. 1. 0.
      0. 0. 0. 0. 0. 0. 0. 0. 0. 0. 0. 0. 0. 0. 5.81976080e+00
      6.12345576e-01 0. 0. 0. 0. 1. 20. 172. 852. 603. 189. 66. 47. 44.
      43. 37. 160. 195. 261. 1491. 1995. 213. 5. 6. 0. 0. 0. 0. 0. 0. 0.
      0. 0. 4.84670885e-02 9.28490996e-01 6.90163076e-01 1.43878212e+01
      1016. 249. 51. 25. 29. 27. 25. 34. 13. 22. 35. 30. 17. 11. 11. 3.
      2. 0. 0. 0. 0. 0. 0. 0. 0. 0. 0. 0. 0. 0. 0. 0. 5.76576567e+00
      6.13210201e-01 0. 0. 0. 0. 0. 2. 38. 213. 156. 48. 9. 16. 10. 15.
      13. 42. 52. 70. 359. 504. 50. 3. 0. 0. 0. 0. 0. 0. 0. 0. 0. 0.</_>
    <_>
      9.66420397e-02 8.74937832e-01 8.64080012e-01 1.83386075e+00 5898.
      146. 68. 44. 47. 41. 49. 29. 29. 18. 16. 13. 2. 0. 0. 0. 0. 0. 0.
      0. 0. 0. 0. 0. 0. 0. 0. 0. 0. 0. 0. 0. 4.95798111e+00
      5.68038404e-01 0. 0. 0. 0. 0. 0. 4. 7. 11. 19. 30. 17. 32. 27. 23.
      444. 1502. 2274. 1934. 74. 2. 0. 0. 0. 0. 0. 0. 0. 0. 0. 0. 0.
      8.06171969e-02 7.36662507e-01 8.16132367e-01 3.59615397e+00 1346.
      130. 19. 23. 15. 8. 18. 11. 6. 4. 11. 6. 2. 1. 0. 0. 0. 0. 0. 0.
      0. 0. 0. 0. 0. 0. 0. 0. 0. 0. 0. 0. 4.89143419e+00 5.60741365e-01
      0. 0. 0. 0. 0. 0. 0. 3. 1. 4. 5. 8. 7. 13. 3. 97. 385. 568. 488.
      18. 0. 0. 0. 0. 0. 0. 0. 0. 0. 0. 0. 0.</_>
    <_>
      4.68918383e-02 9.40097153e-01 6.43609285e-01 8.77484131e+00 4391.
      572. 281. 189. 212. 188. 165. 148. 92. 72. 55. 19. 13. 2. 1. 0. 0.
      0. 0. 0. 0. 0. 0. 0. 0. 0. 0. 0. 0. 0. 0. 0. 5.79212999e+00
      6.17349803e-01 0. 0. 0. 0. 0. 0. 4. 264. 283. 267. 168. 144. 111.
      115. 96. 107. 109. 70. 321. 1595. 2396. 327. 23. 0. 0. 0. 0. 0. 0.
      0. 0. 0. 3.52155268e-02 8.45142961e-01 5.36145806e-01
      2.16423073e+01 890. 211. 79. 41. 44. 61. 66. 48. 33. 26. 29. 37.
      16. 19. 0. 0. 0. 0. 0. 0. 0. 0. 0. 0. 0. 0. 0. 0. 0. 0. 0. 0.
      5.69066429e+00 6.14910066e-01 0. 0. 0. 0. 0. 0. 0. 64. 61. 78. 35.
      38. 19. 34. 47. 22. 26. 21. 72. 378. 631. 74. 0. 0. 0. 0. 0. 0. 0.
      0. 0. 0.</_>
    <_>
      1.84667297e-02 9.65315521e-01 6.85219407e-01 7.31091785e+00 4603.
      699. 209. 132. 127. 110. 97. 97. 91. 84. 63. 55. 19. 4. 7. 3. 0.
      0. 0. 0. 0. 0. 0. 0. 0. 0. 0. 0. 0. 0. 0. 0. 6.54434633e+00
      5.45267165e-01 0. 0. 0. 0. 0. 97. 436. 462. 677. 345. 136. 79. 67.
      63. 78. 199. 529. 821. 672. 844. 832. 62. 1. 0. 0. 0. 0. 0. 0. 0.
      0. 0. 1.25643089e-02 9.14771140e-01 5.50473690e-01 1.76833344e+01
      729. 432. 96. 52. 45. 30. 33. 32. 35. 18. 28. 17. 25. 16. 7. 4. 1.
      0. 0. 0. 0. 0. 0. 0. 0. 0. 0. 0. 0. 0. 0. 0. 6.52364445e+00
      5.46290994e-01 0. 0. 0. 0. 0. 23. 105. 117. 168. 84. 36. 16. 19.
      24. 20. 48. 132. 207. 171. 215. 204. 11. 0. 0. 0. 0. 0. 0. 0. 0.
      0. 0.</_>
    <_>
      1.76982939e-01 8.33356142e-01 8.82053316e-01 1.04382908e+00 5891.
      163. 117. 88. 75. 46. 13. 6. 1. 0. 0. 0. 0. 0. 0. 0. 0. 0. 0. 0.
      0. 0. 0. 0. 0. 0. 0. 0. 0. 0. 0. 0. 4.26073599e+00 5.67721009e-01
      0. 0. 0. 0. 0. 0. 0. 2. 12. 48. 54. 48. 73. 995. 3929. 1225. 13.
      1. 0. 0. 0. 0. 0. 0. 0. 0. 0. 0. 0. 0. 0. 0. 1.54543057e-01
      7.19035268e-01 8.39808583e-01 1.58141029e+00 1426. 51. 49. 25. 17.
      27. 5. 0. 0. 0. 0. 0. 0. 0. 0. 0. 0. 0. 0. 0. 0. 0. 0. 0. 0. 0. 0.
      0. 0. 0. 0. 0. 4.23288298e+00 5.63199520e-01 0. 0. 0. 0. 0. 0. 0.
      0. 1. 9. 12. 18. 19. 247. 971. 322. 1. 0. 0. 0. 0. 0. 0. 0. 0. 0.
      0. 0. 0. 0. 0. 0.</_>
    <_>
      2.60479778e-01 8.57473731e-01 8.60059917e-01 1.67863929e+00 5548.
      285. 186. 161. 112. 64. 27. 16. 1. 0. 0. 0. 0. 0. 0. 0. 0. 0. 0.
      0. 0. 0. 0. 0. 0. 0. 0. 0. 0. 0. 0. 0. 4.09928322e+00
      6.27430677e-01 0. 0. 0. 0. 0. 0. 0. 2. 11. 28. 62. 81. 126. 100.
      117. 976. 4706. 191. 0. 0. 0. 0. 0. 0. 0. 0. 0. 0. 0. 0. 0. 0.
      2.33671516e-01 7.04607964e-01 8.15765262e-01 3.27692318e+00 1311.
      73. 63. 61. 44. 28. 8. 10. 2. 0. 0. 0. 0. 0. 0. 0. 0. 0. 0. 0. 0.
      0. 0. 0. 0. 0. 0. 0. 0. 0. 0. 0. 4.04515696e+00 6.26520455e-01 0.
      0. 0. 0. 0. 0. 0. 0. 3. 6. 15. 16. 31. 31. 38. 229. 1192. 39. 0.
      0. 0. 0. 0. 0. 0. 0. 0. 0. 0. 0. 0. 0.</_>
    <_>
      3.58170360e-01 8.08193982e-01 9.19123888e-01 4.25791144e-01 6001.
      200. 103. 70. 25. 1. 0. 0. 0. 0. 0. 0. 0. 0. 0. 0. 0. 0. 0. 0. 0.
      0. 0. 0. 0. 0. 0. 0. 0. 0. 0. 0. 3.36792183e+00 5.14773190e-01 0.
      0. 0. 0. 0. 0. 0. 0. 0. 0. 0. 0. 11. 26. 38. 68. 904. 5317. 36. 0.
      0. 0. 0. 0. 0. 0. 0. 0. 0. 0. 0. 0. 3.42964947e-01 5.80565095e-01
      8.93679082e-01 8.30769241e-01 1458. 74. 38. 20. 9. 1. 0. 0. 0. 0.
      0. 0. 0. 0. 0. 0. 0. 0. 0. 0. 0. 0. 0. 0. 0. 0. 0. 0. 0. 0. 0. 0.
      3.33795261e+00 5.03787816e-01 0. 0. 0. 0. 0. 0. 0. 0. 0. 0. 0. 0.
      0. 6. 13. 13. 212. 1350. 6. 0. 0. 0. 0. 0. 0. 0. 0. 0. 0. 0. 0. 0.</_>
    <_>
      2.19309032e-01 8.67651343e-01 9.08662200e-01 5.96835434e-01 5973.
      187. 91. 71. 49. 21. 7. 1. 0. 0. 0. 0. 0. 0. 0. 0. 0. 0. 0. 0. 0.
      0. 0. 0. 0. 0. 0. 0. 0. 0. 0. 0. 4.00861597e+00 6.11281872e-01 0.
      0. 0. 0. 0. 0. 0. 0. 0. 8. 26. 32. 41. 57. 879. 4085. 1270. 2. 0.
      0. 0. 0. 0. 0. 0. 0. 0. 0. 0. 0. 0. 0. 2.02044308e-01
      7.31241047e-01 8.79020035e-01 1.14358974e+00 1447. 68. 29. 28. 10.
      15. 3. 0. 0. 0. 0. 0. 0. 0. 0. 0. 0. 0. 0. 0. 0. 0. 0. 0. 0. 0. 0.
      0. 0. 0. 0. 0. 3.97235107e+00 6.05356216e-01 0. 0. 0. 0. 0. 0. 0.
      0. 0. 1. 6. 5. 14. 12. 224. 1010. 328. 0. 0. 0. 0. 0. 0. 0. 0. 0.
      0. 0. 0. 0. 0. 0.</_>
    <_>
      9.24323648e-02 8.95324409e-01 7.42312133e-01 2.42927217e+00 4735.
      606. 403. 272. 167. 108. 63. 34. 10. 2. 0. 0. 0. 0. 0. 0. 0. 0. 0.
      0. 0. 0. 0. 0. 0. 0. 0. 0. 0. 0. 0. 0. 5.06846857e+00
      5.94742954e-01 0. 0. 0. 0. 0. 0. 0. 0. 15. 84. 100. 118. 153. 186.
      272. 539. 2699. 2167. 58. 9. 0. 0. 0. 0. 0. 0. 0. 0. 0. 0. 0. 0.
      7.52919614e-02 7.95276403e-01 6.72136009e-01 4.30897427e+00 1049.
      194. 108. 83. 76. 38. 30. 18. 4. 0. 0. 0. 0. 0. 0. 0. 0. 0. 0. 0.
      0. 0. 0. 0. 0. 0. 0. 0. 0. 0. 0. 0. 5.02258158e+00 5.98773360e-01
      0. 0. 0. 0. 0. 0. 0. 0. 3. 17. 20. 31. 39. 48. 69. 151. 663. 545.
      13. 1. 0. 0. 0. 0. 0. 0. 0. 0. 0. 0. 0. 0.</_>
    <_>
      1.50146946e-01 8.83000374e-01 8.25341940e-01 1.53512657e+00 5305.
      421. 251. 174. 133. 57. 44. 10. 4. 1. 0. 0. 0. 0. 0. 0. 0. 0. 0.
      0. 0. 0. 0. 0. 0. 0. 0. 0. 0. 0. 0. 0. 4.64238691e+00
      6.04955673e-01 0. 0. 0. 0. 0. 0. 0. 0. 2. 13. 64. 124. 100. 104.
      147. 553. 3964. 1306. 23. 0. 0. 0. 0. 0. 0. 0. 0. 0. 0. 0. 0. 0.
      1.31564960e-01 7.49978065e-01 7.71122038e-01 2.91089749e+00 1227.
      125. 78. 54. 47. 33. 26. 5. 4. 1. 0. 0. 0. 0. 0. 0. 0. 0. 0. 0. 0.
      0. 0. 0. 0. 0. 0. 0. 0. 0. 0. 0. 4.55805302e+00 6.02720797e-01 0.
      0. 0. 0. 0. 0. 0. 0. 0. 2. 10. 31. 28. 34. 41. 121. 1013. 319. 1.
      0. 0. 0. 0. 0. 0. 0. 0. 0. 0. 0. 0. 0.</_>
    <_>
      1.32638007e-01 8.57364833e-01 7.96771348e-01 1.04319620e+00 5148.
      749. 299. 114. 61. 20. 6. 2. 1. 0. 0. 0. 0. 0. 0. 0. 0. 0. 0. 0.
      0. 0. 0. 0. 0. 0. 0. 0. 0. 0. 0. 0. 4.51564455e+00 6.30426168e-01
      0. 0. 0. 0. 0. 0. 0. 0. 0. 0. 0. 9. 39. 61. 159. 335. 1201. 4020.
      566. 6. 3. 1. 0. 0. 0. 0. 0. 0. 0. 0. 0. 0. 1.09450608e-01
      7.28031039e-01 7.25941360e-01 1.81025648e+00 1139. 273. 102. 45.
      27. 10. 3. 1. 0. 0. 0. 0. 0. 0. 0. 0. 0. 0. 0. 0. 0. 0. 0. 0. 0.
      0. 0. 0. 0. 0. 0. 0. 4.46171999e+00 6.27188087e-01 0. 0. 0. 0. 0.
      0. 0. 0. 0. 0. 0. 0. 7. 14. 36. 90. 307. 1005. 139. 2. 0. 0. 0. 0.
      0. 0. 0. 0. 0. 0. 0. 0.</_>
    <_>
      2.05286786e-01 8.52326274e-01 8.93819571e-01 8.74841750e-01 5861.
      198. 132. 77. 76. 33. 15. 7. 1. 0. 0. 0. 0. 0. 0. 0. 0. 0. 0. 0.
      0. 0. 0. 0. 0. 0. 0. 0. 0. 0. 0. 0. 4.17532349e+00 5.96511543e-01
      0. 0. 0. 0. 0. 0. 0. 0. 9. 28. 47. 54. 73. 163. 3547. 2424. 54. 1.
      0. 0. 0. 0. 0. 0. 0. 0. 0. 0. 0. 0. 0. 0. 1.82742834e-01
      7.04234779e-01 8.58632743e-01 1.60897446e+00 1426. 53. 39. 26. 22.
      23. 7. 4. 0. 0. 0. 0. 0. 0. 0. 0. 0. 0. 0. 0. 0. 0. 0. 0. 0. 0. 0.
      0. 0. 0. 0. 0. 4.11693478e+00 5.90762675e-01 0. 0. 0. 0. 0. 0. 0.
      0. 0. 3. 19. 10. 21. 37. 881. 619. 10. 0. 0. 0. 0. 0. 0. 0. 0. 0.
      0. 0. 0. 0. 0. 0.</_>
    <_>
      2.41514593e-01 8.81863058e-01 8.56702685e-01 1.55458868e+00 5509.
      331. 212. 158. 91. 52. 25. 21. 1. 0. 0. 0. 0. 0. 0. 0. 0. 0. 0. 0.
      0. 0. 0. 0. 0. 0. 0. 0. 0. 0. 0. 0. 4.13983107e+00 6.25722647e-01
      0. 0. 0. 0. 0. 0. 0. 4. 9. 27. 63. 99. 127. 109. 129. 442. 4911.
      475. 5. 0. 0. 0. 0. 0. 0. 0. 0. 0. 0. 0. 0. 0. 2.18266144e-01
      7.70768821e-01 8.15504074e-01 2.78974366e+00 1315. 71. 59. 57. 46.
      34. 13. 5. 0. 0. 0. 0. 0. 0. 0. 0. 0. 0. 0. 0. 0. 0. 0. 0. 0. 0.
      0. 0. 0. 0. 0. 0. 4.11385441e+00 6.20220125e-01 0. 0. 0. 0. 0. 0.
      0. 0. 0. 4. 13. 26. 37. 32. 33. 112. 1218. 125. 0. 0. 0. 0. 0. 0.
      0. 0. 0. 0. 0. 0. 0. 0.</_></uncompressed_support_vectors>
  <decision_functions>
    <_>
      <sv_count>1</sv_count>
      <rho>1.5262344034211463e+01</rho>
      <alpha>
        1.</alpha>
      <index>
        0</index></_></decision_functions></opencv_ml_svm>
</opencv_storage>
