%YAML:1.0
---
opencv_ml_svm:
   format: 3
   svmType: C_SVC
   kernel:
      type: LINEAR
   C: 1.
   term_criteria: { iterations:1000 }
   var_count: 2124
   class_count: 2
   class_labels: !!opencv-matrix
      rows: 2
      cols: 1
      dt: i
      data: [ -1, 1 ]
   sv_total: 1
   support_vectors:
      - [ 1.61639036e-06, -3.88324725e-06, 4.61007261e-07,
          1.73292037e-07, 6.99159159e-07, -4.21823017e-07,
          -3.14248359e-06, -1.96967449e-06, -8.12450878e-07,
          -2.26830184e-06, 2.21204368e-06, 1.97090299e-06,
          5.33510331e-07, 3.75457125e-06, -3.46628531e-06,
          -3.39816938e-06, -2.04122261e-06, -2.22134759e-06,
          -7.67755353e-07, 2.59046442e-06, -2.39922178e-06,
          2.54976703e-06, -5.80363121e-07, -1.49163111e-06,
          3.90210926e-06, -1.75752939e-06, -3.88393983e-06,
          2.03401768e-07, -2.02525825e-06, 1.22139147e-06,
          -2.20191600e-06, 1.17177638e-06, 4.98247573e-06,
          1.42206056e-06, -2.72467605e-06, 3.00210218e-07,
          -4.05757618e-07, 1.66327527e-06, 3.79997317e-07,
          -1.68279519e-06, -7.17655212e-07, 6.02165869e-07,
          -4.86822000e-06, -9.05146771e-06, -5.91562532e-08,
          1.10198448e-06, -4.40960633e-07, 1.48313984e-06,
          1.27398856e-08, -1.66765255e-06, -4.09043059e-06,
          -5.16496857e-06, 9.29133932e-07, 4.16362536e-06,
          3.17444415e-06, 2.00836121e-06, -3.54445933e-06,
          -6.68388657e-06, -5.52271013e-06, -5.10612062e-06,
          2.66529946e-06, 4.68412327e-06, 2.82880933e-06, 3.36530934e-06,
          3.23855875e-06, -7.32972921e-07, -1.91227923e-06,
          -4.40471104e-06, -4.27302979e-07, 4.03720605e-06,
          3.24570806e-06, -4.48929171e-07, 2.34034223e-06,
          7.24675886e-07, 4.04218355e-07, -1.93878054e-06,
          -4.45367414e-06, 2.01479315e-06, 1.47044875e-06,
          -2.49646268e-06, 5.01375723e-07, -2.72612954e-08,
          1.77891582e-06, 2.00993463e-06, -3.88479384e-06,
          6.73070417e-07, 2.32145544e-06, 4.33339977e-07, 1.13268425e-06,
          -1.81681401e-06, -4.60591855e-06, 8.65705886e-07,
          -3.83428733e-06, 1.34536208e-06, -7.73415536e-07,
          7.59536476e-07, 1.45970944e-06, -7.71179316e-07,
          -2.88461410e-06, -2.33163723e-06, -6.64136269e-06,
          8.89417265e-07, 4.79715254e-06, 2.00670911e-06, 2.74044169e-06,
          6.90641286e-07, -1.91031677e-06, -7.98645124e-06,
          -3.81080758e-06, 3.20360925e-07, 2.18017931e-06,
          2.48482820e-06, 2.65236326e-06, -2.50044809e-06,
          -1.11533905e-06, -1.75607408e-06, -1.74390732e-06,
          5.71306060e-08, 1.60516879e-06, 2.20209131e-06, 1.37386314e-06,
          -3.34268066e-06, -3.13689998e-06, -4.07550897e-06,
          -4.31128512e-07, 1.92778975e-06, 3.08079780e-06,
          3.16932507e-08, 4.56431781e-06, 1.23750749e-06, 4.19588105e-06,
          9.85731617e-07, -2.15747050e-07, 2.67638984e-06,
          2.85581882e-06, 1.44001251e-06, 1.73506044e-06, 7.14608959e-08,
          -8.41617123e-08, -2.04172147e-06, -3.29270460e-06,
          2.58121963e-06, 9.55539804e-07, -9.35724245e-07,
          3.24874009e-06, 3.93256505e-06, 5.17569970e-06, 5.43089982e-06,
          1.24980181e-06, 1.85955003e-06, 2.06430832e-06,
          -2.82184772e-07, 3.77712286e-06, 1.18578498e-06,
          2.90317439e-06, 5.91796515e-06, 1.96848259e-06, 1.39173574e-06,
          3.06815355e-06, 1.97134341e-06, 5.12747374e-06,
          -1.67309608e-07, -8.53735230e-07, -1.81237624e-07,
          -1.00897796e-06, -1.23616405e-06, 5.25378573e-06,
          2.77222603e-06, 5.14291560e-06, 3.80296956e-06, 2.09025734e-06,
          -6.55751478e-07, -1.09779171e-06, -1.19611900e-06,
          -3.90113883e-06, -8.12674273e-07, -7.06559604e-07,
          -2.91096057e-06, 4.09021050e-06, 4.00054341e-06,
          9.06638945e-07, 6.25819212e-07, -2.21813650e-07,
          1.47252797e-06, -2.77914069e-06, -2.49769232e-06,
          6.58585350e-07, 1.49319783e-06, -3.93054563e-07,
          2.00952491e-06, 2.65178232e-06, 1.34093284e-06, 4.31396802e-06,
          6.79566483e-07, 6.17297246e-06, 2.22682320e-06, 1.65186759e-06,
          3.64840503e-06, 4.94668302e-06, 4.39908899e-06, 1.12075008e-06,
          -1.51639881e-06, 1.66961695e-06, -4.32579867e-07,
          -1.01329067e-06, 4.21583138e-07, -1.93094692e-07,
          -1.09211146e-06, 2.90097046e-06, 6.28396629e-06,
          6.91228661e-06, 3.01356113e-06, -1.75265473e-06,
          2.92629977e-07, -5.36694756e-07, -1.66871644e-06,
          1.01105468e-06, 4.98590953e-06, 5.33632328e-06, 6.45993896e-06,
          5.29315366e-06, 3.49820380e-06, 3.49756328e-06, 3.06094057e-06,
          5.17987519e-06, -1.81576524e-06, -3.53563246e-06,
          -2.90978005e-06, 2.14625530e-07, 1.53475753e-06,
          5.48746630e-06, 4.93116886e-06, 6.29899296e-06, 1.48540641e-06,
          3.71318947e-07, 2.12886698e-06, 2.23991105e-06, 1.97736767e-06,
          1.89357172e-06, 3.30721014e-06, -4.46319245e-06,
          -6.69352403e-06, -2.45680440e-07, 3.16079309e-07,
          -1.73733838e-06, 9.10035965e-07, -1.01418937e-06,
          8.84307099e-07, -3.34250376e-06, -2.10443136e-06,
          2.34455243e-07, 3.86892225e-07, 1.07283165e-06,
          -1.00445402e-06, -1.35127789e-06, 6.92879269e-07,
          2.56566477e-06, -4.62100343e-06, 3.14164140e-06,
          2.54265751e-06, 3.72875775e-06, 3.54641907e-06, 8.36732306e-06,
          7.26235794e-06, 1.77062338e-06, -5.15720785e-07,
          2.90825392e-06, 1.81226744e-06, 3.10201995e-06, 1.95334474e-06,
          2.39722993e-07, -1.78965161e-06, 5.95260644e-06,
          1.10838100e-05, 7.95072174e-06, 1.14633031e-06, 2.98243845e-06,
          4.81869483e-06, 5.66257995e-06, -2.42080296e-06,
          2.49548248e-06, 3.14788349e-06, 4.15620980e-06, 2.28617546e-06,
          2.37427616e-06, 4.04314460e-06, 2.56357657e-06, 4.38314191e-06,
          4.50908010e-06, 7.01860586e-07, 1.24961355e-06,
          -4.54885196e-08, 2.90751423e-08, 5.23038182e-07,
          3.08216545e-06, 7.08134075e-06, 4.36403661e-06, 3.71839496e-06,
          7.02609805e-06, 6.93973425e-06, 4.82102769e-06,
          -4.36366918e-07, -5.00047281e-06, -5.89453884e-06,
          -3.46863317e-06, -1.25894928e-06, 1.11592863e-06,
          2.27475857e-06, 3.93050141e-06, -7.21266360e-07,
          -3.77023093e-06, -6.62781258e-06, -4.78521906e-06,
          -1.02432682e-06, 1.24077769e-06, -2.32271350e-06,
          2.24521227e-06, 6.42522934e-07, -8.91401669e-07,
          -4.49930485e-06, -6.88862656e-06, -5.30542047e-06,
          -9.12059704e-07, 1.85191868e-06, 4.96271150e-06,
          3.52833081e-06, 4.67802693e-06, 5.53586688e-06,
          -6.06364665e-07, 1.36664153e-06, -2.08245820e-06,
          1.58143095e-07, 1.94240511e-06, 3.77252661e-07, 6.87172417e-07,
          8.03376849e-07, 3.19205782e-07, 2.31087688e-06, 7.59703255e-07,
          -1.28980946e-06, 5.97299390e-07, 6.12474878e-07,
          1.62041260e-06, -3.10064661e-06, -2.59701665e-07,
          2.26742077e-06, 2.53142116e-06, -5.03161630e-07,
          7.84360964e-07, -7.18475661e-08, -9.47399940e-07,
          -3.05600861e-06, 5.14449198e-07, -1.22394147e-06,
          -1.44140995e-06, -1.64156097e-06, -1.15307284e-06,
          1.35243539e-07, 1.34778884e-06, 1.59039848e-06,
          -5.38471284e-07, -2.41951443e-06, -1.10611182e-07,
          8.68631162e-07, 1.88916874e-06, 8.46823639e-07, 4.36784688e-07,
          1.93491906e-06, -2.13656062e-06, -4.21182312e-06,
          -5.69749955e-06, -6.82883456e-06, -2.14723491e-06,
          6.69509973e-07, 3.93679727e-07, 2.09755240e-06,
          -4.82314044e-06, -1.63860079e-06, -2.06149889e-06,
          -7.03790829e-06, -2.07323637e-06, 1.73103115e-06,
          1.81003338e-06, -1.59027070e-06, -2.87682587e-06,
          -2.27053965e-06, -2.34490926e-06, -1.88488650e-06,
          1.38113785e-06, -1.32057869e-06, 2.49834670e-06,
          1.64975575e-06, 2.27097007e-06, 2.68993449e-06,
          -8.46234400e-07, -1.68252302e-06, 2.78527239e-07,
          -4.20478045e-06, -3.75694049e-06, 9.63087246e-07,
          1.63102584e-06, 1.83066595e-06, 5.63271101e-07,
          -3.93610947e-07, 2.46222885e-06, 2.53109783e-06,
          -1.49246006e-07, -3.12072666e-06, 5.64303775e-07,
          3.92939086e-07, 9.60900252e-07, -1.56096519e-06,
          -1.32025555e-08, 1.53833048e-06, -6.88044736e-07,
          -2.37748714e-06, -6.15897704e-07, -1.13206534e-06,
          -7.57510122e-07, -4.58227896e-06, -6.85291752e-06,
          -3.18944649e-06, 5.63815888e-07, 2.93924859e-06,
          -1.01474120e-06, -1.60613342e-06, -9.79637889e-07,
          1.25910546e-07, -2.39817246e-06, -7.52586402e-07,
          1.01312685e-06, -4.55670374e-07, 1.06628264e-07,
          -9.62073386e-07, -8.57183477e-06, -7.28115083e-06,
          -2.42336318e-06, -2.76245999e-07, 2.94051620e-06,
          6.47246964e-07, -1.50871301e-06, -3.38165904e-07,
          -4.70579198e-06, -9.15343117e-06, -5.50487857e-06,
          1.29249554e-06, 1.16245360e-06, -8.27433766e-09,
          1.09570647e-06, -1.00341924e-06, -3.94121753e-06,
          -2.90594562e-06, -8.94981781e-07, -2.22317612e-06,
          1.30371268e-06, 4.33029470e-07, 3.01553655e-06, 7.71184148e-07,
          -5.56142822e-06, -3.60696072e-06, -1.08736469e-06,
          -6.21875370e-06, -2.33269111e-06, 1.84154499e-06,
          2.23839675e-06, 1.66986263e-06, 4.10534227e-07,
          -2.61044875e-07, 1.67067458e-06, 2.93176004e-06,
          -9.86618147e-07, -1.11467068e-06, 1.32963191e-06,
          3.44263890e-06, 2.85695887e-06, -4.05466778e-07,
          -3.30542520e-07, 1.30344313e-06, -7.08870516e-07,
          1.24206963e-06, 4.28155715e-07, 9.30405804e-07, 2.69456314e-06,
          -1.05514164e-06, -6.13551310e-06, -1.41598434e-07,
          -4.37175515e-07, 3.42692078e-06, -7.93846269e-08,
          5.83837789e-07, 9.02378702e-07, 6.98571682e-07,
          -2.38482517e-06, -2.95978407e-06, -3.93707296e-06,
          -5.31178375e-06, 8.68152085e-07, 3.37746883e-06,
          -4.75590923e-06, -3.92698621e-06, 1.85915340e-07,
          -8.30073873e-07, -9.29007797e-07, -1.90185415e-06,
          6.78329400e-07, 1.54254849e-06, 8.27504820e-08,
          -3.93347636e-06, -4.52645600e-06, -1.42632712e-06,
          -1.47520609e-07, 1.45785236e-06, 8.98496182e-07,
          -1.23105872e-06, -2.94047459e-06, -2.44208036e-06,
          -4.26783072e-06, -4.88724891e-06, -8.70011320e-07,
          -5.71461499e-07, 3.68180235e-06, 1.76284152e-06,
          -2.30279124e-06, -3.90293417e-06, -4.41399197e-06,
          -6.95092876e-06, -2.15663863e-06, 2.70285568e-06,
          7.78098155e-08, 1.49804453e-06, 3.26121175e-08,
          -2.75981324e-06, -1.53869291e-06, 1.61693856e-06,
          -2.64692585e-06, 1.73569435e-06, -5.09310439e-07,
          7.15494934e-07, 1.63634218e-06, -1.54082841e-06,
          -8.58602618e-07, 1.93419692e-06, 3.75965840e-07,
          4.18676052e-07, -1.85502745e-06, 4.40483348e-07,
          2.02413275e-06, -8.00885118e-07, -3.88532044e-06,
          -1.69529255e-06, 6.82419738e-07, 1.13986255e-06,
          -1.05672041e-06, -3.57248922e-07, -5.42415357e-08,
          -2.19494405e-06, -4.64733239e-06, -3.65279925e-06,
          -1.20313894e-06, -2.08450797e-06, -1.05001362e-07,
          7.66548965e-07, -6.96398388e-07, -1.49609150e-06,
          -3.78960385e-06, -3.53792444e-07, 1.48409845e-06,
          -2.91941024e-06, 5.63056346e-07, 1.32267417e-06,
          9.71247758e-08, -7.08238815e-07, -4.23266147e-06,
          2.11224020e-07, 7.82088989e-07, 7.89277010e-07, 6.78905792e-07,
          2.66781444e-06, -9.42640384e-07, -5.76001503e-06,
          2.29266379e-06, 1.92699440e-06, 1.76817628e-06,
          -2.41125463e-06, 2.89402033e-06, 1.94813015e-06,
          -4.61240825e-06, -9.20647926e-06, 2.91354991e-06,
          3.58824934e-07, 2.67683708e-06, 1.37240647e-06, 3.51316521e-06,
          1.82867655e-06, -1.46124751e-06, -4.29146530e-06,
          -8.94246057e-07, 1.13316685e-06, 1.02970876e-06,
          1.84771352e-06, 2.01067223e-06, 4.61892887e-06, 4.46325794e-06,
          -4.25819917e-06, -6.65923062e-06, -1.22327208e-06,
          3.76859788e-07, 2.82588439e-06, 1.35580319e-06, 4.61591026e-06,
          6.40306371e-06, -1.99448891e-06, -8.16264946e-06,
          -3.94252947e-06, 1.55557132e-07, 2.44318994e-06,
          -1.53537724e-06, 1.11641293e-06, 3.44493060e-06,
          -2.27129499e-06, -5.15776037e-06, -5.80334108e-06,
          1.07635105e-06, -1.65461358e-06, -1.99645706e-06,
          3.08283643e-06, 2.38535085e-06, -1.92670768e-06,
          -3.70690236e-06, -1.36981589e-06, -7.97449573e-08,
          -4.48637820e-06, 1.60113791e-06, 3.23462359e-06,
          1.49594109e-06, -3.92601123e-06, -3.68457904e-06,
          -6.25121743e-07, 3.22850451e-06, 3.15447073e-06,
          1.26860172e-07, 1.17137392e-06, -6.55221299e-07,
          -3.01792056e-06, -5.00254664e-08, -2.27017222e-06,
          -2.14084457e-06, -1.00872917e-07, 2.55749427e-07,
          2.28793465e-06, -2.86985255e-06, -6.68289158e-06,
          4.04040037e-07, -1.07512244e-06, 9.23383027e-07,
          3.36123412e-06, 1.11416841e-06, 3.93013397e-06,
          -1.13830515e-06, -9.57839075e-06, -6.80628909e-06,
          -3.25994097e-06, 1.65550136e-06, 3.77486003e-06,
          4.35463562e-07, 2.89417198e-06, 3.44803759e-08,
          -3.85020849e-06, -3.01161754e-06, 1.13849956e-06,
          2.92091750e-06, 1.00376394e-06, -2.52815698e-06,
          -6.05714433e-07, 1.64030837e-06, -1.30596925e-06,
          -1.63713048e-06, 3.24308971e-08, 4.88078058e-07,
          7.74039819e-08, -4.94991718e-06, -4.12217327e-09,
          -1.77893560e-06, -3.78820005e-06, -4.34205731e-06,
          -9.18635180e-07, 2.16862276e-07, -6.58806528e-07,
          -5.25202495e-06, 1.03361572e-06, -2.43469515e-07,
          -9.65711365e-07, -4.82378209e-06, 2.09742979e-07,
          -1.95429308e-07, -4.92422942e-06, -6.37795551e-07,
          1.03373793e-06, -1.45951071e-06, -6.43096257e-07,
          -2.80442850e-06, -2.67549035e-06, -2.35122556e-07,
          -2.26543716e-06, -2.27473834e-06, 2.52500058e-06,
          2.09896052e-06, 4.05581204e-06, 2.85708154e-07, 4.25432859e-07,
          2.93079665e-06, -4.73379842e-08, -3.73552098e-06,
          5.83780093e-07, -1.37393229e-07, -2.27327860e-06,
          7.04570553e-08, -2.03126334e-07, 3.29303430e-06,
          4.15699196e-06, 3.56804691e-07, -2.97865000e-07,
          -1.05338108e-06, -4.06436357e-06, -1.63975380e-06,
          -2.15095679e-06, 4.48391029e-06, 4.75037905e-06,
          -1.52753523e-06, 3.17845593e-06, 1.78685593e-06,
          -2.06280617e-07, 2.63910829e-06, 3.76740036e-06,
          5.22945311e-06, 3.54793059e-07, -2.16949547e-06,
          -9.82265419e-07, 3.00800889e-06, 2.97069619e-06,
          5.69732219e-06, 2.32995205e-07, -7.92629919e-07,
          -5.22690584e-07, -1.26790371e-06, 1.30263786e-07,
          2.22239623e-06, 1.39264569e-06, 2.66925463e-06,
          -4.17032595e-07, 1.26933912e-06, 2.72688726e-06,
          3.22717028e-07, 1.76767787e-06, 3.02814783e-06, 2.50600874e-06,
          7.80958999e-07, 2.34736785e-06, 1.04285220e-06,
          -5.81025574e-07, 4.65641187e-06, 4.67344171e-06,
          1.32680873e-06, 1.66952407e-06, 1.97426789e-06,
          -1.03195202e-06, 1.63394731e-07, 2.97898282e-06,
          -4.17823412e-06, 1.27196097e-06, 4.03255854e-06,
          2.20429206e-06, 1.42305248e-06, 3.08450535e-06,
          -1.65418285e-07, -1.91528579e-06, -6.27044983e-06,
          5.65402729e-07, -4.11026861e-07, -1.78299160e-06,
          1.27127930e-06, 2.60367528e-06, 2.83594659e-06, 2.10259668e-06,
          -1.13977967e-06, -4.47140837e-06, -5.25009136e-06,
          -3.13541159e-06, 9.39256608e-07, 9.86643954e-07,
          5.28030296e-06, 3.61729576e-06, -2.26961106e-06,
          -3.64915149e-06, -1.73807121e-06, -4.52607907e-08,
          3.48165145e-06, 3.32617037e-06, 4.15759132e-06, 1.43242414e-06,
          -1.11118447e-06, -4.07275729e-06, 1.74525974e-06,
          4.98823601e-06, 7.71179384e-06, 3.49706056e-06, 2.53193548e-06,
          2.18011201e-06, 1.30119474e-06, 1.70515591e-06,
          -2.02908268e-06, -1.89525537e-07, 1.95970802e-06,
          1.27447993e-06, 3.32126251e-06, 2.63329798e-06, 1.58859712e-06,
          3.62969126e-06, 4.68733288e-06, 2.66628967e-06, 1.29874445e-06,
          2.59004582e-06, 5.89444120e-08, -5.59776026e-07,
          4.08763299e-06, 7.73795909e-06, 6.52934523e-06, 4.20350034e-06,
          3.89452111e-07, -1.09212510e-06, -2.06230055e-07,
          4.85154544e-07, -3.44414866e-06, 4.57062652e-06,
          1.22784941e-05, 7.76749221e-06, 4.73774571e-06, 2.04694015e-06,
          -3.03561706e-06, -2.46158993e-06, -3.35247228e-06,
          -3.28666800e-07, 1.22846677e-06, 2.65189828e-06,
          4.45607930e-06, 2.67559199e-06, 2.39717838e-06, 7.39476855e-06,
          -1.04197557e-06, -3.42628186e-06, 1.64873688e-06,
          6.79690220e-06, 7.61093133e-06, 4.33460809e-06, 4.12897725e-06,
          3.19615924e-06, -5.41086047e-06, -3.57945441e-06,
          -1.10141423e-06, 4.60361935e-06, 5.64556512e-06,
          6.66526148e-06, 1.70912256e-06, 1.45778202e-07, 1.62853655e-06,
          -9.61331921e-07, 8.30454610e-07, 5.84631107e-06,
          9.43181021e-06, 5.79964808e-06, -9.94768357e-07,
          7.33300908e-07, -2.95759355e-06, 1.28422971e-06,
          4.04509410e-06, 4.08568394e-06, 7.60789726e-06, 4.70394343e-06,
          7.92573974e-06, 1.05203562e-05, -3.45220906e-06,
          2.76699325e-06, 9.01969906e-06, 7.64538981e-06, 7.91886214e-06,
          4.36531172e-06, 2.52114296e-06, 1.94785889e-06, 9.71851478e-06,
          1.35644914e-05, 1.26412433e-05, 1.13184542e-05, 7.50033450e-06,
          1.05172819e-06, -4.76407786e-06, -3.47718310e-06,
          -3.72002933e-06, -1.84301587e-08, 3.28003716e-06,
          3.77108790e-06, 1.30509693e-06, -2.50486028e-06,
          -5.62388504e-06, -3.20316394e-06, -2.28619206e-06,
          1.99671945e-06, 4.25891722e-06, 1.44561955e-06,
          -1.79854798e-08, -6.71794396e-07, -1.31228114e-06,
          -2.19294930e-06, -4.08587766e-06, -4.83587837e-06,
          -1.54225722e-06, 5.76542732e-07, -4.60365385e-07,
          1.45544209e-06, 3.38491168e-06, -1.87342687e-06,
          -1.89382592e-06, -3.82395319e-06, -4.22559651e-06,
          -4.29573447e-06, -8.69054986e-07, -1.44917499e-06,
          -1.79279107e-06, -3.83098495e-06, 3.84428722e-06,
          -4.67685095e-06, -6.38008578e-06, -1.58682053e-06,
          2.38101507e-06, 1.36358017e-06, 4.99863631e-07,
          -3.83561428e-06, 2.20580796e-06, -3.34720335e-06,
          -8.45959462e-08, -1.13032468e-06, 1.34870709e-06,
          2.57880970e-06, 2.99816634e-06, 1.78964069e-06,
          -3.84500345e-06, -1.33769402e-06, -3.54946422e-07,
          -2.25528925e-06, -9.43850807e-07, 5.80738742e-06,
          9.34956404e-07, 1.15357636e-06, -1.93276560e-06,
          1.29680177e-06, 6.20659011e-06, 6.68526172e-06, 4.64127106e-06,
          3.34088486e-06, -1.67304972e-06, -1.41598377e-06,
          -4.06835142e-07, -8.12048526e-08, 1.21931475e-06,
          4.69182896e-06, 3.55712018e-06, -3.12693714e-06,
          -5.45156945e-06, -4.43806039e-06, -2.29038847e-06,
          -1.49750781e-06, 4.01519713e-07, 1.60044306e-06,
          -7.94506605e-07, 1.85541103e-06, 2.11612632e-06,
          -8.79500305e-07, -1.80247469e-06, -5.05988510e-06,
          -4.44541911e-06, -1.39557187e-06, -2.66955817e-06,
          3.32349964e-06, 6.77572552e-06, -1.03875357e-06,
          -1.61964624e-06, -4.40333133e-06, -1.64091296e-06,
          -1.36839265e-06, -3.87491866e-07, 1.85947314e-07,
          -1.51578115e-06, -2.09318137e-06, 2.52077621e-06,
          -3.73070111e-06, -2.23423672e-06, 2.97894576e-06,
          5.92649258e-06, 2.26324732e-06, 2.23935422e-06,
          -2.53917392e-07, 2.65145286e-06, -1.21930475e-06,
          7.24596646e-07, -7.82636505e-07, 8.30401348e-07,
          1.10402448e-06, 1.39060887e-06, 1.71463773e-06,
          -1.64760297e-06, -5.03127694e-07, 6.45733508e-07,
          -2.67930363e-06, -1.47021353e-06, 1.16625210e-06,
          -2.16745502e-06, -2.13401313e-06, -4.73886575e-06,
          1.19911340e-06, 4.76660352e-06, 3.57640511e-06, 1.88545334e-06,
          2.08764803e-07, -3.63583877e-06, -6.64615300e-07,
          1.37913696e-06, -2.51957817e-06, -3.33751473e-07,
          3.27929797e-06, 7.60676949e-06, 2.22981566e-06,
          -3.46259503e-06, -2.77067352e-06, -3.97106032e-06,
          -3.87318687e-06, 7.03062085e-07, 3.11862755e-06,
          3.57820636e-06, 5.58409738e-06, 3.39061671e-06, 2.35167317e-06,
          -8.21959111e-06, -3.01981117e-06, -1.98842849e-06,
          1.89990283e-06, -7.63915239e-07, 1.85865281e-06,
          3.91587537e-06, 6.61170634e-06, 1.70438895e-07, 7.04247952e-07,
          1.79326230e-06, 1.15070486e-06, 9.76694992e-07, 1.59592003e-06,
          -1.25307770e-06, -1.78389530e-06, -4.50807960e-07,
          -1.59367602e-07, 4.13990256e-06, 4.45007527e-06,
          3.17583454e-06, 4.50698508e-06, -7.99761438e-07,
          -2.73379396e-06, -1.87352327e-06, 7.48370610e-07,
          1.79618462e-06, -1.08223946e-06, 1.76817571e-06,
          4.34777257e-06, 3.42612066e-06, 2.17685943e-06,
          -5.75049114e-07, 7.60880198e-07, 9.12769792e-07,
          -3.28964734e-06, -2.26038082e-07, 4.48559291e-07,
          -1.41495866e-06, -7.62314016e-07, -2.01650596e-06,
          -2.19492813e-06, -5.26105381e-08, 4.61093350e-06,
          4.26080760e-06, -2.47809771e-06, -6.70897771e-06,
          -1.30997716e-06, 1.73551268e-06, -1.60848390e-06,
          -3.88573199e-06, -1.60747857e-06, -2.75566947e-07,
          -1.94340328e-06, -1.44259707e-06, -1.37652034e-06,
          2.82259975e-07, -1.89515640e-06, -3.81960660e-07,
          2.44307444e-06, 5.33592356e-07, 1.35299740e-06, 1.52732639e-07,
          -1.50468361e-06, -3.23270547e-06, -3.25575729e-06,
          -4.35803167e-06, -4.44829851e-07, -1.40348129e-06,
          4.33214097e-07, 1.52381642e-06, 1.25580141e-06,
          -1.74612615e-06, -1.71620763e-06, -4.32165507e-06,
          -1.19595450e-06, 1.41819692e-06, 5.66321461e-08,
          -1.20573554e-06, 2.08780671e-06, 1.40593727e-07,
          -2.09426548e-06, -6.03926856e-06, -2.51346182e-06,
          -1.97363670e-06, 9.73162173e-07, 1.35730829e-06,
          8.90194428e-07, 3.04141122e-06, -2.00829436e-06,
          -4.46306922e-06, -5.67701318e-06, -5.32433717e-07,
          1.67006510e-06, 8.16678948e-07, 1.30622982e-06, 2.98567693e-06,
          -2.48121228e-06, -4.34339290e-06, -5.77097035e-06,
          -2.63196625e-06, -2.43747763e-06, -2.81091729e-06,
          -2.21580603e-06, -5.13580972e-07, -4.15316981e-06,
          -3.78792060e-06, -2.78582797e-06, -2.94790334e-06,
          -6.36922891e-07, -2.52602695e-06, -2.91635683e-06,
          5.30821580e-07, 8.64485742e-07, -8.29470537e-07,
          -4.89869808e-06, -3.01877691e-07, 1.24812777e-06,
          -1.82089309e-06, -1.82390784e-06, 1.23018765e-06,
          -4.50283181e-07, -1.90362414e-06, -7.10372979e-06,
          6.85545729e-07, 2.82303085e-06, -8.07316496e-07,
          -1.45046465e-06, -4.27000018e-08, 4.39663097e-07,
          -9.03949626e-07, -2.09204859e-06, -1.93003234e-06,
          2.76219021e-06, 6.58338365e-07, 1.07267010e-06, 3.70278940e-06,
          2.90133221e-06, -1.57147815e-06, -1.97825989e-06,
          -1.70498288e-06, 1.30796622e-07, -2.02578121e-07,
          2.75363664e-06, 2.46136574e-06, 3.60823924e-06, 1.57986233e-06,
          1.30322022e-07, -4.77597177e-06, -1.90426886e-06,
          1.24938776e-06, 3.99079347e-08, -3.20407821e-06,
          1.86516070e-06, -3.22555252e-06, -7.58918532e-06,
          -4.49741628e-06, -3.93269556e-06, 1.45195349e-06,
          8.83309070e-08, -1.47028538e-06, 1.77803997e-06,
          -1.94556037e-06, -4.70631494e-06, -2.85214196e-06,
          1.74068339e-06, 1.25433360e-06, -2.23600182e-06,
          -2.89112472e-06, -2.87332000e-06, -4.60656975e-06,
          -3.27902353e-06, -8.90632521e-07, 3.65635424e-06,
          2.80596282e-06, 4.75292836e-06, 2.55550140e-06, 4.08796808e-07,
          -2.58589421e-06, -4.57003125e-06, -1.57685406e-07,
          1.55677674e-06, 1.53641111e-06, -5.96106133e-07,
          2.53656049e-06, 2.00698969e-06, -2.52229211e-06,
          -7.68811969e-06, -4.83934491e-06, -1.21474011e-06,
          2.40883173e-06, 7.80054904e-07, 1.64886296e-06, 4.03676540e-06,
          -1.75959656e-06, -7.47897502e-06, -9.61976639e-06,
          -2.60790671e-06, 2.74582681e-06, 3.97444092e-06,
          1.48870606e-06, 1.23723851e-06, -3.73416174e-06,
          -2.21196592e-06, -6.64488198e-06, 2.45422439e-06,
          1.99255965e-06, 1.70102396e-06, -7.83923326e-07,
          -1.30720935e-06, -1.19412664e-06, -3.63304389e-06,
          -7.41697613e-06, 8.67995766e-07, 4.96500797e-06,
          2.06335426e-06, -1.96978408e-06, 7.53207757e-07,
          -3.69466670e-06, -1.13021615e-05, -7.78203412e-06,
          -5.33072921e-07, 2.68998451e-06, 2.06073241e-06,
          -2.47365710e-06, -1.36855726e-06, -1.73472904e-06,
          -2.74043123e-06, -6.30254908e-06, 3.42440075e-07,
          1.46033403e-06, -2.15090517e-06, 8.14124746e-07,
          -2.07242238e-06, -4.39439691e-06, -3.32282639e-06,
          -2.80181325e-06, -6.47015668e-07, 2.86057684e-06,
          -1.47042340e-06, 1.39622091e-06, 3.36836160e-06,
          5.24192819e-06, 5.85488806e-06, 9.97221264e-07, 2.44663647e-06,
          4.86571980e-06, 1.11660404e-06, -1.96625842e-06,
          4.48972969e-07, -8.77341279e-07, -4.40945360e-06,
          -3.22422079e-06, 1.50603353e-06, 3.10517134e-06,
          2.53111261e-06, 2.96227267e-06, 2.06977143e-06, 5.33315294e-08,
          3.94695093e-07, -9.22356804e-08, -6.05385992e-07,
          4.43445333e-06, 4.08781489e-06, 1.22825372e-06, 3.29822910e-06,
          3.54074677e-06, 5.05230219e-06, 3.65437359e-06, 4.57224814e-06,
          5.76384855e-06, 2.40397230e-06, 2.30303681e-06,
          -2.05015027e-07, 2.40871941e-06, 2.32683306e-06,
          4.49163235e-06, -7.39320399e-07, 3.87101909e-06,
          2.22257268e-06, 2.90355001e-06, 2.91529386e-06, 3.97934764e-06,
          6.56306781e-07, 1.32644743e-06, -1.60940203e-06,
          -1.99605324e-06, 1.59589160e-06, -1.05149388e-06,
          -1.07445828e-06, 6.10120060e-06, 6.06657159e-06,
          1.41535133e-06, 2.35642165e-06, 5.31286162e-07, 1.38016730e-06,
          8.55645169e-07, 2.26395946e-06, 1.88143724e-06, 3.90622608e-06,
          8.40993835e-07, 8.09583128e-07, 2.79505548e-06, 1.06399318e-06,
          -7.83144571e-07, 9.37671700e-07, 7.63509797e-06,
          3.77803462e-06, 2.84655516e-06, 5.68218820e-06, 4.27712757e-06,
          2.27173064e-06, -3.15951024e-06, -6.25235316e-07,
          5.13754230e-07, -2.48125616e-06, -2.06293748e-07,
          1.37951997e-06, 2.26307634e-06, 7.18092508e-07, 2.13118210e-06,
          4.99403257e-07, 8.50903774e-08, -6.34294963e-07,
          -1.50372080e-06, 1.31432586e-07, 3.28945089e-06,
          1.85924330e-06, -1.00265076e-07, 9.00868315e-07,
          2.58286104e-06, 5.46709907e-06, 3.86334250e-06, 5.39975008e-06,
          6.93817583e-06, 3.89614070e-06, 3.35133882e-06,
          -5.46120964e-06, -1.84015380e-06, 1.41306293e-06,
          6.89626359e-06, 3.44795058e-06, 7.71579107e-06, 6.69693372e-06,
          6.02328009e-06, 2.23734992e-06, -1.44248691e-06,
          1.78929736e-06, 3.83828637e-06, 2.81108532e-06, 4.88878231e-06,
          5.80517508e-06, -3.22666074e-06, -2.55549344e-06,
          3.97878557e-06, 1.50719927e-06, -6.42638383e-07,
          3.04530613e-06, -6.97443966e-07, -1.34792856e-06,
          2.52342090e-07, 4.91105902e-06, 6.05266177e-06, 3.32930085e-06,
          1.01986359e-06, -2.18894638e-06, -1.32416858e-06,
          -3.15184047e-06, -9.41695077e-07, -8.75200996e-08,
          6.69416704e-06, 7.82890675e-06, 6.43268049e-06, 3.36436347e-06,
          1.18945206e-06, 1.01333683e-06, -2.01126113e-06,
          -7.56801626e-07, 2.29417105e-06, 4.27141686e-06,
          4.55078862e-06, 2.64849518e-06, 9.10950348e-07, 3.48756771e-06,
          1.93584043e-07, 9.34675199e-07, 6.25512348e-06, 3.78280674e-06,
          4.76500873e-06, 4.18900072e-06, 4.42733517e-06, 1.59771628e-06,
          -2.84107432e-06, -2.86213151e-07, 3.56092573e-06,
          5.15981901e-06, 5.73730813e-06, 8.01150873e-06, 3.38659470e-06,
          3.32445461e-06, 1.63260609e-06, 5.27710768e-07, 2.72852617e-06,
          3.27263592e-06, 7.20353455e-06, 3.42234421e-06,
          -1.51767790e-06, 8.38965491e-07, -9.34444131e-07,
          1.70399130e-06, 6.92892945e-06, 5.48952903e-06, 7.89095793e-06,
          3.33083676e-06, 2.25267470e-07, 5.36991024e-07,
          -4.06176105e-06, 8.03094977e-08, 5.28866121e-06,
          3.83200950e-06, 6.38134725e-06, 2.24438941e-06,
          -5.52804124e-07, -1.30483852e-06, 2.87314379e-06,
          6.62336379e-06, 7.39999177e-06, 4.52120730e-06, 6.87300872e-06,
          9.47088836e-07, -3.31508159e-06, -2.38202210e-06,
          -8.01875376e-06, -4.93566949e-06, -1.11512556e-07,
          3.20052368e-06, 4.35022002e-06, 7.75716785e-07,
          -1.21638845e-06, 1.96862266e-06, -3.08630410e-06,
          2.29159218e-06, 1.49917838e-07, 2.96067213e-07, 1.71960596e-06,
          -4.31774282e-07, -8.10283325e-08, -1.49000903e-06,
          -3.63501522e-06, -3.20442086e-06, -1.25715985e-06,
          -1.55247665e-06, -3.27502363e-07, 1.41816724e-06,
          3.26351415e-06, -1.13473470e-06, -2.48667948e-06,
          -8.63855348e-07, -2.42724491e-06, -2.58017417e-06,
          -8.95813571e-07, 9.59134240e-07, -5.48192872e-07,
          -6.10529560e-06, 3.64330072e-06, -5.03158071e-06,
          -6.67892755e-06, -4.05567380e-06, -2.41929339e-08,
          1.45173829e-06, 1.46685306e-06, -2.22338213e-06,
          1.49954622e-06, -4.54326437e-06, -3.31657844e-07,
          -3.11085131e-07, 2.47212893e-06, 1.27530654e-06,
          2.15563250e-06, 3.06296124e-06, -4.04199182e-06,
          -5.40771180e-06, -5.37217693e-06, -8.45910381e-06,
          -4.49636718e-06, 4.03215790e-06, 8.79110814e-07,
          2.91287370e-06, -6.52229437e-06, -8.46870307e-07,
          3.88414583e-06, -1.40180430e-06, 1.15401065e-06,
          4.18328500e-06, 2.35318510e-07, -2.40950089e-06,
          -3.69363215e-06, -3.27128396e-06, -1.30478725e-06,
          2.37658151e-06, 4.86433419e-06, -5.77205753e-07,
          -2.70271153e-06, -2.92343839e-06, 5.27175708e-08,
          -5.97043993e-07, -7.34118316e-07, -6.02719410e-07,
          -5.68625467e-07, -3.50205624e-07, 3.90000622e-07,
          -5.95006000e-08, -4.40615622e-07, -3.45017429e-06,
          -3.91624826e-06, -2.08506117e-06, -4.25219582e-07,
          5.90153786e-06, 4.42279634e-06, -4.40112132e-07,
          -1.06126720e-06, -4.12842655e-06, -8.44523640e-07,
          -2.35769448e-06, 2.27756999e-07, 1.72803459e-06,
          -2.22930635e-06, -4.02376145e-06, 2.07907829e-06,
          -4.86195540e-06, -2.18041646e-06, -3.60667536e-06,
          -1.07755000e-06, -9.14862994e-07, 2.70762462e-06,
          2.53432063e-06, 1.88791796e-06, -2.81116149e-06,
          -1.81622880e-07, -1.11679481e-06, -1.73763488e-06,
          2.38414671e-07, 1.39402550e-06, 1.11784709e-06,
          -1.52088694e-06, -1.38764892e-06, -7.08708239e-06,
          -6.43936528e-06, -3.98236989e-06, 6.36193988e-07,
          4.05992978e-07, -1.50580695e-06, -5.86205715e-06,
          3.58070935e-07, 4.42816145e-07, -4.06290019e-06,
          -3.57036151e-06, 1.48468166e-06, -2.58734690e-06,
          -1.26866041e-06, 2.17128149e-06, -3.03603360e-06,
          -4.25448980e-06, 6.04007084e-07, 5.98295037e-06,
          7.95372273e-07, -2.14849888e-06, -2.13704834e-06,
          -9.06494279e-07, -2.84212888e-06, -4.70210989e-06,
          -4.66744012e-07, 2.44392231e-06, -5.10079246e-07,
          1.35204709e-06, 4.03464901e-06, -6.44303418e-06,
          -1.17520790e-06, -1.54855468e-06, 1.27588532e-06,
          9.02810143e-07, 4.36480059e-06, 2.85615920e-06, 5.31297110e-06,
          9.70796805e-07, 4.53454641e-06, 4.22115772e-06, 6.19436435e-07,
          5.98175404e-07, 2.80044446e-06, -2.09049381e-06,
          -7.32537899e-07, -7.24898769e-07, 5.32158538e-07,
          6.11234282e-06, 1.80643281e-06, -1.96127326e-06,
          4.14133547e-06, -1.02425940e-06, 1.42201586e-07,
          -2.07464063e-06, 1.12730572e-06, 2.65832159e-06,
          -3.25625393e-07, -5.67903157e-07, 9.33765648e-07,
          3.03517737e-07, -2.42187593e-06, 4.17992752e-08,
          3.66093991e-06, -3.22651476e-06, -3.16609362e-06,
          -2.91153270e-07, -4.61331666e-07, -2.57246711e-06,
          -2.91811853e-06, -1.26878228e-06, -1.79918970e-07,
          4.37139562e-07, 6.19304146e-08, -3.26056409e-07,
          -3.49048105e-06, -6.51051596e-06, -3.09509204e-07,
          2.60407955e-06, -2.22288986e-06, -6.67483482e-06,
          -3.87210093e-06, -3.86351485e-06, -5.64906441e-06,
          -2.05213132e-06, -1.51915106e-06, 3.04936907e-06,
          1.80258510e-08, -3.24510347e-06, -1.87021760e-06,
          -3.83292490e-06, -5.50732420e-06, 1.68445311e-08,
          1.28015972e-06, -3.14886802e-06, -1.39335350e-06,
          -4.17715137e-06, -3.47362993e-06, -2.70015130e-06,
          1.91812728e-06, -1.16257218e-06, 3.00701981e-06,
          -2.21059759e-06, -9.29541557e-07, -2.58032333e-06,
          -2.45721390e-06, -3.98506028e-09, 1.91733920e-06,
          -1.01038063e-06, 2.47231196e-06, -1.56468752e-06,
          -1.52739062e-06, -3.97109397e-06, -3.23049130e-06,
          -5.58756210e-06, -7.09265350e-07, 1.83026691e-06,
          1.99326678e-06, 1.96397900e-06, -2.32064235e-06,
          -4.43774934e-06, -7.68279642e-06, -5.05457047e-06,
          -1.97125974e-06, 9.54832103e-07, -2.85514243e-08,
          2.79265441e-06, -1.72967475e-06, -4.90308776e-06,
          -7.13239115e-06, -6.71949556e-06, -2.77357617e-06,
          -6.32436297e-07, -3.96597306e-06, -2.21393641e-08,
          -2.64581104e-06, -3.68480482e-06, -3.23567792e-06,
          -5.70398925e-06, 1.19531634e-07, -1.55549469e-06,
          -2.17035063e-06, -4.83798658e-07, -2.27428728e-07,
          4.01785792e-06, 2.17186971e-06, 4.86884846e-06, 2.33816536e-06,
          2.01976718e-06, 2.44631735e-07, -2.54298516e-06,
          7.55285214e-07, 7.25770008e-07, -1.82952490e-07,
          9.26900157e-07, -2.96828659e-08, 1.34846232e-06,
          3.26147597e-06, -1.38345013e-06, 1.69523992e-06,
          1.27243550e-06, 5.96613006e-07, -1.30827732e-06,
          1.37639756e-06, 5.54877806e-06, 2.99696239e-06, 1.72033978e-07,
          3.82967801e-06, 2.36323285e-06, 1.05917047e-06, 1.07514484e-06,
          2.21404071e-06, 2.16056242e-06, 1.27257977e-06, 3.74123647e-06,
          3.25649125e-06, 1.05988420e-06, 1.99331652e-07,
          -1.86564273e-06, -1.72143530e-07, 2.95858058e-06,
          3.79824314e-06, 4.23285974e-06, 4.79993560e-06, 1.40988914e-06,
          -2.94195729e-06, -2.11697852e-06, -1.38610108e-06,
          2.64855066e-06, 3.75526747e-06, -2.19940284e-06,
          -1.34140521e-06, -1.78915855e-06, -4.29480087e-06,
          -4.08485494e-06, -1.15072783e-06, -1.38411636e-07,
          -1.80280176e-06, -2.88578167e-06, -1.83552672e-07,
          2.24322875e-07, -2.53831763e-06, -2.77379718e-06,
          -2.31598506e-06, -1.09460643e-06, -4.38581083e-07,
          -2.51738857e-06, -4.20266633e-06, 2.61802802e-06,
          -7.88739314e-08, 1.77130130e-06, -9.86153395e-07,
          -7.32493788e-07, -2.06905247e-06, -1.11782265e-06,
          -1.59273455e-07, -1.11167378e-06, -2.85705710e-06,
          2.18373174e-07, 2.67305921e-07, 9.91617185e-07,
          -2.13080114e-07, -1.26620807e-06, 1.31316892e-06,
          5.47154741e-07, -6.42514465e-07, -8.78376795e-07,
          2.40319400e-06, 6.04140951e-06, 2.12776172e-06,
          -4.13756425e-08, -7.70212409e-08, 4.00624600e-07,
          -3.43873978e-07, -1.06254527e-06, 1.77844584e-06,
          1.78978814e-06, 2.26869565e-06, 4.99165708e-06, 1.58461262e-08,
          -2.35906896e-06, -2.54332008e-06, -3.09275333e-06,
          -1.33936646e-06, 2.55793179e-06, 2.77845561e-06,
          2.54092652e-06, 3.69463032e-06, -7.54280975e-08,
          -4.43859653e-06, -2.09601785e-06, -2.46841023e-06,
          1.60812533e-06, 2.00587988e-06, -1.31571824e-06,
          3.31239107e-06, 1.81388305e-06, -3.12793895e-06,
          -3.15466764e-06, 2.63915098e-07, 1.17367597e-06,
          5.98376630e-07, 4.86530951e-07, 4.14804117e-06, 3.84000623e-06,
          1.20090476e-06, 3.97767650e-07, -4.36589858e-07,
          -8.65833726e-07, 2.92078170e-07, 1.31511558e-06,
          3.65405043e-07, 2.50549488e-06, 2.31554645e-06, 4.35822494e-06,
          2.84452403e-06, 2.27693840e-06, 1.53080555e-06, 3.27047672e-07,
          -5.92727019e-07, -6.55856240e-07, -2.16940452e-06,
          1.34705681e-06, 1.96705673e-06, 3.10284975e-07, 1.12952114e-06,
          1.39139888e-06, 4.45536926e-07, 5.40739080e-08,
          -6.91184709e-07, -1.51861475e-08, 4.00953968e-06,
          2.84105454e-06, -3.24203569e-07, -1.83279667e-06,
          2.33098277e-07, 1.81135226e-06, 1.95141797e-06, 3.26909321e-06,
          5.28842793e-06, 4.27409418e-07, -3.12950618e-07,
          -2.29347705e-07, -5.48181742e-06, 1.94232075e-06,
          3.10454038e-06, 3.08792573e-06, 4.07358220e-06, 3.27325574e-06,
          2.33829314e-06, 4.06419559e-07, -2.03924355e-06,
          8.89362411e-07, -3.00964587e-07, 2.23502661e-06,
          2.94222741e-06, 1.17245588e-06, 1.28444526e-06,
          -8.52663447e-07, -3.38286259e-06, -3.97331996e-06,
          -4.56380485e-06, 4.51140608e-07, 3.35923551e-06,
          -2.46793576e-07, -4.05754008e-06, -2.86007571e-06,
          -5.16928822e-07, -9.29616931e-07, -3.27289763e-06,
          -9.58118676e-07, 1.89611217e-06, -1.83915995e-06,
          -1.64226185e-06, 9.43176929e-07, -2.49373812e-07,
          -1.78762477e-07, 1.02542947e-06, 1.96540782e-06,
          -2.12112170e-07, -1.42017001e-07, -1.75297970e-07,
          1.46804280e-06, 1.35142136e-06, -1.55267003e-06,
          -3.44093587e-06, -6.01925592e-07, 7.22203652e-07,
          1.08353925e-06, 1.83780890e-06, 1.39527083e-06, 2.00904111e-07,
          -3.52175107e-07, -1.21913706e-06, -9.56730901e-07,
          4.46753529e-06, 3.92885249e-06, 4.37440946e-07, 2.45277806e-06,
          -7.86126691e-07, -1.30287060e-06, -1.60272725e-06,
          -1.74097664e-07, 4.98725058e-06, 1.66195537e-06,
          4.09211367e-07, 2.32020716e-06, -4.52349514e-06,
          -2.11196766e-06, -4.84438885e-07, 3.20317383e-07,
          3.66509221e-06, 3.39243502e-06, 2.01370494e-06,
          -1.63886182e-06, -4.14260012e-06, 7.67023039e-07,
          -1.07237031e-06, 2.30979481e-06, 2.69842076e-06,
          9.26347582e-07, 1.22306986e-07, -4.64142659e-06,
          -2.04905996e-06, 1.95468397e-06, 7.04574688e-07,
          2.21884761e-06, 5.71687224e-06, -5.68251792e-08,
          -1.66725363e-06, 1.51460904e-06, 2.03369973e-06,
          3.72577165e-06, 1.90060030e-06, 3.35140498e-06, 3.74598199e-06,
          7.67686799e-07, -2.65454734e-08, 3.99302962e-06,
          -3.88246735e-06, -1.75995556e-08, -4.01531324e-05,
          1.37720292e-03, 1.56381982e-03, 1.91572611e-03, 1.30443531e-03,
          1.56877242e-04, -5.95319259e-04, -5.68473188e-04,
          -7.20417302e-04, -6.53204799e-04, -7.94218213e-04,
          -7.26216764e-04, -4.83610056e-04, -4.65749938e-04,
          -4.23925376e-04, -2.77953193e-04, -2.62313377e-04,
          -1.20111763e-04, -1.17935037e-04, -4.07593107e-05,
          -3.89969246e-05, -1.99931947e-05, -6.58083945e-06, 0., 0.,
          -2.28291333e-06, 0., 0., 0., 0., 0., 0., 0., -4.29013671e-05,
          -5.24581492e-06, 0., 0., 0., -1.92409993e-06, -5.02037153e-07,
          7.51892658e-05, 3.64717300e-04, 7.59044779e-04, 1.75788533e-03,
          2.20618071e-03, 3.09721264e-03, 7.79436377e-04, 7.54341774e-04,
          6.00948057e-04, 7.53492350e-04, 7.52336229e-04, 7.86709250e-04,
          8.09782068e-04, 1.10068056e-03, 7.52506545e-04, 1.12856820e-03,
          6.68526860e-04, 1.13002828e-03, -3.48626380e-03,
          -2.80753314e-03, -2.96400650e-03, -2.29397276e-03,
          -1.28391816e-03, -8.88035982e-04, -1.30648981e-03,
          -1.58486352e-03, -1.66007655e-03, 3.69292002e-06,
          -7.38977860e-06, -5.26647597e-08, -9.71368354e-05,
          1.40639534e-03, 9.78158088e-04, 6.06661837e-04,
          -7.03635378e-05, 4.84228920e-04, -8.34760576e-05,
          -3.87707812e-04, -3.11817334e-04, -4.83598327e-04,
          -5.57821826e-04, -2.60701287e-04, -2.23261668e-04,
          -2.27458600e-04, -1.04214647e-04, -1.71583466e-04,
          -1.86847217e-04, -1.13807386e-04, -1.17871830e-04,
          -7.22708864e-05, -5.07039877e-05, -3.45306617e-05,
          -6.78852621e-06, -2.49060031e-06, -5.84554709e-06,
          -3.58813480e-07, -1.92409993e-06, 0., 0., 0., 0., 0., 0.,
          -4.18470336e-05, -4.85655528e-06, 0., 0., 0., 0., 0.,
          1.87760270e-05, 8.96577185e-05, 1.81608237e-04, 4.06407751e-04,
          4.81509924e-04, 6.78701675e-04, 3.86634027e-04, 2.40890167e-05,
          6.52894902e-04, 1.78979768e-04, 2.15120890e-04, 2.80609645e-04,
          1.38423333e-04, 3.75593299e-05, 1.34777583e-04, 3.32478754e-04,
          -2.03662494e-05, 2.63203896e-04, -9.45521111e-04,
          -6.50090980e-04, -7.44899153e-04, -5.23632683e-04,
          -2.38939800e-04, -4.00832359e-04, -2.36473585e-04,
          -3.90500209e-04, -3.50176299e-04 ]
   uncompressed_sv_total: 73
   uncompressed_support_vectors:
      - [ 1.63862839e-01, 9.54377055e-02, 4.34200615e-02, 2.39771493e-02,
          2.88963206e-02, 1.04124993e-01, 1.85213178e-01, 1.39735565e-01,
          3.59471858e-01, 2.04939753e-01, 6.17629476e-02, 1.91223267e-02,
          3.20120528e-02, 1.98871642e-01, 2.77317315e-01, 6.11205027e-02,
          3.79914314e-01, 3.54651719e-01, 1.68083876e-01, 8.00486133e-02,
          7.94634670e-02, 1.99769318e-01, 9.63255540e-02, 4.45109867e-02,
          1.08821899e-01, 1.02994695e-01, 1.93504393e-01, 1.05995789e-01,
          9.41597596e-02, 1.30366325e-01, 8.59868005e-02, 2.81093776e-01,
          1.16569370e-01, 9.77949649e-02, 1.97626755e-01, 5.35643734e-02,
          3.16354260e-02, 3.95252071e-02, 2.07290620e-01, 3.85557890e-01,
          2.71979749e-01, 2.70496935e-01, 2.06863463e-01, 3.28105539e-01,
          3.25534701e-01, 1.07433051e-01, 1.98812410e-01, 4.00000006e-01,
          3.95274937e-01, 3.42520356e-01, 3.99980754e-01, 4.00000006e-01,
          3.97406667e-01, 1.14737086e-01, 2.71552682e-01, 3.49488318e-01,
          3.95615041e-01, 4.00000006e-01, 3.08894575e-01, 4.00000006e-01,
          3.25711191e-01, 1.57367557e-01, 4.00000006e-01, 4.00000006e-01,
          1.29331306e-01, 1.20699346e-01, 7.53736729e-03, 3.60899344e-02,
          3.01120095e-02, 9.28896889e-02, 2.02147558e-01, 1.05749611e-02,
          2.11440861e-01, 1.33356526e-01, 3.69828083e-02, 5.28337061e-02,
          6.65272847e-02, 1.48215249e-01, 2.56205857e-01, 0.,
          2.09066480e-01, 9.89085808e-02, 6.26830012e-02, 3.28369141e-02,
          1.15901046e-01, 1.50725082e-01, 4.66414057e-02, 1.30697638e-02,
          7.92544410e-02, 1.21169418e-01, 3.30818862e-01, 1.70683518e-01,
          7.07085878e-02, 1.63187515e-02, 2.02931352e-02, 1.58651516e-01,
          2.85598878e-02, 2.83746183e-01, 2.81331807e-01, 5.78894466e-02,
          1.67503171e-02, 0., 3.19823697e-02, 1.18500337e-01, 0.,
          2.12636422e-02, 5.83182201e-02, 2.75098324e-01, 8.56626630e-02,
          0., 1.33722201e-02, 1.84564441e-02, 0., 4.76615876e-02,
          1.21067487e-01, 2.94825613e-01, 1.12080332e-02, 0., 0.,
          7.48742446e-02, 0., 1.24530874e-01, 4.50965874e-02,
          5.22142164e-02, 0., 0., 0., 7.41750151e-02, 1.52602166e-01,
          1.85843289e-01, 7.23088309e-02, 1.87973808e-02, 1.84802525e-02,
          3.65853757e-02, 4.46195006e-02, 1.13790361e-02, 3.33886057e-01,
          4.00000006e-01, 1.50529578e-01, 3.83927068e-03, 3.38600576e-02,
          1.06866114e-01, 1.29374281e-01, 8.62218905e-03, 1.46650046e-01,
          5.46628460e-02, 8.94137472e-03, 2.73709162e-03, 3.23614851e-02,
          1.23420432e-01, 3.30817625e-02, 4.11929935e-03, 2.55370513e-02,
          7.32394457e-02, 2.75937974e-01, 3.37623283e-02, 3.30424905e-02,
          4.25822511e-02, 7.33770728e-02, 3.22229117e-01, 5.10709919e-02,
          2.67138600e-01, 2.72152454e-01, 7.35787600e-02, 1.66367054e-01,
          3.37228119e-01, 2.86362588e-01, 3.78331721e-01, 4.24652547e-02,
          2.22589359e-01, 1.18392117e-01, 2.08200425e-01, 2.98187584e-01,
          1.04694918e-01, 1.27895594e-01, 1.24325432e-01, 2.57740140e-01,
          1.45077273e-01, 1.68225318e-01, 1.75230384e-01, 7.68244416e-02,
          5.68014290e-03, 3.46670151e-02, 9.73742455e-02, 2.75776148e-01,
          1.39497548e-01, 8.46416354e-02, 2.50388160e-02, 1.70286541e-04,
          4.27698456e-02, 1.08242005e-01, 1.30234405e-01, 1.13085568e-01,
          3.71912897e-01, 4.00000006e-01, 1.13483131e-01, 9.21568125e-02,
          4.18749899e-02, 6.93971338e-03, 0., 2.90237963e-01,
          4.00000006e-01, 4.00000006e-01, 1.04448199e-01, 1.17299981e-01,
          1.01949945e-01, 7.52652511e-02, 0., 1.44260041e-02,
          2.32086647e-02, 2.32007429e-02, 6.85271323e-02, 1.02349281e-01,
          3.95867601e-02, 1.93655994e-02, 0., 6.90050796e-03,
          2.80995183e-02, 7.80409798e-02, 1.39497966e-02, 1.65451374e-02,
          5.03564626e-03, 6.57989532e-02, 1.24964863e-01, 2.34235190e-02,
          2.22737685e-01, 1.85051292e-01, 4.32861969e-02, 2.12572366e-01,
          2.90365160e-01, 2.76647478e-01, 1.48808599e-01, 1.03121381e-02,
          4.51417938e-02, 8.39691423e-03, 7.34770447e-02, 2.28624642e-01,
          1.63153484e-01, 1.20895788e-01, 1.81634836e-02, 3.08682285e-02,
          1.96253601e-02, 0., 0., 0., 2.09558872e-03, 3.19744647e-02,
          2.62546055e-02, 0., 0., 0., 0., 2.96171382e-03, 1.46374607e-03,
          0., 2.32488830e-02, 1.51712626e-01, 1.99925005e-01,
          3.74850422e-01, 2.04294756e-01, 1.71148166e-01, 7.63155967e-02,
          2.51576602e-02, 1.60253365e-02, 2.75082201e-01, 3.89243633e-01,
          2.76310831e-01, 9.18902606e-02, 1.60579920e-01, 2.21054241e-01,
          1.40117317e-01, 2.08815672e-02, 1.63522176e-02, 3.60533632e-02,
          5.63194603e-03, 1.28058540e-02, 1.02870569e-01, 1.07088283e-01,
          7.81629235e-02, 1.50190443e-02, 2.92829964e-02, 4.57125828e-02,
          1.01122171e-01, 8.99370089e-02, 8.89739022e-02, 6.51414543e-02,
          1.23571649e-01, 1.71083540e-01, 9.33739021e-02, 9.19246227e-02,
          1.84894994e-01, 1.53487995e-01, 3.61812085e-01, 4.00000006e-01,
          4.00000006e-01, 4.00000006e-01, 7.77733251e-02, 2.48559102e-01,
          2.13394165e-01, 1.78175956e-01, 4.00000006e-01, 4.00000006e-01,
          4.00000006e-01, 2.91116297e-01, 1.31074846e-01, 2.48711929e-01,
          1.12001464e-01, 4.23592925e-02, 5.55633381e-02, 1.69361055e-01,
          2.94704139e-01, 2.03372926e-01, 3.67402047e-01, 2.64568388e-01,
          1.52882144e-01, 3.67441773e-02, 6.82729185e-02, 4.29422297e-02,
          8.83700177e-02, 1.26251921e-01, 1.97892301e-02, 2.70337127e-02,
          3.80399704e-01, 4.00000006e-01, 2.79162318e-01, 1.72382787e-01,
          1.34560838e-02, 0., 6.01284113e-03, 1.61268823e-02,
          2.61573821e-01, 3.47015381e-01, 2.25840360e-01, 2.81003445e-01,
          1.06648356e-01, 0., 0., 0., 1.11347269e-02, 2.91535892e-02,
          3.59698832e-02, 0., 0., 0., 0., 1.22851161e-02, 3.96332406e-02,
          4.45917174e-02, 1.86884683e-02, 0., 0., 0., 0., 1.51105151e-01,
          1.00109190e-01, 2.06852462e-02, 0., 0., 0., 0., 0.,
          1.31467313e-01, 3.55956107e-02, 0., 0., 0., 0., 0., 0., 0., 0.,
          0., 0., 0., 0., 0., 0., 0., 0., 0., 0., 0., 0., 0.,
          1.38083985e-02, 3.29838991e-02, 1.96168840e-01, 3.18395376e-01,
          4.32679877e-02, 1.17839299e-01, 4.54790182e-02, 1.90665983e-02,
          2.23016851e-02, 4.74559441e-02, 1.08598024e-01, 2.60382026e-01,
          7.38689825e-02, 2.83473730e-01, 1.28077582e-01, 4.12169099e-03,
          2.84213107e-03, 6.53816573e-03, 7.86791276e-03, 2.92349383e-02,
          6.58386052e-02, 1.91318505e-02, 3.31856199e-02, 0.,
          3.36102620e-02, 1.08278692e-02, 1.33782644e-02, 6.02464117e-02,
          1.77366771e-02, 5.59516251e-04, 5.80096692e-02, 7.39722028e-02,
          1.14780933e-01, 2.18013138e-01, 3.41940857e-02, 1.03116333e-02,
          3.73245776e-03, 0., 6.28225058e-02, 7.87517950e-02,
          1.27198379e-02, 1.41876400e-01, 2.82650068e-02, 1.01705510e-02,
          0., 0., 4.09353664e-03, 1.90423634e-02, 6.54780632e-03,
          2.31936052e-02, 1.99860837e-02, 1.59552153e-02, 0., 0., 0.,
          5.25092110e-02, 8.75974167e-03, 3.33412178e-02, 0., 0.,
          1.88472692e-03, 2.63474300e-03, 0., 5.83067313e-02,
          4.35258225e-02, 1.70081295e-02, 1.54533863e-01, 8.04796815e-02,
          1.59757644e-01, 1.35802459e-02, 4.45575826e-02, 7.42285103e-02,
          1.61433276e-02, 1.67773832e-02, 1.38214827e-01, 8.86529535e-02,
          2.11134940e-01, 3.28387097e-02, 4.00047526e-02, 1.69045087e-02,
          1.05736556e-03, 4.01439108e-02, 2.96621341e-02, 3.72317024e-02,
          9.11311284e-02, 4.00200114e-02, 8.12552050e-02, 2.31710565e-03,
          3.19067352e-02, 4.23140824e-02, 2.74384357e-02, 1.61278788e-02,
          2.84038167e-02, 3.06388810e-02, 2.64468603e-02, 8.55401903e-02,
          1.95849776e-01, 2.55381197e-01, 7.76379034e-02, 1.11892357e-01,
          5.24955429e-02, 5.53697571e-02, 6.86287582e-02, 1.08098492e-01,
          3.02442014e-02, 9.42006558e-02, 5.98841235e-02, 1.19700372e-01,
          6.92982227e-02, 6.38220236e-02, 5.43685742e-02, 8.91215131e-02,
          1.02543905e-02, 4.30395901e-02, 4.54114750e-02, 2.51473207e-02,
          1.77152269e-02, 2.34779250e-02, 8.28156471e-02, 1.41448900e-01,
          8.28970000e-02, 1.64369196e-01, 2.76236273e-02, 1.88648596e-03,
          4.18904908e-02, 1.16645033e-02, 1.26006920e-02, 2.68404223e-02,
          0., 1.44027062e-02, 7.81768858e-02, 6.67152777e-02,
          1.08546704e-01, 2.43178220e-03, 4.59990129e-02, 3.45543884e-02,
          0., 4.78926953e-03, 1.07025933e-02, 1.68251663e-01,
          2.32394502e-01, 2.10468713e-02, 2.64653228e-02, 5.06094797e-03,
          1.20744121e-03, 7.60060400e-02, 3.72577049e-02, 7.04659075e-02,
          4.87512015e-02, 7.74258655e-03, 8.29512253e-02, 0.,
          8.27477723e-02, 6.01519272e-02, 2.38963086e-02, 5.54963276e-02,
          2.95784250e-02, 2.61107576e-03, 2.33678520e-02, 0.,
          2.46887058e-01, 2.89857179e-01, 3.87017503e-02, 1.82624981e-02,
          0., 0., 0., 0., 7.73068052e-03, 2.45548002e-02, 7.28642568e-03,
          0., 0., 0., 9.27868299e-03, 2.75381878e-02, 0., 0., 0., 0., 0.,
          0., 2.86247581e-02, 9.39979702e-02, 0., 0., 0., 0., 0., 0., 0.,
          0., 7.92963132e-02, 1.48251839e-02, 1.14114627e-01,
          6.92958906e-02, 3.72091942e-02, 1.46929929e-02, 1.93699166e-01,
          1.61527351e-01, 1.95082724e-02, 4.82009873e-02, 2.86595166e-01,
          4.00000006e-01, 5.26202880e-02, 1.60319917e-02, 1.07628897e-01,
          1.18811548e-01, 2.97406642e-03, 2.99904108e-01, 3.55625838e-01,
          3.89904380e-01, 1.16194427e-01, 7.89362043e-02, 1.47138521e-01,
          5.12467995e-02, 5.64218014e-02, 1.54568076e-01, 1.19188145e-01,
          8.61249715e-02, 6.69235438e-02, 1.51802108e-01, 1.97182953e-01,
          5.39285094e-02, 1.04757458e-01, 1.02919467e-01, 1.09121539e-01,
          9.79686528e-02, 4.02199104e-02, 5.86352721e-02, 9.14367214e-02,
          1.45208418e-01, 1.22312486e-01, 1.12900138e-01, 7.37889260e-02,
          8.02005082e-02, 4.21924144e-02, 8.31510499e-02, 1.52679145e-01,
          1.92854717e-01, 1.25357747e-01, 1.26293689e-01, 8.45252350e-02,
          6.79560900e-02, 1.13979265e-01, 8.14004093e-02, 1.33461207e-01,
          2.35118240e-01, 2.32146680e-02, 2.40481973e-01, 1.34350985e-01,
          1.64924357e-02, 1.44011289e-01, 4.11093235e-02, 7.88757205e-02,
          7.44308680e-02, 5.71948662e-03, 3.93055826e-02, 9.50529426e-02,
          5.07657006e-02, 6.95433794e-03, 4.26469408e-02, 2.71880925e-01,
          7.55480602e-02, 8.10802542e-03, 4.32536006e-02, 1.87444419e-01,
          4.00000006e-01, 9.96697694e-02, 1.49579309e-02, 7.49031305e-02,
          2.90767830e-02, 5.36978338e-03, 4.00000006e-01, 4.00000006e-01,
          4.00000006e-01, 1.51199415e-01, 1.28947854e-01, 1.38541847e-01,
          5.39373085e-02, 4.14000116e-02, 4.00000006e-01, 3.39689583e-01,
          1.71582073e-01, 2.29214057e-02, 1.98901117e-01, 1.12367347e-01,
          1.20587811e-01, 4.34223302e-02, 1.48223594e-01, 8.01682696e-02,
          2.89222505e-02, 2.48830533e-03, 8.12938996e-03, 6.85336534e-04,
          3.22956871e-03, 1.44369919e-02, 0., 2.26700362e-02,
          1.32091809e-02, 0., 0., 1.36451214e-03, 3.22255376e-03, 0.,
          1.45278638e-02, 4.04396057e-02, 1.25356000e-02, 0., 0.,
          4.47642505e-02, 1.23493880e-01, 0., 9.77439135e-02,
          8.76335651e-02, 0., 0., 0., 6.23832457e-02, 6.53182939e-02,
          2.20107399e-02, 3.19282040e-02, 8.75158757e-02, 9.69670713e-02,
          7.70486295e-02, 6.30863085e-02, 2.02447489e-01, 2.45272473e-01,
          1.31473541e-02, 4.51540351e-02, 1.49805844e-01, 4.00000006e-01,
          2.22869471e-01, 3.51264141e-02, 1.64004132e-01, 2.29218975e-01,
          4.90001822e-03, 2.35741645e-01, 3.44183505e-01, 2.89987504e-01,
          1.20356031e-01, 9.50309336e-02, 1.87572077e-01, 2.94658571e-01,
          5.77488020e-02, 3.81676555e-01, 2.28312016e-01, 1.67942896e-01,
          1.41181827e-01, 2.96634495e-01, 3.67572069e-01, 3.28180939e-01,
          5.58991060e-02, 1.07509762e-01, 4.66455296e-02, 1.29647836e-01,
          8.72342139e-02, 1.28565744e-01, 5.23023456e-02, 3.15811001e-02,
          9.57638696e-02, 5.68541996e-02, 1.95188791e-01, 1.39019072e-01,
          2.50989012e-02, 1.08882710e-01, 9.63100493e-02, 1.28401682e-01,
          1.01952314e-01, 3.54310930e-01, 1.61983207e-01, 7.23986551e-02,
          1.05940543e-01, 4.01396751e-02, 4.62226905e-02, 2.02333421e-01,
          3.85758355e-02, 1.57340243e-01, 8.80060494e-02, 3.85872126e-02,
          1.50873885e-01, 5.66561669e-02, 1.36128783e-01, 8.19216445e-02,
          1.22498926e-02, 2.84923296e-02, 9.25508440e-02, 1.28707856e-01,
          3.49998176e-01, 5.41592315e-02, 1.82840332e-01, 1.55805185e-01,
          1.18657127e-02, 3.64915170e-02, 9.17427689e-02, 1.22461215e-01,
          8.29689577e-02, 1.26126911e-02, 1.17902659e-01, 2.22989738e-01,
          8.69948138e-03, 1.25052214e-01, 2.93152243e-01, 2.63959736e-01,
          5.69141507e-02, 6.52741194e-02, 2.02657700e-01, 2.60616064e-01,
          6.16003908e-02, 3.47971618e-01, 2.10980698e-01, 1.59303144e-01,
          1.54172890e-02, 2.23855257e-01, 2.61714220e-01, 1.69426680e-01,
          6.63711876e-02, 1.68405384e-01, 7.54682794e-02, 1.20793417e-01,
          2.75201853e-02, 4.20144163e-02, 2.28445497e-04, 0.,
          1.03121381e-02, 2.18662936e-02, 5.45938918e-03, 0., 0., 0.,
          9.55158565e-03, 2.25578789e-02, 0., 0., 0., 0., 0., 0.,
          1.37033425e-02, 3.20889615e-02, 0., 2.82117985e-02,
          2.15584170e-02, 0., 0., 2.63474300e-03, 4.40928712e-02, 0.,
          6.96325153e-02, 2.60502212e-02, 8.63037482e-02, 2.72305936e-01,
          4.00000006e-01, 3.92988265e-01, 3.30652446e-01, 2.33385429e-01,
          4.45601009e-02, 6.56966567e-02, 5.77014163e-02, 1.19150683e-01,
          2.51367986e-01, 9.87454727e-02, 2.70408124e-01, 3.52388024e-01,
          1.24279428e-02, 1.21030174e-01, 2.32729837e-01, 6.66817054e-02,
          1.31674677e-01, 2.30783239e-01, 3.76694143e-01, 4.00000006e-01,
          8.12975317e-02, 3.03694934e-01, 1.68097213e-01, 2.05000430e-01,
          3.09623271e-01, 4.00000006e-01, 4.00000006e-01, 3.84245515e-01,
          2.08096296e-01, 6.27233759e-02, 9.27617103e-02, 2.84679979e-01,
          3.94828618e-01, 3.22167724e-01, 1.42007872e-01, 1.01545900e-01,
          3.27818364e-01, 1.95372328e-01, 2.78963327e-01, 3.00055265e-01,
          1.23228647e-01, 2.50519156e-01, 2.81803489e-01, 2.07659483e-01,
          3.67430121e-01, 3.04449856e-01, 2.69719660e-01, 2.35997856e-01,
          4.00000006e-01, 4.00000006e-01, 4.00000006e-01, 4.00000006e-01,
          3.74155283e-01, 3.33896518e-01, 4.00000006e-01, 3.92087817e-01,
          4.00000006e-01, 4.00000006e-01, 4.00000006e-01, 2.19496801e-01,
          1.72523595e-02, 1.78408772e-02, 5.43544330e-02, 3.66642624e-01,
          3.00186604e-01, 4.00000006e-01, 2.21174851e-01, 4.82270643e-02,
          8.96969065e-03, 9.15398747e-02, 1.67373300e-01, 4.39040028e-02,
          7.11975992e-02, 1.53618837e-02, 4.32848856e-02, 8.88158530e-02,
          9.40990355e-03, 9.78828967e-02, 3.77953678e-01, 1.82050556e-01,
          4.27190959e-02, 4.22635861e-02, 2.23483592e-02, 1.29530160e-02,
          8.34549814e-02, 1.57336190e-01, 1.23229563e-01, 1.25630051e-01,
          6.80836439e-02, 5.01141101e-02, 3.59460041e-02, 0.,
          2.65344791e-03, 2.70458357e-03, 1.59392774e-03, 1.54172229e-02,
          1.63381919e-02, 1.12019051e-02, 0., 0., 0., 0., 0., 0., 0., 0.,
          0., 0., 0., 0., 0., 0., 0., 0., 0., 0., 0., 0., 0., 0.,
          1.52308922e-02, 4.96811904e-02, 0., 0., 3.03406846e-02,
          5.41417599e-02, 6.48839921e-02, 2.26897657e-01, 1.04980461e-01,
          3.76010567e-01, 2.11048350e-01, 1.69423129e-02, 1.04317814e-02,
          7.77632324e-03, 1.61501393e-02, 4.83539551e-02, 9.47341472e-02,
          2.53828056e-02, 1.16101682e-01, 8.12028870e-02, 6.69889301e-02,
          5.05690090e-02, 2.79611051e-01, 6.19477183e-02, 8.16465616e-02,
          1.06013402e-01, 1.42746761e-01, 7.31282309e-02, 2.40558296e-01,
          2.72646606e-01, 7.57256821e-02, 5.65746725e-02, 8.84952247e-02,
          8.85900706e-02, 9.06016752e-02, 1.18180439e-02, 2.33739484e-02,
          4.71137986e-02, 3.24056223e-02, 2.21809968e-02, 1.65294576e-02,
          1.45912124e-02, 3.42668244e-03, 0., 1.44369919e-02,
          1.34395808e-01, 9.06842053e-02, 2.05486622e-02, 0.,
          2.11887620e-03, 8.45997594e-03, 3.07607390e-02, 1.26902729e-01,
          1.68981969e-01, 1.72225729e-01, 3.44430022e-02, 3.60527728e-03,
          8.71166140e-02, 2.95078605e-01, 4.37576771e-02, 6.00204393e-02,
          1.56732220e-02, 7.55944522e-03, 3.36242467e-02, 1.09044909e-01,
          5.32803535e-02, 6.20566234e-02, 0., 1.39825061e-01,
          1.18453905e-01, 6.39354736e-02, 1.89192891e-01, 2.57211253e-02,
          2.07133770e-01, 1.66236430e-01, 1.12579711e-01, 5.36077805e-02,
          4.81163450e-02, 1.43150106e-01, 6.35828152e-02, 7.21876398e-02,
          5.05647063e-02, 9.52679440e-02, 1.36309013e-01, 2.94659019e-01,
          2.26532266e-01, 4.00000006e-01, 5.75199202e-02, 5.46394251e-02,
          1.29041091e-01, 6.56637996e-02, 1.31302670e-01, 3.66336375e-01,
          3.92031401e-01, 1.13433354e-01, 4.64155786e-02, 1.04827777e-01,
          1.52871460e-01, 1.03972450e-01, 1.49487749e-01, 7.43578374e-02,
          1.08919844e-01, 8.75115916e-02, 3.42565738e-02, 4.06924784e-02,
          5.39195910e-02, 7.33966604e-02, 2.92243026e-02, 2.70019114e-01,
          2.76118100e-01, 2.47521311e-01, 1.30486280e-01, 9.23449993e-02,
          6.66697174e-02, 2.60106176e-01, 1.35627747e-01, 3.59917730e-01,
          3.21265578e-01, 3.62043321e-01, 3.97153348e-01, 3.49919617e-01,
          1.60369381e-01, 1.72757298e-01, 3.09342563e-01, 3.02861392e-01,
          2.92872757e-01, 4.00000006e-01, 4.00000006e-01, 4.00000006e-01,
          3.84638071e-01, 2.38586873e-01, 5.32140583e-02, 6.51597157e-02,
          1.56609625e-01, 5.71665987e-02, 5.30663580e-02, 2.50644572e-02,
          9.48500484e-02, 1.24199621e-01, 7.32939094e-02, 2.27183759e-01,
          1.47479400e-01, 6.71616867e-02, 1.69043411e-02, 2.01483071e-02,
          3.70615199e-02, 8.65841061e-02, 1.84043851e-02, 4.00000006e-01,
          4.00000006e-01, 2.48231381e-01, 1.02151953e-01, 1.37706101e-01,
          6.02983236e-02, 4.85126227e-02, 4.86453474e-02, 2.16635942e-01,
          1.77908644e-01, 1.43615291e-01, 1.51162073e-01, 6.73642233e-02,
          4.47571352e-02, 7.61624798e-02, 7.17836693e-02, 8.79982933e-02,
          2.73316242e-02, 1.71215922e-01, 4.21392210e-02, 2.66604144e-02,
          1.31320907e-02, 0., 2.98114074e-03, 7.10503384e-02,
          3.32393348e-02, 1.08075418e-01, 1.61890298e-01, 4.99180425e-03,
          0., 0., 0., 1.37192123e-02, 2.85459757e-02, 9.00098979e-02,
          1.43594354e-01, 1.24798063e-02, 0., 0., 0., 1.23285249e-01,
          3.03490520e-01, 3.07977386e-02, 5.07075377e-02, 6.59654438e-02,
          5.24300486e-02, 6.97488114e-02, 0., 1.84699282e-01,
          1.10262878e-01, 1.57534674e-01, 9.32730436e-02, 6.61055148e-02,
          1.18817993e-01, 2.96534419e-01, 2.37542361e-01, 3.64574701e-01,
          2.53140748e-01, 3.48358095e-01, 4.00000006e-01, 8.46323445e-02,
          2.06495970e-01, 3.07080805e-01, 1.79932043e-01, 3.80797297e-01,
          4.00000006e-01, 4.00000006e-01, 4.00000006e-01, 1.67662904e-01,
          2.67275512e-01, 2.43464082e-01, 9.57577825e-02, 1.65243685e-01,
          2.57562727e-01, 2.82071739e-01, 1.72692060e-01, 1.61083311e-01,
          2.82168418e-01, 2.83169746e-01, 3.35022271e-01, 1.91997722e-01,
          2.00714424e-01, 2.51135767e-01, 1.51533023e-01, 7.18553364e-02,
          9.81604829e-02, 2.98727334e-01, 4.00000006e-01, 3.33757013e-01,
          2.96606153e-01, 2.75594741e-01, 3.57389152e-01, 3.54541898e-01,
          1.90584093e-01, 3.51491570e-01, 4.00000006e-01, 4.00000006e-01,
          4.00000006e-01, 4.00000006e-01, 4.00000006e-01, 4.00000006e-01,
          1.96137503e-01, 3.97786796e-01, 4.00000006e-01, 4.00000006e-01,
          4.00000006e-01, 4.00000006e-01, 4.00000006e-01, 4.00000006e-01,
          1.98476881e-01, 4.00000006e-01, 4.00000006e-01, 1.35050803e-01,
          1.60004944e-01, 1.02590308e-01, 8.68556350e-02, 3.70663516e-02,
          1.35536641e-01, 3.66040587e-01, 8.61230269e-02, 2.15687275e-01,
          1.76610127e-01, 2.24427193e-01, 4.00000006e-01, 1.66197062e-01,
          1.63173199e-01, 2.89462328e-01, 2.90767830e-02, 2.14436233e-01,
          4.00000006e-01, 4.00000006e-01, 4.00000006e-01, 1.92369372e-01,
          2.67856121e-01, 1.85183242e-01, 6.70070648e-02, 1.20654434e-01,
          4.00000006e-01, 4.00000006e-01, 2.42265597e-01, 9.36299860e-02,
          2.15219855e-01, 1.32660508e-01, 2.79239327e-01, 7.19822198e-02,
          3.13505322e-01, 2.96788573e-01, 8.68116990e-02, 1.92386229e-02,
          8.12938996e-03, 3.26677114e-02, 1.21729903e-01, 1.44369919e-02,
          2.12636422e-02, 8.09882581e-02, 2.88307518e-01, 8.56626630e-02,
          0., 1.47367325e-02, 2.16789953e-02, 0., 6.21894486e-02,
          1.61507085e-01, 3.07361215e-01, 1.12080332e-02, 0.,
          4.47642505e-02, 1.98368132e-01, 0., 2.22274780e-01,
          1.32730156e-01, 5.22142164e-02, 0., 0., 6.23832457e-02,
          1.39493316e-01, 1.58385873e-01, 2.05095947e-01, 1.59824699e-01,
          1.15764439e-01, 9.55288783e-02, 9.96716842e-02, 2.28148833e-01,
          2.46690497e-01, 3.37325066e-01, 4.00000006e-01, 3.00335437e-01,
          4.00000006e-01, 2.38942623e-01, 1.41992524e-01, 2.57527858e-01,
          2.37841129e-01, 1.51550084e-01, 2.90404469e-01, 3.50379616e-01,
          2.91573822e-01, 1.52717516e-01, 2.18451381e-01, 2.20653862e-01,
          2.98777878e-01, 8.32858607e-02, 3.93635243e-01, 3.74152154e-01,
          1.80717424e-01, 1.74224332e-01, 3.39216709e-01, 4.00000006e-01,
          4.00000006e-01, 1.06970094e-01, 2.88723528e-01, 2.81145930e-01,
          2.03226581e-01, 2.53601253e-01, 4.00000006e-01, 3.38664919e-01,
          3.92510772e-01, 1.38229147e-01, 2.64623940e-01, 2.87549287e-01,
          3.33530724e-01, 3.22258711e-01, 2.13577643e-01, 2.24205643e-01,
          2.52727091e-01, 3.52557480e-01, 4.00000006e-01, 3.30208629e-01,
          2.47629017e-01, 1.82764992e-01, 4.58198190e-02, 8.08897093e-02,
          2.99707681e-01, 3.14351976e-01, 2.96837807e-01, 1.72647655e-01,
          6.36260211e-02, 1.51044160e-01, 9.94260162e-02, 2.44370759e-01,
          2.12156072e-01, 1.25335470e-01, 3.75332713e-01, 4.00000006e-01,
          2.42191046e-01, 3.99643958e-01, 9.60342437e-02, 1.89780056e-01,
          1.55805185e-01, 2.96452373e-01, 4.00000006e-01, 4.00000006e-01,
          2.26909414e-01, 1.95066482e-01, 1.14562638e-01, 1.93167925e-01,
          2.22989738e-01, 2.31254864e-02, 1.48260877e-01, 3.16353023e-01,
          3.03676307e-01, 1.55076891e-01, 1.04860879e-01, 2.22023293e-01,
          2.60616064e-01, 6.85009062e-02, 3.58351260e-01, 2.68288910e-01,
          1.65553123e-01, 3.19624245e-02, 2.28890911e-01, 3.27513158e-01,
          2.94391572e-01, 8.97947103e-02, 2.78530508e-01, 2.27748781e-01,
          1.64079607e-01, 2.40092561e-01, 3.32379580e-01, 2.76875913e-01,
          1.48808599e-01, 2.06242763e-02, 6.70080855e-02, 1.38563039e-02,
          7.34770447e-02, 2.28624642e-01, 1.63153484e-01, 1.30447373e-01,
          4.07213643e-02, 3.08682285e-02, 1.96253601e-02, 0., 0., 0.,
          2.09558872e-03, 4.56778109e-02, 5.83435670e-02, 0.,
          2.82117985e-02, 2.15584170e-02, 0., 2.96171382e-03,
          4.09848895e-03, 4.40928712e-02, 2.32488830e-02, 1.70009747e-01,
          2.12496787e-01, 4.00000006e-01, 4.00000006e-01, 4.00000006e-01,
          4.00000006e-01, 3.43701243e-01, 2.35382438e-01, 2.98419654e-01,
          4.00000006e-01, 3.34012270e-01, 2.11040974e-01, 3.27594280e-01,
          2.68014640e-01, 3.11879128e-01, 3.54005635e-01, 2.87801605e-02,
          1.57083541e-01, 2.38361806e-01, 7.94875696e-02, 1.81111038e-01,
          2.91182846e-01, 3.87663424e-01, 4.00000006e-01, 1.10580526e-01,
          3.31253141e-01, 2.56758571e-01, 2.39029557e-01, 3.26597810e-01,
          4.00000006e-01, 4.00000006e-01, 4.00000006e-01, 2.46908531e-01,
          1.54647976e-01, 2.36152172e-01, 3.29087585e-01, 4.00000006e-01,
          4.00000006e-01, 4.00000006e-01, 4.00000006e-01, 3.38576198e-01,
          3.02779138e-01, 3.39437038e-01, 3.65762442e-01, 4.00000006e-01,
          4.00000006e-01, 4.00000006e-01, 4.00000006e-01, 4.00000006e-01,
          4.00000006e-01, 3.78798157e-01, 2.78357148e-01, 4.00000006e-01,
          4.00000006e-01, 4.00000006e-01, 4.00000006e-01, 4.00000006e-01,
          4.00000006e-01, 4.00000006e-01, 4.00000006e-01, 4.00000006e-01,
          4.00000006e-01, 4.00000006e-01, 3.44344556e-01, 3.70415896e-02,
          4.48745899e-02, 3.96437824e-01, 4.00000006e-01, 4.00000006e-01,
          4.00000006e-01, 2.28154257e-01, 4.82270643e-02, 1.49825327e-02,
          1.07666761e-01, 3.93007874e-01, 3.75963181e-01, 2.59637475e-01,
          2.84264594e-01, 1.49933234e-01, 8.88158530e-02, 9.40990355e-03,
          9.78828967e-02, 3.85417879e-01, 2.11204156e-01, 7.86889791e-02,
          4.22635861e-02, 2.23483592e-02, 1.29530160e-02, 8.34549814e-02,
          1.69621289e-01, 1.62862778e-01, 1.64406195e-01, 8.67721066e-02,
          5.01141101e-02, 3.59460041e-02, 0., 2.65344791e-03,
          1.53809726e-01, 1.01703107e-01, 3.61024663e-02, 1.63381919e-02,
          1.12019051e-02, 0., 0., 0., 1.31467313e-01, 3.55956107e-02, 0.,
          0., 0., 0., 0., 0., 0., 0., 0., 0., 0., 0., 0., 0., 0., 0., 0.,
          1.52308922e-02, 4.96811904e-02, 0., 0., 4.41490784e-02,
          8.71256590e-02, 2.61052847e-01, 4.00000006e-01, 1.48248449e-01,
          4.00000006e-01, 2.34637409e-01, 3.60089093e-02, 3.27334702e-02,
          5.52322641e-02, 1.24748148e-01, 3.03562641e-01, 1.68603152e-01,
          2.88862228e-01, 2.31110632e-01, 8.53245780e-02, 6.98310584e-02,
          5.71071766e-02, 2.87478924e-01, 9.11826640e-02, 1.47485182e-01,
          1.25145257e-01, 1.75932392e-01, 7.31282309e-02, 2.56484538e-01,
          2.83474505e-01, 8.91039521e-02, 1.16821080e-01, 1.06231898e-01,
          8.91495943e-02, 1.48611337e-01, 8.57902467e-02, 1.38154894e-01,
          2.52634019e-01, 6.65997043e-02, 3.24926302e-02, 2.02619154e-02,
          1.45912124e-02, 6.62491843e-02, 7.87517950e-02, 2.71568317e-02,
          2.63890564e-01, 1.18949212e-01, 3.07192113e-02, 0.,
          2.11887620e-03, 1.25535121e-02, 4.98031043e-02, 1.33450523e-01,
          1.92175582e-01, 1.92211822e-01, 5.03982157e-02, 3.60527728e-03,
          8.71166140e-02, 2.95078605e-01, 9.62668806e-02, 6.87801838e-02,
          4.90144417e-02, 7.55944522e-03, 3.36242467e-02, 1.10929638e-01,
          5.59150949e-02, 6.20566234e-02, 5.83067313e-02, 1.51262209e-01,
          1.35462031e-01, 2.18469337e-01, 2.69672602e-01, 1.85478777e-01,
          2.20714018e-01, 2.09334761e-01, 1.86808228e-01, 6.97511062e-02,
          6.48937300e-02, 2.81364888e-01, 1.52235761e-01, 2.45401978e-01,
          8.34034234e-02, 1.35272697e-01, 1.53213531e-01, 2.94972956e-01,
          2.66676188e-01, 4.00000006e-01, 9.47516263e-02, 1.45770580e-01,
          1.69061095e-01, 1.46919012e-01, 1.33619770e-01, 3.69363099e-01,
          3.98940533e-01, 1.40871793e-01, 6.25434667e-02, 1.33231595e-01,
          1.83510363e-01, 1.30419299e-01, 2.35027924e-01, 2.26757690e-01,
          2.77249217e-01, 1.65149495e-01, 1.46148890e-01, 9.31880251e-02,
          1.09289348e-01, 1.42025441e-01, 1.37322783e-01, 2.88087368e-01,
          2.97902852e-01, 2.85825133e-01, 2.50186563e-01, 1.61643252e-01,
          1.30491748e-01, 3.14474761e-01, 2.24749267e-01, 3.64266962e-01,
          3.63878787e-01, 3.92642409e-01, 4.00000006e-01, 3.64239216e-01,
          1.83847308e-01, 2.55572945e-01, 4.00000006e-01, 3.72643709e-01,
          4.00000006e-01, 4.00000006e-01, 4.00000006e-01, 4.00000006e-01,
          3.90148342e-01, 2.51187533e-01, 8.00544843e-02, 6.51597157e-02,
          1.71012312e-01, 1.35343477e-01, 1.19781621e-01, 1.33611158e-01,
          9.72818360e-02, 1.70198634e-01, 1.07848287e-01, 2.27183759e-01,
          1.52268663e-01, 7.78642744e-02, 1.85155988e-01, 2.41958767e-01,
          5.81083931e-02, 1.13049425e-01, 2.34653335e-02, 4.00000006e-01,
          4.00000006e-01, 2.85489082e-01, 1.72617853e-01, 1.64481133e-01,
          6.80409148e-02, 1.31463856e-01, 4.86453474e-02, 2.55846024e-01,
          2.38060564e-01, 1.67511597e-01, 1.78192601e-01, 9.69426557e-02,
          4.73682173e-02, 9.95303318e-02, 7.17836693e-02, 2.83464789e-01,
          2.95344621e-01, 2.02935562e-01, 6.04017116e-02, 2.66604144e-02,
          1.31320907e-02, 0., 2.98114074e-03, 7.87810236e-02,
          5.77941388e-02, 1.15361840e-01, 1.61890298e-01, 4.99180425e-03,
          0., 9.27868299e-03, 2.75381878e-02, 1.37192123e-02,
          2.85459757e-02, 9.00098979e-02, 1.43594354e-01, 1.24798063e-02,
          0., 2.86247581e-02, 9.39979702e-02, 1.23285249e-01,
          3.03490520e-01, 3.07977386e-02, 5.07075377e-02, 6.59654438e-02,
          5.24300486e-02, 6.97488114e-02, 0., 2.40137745e-02,
          9.98580605e-02, 2.42428437e-01, 3.23710620e-01, 3.18044186e-01,
          3.30407202e-01, 5.25047183e-01, 2.76348621e-01, 1.27908170e-01,
          2.20690757e-01, 3.08110029e-01, 3.81873637e-01, 4.77805585e-01,
          3.65758866e-01, 4.58292842e-01, 2.23181874e-01, 1.52774751e-01,
          2.99041808e-01, 4.39516991e-01, 3.53732556e-01, 4.83446687e-01,
          3.06094795e-01, 2.65719414e-01, 1.77409098e-01, 1.45320877e-01,
          4.01937813e-01, 4.68228102e-01, 4.94882643e-01, 2.23895028e-01,
          2.36393601e-01, 2.62470305e-01, 3.08566928e-01, 1.60376057e-01,
          4.63826984e-01, 4.57940906e-01, 2.67787576e-01, 1.98840618e-01,
          2.30199426e-01, 2.21982345e-01, 2.45718479e-01, 1.85108691e-01,
          3.49910408e-01, 3.08267087e-01, 3.07875931e-01, 2.37121955e-01,
          1.73676312e-01, 2.18087986e-01, 2.20175251e-01, 2.14574561e-01,
          2.69254863e-01, 2.47026801e-01, 2.23485023e-01, 1.83427781e-01,
          1.29457712e-01, 2.25457326e-01, 3.03092569e-01, 2.29913354e-01,
          3.13203275e-01, 2.22025201e-01, 1.72015816e-01, 2.04704151e-01,
          1.58977553e-01, 2.14887410e-01, 1.76195502e-01, 7.60274380e-02,
          1.59976199e-01, 2.79481798e-01, 3.11896801e-01, 2.58644402e-01,
          2.59997845e-01, 2.55087972e-01, 3.04028660e-01, 1.79043785e-01,
          2.49954492e-01, 3.11819673e-01, 3.16563308e-01, 1.88377619e-01,
          1.16485700e-01, 1.96102127e-01, 2.22858503e-01, 1.41251296e-01,
          2.74690658e-01, 3.84383261e-01, 2.58815885e-01, 1.32018894e-01,
          1.37556747e-01, 1.96559429e-01, 1.89434066e-01, 9.04227123e-02,
          2.80619442e-01, 2.42369547e-01, 1.36003062e-01, 2.02138364e-01,
          2.34338418e-01, 2.50650734e-01, 3.02121907e-01, 4.11680341e-02,
          1.31304488e-01, 1.30717993e-01, 1.52793333e-01, 1.85686022e-01,
          2.02264175e-01, 1.92660183e-01, 2.18388230e-01, 5.71449734e-02,
          1.08356610e-01, 1.46732599e-01, 2.38447279e-01, 1.77494317e-01,
          1.46736443e-01, 1.98212996e-01, 1.97882310e-01, 1.92626089e-01,
          2.27053404e-01, 2.37938583e-01, 2.34278724e-01, 1.93349659e-01,
          1.27750695e-01, 2.13077784e-01, 2.84382164e-01, 2.16435850e-01,
          2.88821548e-01, 2.00024411e-01, 1.66546956e-01, 2.08073184e-01,
          1.57581240e-01, 1.97574243e-01, 1.52832791e-01, 7.49601945e-02,
          1.38640776e-01, 2.61794984e-01, 2.97970116e-01, 2.48331323e-01,
          2.69684911e-01, 2.48800173e-01, 6.56074435e-02, 2.63317794e-01,
          2.49070168e-01, 2.73217112e-01, 2.98036546e-01, 1.97401375e-01,
          2.40634322e-01, 3.29444647e-01, 1.48333251e-01, 2.28257507e-01,
          3.49471450e-01, 3.79516810e-01, 2.22631127e-01, 7.84496516e-02,
          2.52886117e-01, 2.57087827e-01, 1.66793182e-01, 3.34880412e-01,
          4.38778251e-01, 3.29150170e-01, 1.38043448e-01, 1.43235400e-01,
          2.23506495e-01, 2.44760200e-01, 2.93618232e-01, 3.85646135e-01,
          5.00072539e-01, 3.07010531e-01, 1.62866876e-01, 1.95095941e-01,
          2.12505579e-01, 2.04742163e-01, 2.36599043e-01, 2.38126114e-01,
          3.76482248e-01, 2.88410664e-01, 2.81840235e-01, 2.11666226e-01,
          1.79083318e-01, 2.20151037e-01, 2.02799469e-01, 2.47592971e-01,
          2.84357250e-01, 2.56562144e-01, 2.26712555e-01, 1.71830967e-01,
          1.22777022e-01, 2.18636677e-01, 2.76480764e-01, 2.63703525e-01,
          3.19372624e-01, 2.16245472e-01, 1.75467134e-01, 2.06044391e-01,
          1.46447167e-01, 1.95814610e-01, 1.57717153e-01, 4.04451340e-01,
          3.33566457e-01, 3.58637333e-01, 3.46792459e-01, 2.39737332e-01,
          2.25834191e-01, 1.57942966e-01, 2.72497404e-02, 3.31036568e-01,
          2.92106420e-01, 3.38067770e-01, 3.00262779e-01, 1.36397555e-01,
          7.90581480e-02, 7.94423893e-02, 6.27306551e-02, 2.21095547e-01,
          3.24550122e-01, 3.45595211e-01, 1.91183686e-01, 4.50993553e-02,
          6.90577701e-02, 1.30502775e-01, 1.28934219e-01, 1.85280636e-01,
          3.32772553e-01, 1.88752353e-01, 6.09911084e-02, 3.53902504e-02,
          2.01797664e-01, 2.42614195e-01, 2.77501315e-01, 1.37568459e-01,
          1.55691609e-01, 7.94745907e-02, 3.83181721e-02, 1.26483411e-01,
          1.91701099e-01, 1.80691749e-01, 2.09962636e-01, 1.69864073e-01,
          1.22624464e-01, 8.56712759e-02, 1.32718131e-01, 1.72825828e-01,
          1.37109831e-01, 1.83316559e-01, 1.84701979e-01, 2.53621936e-01,
          2.50864536e-01, 2.23729476e-01, 2.19487548e-01, 1.79542929e-01,
          1.31195247e-01, 2.15080351e-01, 2.60558903e-01, 2.57534742e-01,
          3.02377343e-01, 2.05068767e-01, 1.68272987e-01, 1.94830850e-01,
          1.49477005e-01, 1.93623260e-01, 1.41843766e-01, 1.29177019e-01,
          9.58191216e-01, 8.19952548e-01, 4.56819630e+00, 5230., 306.,
          172., 133., 105., 75., 57., 61., 51., 59., 25., 31., 22., 21.,
          19., 11., 6., 5., 2., 2., 4., 2., 0., 0., 1., 0., 0., 0., 0.,
          0., 0., 0., 5.28315258e+00, -4.85366732e-01, 0., 0., 0., 1.,
          0., 3., 11., 27., 53., 83., 147., 2258., 2617., 492., 95., 50.,
          38., 36., 22., 26., 29., 37., 26., 42., 51., 77., 53., 33.,
          18., 17., 32., 26., 1.21677764e-01, 8.98486495e-01,
          7.82554567e-01, 1.05532055e+01, 1250., 55., 40., 38., 29., 20.,
          24., 15., 12., 12., 12., 9., 10., 10., 17., 13., 11., 9., 7.,
          0., 3., 2., 1., 0., 0., 1., 0., 0., 0., 0., 0., 0.,
          5.20759916e+00, -4.75045294e-01, 0., 0., 0., 0., 0., 0., 1.,
          8., 11., 21., 39., 537., 677., 125., 22., 15., 12., 12., 8.,
          6., 5., 6., 10., 11., 10., 22., 14., 6., 4., 5., 11., 2. ]
      - [ 1.23397291e-01, 3.77539210e-02, 2.96355262e-02, 2.16608755e-02,
          1.54969469e-01, 1.72504112e-01, 1.26692370e-01, 2.31117867e-02,
          8.18398595e-02, 4.89387438e-02, 1.76974293e-02, 2.36859620e-02,
          2.50083655e-01, 2.35087842e-01, 6.97809383e-02, 1.19206488e-01,
          1.86849624e-01, 1.70091480e-01, 6.14805631e-02, 1.66933134e-01,
          1.37614995e-01, 5.87381087e-02, 1.03339896e-01, 4.00000006e-01,
          1.10675052e-01, 2.75051355e-01, 1.13924637e-01, 1.52334750e-01,
          7.87888691e-02, 1.07643768e-01, 2.75439143e-01, 4.00000006e-01,
          2.74761677e-01, 2.13430420e-01, 8.91300440e-02, 4.67301309e-02,
          8.98314044e-02, 2.71778315e-01, 3.95333290e-01, 4.00000006e-01,
          2.60834128e-01, 2.51093149e-01, 3.79858792e-01, 2.58633435e-01,
          8.64226520e-02, 1.95491821e-01, 4.00000006e-01, 4.00000006e-01,
          3.67502540e-01, 4.00000006e-01, 4.00000006e-01, 2.53153890e-01,
          1.28361851e-01, 2.34120786e-01, 3.95635188e-01, 4.00000006e-01,
          4.00000006e-01, 4.00000006e-01, 4.00000006e-01, 3.26048851e-01,
          1.95782691e-01, 3.94999266e-01, 4.00000006e-01, 4.00000006e-01,
          4.93864417e-02, 1.09834177e-02, 1.88024621e-02, 2.39934195e-02,
          1.15255468e-01, 1.26370370e-01, 0., 2.99084801e-02,
          1.55808255e-01, 2.21675597e-02, 4.61062929e-03, 3.96445766e-02,
          1.78941295e-01, 1.60074323e-01, 0., 2.00177282e-02,
          6.82477653e-02, 4.26361710e-02, 1.88673176e-02, 1.60603255e-01,
          1.02195591e-01, 1.01629626e-02, 3.00459675e-02, 1.32468700e-01,
          1.48668706e-01, 2.34748214e-01, 9.25519411e-03, 2.14707684e-02,
          4.79393965e-03, 3.35365161e-02, 2.85085827e-01, 3.02018553e-01,
          2.76747763e-01, 2.18160212e-01, 8.71485565e-03, 2.78397184e-03,
          1.16048343e-02, 5.96544519e-02, 2.03038946e-01, 1.29312232e-01,
          1.84699833e-01, 9.84628648e-02, 2.16827855e-01, 0.,
          6.66368753e-03, 1.50358425e-02, 0., 0., 3.66505794e-02,
          3.05436313e-01, 3.20973665e-01, 0., 0., 0., 0., 1.74135640e-02,
          1.39884531e-01, 2.36741249e-02, 4.02622223e-02, 0., 0.,
          6.37278110e-02, 2.35109124e-02, 7.85617996e-03, 1.81760788e-01,
          2.91256644e-02, 6.13559298e-02, 3.21439654e-02, 3.60530727e-02,
          3.30697969e-02, 1.97942052e-02, 6.53700083e-02, 3.49477619e-01,
          4.76199910e-02, 9.11503583e-02, 7.43422061e-02, 9.71429422e-02,
          6.60240799e-02, 1.70106627e-02, 7.17159361e-02, 3.00891325e-02,
          6.50413055e-03, 2.69381143e-02, 1.23939663e-01, 8.57779756e-02,
          1.01857468e-01, 2.63584852e-02, 4.75484133e-02, 9.42727625e-02,
          2.27888763e-01, 2.83705574e-02, 9.49929133e-02, 4.26806211e-02,
          1.34377003e-01, 4.00000006e-01, 3.34911972e-01, 2.54508257e-01,
          1.92527115e-01, 7.39423558e-02, 2.03776136e-01, 2.59419382e-01,
          2.89053589e-01, 4.00000006e-01, 4.00000006e-01, 1.17121994e-01,
          1.11388966e-01, 2.49142393e-01, 3.62651169e-01, 1.85774550e-01,
          2.34452486e-01, 3.00407887e-01, 2.48105586e-01, 2.55307257e-01,
          1.19879700e-01, 1.70550779e-01, 1.27781004e-01, 1.20308064e-01,
          1.42165855e-01, 1.91279709e-01, 1.92972243e-01, 1.72975153e-01,
          1.01752691e-01, 9.16986912e-02, 2.75842994e-02, 8.20896104e-02,
          1.49552777e-01, 2.11779252e-01, 1.92674547e-01, 3.95098180e-01,
          3.70351046e-01, 1.10945895e-01, 6.87078089e-02, 2.74172984e-02,
          7.06562027e-03, 5.87744312e-03, 2.42011435e-02, 4.00000006e-01,
          3.83298218e-01, 1.14497453e-01, 8.93629864e-02, 8.13604817e-02,
          2.39691995e-02, 0., 1.71970204e-02, 2.24298779e-02,
          3.89721245e-02, 7.55874440e-02, 5.52822910e-02, 1.47467982e-02,
          0., 7.63704069e-03, 1.27185294e-02, 1.38783634e-01,
          1.74730927e-01, 3.87349501e-02, 3.98950092e-02, 1.15853548e-02,
          2.03766171e-02, 1.43109024e-01, 6.62145987e-02, 2.87289619e-01,
          1.85925379e-01, 2.73512416e-02, 3.23868722e-01, 2.88221896e-01,
          1.56622618e-01, 5.20524606e-02, 3.73891033e-02, 6.04729429e-02,
          1.76809561e-02, 3.82955186e-02, 2.13688552e-01, 7.48998448e-02,
          1.66761186e-02, 0., 0., 1.68956574e-02, 0., 0., 0., 0.,
          2.07037851e-03, 5.78742810e-02, 4.76980172e-02, 4.21445817e-02,
          0., 0., 0., 0., 3.01868585e-03, 7.05327392e-02, 4.27725390e-02,
          2.76856512e-01, 3.93950611e-01, 1.82611749e-01, 2.03115746e-01,
          5.56848943e-02, 1.87915564e-02, 1.97135452e-02, 1.52537793e-01,
          3.89665514e-01, 2.51926154e-01, 1.01016179e-01, 2.28264660e-01,
          2.67018706e-01, 9.25577581e-02, 1.50766373e-02, 1.26056045e-01,
          2.36337893e-02, 5.90061210e-03, 2.80647967e-02, 9.37436149e-02,
          9.74170938e-02, 6.11466765e-02, 7.31868949e-03, 6.10501170e-02,
          4.39571515e-02, 5.72959557e-02, 4.93292697e-02, 5.68984523e-02,
          7.64662921e-02, 1.88511878e-01, 1.69363722e-01, 6.11722991e-02,
          1.88020572e-01, 1.77311182e-01, 2.60328829e-01, 4.00000006e-01,
          4.00000006e-01, 4.00000006e-01, 3.44393253e-01, 4.88069989e-02,
          2.33677477e-01, 1.45589635e-01, 2.45591253e-01, 3.64133716e-01,
          4.00000006e-01, 3.92691493e-01, 1.77173972e-01, 5.31035326e-02,
          1.67045012e-01, 8.49929005e-02, 4.50279377e-02, 4.13012393e-02,
          1.68354660e-01, 2.50654757e-01, 1.91472352e-01, 2.24993393e-01,
          1.68706059e-01, 6.70184717e-02, 2.64756233e-02, 2.75587421e-02,
          2.50174589e-02, 1.03649795e-01, 1.46086439e-01, 2.65260994e-01,
          3.46732065e-02, 4.00000006e-01, 4.00000006e-01, 2.09576383e-01,
          1.24589458e-01, 1.84900425e-02, 6.26033684e-03, 0.,
          3.41914706e-02, 3.33111644e-01, 3.00550222e-01, 2.07253963e-01,
          2.83757985e-01, 2.96362713e-02, 0., 0., 9.23598534e-04,
          2.14643944e-02, 2.59867460e-02, 1.62036205e-03, 2.68137269e-02,
          2.57980842e-02, 0., 0., 6.70890370e-03, 3.34120691e-02,
          4.85344492e-02, 1.33750471e-03, 2.54237000e-03, 2.10123137e-03,
          0., 0., 4.92866151e-02, 6.33398890e-02, 2.91580670e-02, 0., 0.,
          0., 0., 0., 4.87382337e-02, 3.85280093e-03, 0., 0., 0., 0., 0.,
          0., 0., 0., 0., 0., 0., 0., 0., 0., 0., 0., 0., 0., 0., 0., 0.,
          0., 1.69691090e-02, 2.86181241e-01, 2.15123281e-01,
          7.60602802e-02, 1.07843816e-01, 9.83107649e-03, 1.17548862e-02,
          0., 2.15569753e-02, 1.71886384e-01, 1.63279861e-01,
          1.03158221e-01, 2.73609191e-01, 3.13651264e-02, 2.76331045e-03,
          0., 4.16222634e-03, 1.17660146e-02, 2.68624052e-02,
          2.65227202e-02, 3.59540954e-02, 4.32596058e-02, 0., 0.,
          2.82346131e-03, 2.49363855e-02, 4.53424007e-02, 1.01550936e-03,
          4.59419191e-03, 1.09021835e-01, 3.03231105e-02, 0.,
          1.58904165e-01, 4.30830009e-02, 2.76193880e-02, 9.27990652e-04,
          3.37595190e-03, 1.06370375e-01, 1.75571889e-02, 0.,
          2.33202189e-01, 3.06348782e-02, 4.68056314e-02, 2.82860873e-03,
          0., 0., 0., 0., 0., 0., 0., 0., 0., 0., 0., 0., 3.71343866e-02,
          0., 0., 0., 0., 0., 0., 0., 2.80535929e-02, 1.57898679e-01,
          1.46686673e-01, 1.06350720e-01, 2.19639931e-02, 3.25943008e-02,
          1.80000102e-03, 4.11352701e-02, 1.56240715e-02, 1.21521711e-01,
          1.67348921e-01, 1.57351270e-01, 6.34469688e-02, 3.57230306e-02,
          0., 4.74140905e-02, 1.85932382e-03, 4.63596079e-03,
          4.06731702e-02, 7.27042705e-02, 3.02895457e-02, 1.04384683e-02,
          8.69415887e-03, 0., 4.24161889e-02, 2.61275377e-02,
          3.33796777e-02, 2.42439099e-02, 3.85310799e-02, 6.05434775e-02,
          5.04458584e-02, 0., 2.17115462e-01, 6.62254468e-02,
          7.70798251e-02, 1.20904027e-02, 5.80491051e-02, 1.55574843e-01,
          1.22180529e-01, 0., 1.22650385e-01, 5.50611876e-02,
          8.27169716e-02, 2.24434324e-02, 6.82746693e-02, 1.73591644e-01,
          8.16181004e-02, 0., 6.34569228e-02, 7.45069012e-02,
          8.70679691e-03, 1.89025165e-03, 2.04076692e-02, 1.15229174e-01,
          8.02902505e-02, 0., 8.83515254e-02, 5.72247105e-03,
          2.28813328e-02, 3.91519107e-02, 0., 9.54592228e-03,
          7.88539741e-03, 0., 3.45760472e-02, 5.79444990e-02,
          8.39895085e-02, 8.04290846e-02, 7.78000988e-03, 8.06507617e-02,
          7.34680519e-03, 0., 1.39864059e-02, 7.64871538e-02,
          1.86658457e-01, 1.90395802e-01, 1.36442604e-02, 4.10906300e-02,
          5.52662066e-04, 0., 1.23598740e-01, 3.64755876e-02,
          1.18730932e-01, 6.15135394e-03, 2.73869075e-02, 2.22378690e-02,
          0., 0., 6.98709637e-02, 2.57462170e-02, 3.46828736e-02,
          5.07754600e-03, 4.19469699e-02, 9.38173383e-02, 2.98240185e-02,
          0., 2.51968414e-01, 1.24390377e-02, 1.82341617e-02, 0.,
          3.37595190e-03, 7.24884644e-02, 7.27124587e-02, 0.,
          8.21464211e-02, 1.21836262e-02, 5.59875974e-03, 0., 0.,
          2.48774868e-02, 6.31710980e-03, 0., 1.63757913e-02, 0., 0., 0.,
          0., 3.46049033e-02, 8.40110611e-03, 0., 7.92789757e-02, 0., 0.,
          0., 0., 0., 0., 0., 3.56940478e-02, 1.38903171e-01,
          3.68190482e-02, 1.68513134e-02, 4.90824655e-02, 2.08990380e-01,
          2.14811936e-01, 9.41382572e-02, 5.36785275e-02, 3.89954656e-01,
          2.86070019e-01, 3.35440300e-02, 2.49179192e-02, 1.38672218e-01,
          1.18059129e-01, 2.90806163e-02, 4.00000006e-01, 3.87184978e-01,
          3.33056867e-01, 5.87326102e-02, 1.55766845e-01, 1.80720702e-01,
          1.00119665e-01, 1.66845024e-02, 2.64705956e-01, 7.22566396e-02,
          1.15555592e-01, 4.82696109e-02, 1.53736562e-01, 1.45708278e-01,
          2.72957701e-02, 6.49387483e-04, 1.20420158e-01, 1.01030454e-01,
          1.36498258e-01, 3.95089574e-02, 3.76499295e-02, 1.17341913e-01,
          5.51966056e-02, 3.19354422e-02, 7.00196475e-02, 9.45735723e-02,
          1.16178244e-01, 4.47347313e-02, 9.79854092e-02, 2.45862424e-01,
          1.08160883e-01, 2.56232709e-01, 1.31706327e-01, 8.42048824e-02,
          6.19285069e-02, 5.76078780e-02, 5.40109240e-02, 3.57133418e-01,
          2.29460686e-01, 5.12964614e-02, 3.26999784e-01, 1.04321197e-01,
          1.62040606e-01, 1.52768552e-01, 3.92127559e-02, 1.30049735e-01,
          6.56353459e-02, 1.65910106e-02, 2.82846317e-02, 6.24023937e-02,
          4.45793867e-02, 1.19825900e-02, 1.06560424e-01, 2.51871437e-01,
          6.49727508e-02, 5.39483801e-02, 4.39322218e-02, 3.47298533e-01,
          4.00000006e-01, 1.00407913e-01, 2.00992003e-02, 7.14207813e-02,
          5.28713353e-02, 1.98840555e-02, 4.00000006e-01, 4.00000006e-01,
          3.73482645e-01, 2.18883250e-02, 5.23862392e-02, 1.18312418e-01,
          8.68440568e-02, 0., 4.00000006e-01, 2.17038870e-01,
          1.34211063e-01, 3.34438756e-02, 2.68260896e-01, 2.00794578e-01,
          1.10510692e-01, 0., 1.98478490e-01, 6.94047362e-02,
          1.47482182e-03, 1.55902430e-02, 5.46482168e-02, 2.28160433e-02,
          2.41480488e-03, 0., 0., 2.34969947e-02, 2.01555365e-03, 0., 0.,
          0., 0., 0., 1.01373950e-02, 2.86962762e-02, 1.88954081e-03, 0.,
          0., 0., 0., 0., 4.98072356e-02, 1.10272765e-02, 0., 0., 0., 0.,
          0., 0., 8.63257200e-02, 1.68528736e-01, 7.54370242e-02,
          4.94871847e-02, 9.11814570e-02, 1.93098053e-01, 2.61450320e-01,
          3.82432371e-01, 7.18548968e-02, 2.53966272e-01, 3.87185276e-01,
          2.16686219e-01, 3.42666730e-02, 1.47985026e-01, 2.10652590e-01,
          1.01455942e-01, 3.12986732e-01, 3.79236788e-01, 2.75489330e-01,
          9.23808292e-02, 1.45298555e-01, 2.50475407e-01, 3.10505688e-01,
          4.82634231e-02, 3.93091261e-01, 1.26600608e-01, 1.77847326e-01,
          1.87541232e-01, 3.97753686e-01, 2.96029866e-01, 1.83067277e-01,
          2.02041958e-03, 8.08270276e-02, 1.20017707e-01, 1.51663050e-01,
          7.67681971e-02, 1.02620132e-01, 1.87892336e-02, 1.66301262e-02,
          1.53385596e-02, 3.74892801e-02, 2.33259559e-01, 9.02238339e-02,
          1.70765240e-02, 1.11262426e-01, 9.44034159e-02, 4.81337495e-02,
          7.55604655e-02, 2.52348125e-01, 1.13352388e-01, 5.01921214e-02,
          5.89758419e-02, 2.95425281e-02, 1.81074411e-01, 1.60974070e-01,
          2.84909382e-02, 3.48746240e-01, 2.09406674e-01, 1.37808040e-01,
          1.91666394e-01, 5.60515001e-02, 2.33769029e-01, 4.84388694e-02,
          1.15935970e-02, 3.86624895e-02, 4.75670248e-02, 1.94999814e-01,
          2.26879090e-01, 9.46605355e-02, 1.95521757e-01, 9.40243900e-02,
          1.02350675e-01, 5.61362281e-02, 8.67261812e-02, 1.24124765e-01,
          5.78128099e-02, 3.26188914e-02, 1.07980400e-01, 1.79430977e-01,
          5.13223596e-02, 2.03629106e-01, 3.12977612e-01, 2.23290682e-01,
          8.83886144e-02, 1.40647709e-01, 2.37404317e-01, 2.19769329e-01,
          4.21124622e-02, 3.63282382e-01, 1.67000398e-01, 1.21664964e-01,
          1.09125309e-01, 2.37312526e-01, 2.53901243e-01, 1.36915565e-01,
          4.06580884e-03, 1.35420471e-01, 3.93361785e-02, 1.02233581e-01,
          4.10518497e-02, 5.48189916e-02, 1.66366983e-03, 0., 0.,
          6.94193132e-03, 5.93625046e-02, 1.61244273e-02, 0., 0., 0., 0.,
          0., 2.57333852e-02, 2.61790603e-02, 6.47842605e-03, 0., 0.,
          5.76748326e-02, 1.40018426e-02, 0., 1.32622821e-02, 0.,
          4.11120057e-03, 2.53246129e-02, 3.99127752e-02, 7.68087804e-02,
          1.06867787e-03, 0., 1.13621112e-02, 6.91191405e-02,
          4.00000006e-01, 4.00000006e-01, 3.82275015e-01, 2.56244838e-01,
          2.65511215e-01, 4.00000006e-01, 8.68671164e-02, 4.97334003e-02,
          2.20074087e-01, 1.85074523e-01, 6.96793050e-02, 3.01616311e-01,
          3.80034596e-01, 4.00000006e-01, 1.72679618e-01, 2.30408043e-01,
          8.89302269e-02, 8.52135494e-02, 2.76096046e-01, 3.82363528e-01,
          4.00000006e-01, 3.19407105e-01, 9.81085300e-02, 1.80686191e-01,
          1.95171893e-01, 3.34316581e-01, 4.00000006e-01, 4.00000006e-01,
          3.31260502e-01, 5.27302660e-02, 5.11174947e-02, 1.50239512e-01,
          3.29258263e-01, 4.00000006e-01, 1.72272846e-01, 1.12984098e-01,
          7.60753155e-02, 6.83900490e-02, 2.08235234e-01, 3.06999564e-01,
          1.91293493e-01, 1.13619313e-01, 2.53665388e-01, 2.99900830e-01,
          1.98429480e-01, 3.13245684e-01, 3.93961012e-01, 3.93013239e-01,
          3.41512173e-01, 4.00000006e-01, 4.00000006e-01, 4.00000006e-01,
          4.00000006e-01, 4.00000006e-01, 3.17773700e-01, 3.43817383e-01,
          4.00000006e-01, 4.00000006e-01, 4.00000006e-01, 4.00000006e-01,
          7.85393789e-02, 4.50885110e-02, 2.46066861e-02, 1.13318041e-01,
          3.75471771e-01, 3.50465864e-01, 4.00000006e-01, 1.27018154e-01,
          2.07799007e-04, 0., 1.18451506e-01, 8.84948373e-02,
          5.20104095e-02, 3.74486893e-02, 2.53220424e-02, 8.17464516e-02,
          3.90791111e-02, 0., 1.59738287e-01, 3.67131174e-01,
          9.37643647e-02, 3.66277695e-02, 7.65502406e-03, 2.01470759e-02,
          2.77724722e-03, 0., 3.22205186e-01, 2.17119664e-01,
          8.82360190e-02, 2.66713020e-03, 7.99434185e-02, 7.92464316e-02,
          0., 0., 2.46671252e-02, 2.80755591e-02, 2.85975300e-02,
          7.87426252e-04, 2.38715857e-02, 1.51250418e-02, 0., 0.,
          1.32106811e-01, 1.10765882e-02, 0., 0., 0., 0., 0., 0.,
          6.80061951e-02, 0., 0., 0., 0., 0., 0., 0., 0., 0., 0., 0., 0.,
          0., 0., 0., 6.93775862e-02, 1.21623382e-01, 2.15296611e-01,
          1.34676546e-01, 3.88175219e-01, 1.09056249e-01, 6.77375421e-02,
          1.51257142e-02, 3.93564813e-02, 2.70700529e-02, 6.59890324e-02,
          4.79313657e-02, 4.00485434e-02, 1.28052309e-01, 7.53462613e-02,
          2.16037557e-01, 1.25489682e-01, 3.05964649e-01, 1.59725398e-02,
          2.36166473e-02, 1.06879152e-01, 6.82772100e-02, 8.98988768e-02,
          2.90265143e-01, 2.19301775e-01, 8.68444145e-02, 2.83641443e-02,
          1.29511803e-01, 2.45300770e-01, 5.45498990e-02, 2.91304346e-02,
          2.84606628e-02, 8.86043534e-02, 7.17181191e-02, 3.18726376e-02,
          4.15855348e-02, 9.09257531e-02, 1.61613636e-02, 0., 0.,
          1.10818379e-01, 8.45794827e-02, 1.38849244e-02, 0.,
          4.82450910e-02, 2.48774868e-02, 2.70733307e-03, 8.74182507e-02,
          1.48681775e-01, 1.12519599e-01, 4.58888486e-02, 1.49437496e-02,
          1.09401703e-01, 1.12391979e-01, 2.17806408e-03, 9.08533782e-02,
          6.51325360e-02, 2.68613119e-02, 7.67424107e-02, 1.46759018e-01,
          7.46198595e-02, 3.32055464e-02, 0., 0., 7.45162666e-02,
          9.60906819e-02, 1.52969092e-01, 5.37088476e-02, 2.38511726e-01,
          8.45283940e-02, 1.62628442e-01, 9.34312642e-02, 7.13398978e-02,
          1.20463327e-01, 6.34648800e-02, 5.77158295e-02, 1.49503902e-01,
          1.66926235e-01, 2.31741160e-01, 3.72380435e-01, 2.28389382e-01,
          3.90561789e-01, 3.40792835e-02, 9.42343622e-02, 1.50384739e-01,
          1.09168306e-01, 3.24305922e-01, 4.00000006e-01, 2.56321907e-01,
          7.39721805e-02, 5.46080582e-02, 1.49922878e-01, 1.48818374e-01,
          1.56527042e-01, 2.31758475e-01, 1.44919187e-01, 3.34982611e-02,
          8.29229429e-02, 5.32647036e-02, 3.26323546e-02, 2.30861958e-02,
          7.74116442e-02, 9.43505093e-02, 2.30078414e-01, 1.55158535e-01,
          1.53892457e-01, 8.32183361e-02, 8.44068155e-02, 1.25760272e-01,
          1.32614344e-01, 2.12891951e-01, 2.51330733e-01, 2.09769547e-01,
          2.20973477e-01, 3.83024454e-01, 2.22860664e-01, 2.59080201e-01,
          1.59375414e-01, 3.82555097e-01, 3.25850159e-01, 2.62072265e-01,
          4.00000006e-01, 4.00000006e-01, 3.74618530e-01, 4.00000006e-01,
          2.75346816e-01, 9.23718065e-02, 1.94606826e-01, 1.55096799e-01,
          2.19646282e-02, 4.85499464e-02, 3.45651284e-02, 1.79033905e-01,
          1.28888384e-01, 2.65954304e-02, 0., 1.11820899e-01,
          5.45617156e-02, 6.65565655e-02, 4.03463393e-02, 1.06853098e-01,
          7.35616237e-02, 1.01321386e-02, 5.23971729e-02, 3.87030393e-01,
          2.49332115e-01, 6.86813369e-02, 4.28670794e-02, 1.78138196e-01,
          5.09038679e-02, 4.83812913e-02, 1.53441846e-01, 1.31372154e-01,
          2.16013551e-01, 4.95122224e-02, 3.00300624e-02, 1.54604554e-01,
          8.68128762e-02, 1.56961918e-01, 1.24440588e-01, 7.54332840e-02,
          1.01110801e-01, 0., 1.42910574e-02, 1.47697888e-02,
          1.83003694e-02, 2.73677893e-02, 5.18731773e-02, 1.99226439e-01,
          1.15295008e-01, 1.19603105e-01, 0., 0., 0., 2.70733293e-02,
          6.04642928e-02, 1.50501311e-01, 1.31098151e-01, 1.26288548e-01,
          1.73347518e-02, 0., 0., 0., 0., 2.22806320e-01, 5.34398742e-02,
          2.53798127e-01, 1.10865518e-01, 6.12833910e-02, 2.68327608e-03,
          0., 0., 1.59091309e-01, 1.76657110e-01, 6.64545745e-02,
          3.85121889e-02, 2.04051942e-01, 2.88206100e-01, 2.67084002e-01,
          1.17250040e-01, 1.35518387e-01, 4.00000006e-01, 2.96983480e-01,
          5.72299920e-02, 2.62536228e-01, 3.09425920e-01, 1.87840074e-01,
          1.48287103e-01, 4.00000006e-01, 4.00000006e-01, 3.50518197e-01,
          1.88979551e-01, 2.81220168e-01, 2.39458799e-01, 2.03459561e-01,
          4.00000006e-01, 3.38591248e-01, 3.11220527e-01, 1.89301759e-01,
          2.00604349e-01, 2.32525438e-01, 2.53352046e-01, 3.02734911e-01,
          4.00000006e-01, 2.99163818e-01, 2.59579509e-01, 2.25628302e-01,
          8.62390846e-02, 1.27481341e-01, 3.76339793e-01, 4.00000006e-01,
          4.00000006e-01, 2.75804937e-01, 3.05144787e-01, 3.98806691e-01,
          3.03368151e-01, 1.84408069e-01, 3.98436010e-01, 4.00000006e-01,
          4.00000006e-01, 4.00000006e-01, 4.00000006e-01, 4.00000006e-01,
          3.10761750e-01, 1.82372779e-01, 4.00000006e-01, 4.00000006e-01,
          4.00000006e-01, 4.00000006e-01, 4.00000006e-01, 4.00000006e-01,
          4.00000006e-01, 2.34995455e-01, 4.00000006e-01, 4.00000006e-01,
          4.00000006e-01, 7.76710957e-02, 7.33858123e-02, 6.33818507e-02,
          3.59760113e-02, 2.21815899e-01, 3.09902012e-01, 6.49727508e-02,
          8.38568658e-02, 1.99740499e-01, 3.68058920e-01, 4.00000006e-01,
          1.40052512e-01, 1.99040473e-01, 2.24097729e-01, 5.28713353e-02,
          3.99017856e-02, 4.00000006e-01, 4.00000006e-01, 3.75834465e-01,
          1.68819457e-01, 1.54581830e-01, 1.28475368e-01, 1.16890050e-01,
          1.32468700e-01, 4.00000006e-01, 3.47503126e-01, 1.43466249e-01,
          5.49146459e-02, 2.73054779e-01, 2.34331101e-01, 3.85945261e-01,
          3.02018553e-01, 3.16967785e-01, 2.49863163e-01, 1.01896776e-02,
          1.83742158e-02, 6.62530586e-02, 8.24704915e-02, 2.05453739e-01,
          1.29312232e-01, 1.84699833e-01, 1.21959858e-01, 2.18843400e-01,
          0., 6.66368753e-03, 1.50358425e-02, 0., 0., 4.67879772e-02,
          3.34132612e-01, 3.22863221e-01, 0., 0., 0., 0., 1.74135640e-02,
          1.89691782e-01, 3.47013995e-02, 4.02622223e-02, 0., 0.,
          6.37278110e-02, 2.35109124e-02, 7.85617996e-03, 2.46191025e-01,
          1.97654426e-01, 1.36792958e-01, 8.16311538e-02, 1.27234533e-01,
          2.08284050e-01, 2.65338659e-01, 4.00000006e-01, 3.88721019e-01,
          3.01586270e-01, 4.00000006e-01, 2.50265837e-01, 1.31409615e-01,
          2.14009076e-01, 2.27663249e-01, 1.73171878e-01, 3.43075871e-01,
          3.81932110e-01, 2.89259732e-01, 1.81200042e-01, 2.31076464e-01,
          3.40516210e-01, 3.36864144e-01, 9.58118364e-02, 4.00000006e-01,
          2.91260749e-01, 1.88887656e-01, 2.82534182e-01, 4.00000006e-01,
          4.00000006e-01, 4.00000006e-01, 3.36304218e-01, 2.70887166e-01,
          2.47349232e-01, 2.25605428e-01, 2.80544311e-01, 3.57420325e-01,
          3.07842791e-01, 4.00000006e-01, 4.00000006e-01, 1.54611275e-01,
          3.04835111e-01, 3.26701492e-01, 3.69364351e-01, 2.97036946e-01,
          3.28855842e-01, 3.48541588e-01, 3.23666036e-01, 4.00000006e-01,
          2.33232066e-01, 2.20742911e-01, 1.86756849e-01, 1.49850592e-01,
          3.23240280e-01, 3.52253765e-01, 2.21463174e-01, 4.00000006e-01,
          3.11159372e-01, 2.29506701e-01, 2.19250679e-01, 1.38141096e-01,
          3.73993516e-01, 2.60218114e-01, 2.04268157e-01, 4.00000006e-01,
          3.92388344e-01, 3.05945724e-01, 2.95586914e-01, 1.22077830e-01,
          1.98766351e-01, 9.99018252e-02, 1.26551807e-01, 4.00000006e-01,
          4.00000006e-01, 2.38622203e-01, 1.47175804e-01, 1.13979369e-01,
          1.31949589e-01, 1.79430977e-01, 6.85193837e-02, 2.26058990e-01,
          3.38804841e-01, 2.61929810e-01, 1.43670917e-01, 1.55394524e-01,
          2.37404317e-01, 2.27406383e-01, 5.48309870e-02, 4.00000006e-01,
          2.71059066e-01, 1.60399914e-01, 1.49020314e-01, 2.48897880e-01,
          2.74277866e-01, 2.80024618e-01, 7.02804103e-02, 3.14731479e-01,
          2.03893527e-01, 1.29584819e-01, 3.62989783e-01, 3.43040884e-01,
          1.58286303e-01, 5.20524606e-02, 3.73891033e-02, 6.74148798e-02,
          7.70434588e-02, 5.44199459e-02, 2.13688552e-01, 7.48998448e-02,
          1.66761186e-02, 0., 0., 4.26290408e-02, 2.61790603e-02,
          6.47842605e-03, 0., 0., 5.97452149e-02, 7.18761235e-02,
