<?xml version="1.0"?>
<opencv_storage>
<hogsvm_80_16 type_id="opencv-object-detector-hog">
  <winSize>
    80 80</winSize>
  <blockSize>
    16 16</blockSize>
  <blockStride>
    8 8</blockStride>
  <cellSize>
    8 8</cellSize>
  <nbins>9</nbins>
  <derivAperture>1</derivAperture>
  <winSigma>4.</winSigma>
  <histogramNormType>0</histogramNormType>
  <L2HysThreshold>2.0000000000000001e-01</L2HysThreshold>
  <gammaCorrection>1</gammaCorrection>
  <nlevels>64</nlevels>
  <signedGradient>0</signedGradient>
  <SVMDetector>
    -8.76703765e-03 -1.59001891e-02 -1.57509986e-02 -3.89794335e-02
    3.42825390e-02 -1.83894299e-02 -1.97364446e-02 -1.58685558e-02
    -1.19416555e-02 8.72990489e-03 -9.70706530e-03 -8.95472709e-03
    9.08958027e-04 3.89410951e-03 1.79381517e-04 -1.28608234e-02
    -1.30102197e-02 1.13113481e-03 2.12686928e-03 -4.62381588e-03
    -3.80903459e-03 -5.16028982e-03 1.18262609e-02 -9.56939708e-04
    9.70964972e-03 5.75950509e-03 5.72873699e-03 -2.40881485e-03
    -1.51318908e-02 1.42603973e-03 1.74171813e-02 -4.57707699e-03
    1.36147263e-02 1.65599640e-02 6.33421028e-03 -4.73823777e-04
    -2.83389026e-03 5.65534225e-03 -8.22213711e-04 -1.59222428e-02
    -3.51996953e-03 -2.07394343e-02 -1.93536300e-02 -6.98004290e-03
    -8.36457405e-03 6.17000333e-04 -5.41808782e-03 -1.02964938e-02
    -8.93525966e-03 -5.36903227e-03 -4.85446630e-03 -6.33463776e-03
    -2.95706210e-03 -2.16723047e-02 1.66842679e-03 -5.84873138e-04
    -9.29337367e-03 -8.51715449e-03 -2.49562931e-04 -7.27091311e-03
    -4.30459017e-03 1.21391127e-02 2.62612570e-03 6.82555931e-03
    -7.24455575e-03 -1.64894550e-03 -5.66440262e-03 -3.28837917e-03
    -5.05751511e-03 5.62043115e-03 1.31567847e-02 -4.31409106e-03
    7.04200566e-03 -9.93218832e-03 -9.12395120e-03 -8.93550087e-03
    -4.10778169e-03 -1.28966635e-02 -8.50833301e-03 -4.58023883e-03
    -3.21163982e-03 3.15429224e-03 -4.32563340e-03 7.95551669e-03
    -1.49153173e-02 1.73565571e-03 -1.65339131e-02 -1.42949205e-02
    6.49989757e-04 5.48512721e-03 1.06621895e-03 -1.44453477e-02
    1.17335450e-02 -1.53790470e-02 -4.07529669e-03 9.11853369e-03
    -8.59482307e-03 1.27043957e-02 1.93240494e-02 -1.75313335e-02
    2.38203886e-03 1.16066858e-02 3.34815891e-03 1.27426609e-02
    1.20673524e-02 -5.52454311e-03 1.74826980e-02 3.44914431e-03
    3.91658582e-03 -6.83142524e-03 -1.03655737e-02 -5.35601238e-03
    -1.13964928e-02 -3.95923527e-03 2.63964036e-03 6.00084616e-03
    7.01095304e-03 -3.23639950e-03 -1.66581906e-02 -9.52886231e-03
    -9.54472646e-03 -1.07755410e-02 -1.00789452e-02 3.96594079e-03
    4.17980459e-03 4.71061375e-03 2.37059835e-02 4.19560447e-03
    2.93590943e-03 -2.43261317e-03 -1.35796582e-02 -8.97322781e-03
    1.23520475e-02 6.86875777e-03 2.07635444e-02 4.90129739e-03
    -8.75262637e-03 -1.86249916e-03 -2.78016925e-03 1.64428875e-02
    -1.97542273e-02 -1.75702255e-02 -5.11038117e-03 8.11031647e-03
    -1.91736908e-03 -2.53364304e-03 1.94183609e-03 6.26912341e-03
    1.00244279e-03 1.41359810e-02 1.88519619e-02 1.26650203e-02
    1.35384155e-02 -1.29700955e-02 -1.89879164e-02 -5.50969178e-03
    -4.34099929e-03 -3.34211742e-03 -2.95993150e-03 5.28190797e-03
    1.10506779e-02 -1.45553444e-02 -7.04917312e-03 4.38573305e-03
    4.17185249e-03 1.30993081e-02 -6.59314264e-03 2.42213253e-03
    -8.04625824e-03 2.36835405e-02 1.79973524e-02 -6.78111566e-03
    -1.60893034e-02 -1.65806357e-02 -2.38097496e-02 -1.57908872e-02
    -2.41788593e-03 -3.80390207e-03 3.37246549e-03 1.06226448e-02
    -1.03648929e-02 6.60648337e-04 2.36086198e-03 9.70702060e-03
    1.70683656e-02 -6.13177149e-03 -1.50804734e-02 1.93081461e-02
    -5.09561738e-03 -2.53347661e-02 -8.68019927e-03 -5.70755871e-03
    8.06802791e-03 -4.75687906e-03 -1.81233753e-02 -2.67977901e-02
    1.01000629e-03 -1.73543841e-02 7.92712159e-03 1.51718110e-02
    4.49433457e-03 1.47565538e-02 1.07297488e-02 5.25667006e-03
    -1.24172755e-02 2.96632294e-02 2.87411436e-02 -2.09783558e-02
    -5.00524743e-03 -1.26168309e-02 1.17922093e-04 -2.08427962e-02
    3.38360271e-03 -6.84819557e-03 1.25168981e-02 -5.69315255e-03
    3.92488251e-03 -1.80694519e-03 4.93384851e-03 1.81092706e-04
    8.15795548e-03 -3.29763419e-03 -6.07789727e-03 6.05967687e-03
    -8.88502749e-04 -1.32668894e-02 -1.53871840e-02 -9.92010534e-03
    5.90558210e-03 -4.12737764e-03 -9.73102171e-03 -1.23550622e-02
    -7.85972551e-03 -1.18082911e-02 2.13976186e-02 1.25462497e-02
    -6.05762191e-03 8.43404606e-03 9.21461917e-03 2.51025762e-02
    1.65921226e-02 3.18180360e-02 8.09208211e-03 -8.88619281e-04
    -6.57917419e-03 -1.55949611e-02 -2.09977874e-03 -9.16609168e-03
    -1.37352180e-02 -5.70605136e-03 6.08577859e-03 -6.63895486e-03
    -4.35197121e-03 -8.46001226e-03 -3.23504163e-03 -1.53084910e-02
    8.89529940e-03 -5.35099208e-03 -4.37148856e-06 1.04681598e-02
    -1.28916756e-04 -1.45305935e-02 1.85968424e-03 -4.28828644e-03
    -7.84856640e-03 8.18729866e-03 -1.70036661e-03 -1.49655640e-02
    -1.23730013e-02 -1.23776048e-02 2.35623922e-02 9.80407558e-03
    -5.68839069e-03 2.08764058e-03 -6.75761700e-03 3.66115547e-03
    2.67005749e-02 2.47500613e-02 1.88125391e-02 -7.33406516e-03
    6.38892734e-03 -6.00906648e-03 -5.99389756e-03 -4.29237913e-03
    -1.42051536e-03 -2.97686765e-05 9.55650955e-03 1.95098249e-03
    -7.18888734e-03 -2.28943792e-03 2.87366053e-03 3.27986968e-03
    2.19141301e-02 -8.94903112e-03 -3.85658955e-03 9.65758692e-03
    4.90302825e-03 -6.87408354e-03 -1.84019376e-02 -8.21650669e-04
    -1.24696353e-02 -5.35324542e-03 2.73778802e-03 4.77420073e-03
    -3.97208519e-03 1.18719926e-03 1.66486446e-02 -7.41247786e-03
    -5.53839561e-03 -3.44454427e-03 1.95560288e-02 3.72252380e-03
    1.61712784e-02 3.12538072e-02 2.45810896e-02 8.18223786e-03
    -1.08175520e-02 7.37594347e-03 1.59456432e-02 8.16536788e-03
    9.02852323e-03 -2.39586877e-03 1.02319242e-02 8.56577046e-03
    -1.54460538e-02 -9.42523777e-03 -1.17969802e-02 -1.75872142e-03
    8.86122417e-03 1.32132159e-03 1.63765601e-03 5.92089782e-04
    -1.29486388e-02 -6.25115540e-03 -1.38782822e-02 -1.59942806e-02
    9.87292361e-03 -1.36644738e-02 1.74034983e-02 -1.30002829e-03
    -7.42961792e-03 -2.04787869e-03 4.04512789e-03 -1.00816898e-02
    -1.62452571e-02 -1.75671354e-02 -1.39008127e-02 1.26540428e-03
    -7.09483773e-03 2.05063503e-02 1.14604812e-02 8.17911699e-03
    -1.79851335e-02 -2.84181582e-03 -8.18407163e-03 -5.33374911e-03
    1.30874664e-02 -8.95081647e-03 9.49034374e-03 1.01262918e-02
    -8.71618465e-03 -6.41443906e-03 -1.04881413e-02 -1.32733239e-02
    1.00077586e-02 -4.29333979e-03 -7.45583093e-03 -5.81497699e-03
    -7.65431300e-03 -9.52100847e-03 -5.96320117e-03 5.64236334e-03
    -9.49000753e-03 -9.09086782e-03 1.02850078e-02 -6.77359616e-03
    5.48614515e-03 -3.80228949e-03 -8.75179004e-03 -1.40061928e-02
    -9.24894307e-03 -2.78600175e-02 8.41186196e-03 -9.52477381e-03
    -8.83507729e-03 1.02043319e-02 8.23812373e-03 -4.73258412e-03
    7.15145562e-03 1.27110137e-02 -5.22477832e-03 -6.03201799e-03
    8.13906081e-03 1.09334914e-02 1.91904958e-02 1.16809383e-02
    -9.53952223e-03 -6.54096156e-03 -6.62901578e-03 -1.26407817e-02
    -9.01504979e-03 5.03488118e-03 -1.27665810e-02 1.03632826e-02
    4.78478614e-03 -2.18548924e-02 -9.60184354e-03 -4.53750836e-03
    1.99413090e-03 2.77300249e-03 -2.25910524e-04 -1.63899418e-02
    2.54701776e-03 -9.96384677e-03 6.31718151e-03 -5.84307942e-04
    -4.22261981e-03 -1.04142411e-03 -1.35923969e-02 -1.29415793e-02
    -6.76217955e-03 2.45755892e-02 1.27240364e-02 -3.41778994e-03
    2.76253070e-03 -1.81862339e-02 -1.91708468e-02 6.99312240e-03
    -7.34768016e-03 -3.36120501e-02 1.86132044e-02 8.61754641e-03
    1.66932133e-03 1.99740450e-03 2.52817292e-03 7.66828889e-03
    2.30063032e-03 -3.81917902e-03 2.69242353e-03 4.49317275e-03
    3.34658776e-03 -1.78900734e-02 -6.49336772e-03 -1.88895036e-03
    2.65362882e-03 1.28429732e-03 -2.54286435e-02 -6.71357196e-03
    -6.64265687e-03 -1.14634577e-02 4.00675228e-03 5.55176800e-03
    -1.27690367e-03 -3.86301125e-03 -6.82431180e-03 1.30617409e-03
    -5.99705474e-03 1.25742592e-02 2.72834785e-02 -4.03706077e-03
    -1.76417176e-02 -1.83075145e-02 -3.10337339e-02 7.87130557e-03
    -1.56426243e-02 8.34484957e-03 1.24861179e-02 -9.44458821e-04
    -1.29287941e-02 3.62503622e-03 1.03664938e-02 1.39012830e-02
    -9.16170701e-03 -1.35352779e-02 -8.58242344e-03 5.46604686e-04
    1.56223392e-02 -3.56624206e-03 -2.19746120e-02 -9.39054321e-03
    -1.49428751e-02 -5.60789648e-03 1.54774403e-03 -1.61764608e-03
    -8.40564258e-03 -6.85862824e-03 9.95041989e-03 1.14808865e-02
    6.58015022e-03 2.42448907e-04 -7.75424589e-04 3.93885328e-03
    1.69734210e-02 1.73752848e-02 7.25894701e-03 -1.64142158e-02
    -1.71183180e-02 4.59268270e-03 -7.71746458e-03 5.16000064e-03
    -6.11489220e-03 9.04518273e-03 3.71608394e-03 5.90621858e-05
    1.58186108e-02 -8.33979459e-04 1.02869393e-02 1.31795406e-02
    1.52052371e-02 7.59599265e-03 1.33977914e-02 7.93932285e-03
    5.57662081e-03 -7.48948660e-03 -1.60333968e-03 -8.34965054e-03
    1.29075535e-02 2.45582568e-03 8.99442751e-03 -2.17604334e-03
    5.86573686e-03 -6.56238478e-03 1.61381774e-02 1.61926709e-02
    2.68563312e-02 1.14746112e-02 1.35733429e-02 -1.55685712e-02
    5.65441325e-03 1.89730581e-02 4.62437235e-03 -1.70810986e-02
    -2.00963598e-02 -1.41864794e-03 -1.34505308e-03 4.29396098e-03
    -3.63077107e-03 -6.65203668e-03 9.30329878e-03 -1.42163225e-02
    6.49611373e-03 -2.81240162e-03 -1.52324233e-03 6.18150691e-03
    -8.74869176e-04 7.84186833e-03 7.88968464e-04 9.65352636e-03
    -1.04798069e-02 -1.28610805e-02 -4.47814073e-03 6.35142764e-03
    -4.37151222e-03 -2.34433333e-03 -2.21793093e-02 -6.76135393e-03
    -9.43118148e-03 -2.87087336e-02 2.24069208e-02 -8.89826973e-04
    1.32929313e-03 -2.93461489e-04 -3.99914384e-03 8.01022258e-03
    -4.06215014e-03 2.11194064e-02 9.96900909e-03 1.15713388e-04
    -1.55093707e-02 -1.06429523e-02 -6.59834174e-03 6.77576615e-03
    -9.59039014e-03 -1.61891263e-02 1.29004922e-02 -2.10728543e-03
    3.90674919e-03 -4.80605010e-03 -5.10319369e-03 2.97090248e-03
    5.48434164e-03 1.46220182e-03 8.96716770e-03 4.29577520e-03
    -4.21619974e-03 -9.56205372e-03 -1.14734995e-03 4.41253651e-03
    1.02220774e-02 -1.87824504e-03 -1.00390557e-02 -2.06867252e-02
    -1.12706609e-02 -1.86810829e-02 2.12832564e-03 -7.35247834e-03
    -2.55488306e-02 -9.03794728e-03 -1.20237900e-03 5.57800289e-03
    -3.44870350e-04 2.70740129e-02 4.87451814e-03 3.83029832e-03
    -1.11411959e-02 -2.78559397e-03 -9.36352555e-03 -7.19484000e-04
    -1.55178104e-02 -1.37452940e-02 1.42548494e-02 1.42194668e-03
    5.16442675e-03 -1.00167678e-03 3.73343960e-03 4.64012334e-03
    8.96795467e-03 1.50325587e-02 9.09550115e-03 1.41210677e-02
    -6.09717052e-03 -7.92707596e-03 -5.38730295e-03 1.03552360e-03
    1.00583723e-02 4.97391168e-03 1.02115590e-02 -9.37994011e-03
    -5.18874172e-03 -1.25418250e-02 4.36345162e-03 -1.06813600e-02
    1.65388454e-03 6.49104919e-03 2.71688611e-03 6.22100779e-04
    8.27241503e-03 1.97333619e-02 1.53852236e-02 1.33159978e-04
    1.83219532e-03 -1.79224983e-02 -1.03861978e-02 -4.99336468e-03
    1.54297100e-02 -1.61851756e-03 1.70863848e-02 1.93018224e-02
    -1.24250557e-02 -1.78626888e-02 -3.05760093e-03 6.10264903e-03
    -5.86552266e-03 -1.25381481e-02 -1.22503014e-02 2.06180778e-03
    4.37253068e-04 8.54114629e-03 -9.56149958e-03 7.05283973e-03
    1.50756259e-02 -5.87222213e-03 1.45534165e-02 2.64030113e-03
    5.11175487e-03 1.69241466e-02 -2.50602644e-02 -1.48899350e-02
    -8.46655574e-03 -4.74631134e-03 3.61587177e-03 1.19619560e-03
    -3.77084990e-03 1.58055350e-02 -1.29199892e-04 -4.10044007e-03
    -1.15231713e-02 -9.90487821e-03 1.10043203e-02 -1.25785368e-02
    1.22683821e-02 7.10045267e-03 7.02352962e-03 6.61020726e-03
    -6.13728631e-03 -1.38568887e-02 -3.05671315e-03 1.96348806e-03
    1.94044895e-02 -1.20501709e-03 -7.91099947e-03 -5.65408031e-03
    -1.51632912e-03 -1.34146679e-02 -8.28479882e-03 5.14394231e-03
    7.40053412e-03 9.01240215e-04 1.78602356e-02 1.51476767e-02
    7.87244178e-03 5.13981236e-03 1.61643967e-03 -1.84015930e-02
    -6.24962710e-03 -1.73401069e-02 -1.44469365e-02 -9.51331295e-03
    -1.56182097e-02 -3.03328969e-03 8.83174501e-03 2.76886625e-04
    -1.19430246e-02 -1.38705794e-03 -1.18483175e-02 -9.85273975e-04
    3.66128678e-03 -1.46566117e-02 4.01646597e-04 1.05040558e-02
    -1.05273845e-02 4.86231875e-03 1.19725848e-02 5.71209705e-03
    6.67929184e-03 1.83519791e-03 -7.68670160e-03 1.15884515e-02
    5.07962378e-03 -1.05065694e-02 -7.59607600e-03 -1.57137588e-02
    -7.53875030e-03 8.96032900e-03 -5.87286951e-04 -1.91338286e-02
    1.69319753e-02 -7.79642537e-03 9.80071072e-03 -5.62917860e-03
    -1.07195983e-02 -6.60276785e-03 -1.69520266e-02 -2.01922860e-02
    -8.71740934e-03 7.34566804e-03 1.06712906e-02 5.32713393e-03
    -3.42091150e-03 -1.71605889e-02 -9.06050578e-03 1.02722635e-02
    -1.12943370e-02 -1.94526799e-02 1.57166496e-02 1.34489592e-02
    -1.99513398e-02 -1.54793917e-04 6.26567984e-03 6.03559939e-03
    -2.64590536e-03 1.60687361e-02 -1.40469763e-02 1.05868513e-02
    6.90824119e-03 -3.65004898e-03 -2.22720392e-03 -6.89751701e-04
    -1.99152110e-03 2.98307044e-03 4.07750020e-04 -6.48018671e-03
    1.18053530e-03 -1.46914339e-02 6.79364428e-03 1.23271942e-02
    -2.85960687e-03 7.95685966e-03 -4.49206401e-03 1.75936334e-02
    -1.01405941e-02 4.69828723e-03 -2.46591750e-03 7.39844108e-05
    5.47263958e-03 -4.91224229e-03 -2.54774690e-02 6.48872973e-03
    6.66721445e-03 -1.78453475e-02 7.52459746e-03 1.29902270e-03
    4.37504938e-03 9.71830264e-03 7.48877460e-03 -6.07437873e-03
    -8.75323173e-03 1.15622208e-03 1.42757175e-02 1.79009594e-03
    2.00410327e-03 -6.04383741e-03 -2.05441145e-03 -4.63867880e-04
    -5.52389165e-03 -1.41665209e-02 -6.88872160e-03 -9.39146988e-03
    -1.52486307e-03 -8.98088329e-03 1.75244198e-03 1.72460638e-02
    -3.44541436e-03 -2.62243417e-03 -7.70079764e-03 1.00575192e-02
    6.61260914e-03 1.46596329e-02 1.01294145e-02 4.16751066e-03
    -5.60167292e-03 -2.02477276e-02 -7.59001216e-03 1.27648760e-03
    -7.56388810e-03 -4.55741631e-03 5.43010840e-03 -1.17463421e-03
    5.69843082e-03 2.70491932e-03 -1.63784449e-03 -5.44825848e-03
    4.71121911e-03 3.85469222e-03 6.11672923e-03 1.15328357e-02
    -2.59410357e-03 -1.02762850e-02 7.33047091e-06 -1.47084175e-02
    -1.88288819e-02 -1.65278371e-02 -5.77262137e-03 -3.82996397e-03
    6.30165508e-04 -1.12365158e-02 5.72992582e-03 2.26196833e-02
    -1.01479543e-02 5.96508756e-03 8.79600353e-04 1.06332647e-02
    1.63636787e-03 3.20748277e-02 -9.92682530e-04 -1.18339416e-02
    -7.67385960e-03 -6.73874049e-03 1.02620246e-02 4.37913509e-03
    8.17439985e-04 -1.15665002e-02 1.14806648e-02 -1.17902029e-02
    1.62271559e-02 1.70780960e-02 4.94867610e-03 -6.45529246e-03
    5.44963172e-03 4.69601946e-03 -3.80275818e-03 4.14357567e-03
    -6.31035306e-03 -1.12031512e-02 1.46104274e-02 -4.22879914e-03
    -4.11973801e-03 -6.62841415e-03 -2.63355616e-02 -1.09880706e-02
    -2.01208331e-03 -5.54313743e-03 -8.51166609e-04 1.28248213e-02
    1.04249571e-03 2.13063159e-03 -9.07224882e-03 -3.32619878e-03
    1.74771287e-02 2.38581952e-02 5.27712796e-03 -8.69349577e-03
    -1.82794780e-02 -1.51575590e-02 5.74276410e-03 -6.00635121e-03
    -1.96171608e-02 8.72138247e-04 6.28676778e-03 -1.13868536e-02
    2.26947537e-04 1.26504190e-02 9.72653215e-05 1.55820344e-02
    -1.38199655e-03 8.15040711e-03 6.14639232e-03 4.87730559e-03
    -5.38944686e-03 -7.26656336e-03 8.39112676e-04 -4.15480137e-03
    3.78590543e-03 -1.36121679e-02 3.84691544e-03 1.71842752e-03
    8.00612848e-03 -7.89976562e-04 1.23198992e-02 -2.58613541e-03
    1.66537182e-03 -3.83059669e-04 1.18578421e-02 3.39758280e-03
    7.19873980e-03 1.51202912e-02 9.53442696e-03 1.87769590e-03
    -1.20542906e-02 -1.25257764e-02 1.39631599e-03 6.13706652e-03
    -3.40969348e-03 -1.45917591e-02 1.09817274e-03 -5.78057906e-03
    9.60254483e-03 6.88026752e-03 1.87813640e-02 3.94952390e-03
    -4.93901595e-03 -4.68012830e-03 2.26124711e-02 1.81338079e-02
    1.04194200e-02 -8.51718243e-03 -1.14986561e-02 -4.78278380e-03
    -9.38093383e-03 5.40155731e-03 9.20179207e-03 -4.43713088e-03
    -1.06641359e-03 3.98378260e-03 -3.64589505e-05 -1.23816764e-03
    9.51625500e-03 5.65207610e-03 4.47233178e-04 -7.15511292e-03
    -1.43581419e-03 -6.70300610e-03 -6.41056709e-03 7.68120773e-03
    -1.77735146e-02 1.70916119e-05 -5.72616979e-03 2.49966606e-03
    1.57981049e-02 -7.60447932e-03 -1.70820020e-02 1.09255565e-02
    -1.29269129e-02 9.82784783e-04 -7.68060051e-03 9.66767035e-03
    -3.89685883e-04 1.01975864e-02 -1.18787605e-02 2.25412566e-02
    4.06800071e-03 -1.45193795e-02 8.24675150e-03 -9.21312603e-05
    8.64760764e-03 6.78274781e-03 2.31194776e-02 -1.20277759e-02
    1.06969364e-02 1.15853762e-02 -4.21166187e-03 -5.15536033e-03
    -1.88018270e-02 -1.13835679e-02 -3.43926530e-03 -2.48810067e-03
    -1.66359991e-02 1.40295345e-02 8.70351400e-03 -5.47057344e-03
    -2.12897826e-03 -2.21097916e-02 4.54369187e-03 -1.12523902e-02
    2.99074128e-02 -1.58811901e-02 1.54065378e-02 9.55712702e-03
    -1.54129835e-02 8.93766340e-03 2.11754851e-02 5.97012974e-03
    1.09873617e-04 -1.16306180e-02 -1.95379891e-02 3.35738109e-03
    3.14436923e-03 4.14230954e-03 1.21505549e-02 7.87338987e-03
    5.72681101e-03 6.23106072e-03 2.00798418e-02 -7.06475868e-04
    2.13403217e-02 1.04108248e-02 -1.76023394e-02 -9.29090846e-03
    -7.90861621e-03 -9.25956760e-03 9.42718796e-03 -1.65462040e-03
    -1.51508218e-02 6.29449869e-03 4.87595750e-03 -3.11876554e-02
    -1.26981772e-02 -1.54976370e-02 1.39772873e-02 5.54274954e-03
    1.90206505e-02 3.96079104e-03 2.36920565e-02 -7.90558662e-03
    3.63145676e-03 3.23234504e-04 8.16894136e-03 1.00784134e-02
    9.62142739e-03 5.17926831e-03 3.67119574e-05 9.44301486e-03
    8.91595148e-03 1.03887245e-02 5.36699733e-03 1.72386169e-02
    9.60932672e-03 -2.29819538e-03 1.82376592e-03 4.61562304e-03
    1.38555532e-02 1.48699293e-02 -9.65310447e-03 -1.43247144e-02
    -1.03224320e-02 1.61537025e-02 -1.32882213e-02 9.11814277e-04
    1.49359927e-02 2.55171675e-02 -5.89238247e-03 -1.54000977e-02
    -8.07110872e-03 -1.51454974e-02 7.38155749e-03 8.70562810e-03
    -3.69179039e-03 2.33903364e-03 3.90437292e-03 -6.13682903e-03
    9.75989830e-03 1.70612764e-02 1.74215734e-02 -8.25322047e-03
    -7.52898213e-03 2.28658114e-02 1.08733121e-02 4.27104067e-03
    6.50898961e-04 -4.88767168e-04 2.20253458e-03 1.44107668e-02
    -6.93096546e-03 1.52634811e-02 -1.36651658e-03 -1.39694347e-03
    1.64383044e-03 8.72961059e-03 -1.83182359e-02 1.18074305e-02
    -1.41737622e-03 -8.76874756e-03 -1.80393504e-03 7.47191533e-03
    2.39346828e-02 1.67620182e-02 4.52310592e-03 -2.44241729e-02
    1.04629155e-03 -5.14562009e-03 -1.69587657e-02 5.52484719e-03
    -1.34005072e-02 -1.46802247e-03 5.17870649e-04 3.74628138e-03
    -7.96736509e-04 2.68300883e-02 1.80554427e-02 -2.52886023e-03
    -1.07454089e-03 -2.99639301e-03 -3.11393560e-05 -2.75029265e-03
    -2.97873490e-03 -8.47621355e-03 1.90101657e-03 -4.02967259e-03
    -4.78803553e-03 -7.24390033e-04 -2.31660879e-03 -6.30398374e-03
    -1.00917928e-02 -1.59056988e-02 8.17400869e-03 1.24176415e-02
    -1.06971199e-03 -4.70074872e-03 -4.33953060e-03 -1.80621799e-02
    1.01275193e-02 8.59597977e-03 7.76349427e-03 1.18930591e-04
    -1.63505655e-02 -6.02153037e-03 -9.04624444e-03 5.03272796e-03
    1.82086322e-02 1.59080583e-03 2.17867061e-03 -2.09107623e-03
    8.30450933e-03 2.16492191e-02 -3.80349287e-04 -3.02081509e-03
    -8.37491732e-03 2.73426384e-04 -6.13189861e-03 1.15282880e-02
    -6.00363920e-03 6.04303367e-03 2.57973783e-02 -2.75386730e-04
    1.04721030e-02 -2.29586079e-03 -9.65488702e-03 -8.16230010e-03
    2.23055314e-02 6.28131349e-03 -6.58263266e-03 2.39425134e-02
    7.59034697e-03 -7.02654431e-03 -5.63184870e-03 5.33516565e-03
    -3.01248371e-03 1.04905283e-02 -1.48698334e-02 3.76123557e-04
    -7.46111479e-03 6.36724930e-04 3.39868129e-03 -8.79932754e-03
    -1.44692755e-03 -1.29279005e-03 1.85548738e-02 -1.74172353e-02
    9.51214973e-03 1.44308181e-02 -8.67123716e-03 -1.20845474e-02
    -9.34692938e-03 1.51502469e-03 3.46237747e-03 1.94723327e-02
    9.45965853e-03 1.07802998e-03 6.65275054e-03 -7.68302660e-03
    2.14445777e-03 -1.22687714e-02 -1.62991546e-02 -5.22331940e-03
    1.05816964e-03 -3.54605610e-03 3.04824999e-03 -1.69822457e-03
    -1.46547658e-02 -1.30777349e-04 -2.10501603e-03 1.16224103e-02
    -7.48076756e-03 1.10968780e-02 6.77400315e-03 6.94082875e-04
    -6.69118622e-03 -1.19550782e-03 -1.32950507e-02 -3.52389598e-03
    -5.13194036e-03 -6.02177484e-03 -8.97002872e-03 -1.70340016e-02
    -6.51461910e-03 4.43655159e-03 4.93022660e-03 -8.99234414e-03
    -1.02112247e-02 -1.08853830e-02 4.57902951e-03 1.32993124e-02
    3.06396210e-03 -5.36628440e-03 3.62963625e-03 -1.32853463e-02
    -1.54843377e-02 -1.66941080e-02 -7.38613820e-03 -1.30040450e-02
    -1.26366783e-03 -1.13217179e-02 1.22266607e-02 1.09024793e-02
    -3.96615069e-04 -3.88251222e-03 -3.59548489e-03 2.38378830e-02
    2.20660158e-02 -2.70106466e-06 -7.27609877e-05 -1.07697882e-02
    2.87616020e-03 -1.90108195e-02 -1.16665219e-03 -1.78283360e-02
    3.69970570e-04 1.96795887e-03 -9.56432801e-03 -2.38694530e-02
    3.94504936e-03 1.53789176e-02 2.39462801e-03 -1.95570290e-03
    -1.95164271e-02 -2.38451269e-03 -7.93488417e-03 -8.67207441e-03
    -8.01848620e-03 -6.83083525e-03 -8.89130309e-03 -5.35365753e-03
    -1.87534075e-02 -1.01958029e-02 6.08995557e-03 -6.60601025e-03
    -7.17887096e-03 3.02452384e-03 1.17823211e-02 2.80538686e-02
    5.05050784e-03 -1.30480516e-03 -1.04981521e-02 1.30970068e-02
    1.28609473e-02 8.09973758e-03 -1.13417665e-02 -1.02713574e-02
    -2.37513497e-03 -1.29583627e-02 -1.13593740e-02 -7.12759234e-03
    1.45872934e-02 -8.82006157e-03 -8.59175809e-03 -8.18543788e-03
    -1.89520989e-03 1.12285176e-02 1.61933154e-02 7.81116216e-03
    1.40956696e-02 -6.86483551e-03 -2.09923051e-02 8.77776369e-03
    1.65555836e-03 8.43224674e-03 1.69922840e-02 1.91451069e-02
    1.62000991e-02 1.56922247e-02 1.60796922e-02 3.60909966e-03
    1.31385438e-02 1.40660908e-02 -9.68001597e-03 -8.79337837e-04
    -2.20320025e-03 3.49847460e-03 -4.90548136e-03 2.86207278e-03
    -1.60547085e-02 2.58726673e-03 7.02304998e-03 -2.54368540e-02
    -1.46598117e-02 -1.00592347e-02 -3.14365607e-04 -1.54894672e-03
    1.87519770e-02 -2.14043283e-03 -1.19659211e-03 -1.36799586e-03
    -2.83337594e-03 2.96548684e-03 2.20824350e-02 -1.64361205e-03
    -5.48519613e-03 -8.75756051e-03 -1.34212906e-02 8.60635564e-03
    1.53533695e-02 1.30171729e-02 3.67639493e-03 2.93307733e-02
    1.10936398e-03 1.91175751e-02 -4.46856301e-03 1.04030874e-02
    2.71318574e-02 2.92478595e-02 -1.11514488e-02 -3.86797288e-03
    9.19526536e-03 -2.11830419e-02 2.43845349e-03 -1.41188204e-02
    -2.41341796e-02 2.31005321e-03 1.63507499e-02 -3.27609549e-03
    -2.10749451e-03 1.01717087e-02 -4.09924379e-03 -9.65444837e-03
    -1.24239847e-02 -1.80930756e-02 1.25320377e-02 2.00401954e-02
    5.11437608e-03 6.05049543e-03 9.24525503e-03 1.85662918e-02
    4.74937959e-03 3.45617649e-04 3.07091931e-03 2.13727672e-02
    9.11767595e-03 1.93407703e-02 2.64320318e-02 2.37359833e-02
    1.12323239e-02 -3.02625401e-03 -9.11963452e-03 -7.92813674e-03
    1.79246366e-02 8.53660237e-03 -1.73527636e-02 -1.89517327e-02
    1.11843301e-02 7.77250156e-03 2.66088475e-03 7.88511895e-03
    -1.59774330e-02 4.82458947e-03 6.86785716e-05 -1.22579532e-02
    2.62955460e-03 -2.23618420e-03 -2.32727658e-02 1.59358559e-03
    -3.70476441e-03 1.02073317e-02 3.00774537e-02 -1.72559975e-03
    1.58668868e-02 2.62638684e-02 1.74031686e-02 1.37398299e-02
    -5.30676497e-03 5.74152498e-03 -3.21714231e-03 8.50952114e-04
    7.12450920e-03 8.26781150e-03 1.07175959e-02 4.63062245e-03
    4.58463514e-03 -4.05615428e-03 1.03818160e-02 -2.53018457e-03
    4.36320028e-04 -2.74621672e-03 -1.81539506e-02 1.30400490e-02
    4.85010818e-03 -2.96424050e-03 -5.56775834e-03 4.69434122e-03
    -3.47477663e-03 2.01135362e-03 -8.11704900e-03 -2.37455964e-02
    -1.21675059e-03 -1.15491226e-02 -1.37858959e-02 -1.76811907e-02
    9.00064968e-03 -1.62105702e-04 -1.13943694e-02 -1.05938576e-02
    1.80220194e-02 2.20516585e-02 2.41225958e-03 2.07535103e-02
    -4.14690963e-04 2.17526834e-02 1.06815919e-02 9.04415548e-03
    9.46835149e-03 -2.70496565e-03 -3.24913487e-03 -1.04022389e-02
    1.32882397e-03 6.69065630e-04 1.64755173e-02 4.37028892e-03
    -6.15613582e-03 -7.03348313e-03 -2.55474850e-04 -2.37394534e-02
    6.02664985e-03 -5.02831768e-03 -1.38155902e-02 -3.26507422e-03
    3.24766734e-03 -2.02309969e-03 -1.06385043e-02 -1.33156916e-02
    -9.32614785e-04 -3.37125268e-04 -1.50566399e-02 -1.85650233e-02
    -1.47102904e-02 -5.25483955e-03 -4.21962235e-03 3.33983311e-03
    -5.02029108e-03 2.73002665e-02 2.00805273e-02 -5.75355859e-03
    -4.16507386e-03 1.89339311e-03 3.59197799e-03 3.08555225e-03
    -1.29667753e-02 -4.65075299e-03 7.51972757e-03 7.33570615e-03
    1.91079394e-03 -4.59180446e-03 -1.47240935e-02 -5.92782767e-03
    -9.49754845e-03 -2.08026003e-02 -1.59965381e-02 2.84522902e-02
    3.38002434e-03 -5.82789443e-03 7.58762751e-03 -4.83422354e-03
    8.01831891e-04 1.58409476e-02 1.02679990e-02 -8.09398200e-03
    -1.27204263e-03 -6.77065039e-03 -7.41260732e-03 -6.26280811e-03
    -1.83128901e-02 -4.98150068e-04 4.00746794e-04 -1.30371535e-02
    -7.99803005e-04 9.08586476e-03 2.35321522e-02 4.42484813e-03
    1.55463256e-02 8.88068601e-03 -2.89577479e-03 -6.86365739e-03
    4.61076992e-03 -8.57751723e-03 4.75565408e-04 2.25622463e-03
    -1.33767421e-03 5.21346601e-03 7.63840368e-03 -1.26145419e-03
    -1.49696656e-02 -8.65009241e-03 3.03114322e-03 4.83576721e-03
    3.89683555e-04 1.16916059e-03 -5.18754171e-03 2.13409588e-02
    8.30918737e-03 2.51432811e-03 -7.02504884e-04 -4.44336748e-03
    1.02544324e-02 3.98182683e-03 -6.25405414e-03 -1.35660917e-02
    -1.50656104e-02 -4.20980295e-03 -8.84304754e-03 -1.05948383e-02
    1.24142570e-02 1.46998465e-02 5.70932543e-03 -6.84391707e-04
    1.34438416e-02 1.63067859e-02 2.12226855e-03 -1.31258117e-02
    -2.38604262e-03 8.24211631e-04 -1.01967854e-03 -1.55189773e-02
    -1.52562640e-03 -1.60105375e-03 1.79964937e-02 7.95786269e-03
    -2.96056434e-03 -5.87626686e-03 -4.72425629e-04 1.84274428e-02
    2.61538057e-03 5.75060304e-03 -1.16556985e-02 -6.47593057e-03
    -3.39194643e-03 -5.03580226e-03 1.91420212e-03 -1.78408902e-02
    -1.19777815e-02 -1.51012801e-02 9.83605813e-03 5.47990622e-03
    1.34343281e-02 -4.98681469e-03 8.74262210e-03 -5.09615988e-03
    5.06877853e-03 2.20238529e-02 -5.22335758e-03 -1.13253184e-02
    1.72939827e-03 1.63193159e-02 -5.46869310e-03 -9.51377954e-03
    -1.61578413e-02 1.38353754e-03 1.03458799e-02 -5.89048374e-04
    -1.13921324e-02 9.92913544e-03 1.12026809e-02 -7.60521553e-03
    -1.56436507e-02 -1.88789014e-02 6.77682739e-03 1.16909500e-02
    4.70895739e-03 -2.70055002e-03 7.99961481e-03 1.73338149e-02
    -3.90920602e-03 1.55869732e-02 -1.23711769e-02 1.23662278e-02
    9.85825527e-03 5.29498002e-03 -3.07148875e-04 -9.95418988e-03
    1.13434577e-02 4.23526857e-04 -2.83342251e-03 -1.59748476e-02
    -6.14593597e-03 -9.32682212e-03 -6.03846973e-03 9.13419388e-03
    -8.49831093e-04 3.15358466e-03 -7.60428282e-03 1.43505838e-02
    1.37375779e-02 -1.17231198e-02 -1.30090043e-02 1.66041255e-02
    2.51158397e-03 1.09456282e-03 1.52123366e-02 9.98598244e-03
    1.15236640e-02 2.18785796e-02 1.10727560e-03 -1.18634133e-02
    -2.53330544e-03 1.39521118e-02 1.73227326e-03 4.86197229e-03
    -2.27178726e-02 3.33172269e-03 2.60941032e-02 -2.47929879e-02
    -1.49806263e-02 1.85224991e-02 1.99159719e-02 -2.12046225e-03
    -7.56326085e-03 -2.48891674e-02 -6.38488447e-03 -8.69438611e-03
    6.97986514e-04 9.54559073e-03 2.88071833e-03 -2.37780660e-02
    -8.48759897e-03 7.94278085e-03 -1.36983721e-03 5.78091620e-03
    1.38025610e-02 -2.22385563e-02 -2.73284246e-03 1.15808370e-02
    7.90007040e-03 4.03151568e-03 -4.70334571e-03 6.22113422e-03
    6.97718887e-03 1.40401078e-02 -1.31068565e-02 -4.69442364e-03
    9.30134207e-03 -9.70193557e-03 -7.68652558e-03 -5.38915722e-03
    -1.77281201e-02 -2.62327422e-03 9.36536584e-03 -6.89494470e-03
    -8.71786568e-03 -9.97432694e-03 2.96995207e-03 -2.68200189e-02
    1.60402409e-03 6.60424633e-03 -2.25517200e-03 5.36254374e-03
    -7.43823126e-03 1.43643690e-03 2.14120727e-02 1.76659692e-02
    -3.15046916e-03 1.76437153e-03 -7.70146446e-03 1.07200276e-02
    -4.22349200e-03 -6.87694969e-03 -3.56402318e-03 1.33050196e-02
    2.32801787e-04 4.42384370e-03 -1.27642276e-02 -8.02128762e-03
    2.49277111e-02 7.52103887e-03 -1.20996719e-03 -1.46449432e-02
    -6.50426155e-05 -2.59758648e-03 -1.72222871e-02 -4.30605141e-03
    -1.19647291e-02 -8.82681366e-03 1.12068304e-03 2.46583880e-03
    -2.02887114e-02 6.87890220e-03 5.02847647e-03 1.11343979e-04
    -1.72223505e-02 -4.33469843e-03 9.99428798e-03 1.12309551e-03
    -1.66519471e-02 1.61018304e-03 -9.88225220e-04 7.33230449e-03
    -1.60756940e-03 -5.48761245e-03 3.29353963e-04 2.08049957e-02
    7.45728705e-03 1.12492777e-03 1.99828719e-04 8.84650834e-03
    1.06435250e-02 -2.34106742e-03 -2.30164427e-04 -6.72000088e-03
    -2.86096893e-03 -8.69811702e-05 5.82272594e-04 -9.23556555e-03
    1.01323016e-02 5.72117860e-04 -1.19030504e-02 -9.77752544e-03
    7.47603015e-04 2.77921412e-04 8.60188715e-03 -1.45480409e-02
    3.03504610e-04 4.64202836e-03 -1.47291515e-02 -9.42426827e-03
    -1.61359310e-02 -3.19926161e-03 -1.92459337e-02 -1.37842335e-02
    8.98920372e-03 -6.57127239e-03 2.14001425e-02 1.17805423e-02
    1.00130243e-02 6.19538315e-03 2.43823137e-03 -7.86332227e-03
    -1.40587017e-02 -1.03894901e-02 4.88408329e-03 2.52392013e-02
    2.61709420e-03 -1.81248374e-02 -4.81574237e-03 -2.77681765e-03
    6.09723432e-03 2.66368850e-03 -5.20313508e-04 9.49750596e-04
    2.18300708e-02 -9.78373643e-03 -1.07989442e-02 -5.70537150e-03
    1.45117026e-02 -8.49097781e-03 -8.91505927e-03 -2.45537199e-02
    -2.03053616e-02 7.25123053e-03 -2.10172161e-02 -1.11021008e-02
    -3.37798591e-03 -1.09381378e-02 -8.72101821e-03 -2.15319190e-02
    1.73813794e-02 3.33858989e-02 1.06908623e-02 1.89321488e-02
    -5.36230300e-03 1.45744691e-02 6.91896351e-03 1.82055384e-02
    1.06469411e-02 7.28471531e-03 -3.08966823e-03 -2.11266745e-02
    -6.49613701e-03 -2.14863680e-02 4.28862375e-04 4.81254375e-03
    1.23369088e-02 -4.40076552e-03 -3.81105288e-04 -1.52740104e-03
    -1.99207221e-03 -8.59864615e-03 6.84556132e-03 2.33379286e-02
    2.95302365e-04 5.45012590e-04 -4.49835934e-05 -1.12779262e-02
    -1.83230694e-02 -2.18411698e-03 -9.40810330e-03 -1.62376035e-02
    -1.30750053e-02 -8.93054157e-03 -8.94514658e-03 -7.94204790e-03
    1.69675071e-02 2.74515357e-02 -2.70320196e-03 2.22124578e-03
    1.54776350e-02 2.41529718e-02 8.21533427e-03 9.56970965e-04
    3.76494881e-03 1.08238226e-02 1.30010666e-02 -1.09672472e-02
    1.15141890e-03 -7.30880117e-03 -1.25899201e-03 -1.17403490e-03
    -5.01480605e-03 -4.45933640e-03 -1.46841090e-02 1.65845733e-03
    -3.59211583e-03 1.68335484e-03 1.37944072e-02 1.68118048e-02
    4.76649450e-03 -4.14277473e-03 -1.14276670e-02 -4.71294532e-03
    -2.94296700e-03 -1.16647966e-02 -6.13101572e-03 -5.09766070e-03
    -1.32635050e-03 -6.66285818e-03 2.13558064e-03 -2.91650323e-03
    1.74254663e-02 1.66344345e-02 4.89972765e-04 -1.28553016e-02
    8.82537104e-03 4.74871136e-03 8.51624832e-03 -8.79106671e-03
    -2.35242443e-03 7.00857677e-03 -8.16620700e-03 -4.32064990e-03
    1.83068421e-02 3.98933329e-03 6.45911600e-03 -1.73740438e-04
    -1.38019631e-02 -1.99067220e-03 7.45330611e-03 8.75223242e-03
    -1.33912847e-03 2.19973596e-03 5.16799651e-03 1.77872274e-02
    -3.73254088e-03 -1.65592618e-02 -5.14848251e-03 2.01568613e-03
    1.67621556e-03 -8.61645024e-03 5.99594833e-03 -1.34078739e-02
    -2.78653140e-04 -1.53669817e-02 -2.20177267e-02 -2.29003113e-02
    1.91468149e-02 2.09881887e-02 1.81702655e-02 -1.65824313e-03
    -9.68817808e-03 1.23213846e-02 1.05356975e-02 1.19733503e-02
    -4.63202782e-03 -3.96784628e-03 -6.74263621e-03 -1.34900808e-02
    -4.87202127e-03 -4.34014742e-04 6.49287226e-03 1.36844162e-02
    -6.46221777e-03 -7.51307514e-03 8.57208576e-03 1.92923974e-02
    -1.82060490e-03 -1.06147379e-02 1.43771656e-02 -2.50336225e-03
    -6.88830437e-03 6.58000167e-03 -1.15064653e-02 -1.09895431e-02
    -7.21849874e-03 -1.36522753e-02 -5.43440320e-03 -6.60570664e-03
    5.87435393e-03 6.25917828e-03 -1.56759843e-02 -2.51381304e-02
    1.70459365e-03 -1.02446638e-02 -8.37070693e-04 1.93317495e-02
    2.85041630e-02 2.89171730e-04 -2.02489644e-02 1.11070052e-02
    2.72635333e-02 4.18234570e-03 -1.47760035e-02 -2.96324608e-04
    2.29649507e-02 9.73799080e-03 9.00164712e-03 1.24630481e-02
    1.38969701e-02 1.80280469e-02 -5.77946985e-03 -7.33326096e-03
    1.18354047e-02 -8.27437639e-03 1.29821869e-02 -1.07911946e-02
    -2.07722709e-02 -2.48714583e-03 -1.90859276e-03 1.06600703e-04
    -7.33983424e-03 9.46936943e-03 4.97241737e-03 -1.38346560e-03
    -1.51266949e-03 1.52042331e-02 -1.03887198e-02 3.67747317e-03
    6.08707406e-03 1.36397104e-03 9.05857794e-03 8.59787967e-03
    4.67430288e-03 9.98068694e-03 3.62987118e-03 2.93700676e-03
    1.10423770e-02 7.20162597e-03 3.48721660e-04 -2.19744816e-03
    2.41279975e-02 7.55009009e-03 8.98541603e-03 1.99084096e-02
    1.46240052e-02 -1.50317163e-03 -9.43211559e-03 6.52119750e-04
    -5.90810319e-03 -3.70811089e-03 1.63595844e-03 -2.94139562e-03
    1.17624188e-02 -1.29467323e-02 5.86064649e-04 -1.76920686e-02
    -7.37288268e-03 -4.10680613e-03 9.82083846e-03 -1.67181541e-03
    6.19992986e-03 -3.07155168e-03 -9.38610989e-04 -1.71371375e-03
    6.65859878e-03 -2.05661263e-03 4.69918875e-03 1.63418874e-02
    4.97553032e-03 -1.10035995e-02 -8.23272206e-03 -5.66450786e-03
    -6.61339471e-03 4.83476976e-03 2.35971995e-03 9.42398328e-03
    1.35701960e-02 7.74568971e-03 -4.58804471e-03 8.91546533e-03
    1.21047059e-02 2.82458705e-03 -1.39709711e-02 -4.58793156e-03
    -1.41264917e-02 5.45097981e-03 6.16297917e-03 -2.19430812e-02
    -1.36366878e-02 -7.09997024e-04 -1.76141635e-02 -3.68524180e-03
    1.50697795e-03 7.86051503e-04 -3.62571399e-03 -5.08387992e-03
    -1.33407256e-02 -5.89193637e-03 -6.34070765e-03 -8.46774410e-03
    2.92100827e-03 -1.75432349e-03 -1.37238321e-03 -2.92210933e-03
    -9.26521327e-03 4.58691595e-03 1.64167956e-02 9.34993755e-03
    1.93885975e-02 1.89488241e-03 7.31119871e-05 -1.64609570e-02
    -1.04637221e-02 -9.79423430e-03 -4.31698794e-03 3.50755895e-03
    -6.74849562e-03 8.05014651e-03 -1.31477043e-02 -1.21243149e-02
    1.01105832e-02 1.74072362e-03 -1.27309244e-02 5.91153000e-03
    -6.65454427e-04 -1.21980775e-02 -7.51690299e-04 -1.19986869e-02
    -1.02502787e-02 6.89623877e-03 2.25442951e-03 -8.26225965e-04
    -2.15043779e-02 -9.22906026e-03 -1.39721334e-02 -7.04004942e-03
    1.89190321e-02 2.49243919e-02 1.23858610e-02 -3.97400698e-03
    -1.49251847e-02 -6.10052142e-04 1.47711998e-02 4.97562159e-03
    8.48466810e-03 2.53447844e-03 -6.76016905e-04 4.88872593e-03
    -1.17348768e-02 -1.33072846e-02 6.29011542e-03 -8.10792018e-03
    -7.89349619e-03 3.47667919e-05 2.44107959e-03 -1.42232692e-02
    -1.17916120e-02 -4.01015021e-03 2.45609763e-03 -2.26577441e-03
    4.37158253e-03 -5.21336822e-03 -7.84357172e-03 -3.70888994e-03
    -6.93549868e-03 1.09333964e-03 -1.43042430e-02 -1.22525273e-02
    -1.64148907e-04 -1.02034025e-02 -1.87561400e-02 -9.26577579e-03
    1.53712453e-02 1.64062697e-02 1.42472936e-02 -1.38564873e-03
    2.22465657e-02 2.25437172e-02 1.16741825e-02 6.32452220e-03
    9.40061919e-03 9.94387921e-03 -8.43786285e-04 2.17232198e-04
    4.79260972e-03 -1.69759020e-02 -4.60333144e-03 6.30475022e-03
    -7.95783766e-04 -3.43694212e-03 -8.02068599e-03 9.00273956e-03
    8.79643764e-03 1.19562075e-03 1.98156689e-03 -3.81999975e-03
    1.49285625e-04 -6.02191128e-03 -4.78478149e-04 -1.16374753e-02
    -1.17722643e-03 -1.09043270e-02 -3.82106798e-03 -1.71051584e-02
    -1.78227189e-03 -8.19874369e-03 -1.75535660e-02 -9.82745085e-03
    1.55186662e-02 3.12861688e-02 1.67481918e-02 1.77908540e-02
    4.87591932e-03 1.50347464e-02 -1.14367239e-03 -1.73300959e-03
    6.57575438e-03 9.05041210e-03 -1.10236546e-02 -3.09033494e-04
    3.31207714e-03 -1.68759737e-03 1.23769194e-02 -3.91168613e-03
    9.33058653e-03 1.74317472e-02 6.20182743e-03 1.79327372e-02
    3.19025223e-03 6.64325478e-03 7.31941126e-03 2.91881058e-02
    3.65899364e-03 -2.36657094e-02 -5.13733132e-03 -1.57089289e-02
    -1.49026811e-02 -2.53774524e-02 1.08579258e-02 -1.04702148e-03
    1.05361817e-02 -1.36808408e-02 -1.50586525e-02 -1.72224902e-02
    1.03020035e-02 -1.61052006e-03 1.96029227e-02 3.69063369e-03
    6.75238809e-03 7.67243095e-03 -6.62290840e-04 4.63475706e-03
    1.73588526e-02 -1.40627683e-03 4.49114060e-03 -1.75328297e-03
    1.25344647e-02 -1.23195993e-02 2.78127263e-03 -7.10614957e-03
    -1.01244655e-02 -1.15352552e-02 -3.50651448e-03 -1.51383635e-02
    -1.29488213e-02 -3.40545485e-05 1.04275821e-02 1.25398925e-02
    -1.98413874e-03 -6.86432514e-03 4.57794173e-03 -1.51050622e-02
    -2.49501728e-02 -2.68316511e-02 7.89138395e-03 9.44158714e-03
    5.73063176e-03 3.17404931e-03 -1.41608519e-02 -4.98629874e-03
    1.23304566e-02 2.42017545e-02 1.43435216e-02 -5.56058623e-03
    1.59271737e-03 2.14577615e-02 3.55491429e-05 7.94618670e-03
    4.82645025e-03 3.06822406e-03 1.36459116e-02 -4.03447170e-03
    -7.16638379e-03 -1.04296682e-02 4.76575643e-03 -1.40322959e-02
    -8.20710789e-03 -2.66041025e-03 -6.88936841e-03 2.52481643e-03
    -7.11029442e-03 -4.87400033e-03 -9.16195475e-03 2.87229251e-02
    -3.17598856e-03 -4.60217148e-03 -3.87866225e-04 -4.98596299e-03
    3.10524320e-03 -5.19487774e-03 -1.62157626e-03 1.36723639e-02
    1.63101498e-02 -1.82149969e-02 -1.04136448e-02 -3.10124434e-03
    -6.15533791e-04 -5.57259284e-03 -4.37126122e-03 -1.53235039e-02
    2.23784987e-02 -6.44648273e-04 -1.19251227e-02 5.58429770e-03
    1.44636426e-02 8.32525175e-03 2.72897398e-03 6.76884782e-03
    2.20813532e-03 1.68098155e-02 -2.51798541e-03 3.34659824e-03
    8.95342615e-04 2.99892630e-02 -1.91044081e-02 -1.23039195e-02
    -5.56432921e-03 9.09282546e-03 1.36528979e-03 9.86149721e-03
    -3.78452218e-03 3.40321730e-03 -8.92825704e-03 4.26219404e-03
    -1.60552301e-02 -1.57018881e-02 8.68669432e-03 -2.92595709e-04
    6.37183525e-03 3.30308708e-03 -6.63119461e-03 4.29618824e-03
    1.64726153e-02 1.65115781e-02 1.45536959e-02 -1.09838871e-02
    -4.89347102e-03 -1.58376116e-02 -6.02814602e-04 1.09292672e-03
    1.67214088e-02 1.06326556e-02 2.01330949e-02 8.40641651e-03
    1.21857943e-02 -6.23344153e-04 8.44217779e-04 1.03456983e-02
    2.99876276e-02 2.50870753e-02 6.82556350e-03 -8.32106918e-03
    -3.98024404e-03 4.41625435e-03 -3.79765965e-03 -1.68807097e-02
    -6.93295198e-03 -1.11124627e-02 -4.66756988e-03 -9.86778829e-03
    -2.83289608e-02 -1.62662063e-02 3.46376700e-03 2.00327579e-03
    3.48422374e-03 -6.56608865e-03 -8.88185948e-03 -7.05870241e-03
    1.30585367e-02 2.52654747e-04 -6.55332720e-03 -4.57919622e-03
    -4.93599474e-03 -1.69447213e-02 -7.63770950e-04 1.30691146e-02
    2.06158347e-02 2.95045860e-02 6.63124165e-03 6.66480977e-03
    -5.33310790e-03 6.46772655e-03 -1.72031932e-02 1.51327942e-02
    3.30552235e-02 2.95329355e-02 -4.42015240e-03 -9.44889151e-03
    2.26019605e-04 4.18646354e-03 2.43641203e-03 8.82447697e-03
    -7.48898461e-03 -2.57758573e-02 -1.52197639e-02 -9.55258403e-03
    4.24637459e-03 -6.62421621e-03 -8.08886345e-03 1.49499243e-02
    -1.52689591e-02 -1.71584846e-03 -1.50341308e-02 -8.09255429e-03
    1.00421784e-02 -3.63455783e-03 5.53414039e-03 8.75964295e-03
    -3.98632139e-03 -7.11610261e-03 6.83235191e-03 1.08578326e-02
    1.99447423e-02 -2.19533104e-03 -7.21941749e-03 3.98158189e-03
    1.07615557e-03 3.00897099e-03 -1.73752569e-02 -5.93123550e-04
    -4.02187463e-03 1.25274388e-02 -1.01435706e-02 6.68092445e-03
    -2.03319844e-02 -5.19554270e-03 -9.85324103e-03 5.12480270e-03
    -4.54742665e-04 -2.36587436e-03 -8.64598993e-03 -4.19590017e-03
    4.52918652e-03 3.05860816e-03 -9.71783884e-03 -1.36017529e-02
    -1.20041100e-02 -1.44613842e-02 -4.21329541e-03 -9.28694196e-03
    3.09543181e-02 1.24182515e-02 6.47204975e-03 5.36604831e-03
    3.95289902e-03 -7.10838381e-03 -5.13269473e-03 -1.68653240e-03
    6.78228913e-03 1.44874407e-02 -1.91825093e-03 -9.58454609e-03
    -8.59261770e-03 -8.63853376e-03 5.58192609e-03 -1.20347152e-02
    -7.68889068e-03 3.80284316e-03 1.59851741e-02 1.40911089e-02
    -8.99417978e-03 -1.21941185e-02 -4.41389065e-03 1.00708613e-02
    5.39925275e-03 7.99663924e-03 7.34512229e-03 -4.27285908e-03
    -4.68992349e-03 -5.17204124e-03 2.73245550e-03 -1.59212630e-02
    3.62494611e-03 -1.31153418e-02 -1.41111333e-02 -1.83083676e-02
    1.42629864e-02 1.67444665e-02 -2.29677698e-03 -2.97101983e-03
    1.40706524e-02 -2.29479023e-03 -8.14853143e-03 2.83401180e-03
    9.19837318e-03 2.56239227e-03 1.93051016e-03 -8.08528624e-03
    -3.64394672e-03 1.25463691e-03 7.50390813e-03 -8.65617115e-03
    -6.95882505e-03 5.13217936e-04 3.84854595e-03 2.30179657e-03
    -4.04742360e-03 3.73735093e-04 1.14520388e-02 9.24491696e-03
    -1.14664817e-02 2.02245242e-03 2.74355360e-03 7.72240222e-04
    -6.34926185e-03 -2.58727334e-02 -5.08521916e-04 -7.53712654e-03
    9.59952082e-03 -1.38349952e-02 3.98263510e-04 9.90147423e-03
    1.26208141e-02 3.27632129e-02 7.22666690e-03 -1.58270486e-02
    -3.92345665e-03 1.62925385e-02 4.76374524e-03 -1.07701290e-02
    9.58250929e-03 1.05889132e-02 1.49568729e-02 1.03600584e-02
    -3.22039914e-03 -7.54977111e-03 6.60525355e-03 6.17973367e-03
    -5.50335459e-03 2.96513923e-03 1.31771499e-02 1.62826162e-02
    -2.30578869e-03 -1.90020690e-03 1.04614962e-02 5.26885595e-03
    -4.73865680e-03 -1.05767213e-02 2.85755005e-03 -1.09355394e-02
    -8.57646670e-03 -8.11489951e-03 -1.13791013e-02 -9.44820978e-03
    1.54094864e-02 -3.19555262e-03 -3.95908300e-03 -1.39322169e-02
    1.56025412e-02 1.52918398e-02 8.64548329e-03 -2.72886176e-03
    2.54438072e-03 3.18802963e-03 6.18316326e-03 -1.36080408e-03
    1.29731372e-02 -7.19582057e-03 -2.42011459e-03 -5.90187381e-04
    2.35061278e-03 -5.16556529e-03 -1.16868271e-02 -6.78323954e-03
    -1.51028614e-02 2.08593323e-03 2.08013281e-02 3.64322797e-04
    -2.72962824e-03 -2.44209892e-03 -5.08790324e-03 1.27936974e-02
    -1.27972700e-02 -8.24734289e-03 5.80826262e-03 -1.45334098e-02
    -1.67412236e-02 -1.41559374e-02 1.04372725e-02 -7.44251115e-03
    -1.06065329e-02 -1.99074633e-02 -2.39024032e-02 -1.54519742e-02
    1.39076868e-02 2.07856577e-02 1.87043380e-02 4.40515950e-03
    -5.56632690e-03 1.45533343e-03 8.01655464e-03 7.06967199e-03
    1.33434795e-02 5.50012151e-03 9.29685961e-03 -2.56666332e-03
    2.28142459e-03 7.03533692e-03 -8.18611297e-04 -1.51121365e-02
    -9.80177522e-03 -7.09878048e-03 -1.60023682e-02 5.24085620e-03
    1.11941677e-02 2.56548193e-03 5.27187297e-03 -5.06447395e-05
    8.95921141e-03 2.78984616e-03 -4.88245860e-03 -1.34328324e-02
    -1.72059368e-02 -1.93659887e-02 7.06948433e-03 -1.65920309e-03
    -2.39815400e-03 -7.50069332e-04 -8.56790971e-03 -4.55600489e-03
    -1.06124105e-02 -1.22780325e-02 -2.08371785e-03 -3.46851139e-03
    4.32918826e-03 -4.49978700e-03 1.04142111e-02 1.08363722e-02
    6.56274799e-03 2.20986065e-02 9.49290209e-03 8.49418994e-03
    1.84221324e-02 1.58929862e-02 -3.06747109e-03 3.46884434e-03
    -4.47638537e-04 9.48008243e-03 7.60230701e-03 -5.92335081e-03
    -2.29634959e-02 -8.10420979e-03 1.56946853e-02 -2.55083404e-02
    -1.25838257e-02 -1.40204998e-02 3.48416786e-03 -1.46433304e-04
    -1.77194308e-02 -2.16982402e-02 -5.50228870e-03 -4.94981743e-03
    -1.55873522e-02 5.02594188e-03 -4.82473755e-03 -3.66355060e-03
    5.23111224e-03 -2.19312981e-02 2.32858979e-03 6.81093195e-03
    1.30044750e-03 -1.66584458e-02 -8.06209911e-03 -2.60809413e-03
    8.01508594e-03 9.11272224e-03 -7.65347341e-03 1.27866678e-03
    8.26620031e-03 2.66085984e-03 1.40480348e-04 9.02100466e-03
    1.40891280e-02 1.52861392e-02 -1.14950668e-02 -8.88751727e-03
    -6.30106544e-03 -3.01400898e-03 -5.63312555e-04 -1.51529983e-02
    -3.60592455e-03 -1.56254340e-02 -1.06579270e-02 -1.22126117e-02
    1.09849814e-02 -1.73864774e-02 -6.85401866e-03 -8.99277907e-03
    -2.88448017e-03 3.31504084e-03 -4.72738128e-03 -2.66724429e-03
    1.24892117e-02 3.83451325e-03 8.80368985e-03 8.04187451e-03
    -9.61221475e-03 9.26804263e-03 -1.73669017e-04 5.68713178e-04
    1.19250119e-02 1.65032372e-02 -5.12331212e-03 1.51871620e-02
    -7.02130701e-03 1.33115575e-02 7.78289139e-03 6.58925856e-03
    6.33895071e-03 7.29475683e-03 -7.23471213e-03 8.55888892e-03
    -5.00003761e-03 6.84494898e-03 -9.70015768e-03 -4.46373830e-03
    -8.76691192e-03 -5.91492141e-03 -6.50305487e-03 -1.89078655e-02
    -1.36838248e-02 5.83992805e-03 -2.93235551e-03 -5.02202613e-03
    -7.57643022e-03 2.04396099e-04 -6.80507568e-04 -5.47434343e-03
    1.59910396e-02 2.62454804e-03 -3.47187999e-03 -1.77271459e-02
    1.88502781e-02 7.02598877e-03 4.10224870e-03 7.38847535e-03
    7.99703412e-03 7.84382597e-03 6.93909684e-03 8.11719988e-03
    2.35955813e-03 1.31407902e-02 -2.98931636e-03 -2.71421159e-04
    -3.64504615e-03 -6.89580617e-03 5.15278953e-05 -2.06620023e-02
    -2.24246141e-02 -4.77367127e-03 1.04281856e-02 8.48809164e-03
    -2.32355529e-03 2.53188610e-03 1.74435752e-03 4.32172819e-04
    -7.93265086e-03 1.27146614e-03 -6.67636469e-03 2.70194607e-03
    -1.33887364e-03 -1.24177597e-02 -2.23745611e-02 -5.28797135e-03
    9.21808649e-03 1.13014020e-02 3.60249600e-04 -7.62480870e-03
    7.09456438e-03 5.08547015e-03 4.46375366e-03 -6.04257500e-03
    -4.52670222e-03 -1.99363660e-03 1.09012723e-02 2.91732438e-02
    4.13418701e-03 -1.05951633e-02 -5.70882065e-03 -1.27643289e-03
    7.65829673e-03 -5.77827776e-03 1.08460151e-02 -1.77557056e-03
    1.10496888e-02 9.36085917e-03 6.81445142e-03 2.70574307e-03
    -7.10303988e-03 -8.32650252e-03 1.07911816e-02 5.71626704e-03
    -1.59146655e-02 -3.57467844e-03 -1.54650807e-02 -1.22472853e-03
    -2.58306460e-03 -2.43501272e-03 -7.41306983e-04 1.27211930e-02
    1.99376624e-02 -8.49375036e-03 2.20613647e-03 -7.96583854e-03
    1.72695871e-02 -1.18864264e-05 -1.53273921e-02 5.47314528e-03
    8.22045375e-03 1.34954546e-02 -1.82451475e-02 -1.02249216e-02
    4.10263147e-03 1.29722776e-02 -1.79723615e-03 -6.04448328e-03
    -2.83536548e-03 1.12934373e-02 5.83709078e-03 -7.10865483e-03
    2.59638801e-02 7.39002554e-03 9.94134508e-03 2.07989868e-02
    3.32903932e-03 9.84376762e-04 3.29200970e-03 -1.54708349e-03
    -1.63273774e-02 1.15032084e-02 1.52037432e-03 -1.51313934e-02
    7.82145746e-03 -4.66833031e-03 -7.27759767e-03 -1.12254685e-02
    2.50411276e-02 6.68690447e-03 -3.92209692e-03 7.55918818e-03
    1.13271493e-02 9.08508198e-04 8.96983687e-03 -1.00838933e-02
    7.53479777e-03 4.26375587e-03 -4.20384528e-03 4.11109347e-03
    1.55052077e-02 3.29494500e-03 9.19183530e-03 9.83749609e-03
    -5.68332803e-03 -3.19321221e-03 1.45392362e-02 6.46726182e-03
    1.07616857e-02 1.12602571e-02 -8.91375728e-03 -5.53950667e-04
    -1.10864884e-03 -9.91518982e-03 1.34608801e-02 -1.28016360e-02
    -2.43904442e-02 -1.61269344e-02 1.31790414e-02 -5.00449771e-03
    -4.86543588e-03 2.33636540e-03 -1.03064133e-02 -6.26974972e-03
    1.63467340e-02 4.37832111e-03 1.75666326e-04 5.40211191e-03
    -1.11565914e-03 1.51341977e-02 8.81008990e-03 4.17005550e-03
    5.63600566e-03 7.03485799e-04 -1.93047393e-02 -2.35324800e-02
    5.98520797e-04 2.43059080e-03 2.80170375e-03 -8.06073565e-03
    -8.17980990e-03 5.40383812e-03 4.54043318e-03 -5.46766073e-03
    6.57057762e-03 1.36987604e-02 7.68446224e-03 -3.62768024e-03
    2.31150817e-03 -9.49070416e-03 2.53571221e-03 -6.56423857e-03
    -1.54052041e-02 3.10674426e-03 1.19194919e-02 1.19950809e-02
    2.68413196e-03 -2.48289090e-02 -2.32576504e-02 6.77707198e-04
    1.16599668e-02 1.54416151e-02 -5.32707572e-03 -8.50803033e-03
    3.48678659e-05 1.22539827e-03 -3.03356815e-03 9.18516424e-03
    2.55122595e-02 1.72223169e-02 3.55212623e-03 1.50119798e-04
    1.42234834e-02 -4.74304799e-03 2.49292771e-03 -1.34033645e-02
    -1.70885399e-02 1.44981248e-02 6.93343114e-03 1.31301591e-02
    1.55641576e-02 4.76975460e-03 2.28028428e-02 -8.66699312e-03
    -1.59593858e-02 1.02015049e-03 1.51730776e-02 7.03276135e-04
    -1.40029646e-03 -2.83901556e-03 1.24984672e-02 -5.64633403e-03
    -1.71007006e-03 -1.65237412e-02 -2.30627395e-02 -1.14552220e-02
    -8.33212376e-01</SVMDetector></hogsvm_80_16>
</opencv_storage>
